encog,BasicNetwork,java,3.4.0,1,63716621741459
[BASIC]
[BASIC:PARAMS]
[BASIC:NETWORK]
beginTraining=0
connectionLimit=0
contextTargetOffset=0,0,0
contextTargetSize=0,0,0
endTraining=2
hasContext=f
inputCount=57
layerCounts=2,88,58
layerFeedCounts=1,87,57
layerContextCount=0,0,0
layerIndex=0,2,90
output=0.961027133571887,1,0.128766783989524,0.868901123025584,0.999999945970866,0.627349063179272,0.996651323742533,0.996959916925515,0.996932985781176,0.0355164601206411,0.821088250696585,0.606949190799946,0.999700528077395,0.473451997656783,0.00738108070116363,0.260215783585521,0.596683246781668,0.545964460249038,0.998719706604297,0.859030564167221,0.423084889297858,0.997524117134086,0.525326506467976,0.00884834420336485,0.959771208309311,0.954870090911266,0.00431895421561128,0.999995904118275,0.00830655617715904,0.241583450709826,0.00072866576817751,0.963066779284766,0.994221209190551,0.0693133808109672,0.640283495630546,0.444651007215961,0.995847352301174,0.999998645609256,0.532550427127445,0.999999999788792,0.0000125636119013236,0.00187893032528476,0.999809394506769,0.999522667815551,0.999728315478465,0.487112395482872,0.236541771810806,0.000822480344507911,0.0684538716224526,0.979245246244067,0.700269315512724,0.464542254307955,0.00107235305884875,0.112344979267346,0.999986934419905,0.975478114305956,0.918980862456126,0.12789922827212,0.124950379115305,0.0000395285150931839,0.522579047478607,0.0000381178102649664,0.930449958385101,0.00358680981952083,0.999943059021445,0.395477320256472,0.680943351737718,0.000841685117248587,0.725250319781491,0.512811505119033,0.797918281682922,0.883332797033109,0.0668948536977423,0.574285860384258,0.998869449988259,0.945113903699945,0.855609128003118,0.0725477221529509,0.975354405637638,0.997093351369146,0.19846551070873,0.00246957233119169,0.999993294746602,0.180357988528274,0.0278475395200427,0.0873149419521659,0.334219706590687,0.136123544213589,0.150029595751504,1,1,1,1,1,1,1,1,1,1,1,1,1,1,1,1,1,1,1,1,1,1,1,1,1,1,1,1,1,1,1,1,1,1,1,1,1,1,1,1,1,1,1,1,1,1,1,1,1,1,1,1,1,1,1,1,1,1,1
outputCount=1
weightIndex=0,88,5134
weights=##0
##double#5134
   -1.4786984424,-1.2185944232,-1.0275914377,0.7462855443,-0.8167115304,0.8704720982,-0.7356049195,-0.803278274,0.4618420344,1.1180589515,-1.5437000778,-0.9623712296,-1.126215473,0.304686215,1.7011539954,-0.9995747695,0.8737109688,0.8518211325,1.3076266209,0.1375307454,2.0446373881,-1.5640930311,-0.6602327616,0.4786727571,0.8282602956,1.0246591886,1.1293424179,-0.7705618405,-0.8487213736,0.4771560673,0.9915384261,0.7692990978,0.4080771428,-1.4861394837,-0.9426176841,-1.9062762496,-0.7190071876,-0.9787416915,0.4477386105,0.9831218123,2.6968419219,-0.856392749,-0.9422724666,0.9353949521,1.4737250776,-1.0117606538,-2.8081032783,0.6157360616,1.1945351013,-1.6783831491,0.4584885048,-1.6070057552,6.1560554061,0.6514489736,0.6571451719,0.8732029807,-1.3596652583,-4.7159453081,1.2755925776,0.7047355079,0.9256882333,-1.3257112903,0.8371833353,-2.9942647186,-2.2920874807,-2.9510459139,1.1261047967,0.781318979,1.0540051012,0.4082145974,2.4923088151,-1.2389822305,0.889071527,-1.0490945562,1.3991440834,1.3352703116,-2.4175358514,-0.7948576733,-0.1109146526,-1.4182409308,1.1156907735,-0.3951844126,-1.4414548513,0.6952731295,-1.9171337242,1.1727093827,-1.0445404906,-4.0529019361,0.0856170774,-0.2844684354,-0.2994536993,0.1240284487,0.5157885437,0.0478883142,0.5866875172,0.0606537364,-0.0698209308,0.2734332492,0.6109099189,0.7372923917,-0.1132545286,0.6618710466,-0.6448025496,-0.834278468,-0.2412356583,-0.0538974171,0.0864925612,-0.703473416,0.2548280213,-0.3067220105,0.1673190314,0.122403663,-1.3056472304,0.4865342864,-0.4834295547,0.2492109925,-0.16094358,-1.5735690087,-0.0467186524,0.3762748618,0.6126701297,-1.2415714626,-0.7475625743,-0.1018252368,0.3680114318,-0.2402903655,-0.0766790491,0.147037131,-0.1428104238,-0.4845397094,0.1725826794,-0.6448830299,0.5754714685,-0.6784922895,-0.0375088251,-0.0687201393,0.1300390347,0.5402126913,0.1003221039,0.0255628607,0.5840008677,-0.1977172612,0.7518175212,-0.0130426973,0.2832171025,0.1501445082,0.6143539193,0.1761838709,-0.3705971159,0.2874838136,0.1768474981,-0.2867341451,1.2509695042,-0.0001134952,0.3592667807,0.7317544513,0.2169105844,-0.1323688384,0.6680717491,0.3935235219,-0.4777575174,0.83406891,0.5148835182,0.6127478209,-0.2885643087,0.1861613213,-0.1562966976,0.3345718977,-0.0119803017,0.5989307248,-0.1865763598,-0.5673708603,0.2585767626,-0.737725525,-0.7923162256,-0.9284667984,-0.3848486884,0.4831580699,0.5012259063,-0.5626694938,1.0692193859,0.3122431377,0.3743578023,-1.0449006998,-0.6770877395,0.4441648844,-1.3622813937,-0.9160860294,0.2633131988,-0.6440269767,0.0003434561,-1.0067786307,0.3539456889,1.3078252509,-0.8709084391,0.4804409075,-0.204646087,0.6649982521,0.0929124983,-0.0949861456,0.3353026569,-0.3853852086,0.717417451,-0.6350035367,-0.405096811,-0.8197941174,1.133941744,-0.1208713057,1.1369347152,-0.4735124081,0.0954366843,0.7358397413,-0.94448816,-0.1425993399,0.2241941429,-0.7312519223,-0.6395002715,0.4201884175,-0.079822642,1.3833863411,-0.2976085783,-0.4316851916,-0.0953917601,0.0716712535,1.4630088377,0.2371532442,-0.3596530009,0.8074961705,-0.5902993307,0.080541548,0.6219714041,0.4065240544,0.6029633274,0.5340500938,0.8877497379,-0.4161698077,-0.4339004804,-0.2372981716,0.6885278293,1.7308247558,-0.1181163303,0.0295676358,0.6311208034,0.7158400665,1.1591905489,-0.1161948851,-0.1322064985,1.2735514628,0.5494903887,-0.7227656024,-0.3446302911,-0.0452700046,-0.4606595731,0.5164820489,0.3665298732,1.0118190709,1.0454162947,1.1848238212,0.8078984113,1.043973444,1.1428328597,1.1483948813,0.4779703644,-0.8663051508,-0.2765041524,0.3723129206,-1.2391912258,0.6046809251,0.8169770493,-0.4216305181,-0.166851524,0.3781531442,-0.3055667696,-0.355471006,0.4858964933,-0.3811862701,0.0077993676,-1.0362135281,0.0325605006,0.575168607,1.611521641,0.5692824099,0.9049819464,0.1249747348,0.6437691669,-0.7874185634,-0.7580434497,0.183752643,-0.1677912878,0.422899279,0.2569502703,0.3272878581,0.7456436868,0.3811113089,0.6909368678,0.5144704877,0.3033022389,-0.9265965849,-0.8837129452,-0.097087401,-0.4246150899,-0.3348299016,0.5989183733,0.3564722175,-0.2403386013,-0.8558613849,-1.0965129348,0.3328699411,-0.3719349331,0.4945806389,-0.4446046268,-0.5256387113,-0.5432174494,-0.5098895682,-0.194578888,0.5500173347,0.5573476195,0.7052903342,0.6770780628,-0.9734052852,0.9957016915,0.7061188364,-0.0976354416,-0.2713711458,-0.6679358354,0.1969934098,1.4797150234,-0.2374363995,0.2335890864,0.5684492827,0.4460231719,-0.35490981,0.6001034733,-0.7328192209,-0.7596612718,0.0391817437,0.1354987797,0.588323833,-0.8113496475,-0.8043460791,-0.1346985602,0.0994989104,0.9030132659,0.2946407774,0.8033077613,-0.9006755428,-1.2316741044,-0.5129612802,0.2269530619,-0.8412083804,-0.2661031161,0.4616736618,-0.1335564405,-0.5367932707,0.6154081043,-0.2495803502,0.6375672968,0.5565984518,-0.3302567355,0.8001191068,0.6741156894,-0.2440987537,0.2003830523,0.4480702874,1.2204264356,-0.0194176921,0.770991054,-0.3667968176,0.1781742462,-0.2458228725,0.6094462792,-0.5670843076,0.4260656622,0.4442165462,-0.5097740992,0.3230820567,1.0472979616,-0.208460445,-0.4177960398,0.1083117756,-0.1525833251,0.3666178204,0.013151344,-0.2040479991,-0.7181010634,0.1100784432,0.6170066643,-0.5541465503,-0.1138858585,-0.0271934869,-0.1739541047,-0.6338555003,-0.7660988177,-0.0133621444,1.3290729393,-0.0717843547,-0.1125288373,1.1079116651,-0.0314313911,0.1783444724,0.2425554883,0.406566869,0.1582098515,0.5805598163,-0.1411234249,-0.0425185985,-0.3277965809,-0.6668302797,-0.2306979044,-0.3202818268,-0.4555584902,-0.8142446675,0.9061725318,-0.4844939209,-1.1893105254,0.3059677769,0.3236287112,0.1534053635,0.7027652025,0.9556275726,0.783370722,0.3447193197,-0.2986795429,0.8703282907,-0.1309626241,0.587966283,0.7511300685,0.296193183,-0.3120904862,-0.6471767844,0.3000456828,-0.4553773048,0.0639031028,0.6258932508,0.5738340268,2.5390758178,0.3004117199,0.6876940953,0.9397655226,-1.3252917028,-0.4925638432,-0.7951802088,1.2039182377,1.3013000514,0.9194039753,-0.1200812237,-0.4850058224,0.3843022547,0.2127730908,-0.2848911218,-0.6786984501,0.1195829414,0.0853743756,-1.3976850634,0.2829915494,0.0233473589,-1.1180133158,0.675099461,0.6591562116,0.4584637606,0.3039803149,0.3229605037,0.0197175767,0.1755945501,0.2873235156,-0.1554641165,0.9484071896,0.5142952588,-0.6632591514,0.5402491649,-0.113347429,0.8501103859,0.2208903061,-0.620309573,-0.1539815661,0.6486755116,0.5136375536,-0.381300714,0.6485641486,1.2801644631,-0.0620044141,-0.2225699845,-1.211850522,-0.448995914,0.6324201907,0.0282394547,0.7534448898,-0.6223500148,-0.1099358668,0.2834063714,-0.12131938,-0.216610861,0.751840201,-0.3956604743,-0.5925759742,-0.6719259267,0.069730273,1.0134578967,0.0812133994,-0.7678830822,-1.3880669231,0.1912442689,-0.756427827,0.7914592225,-0.3869423345,0.0207372085,-0.0552342341,0.2326534364,0.1842299975,0.9542264304,-0.0111750972,-0.3667598588,1.0805059319,0.3124086387,-0.3500147293,-0.6705699702,1.0142141967,1.1779572872,-0.1930677486,-0.1165408674,0.1977230174,-0.7696014082,-0.0098698879,0.1026787838,-1.5193609672,0.514650628,1.193778178,1.0810241245,0.2167098702,0.4742642996,0.2547144477,-0.2828890543,-1.087106379,-0.3564813729,-0.67088608,0.5189639135,-0.5135236886,-0.4840431575,-0.299405352,-1.267352216,0.0042866288,-0.5272539477,-0.261236412,0.5230439611,0.3026029129,-0.0180086589,-0.1431258105,-0.4104368271,-0.2335861995,-0.2022737091,-0.280562928,-0.1438771281,0.8877594762,0.8162118989,0.5208992631,0.2151161796,0.5590519963,-0.4696665903,-0.18708622,-0.1699075855,-0.5828171781,0.6124372214,-0.8516776681,-0.5660887714,1.119515156,0.9083887111,0.684645934,-0.2735773288,-0.3529461948,-0.5799011596,0.3808218267,0.6491524003,-0.5566154788,-0.7845256765,0.3195974546,-0.1826544799,-0.3005077041,1.2089361008,-0.3189802834,0.1075017925,1.12079702,-0.8745332358,-0.7373209841,0.3678376201,-0.8885470879,-0.5147630201,0.4166144205,0.0852264523,-0.2988440304,-0.2078839609,0.1538598715,-0.8193347723,-0.2584050618,0.414310484,-0.8277678012,-0.1597143537,0.1743944841,-0.2795232658,-0.4420677503,-0.2490796276,0.0656432831,0.1627639472,1.3285705439,-0.3784337337,0.7963505442,-0.6732206721,0.9728119938,0.0109230055,-0.6796734995,0.9301727936,0.1780709872,0.6742462252,-0.1469089633,-0.128865531,0.8226219047,0.140552903,-0.695959287,0.367591965,0.5477386019,-0.0690173067,-0.4593098115,-0.0419949563,0.2833889136,0.9927642097,1.1007473984,0.8503363402,0.3822092618,-0.1570870756,1.0874989933,-0.164533133,0.0278148143,-0.3469429703,0.1853819129,0.1259354497,-0.2217336762,-0.9660335891,0.8326232351,-0.0655973752,1.303709349,-0.4675249077,0.1305751496,-0.4910369092,-0.7477825496,-0.495399063,1.0304150722,0.2777142306,1.1157548411,0.0585547776,-1.4482243747,-0.9577329667,0.0337555446,0.0238923538,-0.5603839069,0.3972569135,0.5755844966,-0.4276568267,-0.8122870961,-0.6715019971,-1.3974809875,-0.2864972808,0.531533854,-1.2735387086,0.5728814069,-0.2597334694,-1.7004397182,0.6978601889,0.3242880043,0.2223560731,-0.3373663801,0.2498984899,-0.5717261676,-0.1845842994,-0.3828863052,-0.3144985446,-0.077068242,0.6469606854,-0.0063151281,-0.6350641973,1.4677411038,0.581934138,1.0080232005,-1.0036225036,-0.4380140201,-0.0490215612,0.221615738,0.2140632358,0.3527080772,0.7977420343,0.1323164263,0.4750747714,0.8248059992,-0.3479922905,0.6958400143,0.002178289,0.0595500895,0.3309642902,2.4595514916,0.1903221668,-0.5074178394,0.9654558684,0.4098700334,-0.5715258319,-0.0031602135,0.9797217887,-0.3409412437,0.1644928373,1.0265831838,0.2432549626,0.4199921322,-0.2029502706,-0.1740654515,0.8536190926,0.7082269439,1.0567623413,-0.6124288528,-0.0404441837,-0.6508392183,0.1426405839,0.2848032081,-0.2447316703,-0.54557931,-0.527051034,-0.8774559595,-1.0124227371,1.0481569191,-0.2422096649,-0.7137817996,0.4987906698,-0.6080422782,1.2179968444,0.3339170908,-0.3144668961,0.6300114592,-0.7820842713,0.7284527727,1.1597902844,-0.2960466238,0.13936347,-0.460314507,0.069345877,0.4223034649,-0.1201481186,0.6958965321,0.3844278831,0.9428097923,-1.0955930025,-0.596587403,-0.1223402796,-0.4344745441,-0.5504540123,0.9749675606,0.6148622864,-0.0734460678,0.1683285878,-0.5031755932,-0.3484546743,0.3606343036,0.3120450928,0.02651436,0.0257193066,0.2941913605,-0.4040429769,-0.2992895628,-0.532961143,0.2246800794,-0.9196987286,-0.2647186642,0.2490636404,-0.2290773282,-1.0854472571,-0.2245901568,-0.0589515229,-0.443238117,0.422313316,0.3443817077,0.0358426378,-0.8866229013,-0.2312997647,-0.2749232048,-0.0468956357,0.7173629491,0.8982052795,0.6578946172,-0.7353124309,-0.1968045436,0.406494397,-0.3792339333,0.4315943262,0.4097271944,0.3077287072,-0.2032522729,-0.4632385769,-0.0369542183,0.0976934739,-0.5308904682,-0.1166442807,0.1766409137,-1.694584498,-0.9386689185,0.607204315,-0.3985434105,-0.0218432669,-0.0205405036,-0.2311245042,-0.2790924235,-0.1089874198,0.0539998784,-0.3333972326,-0.1644886835,0.2473863742,0.7778580592,-0.8093611543,-0.0412119125,-0.451295558,-0.0385470117,-0.1431121166,0.4383333528,0.1412724963,-0.4847922145,0.4936729921,-0.8227113261,-0.1657861388,0.0208737708,-0.2658137968,0.3267971056,0.4739822005,-0.1309817659,0.1021097695,-0.0310366133,-0.1133511747,-0.2535032746,0.1581561956,-0.3725527262,-0.5288125985,0.4564684354,0.098461568,0.149767902,-0.1802221889,-0.3145532452,0.3917090907,-0.455862983,0.0538349176,1.2134636696,0.1677625293,-0.3218773734,0.0538432102,0.8686162997,0.0862992967,0.3434888822,-0.2665595055,1.3241909892,0.7336777001,-0.3512129472,-0.0502828099,0.6318451473,-0.5845405643,-0.169988238,-0.4351936873,-0.3215519358,-0.5212025362,0.0382972232,0.1449649182,0.9097728703,0.1790341288,-0.4261290689,-0.3897841954,-0.0966677238,-0.1688955061,-0.2249125231,-0.480159806,1.333352742,-0.1298113123,-0.8141603744,-0.7152456546,-1.0348641605,-0.3152923465,0.5087836026,0.0909380758,0.1937543078,-0.6229164492,-0.5370101821,-0.0517184962,1.0887792008,-0.67840072,0.9285449651,-0.4637218545,-0.3536834753,0.6479700007,-0.2056142997,-0.8940346985,0.1984813072,-0.2527349097,0.3703665514,0.935351945,1.0822330963,-0.6796413122,-0.5359773136,-0.5949903613,-1.1125922604,-0.3130802723,0.210014192,-0.0558709479,0.3149755366,0.5899981838,-0.8838219351,-0.0748777059,-0.1247673018,0.0455936636,0.1724516661,-0.0575693674,-0.1411448916,0.2173046755,-0.1818503519,-0.2742487641,0.0366938469,0.1771259738,-0.3819656195,-0.2776548489,0.2301289627,0.6854646458,0.5762892478,-0.1757170442,-0.3639103237,0.3890829942,0.14510491,-0.3410824206,-2.4323822192,-2.0434313645,2.3077498988,1.1779224402,0.9220969974,0.5658318443,-0.1391956607,0.039227304,-0.3440470405,0.7009172817,-0.7853535564,-0.1528176535,0.0650780817,0.6823014237,-0.1661198008,-0.6318968487,0.1275322834,-0.4099212602,-0.3576714989,0.3431157409,0.4621851894,0.0859871317,0.3832028838,0.0869286036,0.5276773239,0.1592556419,-0.1220551605,-0.2125296619,0.0836732616,-0.3174123663,-0.0666524978,-0.6043066445,0.4568608825,0.4242439013,0.1296603595,-0.2073197667,-0.0753579312,-0.1337501606,0.362891755,-0.1561629473,-0.0338661838,0.0878559496,0.845187407,0.2888665139,0.3959158882,0.3898905943,0.5235738826,-0.0784984293,0.4536256299,-0.567115974,-0.8838898128,0.4759019489,0.1551014434,-0.0640110611,0.5664524631,-0.6571414838,0.9217337797,0.1761764629,0.6205125135,-0.8497342163,-0.4015037237,-0.3986505365,-0.13018532,-0.1616313482,-1.2147429538,-0.5028441232,0.2266363255,0.0614057804,0.3645671603,-0.7459447066,-0.3415573694,-0.4342626831,0.3509972537,-0.9918629842,0.4825857361,0.264052849,0.431197356,-0.0285191029,-0.9342896599,-0.3961025567,-1.067697885,0.4181432069,0.0445909684,0.2973019036,-0.1482890629,1.3241187816,0.891066295,0.2305797106,-0.351741276,-0.5217320337,0.3522192076,0.0809152124,0.4587847724,-0.6914515606,0.0788531099,-0.4455489021,0.678715685,0.6459808483,0.2640803548,0.8313866333,-0.1982295396,0.8153660327,0.9996549178,0.7232866724,0.1591211011,0.0512876576,0.1447929658,-0.0394849551,-0.6791087296,-0.0270201415,-0.0961252024,0.748945618,-0.8312368806,0.2861077743,0.2514871515,0.3260748273,1.0024934614,-0.4017615897,-0.3736315999,-0.0885215189,-0.0406815613,0.1261743007,0.1796200595,0.6550130921,0.0601104615,0.8606294456,0.6061477235,1.2140300208,0.4489792406,-0.8406698578,-0.7011553512,-0.139579543,0.2786566015,0.0561431723,0.6080365275,-0.0732518707,-0.1255567528,0.3888391184,0.4283062081,-0.4944739377,-0.7342987853,-0.8620415582,-1.3655762007,0.6411128287,0.5461588239,-0.6166454235,0.0915571799,0.4339836518,0.1086264883,-0.1370722531,0.4827006262,0.6489393134,0.6787230372,0.0466711546,-0.5367988743,0.6933431921,-0.7781143608,-0.8151786931,0.4551764441,0.8219683929,-0.4106737716,-0.7090964281,-0.3101450492,-0.2808606791,-0.514978619,-0.0776344242,-0.4447903998,0.8386126013,-0.7657730741,0.1665781717,-0.9239887934,0.9018162328,-0.2884776388,0.6595139257,-0.9870630904,0.3355342695,0.8733625974,-0.3881272414,-1.498426046,-0.6158327426,-0.2374513463,-0.6049729173,-0.9402037747,-0.8032885264,0.5816214767,0.8226527232,0.2477841198,0.7390184652,1.1679138176,1.1399868381,0.3264407332,-0.4568079433,-1.2384232551,-0.2311289931,1.0447882778,0.7988603005,0.2806035,0.2542564233,-0.0906479,0.5171846535,1.0573823598,-0.1646647956,-0.0995457499,0.2933568409,-0.7027320079,0.8784250817,0.775277625,0.8004606658,0.2712533316,-0.6665347726,-0.215450175,0.2242555134,-0.2204644322,-0.3299993603,-0.3918056674,0.0558723817,-0.4348100388,1.1634593764,-0.1475828881,-0.1192916078,-0.6552323942,-0.4760279396,0.2265474975,0.2730939844,1.2933442466,1.7895209414,1.4400016419,-0.4046690565,0.4702329233,-0.5235454443,0.5494738516,0.1763196648,-0.8245983317,0.85397176,0.4165280483,0.8656257596,0.078333448,-0.146599104,-0.3220866056,-0.573114023,-0.8130080161,0.0381947917,-0.070744167,-0.2513196044,-0.1906125746,-0.7856467468,-0.494023406,-0.6165945456,0.6076102306,-0.6900506992,-0.9487455063,-1.5593104382,0.4331768145,1.4691964672,0.063010425,-0.2263234619,0.5074342128,-0.8711154929,-0.0243182545,-0.2034431217,0.4596345394,-1.1241757501,0.1298128402,-0.4229758165,1.0920297382,-0.1494343307,-0.809310773,-0.7067725863,-0.8010261903,1.1666607233,-0.0977908286,0.2045412321,-0.0902636777,-0.3817092698,-0.0795482926,0.1849096223,0.5360376697,-0.3864395626,-0.9137655273,0.3975582694,0.0836514167,0.3656802854,-0.7429505401,0.8286154844,0.8296857993,0.8656146711,0.4643734577,-1.3367233125,0.5038886986,0.710707658,0.0895398095,0.4135989475,-0.3735054676,0.2887976786,0.0424809679,0.7039643972,-0.7047403963,-0.2093888014,0.6533084606,0.063961541,0.3255097433,0.8103933923,0.0679454005,0.5999670124,-0.3588337443,0.6016918543,0.1526772445,-0.9573598363,-0.4011949679,-0.6423455979,-0.2357177734,-0.1776213203,0.4098013887,0.0431459922,0.6488062825,0.5625663364,0.1807086481,0.6733378562,0.5509814997,0.5511963734,0.3023906178,-0.4150961407,-0.0767662014,0.051989274,-0.2031471691,0.498765286,0.0517229028,0.6309616731,-0.0159567057,-0.2881796377,-0.481455609,-0.0770751221,1.1281881523,1.1744790319,0.8334802264,0.0323358389,-0.2335634917,-0.1993084619,0.6524735008,-0.0742579948,0.2366455764,1.692145269,0.57948024,0.0061901154,0.1498640962,-0.4068691612,0.0171096742,-0.0180992135,-0.2688222033,-0.2376412563,0.5869404057,-0.0169746769,-0.213184585,0.6096547425,-0.008224569,0.3877444386,-0.0937044764,-0.2715850159,-0.5990648724,-1.8559485851,-0.251675287,0.7222224522,0.2565051289,0.3479593019,0.8413316163,0.3358825495,0.0512116934,-2.1010679845,-0.5806882512,-0.3406791984,0.3201586042,0.5556667752,-0.284402187,-0.7251089139,0.0348986762,-0.0965363876,-0.1960373414,-0.0062242659,0.0002383797,-2.4648635882,-0.0244990035,-0.0058072712,0.2603850141,-0.8372777993,-0.3235352488,-0.4774129546,0.5619685644,-0.3931558322,0.0188885965,-0.1729618577,-0.1976884369,0.5789107039,-0.5201411435,0.3518398613,0.722364897,0.5227963066,-0.4595444444,1.0735118224,0.5491259042,-0.2826259485,0.0727620509,-0.1636024252,-0.0302079678,-0.1887172319,0.6471487228,-0.4423782311,0.3910065627,-0.5924214697,-0.1381897139,-0.3890912505,-0.3493506612,-0.1223387563,-0.5010809895,-0.054957902,-0.3153523361,-0.5717947233,-0.089209385,-0.0423494047,0.202018307,-0.2287422555,0.611718647,-0.356708872,-1.1067773213,-0.0243076943,0.0133370762,0.1479895985,0.0761027074,-0.4802333827,-0.2692008926,0.039325544,-0.1779279096,0.2624117367,-0.8168856531,0.2148096826,0.1759048286,-0.1079612313,-0.0431003614,-0.9111846829,-0.747487983,0.6807363918,-0.377721134,-0.6172689425,-0.569585103,0.3412651159,-0.0444055416,0.7950619835,-0.9519614454,-0.0575153571,-0.3362877194,1.1508608057,0.563988821,0.2337037031,0.322157633,0.138445127,-0.5430698882,0.07606849,0.7661189135,0.3043427569,0.3974571103,-0.5402629524,-0.3833926498,0.0091847682,-0.0132162017,0.5799089408,0.7280397262,0.1294575901,0.1279908728,1.0976114418,-0.5578075226,-0.5377829999,-0.9318575326,-0.4521025064,0.7364958525,1.2640153731,0.1567227419,0.3328725867,-0.4136140326,-0.9818963891,-0.4713882456,-0.139658783,-0.5517999155,0.8672343779,-0.1420828072,1.0829609244,0.8113037473,-0.6792604906,-0.3809930586,0.2295352525,1.08045756,-0.0131152785,-0.0910003182,-0.168285933,-0.6687306879,-0.1212784508,0.8316468772,-0.1816885051,0.0548321975,0.7205508742,-0.1575488075,-0.4398648865,0.3386383644,0.8576083743,-0.5171364151,-0.1164684845,0.8934399131,-0.6020996987,0.7978256079,-0.2289112241,1.0204419548,0.1522913906,-0.5893059794,0.9073686352,0.1625886801,0.4121312767,-0.876379824,-0.5701638594,-0.1786527497,-1.0894543371,0.6722288694,0.6059153618,-0.3625411132,0.704904087,0.7818853844,-0.8057142797,-1.0624955688,0.7877581585,0.9521356292,-0.4229444642,0.3571907106,-0.0957348706,-0.26240878,0.6469066711,0.9315001095,0.5955030097,-1.3240407871,-0.9459688368,0.897648402,0.4712056176,-0.4880160271,-0.9615668674,-0.1350242622,-0.7578612342,0.4549272043,-0.9598636614,0.2446355746,-0.8921756532,0.4423094825,0.4614691226,1.1238336682,-0.1170937234,-0.644633568,0.3184974135,0.842490301,0.045835229,-0.5293301637,0.0710713122,0.2652730544,0.1785277199,0.7050287215,-1.1798840028,-0.6937657128,-0.0926329778,0.4990246847,0.0522294501,-0.4925603069,0.8011283372,-0.8722637368,-0.2028770062,0.7154291932,-0.7418542183,0.5873957075,0.4306248049,0.9076458698,0.667789474,0.4738384286,-0.8355909414,0.0843126994,0.6942247173,-0.3116629003,-0.7936725181,0.1505942639,0.5922280543,-0.0178177968,-0.0854555901,0.8866105552,-0.2301395417,0.6819252237,-0.748989055,0.9345697829,-1.1008613911,-1.1041549093,0.0360935068,0.3675016376,0.06794413,0.0713035647,-0.0491609805,-0.5415810007,-1.0439312329,-0.4755767734,-0.5353385179,0.8820430865,-0.7459382508,-0.6948075701,0.2654803413,-0.5889545025,0.5353118434,-0.8357570625,-0.1018914157,-1.376441713,-0.1302418741,-0.5765532912,-0.3158241738,0.3986021155,0.4661419158,0.8102497878,-0.5436318948,-0.0448894301,0.6282615919,0.9396294057,0.7055603278,0.0379385136,0.265654982,0.2060291963,0.1243607443,0.4198441078,-0.4120639847,-0.2893650677,-0.1957544862,0.030263666,0.613700863,-0.5361184415,0.4018718723,0.1676370862,-0.1964565986,0.2665001175,0.1926033403,0.4003491457,0.0592545909,0.9255357597,0.1681624119,-0.4035052067,0.6414943575,0.2933832393,0.5956079465,-0.1659654546,0.893259438,0.1536818228,0.3203754804,0.6082676035,0.0835737637,-1.2141657456,-0.2095177652,-0.6377099903,0.5189800671,0.4111168937,0.7313553847,-0.0979438854,-0.7644576983,0.1752098099,0.6536207171,-0.4989361745,-0.3161948685,0.9216974266,1.1199011511,-0.2015877016,0.7872900709,1.042397458,1.0519460892,0.6210461384,-0.7188620497,-0.8429083353,-0.1008360427,-0.4276045222,1.1712422287,0.0725752668,-0.5870497766,-0.0290813765,-0.3021061818,0.7910780224,0.7853657227,-0.7076343886,0.3347403208,0.0293782587,0.704146596,0.6737481281,0.5259837169,-0.1737357804,-1.0082175652,0.6449049528,0.286460804,-0.4545870523,-0.0983747805,0.3806127038,0.9970916883,1.0506992873,0.7038599027,-0.5905252601,-0.5649094952,-0.0042579203,-0.8235440535,-0.6255917755,1.0108777392,0.6037982272,0.8293362335,0.8814049007,0.506620292,-0.4410802966,-0.7313460381,-1.7007394757,-0.7912414448,-1.0321018626,0.4522787243,0.1844385695,-0.4464085326,-0.6713565378,-0.9470821047,-0.03976657,-1.3352891792,0.3833649678,-0.5781012696,-0.1661656266,0.3692980216,-0.3876954444,-0.2457565171,-0.6967595932,-0.0972377504,-0.1646744927,-1.3451037482,1.0273673208,-0.3102109401,-1.0454733684,-0.6965801495,-0.5034305599,0.7177995807,-0.6541766202,-0.4443312385,-0.2160959689,-0.1099807947,0.3093750408,1.0262994967,-0.2833132995,-0.1585787311,0.2936753004,0.3106901061,0.5214451273,0.610356068,0.2399192021,-0.741531412,-0.5207328129,-0.600319392,-0.1412544744,0.0580913325,-1.0721990625,0.0097330888,-0.8641197825,-0.0113891859,-1.2112152876,-0.2818023933,-0.7787437438,0.0004626448,-0.1029187251,0.6747175572,0.985905792,-0.5143135013,0.3857619484,0.3161622841,0.5108991008,0.6361539152,0.4047401347,-0.1728226098,0.4163974469,-0.0293274243,1.9569592526,0.3051676211,0.2993182034,-0.062775222,-0.0500462969,-0.052857291,0.0943667372,-0.4590725636,0.195626292,-0.8570962465,0.0586663418,0.4751664024,-0.3253047014,-0.7123321289,-1.1192203999,-0.2698822312,-1.0175897681,0.5894258594,0.5760202822,0.7010076426,0.7234027224,-0.1595287215,-0.1430111348,-0.5963488742,0.3372965613,-0.3072640024,0.9170643912,-0.2507936671,0.5970492986,-0.9637770607,-0.2082691828,0.5217342526,-1.0563268264,-0.2194390684,-0.7977416342,0.1546467578,-1.3015524409,0.3371872455,0.3171473177,-0.2269073074,0.0498961279,-0.4165255567,0.7088118783,-0.1224302763,0.4309592281,0.4980446532,0.5031772274,-0.5700693945,-0.433267179,-0.5433499385,-1.0192804547,0.0670090254,-0.102968647,-0.1895947928,-0.9510485297,0.0332986703,0.0800270659,-0.0527952356,-0.2410098852,0.9675779008,0.4385004244,-0.2195051453,-0.4858736211,-0.3483802987,-0.2360290219,0.3016685386,-0.2865866762,-0.398928956,-0.4185774235,0.0436763762,-0.6854302959,-0.7578831496,-1.2053142609,-0.2953386453,-0.7045360637,-0.8760731955,0.1385062855,-0.5632805718,0.5231424922,-0.876562493,-0.2475483319,0.6014709295,-0.2746446228,-0.4475269981,0.6745116528,0.2075283308,1.1111769262,1.4052710616,0.2489278164,-0.5526705272,0.8553756903,-0.0295498616,0.3619002155,-0.0227211221,0.4470923684,-0.123499331,0.4374636315,1.1899185803,-0.0058594664,0.7735824129,0.5675746415,0.5113322896,0.8718494975,-0.2335775993,-0.2073360063,0.581520443,0.3508135881,0.4118650773,-0.8804528336,-1.2882474274,-0.8367457127,-0.1829958066,0.3706193863,-0.1381028704,-0.0758220389,0.8967119049,-0.422373995,0.5131500436,0.4236288254,-1.5236470229,-0.5345709212,-0.2532124446,0.5009058293,0.009921357,0.2845921847,0.1207632953,-0.0566205471,-0.3214294467,0.0313608681,1.0169169151,-0.7408423072,-0.3823355679,-0.5071419869,0.4921681467,0.3474687181,-0.0177314075,0.6271987659,0.2514665611,0.4183398453,-0.0038763215,-0.2789327985,0.7305973208,0.3847192225,-0.1946751476,-0.7520124222,0.8944234197,0.1951941312,-0.1070919429,0.4073821728,-0.0984360767,0.2994755356,0.6242126682,1.3566824352,1.1717541461,0.2850330497,-0.032935878,-0.7831791452,0.7670892759,-0.3655597459,0.502903702,-1.017196236,-0.4396309818,0.6312113813,-0.2282727794,0.6517825869,-0.7079885095,0.2035317582,0.0973663392,1.0501289914,-0.021630616,0.9095823595,0.60186495,-0.6194828714,-0.182503804,-0.0228195067,0.0797584025,-0.7030289829,0.0681571148,0.1456608028,0.2860331894,-0.2561480959,-0.5407224844,0.4092920449,-0.0392708813,0.4053722499,-0.2878638655,-0.9196317885,0.0991752574,-0.2812827137,-0.3327563453,0.5743332908,-0.8027704671,0.361073344,0.9049093135,-0.9554340289,0.69859662,-0.7705671376,0.5687800566,1.1719740196,-0.8772487254,1.2224646613,-0.1251801886,0.7491843691,-0.1856616012,-0.0293869823,-0.1031812165,0.3713645641,0.3324798456,-0.0983441469,0.0912794443,1.1111734365,0.7730226165,0.0899446049,-0.2521056682,-0.0516828682,-0.2254148447,0.8510393393,-0.3100199821,-2.0223207781,-0.7141164578,0.6282368815,0.6862281155,-0.7726704876,0.2773598105,-0.7447506591,0.6426669756,-0.4844256374,-0.9153077174,-0.8422116883,-0.9484296877,-0.2746187775,0.8655040138,0.4663100936,0.6849395048,-0.177072569,-0.8220432562,-0.2352790716,-0.7134490543,-0.4970961938,-0.0944830761,-0.5687332589,0.7049332448,-0.353347995,-1.073742987,-0.2068368205,0.4412131122,-0.1266469931,-0.5856319909,0.5477572623,-0.6590934429,-0.4170204936,-0.2514052371,1.0806693391,-0.8161154004,0.0806367433,0.3376649255,-0.1020358975,0.7897615631,-0.0649403296,-0.3166487155,-0.3582067218,0.961382954,0.4604346615,0.430734622,0.1778642195,-0.7882787486,0.7851436019,0.1256214007,-0.4620252276,0.213867849,0.04707595,-0.6214483982,0.1530611343,0.9433735576,1.0748245431,0.2837147053,-0.6890689904,-0.2623468588,0.1770554683,0.2984133726,0.5771164336,-0.2624297613,0.3213307599,1.1754632512,0.8552458404,-0.1541446634,-0.1973374928,-0.2864286172,-0.7701803714,0.3097842877,0.2741674742,0.6266198142,-0.7211955211,-1.0207679701,0.5366104762,-0.4214732675,-0.5112925504,0.18462109,-0.2645592064,0.6193843877,-1.3169511462,-0.9298271225,-0.9466254689,0.4490547653,0.4198324384,0.315786262,-0.0495528754,-0.2221114729,-0.6066017098,0.0881438698,-0.7460302248,-0.5511713243,-0.0806178355,-0.1313814903,0.8726200061,0.2412947416,-0.039849997,-0.0513586749,0.4554492767,-0.070874719,0.3416673059,0.0726443789,0.1571538892,-0.4089994038,-1.068958443,-0.1779447308,-0.1816378229,0.1867635933,0.1887640378,-0.0172186236,-0.1708152102,-0.2679583802,-1.7885806676,-0.8898586104,1.1264809132,0.9211100828,0.1235018563,0.8129054484,0.5242688009,0.4056543829,-0.4970818475,-0.7606407233,0.5209511249,0.2698256948,0.8164228512,1.1466921927,-0.0290243978,0.2345884768,0.8089055898,-0.7233983874
   -0.9424314861,0.2306144382,0.7965200668,-0.1167390563,-0.0392196245,-0.0624889879,0.2826571973,-0.4304706582,-0.6151455985,0.0219901818,-0.4340451595,-0.4333042261,0.9851228694,-0.4047989718,-0.0656107348,-0.1975422681,0.3102008338,-0.518673153,-0.7423647156,-0.3379137795,0.2432427949,0.345179522,-0.3009570513,-0.5158602348,1.0003035144,0.4762376112,-0.5344261484,-0.4844472343,0.6741150204,0.7330252643,0.6584696519,1.0135680527,-0.681529121,-0.4570317908,0.0296973497,-0.152650763,0.5058228428,-0.0665560962,1.1971470258,0.5225325885,1.2603523695,0.1091536638,0.1028412311,-0.6780765715,0.4937579699,0.9464846654,1.0873772545,-0.0565276713,1.0883541005,-0.2686879914,-0.3659286784,-0.4855667401,-0.9971612182,0.2530533121,-0.0307736215,-0.6160873161,0.4844873944,0.7655739664,0.5821406986,-0.2411635658,0.5457685955,-0.1153745393,-0.3230854544,-0.5734482436,0.2865348052,0.0364213752,-0.3665877108,-0.3945736951,-0.9699609769,0.683181613,0.201412706,0.4034515096,-0.1597867957,0.2868703554,-0.4371616017,-0.1147679391,-0.2671095695,0.1451205528,-0.865985215,1.0522100259,-0.5563697164,0.8676157489,0.4694273529,-0.6864733424,0.759425127,-0.2060570367,0.0755565149,-0.1570384772,0.7475883472,0.7882644647,-0.1823255952,0.528776783,0.5029293832,-0.4927258336,0.1942064446,0.3428621364,-1.0754754332,1.1910973524,1.9644554628,0.5816004518,0.9443308584,-0.5620849461,0.1582260887,-0.040201944,0.1684901556,1.3200394823,0.9999298356,2.0448114404,0.7409110619,-1.3516001712,0.0564272102,0.1505176597,0.4891399695,0.0727649149,-0.5724217476,0.3545614778,0.3518226568,-0.4648900164,0.0203057609,0.319466956,0.125401551,0.9041905304,0.34650024,1.0840399683,-0.3559095128,0.5194212619,-0.6485010479,0.4318528068,0.3840766812,0.1918720954,-0.2006029784,0.5702333068,0.8079443449,0.1950087315,0.2366165745,-0.8748695424,0.4428604866,-0.2301846831,-0.4178356394,0.4006443218,-0.5743867606,-0.6465250046,-1.3456184048,0.7409840597,0.1996863549,0.0907151293,1.0032959731,0.0085901506,-0.3312838159,-0.7010645975,0.3794187717,-0.8603495006,-0.3276314032,0.4260571317,-0.2152544947,0.5934597281,-0.0648598843,0.218452947,1.5769819558,0.3939699106,0.7110393543,-0.7764521919,-0.2391412703,-1.2495323896,-1.034299757,-1.2543618234,0.8991913313,0.4113160165,-0.2295168289,0.8081226239,0.357030664,0.2634711296,0.0811633047,-1.0126045629,0.08142755,0.3747312014,0.967099458,-0.2619099941,0.2266594704,-0.2929910253,-0.0304596362,-0.4092159077,-0.3473714705,0.573526181,-0.1274550651,-0.4301132386,1.1053640129,0.9483584704,-0.1102223023,0.0845348862,1.0843759735,0.6950082668,-0.1085805779,0.8387114604,0.892168651,-0.0677565853,-0.451488851,0.9808149899,-0.533047323,0.1590233881,0.1850252144,0.4672433232,0.0099592562,0.3164407993,1.2980826349,2.0028231334,1.0349732425,0.2317093856,-0.5264177422,1.0486494222,0.8741297874,0.6443446245,0.1664357854,0.1827670211,1.9917880655,0.4647135702,0.350214247,0.1119756588,0.5732105466,-0.1760333049,0.1221791802,0.0759268069,0.7881970097,-0.6905916421,0.1273920018,0.7990142284,0.2688280532,-0.8466866404,-0.1195691757,0.4839743349,1.096209291,0.1840864832,0.0179545642,0.1339307222,0.2962590751,0.2602762267,0.0792102429,-0.3497836114,0.5440371231,0.2483630381,0.7456179384,-0.1402579894,-0.0623302687,1.4410291759,0.4577337901,-0.9300303835,0.4222065945,-0.261496891,-0.8108728471,0.7524054502,0.5123649346,0.1381755918,0.5905583373,-0.6515290887,-0.2310679401,-0.9574812762,-1.1464404313,0.6694493179,-0.6202950338,-0.5053496283,-0.7668518044,0.9513851835,0.6604333204,-1.0280066284,0.2140586936,0.5581459105,-0.9706006671,-0.0699878694,0.0539820456,-0.3106790585,-0.152098808,0.2132435577,-0.2542355201,-1.4368301496,-0.1332799679,-0.2056775158,-0.2809249155,-0.1181615416,-0.4641696672,-0.3454368446,-0.2291765222,0.3537607639,0.0794425484,-0.531486386,0.6757074178,-0.453372746,0.9965145411,0.807943356,-0.6031257041,-0.4042919441,-0.8641845146,-0.9588528112,-0.9817587941,-0.845503893,-0.5770969744,0.6612573611,-1.0468411164,-0.181302189,0.1087163245,-0.0772042803,-0.248958895,-0.5052409935,-0.0258961367,0.2397547865,-0.6410223396,0.4501791543,-0.2726218144,0.4645826496,0.1669781646,0.3325358145,0.2590623294,-0.0501290914,0.7703916905,-0.7009293512,-0.7099368504,0.0778993753,-1.0974843789,-0.1925877848,0.1513825929,0.0885966028,-0.0414754893,-0.249288246,-0.8623731984,-0.4183614423,0.1078971522,0.1435090217,0.5186287768,-0.6493065547,0.605545055,-0.3609701966,-0.4259310011,-1.6768634567,-0.5752409652,-0.2627046607,-0.1362616916,-0.0311666419,0.5114916773,-0.4825332106,0.3627042231,0.8421465815,-1.1724457106,0.1375867182,-1.1319915035,-0.4770203965,0.3812922311,0.3666676895,-0.0872418392,-0.7947148879,-0.3169089204,0.3013675664,-0.0245111488,-0.5794567412,0.440226554,0.3801107935,1.0673780736,0.4342531327,-0.3905278037,-0.4050636009,0.8966111766,-1.5269108113,0.0320646748,-0.0610354558,0.3257065804,0.3346571666,-0.0829392241,0.5154979975,-0.2901224816,0.0727368246,-0.3912609726,0.2506338754,0.3117975966,-0.0013894837,-0.1324479227,0.4422858143,0.4051823836,0.4027040462,0.5384986395,-0.0812075974,0.9216067478,-0.2932932841,0.4025033909,-0.4565018403,0.4436865586,-0.2312151325,-0.0541886793,-0.5962997491,-0.0368755122,-0.845061294,-0.8469630203,-0.4050688863,-0.4032926956,0.4208867343,-0.246581537,-0.0693494193,0.5747521311,-0.6079301728,0.6760689261,-0.0442830812,0.9707885946,0.3015093705,0.1731944742,0.1413050898,-0.1372079617,1.154133495,-0.5433722273,0.1524565024,-0.2218945447,0.1136528457,0.5153531287,0.3425970242,0.0889716409,-0.1698891823,-0.036086437,0.2282969976,0.4345367282,-0.1375309591,0.4366315488,3.8714306843,0.6343737151,-0.1560328987,0.0880035564,0.3089487378,0.6147100252,0.8186414514,0.8078205362,0.585245568,1.367075178,0.4365083236,-0.7023562993,-0.8336025057,0.8775324874,0.7826140097,0.5959360455,-0.1009182196,0.0971616383,-0.0688216,-1.0448269151,-0.5276584645,-0.2403898063,0.8753970067,-0.1992673898,-0.5025701172,-0.1526192936,0.3523668911,0.5918797815,-1.0456756605,-0.4041139481,-0.1616929298,1.1323619806,-0.4098881749,0.3150393652,0.6853873509,0.2272777629,0.2141263881,-0.4884989968,-0.1911249434,0.5152688597,-0.3520334876,0.3041310608,0.9704243701,0.2361366732,0.3191290344,-0.0481819905,0.1594358555,-0.3118523158,0.7901877246,0.961788852,-0.6244917647,0.1376264168,0.5853224599,-0.1540920045,-0.6158724516,0.2510160764,-0.8086735432,0.1177778073,0.0340792733,0.0549023359,0.738509026,-0.2209978483,-0.4695402047,0.3091565291,-0.2846862523,0.2759226038,0.2885478615,0.1141367032,1.26937842,0.1234321036,0.4527236405,-0.0594320669,-0.1297463867,-0.0883029877,0.2956248188,0.0223183119,0.5572043588,0.5114811714,0.6950549735,-0.3300449218,-0.1271036517,-0.7099194357,-0.3209189323,0.4647591887,0.3651638561,-0.0046781457,0.9241645325,0.1543879232,-0.5589895072,-0.1821078942,0.6522047853,-0.2651901662,0.5887693171,1.2583802131,-0.9047803404,0.6479257907,-0.5237668631,-0.4184332321,-0.1250504142,0.1329867115,0.8241805894,-0.0517157908,-1.1623089099,0.9735084971,0.0971667731,0.6105336788,0.2848274765,0.2580447675,-0.3603452822,0.2421122091,0.856856767,-0.0205255917,-1.0174584508,0.5198708907,0.5014832213,0.4090920605,0.0661992527,-0.8020176453,-0.0769064172,0.4683420239,-0.0258107495,0.7561263121,0.2489458072,-0.2715849253,0.5978418216,0.5175508721,-0.42043194,0.4819712075,0.5680137179,0.3504802481,-0.6708523936,-1.3783926576,0.027476331,0.2316588707,-0.5901423535,0.4623671676,-0.1384193681,-0.9213310348,0.4930502466,0.1721123608,0.3079334617,0.0295108597,-1.1708065099,0.3127858902,0.2640826087,-0.2061071641,-0.7737895019,0.212437557,0.5714037501,-0.0175868841,0.0818047463,0.1183734635,0.4041659475,0.3004876166,-0.3462293796,0.6298659295,0.0895973595,-0.1845698335,-0.76970652,-0.8046498421,1.471475882,0.0200649581,1.026243629,-0.14638203,0.2660394769,-0.3215798528,0.1503911329,-0.7094019335,-0.3055245217,-0.2076023165,-0.4125978626,-0.6324585554,0.3363907092,-1.7379571088,2.0247970907,0.1648319421,0.3033707289,-0.3994473489,0.1879299983,-0.0947517265,-0.4872787267,0.5809963266,0.2165217427,-0.5114483962,-0.4816342455,-0.3917879453,-0.297769116,-0.3533222929,-0.0354173481,-0.196988654,-0.4753588673,0.1633994916,-0.7575700143,1.1699559353,0.4255114402,-0.4629847779,0.2082964333,-0.4118652296,-0.5056825092,-0.2688279681,-0.3693281307,-0.2343303192,1.4563172204,1.4331281436,-0.0317240589,0.17067102,0.0107132844,0.1828382735,-0.2536962511,0.3753644659,-0.9108652685,0.1386331748,-0.5694091382,0.2750617776,0.3110808761,-0.1130865902,-0.3607680266,-0.0237155308,-0.9694961974,-0.5505077344,0.0189069637,0.1115597706,0.1997771722,-0.6171962102,-0.144829587,-0.003127496,0.0208597352,0.6857334359,-0.6187537466,-0.110824522,0.4269112544,-0.1604072533,1.7635603038,-0.4088088121,-0.0036524532,0.926711835,-0.4156300066,0.0208457879,0.3944649662,0.11164095,-0.2830755881,-1.2121943313,-0.968627163,-0.0847857264,0.0989267289,-0.0649298416,0.7760391334,0.1165942737,-0.3431944043,-0.4145711301,-0.6085582314,-1.0661899293,-0.6929763258,1.1734163405,-0.3550452943,0.7467466481,0.5495963697,0.0163141349,-0.5484927873,0.806539778,-0.614573055,0.1841702378,-0.3837661912,-0.1041659378,-0.6847194651,-0.5212877887,-0.1147167974,-0.0007177023,0.0798904731,0.2455395918,-0.020304465,-1.3632354779,0.1323384329,-0.2820281974,-0.1501882312,0.3250106123,-0.3205099115,0.0252907158,0.254194928,-0.6047920681,-0.5630238508,0.7183940245,-0.5928006512,0.8328059089,-0.3892092356,0.0357038535,-0.5229376706,-0.456619166,-0.4701309121,0.16024496,-0.2032490779,-0.3508759256,-0.1640530044,-0.418398347,-0.0248279269,-0.5325878021,0.2728515948,-0.4438183976,-0.0010639758,0.2144153974,0.0855158966,0.416096353,-0.3274741941,0.3292500534,0.2001458027,0.1244414003,-0.0534093295,-0.037356612,-0.2483432225,0.078697968,-0.521892084,0.0567075327,-0.4757307044,0.0240778572,0.1334128872,0.049053023,-0.0700653071,0.3691922995,-0.0626272611,0.1450920228,-0.2394867151,0.5023376277,-0.2591535857,-0.069459618,0.1454422623,-0.0430677851,-0.3928313222,0.3023270146,-0.2565483437,0.2873675212,-0.0234753248,-0.2016771861,0.2957189665,0.0291680762,-0.2669002044,-0.1777640797,-0.9487038143,-0.1066455142,-0.5870635051,0.1753737509,0.2576320454,-0.3083879832,-0.1406690777,-0.2010170987,0.2482064624,-0.2674027328,0.0446837321,-0.3725680952,1.1985936069,-0.5192880788,0.3211274911,0.3943623109,-0.370841875,-0.619225034,0.2845629521,-0.3225370228,0.6816227026,-0.7522772921,0.8623655783,0.613980118,-0.6316886837,0.8850199661,0.5795947422,0.3902221574,0.6529029382,0.9673455852,0.6917498391,-0.6897893356,0.470133185,0.7575152868,-0.6843164266,-0.3884714636,0.3645262853,1.0329829323,-0.2065652697,0.8702400411,-0.1886816254,-0.1607736089,0.4128123668,-0.647717495,-1.2623700942,0.2976295092,-0.4295114839,-0.2437271434,0.5924755463,-1.4270386223,-0.9001015401,-0.6275084095,0.891176048,0.341610601,-1.2243702643,-0.1216952217,0.5493183639,0.3230953148,0.8334679315,0.7483556815,-0.4201354968,0.6066081018,-0.4848974754,0.302871831,0.5137499978,-0.4367634343,0.2805036434,-0.4652736751,0.7020221384,0.844604472,-0.9835514331,0.0036039728,-0.6612951899,-0.1778367812,0.5061686447,-0.0464226571,0.2965094823,0.2153055196,-0.2584886722,-0.0767421897,-0.5336611747,0.1165832326,0.0161956072,-0.0608265711,-0.07323962,0.0386852128,0.3947968926,-0.0872086349,-0.4520977365,0.3411326166,0.0948012959,-0.3575911219,-0.3642948271,0.7074504869,0.4825819704,-0.1722615774,0.3910460349,0.5541437844,0.9353964361,1.0620581246,0.3621293655,0.6587398512,-0.2696135643,0.1586341039,0.0830485198,0.3630651526,-0.1563441441,-0.0189552571,-0.7642506969,0.4905117719,0.4664233156,0.0717777641,0.0193949691,-0.0862941819,-0.3563980023,-0.3338883822,-0.9670272027,-0.3600392929,-0.6944707475,0.1128327941,-1.0850989873,-0.1066578817,-1.0919665968,-0.2245307001,-0.7683239871,0.1762969609,-0.8102588655,0.5535610685,2.5911064674,0.3498361976,-0.2154179258,0.0099552205,0.0451038055,-0.8571754735,0.3853232448,0.9454486824,-0.754427101,0.097615672,-0.1142882525,-0.7603433557,0.9220301675,-0.2532343236,-0.0934599407,0.2883439868,0.0187624816,0.0129944279,-0.9985243741,-0.1288997395,1.3742975188,1.8374210841,0.3928958714,-0.4109375666,-0.1237506141,0.2360634056,0.3746299264,-0.7063903425,-0.0096933636,-1.4840676374,0.1665624077,0.5707869797,1.100656164,0.4162521836,-0.316766334,0.4936705516,-0.1855192153,-0.8062561414,-0.5751792522,-0.6461393888,0.1037804198,-0.1111739875,0.1246908977,-0.5869628086,-0.3611420222,-0.4096766525,-0.6914711044,-0.5848386285,-0.0537156654,-0.1750826179,0.0976784283,-0.1357835042,0.9006390515,0.0650922161,-0.3360299848,-0.1728303242,0.0934400511,0.1079901529,1.3854986037,0.7383626649,0.4577039165,0.0789213758,-0.0893688298,-0.4406275991,-0.0337292256,-0.0487658272,1.2300468376,0.4446610227,0.2844430533,0.1414695141,-0.1205312515,0.2428951362,-0.4818066355,0.2241236669,-0.37876334,0.3688335538,0.5908225665,-0.3836425988,-0.4451839152,-0.5822206951,0.2426309087,0.8514700236,-0.1990495415,-1.0784287358,-0.7814260147,-0.3163469116,0.2212789436,-0.4750535519,-0.1308947554,0.6004790823,-1.0267929937,0.1013561497,0.909667772,-0.0455845198,0.2405925636,0.095411316,-0.0064367245,0.6740007229,0.1190046678,0.0609469115,-0.097048515,-0.4693812855,-0.9134845386,-0.8764381403,-0.5305107568,-0.7494637661,0.3604096464,-1.0128839345,-0.4295336039,-0.4873279497,-1.1164085137,0.1433468738,-1.0625757965,-0.4342343788,0.1240352674,-0.7344660862,-0.401742758,0.6931720598,-0.9089543063,0.7745062449,0.4437651059,0.2366977951,-0.6283154989,0.8426135076,0.8893824719,0.2129958434,0.0416591939,-0.6567500191,-1.4470494149,-0.7929490733,0.3820720847,0.0906463549,0.3043145025,0.4136589471,0.0579778203,-0.073458067,0.2830510663,-0.574426148,0.5099402961,0.5096591779,-0.1047322865,-0.1347284742,0.4109295436,-0.5028960454,0.3282623662,0.3749515119,0.2528768244,0.3807948279,-0.3633432205,0.2623656016,-0.4662650857,-0.0426444934,-0.4205495985,-0.5222175047,-0.3129237367,-0.3780024374,-0.3603235513,-0.7058946735,-0.9603590206,0.8873227696,0.1610350866,-0.4727607693,0.369339315,-0.4158329318,0.0179725831,0.3690481293,0.5590396473,0.0304084802,-0.1763678372,0.4856634482,0.2949189544,0.1094424654,-0.1121752653,-0.3789862077,-2.1350251983,0.3781070779,0.3619732747,0.5202799486,0.3227656831,-0.1633556006,0.4200943129,0.3300855491,0.07957227,0.0609321376,-0.021854345,0.1891804894,-2.9231760742,-0.1719487643,0.2585264029,0.0315392749,0.1407297562,0.0052257035,-0.2024802996,0.5799034977,-1.724322423,-0.241406618,0.2532169811,0.3803298304,0.369015072,0.1559422654,0.2336154596,0.0295017105,0.5713583091,0.210332954,0.2854289886,0.0925437305,0.3051324869,0.2394089898,0.1880601574,0.17804751,0.1494736257,-0.6684917668,-0.9964019781,0.3158781178,0.186900661,-0.0863451001,0.408560711,0.0347207403,0.3830138419,0.1203553369,-0.0136078893,-0.1769064869,-0.0809944985,0.4453533349,0.1895572558,0.3942299321,0.4114754386,0.0235880696,0.0961364563,0.3782298029,0.4240435296,0.0666290143,7.5360457405,-0.5752556468,0.3944889426,0.7528013748,0.6879999604,-0.9761559195,0.2239128449,0.0957279844,0.5147175544,-0.1080110409,-0.8691176544,0.2085477093,-0.4244652751,-0.7307632749,-0.4031410434,-0.5190502879,-0.1320079775,0.4844831605,-0.7515236514,-0.5055033016,-0.6653696406,0.1617002591,-0.357575957,-0.2012569073,0.0767534745,1.011062095,1.1050212168,1.2273086036,-0.1892821394,0.236021412,0.496336283,0.7027566305,0.516857085,-0.067176153,0.007493077,-0.15154264,0.4623327409,-0.0058773006,0.2134163363,0.2085316748,1.1169308107,-0.9439208254,-0.0293204403,-0.4894058856,-0.2851067556,-0.2294370131,-0.6367954211,0.8379279789,0.2026822238,-0.3950481767,0.562997641,0.1327091968,-0.0029896163,0.5167651394,0.900365413,-0.0254763917,-0.8885150501,-0.2895732486,1.4750557924,-0.3872997253,1.2216140941,0.4757399497,-0.0604866308,-0.9583265068,1.7279472549,-0.1585221806,-1.1890698523,0.1240102497,0.6320408735,0.1615016295,0.3581190612,-0.2519723018,-0.0853435744,-1.1467365295,-0.2747701647,0.5555382827,-0.3808978719,1.164628075,-0.5862266823,-0.4702194712,0.0181701783,-0.4332217526,-0.5339809868,0.04888827,0.6348824001,0.6522784631,0.4879627671,0.1912302345,-0.007101096,-1.2175984055,0.6672274364,0.8121984688,0.2499326239,0.493446012,-0.2615881683,-0.0600114094,0.06748065,-0.3313208583,-1.3239630853,-0.5828030527,0.5473047873,-0.1634815432,0.9158999644,0.5644245937,0.2943434949,-0.9881969679,-0.484814033,0.0175683287,0.2738191583,-0.4206049835,1.2135549705,-0.2330859071,-1.0451056666,0.0661911458,0.6804987476,0.7892354657,0.356020213,0.7000208229,0.4701559295,0.7212296645,0.66766132,-0.6472621318,0.9068538964,-1.2132196801,-1.4845722369,0.5335300028,-0.5784443961,-1.3446065088,-0.5196995252,0.0405589042,-0.3011056054,-0.3932878118,0.3024869714,0.4883074399,-0.3168601644,0.5644231137,0.4069277477,-1.197297433,-0.4507726132,-0.0554751923,-0.4970010164,-0.8389776398,0.4525721414,0.3052656334,0.1286257009,0.1364411938,0.2807638102,0.7438081301,0.6570481882,0.3769213607,0.263328821,-0.8334883562,1.4931129899,-0.4023685934,0.4324480804,0.0536621691,-0.6002294724,0.114447413,-0.7535373993,-0.2403857629,0.2239501662,0.0281963059,0.3255563279,-0.8914029403,-0.3826076992,-0.9949612279,-0.7292762927,0.0494325859,-0.1324225114,0.539131647,0.7826216746,0.0141117654,0.0676925616,0.2514515219,0.3584825622,0.0211305156,0.2312359082,0.3278095933,0.4232992211,-0.032191316,0.2303712869,0.04425465,-0.0711255062,0.9202495974,-0.0419602437,-0.8045949978,-0.3791857282,0.591395694,-0.3387496939,0.426240374,0.7408598168,0.2073966771,-0.711612158,-0.6436493107,-0.5455564483,-0.6440984284,0.5390117839,0.2557959378,0.5465345199,-0.2990646887,-1.2358776003,-1.1496928518,0.1707100215,1.0429039356,0.2542199265,0.3739932612,-0.4245524658,0.0683281366,0.0795339895,0.4996488484,-1.2534159203,0.2154611332,0.0895514445,0.2141752354,0.1908992956,0.5473965421,0.2813283163,0.7089638791,-0.2660613362,-0.3687685633,-0.3816560234,0.2233680952,0.2998769927,0.0505959515,0.1379893774,-0.0737204114,-0.4942625897,-0.2400025492,-0.8407858198,-0.5408350898,-0.2200934834,-0.5087574756,-0.3914299872,-0.0255714139,-0.4822685743,-0.2801679523,-0.1622604274,-0.2829965667,-0.206945129,-0.2807406031,0.0078237993,-0.4287732288,0.0797551024,-0.0112655686,0.241279971,-0.4420124327,0.0830987283,-0.1636679065,-0.3166855844,0.0050950562,-0.2188681671,-0.0723022649,-0.3850839573,-0.1807739102,0.2474976498,-0.5392719626,-0.0934425534,-0.244745329,-0.3110476944,1.9684661734,1.2496549416,-0.4937278582,0.6697126654,0.1588827468,-0.9028065494,-0.1993234547,-0.6507863241,-0.3113332952,-0.1000076013,-0.2991802731,-0.257406989,0.416475447,0.3918878765,-0.3872961295,-0.2294645464,0.0997508837,-0.0763464568,-0.1366614848,0.0575164487,-0.5558068535,-0.1539732329,-0.0290537438,-0.0697292724,-0.1749798911,0.1336618092,-0.0183323007,-0.3735199779,-0.2161907405,-0.1528948332,-0.2009082604,-4.8420700425,-0.3810547346,-0.052803791,-0.516414625,-0.0333993512,-0.5828334109,-0.8290702739,0.1179692354,-0.5632781159,0.1052586511,0.0243344643,-0.0811149248,-1.4949493362,-0.1592072415,0.1440644765,0.1544632245,0.8961808573,-0.1531572997,0.4849315487,-1.0592365751,-0.1614874499,0.402920348,-0.665838689,0.1350725279,-0.2295928185,0.2792119734,0.5382392435,-0.7899377348,0.7900255237,1.0701596654,-0.8963909809,-0.9888956241,-0.6729619411,0.1983197752,-0.2666666507,0.610502855,-0.8777481748,0.6164104394,1.4588241068,0.9603684681,1.1667518278,1.3386537679,0.0737756578,-0.2354666556,0.475567204,0.1309115117,0.2638868011,0.1485390422,-0.110967027,-0.5330855769,-0.4106615771,-0.4683730227,0.2951359896,-0.1784927518,-0.2758219358,-0.0040194373,0.3013666433,-0.0895096269,0.670490306,-1.1146107472,-0.5864677998,0.3672318099,0.7336966336,1.2640171336,-0.9999768072,-1.3917056367,0.3666436319,-0.9845308417,0.8647242805,1.0213070185,-0.6328066755,-0.5998513463,-0.1127183874,0.1192465834,0.8087606935,0.4345707995,-0.7863456256,0.0630391761,-0.442184091,0.3823122426,0.2928370154,-0.1751493229,0.4764558535,0.1201806955,-0.8763343693,-0.6213137783,-0.8533815022,-0.6281553895,-0.2717705434,-0.1692602634,-0.6757803456,0.557833829,-1.4422380823,-0.4640403511,0.2543771821,-0.8977144515,-0.9466687471,0.8587214844,0.3602289387,0.1468986861,-0.4233596509,0.4754669222,0.1030937495,0.5087638664,-0.5304391408,-1.2037778546,-0.3243752309,-0.2492496045,-0.6585960045,0.1240431505,-0.4838508273,0.1947090302,0.5792361293,-1.2251881646,0.5392513277,-0.2233602821,-1.1933831797,-0.8997582675,0.5224445685,-0.5405575964,0.1125923342,-0.1116643502,-0.469616998,0.170522083,0.2454814061,0.6946250478,-1.0708501448,0.0759958976,-0.5008686227,-0.6143311989,0.1562572588,0.0568519339,-1.2353887107,-0.6276101688,0.1780487694,0.0728566498,-0.1447906342,-0.5065952984,0.0383450609,1.1563143351,1.2984754315,-0.7969082181,0.1571626976,-0.0907100811,0.3187895552,-0.3029683198,-0.4515450081,0.1804544145,0.2428394645,0.8613911837,0.2715401423,1.3439475036,0.3106867627,0.2203279443,0.6381917066,0.0973656905,0.2690352545,0.5663815885,-0.0275413896,0.0422666084,-0.6440400175,0.0511214416,0.7352851825,-0.361724421,-0.0105192568,0.2404053368,-0.2925526549,-0.3992334198,0.5084003964,-0.3245041851,0.3999729001,-0.0967334619,-0.3484498679,-0.8605179378,2.0857757642,-0.7684895878,0.2024903769,0.5804221985,0.6525587237,-0.3454196367,-0.1780540327,-0.0446746439,-0.5079985422,-0.0550863644,-0.246942072,-0.035556436,-0.0278684565,-0.0254760507,-0.234634582,0.143821926,0.4256481102,0.1237688767,0.1293284146,-0.5294375124,-0.6309066595,-0.2925536227,0.5313824429,0.0783819151,0.0810691886,-0.1367346459,0.6140774343,-0.2039119859,-0.1329905021,-0.3177991256,-0.7696755724,0.0909497149,-0.0885688754,0.1752363722,0.4842075859,-0.4651627306,0.3272642431,-0.2879862288,-0.0096612714,0.2190969723,-0.2671462566,0.1381936137,-0.0258250373,-0.062039792,0.0500806742,-0.5967911057,0.0616512437,0.452325222,0.6503797207,0.0068255234,-0.3568051769,-1.2580087285,-0.4755700437,-0.5419650205,-0.0082180666,-0.89412986,-0.4925404126,-0.2409039061,-0.2842575661,0.2782251979,0.8284152516,-0.6208390325,-0.643064115,-0.2296044294,0.6794457002,-0.3238063137,0.5490933539,0.9619132537,0.6394043002,-0.5639816237,0.3082643968,0.907852843,0.5268102957,0.5443081893,0.8499282433,-0.2177611393,-1.2415443735,0.689798123,-1.0836194631,1.2700798893,0.3556878538,0.3428729137,0.1955218768,0.642182438,0.1671444387,-0.875704592,-0.7671371828,-0.2495420106,-0.1780428541,-0.1879001708,0.9263902496,-0.2256379952,-0.5729542271,-0.0729723202,0.953788449,0.5254073646,-0.081476428,0.2162389009,0.6487243597,-0.0526614642,-0.9537305569,0.4399696304,1.1148587463,0.9768305386,-0.3922808667,0.268713603,0.7591450095,0.0654199017,0.2130018656,0.251127879,0.3198833427,-1.053027609,-0.2593404257,-0.8584843546,0.9630637556,0.8770590821,1.2223089646,-0.0765811576,0.0422177263,0.3027907479,0.1277881879,-0.0605658869,0.0248003437,-0.4205762152,0.1128949833,-0.5653380864,-0.0807038708,0.3889986876,0.6118392204,-0.3340372477,0.2405316294,-0.3731050449,0.0416654503,-0.0564325552,-0.8912458014,1.1286567495,0.315353437,0.1230287776,-0.5378034735,0.1834431303,0.0029058004,0.3946563247,0.3552359217,0.6979003519,1.9743982229,-2.1587527054,-0.9336841727,-0.0686919867,-0.1352954223,-0.2535817951,0.0920737334,-0.0186832956,0.0674324807,0.0821186276,-0.2818838771,-0.6618822395,-0.1320978284,0.3690863634,-0.2349656153,0.104418079,-0.2217159412,-0.1689471805,0.3499102349,-0.2075645337,-0.1174795305,0.0522509576,-0.102644312,0.3479988999,-0.2141234921,0.0032821012,-0.0091200988,-0.0556114792,-0.2370944626,0.3675268803,0.2810711716,-0.0635958616,0.257319307,-0.1171864918,0.2349969426,0.3021706895,0.406753265,-0.5736981942,-0.6033399907,-0.2733962117,-0.5231358869,-0.0572646026,-0.066733801,0.1046533647,0.5614326651,-0.41466746,0.2671287701,0.2225378352,-0.5824502268,-0.8219453771,0.1800513874,0.140282188,-0.408441228,0.0997147514,0.2918064582,-0.0370662406,-0.1106297853,0.0090378833,-1.9130496347,-0.5295290968,1.3656707668,0.5306040059,0.8928553548,-0.2697383674,-0.060211384,0.3461813702,-0.2227910084,-0.8935244563,0.2257122144,-0.4847532637,0.3858892936,0.3331179209,0.0450954062,-0.403650046,-0.0604124028,-0.0832245642,0.7731968943,0.3313152262,0.5640039134,-0.4181193498,-0.0749869676,-0.0002915983,0.0174197736,0.1162168426,-0.5353460681,0.0956217986,0.27306276,0.0122671866,1.9749063061,-0.113049215,-0.1728872957,0.0213003357,-0.0194875835,0.2990607374,-0.3106356639,0.3053438145,-0.2416351424,0.0724925504,-0.2637890692,-0.3521395386,-0.3806723308,-0.799147496,0.1616974987,-0.4292583214,0.2021290108,0.2419801813,0.0649779418,-0.8232245846,0.291645846,-0.2376621375,-0.3453746925,0.0698321793,-0.214165826,0.1096267869,-0.8191036299,0.037357784,-0.5030737644,-0.5313817512,-0.0992488599,-0.3529457953,-0.1089401883,-0.3437988004,0.1269982179,0.1627230086,-0.2589912356,-0.2756751454,-0.3164206462,-0.7494574223,0.0585966756,0.3112418157,-0.0460940147,-0.3742430033,-0.5677105524,-0.6394785725,-0.3517518683,-0.5354897477,0.051275119,0.0270847859,-0.1046010574,-0.0605818447,-0.4486940431,0.6045785929,-0.1755613461,0.3244320875,0.1454276357,-0.289574702,1.8909931628,0.6346358681,0.0385853812,0.3974964461,0.9082068758,-0.145225303,0.2942487389,0.4060494063,-0.8852026567,-0.3476451474,-0.8083892306,0.6406719955,0.6013144411,-0.4465005226,-0.4073381262,-0.6704788487,-0.0273359956,0.064838253,-0.3821157992,0.463213476,0.8483714831,-0.522954646,-0.1331748221,-0.0114502486,0.2868343668,-0.079030179,-0.8101469104,-0.9910312885,0.3319242769,1.2942558563,-0.5508289437,-0.3026237073,-0.2862825721,-0.1696250744,0.1257924022,0.7030036194,-0.0007665695,-0.573139777,0.8980756807,-0.1067265613,-0.053818567,-0.4637246456,-0.2752022957,-0.244129365,-0.5735851711,0.6577213779,0.1934602457,-0.0210736764,-0.9422384238,0.1324515079,0.044667677,0.2050759645,0.475258489,-0.3809342401,-0.3378788994,0.7936937867,0.2339435313,0.2449701205,1.0015411012,-0.6884114946,0.1385153747,-0.219498543,0.2415103382,-0.218844029,-0.2549166935,-0.3377620448,-0.468441681,0.2204815856,0.027803139,-0.2665173022,-0.0840392302,-0.8267454608,0.0398034655,-0.8384143024,0.219445599,-0.3493936312,-0.2399462606,0.9997359222,0.1345596304,-0.4137979021,-0.7134275405,-1.2693728955,0.5840834296,-0.5194446339,1.2713447798,1.6276118522,0.7996276567,0.7874719368,0.0784688895,0.7470796542,0.0432052123,-0.926998094,-0.7477744521,1.1290700054,-0.3326069571,0.8778774747,-0.5126094118,-0.3594512799,-0.3086740343,-0.9976766474,0.0539965638,-0.1757614533,-0.9440107998,-0.1825304064,0.8812756624,0.6450386565,0.7572059473,0.93010279,0.3896746892,0.3834440712,-0.6473239832,-0.5988595537,0.4912309316,0.2614343457,-0.4772833177,-0.4807528012,0.6938622879,0.9925190565,-0.3925949749,-0.8935427694,0.2822810393,0.3059471723,-0.8673280146,0.3718064674,-0.3649275162,0.1560782272,0.4667952977,0.4976567225,-0.6397370883,-0.1433399021,-1.2541888825,1.0100597335,-0.1895665765,0.8490268836,-0.1878211197,0.3450027613,-0.8016265321,-0.5085552748,-0.1435570505,0.8167544734,-0.1160255503,0.0597668062,-0.6706219294,-0.3360264137,0.408364785,1.1205307227,0.5051706914,1.3132914739,1.026688932,1.0411968793,-0.7332907762,0.5018664226,0.2710204236,0.91646359,1.1664633454,-0.8861748388,0.077846748,-0.0253210672,0.6692034836,0.3100976365,-0.3667570455,-0.961353038,-0.0059848324,-0.4347329785,-1.0892459581,-0.6813374484,1.0339790463,0.1038021486,-0.2381742408,-1.0010456821,-0.4359632775,-0.2246061896,-0.3087020035,-1.0824794938,0.7371299626,-0.8036976082,0.5410896908,-0.7646786532,0.2535091526,-0.9677847521,0.753407615
   -0.3019090193,0.9452188501,0.8403513941,0.3364059206,-0.7931496569,0.6732186547,0.2243741422,-0.6205808717,0.5330328647,0.4665388309,0.61307513,0.2043646228,-0.1593024604,-1.083001259,0.2895980172,-0.8424671056,1.1440821026,-0.768515508,-0.9220635571,1.0259836938,-0.7639853719,-0.5493381665,-0.2999326972,0.022290724,-0.6998949828,0.3323978309,0.6232152982,0.6636002725,-0.1215308972,0.589240766,0.5460087984,0.2838015982,-0.1916650703,0.5292765496,0.4580573322,0.6330003736,-0.3183790729,0.3590278802,0.0999551847,-0.3735339754,-0.8392756159,-0.919185414,-0.5221229069,0.8203427919,-0.171130496,-0.4805584586,-0.1580345776,-0.2241215238,-0.1704165753,-0.0490149436,0.2670876584,1.8340990969,0.1979853028,0.0544877101,0.0910380118,-0.5465347736,0.0610134715,-0.2060602938,0.1424858753,-0.3223128689,0.5152270503,-0.0029901092,0.0432093926,-0.064188627,0.8328928231,-0.2322527791,-0.2513104479,-0.3802062519,0.2750681596,-0.1557083943,-0.6962155243,-0.8159642552,-0.2400423523,-0.1079062946,0.0683391864,-0.1410352691,-0.4196320449,0.2526088883,-0.8054474832,-0.0325668205,-0.6293532904,0.3123324772,0.1434369959,-0.5405480216,-0.117471057,-0.3839682166,0.0164093266,-0.3406931529,-0.0243021115,-0.7244267409,-1.0447111074,0.6036674462,-0.3059152547,-0.1456502391,0.4025242842,-0.4899198303,-0.1203448896,-0.9674520528,-0.5072661433,0.6797188497,-0.3188704628,0.2268536696,0.6000032647,0.5069316929,0.5706210884,0.1038002021,-0.3868667656,-0.2955688918,-0.279198188,3.7049577288,0.1362267332,0.590674024,-0.0019766017,0.0483603248,-0.2370149064,0.8027005763,0.1579138608,0.4789441364,0.0999475302,0.0733641036,-0.7147109762,0.4035809255,-0.2905975233,-0.670864118,-0.8637033185,0.2856298515,-0.0985397842,0.2134551839,-0.6073083944,-0.2674907577,0.0269938021,-1.0697760399,1.1928153447,0.8512650857,-0.0598255343,0.0840501459,-0.272817868,0.1381997853,-1.3220662361,-1.5351809446,-0.187890259,0.7180221972,0.3534858268,0.2585519076,0.3992769189,0.5174220464,1.8298716163,0.7466640181,-0.7436488674,-0.9495096426,-0.2690673173,-0.7808579235,-0.7520423872,1.7083564734,-0.1752646718,-0.0051333056,-0.0239995858,0.0834795294,-0.4606348669,-0.9416463393,0.8845998805,1.3238840972,0.0539454074,-0.2750941611,-0.7415659259,-0.1579251391,-0.6445720432,0.9579565621,-0.1550193007,-1.0705210501,0.8220790336,0.2308068704,-0.2309265051,0.3617526433,0.0794684247,0.2275310019,-0.1375370073,0.9828901007,-0.1964510947,0.0246971232,-0.3936087629,0.9079271473,-0.0524046442,-0.2746144873,-0.8291397172,0.0269972099,-0.0911811356,0.4399931555,0.0825601903,0.2460194297,0.2657719626,-0.0290774385,1.6059317151,-0.2128373143,0.3567267043,-0.3687357286,-1.3792623733,0.9700229258,0.6060964951,0.651511171,-0.1834732501,1.7642133324,0.7457562754,0.2802624026,-0.0440705046,0.2923969764,0.4025818304,-0.4692068601,-0.5630691542,-0.4035510182,0.6080122801,-0.1182075185,0.0494684673,-0.8938816143,-0.5061470238,0.3299918422,0.8103736952,0.2115426383,-0.2058205582,-0.9596839522,-0.1759554975,0.270934337,0.7877630568,0.358799798,0.3445429576,0.5798485181,0.4856989919,0.0078821642,0.6119978379,-0.437950764,-1.1731353797,1.0700081115,0.2836699233,1.1170561743,0.0433897315,0.4750208328,-0.4957573905,-0.5598543734,0.6019158702,-0.0300061333,-0.294885788,0.292141236,-0.0218531465,0.2002003456,0.4007080489,-0.0727550217,0.3217847862,-0.6755226062,0.6298258133,-0.1817574389,-0.1971656165,-0.498539046,-0.1772220332,0.4960351214,0.5773164471,0.4896030732,0.5793078636,-0.148609684,-0.0654150335,-0.5937964623,-0.2572883412,0.2384342132,-0.4048675047,1.1784882051,0.6913738929,0.2818300229,-0.6488032239,0.0118793466,0.252614369,0.2995236849,0.0293388594,0.5416848358,-0.4871967744,0.3131805004,0.0634800898,0.2740627929,0.3540458282,0.294244434,-0.1482782631,-0.6708295186,-0.2069609373,0.4099305137,-0.4641518842,-2.1614294961,0.3411879986,-0.8621168546,0.1811317338,-0.1530663229,-0.4366318606,-0.6010475545,0.5459285891,-0.0099267436,0.8171112312,0.5452811703,1.0738013708,1.0209999974,0.2480538786,-0.3235107023,0.3860346085,0.2066747733,-0.642517258,-0.4389929495,-0.2366330741,0.2718385395,-0.4069926604,-0.0271301739,0.3773523578,0.1651184446,0.0228132677,0.0332118308,-0.5721138931,-0.5071768758,0.0063882171,-1.0093395384,-0.7894343843,0.0413304768,-0.0307029899,0.3670797798,-0.1571509107,-0.8386725638,-0.1314573068,1.1226031143,0.187842633,-0.677909922,-0.0323129783,-0.244163303,0.3768967967,-0.5161735594,0.6973472443,-0.2982297103,0.496062338,-0.2604238421,-0.1505323872,-0.3104828016,-0.0278281202,0.2635339627,0.1083564846,-0.3880658704,0.2150022211,-0.077989898,-0.1695438447,2.9884630547,0.1568823747,-1.181010309,-0.096026442,-0.3446954197,0.0047013645,-0.354628387,0.6201772269,1.4545341183,-0.2760773215,-0.3172551285,-0.7295406875,0.3184379537,0.4585763918,-1.2569731201,0.029832065,0.5107033227,-0.4093227005,-0.0382987691,-0.1096890022,0.3278595011,-0.9067794771,0.3163302642,-0.0926871096,-0.0725990147,0.1626286824,0.167662684,-0.2094244639,-0.5295941007,-0.5198998515,-0.3608944255,-0.0371308468,0.8398562699,-0.6458502832,-0.6612533687,0.6524385867,-0.1664233843,-0.7489155248,-0.3670953024,-0.2993020337,-0.2099622203,0.9308004772,0.4044834904,-0.0617217008,-0.6455641494,0.5236478288,-0.0252056708,-1.0740696392,-0.8147927258,0.9813831317,1.2036506678,0.2846110089,-0.259259337,0.5394899963,-0.6879028202,-0.6270162893,-0.2844021893,-0.100711481,2.0859376143,0.0837702521,0.3139287504,0.1166234579,-0.2715056188,0.1252635993,0.2004864965,-0.2584705306,-0.1354791472,0.8366207957,-0.9287705589,0.7994481039,-0.0758985187,0.7899384624,-0.0478700527,0.3547074063,-0.2095519094,0.2691131338,-1.0066635913,0.862915879,0.4003176958,-0.1666043349,0.0598295007,-0.0316585925,0.1469944391,-0.3105590668,0.5586169661,-0.4426449818,0.7172016487,0.9312185979,0.399308678,0.104960235,-0.3291050489,0.116741993,-0.0327484632,0.4245739048,-0.6768148517,0.1270263721,-0.0835322934,0.1826214898,0.3129831665,0.2486291112,-0.1979189603,0.3618564221,-0.3126978104,0.1673899378,0.3942224909,-0.1195448562,0.0631882322,-0.0589121802,-0.10268741,1.0636035451,-0.2113923505,0.3367025076,0.0306465997,0.2564548724,0.0850725372,-0.0386487717,-2.5131349979,-0.5995335155,-0.6846303785,0.4860442326,0.8220254373,-0.6924280579,-0.7661243931,-0.271829508,1.2144253321,0.1535719934,1.1461857827,-0.8301720335,-0.2389651722,-0.6102475655,0.0300070057,-0.042002633,-0.5864979524,0.3886760963,1.0597831386,0.2450208933,0.2824552587,0.0272226991,-0.3599766272,-0.0914550206,-0.1038910313,0.1302949018,1.0673030632,-0.3908829656,1.0453386584,0.7265588162,0.3442045434,0.5296423782,0.1279871958,-0.1222431977,0.7459022621,0.1869209926,1.042946969,0.6090373256,1.085518862,0.9781435516,0.6445230332,0.6140950263,0.6365255239,0.0713026682,-0.1136281736,-0.9423214654,-0.3788058761,-0.4187248118,0.6197033076,-0.3296713834,0.8419359846,-0.1532481729,-1.2164415876,-0.1886542067,-0.2813167482,-0.8859845918,-0.6383192579,0.2952117143,-0.4243214268,-0.1502242917,-0.0090932148,1.1225719237,-0.2298955677,-0.5518996353,0.5569108096,-0.1880574081,0.9008924103,0.1766058008,0.5315549931,0.1871300123,-0.7188036616,0.9093475269,0.2884125588,-0.5351277348,-0.0373430891,-0.8218139962,0.4580973452,0.1040827738,-0.7504642297,-0.9691031305,0.4398566492,-0.2298007163,-0.2575138448,0.7584673609,0.7428296646,0.2204842877,-1.0228516614,0.2941373075,0.1076209961,-0.5246734126,-0.1419116428,-0.3632675634,0.336439323,-0.570709868,-0.2340690891,0.3709481471,0.3178367794,-0.1837873643,-0.7177190301,-1.0220219126,0.3816898664,0.2458754875,0.2361622815,0.7654717912,-0.4371755754,-0.3847061307,0.1506385728,-0.6548387662,0.9210245863,0.2615631705,-0.2057734772,-1.166042918,-0.7645423482,0.6806393805,0.5685189686,0.0442232501,-0.632982632,-0.2800020606,-0.6326150381,0.4843065864,0.4104410079,-0.699520626,-0.530643816,-0.8223939143,0.0430356568,0.0445298794,-0.776269511,0.3448097962,0.0595528872,0.3539979794,-0.4274725052,0.003281886,-0.8701793625,0.4145792036,0.9003094724,0.6516288964,-0.9491735524,-0.0484731936,0.513973265,-0.3614881001,0.1877055782,-0.3951066698,-1.1267790903,-0.3038266199,-0.0906562426,0.395475737,-0.2271419194,-1.2856042093,0.1828046054,0.1376976889,-0.191239142,-0.4058516326,0.9225090815,-0.6199991199,0.2680895253,0.3275092802,0.1431177516,-0.3481844198,-0.3075582559,0.3497831846,0.0088679695,0.2383806291,-0.2271437397,-0.259647182,-0.2154699971,-0.1929535152,-0.4482261224,0.2426974799,-1.0574939443,-0.3628239223,0.0920838829,-0.5164343744,0.2827569142,0.0275954623,0.9492133521,-0.0337194354,-0.2603412576,0.4466525881,0.0793715491,0.4804894702,0.2642190367,0.3901692888,-0.1179062204,0.2972908629,1.026743676,-0.3350445353,0.549666893,-0.3270178234,0.7624736046,1.0844483209,-0.2242079723,0.2141401032,-0.183143052,0.0038927961,-0.1964805394,0.3114647787,-0.6321891114,-0.7715770922,0.3762673661,0.0882513078,0.8526471478,0.5942720797,0.9227290039,0.3242709624,-0.1816897027,1.0662776899,0.8670446711,0.7318847088,-0.4404124279,-0.5308575149,-0.092652684,-0.0824147121,-0.6770566381,0.4798924672,-0.5837728107,-0.2794656737,-0.1288751064,0.1182390953,0.5830220412,0.5524055594,-0.4336864309,0.4474556317,0.5660557737,0.7037587226,0.8202424771,0.1669051726,0.7742279567,0.2083167156,-0.0341631473,-0.999275471,0.0985710442,0.3455976539,1.8630691285,0.7813631448,0.6108379609,-0.1216571772,0.0590123185,-0.7061711646,-0.0558537697,0.1973055307,0.1773110498,0.9673734827,-0.7774386916,-0.0265748233,-0.577938134,-1.3128443581,0.5055741242,-0.7661044479,0.4507387164,0.0801902139,-0.0159025528,-0.0301619399,-0.0436924535,0.3563860115,-0.6125492117,-0.6656875073,-0.7133957864,0.32628568,-0.1350318328,0.334229871,-0.9499292867,-0.1019501747,0.4676194598,0.1598635967,0.1431638233,0.1818043985,0.1357762845,0.5391064706,0.4060921819,-0.4437189663,-0.464770529,0.5814126718,-0.7110278338,-0.6262160028,0.2428312906,0.8008710897,0.241502185,-0.4817086703,-0.6949926876,-0.8067637698,0.9971724343,0.4925930673,-0.8833700119,0.2017707718,0.424348933,-0.7203755456,0.6406549638,-0.9289208691,0.9298300379,0.220770857,0.2078185305,-0.4600046635,-0.2435250376,0.3291948629,-0.2003174318,0.4897972283,-0.7979948884,-0.213885053,-0.380139457,0.2259530388,0.0891250616,-0.4076567404,-0.770537028,0.2014795487,0.166373309,0.244354037,-0.5236270081,0.2726561518,0.6451238177,0.2427268804,-0.0885269132,-0.5763911018,0.5306327134,-0.5070668712,0.2452173652,0.0867456289,-0.405876794,-1.0018168577,0.0055504115,-0.3237801354,0.3520365041,0.0223581314,0.0507954891,0.7877462204,-0.2201763934,0.441272055,-0.25117924,-1.3957129427,-0.146051439,0.0451528422,0.4239055342,-0.3404271483,0.1678448646,-0.4963861697,0.344364064,-1.1241628424,0.236405801,1.0563161341,0.0336936836,-0.0193130493,-0.2634866587,-0.9768515701,0.0511642947,0.4168699237,0.0316078312,0.3352673513,0.8797368512,-0.0367326883,-0.8317104402,1.2046583137,-0.3403591977,-0.0710768027,-0.492945358,0.4121283266,0.3592777579,0.4601486226,0.3295577068,-0.2864191337,-1.121825864,-0.0914990382,-0.9612134719,0.2013968621,0.3243797601,0.7747452519,-0.4077739667,-0.0026537852,0.4831006348,0.3958216702,0.3499979298,-0.4664466865,-0.9775834115,-1.0770871219,-0.3438220484,0.3532281979,0.2448093551,0.2722981811,0.8739307441,0.1772542125,-0.3928152064,-0.1819855073,-1.4976175663,-0.7221431383,0.7700587811,-0.6731195663,-0.4287944538,1.0808431417,-0.2526860119,-0.3544241743,-0.7686178321,0.6943403654,-0.3407996486,0.060093979,-0.573112939,-0.6730125757,0.785449532,-0.4343246018,-0.8285411137,0.7372862813,0.0246846275,0.4518345632,0.7643594855,0.7984600588,-0.6743852699,-0.1219327467,0.3820120111,0.321616469,-0.8769203807,0.1784418416,-0.1794597573,0.1286343135,-0.0998715833,0.3915879276,0.4419651097,-0.3779753198,-0.0826374692,-0.1655404796,0.7480179585,0.6832747305,1.7171400937,0.4624851814,-0.043218065,-0.2829992195,0.1006388511,-0.2035002736,-0.0259019184,0.1800718772,1.318215198,-0.3523750676,0.1396264409,0.1694274286,-0.0958771724,-0.3747256466,0.4024026633,-0.5556823627,-1.5102962964,-2.1097628696,-0.4782912031,-0.477941984,-0.8663454213,0.3508484872,0.9039724506,-0.1677193966,-0.007007207,-0.0332873064,-0.2707336022,-0.3672251888,0.4452417334,0.5136788131,0.1258348658,-0.3498363274,0.5930530804,-0.248027584,-0.1418689288,0.3177097702,-0.3981196797,-0.2149045482,-0.2038883632,-0.1207042923,-0.2902079157,0.15664809,0.0099956191,0.1354565849,0.0845348024,-0.022203059,-0.2692403476,-0.3019083393,0.7529297247,-0.3949175198,-0.4167631901,-0.9055225475,0.3031874128,-1.0381587729,-0.5938562379,-0.0289745009,-0.7016565019,0.4239943339,0.1666911427,0.0778207755,-0.2042806399,0.2757025994,-0.2286699247,0.504960882,-0.0181855816,-0.2277641655,0.199584094,-0.0558137284,-0.490470156,0.5601705772,-1.1422621748,0.6133645418,0.2464948475,0.2263532746,-1.0379765635,0.2523034157,-0.4661946706,-0.2781884983,1.3338732001,-0.0785113282,-0.6363512139,-0.0343716309,-0.1094594853,0.1859914929,-0.1617226783,0.0639846186,0.094519704,0.9165100223,-0.6061141414,-0.5179343154,0.1905110067,-0.3606518468,0.1067493441,-0.4762008423,-0.5316237294,0.1193208308,0.3073720138,0.0195205443,-0.2479137224,-0.0089400394,-0.388702559,-0.3399379971,1.0246596328,-0.4865698429,2.703934866,0.5632448694,0.6770811821,-0.4582043256,0.4388128144,-0.1726759675,-0.1590563613,0.4988387277,0.3787157526,0.7597531782,0.8718690929,0.3525551276,-0.0572283756,0.1796523826,0.4196138631,0.7541976784,0.2707617354,-0.4657345278,-0.9278688878,0.7844783172,0.445176277,-0.817878444,0.6250406158,1.0876003169,1.1565574788,1.0192731604,0.423039197,0.0085492872,-0.7289037195,-0.6163804771,0.1475191986,-0.2818457782,-0.489829373,0.1671783364,-0.5717955139,0.1514046597,0.4220391609,0.4545373387,0.5476753083,-2.0258260657,0.2858860335,0.322775986,-1.1749513257,0.3303878614,-0.8413855364,0.6772549048,-0.0043076163,-0.927731557,-0.6866371628,-0.961669556,-0.7233392602,-0.2978272681,0.0585814798,-0.0905368061,-1.1781833838,-0.74918881,-0.8172679956,-0.9947701202,0.2090423899
##end
biasActivation=1,1,1
[BASIC:ACTIVATION]
"ActivationSigmoid"
"ActivationSigmoid"
"ActivationLinear"
