encog,BasicNetwork,java,3.4.0,1,63716420393408
[BASIC]
[BASIC:PARAMS]
[BASIC:NETWORK]
beginTraining=0
connectionLimit=0
contextTargetOffset=0,0,0
contextTargetSize=0,0,0
endTraining=2
hasContext=f
inputCount=39
layerCounts=4,64,40
layerFeedCounts=3,63,39
layerContextCount=0,0,0
layerIndex=0,4,68
output=0.00000093489087128873,0.00000010279208719013,0.999999903412664,1,0.245351333591532,0.999908621678562,0.00540165919229331,0.508565797365078,0.0000105778765838603,0.000384364456942582,0.926884874324083,0.992070830088389,0.99999999837318,0.909821376239573,0.00203385362468529,0.972302345354023,0.00000750679391763347,0.998950302157309,0.0000371476539346921,0.0304795305356082,0.150493403243712,0.20359504286859,0.405831461875366,0.00193665512159073,0.00033596784769462,0.999998306020331,0.00000712860911068058,0.807173682045781,0.99835662838434,0.0371936170517643,0.459147112226126,0.385083716220965,0.00587993333958999,0.000683479386553873,0.68728068164139,0.0701495799695837,0.00000067230679863445,0.00834015815090039,0.824044128153789,0.0223263378799857,0.980844330258739,0.00000108471698666713,0.0401546966564485,0.021709719716566,0.959522526240706,0.00000109688736887085,0.950731577549378,0.000044761045959583,0.999243804720506,0.217123831649452,0.999992910373108,0.642014789888848,0.982034432500321,0.000947891409981569,0.61605102039821,0.0041738925035889,0.995721751601326,0.000251832580945509,0.268893480193552,0.882213177820389,0.000416071802618777,0.0163029271137188,0.00061776660049306,0.0000136339974107603,0.00686638236543682,0.00347232145233331,0.981254796550143,1,-1,-1,-1,-1,-1,-1,-1,-1,-1,1,-1,-1,-1,-1,-1,-1,-1,-1,-1,-1,-1,1,-1,-1,1,-1,-1,1,-1,-1,1,-1,-1,1,-1,-1,1,-1,-1,1
outputCount=3
weightIndex=0,192,2712
weights=##0
##double#2712
   0.6948997018,-0.6082344481,-1.8140868583,-1.3586729608,-0.3991871799,-0.023474453,-2.3015581151,-2.2095203946,-1.1643753797,1.1106597769,-4.0253397802,-1.1550976087,-2.2884457904,-1.2220047037,-0.1027842204,0.2907473241,0.1335971336,-1.0269105274,-0.6645687032,3.2043026497,-0.6343807151,-0.9493427616,2.2036942557,0.5790225802,-2.8520347088,1.123205364,2.0446994314,0.304536523,0.2536415863,0.7610549194,1.6978678574,1.4501722189,0.8700475842,2.8087894435,1.3650349833,-2.2906681343,-0.239579347,-2.4867115687,-1.8947963609,-2.7312312532,1.4555648103,1.3264050294,-2.1877135555,0.5277939367,-0.7428874306,1.1945094161,-0.4578210953,1.4572107378,-0.5068276762,-1.9395359403,4.5909676225,0.0706281998,-2.5330909566,-1.0195359998,-4.1738715064,-0.7737107285,-1.0277058159,1.5179818147,3.889898613,-0.5199731221,-2.7502514556,-2.2965406028,-1.7238620502,-0.8578589396,-1.7929714707,0.3851858575,-2.8128414649,0.6547914325,-2.8688636024,-1.984509364,-1.0493256811,-1.799709824,0.5560830767,-1.4487993831,0.9553004805,0.3066865742,-2.3377578979,1.4738053126,-3.8817570677,-2.1105375407,-1.9637232125,-1.6117743452,0.3159160935,-2.6912071032,-1.2403110366,0.3930190164,-3.2690706901,-1.0817766236,0.9053317298,-3.4487635364,-2.5378853403,-0.7471856034,-0.1706033177,-3.2340331449,-1.7909092544,-1.6935356623,-2.3275641114,-5.1687275369,-0.7592905485,-2.0949798301,-1.276421364,-2.7086815021,-1.5695863373,-0.6715027665,-2.1052087685,-3.2296708778,0.2209121562,-3.4614591721,-0.8341189503,-0.5023391629,0.3670437235,-2.2627279472,0.3361913608,-0.2692920724,-2.5167538022,-4.1458562703,-0.0441984836,-1.8329899954,1.8018728991,0.1650579313,-3.1657435088,-0.9780106976,-4.7181685137,-0.3062097973,-0.3257744632,-0.5858640233,-2.6902039957,-2.329110689,1.4321066419,0.2465656895,2.6297068092,0.510060618,2.702560817,1.3057284623,0.7150759625,0.7793627795,-0.5392807416,1.0497153651,1.0673932714,1.537007506,2.8791758581,0.4933269142,2.7711083624,1.5275061809,1.4656542328,1.0019626045,-0.5634957197,1.8343305146,2.4116391126,-1.0621566162,1.4977784768,1.1900311599,0.9135366466,1.5557500073,-0.2849183795,0.3339946706,1.2379095037,0.2726656906,0.3364812395,1.3180235331,2.2103539031,1.4255583048,0.7581230775,1.4001876543,0.5402419981,3.7082742687,1.3076024653,0.775883186,-0.1509484503,1.5618246155,-0.4531014223,2.7783565095,0.3454505755,0.3860297194,0.6777854992,0.2326350918,-0.118526903,1.2772750958,-0.74316661,2.7130043894,1.2757376428,1.0485430602,2.0474056558,1.0440767978,1.3937615924,1.5727664713,-0.3763322736,2.7104247696,1.0260514989,2.3259519813,2.6330712403,3.242246051,0.022670377,-0.485204785,-0.078760657,0.730701902,0.3072615276,0.856283909,-0.8589211557,-0.8591895348,0.8341216462,-0.1156862468,0.6304780343,0.8187132661,-0.3949190183,0.2556539823,-0.4524566968,0.5008874614,-0.8800790232,0.9856028486,-0.5090743308,0.7188105254,0.3086889336,-0.6128432802,0.3532602409,-0.8042673363,-0.5930137166,0.6043115014,0.823249533,-0.7902379232,0.8753394101,-0.6542623253,0.6484336022,-0.4470691276,-0.9349487863,-0.0676677434,-0.4337681125,-1.242084322,0.9597941388,0.7047242505,-0.0728238551,0.7258894826,0.169874117,-0.050414604,-0.1489229573,-0.1078581408,-1.651224013,-0.2490568264,0.0278391595,-0.0824344786,-1.1723136726,0.7284524328,-0.0964750662,-0.9027693104,0.6900537504,-0.0093147783,-1.5655630397,-0.1437931273,-0.198860913,-0.4244977578,0.19798595,-0.9467254595,-0.6055150785,0.889040217,0.2859705228,-0.1687322879,0.717170559,-0.9566086826,0.2687808286,0.982152236,0.1859175849,0.9438555278,-0.1201493099,0.1105040917,-0.3141546955,-0.1304958317,-0.0973861941,-0.5237794461,0.7029794543,-0.4722676208,-0.0420831086,-2.503237719,-1.4022102748,-0.0713990539,-0.457028846,0.2107687125,0.6476140407,0.5901097295,-0.359756307,-0.3132676922,0.635353225,0.2572117237,-0.9530739447,-0.8038859127,0.2565513867,1.4677861416,-0.208062624,-2.1811489862,1.0096972508,1.1448631423,1.0613934747,0.5738839017,0.3769004168,0.6804742683,1.2103575154,-0.0359856218,-0.8583080005,-0.3006380065,-0.0933493299,0.0361106054,1.2197553056,-0.34719561,-0.7655724773,0.305515871,-0.215764933,-0.8916745194,0.6492082068,0.1428731777,-0.168542718,0.7216010152,0.8388287657,1.8571856655,0.5656989208,-0.2802536584,0.8127544154,1.0234871451,-0.4469698306,1.0083852018,-0.0652858198,0.1086635368,0.6927824086,0.2471909875,-0.1385144255,0.3142385437,0.371946915,0.1305813946,0.8386095002,-0.3668072302,-0.3288800214,0.5819898887,0.6896211061,-0.8520806741,-1.4175087445,-0.3968306197,-0.9035053778,-0.1279660687,1.1222264179,-0.2330778771,1.2684915501,1.6045029666,-0.3241277979,0.9170154936,1.0111979756,-0.0118044746,0.3643600309,0.5413391584,0.4905315858,0.7822042791,1.1066586567,0.7910293813,-0.8143885915,0.2455500173,0.3533077345,1.1061089611,0.786898321,0.3812063605,0.9603802502,0.8492578072,0.1203913268,0.7658163685,0.473248796,-1.0618824859,0.6932946386,0.6563213464,-0.8098324549,-0.0630737755,0.5081356861,-1.4588391323,1.0206032018,0.9390775278,-1.3739628087,-0.3459148015,0.6823002286,-0.1988631299,0.6997679904,0.6186618474,-1.4655874972,0.4416915028,-1.3421690554,-1.613517751,0.876675996,0.1028546293,0.015259313,-0.3873144299,0.1938046484,-0.2882373321,1.0101800163,-0.079747925,0.3019598673,-0.3254021429,-0.6595429004,0.2488176623,-0.4414981481,1.4053332612,0.8403111482,0.1430542839,0.8555046217,-0.0947439196,-0.9219492905,0.327945688,-0.2953480023,-0.2790384868,0.8836265526,0.1155062688,-0.3414135536,-0.4261915723,0.4384313109,0.7040976705,-0.596127494,0.9862346867,-0.0141452848,0.4634128825,0.0775038261,0.7411205817,0.4101205517,1.0625999779,-0.4584877428,0.2407474487,0.7763824861,0.0013288831,0.1352803871,-0.749270692,0.0646861457,1.1248723564,-0.3581241471,-1.6081864997,0.8274465561,-0.661681784,-0.4315971638,-0.5932847467,-0.2103684984,0.2208679837,-1.0976236151,-0.8954786282,-0.6821695892,1.7602740971,0.8211679138,0.6009066593,-0.5451751026,0.0716901727,-1.2568513369,-0.8552269361,-0.1856204279,1.0612225116,0.8431335114,-0.5458999368,0.3309196672,0.1631392867,0.0418666985,-1.2930892666,0.2373098462,-0.9142224185,-0.273463342,-1.0247599865,0.230298953,0.4873573328,-0.4494248673,-0.5605958115,-0.8583791411,1.0691157086,0.0527646546,0.2699125804,0.1049826308,0.6467947581,-1.2923612327,0.2419787673,0.1928879827,0.0786866824,0.5792417061,-0.2761333841,-0.3521041225,-0.2545898195,-1.7781355378,0.2411130973,1.1764288975,-0.0780654001,-0.1764207738,0.0408970928,-0.418256742,0.7358095217,-0.4304433024,0.1057047415,0.4047877523,-1.4514977145,-1.3468868975,0.6384128888,-0.0606134077,0.030926082,-0.3723047982,-0.2759825011,-0.0517595007,0.2983004491,-1.1593026578,0.0625294262,-1.1876225083,-0.3972225448,0.2746532654,-0.0548426171,-0.7617102376,0.4834292509,0.5283343103,-1.1976641331,-1.3333352163,0.4920300729,0.606238859,0.2813543998,-0.5460801954,0.1966463976,-0.2865297314,0.5620251116,1.2876045052,0.7547380374,1.0931906101,-1.1635507451,-0.4512799005,-0.1325474259,-0.9956669512,-1.0373449143,0.8884344572,0.3172746694,-1.6683811605,0.322975116,1.1038149461,-0.0437844322,-0.2877134606,-1.0989961552,0.832757387,-0.6447080801,-0.8509358043,-0.9846622805,-0.3819741464,-0.632039635,-0.2474602171,1.7955854376,-1.0773000175,0.0841281772,0.5691320592,0.2996887462,-1.39830465,0.7869266219,0.0894192857,-1.1814890417,0.9386816456,-1.0151705362,-1.6452231658,1.4219004373,-0.8689385542,-0.3943298044,0.6715880435,-0.9347535529,0.0291583372,-0.6568684788,-0.3241864616,-0.6357025958,0.5125026141,0.3221222275,-0.326470819,0.4828005162,-0.7482129078,-0.833331411,0.8048084154,1.0280688919,-0.2170701071,0.2360966115,-1.4202823109,0.3235998985,0.6645610365,-0.3053561941,0.5424858355,-0.256700587,-0.0915113442,-0.5630867527,0.974662848,0.336256927,-0.239986725,-0.5018759999,0.0323020313,0.3766755365,-0.9743238251,0.4684202144,1.0488863074,0.6536956016,-0.6984754237,0.6255056277,-1.2083640517,0.1771657895,0.0966977577,0.1989265385,-0.2800268476,-0.0502053396,0.1183525996,0.5422032862,-0.8797880614,0.1602588763,0.0427598395,0.1734493762,-0.2813477176,-0.3404563508,0.0144633713,0.2886162203,-0.3329828754,-1.3888990112,-0.267886039,0.505088952,1.5294192836,0.8887701444,0.5478532506,2.5534164644,0.7436764555,-0.9250727713,1.9192665458,0.0864013809,-2.3628400258,-1.2965597822,-0.4012040695,0.2754126933,-0.4589661578,0.1015392604,0.8378385668,1.2669610082,-0.0046525473,-0.1041547283,0.7700370014,0.3792243982,-1.5080276962,-0.3564418907,-0.0269081096,1.2826157774,0.147598639,0.2112984722,-0.7583278799,-0.5598041729,0.1915552283,0.186228788,-1.1719231733,-0.428603845,-0.0941273724,-0.5018470442,-0.4606435866,0.0825584093,-0.4038790763,1.0677157433,-0.2193080914,-0.4816022691,1.0260465058,0.1039691931,1.8442785937,0.08411106,-0.5853558583,0.1459680171,0.8940826282,0.8465475269,-0.150522176,0.2643724656,0.3237906672,0.0275905675,0.7341070072,0.3323115404,-0.0739467411,1.7585765709,-0.0921081583,1.0835929403,0.3694604089,-0.8890759207,-1.2849315317,-0.1470551212,-0.0383051826,-0.3494278594,0.6301275829,-0.9155248525,0.0777824708,-1.9919788625,-1.3002255552,0.2684809454,0.8694102247,-1.1689778262,0.2285843755,0.8682557825,-1.4141432255,0.6799893476,1.2526939846,-0.4573560058,0.4379495444,0.0595304016,0.2103519166,0.0467432715,0.656241352,-1.2818629201,-0.0040140816,0.4916235772,1.3318899697,0.4963325997,-0.158921873,-0.7563508709,-0.350188253,0.0039349471,-0.8543258653,1.1784883511,0.4602054885,-1.0113063303,-0.2963761131,0.6305764009,-0.8692580882,1.4347739904,-0.0061741449,-0.8288457972,0.2736232112,1.2466966928,0.2474368494,0.4950321354,0.8338680652,1.1999970394,0.4409013424,-1.0370225974,-1.1189080924,0.3401133326,0.3478054772,0.0729606879,1.3054547424,-1.350672882,-0.1933423856,0.9833797965,-0.0511148308,-0.0930261144,0.3333429326,-1.0167323669,-0.8545808689,1.6882826319,-0.2227659657,-1.1450964669,1.8572065111,0.3775329598,-1.8184771542,1.3776820042,0.5674285897,0.2703287753,0.9246472218,0.4577140716,-0.0388563331,0.9891922497,-1.1845982062,-0.0439043431,0.033063751,0.2081901753,0.19681205,1.1559027814,-0.1605569352,-1.2790490337,-0.5477987172,-1.0342391528,-0.6332086262,-2.8764157401,0.2925062609,0.4616210076,-0.1387242814,-1.2726560019,-0.289709762,1.0460807199,-0.4294105723,-0.5806849972,1.3242337951,-0.7129896419,0.0462984965,0.1720272885,-0.8895894774,-0.3301210143,0.7246943171,-0.2067531794,1.060888307,-0.7271130484,-1.0002834037,0.4807437652,0.932438743,0.0196066773,0.4738076803,1.7242427564,-1.3977351534,1.3881773016,0.4291612071,-1.3920052561,0.6478596334,-0.2590845148,-0.3549116849,-0.6241373533,0.0486277981,0.1949454843,1.3251718179,0.2714664937,-1.5070214361,0.9244388676,0.8061252419,2.7914265724,-0.0258157349,-0.1205345756,-1.0827763237,-0.4289642758,0.8970687514,0.3416867431,0.4202587293,0.3674614809,0.7998450956,1.0585361942,-0.4673605085,-1.0326178919,-0.5588637462,1.2369244368,0.4070105578,-0.5831515484,-0.1007481894,-0.041366641,0.6255917715,0.5178414944,0.4411154262,-0.5320868865,-0.3179427601,-0.4730898504,0.3429798106,1.0281039608,-0.6559174197,0.2396761402,0.3953807487,-0.4864227403,-1.048470062,-0.1619976395,0.2605446427,-1.255935941,0.4652073022,-0.3755622376,-1.0729105051,-0.2124508998,-0.4721814901,-0.5958503778,-0.0203171677,-0.0314409941,0.7887471209,-0.8644292965,0.7159764305,0.1528020443,-0.4143919027,0.6737381894,-0.7730861982,0.3271725959,-0.0379163357,-0.9166466935,-0.1687837272,0.1073701728,0.2957126979,0.4383341492,0.6791235451,-0.5307192855,0.5047701543,-0.0792371333,0.8234706198,-0.1027145812,-0.2173335291,-0.2359680915,0.3458575763,0.8156304754,-0.9330108979,-0.8520168063,-0.5014597074,0.4530292574,-0.1932754883,0.2316567317,0.521226144,0.1492447687,0.9198689216,-0.2633393188,-0.8420785711,-0.6891621987,-0.1561518976,0.7273883632,-0.40577899,-0.8744991107,-0.3758214086,-0.3600359089,0.2168229598,0.6889081416,-0.7390104826,0.4700029119,0.4156325164,0.307495194,-0.4555851683,0.6079372203,-0.5830291432,0.6952149113,0.5550066979,0.888429457,0.8361586594,0.5986792683,0.8424626099,-0.4123339591,0.4626673775,0.3281129417,1.3052526976,-0.3451071706,0.3183269717,0.9118008771,-0.3062538982,-0.711616699,-0.3767173068,0.7184149863,1.1707385752,0.0842615153,-1.5326087887,-0.3681859124,0.4072297815,0.3763316364,-0.171073087,-0.1381329819,-0.6702512354,1.2806136008,1.3777385888,-0.8833607702,-0.5926170149,0.4691800493,0.4882093467,-0.515620387,1.710582937,-0.6510585054,0.9242895346,1.5518245195,0.2560847717,1.3348778304,-0.7333946336,-0.7498948787,0.0498775561,0.8558526683,1.0316896252,-0.3523723294,0.3996416248,0.6786689144,-0.5482823986,-0.4305470678,-0.8182945367,0.8353405266,-0.8407608807,-0.8575133862,-0.3448846786,0.8525363254,0.3283365793,-0.474984179,-0.1356548583,-0.8894533218,-0.4158044289,0.7075485039,-0.8529479682,-0.214349055,0.5137257092,0.4719861306,-0.3318149082,-1.6088819597,0.5073848526,0.7450087884,-0.8898348078,1.5457040186,0.5315079838,0.4887919527,-0.132168697,0.8350344609,-0.2056916748,-0.2561280933,0.6094117766,1.0798333318,0.9876201342,0.2139416498,-1.3341568829,-0.2662421218,1.5229319753,2.5290500463,-1.0029209793,0.5085481004,3.0118219563,0.8982420297,1.3024981996,-0.4641536045,1.4157383314,-0.2897029556,-1.9771960787,0.7476642064,0.8329494172,0.0796278064,0.5314950742,-1.0688187541,0.7045309537,0.2907829939,0.3584898816,-0.5671517563,0.7724001671,-0.2468496886,-0.4011337486,-1.1145941451,-1.0627377859,0.8099277065,0.40962799,-0.9304454661,0.3091093205,0.0751068409,0.3689055301,0.1322084489,-0.4965457645,0.4969141738,0.3928720372,-0.1513227148,-1.0553239694,0.0479782951,0.135089987,0.797078009,1.2214917931,0.8461203808,0.5107259206,1.7099860884,-0.2504466682,-0.1741165842,-0.1743311058,0.6621752251,0.0790355934,0.1491594975,0.6642088157,0.2305763979,0.6067660818,0.692075287,0.9127141283,1.386995146,0.852765346,0.2677961272,1.2778752045,0.314349069,0.0250977304,-0.258884602,0.5104394173,0.6752155297,1.772677393,-0.4767477179,-0.0559275574,-0.125092295,0.2362657173,0.726122383,1.7872840412,0.1430920215,-0.7764994137,1.4142776085,-0.423486169,0.028101137,0.1237217054,-0.411530099,0.1240068455,-0.4190077487,-1.234795296,-0.8951898732,-0.7290091848,-1.6673954725,-0.6943998033,1.4878521811,-0.0304893324,-0.0223283388,0.1356823243,-0.8264125361,0.4306762358,0.0042069946,-1.3654028021,-0.4133673813,1.1088642885,-1.6897072447,-0.8110372788,0.944585476,-0.2755941904,-0.2477381011,-0.092032607,-0.9216487226,-0.8295645257,-1.6670815188,-0.9551035837,0.2622098141,1.1356899634,-1.703795946,-0.4191991274,1.4467893017,-2.0918510384,0.9062021209,0.3609435716,0.7951584463,1.6789513825,0.0996291893,-1.6922296501,0.4855127704,-0.4191100446,-1.3283131663,-0.7378853824,0.3253849401,-0.0014806754,0.3566502597,2.5852544181,-0.8246169803,1.9606895194,-0.0077958056,0.4281660249,0.0573547367,0.4337630656,-0.9152737492,-0.1895737126,0.8991445206,-0.1280057126,1.9516527672,2.2749201038,-0.866780962,1.4040873813,0.1722243796,-0.6958151394,0.704178154,0.6555333767,0.9716688596,0.4718977373,0.6398995946,-0.1654769987,-0.4358619341,-1.0322301372,0.3766450279,0.5776483586,0.2325309419,0.8617592133,-0.7247509379,-0.57330954,0.3304989327,-1.0689784969,0.5271372225,-0.2981328762,-0.6051741277,0.7337980335,-0.6784666666,-0.5260575177,0.8410067718,-0.3901547297,0.2491739512,-0.4048199682,0.0339974838,0.7668746559,0.6826230235,-0.4456099832,0.5516544314,0.4047947471,0.3034709235,0.7849360634,0.222499515,0.8541181206,-0.6637574926,-0.4038317258,-0.6489286403,0.7743225557,-0.116364186,0.5425370562,0.5337903776,0.8835921126,-0.5642403598,1.261361346,-0.0013080639,-0.3449560188,0.0001710004,0.041978202,0.1913206732,-0.027539491,0.4198797566,-0.0763031306,-1.1933918163,0.1301967487,-0.6768869367,-0.7543813996,-0.0302359478,-0.2458555156,-0.1999217344,2.5498053959,-0.2065861697,-2.173242,1.245289655,0.206285181,-1.0151629796,1.28020457,0.4254848146,-1.0310258691,0.7162410541,0.8385787552,-0.3802519137,1.6762292312,0.6832197466,-0.8787210089,0.810931554,1.5465166526,-0.6746473676,0.1916397027,-0.0680631596,0.4398292267,-1.259013472,-0.2068790135,0.2970892281,-0.9711056965,-0.2170392578,0.4030224427,-0.2290416446,-0.6187979657,0.8496275033,-0.4029833295,-0.7860842032,0.5349028729,-0.2006132311,-0.6684675634,0.2663413379,-0.4277997148,-0.8452949892,-0.5664114714,0.6046584794,-1.5759627644,-0.6085967862,1.9787861009,0.4847042134,1.6839487246,-0.3099702637,-0.7793566589,0.6956890464,-0.744518605,0.1215846547,-0.2806380632,-1.0466365373,0.0702162788,0.0602115312,1.0696727412,-0.6005428822,1.7018941385,1.223196852,-0.7639469322,0.7177535158,0.7504013306,1.9125876689,1.5505519448,-0.1566324081,0.1895946892,0.7682669383,-0.4509761744,1.377334305,0.9805536635,-1.1340904101,0.3332565213,1.079812801,-1.4991929559,1.4253484259,-1.1907256168,0.4585625601,0.0422473198,-0.9287128157,0.3699119678,1.7544649565,-0.6233066669,-0.0521945728,2.1590015389,0.7374816853,-0.5893457791,-0.381484717,0.6493979975,-0.9617150534,0.6104962881,0.3061584722,-0.5068802696,0.3887825647,0.6665101869,0.2388597329,1.1605394449,-0.6202878452,-0.3181468432,-0.8626561312,1.1701272051,-0.1393636744,0.258482418,0.0950435804,0.7983031971,0.7910054029,0.6618180368,0.064471303,-0.612009522,-0.6405969436,0.8450071818,0.00681612,-0.7350489537,0.5824135564,-0.4523568837,0.2343729455,-0.03123899,-0.2497369218,-0.4416354364,0.8787963499,0.5734014555,1.1445275385,-0.4794385284,0.3254249121,-0.3734615551,0.52344727,0.15963995,-0.3237508835,0.2785745948,0.8549072697,-0.3991405805,0.9449361538,0.629323816,-0.4115661243,-0.6227766295,-0.0959726048,-0.2224166353,0.3704889428,1.0545412329,-0.3569344487,0.7000916318,-0.7475363449,0.2679136588,-0.5330342506,0.2647728859,-0.5903748992,0.3240561049,-0.2575374937,0.1792889653,0.2224025328,0.7422948487,0.9395104437,0.0878104678,0.1980529926,-0.3779450093,0.9027392859,0.6073700453,0.2966945072,-0.659161805,-0.0977921549,-0.3732313367,0.5440397086,0.9243941272,-0.8717197376,-0.8576065661,-0.1318268257,0.7379165625,-1.0508408159,0.5866004015,0.6097679995,1.0330273209,0.0682336106,0.992798379,-0.4981284577,0.3320017907,0.8477851309,0.4630033281,-0.1455389204,-0.9884470495,0.2963213098,0.0332035622,0.0252047008,-0.0177765637,-1.6736664235,-0.2134589115,-0.0995539187,-0.1785039957,-0.5482260325,0.1266771283,0.2524779714,-0.137500921,0.982941474,0.5021261217,-0.4061721944,-0.0950779368,-0.8564996914,-0.392010878,-0.5336372509,1.8351614568,-1.4198618268,0.0929111575,-0.2277404686,-2.1281764054,1.2181692015,1.5485537813,-0.5288479266,1.4532972767,1.0143413399,0.7967736138,1.2410893221,1.112961185,0.0151333354,1.2712529528,-0.0708352943,-0.118113633,1.6378622989,0.7755982419,-0.5596244255,-0.3895401925,0.3620119334,-0.0225034581,0.9245559843,0.2659123876,2.8593004136,-0.9311622878,-0.3596880915,-0.6224603749,0.463504134,0.115976492,-0.5908124179,-0.3542491663,1.1847292508,-0.7883167618,-1.0487619956,-0.8509915504,0.6253444021,-0.5121399559,0.5582369539,-0.1036238594,0.3432076523,-0.0252981071,0.3353420858,-0.8131975154,0.5663666532,-0.6187703409,0.1891742288,0.365354156,-1.0407839755,-0.919986105,-0.9592160834,-0.9644864474,0.7852441895,1.8564153739,0.5361703145,0.0004424835,-0.2559824792,0.7858669317,0.6586357993,1.595894754,-0.4644036596,-0.091950975,0.8945869466,0.0474374082,1.2232095936,-1.3863744738,0.5507567744,-0.3393042963,-1.0275115556,0.987996007,1.2644634258,-0.6465216366,-0.0723282021,0.0917045005,-0.8099931001,0.8284987616,-0.0156179277,0.2021926178,0.8418894617,-0.5510674591,-0.5475909133,0.7043476392,-0.7677493138,-0.2005728506,0.1813726124,0.5524102728,0.2966286792,1.0923579469,-0.7268010133,-1.096789222,0.2335653018,-0.7937016727,1.040099056,0.0852798272,0.6920698556,-0.7732267542,-0.1182264874,-0.4964673639,0.6988699304,-0.4015243145,0.9086061856,1.3179793564,0.1690717186,0.4660770387,-1.4811470843,0.4212823091,-0.1889863073,-0.2073703187,0.6663402701,0.9811160869,-0.681405959,-1.0154548322,1.3001063731,1.1537039696,-1.1781617613,1.284778132,1.0845446403,-0.9173115022,0.6505609325,0.5903106872,0.0973489172,0.3369528638,0.8702652078,-0.3534497816,1.0342068396,0.5218847611,-0.8578510473,-0.2984667465,1.2730460962,-0.3618389984,0.8817221951,-0.3582724252,-0.5287978202,0.1833875214,0.9331941877,-0.3960635709,-0.0808030623,0.3498960003,-1.2970821141,0.1670110614,0.1738935796,-0.1684249455,-0.7210560589,0.3476592414,1.0321469306,-0.812726741,1.2208970427,-1.3264857369,-1.5383210282,0.6067972762,0.9120345417,-1.6046963667,-0.2978550252,1.0563915775,-1.789895549,1.3346245863,-1.302614229,-1.5364922332,0.500133958,-1.0564839785,-2.5313870847,0.024819612,1.9560892181,-1.9902261428,0.2995490381,4.3992870024,-0.1189697634,0.6556319782,1.5781994729,-1.4301161765,0.6581895392,-1.5845553514,-0.5725268411,1.6802383827,1.1137454004,-0.8658149136,-0.0195456525,2.1660782127,-0.456600311,0.6013987839,0.6074233237,-0.0807258193,-0.8366889471,-0.5877158956,4.8949167631,0.0961049414,-0.6015105999,-0.1344111515,-0.1175910435,0.0078878834,-0.2899412586,-0.6184476073,0.7899082786,-0.6937233408,-0.3930896972,-0.8117034477,-0.8540502708,-0.7871657485,-0.3173006711,-0.9712453515,0.3564668095,0.2295782514,-0.6564930505,-0.5796651579,0.4965692704,-0.396477172,0.5587760775,-0.6733854066,-0.7662082558,-0.4391252756,0.3460387492,0.4703772897,-0.058859026,-0.5563387041,-0.1118371184,0.0436154403,0.917570867,0.7569812391,-0.1237901915,0.3686646655,0.0992665025,-0.0064510874,1.1298233297,-0.6823329446,-2.5761381968,0.1301701087,-0.4926006652,0.1776197266,-1.0399277135,-0.8196405002,0.5809391788,0.3783877453,-0.9005252853,0.3023610356,-1.4266844032,-0.095862235,-0.5592651025,-0.7153053035,0.3861146819,0.7402586362,-0.6626025104,0.5809687787,0.3855756411,-0.1957724135,1.1185104287,-0.6061996711,-0.6849918902,0.4726650653,-0.4990631313,0.1846629086,0.4338604157,1.2583221046,-0.131641591,-0.5549577633,1.3684596009,0.2680117996,-0.7641283325,0.3137579981,-0.325057113,0.3831261277,0.8950740347,-0.0856206581,0.2771965573,-0.1719244892,0.5365798719,0.570199881,-0.4279507843,0.014196703,-0.0578497451,-1.0229607159,0.6284150572,1.259472556,-0.9002161449,-0.5367267309,-0.9074062803,0.6043600488,-0.8104647305,0.1210788839,-0.5280153564,-1.0262842057,-0.4782104807,-0.2731830906,-0.0163608459,-0.4855730908,-0.2271710014,0.162616468,-0.94010592,0.2070287301,0.0318982305,-0.2528779594,0.4137521031,0.2200851449,0.624289334,-0.4505755308,-0.8759748908,-0.3668455467,-0.4208666876,-0.0715383696,0.5685418365,-0.6356536115,0.2008707962,-0.5533969734,-0.3146546039,-0.1280952647,0.5070917686,-0.4249522959,0.1502803622,0.204250269,0.3548393179,-0.1237615815,0.7092724189,0.740628524,0.3208246994,0.9038215493,-0.2154014176,-0.024895438,0.7731451207,-0.9542939142,0.9247374128,-0.1775572801,-0.2589742452,0.0828928674,-0.8705622358,0.509806897,0.4204426179,-1.2557756513,-0.9886416138,-0.003238014,0.8824524435,0.6459450848,1.6857640901,-0.6856327437,-0.6441767772,1.5629626475,-1.2000119347,-2.4422270736,0.5738245403,1.4214508655,-0.31753652,0.631856722,1.4647328244,-1.90694396,1.4938207146,0.1602640996,2.1267677877,0.111522682,0.0318136137,0.9600868233,-1.2075531618,-1.0737869526,1.2172725535,-0.4648055249,0.3374259569,1.0613071809,-0.2492195269,0.5461023892,0.7152450779,0.49334038,-0.9185887724,-0.967925135,-0.478042175,0.1994164132,-0.6047402866,0.3310017855,-0.4206969606,-0.8139737488,-0.1661260127,0.3931868094,0.3441465428,-0.4438381173,0.3965797407,0.6263387003,-0.8200615019,-0.5315783255,0.2198861912,-0.3091420163,0.3752127934,0.2100975685,1.178445553,-0.9694552436,0.6775349975,-0.583710594,0.9425098016,0.2940299985,0.271390902,0.4483708718,1.4623108203,0.0808473849,-0.5071354415,-0.370794279,-0.0661178129,1.1830084459,1.1049627611,0.2929511435,-0.2449479898,-0.0028022929,0.4492158921,-0.9774895912,0.6062775803,0.7352993948,1.2297276216,-0.776335976,-0.6118124862,1.7814770107,-0.1032306725,-2.1210555835,0.2684913589,-0.009092878,-0.9536304727,-0.0042584416,0.1604049337,-0.6381964237,-0.1854134861,-0.4358902843,1.1436596473,0.626527956,-0.2963802278,-1.0843679123,-0.6269909644,-0.7602216385,-0.3030645472,-1.7149318336,-0.0526472348,0.6881316598,-0.6186841908,-0.0150894091,1.0569569946,-1.3767255299,-1.0946582161,1.0924406955,1.9378544812,-0.013233426,0.2845735117,-0.3947484642,0.5009303404,0.0169786839,-0.5574198074,0.626978303,0.1899203985,-0.1415013735,0.2739271302,-0.1827244251,0.4491866221,-1.1132195785,-0.84736332,-0.2206779621,0.8768349697,-0.8192868139,-0.4843019784,1.1844525715,0.3272695112,-0.3013364181,0.0469961613,0.5773181484,-0.6291534264,-0.7820462471,-0.9380772753,-1.0723369883,0.1039174228,-0.5176416074,0.6613969819,-1.9328036929,-0.6320368325,1.2425924084,0.5353251138,-0.0141552022,0.6276025425,0.7830491068,0.7517022147,0.8629146266,0.8235708575,-1.1727043207,0.627969129,1.5852966041,-0.5962131831,1.4957182133,1.2003190102,0.7509159095,0.3516785262,-0.2965104294,0.5761292725,-0.9918818511,0.6624401293,-1.2526720761,-0.3642665454,1.7712386874,-0.9167328936,-0.7061986515,1.8009782963,0.7002289647,1.7402716828,0.638178369,-1.0894561361,0.1781750657,-1.0625566747,-2.0244996186,0.0002398638,0.1219121708,-1.6044770304,-0.6664189849,-1.1788319191,-1.1141342267,-0.6415343211,-1.2670023975,0.6571172013,0.0031980556,-1.4032265285,-0.969982507,-0.5827969893,-1.060692191,-0.2690043303,1.3016669284,-1.1589267594,-0.3371549601,1.4323703531,0.1925510255,0.0161241083,-0.459183349,-0.4071066257,1.632469096,1.3494622824,-1.1267867773,0.7133677172,1.3898005832,0.7502246187,-1.185113207,1.2179489212,0.0263883105,-0.8302474484,0.125665517,0.0335647155,-0.882756492,0.1171043424,-0.109268239,-0.215548141,-0.3447231462,-0.8160422758,-0.3865074708,-1.0013501966,0.8039189695,-0.7188222913,-0.1035733455,0.3945092783,1.1938639321,-1.6031140007,-1.0957843956,-0.6876155622,0.5210207045,-0.8940227127,0.4366438158,-0.4789952239,0.3957108933,0.9739596766,0.9789285923,-0.7718909479,-0.4877318891,-0.5197771952,-1.2801886255,1.273450055,0.4049265685,-0.4553712826,1.7834662702,1.4184920834,-0.6080855488,1.1318618927,0.2695318787,-0.1408605343,1.1196323117,-0.1265906582,0.5402922861,0.6054582138,-1.2194983455,-0.0176406216,1.1016858108,0.9123278999,-0.2160401458,1.1860336668,0.5375029364,-1.4841650705,-0.4744006911,-0.1117362801,-1.5979575712,1.0495194919,0.1834115744,1.5057264354,0.2375139352,0.3824199236,-0.9777217392,0.441618765,-0.2092743466,0.138629155,-0.0441983791,0.4273626892,0.7222213295,-0.6976150321,-1.0708815357,-0.19419083,-0.6217254326,-0.9587396419,-0.8059026971,-0.7090907761,0.1933507759,-1.1110939486,0.4845063373,0.0479898679,0.4956224361,-0.0041119262,-1.0072489061,0.3971530495,1.161430631,-0.7849703677,-0.1210255133,-0.2652712326,0.0768528058,0.2708472255,0.5823197709,-1.0424548241,0.5068055754,0.6608866509,1.0008913731,-0.8267129975,0.3338576233,-0.1331630691,-0.185183203,0.4452194062,0.2166779509,-0.8141025918,-0.3084442529,0.3619932645,0.3196591199,-0.2179598692,0.4348472485,0.0476810926,-0.3559984214,-0.4582483239,-0.1891025439,0.0357604449,1.2241962781,-0.0238329064,-0.1327682528,0.3353774036,-1.1855232645,-0.9645539837,-0.4224830958,-1.0434303186,0.3356075885,-0.8394471311,-0.9656104183,0.8462922106,-1.0973312884,-0.2928858189,-0.3655833438,-0.2535625676,-0.8946389811,0.4113301701,-0.9249221462,0.3949468324,0.3676414932,-0.6803666423,0.0353951064,-1.1605270758,0.2826283962,-0.0887660322,0.6611032306,-0.7174151409,-0.1281375417,-0.511572644,0.0334221734,1.1066165079,0.2989603607,-0.9637185134,0.6959267705,-0.8042525904,-0.1082919487,0.6668979129,0.2327603814,1.006680324,0.2726339667,0.7503355003,-0.365195902,0.3354228701
   -0.7609919951,0.1337669411,0.9341409164,-0.663348047,-1.6232493955,0.8616922059,0.007203363,-0.4049286616,0.4348755729,0.8976207,-1.1084692311,0.376408784,-1.1399490726,-0.7069009744,1.6220511131,-1.0411742971,-1.1596923134,1.608231602,-0.5635967048,-0.672143922,1.0676227521,-0.3053577215,0.5270535661,-0.578471282,0.2108025454,-0.0670157096,0.4058629033,0.3520694351,-0.3528158059,-0.0066674764,-0.9868874875,-0.3649477892,0.7158781191,0.6592493832,-0.9567880391,0.5228956836,0.5319370657,-0.6772235981,1.130726619,-0.950892955,0.1065868586,0.5046893522,0.1335223577,-0.0309241268,0.8904255325,-1.1411265229,-0.3789304063,-0.7540787857,0.7937001373,-0.5857588658,0.2010762089,-0.3790202971,0.9711028573,-0.8546288461,-0.6505233081,-0.835905803,-0.8373188004,-1.8307525951,-0.6821777238,0.3197034391,-1.2897324836,-0.2541228995,-0.9389643147,0.8822365635,0.0339991693,-0.3894383977,-0.6999687523,1.4912435186,0.8075229201,0.919856847,-0.3064665253,-0.7300923514,-1.1551348358,-0.8107922298,-0.7365158866,-0.611217304,1.7670695299,0.7076510987,-0.930051142,1.9712982714,0.4028821049,0.2833078206,-0.6704056054,0.5915609944,-0.8727003647,-0.1077103835,-0.9883712061,-0.4366446223,-0.3789465571,-0.5672383601,-0.4370489215,0.6930414048,-0.8358711499,-0.0136569118,-0.1777414956,-1.0125845264,-0.0535444268,0.6842290423,-0.9803444936,0.6249836586,0.1838166928,-1.0923026196,-0.5416336471,-0.5467701189,1.4267676873,0.7024659129,0.2647631854,1.421666691,1.2854970192,0.5622129848,1.0397392031,0.551034792,0.3178884703,1.4873939532,0.5027430067,0.6648221551,-0.2151652676,-0.4064883337,-0.6720656419,0.5472633736,0.3899748314,-0.8927132255,1.8259221863,1.2407108336,-0.6861399064,-0.3121312094,-0.6873541801,-0.6263291844,-0.6469949084,0.8361816595,-0.5002181525,0.3731060063,-0.4813889751,-0.1291340177,0.7358607581,-0.8692330156,-1.0043797304,0.1607787829,-0.5016638198,-0.2842562609,-0.7209547485,0.5733117696,1.1799193619,-0.691071041,-0.4976211339,-0.3122411725,-1.309463699,-0.0188546882,-0.3180466203,0.2728949322,1.0058059412,0.3573951815,-0.9630967923,0.6429018356,0.7586112168,-1.4223750018,1.8481484033,0.4661327738,0.1125486554,1.5019813755,-0.3713993096,1.8294951691,-1.6192009191,-0.2801928665,2.8537466638,0.9088198509,0.2086953141,-0.6009043249,-0.0966906973,-0.9449866631,-0.7353126734,2.051058068,0.5150147983,0.76052127,0.9315326919,0.6902928459,1.9242416936,0.8195506191,0.3178720264,0.1320083803,1.3463330566,0.422573487,0.5635621998,1.0436899038,-1.5673152894,-0.2049263575,-2.1464817544,-0.7325022341,1.5675426172,-0.338494773,-0.0295380061,0.577701848,-0.5285305584,0.322613147,0.4572669978,-0.5785197051,-1.652755704,0.5948103883,-1.8995380847,-1.2840297093,0.3717610527,1.3145364558,0.3970727919,1.5029010184,0.0916075539,-0.8285051611,-0.44344018,1.8586837046,-1.7342561815,0.3131561595,0.6137634338,0.1100367026,0.6953123913,0.8463825948,-1.120616019,-0.1038601861,1.1916145886,-0.0612945648,0.9167485407,0.2123153072,-0.8194556489,0.2039189879,0.5153696018,1.3853652469,-0.8327390746,-0.3705524117,-1.0021407222,-0.6690830344,-0.4241274701,0.1806415527,0.8736297399,-0.6121222977,-0.4020679097,0.8390788861,0.6600512289,-0.2753057616,0.7591917458,0.0365860428,-1.2085072105,0.706159777,0.8978530729,-0.4427161684,1.8880831864,0.2111938206,-2.2902575588,0.4368600464,0.0056597685,-0.1340677781,0.2493618121,-0.6527004746,0.0007386695,-0.3733179306,0.6729059425,-0.4313046546,1.1898280347,-0.3241512855,-1.0446694867,0.7665654251,1.1822565557,-0.3833626241,0.6857112635,1.3362187003,-0.4460281021,-0.8743961527,0.7406960688,0.1113193114,1.1030351966,0.081283374,1.1419973764,0.8038100704,-0.0067230509,0.7354207524,-0.2382245644,0.2536749681,0.3459247594,0.1640007238,0.3771904433,-0.2913620837,0.2582786025,-0.7167943482,0.0084629428,0.7783167281,-1.0245363135,0.4962588686,1.0080976963,0.4576949724,0.6808717325,-0.5308178021,-1.5189345415,0.2507422108,-0.8765218468,-0.3293924482,0.0935953131,-0.4306775501,-1.3451144235,1.0339111848,-0.203607136,-0.5855096525,0.5599996079,-0.6600241716,0.2616528995,0.3101078778,-0.1780523899,0.4312909895,0.1005847946,1.0833237169,0.4406494631,0.640581994,1.1124194488,-1.248509621,2.5452806146,-0.0807796208,-0.3928230224,1.0272549662,0.2923742931,-0.7997114869,-1.7315872692,-0.3670334169,0.5321650963,-0.3085147052,-0.0073776511,-2.086152243,1.9283328342,1.7981511011,-3.4818826006,1.243308878,-0.4668056148,0.710225419,0.386515383,0.1236083062,1.4054451415,-0.8967452249,1.0143797717,0.0959317942,-0.3653531987,0.4695920217,-1.4717907465,1.3618336137,0.4749176027,0.0923997027,-0.0846612325,-0.1811959575,0.3323456632,-1.1120113108,0.4623448096,0.8003721713,-0.8181689226,1.2267420909,0.3939642768,0.6997153823,-0.4445008545,-0.6452580573,0.2889645295,0.9912866903,-0.5872899484,-0.1371844186,0.0137366832,1.051756646,1.2574497171,1.1240192641,0.5972126658,-0.0701362561,0.1932831034,1.0562610149,-1.895243757,-0.0697753532,0.3320709191,-0.7926649948,1.3799556874,-1.001366126,-0.4947233614,1.2147847264,0.2372139093,0.8185929899,1.2122076546,-0.8312038109,0.3081502444,0.9344852715,0.0692294249,0.2616358391,0.2052131022,0.1706099058,-0.2259251256,-0.4036959643,0.082082778,0.2009135089,-1.0334933663,-1.563077577,1.3803123098,1.3828113296,-0.8065261931,-0.3460984198,0.5866688281,0.6719386106,1.4269848676,0.2593245679,-1.3985234972,-0.151469092,1.0586191895,-0.2785346636,0.6795465891,0.2296749847,-0.6496844185,0.694383142,0.9454541198,0.1150745164,0.0659211141,0.6535822896,-0.8749665622,-0.3604036467,1.0202370636,0.2827501289,1.0120849088,-0.0226338524,-1.1418924807,0.9667146707,0.5783439359,-1.4352260815,0.0751018175,0.060361896,-0.0597842894,-0.5490463209,1.1316110487,1.9915901255,-0.0366127103,0.1228586843,-0.9747289071,-0.0142803109,0.0373727799,-0.705575237,0.8258322078,0.686275095,0.3497619346,0.5252688911,1.5576666945,-0.2555780351,1.1537663437,-0.8624641067,0.6553297576,0.3616599597,0.3248868503,0.8858667793,0.1000780484,-0.0776804843,0.355261695,-0.3875661741,0.5574720035,0.9185287728,-0.0383779835,0.5315831537,-0.088178378,0.4844075801,-0.3217305957,0.1170505545,-0.622442095,0.3869044935,-0.0426853745,0.5223492943,0.2053008057,-0.7230818016,1.0487538098,1.0061396642,-0.5137768216,0.8817281109,-0.1772134361,-0.636320307,2.3604823208,0.3573923307,-0.9596787843,0.7000947023,-1.4513865001,-0.4603974603,1.2787063405,1.1686670714,-0.9342875511,0.3193716418,-0.986081514,-0.6535441936,-2.7331702502,-0.2997963897,-1.8965503919,2.0374449365,-2.1717023401,-0.5475747265,4.0299970657,-0.3052436224,0.7689401991,3.4061442688,-1.105350696,0.6339329614,2.4402395335,0.2906749043,-0.1164236456,-0.2172834308,-1.5066402229,-0.0049194642,0.9725818373,-0.8560971129,0.9165280961,0.081889019,-0.0217629352,0.2502868566,0.3705041295,1.6129834206,-0.1943379303,-0.2832162572,1.1362393424,0.0477861304,-0.8007761169,-0.7567027694,-0.0265189382,0.7872382729,-0.5820077818,-0.7393929683,-0.4369842289,0.6996836363,-0.6926833839,0.3059662263,0.1035330303,-1.0131071465,0.4175501824,0.7709900282,1.3017243153,-0.5993524049,-0.1864905349,-0.9618936931,0.4566316064,0.3578248513,-0.3922021858,-0.4951278443,1.7405915021,-0.5461241073,0.2954552457,0.1685584882,-0.7449382532,0.7867598826,0.769188547,-0.3245823277,1.1474113047,0.773459651,-0.1532381905,0.4775165966,0.3369932276,-0.5214045229,0.3203750361,0.4379092917,0.4039882402,-0.1266278908,0.2175894272,-0.6000635678,1.3607851602,-0.2775287562,0.7029658904,0.7446111772,0.5622473017,1.3624185033,-0.064222438,0.6131009964,-1.403835275,1.2743568652,-0.3314328145,0.0404521085,1.1225158115,1.3948787086,-1.3915605621,1.0308908485,0.7261066689,-0.5586312189,-0.5986995056,0.4686021595,-0.7160571599,-0.4220116631,-0.2224916518,0.8168709102,0.1286480571,0.5258643222,-0.9121466455,1.4746167196,0.5571452672,-0.4327839138,0.1600207961,0.0356229501,1.5033408017,-0.1055926758,-0.0642368392,-0.1665428422,-0.589460115,0.1468535181,0.8555402585,-0.6912646662,0.5553748139,-0.2382941278,0.1238749223,-0.0888049351,-0.0693468083,-0.6721448308,-1.4755433645,0.7092575665,-0.3055335821,0.2349968584,1.0449157779,-0.969565058,0.6723559571,0.6663785757,-0.4488224758,-0.0092853309,-0.0227884196,0.8583467997,-1.2093851654,-0.2842715019,0.4845159476,0.6926395312,1.3357046335,0.7552386441,-0.4455748414,0.3516483879,0.4064533068,-0.7160837159,0.9679448779,-0.2882986325,0.9284825665,0.4753664057,0.0827140891,-0.3582088586,-0.4510259642,0.2545562881,-0.6118127652,-0.7095081843,0.2513638847,0.6184009563,-1.8260009278,0.5569851103,0.1063507475,-1.2906028778,-0.1597711604,-0.8921057252,-0.95272655,-0.4247222251,-0.5659280074,-1.2171297014,0.9490689479,-0.6449830338,0.2082184505,0.0518583566,-0.786863429,-1.0533525322,-0.4807571526,0.1142947532,0.1092600228,0.1514779171,-0.585465994,-0.5076996325,0.7149974704,-0.7078203536,-0.834548063,1.0383707649,-0.4889782842,0.0396179603,-0.5373595559,0.1340269399,-1.3961414031,-0.2744398247,-0.95525164,0.7643286773
##end
biasActivation=1,1,1
[BASIC:ACTIVATION]
"ActivationSigmoid"
"ActivationSigmoid"
"ActivationLinear"
