encog,BasicNetwork,java,3.4.0,1,63716448268141
[BASIC]
[BASIC:PARAMS]
[BASIC:NETWORK]
beginTraining=0
connectionLimit=0
contextTargetOffset=0,0,0
contextTargetSize=0,0,0
endTraining=2
hasContext=f
inputCount=37
layerCounts=2,58,38
layerFeedCounts=1,57,37
layerContextCount=0,0,0
layerIndex=0,2,60
output=0.984575344641032,1,0.617560037875952,0.615363081232781,0.0449110175761764,0.965294551017133,0.462894871749297,0.478087137700713,0.999730922040833,0.504489360375041,0.998359849821276,0.0790482290028363,0.995652178855724,0.034130426573488,0.259990893766868,0.00372025763988031,0.359857592167329,0.00334889935823619,0.00202856152764801,0.994856381641429,0.546650462462505,0.992776480392881,0.0174109084515087,0.999281679635282,0.00345217542280566,0.717793221904841,0.0398339361959212,0.176866712111746,0.00000680361938045105,0.93583630478293,0.539084082224788,0.868372582425529,0.978075229070217,0.000455010875095933,0.700193748049853,0.989667169876138,0.31228540300032,0.11800500069552,0.695278294769827,0.589155562325849,0.000690059282942103,0.0316090666123091,0.373203130384043,0.709989865727902,0.999493464073398,0.810832615553651,0.617764887278987,0.658205902693153,0.146443160665348,0.0821434176467446,0.0872616315746419,0.916826289274478,0.110989794069934,0.993534356598821,0.764084955647936,0.00168765680499265,0.00614185060852372,0.0940740437873462,0.14577896933912,1,1,1,1,1,1,1,1,1,1,1,1,1,1,1,1,1,1,1,1,1,1,1,1,1,1,1,1,1,1,1,1,1,1,1,1,1,1,1
outputCount=1
weightIndex=0,58,2224
weights=##0
##double#2224
   2.4873266551,-1.0027789664,-0.825738078,-0.7762499867,0.3801708804,0.3765737101,0.6232416531,0.8149867257,0.5844711014,1.0607379019,0.0827599052,-2.9720124378,-0.8287826319,0.2094936045,-1.2824111893,-0.6878915715,-0.8023529628,0.6017361656,-0.9453708176,1.1318930337,1.5834841637,1.423194539,-0.3358682509,-1.0769742191,-0.5501020894,0.8607585358,0.1019537368,0.5261919034,0.1876735733,-0.1868256669,-2.0676615896,0.6981575349,-0.3725649935,1.561831303,-1.0668837261,2.0572096933,1.9042599189,2.0974778923,-1.0709949754,-1.3037613466,-1.8855437622,1.9605227662,-0.4150066892,-0.8223631924,1.2733503423,-0.6363919713,-1.4657650323,-1.8058386756,0.5342127489,-0.8147104896,1.6102620265,-1.1499369331,2.1326108574,-0.1962440965,-2.1775907748,-0.8471640676,-1.6097796084,-0.7165454686,0.2339509244,0.2515782073,0.1694752999,-0.5678538356,0.1376129575,-0.3490375491,-0.1021356333,-0.6467998524,-1.0031147774,0.3313794785,0.2337947703,-0.0113455566,-0.1890378201,-0.1629396133,0.3548221143,-0.339514566,0.4150876439,0.4524711371,0.726774801,0.9598188622,-0.0445412826,-0.1828130024,0.1157436116,-0.75442103,-0.6398659734,0.1406070155,-0.6377692241,-0.2070952319,-0.3605418523,-0.7514969235,-0.4902171584,0.7771356719,-0.0521265022,-0.1797302311,-0.1097948959,1.2971764552,-0.0950351273,1.7591051861,-0.8135559338,0.4779493462,0.4191702986,0.8188953405,1.0944009272,-0.6798810376,0.0593167919,-0.5378029605,1.1282449938,0.1816901231,1.0743379777,-0.1278207458,-0.4559417421,-0.8051675186,0.8850204159,1.0717092354,0.3320329754,0.6957933268,-1.008834612,0.1466860222,0.5653707078,-0.3334540315,-0.8478953914,0.1650726854,0.1537801301,-0.5685195552,0.2655752899,0.2769145312,0.1502398144,-0.7910923316,-0.8681281896,0.4737948214,0.4955011683,-0.5355175437,-0.53833409,-0.8750738308,-0.913435808,0.2389619197,-0.9752293359,-0.5194904908,-0.1475115001,0.0197965604,-0.8318875055,-0.5177650692,0.0004494681,0.7367548144,-0.9384339524,-0.1564563023,-1.1532804218,-0.8455644662,-0.5312042028,1.1808813814,-0.312971133,0.2773986593,-0.860758329,0.5610321296,0.7390860533,0.6281881545,-1.1614239622,0.766944233,-0.4250124573,0.1709771633,0.9429504149,1.0349385694,0.0032039868,-0.9919848284,-0.4983774818,-0.4157627048,0.2579247229,-0.0792563117,-0.291498923,0.2859720439,0.7147336254,-0.1836751374,0.0625334192,0.3965509079,-0.5024696573,0.6154564164,-0.4957129868,-0.5547223029,0.0739514813,-0.1403081872,0.5931868057,0.0547094678,-0.7069371542,0.330106233,-0.9623476092,-0.9047599068,0.2653798262,0.5382075351,0.9040976174,-0.7476875997,-0.8995422149,1.1186709546,-0.2844540035,0.5693728868,0.474738726,-0.7760563534,-0.5601313383,0.7999839333,-0.2090248693,0.8158610858,-0.1965170841,-0.8661913376,0.8981266493,-0.2186698222,0.3389537622,0.9880235523,1.1423489651,0.3404757639,-0.726236409,0.7555121024,0.3821237269,1.0779658381,-1.0203948142,0.9582914584,-0.0471654444,0.3260582606,0.199210402,0.2197141095,0.8725054722,0.8391677749,-0.7509261154,0.529373646,0.5745049938,-0.4905125462,-0.7345723906,-0.1454312072,-0.4081081704,0.4888978977,0.8491527495,1.048927539,-0.3104631431,-0.2493474373,-0.5561021239,0.4940280315,-0.998900368,-0.9250093773,0.2373848243,0.5238822663,1.1024402827,-0.6229340705,0.973135764,-0.635644063,0.3394766861,-0.2640242809,-0.7022269099,0.390622884,-0.5738683183,-0.8398007291,-0.6338781982,-0.2061268802,-0.5950090592,-0.4676119922,0.680686946,0.1863712002,0.0144809125,-0.5166145157,-0.8540821255,-0.3991439261,-0.5376022509,-0.6311468394,0.3907376841,-0.7146364903,-0.1863584312,-0.3453249413,-0.6389742414,0.3927964304,-0.0972752962,0.9501890189,-0.4542316854,0.385796561,-0.3110174125,0.3256625537,-0.5584946891,0.2709886587,-0.5726159333,0.1181707063,-0.2315901904,0.9180337688,0.9440369381,0.9598790701,-0.3057485558,-0.8927509733,0.718771062,0.5337285842,0.7821832713,0.4923493255,-0.3248206245,0.4824264925,-0.1003461103,-0.5023878082,1.0448956121,-0.373227399,0.381737349,0.3512031138,0.5772881287,0.5867606897,0.4457317092,0.3880844421,0.0233360811,0.2765669284,0.1413794406,0.5267192344,1.0452969702,0.1664773534,-0.749628416,0.5369428195,-0.180949955,-0.5734944725,-0.8591381686,0.3435178099,0.399974433,-0.225309596,-0.5470835468,-0.3988518272,0.007550232,0.3747476228,0.8605329392,0.8930162876,0.1500076579,1.121090079,0.3471726262,0.5247628133,0.5130523186,0.9568578365,-0.6575863603,0.4038263698,-0.2079950601,-0.1804521309,-0.184075213,0.000008261,0.7554535857,-0.8245499883,0.0640280236,-0.170674857,-0.9335926818,-0.8324956589,0.5676092314,0.0548135743,-0.1978522063,-0.0920966409,0.9299072392,-0.2888942422,-0.7349858699,-0.6559510058,0.6422424445,0.7217815513,0.8732099193,-0.7773233206,-0.3798416067,0.133626037,0.6565537452,0.713746258,0.6095873135,0.2071801013,0.703613487,-0.9106196964,-0.231701348,-0.1530482432,0.8753796403,0.4048248943,-0.3622304081,0.3855344534,-0.4221145472,-0.7403010231,0.9215802989,0.6094224267,-0.0116526117,1.0227163045,-0.6841439294,0.7479242538,0.0157873092,0.0431976759,0.6874798763,-0.5061488101,0.7844506912,-0.6564186247,0.1836446154,0.177629128,0.6516033138,0.1601012897,0.0289234327,0.8294330959,1.1190472666,-0.3018043386,-0.0968940547,0.3797123473,-0.2666896075,-0.0738120996,-0.8060635636,-0.8391284,0.4646216764,-0.0730595517,-0.7647862967,0.8773519335,0.8434696535,0.2169339229,0.4080757003,0.7082587069,-0.8707124255,-0.2566707502,0.9222678793,-0.1841997922,1.022974208,-0.1520194805,-0.4322680326,-0.6701865536,0.0175222842,-1.0331096567,-0.1538931932,-0.5780719821,-0.6768288176,0.0946020328,0.6888576067,-1.0422413972,-0.2085165178,0.9537781404,-0.3664503881,0.7825311878,-0.6300240355,-0.5244715192,1.0390875172,0.022691416,-0.8656147211,0.9281083644,0.3419389977,0.0904227096,0.6723215016,-0.2864842862,-0.8260171989,-0.538281956,-0.1042777696,0.4577697701,-0.5927494057,-0.738003323,0.5903407231,-0.3518114004,-0.5623852542,0.1712835879,-0.0338734836,1.0373036228,-0.1554005597,-0.3366610967,0.1718226939,-0.8236277091,-0.4937901063,0.2902126837,-0.0375010405,0.2979483593,0.3052953625,0.0841969139,-0.2942346916,0.8316895007,0.6822490922,-0.0993985286,0.6992669222,0.4084866861,0.0399262227,0.053782483,-0.3090429229,0.8267337515,-0.1655981475,0.9522304091,0.2420388417,0.0609712194,0.3469519045,-0.4986282058,0.0420707443,-0.4941328792,1.0325152429,-0.1173953941,-0.0752021109,-0.6436047818,-0.0412517966,0.6101560577,0.192591457,0.8311089252,0.2595680553,0.7574036343,-0.0304512831,-0.3262682468,0.2055937079,-0.0857267746,-0.6861541152,-0.1775588529,-0.762693926,1.2605240745,-0.3763457988,-0.0752979363,0.4651122797,-1.3363089469,-0.8072524659,0.2094093912,-0.5063256891,1.0416836561,0.5040370683,0.3843022866,0.1235209687,1.5409023203,0.4909989981,0.1879277233,-0.0928724348,-0.412475759,-0.6999689988,-1.5924280181,-0.6011871596,0.0207681249,-0.5745815534,0.6640925465,-0.1505568802,-0.6682859876,0.204980208,0.5171017147,0.0191958569,0.2755194391,0.7961160458,-2.2925114284,0.8122023746,1.1866997463,0.137068406,0.8416649907,-0.4295767727,0.4908845054,-0.9767803741,-0.5978277849,-0.2343461601,-0.9414835175,-0.6995093653,-0.2380823561,0.2982167763,0.389771311,0.6993086714,-0.5041589009,0.7337919372,0.3117728177,-0.8249304609,1.0105203881,0.4483652512,-0.5194741768,0.5402754858,0.3678013026,-0.3354631078,-0.3648067988,-0.8938347622,-0.6158669124,0.0755336327,0.1940247085,-0.1025751997,-0.4799910624,-0.201800574,0.6082955127,-0.1121502184,-0.6483227274,0.0961411726,-0.5672888573,0.5389550858,-0.0834443319,-0.0925566315,-0.8760915162,0.3943387021,-0.3462541647,-0.2496748566,-0.3679204209,0.4503984627,-0.2307137184,-0.5637938818,0.2816195562,-0.4195954552,-0.1759349614,0.0256660274,-0.6632831452,-1.0254783563,-1.0504994924,-0.7469164793,-0.502775351,-0.3781447297,0.8684129326,0.3444603647,-0.7077618835,0.6398392487,-0.9727008947,0.1265572246,-0.3991436799,0.5066681178,-0.5256869655,-0.5855546113,-0.8233277783,0.3360189009,0.3250046474,0.2577239703,-0.5969282084,1.0186530019,0.679607957,-0.0946932818,0.6495195509,0.5085524261,0.1623470141,-0.409810503,-0.1308250822,-0.2367099596,-0.439775267,0.2680684028,0.0124000377,-0.5393790031,0.3778571132,-0.0160202788,0.3030855387,-0.6243630235,0.4381335619,-0.5101033748,-0.7667739661,-1.2339945642,-1.1412422863,-0.9884231359,0.6156440319,-1.0068757761,0.9818587095,0.6425765327,0.595690329,-0.5750069514,-0.4134125309,-0.1349871349,-0.3977290328,1.0121867849,0.4561252641,0.1866469482,0.3380122988,0.3507253878,0.8830000673,0.8439712877,-0.5423745017,0.5417484461,-0.6864735724,-1.2027237309,-0.7440927957,0.0638820195,-0.6597402633,-1.0992663153,-0.2453604777,0.1440131837,0.1726094225,0.6291500904,0.0242281626,-0.836811005,0.6996492117,-0.0235515398,-0.0123806583,0.8526386529,-0.2643182111,-1.0707678141,-0.4705840392,0.494780199,0.1949827221,0.5862390269,-0.5999109398,1.5282101864,-0.850436411,-0.5784885753,-0.1970452927,0.062524887,-0.2971156121,0.6254251498,0.3966232159,-0.1079117764,-0.6986851146,-0.4294003594,-0.5597304567,-0.6798612738,-0.3976384269,0.5849856383,-0.8714091788,0.3463834284,0.4611760239,0.0297167477,0.7458129499,-0.5622301352,-0.6445322662,-0.0930458528,-0.9914122778,-0.3546499942,0.3846611034,-1.2271446163,0.6134868982,-0.790135718,0.0958905474,-0.3695529245,-0.4012413673,0.4979935616,0.1294306345,0.0751930342,-0.5517579238,-0.6200496307,-0.7515587318,0.0459001649,-0.4779885099,-0.5367500172,0.6151709469,0.5853041647,-0.2611420475,-0.1721223695,0.7873219904,-0.4227650437,-0.9289610165,-0.4045281558,-0.2955978984,0.2246798509,-0.6934591038,-0.7082668416,0.0558786267,-0.6505718901,1.0010681819,-0.3790494046,0.1125467172,0.4827129751,0.4568668485,0.3440319562,0.2725928595,-0.2775816529,-0.5206306666,-0.207017951,-0.867242628,-0.1967357318,0.7275465704,0.8523697732,-0.6272630988,-0.6471631904,0.9503060341,0.3804529719,-0.6778504243,0.3768434067,0.8558959538,0.8831134411,-0.555406546,1.0636786448,0.7348845769,0.7498995694,1.0424883875,-0.6178342986,-0.1878196762,-0.8373060896,0.3747631431,0.3927439057,0.6300842991,0.3411377514,0.1406974395,-0.1597517051,-0.5264014276,0.1965955542,-0.4333267955,-0.7596602478,-0.6553838876,-0.4594853064,0.8824350681,-0.1772312104,0.6033515865,-0.5813614978,0.4444160442,0.4945257158,0.7832370472,0.7065567909,-0.237729646,-0.55138773,-0.5428518669,-0.0518905267,0.8723988228,0.9067090322,0.5097555555,-0.1110266838,0.1075505312,-0.0555355779,0.955788766,-0.3620285092,0.0648998528,0.2813092636,-0.866697807,-0.3297034556,0.8821984045,-0.1441171281,-0.5877555927,-1.2595707801,0.2006189319,0.6829442775,-0.5353317118,-0.4880121324,0.880722275,0.4613500252,0.6285077411,-0.3407992624,-0.0426628839,0.326096117,0.0544506913,-0.7069349077,0.2351080253,-0.1542947436,0.8169718011,-0.4614720212,0.1560761707,0.3357640067,0.2179097061,0.7149060188,-0.4975736768,-0.6498256403,0.4466901392,-1.0269756125,0.0754188749,0.893708742,1.1562768202,0.1148369773,0.2138450433,-0.2296690143,0.6620423134,-0.3367487612,-0.7845562268,0.622484271,-0.6170803023,-0.0178630527,-0.5347428598,0.8098106207,0.578553498,0.9749964237,0.4367751256,0.5787299699,-0.3787996349,0.4610032889,-0.0522793883,-0.3966905412,-0.1359069056,-0.7866721692,-1.3855002009,0.5258343956,-0.4727848288,-1.1511926807,0.4923768511,-0.004724936,-0.8109341106,-0.874205488,0.62639116,-0.1423568367,-0.7306119369,0.3127549575,0.7530527898,-0.7361196761,1.3230262633,0.2327258669,0.4011629154,-0.9917172105,-0.98012313,-0.8298354643,0.3835458,0.1873383324,-0.2599515404,0.2226959141,-0.2028899872,0.2846781445,-0.5196876136,0.1975371547,0.1287163779,-0.0762399769,0.774784798,0.3833299416,0.7249304669,0.4839412993,1.0080644742,-0.2770928797,0.4740991903,-0.2905476277,0.2567379655,0.5891392589,0.126549738,-0.4518408644,1.1691815737,-0.1901709624,-0.0721430482,-0.6869567974,0.8326743304,-0.5508227567,1.3601394679,-0.6997373689,-0.2153753915,0.3604373342,0.1596125665,-0.1702554381,-0.4197624041,-0.9125395425,0.0152691348,1.0076482581,0.7803456005,0.8756695938,0.9457073053,-0.5563628361,0.4069043892,0.8576962682,0.0812076221,-0.6941483437,-0.3583384355,0.6977948927,0.1874380082,-0.6616031555,-0.2927425267,0.6373417301,-0.4017306633,-0.1210025107,-0.5056822474,-0.4107081042,-0.0633976992,-0.4373511028,0.1288174769,-0.650947686,-0.7802357242,-0.1305660827,0.9550258963,0.6113751615,0.5351900812,-0.4478323031,0.5791042086,-0.2593218943,-0.6220851324,-0.1757283752,0.2587895705,0.4424438648,-0.8808836045,0.5234048843,-0.1442576676,-0.2795590226,-0.8201867629,-0.903398809,0.5032054074,-0.2448531106,-0.4544992644,-0.2865573056,-0.3718369777,-0.298456804,-0.0946217892,-0.2928651531,0.1928641067,0.1066688411,-0.7606227284,-0.9856803714,-0.1526470082,-0.0747762165,-0.3374919337,-0.2273033137,-0.1017945442,-0.7562161323,-1.0681488951,0.586015389,0.7187617329,0.2371658263,-0.0126604996,0.1362220845,-0.2216329093,-0.1195896571,0.0105836159,-0.3236627067,0.2385992592,0.5469815683,0.2809077094,-0.2417941131,1.0326634006,-0.0492569718,0.2363755492,0.5164722367,0.4963533938,0.6967806867,0.016855247,1.1648491353,-0.7870982825,-1.0538528704,-0.4476233711,-0.2979099279,0.9876379976,0.4750739869,0.467888163,0.0271465263,-0.8580640442,-0.5896730887,-0.5539860746,-0.0981024377,0.4635743613,0.0177035802,0.0284250084,0.2570677265,0.2330638971,0.1992177455,0.5921211249,0.1593825765,-0.953438872,-0.8487678211,-0.0409963035,-0.7967873029,0.7990000624,0.4684777618,-1.1169953691,0.6031813607,-0.6053180726,-0.1078218159,-0.4874163263,-1.0364114368,-0.7376828249,0.5174276836,0.092383211,0.5734069858,-0.6557595062,0.8602639259,-0.2955636725,0.340591565,-0.3461013391,-0.3524152489,0.8658640367,0.6699329293,-0.4694011974,0.7496294646,-0.0030164211,0.4256892683,-0.1890632654,-0.1173436837,0.953044132,-0.8167708542,0.6675307157,0.2490704077,0.7442079294,-0.251882229,0.8694976256,-0.5452923282,0.7125088233,-0.1078357949,0.1554906852,-0.7836807513,-0.942080087,0.1288747913,-0.3264254551,-0.5352236093,-0.4235697703,-0.2075411557,-1.0618547602,-0.0871869096,0.4823810819,0.7818508762,0.6525477503,0.450381089,-0.3213372762,-0.5368582302,-1.2467224213,-0.2878066258,0.4301431308,-0.8916131879,0.2651377998,0.0622851747,-0.6349725165,-0.2912097788,-0.908905599,0.4413651048,-0.9977360111,-0.9866742797,-0.1267929384,0.291247921,-0.6563218035,0.1430372874,-0.8565777149,-0.0302077417,-0.4079246251,-0.0110178218,-0.2939147646,-0.8827750371,0.2442786414,-0.106540672,-0.0536449308,-0.3306877906,0.449927159,-0.742897763,-0.1482572032,-0.5304132309,-0.3767762172,-0.3516579091,-0.8394945415,-0.5476683973,-0.7627782364,0.0741807346,-0.4914939288,-0.2178634057,-0.7898353075,-0.6069518619,-0.2096662149,0.9780025562,-0.5607812377,-0.1495811371,-0.2530263289,-0.1680825843,0.6228877329,-0.3548385355,0.4763945114,-0.8501966051,0.4920576694,0.6946494536,0.0690177527,1.101541246,1.0915874113,-0.3853434298,-0.1081207548,-0.984222994,-0.0862164426,-0.7626364096,0.4378829269,-0.6610863713,0.037374395,0.9473810438,0.9184702029,-0.5049306459,0.333583233,-0.0504746881,0.5951366661,0.2684954253,-0.5873448,-0.5512850539,0.474034925,0.7140444329,-0.7176690956,-0.4203444532,0.9059093835,-0.9904772541,0.0047918042,0.1457233108,0.5763392961,0.5725896959,-0.6166932956,-0.9726066003,0.2383376187,0.4083554363,0.8019961721,0.1714402242,1.0771276367,-0.9144561815,-0.6172387043,0.8688953989,-0.1299124703,0.4073726895,-0.499852633,-1.0367444013,-0.6840204626,-0.6718168451,0.7820886177,-0.6115931405,1.0679852836,-0.7762292856,0.010287952,-0.6650687867,0.5557076052,0.0920580837,-0.5896543236,-0.1565435698,0.3320370369,0.653815172,0.1241374001,0.529335189,0.380824902,-0.1255059081,0.3143500632,-0.591393604,0.3706710735,0.1289778588,-0.1573311017,-0.095233564,0.1360221415,0.2899215343,0.7960952284,-0.3650926596,-0.2094677385,0.1468878809,-0.8688046228,0.5096902696,0.7401193039,-0.7449899804,0.6525612876,-0.2443784345,0.3836796687,0.7256137066,0.4524348398,-0.7591313847,0.0430023763,0.4801986152,0.3627602615,0.5009637085,-0.5998570206,0.3026709548,0.946815986,-0.8820658831,-0.4292852952,-0.8708368865,0.3770797437,0.8973686871,0.0066383,-0.5972737677,-0.2248865869,0.9300874206,0.9193955626,0.6839319952,-0.9103852626,-0.9002914224,-0.4862829358,-0.5286252149,0.3604071377,-0.0249959074,-0.5577124783,0.6078043699,0.0252331115,-0.0697506677,0.3196058305,-0.5285008434,-0.4770390556,0.6086911461,0.4469008484,0.0447909497,0.6326881899,0.2936865019,-0.9337642539,0.2411002844,0.3299327798,0.8821870051,0.2937846546,-0.277626618,1.5868867083,-0.7498773263,0.5118635343,-1.0120914481,0.2965490849,-0.1794953596,0.5886542796,1.0295564829,-0.1143400368,0.3475547977,0.6076248456,0.7775484689,-0.0758868107,0.3914054186,-0.3709199531,0.2124838966,0.2415974411,-0.1790861153,-1.9687998938,-0.4656583538,0.1766073885,0.0508395295,0.5763738337,-0.3032595993,-0.7269307102,0.9792381107,0.6831076999,-0.532414164,0.1318314588,-0.5268322548,-0.2529543173,-0.5975845213,0.0517752649,-0.6847134327,-0.899681036,0.0728998934,0.0324502026,-0.8826014761,-0.152529982,0.430206065,-0.1931512045,-0.5965059435,-0.2856977389,0.0685965264,-0.0715930018,-0.8669818634,-0.9008918259,-1.004515965,0.0285261079,0.9391899821,-0.1011095832,0.1689006183,0.234564242,-0.1930531265,-0.7783879807,-0.6214329753,-0.681221496,0.1179190905,0.5894760494,0.0764165036,-0.5604757453,-0.7430896194,-0.9013849606,-0.0902242069,0.7895762606,-0.766621447,0.1327063773,0.7293581405,0.3595198175,-0.7113890517,-0.9957699557,-0.7143763096,-0.0647913087,0.7120900865,0.9973593344,-0.3295551549,0.6970464441,0.8758767957,-0.9769786913,0.4228259756,-0.4151813396,0.8899065354,1.0293020322,-0.3397223823,0.7073300908,0.0294582802,-0.9047195922,-0.6091038644,-0.6099088729,-0.0984318686,0.0723497313,0.2553456028,0.7118492788,0.8384036997,-0.3542392906,0.3198384592,-0.2339273295,0.1186928466,0.7182076355,0.0176389113,-0.3972587002,-0.4740625616,0.542549312,1.4212478097,0.7572613221,-0.4108170095,0.2311739774,-0.4593912793,0.7280837505,-0.1473215423,0.6675140514,-0.4332396837,-0.8171926462,0.078310595,0.3242857154,0.8600836434,0.3249197689,0.0489130399,-0.9004495386,-1.1089618019,0.4836375242,0.2399753769,-0.0682525919,-0.8838145505,0.1071082208,-0.0143369911,0.2298962926,0.4242351694,-0.3995828899,0.0725660552,0.3236488982,0.762309649,1.5092885113,0.2607030406,0.6322693097,0.35789868,-0.0294867823,-0.9162794874,0.1173862412,-0.1559382316,0.4952816011,-0.4560582588,-0.6356118237,0.7461818165,0.1704758481,0.9396755925,-0.1833007678,0.5630368353,-0.8687810787,-1.0748226121,-1.0860704392,-0.7919628837,-0.2882647353,0.4735990913,0.5009737544,-0.0647652954,0.3893703345,-0.0444834391,-0.1399754879,-0.5006652552,0.8615696903,-0.1517836911,0.6223409798,-0.6935757043,-0.5709210089,0.579194543,-0.181070463,-0.5693121821,-0.1789203123,0.5725715608,0.5108477258,-0.3269560358,-0.9748782436,0.2644534115,0.1828240788,-0.2595828318,-0.515249095,-0.8647586428,0.3048802248,0.5076556382,-0.2856914775,-0.3882810218,-0.3830871001,0.2560918365,0.2820332389,0.4924957603,0.289730048,-0.0531189303,-0.9607650002,-0.1281946562,-0.4477119233,-0.0069911191,-0.5077473562,-0.2500075647,0.3677456908,-0.423101889,-0.2851076325,-0.1159036853,0.3884160876,-0.0116197039,0.9532287134,0.8031788177,-0.485448075,-0.4565728977,-0.4248519197,0.2099256403,-0.520495939,0.0138559613,1.74714569,0.1386772282,0.3967163948,0.5009610777,-0.2820605743,-0.545527668,1.4443725141,0.4222434977,-0.1245057959,-0.5102766115,-0.408699742,0.9547305755,0.7224212015,0.6756832736,-0.0883304879,-0.0170849323,-0.3425006533,-0.0086945604,0.6086335634,1.8451124368,-0.2641872392,0.8359183331,-0.3826800722,0.430764945,-0.8479860581,-0.0203023643,-0.3089101358,-0.9332987478,0.051968292,-0.0406485204,-0.612787905,0.6306358041,-1.745489109,0.3577892087,-0.2031364397,-0.4971051967,-0.4857636954,-0.0040119774,-0.5171905852,0.7520077969,0.1854403858,-0.3115311133,0.086526689,-0.4184734112,0.8996638462,-0.8554483409,-0.1887245177,-0.9929103378,0.5562706085,-0.1483206868,-0.9847953145,0.1459349076,0.5844032338,-0.0717616889,-0.8025242341,0.0728942682,-0.2190601833,1.125394086,0.6801831787,-0.0253338277,-0.2759824557,-0.6052416518,-0.3658446151,0.7151528355,-0.851341561,-0.5102128566,-0.3084763358,0.3375671577,0.1197372764,0.7863558674,-0.7864083261,0.7657495063,0.246855655,-0.1761018498,0.0443381158,-0.4250308751,1.5793475284,0.6210989442,0.0233581531,-1.1769810591,-0.1139016967,-0.9415543825,-0.3400650149,-0.2750312958,-0.7730064137,0.3636616418,1.1310536482,0.4488865092,-0.8634812307,-0.3044595969,0.2421207715,-0.5713122289,-0.7629942777,0.5859059871,0.464596242,0.4555224877,-0.9275584043,0.2461826422,-0.4992140182,0.3330514992,0.6668294803,-0.0879302917,0.1811980084,-0.4372324636,0.1562630575,0.1555301289,-0.6884453584,-0.2717453366,-0.6461826295,-1.6290512975,-0.4474858194,0.1744357074,0.8520050492,-1.3456966545,-1.2771264849,-0.8373129118,0.0483326034,0.562039859,0.7204541833,-1.1118350513,0.5556212268,0.7149995066,-0.8354213119,-0.3689948853,0.524197895,-0.7183939004,0.2436103267,-0.1158725127,0.2489655869,-0.5201248165,-0.2165852384,-0.5390089722,-0.4167728887,-0.0256959923,0.1506808735,-0.2586756319,0.2213069758,-0.3283465536,-0.5485270503,-0.2285288227,0.5005719014,-0.6746152897,0.0690310907,-0.3172566307,0.008648754,-0.0838796005,0.4491318265,-0.1526631614,0.5180952201,-0.1480555057,0.9606172255,-0.0349285581,-1.4367438088,-0.2338942688,-0.0068985509,0.7639755017,-0.2339593712,0.6911708005,-0.4923668276,-0.708262378,-0.7593634849,0.4634047116,-0.4364812411,0.5633146743,-0.1262943059,-1.0370362855,-0.647453964,0.7345161895,0.9337601176,1.5363261549,0.2921243192,-1.1910194221,-1.1085956121,-0.8408621559,0.6192098577,0.7234103388,-0.2997452918,1.0785696046,-0.1159387501,-0.4557613095,-0.5830793693,-0.4120828904,-0.6720989888,0.3304045699,-0.3931793261,0.5054807449,0.4785973937,0.5827522707,-0.6487997084,0.2516338795,0.3359879134,0.5051087957,-0.452098157,0.34985638,-0.1648615907,-0.8387783252,-1.3500498951,0.0675071271,-0.8425299655,0.0219022567,-0.4080671202,0.7495078591,-1.1483045538,0.8625677772,-0.0537233234,0.2201360913,-0.3629798413,-0.1338385311,1.051917041,1.0373733767,1.2243940386,-0.1201305156,-0.415028091,0.636056871,-0.1645077147,-0.3372173864,0.5936941439,0.279568775,-0.827120837,0.0880398987,0.3343077222,0.5083252186,-0.8626514815,-0.0728634503,-0.5513898703,-0.1700545911,-0.019959207,0.7812245734,0.8800559136,0.6905087919,0.7936772871,0.8161597718,-0.2093943952,-1.103145232,0.6518432059,0.6044982857,-0.2279863169,-0.893651008,0.4587109772,-0.5076959154,0.3932959832,1.0648407925,0.4092779066,0.0129889497,1.1494800879,0.802969135,0.5974468299,-0.2088841092,-0.7160707418,0.278073643,0.5121222579,0.1460210179,0.4809302492,0.4437261018,0.9682523013,1.0105372973,-0.3546448572,0.7020674387,-0.8092926633,-0.8019769086,-0.0351079396,0.2596562603,0.1940585958,-0.5188812933,0.2110314341,-0.3167275,0.6386477922,0.5984441055,0.2240237837,-1.0375785027,1.1061936171,-0.8670291918,0.4695175932,-0.7454738973,0.7603221421,-0.6224587004,-0.2928657465,0.3800439214,-0.4921915638,1.1321548684,0.5553115469,0.9400137243,-0.0488077637,-0.5806345614,-0.4040693031,-0.1009263097,-0.634662302,0.1112631838,-0.7201800672,0.5299983074,-0.9952084154,0.3586636597,-0.7498124869,0.1932160411,0.0812254042,0.8961807472,-1.0417574961,0.3704173778,0.2648963253,0.9533616088,0.6986400154,0.2017935144,-0.7977987435,0.5170793107,0.2442870942,0.4091344574,-0.1459185432,0.1293077587,-0.5192428622,0.2504251908,-0.3183665101,0.7279809903,0.1768399937,1.5288293304,-0.6823727033,0.3581842898,0.2285550093,-0.7406636776,-0.7920608884,-0.1556726488,-0.3204591436,0.1514757994,0.0700673792,0.0366905438,-0.7743628165,-1.0307219938,0.7085377384,-0.354118618,0.4886425435,-0.8122844673,0.5400388923,0.9948287897,0.8995545194,0.7069164934,-0.7453874242,-0.6217974836,-1.1556892126,-0.1549257784,-0.3146576815,1.2416306632,-0.4082280327,-0.4539380671,1.3336222595,-0.5990154378,-0.2121740875,-0.6216528525,0.5248881281,-0.5236888477,0.0316003584,-0.6343329991,-0.4888020255,0.9337687659,-0.4372925937,-0.312757136,-0.0936230717,0.2409832102,-0.6597629597,-0.5202195,-0.8280459627,-0.504308443,-0.0413487867,0.1625216622,-0.0240045322,-0.9711779036,-0.2829603141,-0.3419086653,0.076478864,0.3974063442,0.7950607086,0.3089146938,-0.3198582337,0.8832103854,0.8429588101,0.7587260461,1.051361985,-0.1311678321,0.8016026911,0.5625607296,-0.0669537209,-0.1336717883,1.0324845256,0.4576847684,-0.7290550102,-0.6410913399,0.7834171244,0.5526184092,0.0792779592,0.3403953686,0.4091679198,-0.0059470996,-0.7482455714,-0.5412610196,-0.7037755793,0.7770072629,-0.3927485134,-1.2742897115,-0.5131129573,1.0319603038,0.1231252328,0.4199999464,0.2815243717,0.2977705226,0.3071141243,0.1153692689,0.3530095014,0.4534464589,-0.2490554655,-0.7012123617,0.6950170606,-0.090302975,0.2445530285,-0.9303340711,-1.1974950989,-0.5226345404,0.1109602766,-0.4789996407,0.9687022762,0.8432751797,-1.6889456328,-0.0616938858,0.6413151913,-0.0221941743,0.3014694138,-0.9511005411,0.1193975833,-0.1213362517,-0.1488984432,0.3851149079,-0.0107058797,0.1357140683,-0.0108494164,0.1380377334,-0.2249287741,0.6525939942,-0.1913490241,0.3893503022,0.0852065436,-0.9298150055,1.3228399665,0.9342003937,0.523958777,0.6355777118,-0.577474533,-1.592095,-0.6016918632,0.6161675863,0.2505339615,-0.6850686692,0.3096615695,-0.3528468632,-0.2302667334,0.5263847339,-0.5385885989,-0.4079948659,-0.7200318833,-1.62143009,-0.3806511259,-0.8803205981,-1.0208001906,0.7565329682,-0.6973423003,-0.743911479,-0.045043359,0.7660159461,1.0748683546,-0.7151611376,-0.0698475323,-0.2723116176,-0.4933064095,-0.9534581159,0.9896272788,-0.106807321,0.4402357038,-0.9243131054,0.8722684678,0.4851030031,0.4226871722,0.9363367392,-0.4282848739,-0.2595399916,-0.572111933,0.2799580555,-0.5916518553,-0.2243274833,-0.6820077523,-0.3361145846,0.4320016983,-0.5354907071,0.0439516225,-0.4488217302,0.0457925527,0.9739359397,-0.299024526,-0.0907572045,0.523775515,0.7136258931,0.6029810928,0.086815809,0.3645795928,-0.7981977612,-0.2508381289,0.8051958837,0.2604294883,0.4964151906,0.6003637903,-0.5911318574,0.1322399932,0.5398617215,-0.8150565856,0.0039491416,-0.1218526489,0.26787215,-0.1322981517,-0.7408294933,-0.233862923,0.1770464435,-0.1524558236,-0.56634705,0.8347820247,-0.5692145895,-0.4033693871,0.2942482842,1.0843095775,-0.301362802,-0.3252739252,-0.3717764498,0.242248198,0.8492365099,0.5831660448,-0.2814057177,1.3037609237,-0.7309951749,-0.4568978526,0.7148506449,0.2346252385,0.3519326233,-0.0591666404,0.6271433886,-0.1545417448,-0.8286904471,0.1681301093,-0.3114371523,0.284774608,1.2042061403,0.5332580439,-0.1521845413,0.0367832452,-0.605965186,-0.7097244906,-0.2764952992,1.0487286281,1.0275694637,-0.9505947528,-0.8620461275,-0.4393885816,-0.1229615928,0.5983072033,1.0076249085,0.1360400535,-0.4297237414,0.6850990588,-1.2358137563,-0.6803886507,-0.4687324145,0.3174255117,-0.5418267295,-0.3347761768,-0.3243944796,-0.1405865116,-0.8922426449,-0.534966381,0.6688958272,0.4299019798,0.6936446704,0.1573683857,0.2989587587,0.694596448,1.2807551064,0.2100549515,0.071784679,0.9148319999,-0.519109071,0.2484678043,-0.5590636443,1.089584209,1.0607796413,0.2183404314,0.1711933526,-0.4686355976,0.0075293369,0.0231187719,-0.7758552169,-0.9717508468,1.4117644289,-0.1344447339,-0.0886516253,-1.1904012763,-0.2285655044,0.9106649589,0.3888395623,-0.5239114688,-0.430244047,-0.3774753301,0.3273148019,0.2930188365,-0.7321068885,-0.8056764702,0.45782265,0.8114475116,-0.3585637942,-0.7271750458,-0.0812845909,0.0009602047,-1.4421711383,-0.4923956425,-0.820042493,0.218387023,0.5062442004,-0.1501203477,-0.5750994626,-0.6725800323,-0.9177302168,-0.4869018354
   0.6755961515,0.1429150433,1.0972145479,0.6051564235,1.0312375336,0.523582398,0.1317191308,0.0432965576,0.6947069998,-0.462461956,0.58677266,0.4921454789,0.1075897992,0.4868278798,0.2599444171,0.2872900471,0.7615106495,0.5392061382,0.1516676118,0.3127572789,-0.4166626522,0.1892889868,-0.3880806781,-0.680057293,-0.5231615235,-0.9050316181,-0.2725554303,0.3437854433,-0.5333481469,0.6034566107,-0.6970759505,0.9283508652,-0.1591166362,-0.5051435783,-0.9511568035,-0.1763037639,-0.8069301981,-0.4510382957,-0.1518325176,0.4800256953,-0.148870006,0.6589313465,0.068866709,0.6870714032,-0.4884007564,0.6896649875,-0.8185432892,-0.5159477533,-0.7149247363,-0.7321202305,0.3824971519,-0.1570023363,-0.9248608635,-0.5093899713,0.4106347877,0.5974339303,-0.4563975276,0.8323487315,-0.9839033032,-0.104890138,0.5234267924,-0.9013459834,0.5003667041,0.4711368353,-0.0010453735,-0.3826303146,-0.2173468276,-0.6468696465,-0.2471494133,-0.5390557896,-0.2581258379,0.198194867,1.5593907854,-0.39370112,-0.6057822271,0.2019939066,0.0983066194,-0.6573962724,-0.1055533026,-0.3809175962,-0.6236478164,0.2609523801,-0.9074717775,0.0509426174,0.4504359858,-0.4154919029,-0.2749605204,-0.1669468252,0.3396500366,0.1787394186,0.7975023933,-0.7302149237,0.4728185174,-0.5048929983,0.9410230238,-1.4740398177,0.5989594854,-0.2748642766,-0.9200542955,-1.479217618,0.5507361949,-0.6417175837,-0.080181044,-0.0672062509,-0.6666286132,0.8237312804,0.0976011382,0.2983686537,0.1564930817,-0.1696417339,-0.203903079,-0.5436809155,0.8824863557,-0.6173602413,-0.2618905707,-0.5612253015,-0.879290253,0.583209062,0.1125347094,0.1245672709,0.519284552,0.7663177448,-0.8956501738,0.5881878845,0.3005614859,-0.7282206763,-0.2083664975,-0.4012787652,-0.8113968604,0.3227092591,0.7115865955,0.443702035,-0.2237969821,0.6080837392,-0.6454997731,-0.2132260486,-0.1293730407,-1.2059760772,0.8342282327,0.4159083364,-0.9686188117,0.2705978697,0.377685537,0.481323039,-0.0243443184,0.8241265748,0.0324100982,-1.2115579722,-0.0633682265,0.0486631906,-0.5743135429,-0.0311233718,-0.8043136499,-0.0068592444,-0.1566552563,-1.205642715,0.1219550266,-0.2860687652,-0.5193656449,-0.3614516867,-0.0191942901,0.306697586,0.8486995756,0.3955844939,-0.2250069106,-0.2038189972,-0.3500354023,-0.0850882404,0.4903469,0.0690273058,0.0260535171,0.7405059725,0.4246640125,0.1982184261,0.3267927936,-1.9038549914
##end
biasActivation=1,1,1
[BASIC:ACTIVATION]
"ActivationSigmoid"
"ActivationSigmoid"
"ActivationLinear"
