encog,BasicNetwork,java,3.4.0,1,63716333458709
[BASIC]
[BASIC:PARAMS]
[BASIC:NETWORK]
beginTraining=0
connectionLimit=0
contextTargetOffset=0,0,0
contextTargetSize=0,0,0
endTraining=2
hasContext=f
inputCount=37
layerCounts=4,61,38
layerFeedCounts=3,60,37
layerContextCount=0,0,0
layerIndex=0,4,65
output=0.00000000000000069722,1,0.0000482405565294279,1,0.842241877468116,0.0469625532544225,0.0580861807849088,0.184231422394815,0.79740317273724,0.108091166086839,0.800654134824836,0.148515519621601,0.690420213944712,0.930201232445396,0.874933073890611,0.203542309693584,0.955820936805067,0.108290574552337,0.0581661790909896,0.507330648698082,0.875562128758824,0.132922638862244,0.348805135132174,0.578147178856175,0.0743750576746913,0.0641483686685163,0.0112136982811582,0.0469685936424222,0.106869970804481,0.816255788489394,0.469497418496717,0.230082873855028,0.223456193440272,0.864342993189671,0.901069607371218,0.175166165476022,0.612343849797107,0.143319975484599,0.081501618966507,0.117499179808716,0.0755503272061883,0.0744842602134486,0.97333251617895,0.27223572289036,0.692699985921473,0.914457030809117,0.912958486007726,0.799954733332873,0.172164441197322,0.0651534020529818,0.408991006626004,0.768868586608924,0.0368814661933341,0.595956634069187,0.343533549728263,0.274191516297677,0.757575919759369,0.275453604074934,0.910467298619407,0.77717423262331,0.117242483024728,0.744090672657825,0.831627108845831,0.768659750141367,1,0.223529413342476,0.10196078568697,0,0.223529413342476,0.10196078568697,0.0274509806185961,0,0,0.227450981736183,0.109803922474384,0.0274509806185961,0.00392156885936856,0,0,0,0.0980392172932625,0.0274509806185961,0.00392156885936856,0,0,0,0,0,0,0,0,0,0,0,0,0,0,0,0,0,0,0,1
outputCount=3
weightIndex=0,183,2463
weights=##0
##double#2463
   -4.069620726,3.1906111816,1.3743373386,1.3183220532,-2.7854537524,-1.8258169751,0.8474703317,0.9089703473,-2.6187384003,-3.1656352609,2.1139081054,-2.0887607844,-2.8417921333,0.5910215964,-0.3439910911,-1.082967126,1.1085462804,2.0479530682,2.566998667,-1.4858156462,-1.6108644506,-2.2744406824,3.5353495341,1.8919109387,0.8528408292,-2.4140923618,-3.6283444262,-3.0196464738,1.4247156182,-0.5332178833,-1.0964678577,-3.108013705,1.9668752815,1.5543104497,-1.9292477995,0.0665961478,-2.1755962662,1.321629966,-2.8299175086,1.2262060523,-0.962923267,2.2490657117,-3.4085850573,-1.0609095938,2.4153150984,-0.5470418472,-2.16904544,-1.0036962769,2.0086714833,-3.4699808485,1.424687314,1.1217258378,-0.1465328219,-1.4728758906,-4.2965325315,-2.67075285,-0.2188697733,-4.0978958533,-2.7201571862,-0.1690678811,-0.3599556171,2.6693711211,-4.1242705905,-2.3568208238,-1.3390392161,1.7244131155,-2.1944277172,1.8894907817,-2.1893914163,1.6297853306,2.0903013,0.5949920461,-0.1491086262,3.3091031304,-2.4786735944,-4.1464024799,-0.0805028231,1.7719351448,-2.0070103942,-1.0624696809,0.4276020409,-1.3453493736,0.593488633,-3.229179571,-2.3349899563,-1.3575260065,1.9694922918,2.8483797295,0.5690668152,-0.9736387469,1.7744584733,2.2494224483,-0.103244369,-0.091793213,-1.4822168581,-1.6053051875,-2.3358527526,-0.6402692006,-3.3222215323,4.4545899396,-1.5568581892,2.0457141712,-0.2918964939,2.5727446955,2.6516238301,-2.0449301301,-4.8378239447,-0.3772407976,2.5616506331,-3.0910646838,2.7559634229,-1.3321816852,-2.5356171181,1.2912330768,0.5559891521,2.7177508104,2.23028591,-1.9180742933,1.7888617553,2.6886038377,1.2466456437,0.030115939,1.8758247608,-0.0265192548,0.8297146162,-0.8488395929,0.8751294106,2.2538059311,-2.4676060656,-0.3591862291,1.1983425749,1.0326876517,-3.0112550238,1.6941703121,-1.1608317273,-0.0602143378,1.5539635643,-0.1060341064,-3.0171267671,-1.6171025537,-1.2036041816,0.7302123964,2.7831756854,2.7750266421,-0.9201456352,0.7221773803,-0.7399489121,-0.3306525251,1.5582943943,2.2443317876,-1.2784645595,-4.5962705999,-1.0771050434,2.5576369351,-1.7021450836,-0.7419784833,1.9663267774,0.2579203563,2.3687169294,0.3676891782,-1.6427121345,0.3825107051,-1.0022929942,-3.8383566388,0.5892567615,-0.5077084196,-1.2993462814,1.8238533053,0.7162545787,0.8236491694,0.2371159546,0.505116766,-1.6604728142,-0.1822465572,-0.6275311875,1.5181476684,1.1235997271,0.9412202488,1.6454983929,1.8898319598,1.5301618453,-0.5541372122,-0.7487904594,-0.2311120847,1.0447975437,0.9489174011,-0.5669961864,0.8966304899,-0.1094733496,-0.1701655213,0.4422121719,1.0350023042,-0.3708004105,0.9581165676,0.0705397835,-1.1581163848,-0.0527013338,0.4286949382,-0.7418819817,0.750656307,0.0361255864,-4.5666467366,-1.7069664527,0.6474060255,0.3530565191,-0.4578886806,1.3551219958,1.2797602624,-2.7089752919,-2.1106179948,0.8498011509,0.5830389344,-0.1765799662,1.5640683081,-0.335768815,-0.4553460373,0.5974042577,0.4075431992,1.4512678419,0.9956429929,1.4640080777,0.0186959132,0.7917207262,-0.4538184332,-1.0775489898,-0.5773282861,0.6166418982,0.087239146,-0.1308918124,1.4515948168,-0.3575069735,-2.4514218323,-0.8283243438,0.8210122195,-0.0310630204,-0.9681192849,-0.9616823961,0.0114415655,-0.4675612359,0.8086892989,1.894183255,1.1227698561,-1.0824708721,0.0077303092,-0.1805972492,0.6135271496,3.5320709794,4.4093976515,0.8517007611,0.3596925072,-0.0909669076,-0.6555632067,-0.0679605342,0.6762343522,0.3791944292,-0.321500562,-0.3281931663,-0.5386010967,-2.9140099481,-0.1938792493,-0.2283880933,-0.1426383952,-0.1386976787,-0.5263978658,0.1296660752,0.5024276423,1.0725330989,0.6101547069,-0.0176280099,-0.9827843273,0.2451037226,0.7309704372,-0.220548859,0.3728519056,0.1806079079,-0.3124677537,0.5104457258,-0.7339494749,0.5991085031,-0.6387927727,0.6997216357,-1.06149259,0.7430683339,-0.6940444689,-1.0167052339,-0.4895078055,-0.3391812787,-0.2893884716,-1.0861414383,-0.6217106208,-0.3493595424,-1.4303917499,-0.3329667928,-0.2254292546,-1.0623166276,-0.3533856326,-2.7546083796,-0.1744879223,-0.1386683164,0.8099247604,-0.1996685573,0.6920566162,0.0454092432,0.7357720205,-0.2828847238,-1.0834386334,0.482483262,-0.559456898,-0.9571646935,-0.9603093587,-0.7020904575,-0.231190919,-0.0885647505,-0.3718891378,0.6498751833,-0.0399410319,-0.8137347206,-0.8763877744,-0.6826281145,0.791793446,-0.2033160847,-1.0738390235,-1.8684207834,-1.4868960392,-0.364684259,-0.1690469628,-0.2433434973,0.0646867503,0.1469141841,-0.600435485,-0.4436017261,-0.9738897569,-0.1184994721,0.2497959304,-1.2282929767,-1.3903999667,-0.4371603804,0.0817494496,0.2485950208,-0.2182146194,-0.7880800215,0.8440820975,-0.4987548856,2.632738134,0.9960911336,-0.2647690878,0.6070391794,0.6744243848,0.7343791708,0.7161059282,0.193688575,0.9009779663,-0.6039178229,-2.0071554038,1.3604025712,1.4199125334,0.6899052391,-0.871442904,-0.9286560484,-3.1950568314,-1.113211673,-0.8463741691,-1.0566222038,-1.0128880941,-1.2624991095,-0.5303351096,0.0541730741,0.0621997855,-0.5366919021,0.5862178344,-0.2126510606,0.1044427007,0.9448166395,-0.6666889549,0.0750515224,-0.4809156479,-0.6748421784,0.239465983,-0.0978339501,0.1527349482,-0.4798044802,-0.0957988134,-1.0605396016,-0.0752115809,-0.0995338403,0.0400940923,0.2119405273,0.7628949479,-0.1916072557,-0.6820838779,-1.5150649182,-1.0000407577,-0.3642229964,0.523943062,0.247367662,-0.5947935441,-0.1488693845,0.8306789225,0.3276761233,-0.581887111,-0.5358184046,-0.7707493766,-0.7616355981,-1.7861128543,-1.3910332984,0.0225607111,0.2226873902,-1.6327472663,-0.5679203221,-0.6904717455,-1.6632079312,0.1974157352,1.0127999783,0.1299220519,0.5524705126,0.5641187143,0.2618212401,-0.0994636591,0.4416783079,0.2848783275,-0.5906564028,0.1520836798,1.1698249337,-0.6828905755,0.2322671025,0.254484664,-0.5016119192,0.8691624283,-0.3568897073,-0.8581590781,-0.0169240118,-0.8624817291,0.6858268321,0.5937957125,-0.1201787645,0.550053384,0.0414362372,1.4405184663,1.0085753575,1.5702002867,0.4374161822,0.0744568593,-0.5481258604,0.9005896294,-0.6162964243,1.1029503276,0.8871913867,0.5126323136,1.0765734887,0.7132998349,0.4200585317,0.5568496433,-0.8036349,-0.331065732,-0.9787720751,-0.0521794007,-1.0420636369,-0.2429758933,-1.1002897888,-0.5847515212,-0.4249203692,-0.0049028285,-0.7316098908,-0.8031620675,-0.424090253,0.3785998085,-1.2058282719,-1.6071471486,-0.4928155254,0.9143764399,0.2985814419,0.2430586195,-0.2280435426,-0.0885315727,-0.3540185197,-1.1208665796,-0.6809132087,-0.6926434906,-0.0884637401,0.217801789,-0.2996207989,0.7188105367,-0.7336481657,-0.0047520716,-0.8556427515,1.0060172739,-1.475319559,0.959679876,-0.9784639306,0.1476204312,0.2122280324,-0.8697367248,-0.0339240502,-0.3537690761,1.704397433,-0.6705350797,1.2370036169,0.5233881875,-1.099088217,1.3106626358,0.4425064741,0.8753892205,-0.0900034479,0.8990500789,-0.5087745142,-2.5341267251,-0.0175181109,0.159648733,0.4386595284,1.233903489,0.55674566,0.4516756146,-0.664446101,1.0299443144,0.4022370553,0.9744530064,1.2815201594,-0.0262558925,0.3346442044,-0.6523719144,-0.3520742358,0.0389761265,-1.1996239465,-1.4469553835,0.6932532454,-1.1490496534,-0.8364746348,0.2832014725,0.2138908536,-0.1812307632,-0.4631907783,0.390323666,-1.3658887814,0.1578509313,-1.3722088323,0.4610019669,-0.2250637506,-0.3798917687,-1.077887426,-0.0602169642,-0.0687384566,0.2463070121,0.0348486785,-2.0406784114,-0.2750000106,-1.259485865,-0.3332378252,1.3811735522,0.698954952,-0.8275276295,-1.4854498393,1.7058086724,0.12155612,1.3248348911,0.0142878337,-1.1841420277,0.1474729736,0.4852780684,-1.1014186468,-0.6392048114,-1.0458670035,-0.0419858531,2.9797847216,0.6418857973,0.2970267545,0.2812341654,0.1027491533,-0.5851046238,-0.382783219,-0.6967277137,-0.2728256924,-0.0443566833,0.5404207136,-0.6245954351,0.093158059,0.2918286764,-0.2769319177,-0.3651158891,1.3743317498,-0.1558321775,-1.9355165023,0.4963430004,-1.0121335709,0.0824943552,-0.04108373,0.2163243656,-1.1556516741,-1.0920392692,-1.5038369139,-1.6322143671,-0.0795412272,-0.5085410223,0.0948478659,0.0330886468,-1.1453768109,-0.805835429,-0.0124705827,-1.5787003269,-1.3305930976,0.7098483788,1.6780169976,0.8331246723,-0.5615265857,-1.0840655153,0.270734534,1.1117209936,1.1360816481,-1.0425475798,-0.2547359628,-1.4613695951,0.1412599218,1.9328188963,1.4347938975,-0.3293313626,0.1493564163,0.0467906789,0.7600874511,0.8237040542,-0.058353846,-0.5160695946,0.0286949269,-0.9169761159,-0.8814918943,0.6230101251,-0.7114905784,-0.5406667177,-0.1897975899,-0.8477224376,-0.3354216004,0.2279552486,0.6923789039,0.2239264739,0.0259089931,0.4510751153,0.0781395864,-0.324556055,-0.8571785403,0.0324186885,-1.5566518686,-0.6106127474,0.6962772103,-0.79762842,-0.003457621,0.5436423829,0.7362039571,-0.424514509,0.6797357549,0.4483710994,0.5468200878,1.4365320869,1.0668044811,0.0406371378,-0.3085219938,0.2791459153,0.035434351,1.0402571346,-1.3923606318,-2.2073599551,0.65109787,0.7074427676,-0.2559780833,0.5775477679,1.5164496898,-1.4323319935,-1.1416973797,-0.3513796384,0.1289366011,0.0716513234,0.864747943,1.2805155981,0.4038326056,-0.6286417134,-0.6915516018,-0.1022938295,0.5295520233,0.1664220099,2.8166928314,-0.6712884909,0.0515649633,-0.072807172,0.1122455439,-0.6704241129,-0.0721489282,-0.2857420836,0.0856430617,-0.4505308894,0.6692711439,-0.6111615738,-0.58757619,-0.4791850441,-0.8206743526,0.7164536154,-0.8451660628,-1.0011155018,0.5865595152,-1.2392713595,0.2246438771,1.0216853628,-0.36796962,0.3165686422,-0.5093115541,-0.8751656858,-0.8295719603,-0.5526955262,-0.6552381095,-0.3480867009,-0.2365948452,-0.7339020982,-0.5745832631,0.4417297937,0.1250999127,0.2794144616,-0.2238722047,-1.0483889066,-1.7600237296,-0.3282743836,0.0025065127,0.5747423589,0.1076576696,0.8806132396,0.0681149107,-0.1402878694,-0.1482281721,0.3353278052,-0.6812928273,-0.3981373541,-0.1481704952,0.3222100581,-0.3543353167,-0.271726403,-0.6001729012,-0.3969729148,-0.7729305535,-3.5739847782,-0.1977161836,-0.1741908419,0.17291411,-1.3196402792,-0.2285991887,-0.0777017851,-1.0535696351,0.3680822147,0.2528685639,0.0958871587,-0.0648727246,-0.7968105698,0.4915504451,-0.9859993212,-0.6566026135,-0.2440221789,0.3263776002,0.1397157825,-2.7455188673,-0.3921603454,-0.5482575923,0.7740220624,0.6843136562,0.267835506,0.3658598456,0.6946239114,-0.120578784,0.4416169844,0.2351188047,-0.1979150701,0.5120022884,-0.4372927529,0.6798002098,-0.5756640121,0.7658601964,-0.4075363387,-0.5173561982,-2.2611789796,-0.0297950616,0.3179937323,1.1475730211,0.9712464136,0.3032018673,-0.848028928,-1.3526807702,0.1432160309,-0.8108210818,-0.1841211815,-0.5238242077,0.2797864962,-0.1941764034,-0.5740550449,0.4667081856,-0.3712369202,-0.1297948506,0.2654187872,-0.2102348596,-0.1687100208,-0.2662911913,0.6309618756,0.0337501069,-0.5245235561,0.6683785932,0.6735213405,0.1069977758,0.6540590216,0.044375236,-0.1830452068,-1.1183774027,0.1656194191,0.6138156682,-0.6679106917,0.5621388633,0.8851700048,-1.5968230032,1.3629098944,1.2717771457,-0.1979498424,0.628167308,0.1322342593,1.006831459,0.9126472644,-0.7598443128,1.7829275982,-0.6272254185,-0.4242315041,1.0437484866,-0.4522913763,-0.4386722585,-0.5411009534,1.0706538279,-0.9276843529,-0.6379345897,0.4116091855,1.8306690486,-1.3453409911,-0.8274823025,0.4178443497,0.2502972919,0.5076716477,1.3537267424,-0.3827422896,0.876972511,-0.6648663747,-0.2383614476,1.1884376802,0.9283230545,-1.1860616518,-0.762767794,0.990904166,-0.9719818761,0.6393550325,-0.6104606492,1.1892173125,-0.8604555724,0.9491922686,-0.4404470063,-0.7184164754,0.0580937723,-1.2309858585,-0.0763088538,-2.0597078569,-0.2638800132,-1.9236094499,-0.5031487171,-0.6312012636,-0.56851873,-1.8978828593,0.3872183043,-0.2474913563,0.1373266702,-0.0063305365,-1.4034332203,0.4548986499,1.6271374975,-0.4381911516,-0.0419123975,0.2264222982,0.4850034533,-1.1445522777,0.1751768211,0.1724932845,-1.3027707494,1.5745369508,-0.2209744516,0.2355495699,-0.3275073808,0.1790848547,0.0981832547,0.1703453683,2.5865969753,0.8300668927,-1.5517085763,-0.3523321104,0.9690984852,1.0721559636,0.0673488791,-0.0574802639,-1.1131645757,-1.452862265,-0.1571684004,0.6746380846,-0.2096050601,0.8626688929,-0.0390013159,-1.0250105946,-0.7549634347,0.4843793271,0.4031264468,-0.1727687408,-0.8525536421,0.4478056223,-0.9580174794,-0.5713765098,0.7594943548,-0.8698953414,0.8263857605,-0.5550960357,1.3124694453,0.0136249181,0.6977511546,0.3929441826,-0.0019063736,-0.1075398949,0.2151954456,0.3558924329,-0.0378629495,0.9412584045,1.2156210856,-0.3705528919,-0.9827078118,-0.4563775608,0.1677797951,0.2518872341,-0.4765588371,-0.0031417089,-1.4978162484,-1.1973004793,-0.4230030579,-0.9593816377,-1.1936162513,-1.0022201534,0.715836947,-0.9074142516,0.5840435789,-0.3506541017,0.3153038446,-0.5871772467,0.0788308473,-0.0743952428,0.4271828177,0.0865295067,0.1133370618,-0.4669316438,0.0676109841,-0.7242565946,-0.0686444976,0.1254147014,0.7474261047,-0.3251588585,0.0408217454,-1.0384798024,-0.6149885417,0.1565396035,0.5882337598,0.7558056111,-0.2857698428,-0.7390318994,-1.6010095377,0.2501501853,0.1798003204,0.6631071986,0.9823408585,2.3168735771,-0.7229803073,-0.0387454506,0.0406651985,0.255368216,0.2802158815,-0.1849706893,-0.6726533862,-0.5084474858,-0.1979070528,-0.2985924203,0.2366178719,0.1085721655,-2.715403348,-1.1910738514,-0.6146678572,0.6739496808,-0.6042957316,0.5335818555,0.3274311682,0.9743909478,0.3498509594,-0.1492905275,0.1365654733,-0.0604184874,1.7814489654,0.6116531403,0.5464635351,-0.6159970979,-0.0566758317,0.2632555122,-1.2157404878,0.0085974568,1.0505281505,0.7222159668,-0.6467609482,-0.0166912637,0.8887211867,-2.3175261637,-1.3654119833,0.367412978,-0.5991923468,-0.4782723674,-0.2967429721,-0.5359650519,0.1548476811,-0.599592683,-0.0541237225,1.0702760795,0.8826271086,0.1399536753,-2.2760956574,-0.664058238,-0.0035348321,0.1276849618,0.7642942444,0.5572973904,-0.700535777,-1.4573173907,0.339874505,-0.3783645794,-1.3725041432,-0.0702131891,-0.0359630725,0.6630811232,-0.243891541,1.7319170744,-1.3302876417,-0.5198630745,-0.7344034044,3.0300489364,1.4285486339,0.3866135542,0.4298007411,0.6364972585,-0.9008181404,-0.0391001908,2.1444635156,0.3921780742,-0.786935485,-0.5675266599,-0.5779271142,-0.5983495383,0.6190552466,-0.804197671,-1.8573006722,0.2632238632,1.7533122557,0.0654883681,-4.1236045698,0.1348350814,0.5018840858,0.8233541433,0.1652410634,-0.2789775195,0.4497458589,-0.523024144,0.0453441172,0.0704344143,-0.9001806879,0.4683393245,-0.2452751971,-1.194225043,-0.5863387484,-1.1131585741,0.0825598937,-0.6560078594,-0.0184314687,0.9926511517,-1.6226048377,-0.2968454557,-0.3173839887,0.3374264502,-0.6798267913,-0.5094403202,0.3606757457,0.8745891935,-0.7170655707,-0.1371700371,-0.4664244541,-0.2457556225,-0.1783461577,-0.1467761767,0.0074603732,0.0304004935,-0.7368852969,-0.3723118479,-3.0239589025,-0.5562471996,-0.4736262659,1.2083464667,0.278782964,-1.0709080877,-0.0594538011,-0.2963914217,0.6189448417,-0.6147695771,-0.1176242578,-1.2366532052,-0.760085367,0.0641222534,-0.2070267109,0.0321586423,-0.6923083426,-0.8121928591,-0.6404365244,0.6091280138,0.6438441498,-0.3151394008,0.1224024766,0.2530119646,0.578998401,1.0864866129,1.1784162772,1.3021974924,0.1033817134,0.2193030879,-0.0405473219,1.0295537559,0.6863293552,0.6452623846,0.2691522278,1.34565082,0.7664689277,0.5512394688,-1.611495237,0.7000612132,-0.4382012527,0.1799191393,-0.0117668118,0.3092461985,0.0027349759,1.1635664405,-0.3240151942,0.4192293781,-0.6021594297,0.2783155288,0.5938606823,-0.3021907764,1.1627693577,0.8922243596,-0.3468050702,-0.5818912005,-1.6680020816,-1.0865600307,0.6008911058,-1.0399750417,-0.771621018,1.0671777373,0.4648099667,-2.0521490856,-0.7100141966,0.7249329689,0.0551785414,0.2646347072,0.2984538185,-1.3345080237,-0.0618996638,0.4331228821,0.8285061795,-1.0939412729,-0.6500469312,-0.1469397652,1.3387407478,0.6987365927,-0.7863018465,-0.555311179,-0.1045503618,0.003295831,-0.3987837202,-1.0714260871,-0.5668860159,-2.0404562047,0.5641468053,1.6216189801,1.7095009768,-1.484584364,0.4435310992,-0.1893965248,-0.8113527426,1.9331648515,2.1200667501,-2.5770980391,-1.1631006271,-0.0271078868,0.0436096786,-0.9522524668,1.4325882331,0.2172614693,-0.0010509699,-0.51436844,-0.764145096,0.366204885,0.9882297015,1.1096992727,0.258756765,-0.8978986733,0.0649163625,0.1731456548,-1.1795335509,0.2588570501,0.1644312835,-0.7261303093,0.8982875273,1.2212353518,-0.7767390694,-0.6969876847,-1.1447730413,0.7091046538,0.615522401,1.6964980841,1.2394183885,-0.6027228503,-1.7256342337,-0.8626862958,0.2993294958,1.6053171187,-0.4422886159,-0.160170976,-1.4670412715,-1.0800266323,0.6541768978,-0.3640460902,-0.6277760738,-1.2754828501,-0.0445587471,0.0807759566,-0.1813492343,-0.3955153659,-0.4288562736,-0.3016895041,-0.0182282414,0.8699878079,-0.4568322437,1.9166192748,0.5416697256,0.3536814447,-0.7642056158,1.3674452109,-1.3180145054,-0.8207775398,-1.1039780687,-0.3010719018,-0.0302948465,-0.2793280632,-1.0370085588,0.1169883116,-0.8420134166,0.0297061138,0.1103682613,-0.3998947838,-0.1148932912,-0.8144460262,0.9475514028,-0.2130995567,-1.1901423636,-0.8182162456,0.8268340006,0.541331157,-0.804910996,-0.7819870952,-0.6194673709,-0.9002544151,-0.3989281678,0.8588717298,0.1462235535,-0.7772453164,1.2469555224,-0.5156058902,-1.7453113965,-0.6022810656,0.2538687403,0.9815771534,-0.0318148795,-0.1176607106,0.548490092,0.7771650091,-0.750992279,0.3498033984,-0.1794361586,0.3175850258,0.2706079071,0.1508329151,0.2102383963,0.6456907945,0.2400013601,0.3981994652,0.8741646495,0.5099159426,-1.0493743522,1.5274847448,-0.2292316902,0.3374417943,-0.0668498599,0.6279779684,0.7842603619,-3.5763011117,0.938282291,0.3300098363,-0.1194635692,0.1514968325,0.1573174409,-0.1347129527,0.0397774269,-0.2185378131,0.4746224528,0.1088483417,1.189370674,-0.8228069131,0.5004504108,0.4691828542,-0.0614195433,0.8837627564,0.1920701583,0.3655163766,1.4954604403,0.3961778935,-0.714182543,0.2513971333,0.1510193106,-0.1648627832,-0.1583693157,-0.3803182024,0.0088314853,0.3298665968,0.1191925648,-0.1095804411,0.7003182988,0.5665015148,0.6027234352,-0.1525692398,-0.365711068,-0.5890171204,0.1238183167,0.4805236137,-0.1503689744,-0.6429931186,0.9372981631,-0.0994087281,-0.6764316631,-1.2588566657,-1.2489503303,0.2445246992,1.3343704585,-0.3778184972,0.8971297371,0.3029120174,-0.5865680994,-0.8228444781,0.5109919499,0.8835816292,-0.3097725859,-1.5930463149,2.1345199687,-0.8385845712,0.9774583315,0.2997442452,0.6826865228,-0.9960728542,0.9080747827,0.8346763848,0.2620954525,0.003223203,-1.6474570799,1.165772908,0.5430097736,0.5671868215,0.7229670956,-0.1382941181,-0.9977752667,-0.3402385914,-0.3139997876,-1.8146409104,-0.9189213178,-0.8043326727,-0.2504527596,-0.3776881133,-0.0600774732,-1.3268385981,-1.5675278176,0.4681267177,-0.1461263024,0.6223833324,0.0184996223,0.1838771241,0.8832028108,-0.9603988148,-0.4250295945,-0.0317958382,-0.2690484024,0.7361193313,-1.2961639665,1.2130211473,1.3371069281,-1.1766038324,-0.0001743727,0.9844547918,0.0525340398,-0.1396800154,0.8196539504,1.2408025139,-0.9246124255,0.7518474613,-0.7455406373,-0.7451680177,1.0035270262,0.4615915776,-0.9923664748,0.443389798,-0.0370192956,0.8855425455,-0.217678683,0.5406357837,-0.5596158999,0.3010571048,0.8636541134,-0.1132363467,0.3025590986,-0.0851835555,-0.6173214028,0.8779169935,-0.6633710013,-0.4792177667,-0.6186124192,-0.1668372948,-0.1379527422,-1.1244406126,-0.1423727495,-0.4098002116,-0.1484026221,-0.2211509625,-0.1264023383,-0.4265475918,-0.4852052033,1.070743203,-1.1155357742,0.8686104788,0.0236529186,1.2954838835,0.1033262193,-0.312616161,-0.825394432,-0.1917011523,0.6017254213,0.2272409872,0.6168265544,0.672204236,1.7861421822,1.1396182124,-0.0461319002,-0.2818842718,-0.7252743771,0.1156230947,0.0481001729,1.6059367136,1.0544126316,0.7493405923,-0.4417244782,0.4638305231,0.3563719987,-0.3849976695,-0.4300414674,-0.7185188169,0.6074878257,-1.1709097757,-0.2266537151,-0.5244410446,-2.0604096698,0.735937828,-1.0045121104,-0.0839248552,-0.6380165071,0.6243568344,-0.096404986,-0.3037312951,0.6439097545,-0.1899578655,-0.3037298371,-0.7170684817,-2.272062244,0.7215414687,0.1328675736,-0.2054865129,-0.1317531556,-0.0712874939,-0.8793618511,-1.0924347787,-0.5808619805,-0.0404786689,-0.1380339272,-0.4229891688,-0.347830418,-0.1126930255,0.6683229749,1.0942265119,-0.026806053,-0.979519569,0.4329377825,-0.555053639,0.0299035904,-0.3697714035,-0.6541928422,0.2092691411,0.975845556,-0.0666785934,-2.2862068434,-0.7692116281,0.8314356003,-0.827257307,-0.6267997387,0.0615844202,0.0918331606,-0.2656691211,0.54238597,-0.2881444831,0.3679549489,-1.3965500867,0.1253242067,-0.1203476858,-0.5226748161,-0.2519897903,0.2434063743,0.0965012292,-1.5684557486,-0.4821859178,-0.4468065564,-0.6718616654,0.9574866449,0.239371851,-0.5735024501,-0.6300753439,-0.2603887434,-0.1931162888,-0.6958995223,0.8493799713,-0.9209612808,0.0800599722,-1.011066251,-0.5033865053,-0.0913387795,-0.5174366824,-0.3013583062,0.5671648532,-1.7549778107,-0.8238283085,1.010004536,0.5127131674,-0.3115960114,-0.1941652995,1.3980889311,-0.1585672844,0.7391684635,0.0020355507,-0.1491523217,0.7310697956,1.7715883799,1.1067086589,0.2832295466,-0.1919996397,-0.0813068926,0.670914261,-0.94657522,0.6014783016,0.2186496195,-0.6078653924,0.1016281303,-0.1451270773,-0.5802600825,-1.5689101669,-1.2426336828,-0.9544299492,0.6019775996,0.3301294482,0.173209805,0.3816781036,-0.2968798501,0.3020414216,0.2477151493,-1.0365000989,-0.2382824224,-0.149331017,-2.4087997116,-0.5445282664,-0.5592398536,-0.5632404733,-0.2868377946,-0.6174082924,0.0129626046,-0.6416327314,0.1970450743,0.0295252866,-0.322743493,-1.9618532206,-0.6454034391,-1.2434322113,0.0471728936,-0.1454753534,-0.3070195565,-0.3461999483,0.07726846,-1.4138044865,0.3578235197,0.8572249508,-0.5065964447,-1.8735634905,-0.3074689842,-0.8848472047,0.8557644185,-0.8414412991,-0.2296962661,-0.1648046808,0.4141880871,-0.6401254375,-0.4992033146,-0.6812103429,0.4183249255,-0.1232385129,0.600187501,0.9221622057,-2.0852639827,-0.2481884536,-0.0546638027,0.979036647,-0.0080616341,1.4580544979,0.4085544155,-0.1955732345,1.0539336814,0.9955188018,1.0582486955,2.3317544776,1.3537010425,0.7761576572,0.4633178011,0.3990542128,0.2276680809,0.1509977646,-1.6379727603,-2.019204949,0.0722068888,-0.2253276535,-0.2665703106,-0.0309040351,0.1112619482,-1.090328092,-1.3741855081,1.764537279,-0.0381248283,0.1821923497,-0.3880243968,0.70691496,-0.7349822292,0.488753014,-0.2720620991,0.3811311289,-0.0156404075,-0.1150956726,3.0565123726,0.4068944191,-0.1172544871,0.500678823,0.2549184891,0.4439943234,-0.1267085541,-0.6176996145,-0.1381615442,1.1660117053,1.2468784021,1.3972588918,0.6355391318,0.8238815755,0.3243810856,1.1888330019,-0.3503067735,0.4650554854,0.8601657801,1.1649809941,-0.7789977269,-0.6090739816,-0.7166100753,-0.8593483628,0.0408908967,1.1112427904,0.7807793524,-1.5291651901,-0.4179096767,-0.3841011117,-0.9762087346,-0.4006159961,-0.4043622719,0.1920958912,-0.5201588054,0.5346454495,-1.5569778198,0.932221133,-1.5728595824,-0.7968706354,-0.7794231498,-0.0908691598,-1.1188722506,0.277252223,-0.0383994032,-0.0677186668,0.0996284134,-0.4602419592,-0.3434469205,-0.5723313625,0.6410158736,0.4353476986,-0.6532783685,0.7142469495,-0.5000470398,-0.1254777323,0.6443977877,-1.0268206045,-0.3841938893,0.4143527238,0.1962109612,1.1419455089,0.423396814,-0.0989492174,-0.2714118955,1.7789219909,0.7384838579,-0.2390353988,-0.0716158454,0.3118497348,0.9351794975,1.0239670433,0.8735412224,0.8933182792,-0.1923021263,0.5346870118,1.4911301254,0.0030403778,1.0492856459,0.5199010681,-0.7160267817,0.0232764485,0.578030707,0.280402171,0.0051939491,-1.0939541631,0.298300032,0.0246924756,0.0432431836,-1.4013412581,0.7942011344,-0.0692517722,0.8447496472,1.4958735412,1.6766750988,-0.507441481,-2.2709558185,-0.2337085407,0.0655013657,-0.209881471,-0.2251125031,0.7585551693,0.3747411876,-0.7696032449,-1.0450374003,0.368077223,-0.4628170005,-0.3184788541,-0.2444045719,0.6112709291,0.9545839144,-0.0158928667,-1.1696114063,0.6874504593,2.4996819272,1.7120063299,-0.6749128353,1.0602268855,1.4619835914,0.1385648555,-1.0386726926,-0.8692526038,0.8354650916,-0.0315270487,0.3484634504,-1.2932714021,-1.8616850461,-0.4900797505,0.5598166582,0.4683925784,0.896537658,0.0618807668,-1.5260861151,-2.5074011065,1.1092358328,-0.5724340726,0.4532077215,-1.661625067,-0.6033878384,0.1102753613,0.6267793299,0.8643302429,1.235397996,-0.239310116,-0.2306901368,0.8434433229,-0.0273507483,0.3963562169,-0.3103689482,-0.0955570907,-0.0105574105,1.2673710834,1.6166490684,-0.927581017,-1.1923868752,0.9102143187,-0.2246100279,0.0240745912,0.0384671602,-0.3666625362,-0.2315732143,-0.0394082478,-0.4278406756,-1.1586025903,-0.7211653281,0.3024534438,-0.3182242696,-0.0317007623,0.261255463,0.9152264797,-0.1752598473,0.4820316427,1.2280961168,0.1809260294,0.0436724361,1.1770399367,0.2753740888,0.4706183964,0.1428773834,0.6770628512,0.780381419,-0.716134491,-0.2982096586,0.6701531648,0.6222055802,0.0426992446,1.0031280994,-0.0984061014,-0.2738870568,0.5874545834,1.7963483685,1.2128035155,-0.5571381105,0.7835267685,-1.0299211334,0.5332387509,0.1372728446,-0.0158614084,1.1287426304,-0.9737559585,-1.2749097134,0.8369619393,0.6589825581,0.6804884262,-0.4450675587,-0.1918039096,1.1429867176,-0.6593970479,0.9718136985,2.1536339294,-1.8563035299,0.0040763035,0.286158377,-0.3441432713,0.0056878011,1.0236503734,-0.1501587339,-1.3964435411,0.6721080359,0.9006806316,-0.6166493935,0.6024406801,-1.0452138219,-1.5871460556,-1.0128263989,-0.8759553079,-1.0366915241,-0.0418315913,-1.3474667681,-0.8804883706,0.1001099332,-0.1771850583,-0.307344993,-0.2278124961,-0.4206245567,-0.1606330909,-0.0108478205,-0.5862959559,-0.1845265056,0.1940494078,-1.4035007938,-0.3416928465,0.0998717233,-0.853060889,-0.2479902548,-0.5920362124,0.4276433473,-3.1129727175,0.1173199232,0.0492792528,0.7979000078,-0.6185602193,-0.9992485394,0.6813973022,-1.5222225549,-0.4810618945,-0.1142281105,-0.4705849812,-0.0913544454,-0.1625965245,-0.4934216553,0.3862181111,-0.1899285717,-1.0894139329,-0.1919684232,-0.4304526883,-2.1827948248,0.5567514534,0.3895745284,-0.4220533742,-0.5340517153,0.6314549965,-0.5736773283,0.5914337574,1.0791870563,0.7538639131,0.5213937938,-0.4926980462,0.1057625596,-0.3290246393,0.284705991,-0.7450028538,0.6246767651,-0.7539517333,-0.7584362683,-1.3474532621,0.1769757641,-0.7373756174,-1.4397241144,-1.1941486391,0.3567069012,-1.3714493387,-0.8343107194,-0.5189186261,0.7531614171,-1.0646036023,0.3300523685,0.9010006332,0.3875254221,-0.0898797066,-0.1004050122,0.5772538162,0.7597994463,-0.3972005576,-0.7234962827,0.1948135601,-0.0604088257,0.7256486667,0.1847402235,0.3559070873,-0.2321907953,0.5332559813,1.3101221044,-0.5730616854,0.8576097941,0.042454836,0.8863757834,0.2616401674,-0.7004377374,0.2192392859,0.8097448328,1.0969314416,0.7101017956,0.8835015847,1.3168896604,-0.6592948453,0.1343189344,0.0276573258,1.4969984985,-0.1851013926,-0.8206419603,0.2845969905,0.7054504099,-0.8101166607,-0.1694199449,0.1250519499,0.2660152542,0.524676693,0.1843869294,0.7279923849,-0.1845771918,0.6534733673,1.0086181729,0.4808598989,0.0743054081,-0.9260315345,-0.2152990101,-0.2810508812,-0.8911970328,0.1973343607,-1.4886272621,0.7791722227,0.9890492658,0.532594455,-0.5256594029,-0.1535254878,0.2432721616,-0.7126695378,0.2023705989,-0.4398203963,1.7564854094,1.072038905,0.2401460195,-0.0287195588,0.2798715116,0.6763489852,-1.2922234201,0.9911939467,-0.2108191415,-1.1396313471,0.1168054771,-1.0945725847,-0.6181140264,-0.1917276407,-1.0968856551,0.6917476368,0.0384026612,0.5518178718,-0.6434783465,-0.4032410256,-3.5793894986,0.5044970522,-0.4379520942,0.3749084317
   -0.6291117808,-1.4892424456,-1.174358281,-0.1713386442,1.20457678,-0.6467501143,-0.2400046894,-1.0366889109,0.1959942996,1.5628980188,1.3144751558,0.2305428237,0.5323686669,-0.6844800155,-3.8174106606,-2.49187316,2.1393457609,1.9951213583,0.4651120323,-1.6264887439,-0.8783509986,-2.5465191017,-1.8257554539,3.1160700646,1.2064732706,0.9645775604,-0.0713373227,0.3223962014,0.4404308626,1.4717610842,1.3146651914,0.0371111323,-0.5171287783,-0.7049531416,0.8059352272,-0.0952581034,1.0697572622,0.906945693,-0.3676324964,-1.0729065671,0.2658645191,-0.3149884971,0.0020614311,-0.1178426786,-0.6952179568,0.7789706981,-0.3084620312,0.4453328548,0.2870275271,-0.1333611369,-0.4002846092,-0.7769041593,-0.9778060525,0.0520912133,0.292163972,1.3542621622,-0.7295508147,-0.1539009422,1.033152524,-1.3439965643,1.1710901767,0.8644628058,1.5547092527,-0.0804806299,-1.1513086766,-0.424502086,0.869240687,0.4069193352,-0.4732797744,-1.1135913573,0.4387903167,-0.1853111342,-0.3885681183,0.0661169381,-0.3020153693,0.6070555417,0.7041130286,-0.7604271607,0.506349212,0.7159129838,-0.7877602917,0.1069177284,-0.8280581266,-0.4182881367,-0.7233999995,-0.1196756639,-0.4715874198,-0.9346211588,0.069376481,0.2433828248,0.3360977903,-0.5020200768,-1.9486359733,-0.716385071,-1.3584907122,-0.2664161669,-0.1978369717,-0.6368988371,-0.7037864499,-1.3260387909,0.038696549,0.4285385682,-0.6470608664,-0.8051424087,-1.1785416829,-0.1223234622,-0.4090476019,-0.8662189905,-0.7914551959,-0.0028126511,-0.980951268,0.5755829047,1.0831046491,1.2390458689,0.5152901192,0.5229793305,-1.2417762067,-0.5290725017,0.1834682522,0.1701301566,1.1267002615,-0.0323123031,0.5956915658,-0.8547223943,-0.1897853841,0.7995717483,0.7433293649,0.1185986215,-0.4572134514,-0.0855417519,-0.8939983916,-0.2142095592,-0.9074901892,-1.1215805847,0.1320147511,-0.0859114621,0.1627133624,0.5386083092,-1.0123644441,-0.3762078898,0.0923113452,-0.7001078513,0.1800586329,-0.8803693509,0.477638346,0.1491654176,0.2472963655,0.4659786353,0.5258843649,1.4624829253,-0.5546492806,-1.2718928602,-0.8112271191,0.032596408,0.7453476657,-0.2181916697,-0.3680885914,-0.5075484934,0.2498164366,0.5768172113,0.1717747922,0.2017429176,0.4055015072,-0.578161356,0.5529612488,-0.4406251573,-1.6847353108,-0.7422784815,1.3256178643,-0.7572079165,0.7946549193,0.5854624712,-0.7754474026,-1.6282668047,1.1254106246,-0.1351727924,0.2352330254,0.725274846,1.1849731676,-1.0486193681,-0.5643630908,1.4091601024,0.9154217532,-1.3060787877,-0.4585255618,-0.3259386499,-1.057189178,1.3630828108,0.2296156863,-0.8669708904,0.5321746533,1.1073215377,-0.4530464459,-0.1596036308,0.0390781417,0.2210551416,0.8706093722,0.7194839234,-2.7607306345,-0.2837471883,-0.1020812406,0.702929179,0.5009906587,0.8784442481,0.2639174904,-4.8035360191,-1.9324874608,0.6510969301,-0.7657157668,0.0015186975,0.0396370263,0.970730097,-0.360592153,-1.0632947556,-0.1841474583,1.1025195669,-0.2454704969,1.0180608225,1.0196288701,0.6104686869,1.3395615921,-0.5693226452,0.1709829878,-0.0288107522,1.5186196673,0.4047929607,1.1431054202,0.9883742179,0.2788636236,-0.6441822544,0.9731295215,0.5728575474,-0.8108070854,1.0318442557,0.2486713865,-0.4831260116,-1.0878844049,0.3842498497,0.1180625051,1.4271911152,-0.6552536013,0.9008184903,-3.2906094072,-2.7406538581,0.7371273792,0.5103814621,0.1458379642,1.2868723702,1.2658249823,-0.2208873868,-0.2821077093,0.8375107336,0.3053360333,-0.9911406051,0.4608480458,-0.7747649503,0.60382834,-0.4478289138,-0.7527318411,-0.4350603372,-0.1288642664,0.2913301678,0.7944557541,0.2359900689,0.4102487902,0.6232537778,0.1951472726,0.3548578851,-0.7892053352,0.0390005882,-0.1371009928,-0.4678470696,-0.4549082529,-0.5776165461,0.8323320476,0.4370945771,-0.8426791329,-0.473040148,0.1393315553,0.4584958445,0.0192192494,-0.2081890419,-1.8343429748,-0.905467799,0.2748332311,-0.277246082,-0.7423503923,-0.0384629463,-1.482967447,-0.2808625947,0.2042037469,-0.1895458356,0.168488761,-0.5981547764,-0.5987525848,-0.2668895227,0.2252234039,-0.5136767742,-0.8608974354,0.2865174961,-2.029746029,0.7118218113,-0.3600152793,0.6027034995,1.441823863,0.8950684155,-0.7686473677,0.4903855351,-0.078751802,-0.4865305361,-0.4881208996,-0.8994801481,-0.1179063821,0.2766380308,-0.7204136861,0.3324805778,-0.0235528408,-0.1744223862,-2.3912105164,-2.2507181015,2.5524687006,1.0068353114,0.8786961702,0.0666798889,-0.0228961422,-1.9874845127,-1.6408611579,1.6208556637,-0.5433811971,-0.7846477584,1.5240579929,-0.4141600448,-0.4536835414,0.6269123658,1.1029864831,1.6245244946,0.4510819837,-0.3928117317,0.7267468126,-0.148324692,-0.2634395357,0.774787364,0.1653615912,1.2586269944,-0.599323346,-0.4953163848,0.2200469542,-0.5865531354,-0.5809467007,1.4837645983,0.5341365184,-1.0636177827,-0.3545572818,-0.3025816077,-0.4050524607,1.5267982844,2.2285741082,-0.0059744028,-0.0368500081,-1.1417279232,-1.1264802928,0.0917236802,1.2071965454,-1.6873682071,-2.0175651101,-0.9637122633,-1.4198395648,-0.1983543353,-0.3506147361,-1.4079313468,-1.5589396103,0.1146883393,-0.2717374207,0.309740059,-0.2682809383,0.1895406555,1.6188583173,-0.448369065,0.545426549,0.2028349501,0.549071889,0.2166921477,0.2027928384,0.1006373094,-0.6488761223,-0.1250347671,0.3210399697,0.5881364171,0.527467201,-1.2999444448,0.6163285358,-1.0729056484,1.2694315225,0.3539328753,-0.6686346024,-0.1748236767,0.5840966119,0.0976273989,0.3055595417,-0.401287737,0.6081116977,0.1678461534,-0.609150442,-0.2872137317,-0.0093678679,0.6182423265,0.7780210185,-0.5933504345,-0.9848205577,-0.6218373885,0.299065046,0.0127881584,0.3761821834,0.2847468325,0.9369200054
##end
biasActivation=1,1,1
[BASIC:ACTIVATION]
"ActivationSigmoid"
"ActivationSigmoid"
"ActivationLinear"
