encog,BasicNetwork,java,3.4.0,1,63716711083426
[BASIC]
[BASIC:PARAMS]
[BASIC:NETWORK]
beginTraining=0
connectionLimit=0
contextTargetOffset=0,0,0,0,0
contextTargetSize=0,0,0,0,0
endTraining=4
hasContext=f
inputCount=57
layerCounts=2,117,117,117,58
layerFeedCounts=1,116,116,116,57
layerContextCount=0,0,0,0,0
layerIndex=0,2,119,236,353
output=0.990459462966583,1,0.276061936031517,0.0790171805391031,0.139821246334163,0.907766664676973,0.532357130181766,0.886181590755841,0.994527252187885,0.894016911847588,0.97541652726249,0.86003950295739,0.583534628131002,0.311088035002866,0.963123788247655,0.00693030694725004,0.01321678559908,0.425798651693475,0.0151883302182144,0.136108503390972,0.997321737096559,0.993361517835868,0.969193195702138,0.748102265321523,0.281604367030672,0.000938252627257394,0.918246127999518,0.94398304914889,0.99079623269125,0.153304020680269,0.697459911848415,0.610080770136228,0.823817493355846,0.820282765768777,0.133469987258202,0.968621718534976,0.000607723599774745,0.00566036621000612,0.994753818923349,0.61994120561508,0.9967699087729,0.0505624927672131,0.473126068643684,0.767670723283955,0.152840329727791,0.0149244712762859,0.761682606156753,0.727294550001435,0.00560879752247437,0.952963022214194,0.0000786125680320863,0.994764225937966,0.00103767122288073,0.216845196987388,0.936114931022587,0.704624842773944,0.497932140634669,0.985933684182805,0.0232486764957346,0.968646517569123,0.00569609757421653,0.864532551381497,0.00394978295298931,0.191264589222601,0.847393646891952,0.134953031058668,0.0451154538869421,0.693875928157771,0.128634844703676,0.177575014593703,0.00608594706230806,0.194772218360584,0.906681611937023,0.990779841546695,0.183738104973921,0.0201071697775676,0.795098859266918,0.224863725337614,0.0113515506883206,0.991696766837503,0.997793864197613,0.938616488718062,0.000395124495243557,0.715118790864661,0.930132516102513,0.722586381943483,0.661563614097177,0.144528161964054,0.307796262488808,0.00589080532248537,0.451654084580033,0.00567263760840993,0.00159883213710711,0.606425429187138,0.669985268867604,0.0526937116464459,0.847107638573356,0.695500315980315,0.0132075975342149,0.215116582542165,0.999116081579181,0.358601645632885,0.14347342512616,0.359218987652615,0.905561451582824,0.708551232582406,0.277142542910477,0.956314150226622,0.167288463877303,0.726396968712338,0.982706266533467,0.0321699965421397,0.991555308423586,0.0766553143092168,0.818148000308412,0.999877004233564,0.995188648570131,0.0264751556266532,1,0.0358797723207358,0.868307034691553,0.0825620671208582,0.377477131598443,0.00833743652540429,0.000322345543714387,0.9214487538017,0.00716660723491864,0.999623002554064,0.0988723354945837,0.0800428894038168,0.995582791507795,0.0857970580187633,0.149415786746941,0.453524388048875,0.908028708604062,0.576542591491788,0.0472534325666214,0.241891426494773,0.00015821989145273,0.380279883000437,0.0160811690720605,0.861709384764389,0.764684019137448,0.282448626233576,0.00600841702024386,0.637046133523715,0.988498521503602,0.955508948567037,0.160426083850729,0.0544672703479706,0.426394755656444,0.996907807116943,0.000158550311042082,0.68107353612568,0.883671930064689,0.0356576946347284,0.999915044646526,0.501274138078543,0.262123027592048,0.1745596259282,0.999936618253689,0.999866701080786,0.999138401792835,0.922007421427224,0.0259846492876082,0.670831962779082,0.350055010485273,0.778814578597103,0.484073055631627,0.0398216984331723,0.990370009123896,0.943444251806863,0.587018323776258,0.179033220781706,0.478688668591619,0.00212232754195148,0.977808798348038,0.955710107651652,0.103513938433415,0.714299987807943,0.790700052709434,0.234721706666865,0.646801182792378,0.0000492275958234769,0.334984741451833,0.00687405226311514,0.99876906484806,0.0469283661497959,0.926440047412801,0.929837723313863,0.998204148295764,0.132764488393135,0.99854661728862,0.881405462728608,0.0117290190544816,0.0167242772522484,0.0255125231167646,0.416869022438873,0.189051931729756,0.978185931884362,0.981841840916898,0.995484865331544,0.961963119143592,0.970135586279833,0.998462858771211,0.0790451281987707,0.0540183259604162,0.999998486100926,0.944791936532252,0.0651518632221296,0.860317157476802,0.961295674175542,0.999618050586637,0.585527304341637,0.994605433847635,0.948636065579543,0.84438026155372,0.00646526384082917,0.352113277383972,0.536353663697385,0.99753052263317,0.0105254766456364,0.450018134719649,0.0627965166946207,0.333218751277039,0.648836105372571,0.979558227649747,0.994656373903051,0.595316892165352,0.0393256237160927,0.952451585313373,0.96376434938684,0.369092904256893,0.842271198840849,0.711697090711884,1,0.950624462329569,0.181065494649993,0.0252285072099753,0.000558309854408928,0.871063786662968,0.012349237936578,0.00704086737464029,0.0860571145181867,0.305491083974774,0.00716938009795189,0.138229463765929,0.287039193791936,0.996428227603731,0.948386361605036,0.694780994819147,0.996914692695731,0.0163378431563291,0.0888786586532159,0.431501867135413,0.914692212656693,0.905303917056598,0.863266220783698,0.00408586220282762,0.323272210765694,0.999596877618549,0.981573884272891,0.636268766942155,0.831775823749024,0.982958088749006,0.988857555095458,0.0477452476280672,0.634049743055231,0.975006420087438,0.971311643755296,0.00429221603849823,0.00662244164639618,0.996340482774219,0.255602963739007,0.980727633615449,0.984404857802769,0.229320791890359,0.00146728295664468,0.0269854613723668,0.0916832193979839,0.994305435745193,0.999996830743084,0.872432759886588,0.921784990533426,0.346157421090974,0.937545048372456,0.86672601461822,0.00203079402493672,0.953103777854785,0.887460706720367,0.905648753190391,0.0000564812664590183,0.999971923035826,0.410906778356715,0.0491287880791114,0.0773207189016138,0.00118138013720596,0.949769014024118,0.356189733122812,0.000539588395895699,0.959711243621383,0.0124156267052556,0.480749527381385,0.623205253182571,0.315505965696877,0.00000145925729559612,0.904063648788615,0.000247281205974549,0.699243868161076,0.429498185211441,0.901397294282225,0.0000776390692892149,0.0380878823725357,0.11352364238406,0.769503169986326,0.867195350947263,0.0749382021351159,0.0557746803746803,0.990315132742387,0.997986986342111,0.434342231747557,0.8854419677826,0.999593718967869,0.00487489673593827,0.0525961661307252,0.495976509281123,0.552065117385676,0.289235348248676,0.529290356700987,0.550997562473491,0.00109255346886137,0.994881260867036,0.884333875094965,0.0001231836092272,0.278878246779867,0.30920742731392,0.999771570905579,0.217912397816181,0.119891443163799,0.330868488485455,0.990258491598235,0.501926542920479,0.0661091383688126,0.00108915430409316,0.729311972008279,0.837508253549487,0.0210403511280244,0.301645052685986,0.237623513068514,0.000311479431085378,0.987428175150751,0.00180600193159818,1,1,1,1,1,1,1,1,1,1,1,1,1,1,1,1,1,1,1,1,1,1,1,1,1,1,1,1,1,1,1,1,1,1,1,1,1,1,1,1,1,1,1,1,1,1,1,1,1,1,1,1,1,1,1,1,1,1,1
outputCount=1
weightIndex=0,117,13689,27261,33989
weights=##0
##double#33989
   0.6424409867,-0.3732074674,1.1644238096,-0.5748134364,0.8064038953,-0.3654804988,0.8332847402,-0.9210552305,1.0039116129,0.9237181073,0.2726192681,1.2456462084,0.9575221841,0.4943609079,-0.4572138926,-0.4363061983,-0.8651533001,0.6391112233,0.0971354212,-0.1802368129,-0.5109579797,-0.5967920006,0.6961459457,0.4413060011,-0.6607931754,0.1486592514,-0.3736552389,-1.1336033176,0.3480851443,-1.0191234615,1.0114700299,-0.1998499044,0.1374520971,-0.5133674564,0.8127507887,-0.5744101116,0.615582863,1.0455972532,0.5961796961,0.2204271829,-0.4977988104,-0.8964458798,-1.1452303707,0.7304459929,1.1545301728,0.1978574632,-0.7250550567,0.8325865408,-0.6334776712,0.2887363014,-0.390392587,0.1369414084,-0.5601459141,-0.5090851066,1.7430243774,-0.0875391251,-0.0233719594,-0.4416545803,-0.8829140586,-0.8212286583,-0.9196996012,0.524704446,0.0471866975,1.043472794,0.7196230524,-0.7623218015,-0.444357329,0.2914735996,0.6711820183,-1.12354249,-0.0817024818,-0.1926750223,-1.1313906387,-0.9474726396,-1.1247082952,-0.957698144,-0.6708002482,0.9525417,0.8328771317,0.4485062058,0.1142435474,-0.137952923,1.4565746752,1.3466547923,0.737939586,-0.3830131149,-0.924139885,-0.5155277326,-0.7741930025,-0.2528451591,0.3408100398,0.1300203893,0.817517231,0.6876601936,0.0085568619,0.2742386731,0.4689154311,-1.0495009392,0.9484896921,0.8714557528,-0.5509807864,-0.2623602696,-0.9020414888,-0.7663662093,-0.4926873389,0.8081683041,0.0740287233,-0.9397233608,-0.5734035453,1.1673777902,-0.5851241018,0.4227961892,-0.1906350976,-0.1934524528,0.2340787127,0.3737672877,0.6544757042,-0.3614442442,0.9656513711,-0.1102271738,0.5077662692,-0.8187129332,0.4921924021,0.9475652494,-0.9337140006,-0.953976222,0.5246194334,0.0405979429,-0.8311262934,0.9275558862,0.7534282263,0.5270622051,0.1844546255,-0.3010584292,0.7807691453,0.390253636,0.3978674559,-0.1049607825,-0.4840168301,0.8457348784,0.2224041675,-0.1560932249,-0.3327240025,-0.6105685633,-0.7411429832,0.9381666105,-0.9244055418,1.0368203794,-0.0112562093,0.7109173641,-0.7438446729,0.3676183761,0.6199581655,-0.9343863494,-0.1937632186,0.9587004966,0.5067508372,-0.3321481921,0.2754984039,-0.692925226,-0.2001574505,0.2454913608,0.7714578483,0.1155928698,-0.6410763253,-0.4899819712,0.2776317317,-0.0400294177,0.2207551554,-0.9835496853,-0.9119042495,0.6546510688,-0.5407233379,-0.6381968322,-0.9422844516,0.0102852381,0.8721437133,-0.841695677,0.277429343,-0.5860470105,-0.3158925627,-0.2254429548,0.1061679311,0.1796511986,-0.1288899746,-0.8193160336,0.542594814,0.6320769238,0.8956620657,-0.0455671714,0.0956594748,0.4316170414,-0.417308306,-0.0127628866,-0.169179848,-0.4794045802,0.9107026913,-0.718271644,-0.0947173076,-0.3469326997,0.1911236333,0.6993864754,0.5251246667,0.7264408707,0.6605127469,-0.8244912257,0.5278345914,0.5713765568,0.1323727284,0.5220893849,0.6533399547,0.252972279,-0.9410658034,0.7025844448,-0.4952241532,0.8927837935,-0.9089407321,0.6416803481,-0.0877290316,0.1437401199,-0.8168996242,-0.3589502687,0.9965304015,0.3173717577,-0.2627624103,-0.119299858,-0.9274343226,-0.8493186134,0.019611153,-0.6231093219,-0.6846377504,-0.7211673924,-0.1182135076,-0.9530580417,0.0908739813,0.5597323011,0.9147714609,0.0201380405,0.1192648727,0.6792546269,0.1746823183,0.4985620492,-0.001541197,0.7564443714,-0.4381522781,0.1613765389,0.5437548679,-0.1298088952,0.264265736,-0.5007936739,-0.8618029515,0.7543784092,0.3064644079,0.5439802225,0.9730719896,-0.0750940553,-0.5028456809,-0.9382823586,0.8901758574,0.5948173721,-0.1537571283,-0.2708145975,-0.2945982964,0.1866672185,-0.7342470168,-0.6983046535,-0.5883667612,0.5464167872,-0.2289809173,0.0659557793,0.0299147566,-0.4200920901,0.7411405643,-0.2502516481,-0.3782848612,-0.4598319492,-0.893468279,-0.6235332676,-0.3468123514,0.0886652893,-0.7590972505,0.2483737354,0.0044379787,0.7135313448,-0.3507030351,-0.0302326951,0.1380375776,0.1384323536,0.3561642556,0.5812061733,-0.9705106368,0.7750061591,-0.9348120803,-0.2140781515,0.059211159,-0.403667909,0.2342093809,-0.279970424,0.8462277808,0.704277744,0.4613720932,0.030853479,0.4916500033,0.6294856304,-0.4659688283,0.4101926876,0.2901216502,0.200443174,0.4277732681,0.6717146115,0.9910012597,-0.0428772864,-0.9420070316,0.1924576418,0.6291275659,-0.9537973569,0.8584539315,-0.6257433696,-0.1218048006,0.5709438958,0.0957076569,-0.6219024631,-0.6404071683,-0.285007242,-0.0534354908,0.2180954754,-0.2985702837,-0.2992305266,0.935207605,0.9501618788,0.6955840353,0.2717416791,0.9711872778,-0.8772492163,-0.9765579614,-0.7989768803,-0.9522505336,0.1725997338,0.1520016842,-0.8667093781,-0.0624298191,0.5838232016,0.4416965398,-0.3704415966,0.8069796491,0.9427329555,-0.090967767,-0.2267460926,-0.0354436339,0.1426796059,-0.240426851,0.5429132437,-0.3781659854,0.3305099986,0.4360530697,-0.3547503515,-0.254669097,0.66431293,-0.166265192,0.2216954869,-0.0099815166,-0.6285445638,0.2908022149,0.0242537211,0.2777879955,-0.4781895344,-0.701234759,-0.3285327628,0.2091132592,-0.41624778,-0.2456168287,-0.1774334142,0.6460301166,-0.7443174984,0.0296375553,-0.8706307019,0.4493522186,0.2599874857,-0.2871502253,-0.9994531774,-0.8970240581,-0.8198518842,0.7755895313,0.1268076603,-0.8975056964,-0.9499845201,-0.7245967473,0.6263553931,-0.8272817062,1.0088958641,0.9848124925,-0.5078588462,-0.0609179067,-0.6729365557,-0.4815447454,0.6201105905,-0.5989422178,0.297908058,-0.4949305387,0.2912007389,0.5391818132,0.9059025792,0.337684042,0.1929165624,-0.8398972175,-0.9086094025,0.2221190849,0.0347273265,-0.4571863655,-0.1061977481,-0.3438647049,-0.0206711917,0.2274332681,0.2733971225,-0.0292346495,0.0035924703,-0.4211037537,0.729691659,0.1007270255,-0.36329514,0.0509294109,0.6466301026,0.4581610756,-0.9325404829,0.2403693079,0.3041565909,-0.2446486322,-0.1955466464,-0.017939425,0.8142083256,0.2474360712,-0.0257050854,0.8229521734,0.337134031,-0.62042564,0.1722206438,0.292230043,-0.3557483263,-0.574275344,-0.4997824507,-0.9669886085,-0.8800309979,0.6745629632,-0.3957464692,0.8805748736,0.4457854952,0.8402861244,0.5807902722,-0.3866940706,-0.7319028882,-0.2135442885,-0.1711827823,-0.6315621763,0.4311836179,-0.8560796726,0.3941412878,0.5960979966,0.5026699987,-0.8067039145,-0.0927976197,0.8802350739,0.8578440877,0.7043892552,-0.0123108962,-0.2111200101,-0.8878109373,-0.5333893002,-0.1886964547,-0.9767243922,-0.4747992966,-0.6651599034,0.4071659297,-0.7544973729,-0.7682516386,0.1844951278,0.5825973592,0.2079707559,-0.1464379915,-0.1904550068,-0.5996257626,0.4322474457,0.7470703039,0.6070809058,-0.3729892486,0.2524738422,-0.5774024266,-0.114851565,0.0273798146,-0.8680846046,0.3703956655,0.2726135042,0.8457994854,-0.3011926018,0.3301672946,0.8772935923,1.0227950827,0.2342207474,0.0796334293,0.4927149779,0.9587577937,0.4152533413,0.6685756717,0.5331267673,0.8343737983,0.293894625,-0.556772213,0.2471989482,0.3352495489,0.2602148767,-0.4018000429,0.7473146786,-0.7813916136,-0.8213351141,0.0829911453,-0.900093088,0.0384287764,-0.5544531887,-0.6403240096,-0.7633357437,-0.191305525,-0.3801577362,-0.2028962181,-0.0873105538,-0.9019136218,-0.6410795631,-0.6986717028,-0.0218082632,0.1117317474,0.7062047886,-0.1260353604,-0.0382114838,-0.6239147052,-0.4939897101,0.0875258898,-0.3220670684,-0.6507614718,0.423446381,-0.9135214139,0.2002450104,-0.3938017225,0.0580966738,0.9815484084,-0.0781948263,0.2180746919,0.8689657391,-0.0604016691,-0.712671259,-0.7648162906,0.0986875423,0.7766824873,-0.7489820056,-0.1644603066,0.7773470209,0.442968723,-0.2403625222,0.8637534195,0.7761833598,0.3460973332,-0.4068765614,-0.6921655112,-0.7650851273,0.87603787,0.3760980646,0.8643135308,-0.1639390441,-0.665904271,-0.5625625547,-0.2070806578,0.6646834357,-0.3782541436,0.2553293192,0.865477594,-0.8905264131,-0.0629306543,0.7334922806,0.5942759422,0.4720210725,0.1315805321,-0.3718983612,-0.8652419016,0.8323920159,0.3043501858,-0.2096556084,-0.354293482,0.6668188572,-0.6893261451,-0.2945617454,-0.5081000134,-0.1056652075,0.4669566413,-0.6946245646,0.0557787614,0.0737881375,-0.3356191584,-0.5587457846,-0.6451706309,-0.4789494557,-0.1699481955,-0.2730751305,0.4850982254,0.2666519045,0.2565926083,1.0276277046,0.5888798127,-0.4780084739,0.8033142373,0.1674461903,-0.2053730099,-0.9899206111,-0.5410950159,-0.0020301388,-0.9405530474,0.0816502563,-0.7243406515,0.5082750065,0.5975428355,0.7707724493,0.6177047665,-0.7130758757,1.0447432046,-0.8727800276,-0.8907713295,-0.879816432,0.3144543036,0.3320801147,-0.518181223,-0.8822115357,-0.9448699673,0.9407617356,0.5644400097,-0.1425600481,-0.1147202878,0.0271111795,-0.8856205734,0.0177086202,-0.1417050927,-0.1288744203,0.9470676844,0.3817173009,0.4507801409,-0.2495865125,0.3146366166,0.7802215129,0.9223246615,-0.2928243538,-0.9167154532,-0.3821585597,0.4175875754,-0.4341626758,-0.8355886,-0.8434978184,-0.9485161419,-0.1008266768,0.7318381806,0.0494345448,0.6199185724,-0.4955023428,-0.4767786247,0.7557664773,0.0704195867,0.5517160181,0.1300779677,-0.9454017584,0.1364444969,0.0816950527,0.9075906679,0.9571921495,0.5308332931,0.5635576947,0.0087514045,-0.905033055,0.5395728086,0.048252904,-0.5102339588,-0.0795979108,-0.4856836623,-0.6336152787,-0.6047696274,-0.6218799537,0.5867511342,-0.93806118,0.9980245012,0.2472019147,-0.5944341819,0.7386659536,0.5391320525,0.5584707378,-0.2473834578,-0.1138901398,0.0655788784,-0.7162626672,0.0100151258,-0.8658698212,-0.7310596906,0.6577457851,-0.9026590548,0.1759102079,0.0233099196,0.9425763096,0.8633877176,-0.1287269692,0.4499799832,-0.3534705928,-0.4959728495,-0.2772194812,0.3251855923,-0.1223412511,-0.2351069242,-0.0277175442,0.9367305677,0.6319234004,-0.3709264627,-0.2996077698,-0.5501628315,-0.2428178331,0.7893706747,0.953505949,0.7569878705,-0.953435239,-0.9937130509,-0.3925479848,-0.7073381277,0.2674699025,0.4621597059,-0.3137811186,0.0318429107,0.9169556217,0.1258966656,-0.1201284774,-0.8694374317,0.5358361284,0.264410644,0.2660533392,0.8282923114,0.5371825424,-0.3360748934,0.7853846649,0.9681784329,-0.9495218161,0.4787729921,0.8089374146,0.2820407946,0.9008150483,-0.2117080363,-0.2899783173,-0.418810894,-0.2587467348,-0.3141175061,-0.5412975146,0.9829552935,0.5996658968,-0.0191934076,0.9183123925,-0.8672462202,0.4569493561,-0.7067607886,-0.3481492663,-0.212891346,-0.7651055526,0.3042973496,0.3009998363,0.5497654961,-0.2605812426,0.5559490233,0.0987762704,-0.7492960048,0.7160360006,-0.5903819763,0.1637294947,-0.2859022299,-0.6013478843,0.3142102214,0.2158687469,0.8775923427,-0.3785509203,0.4336012468,-0.89367984,-0.3669451876,0.3158453332,-0.7450365572,-0.8765729957,0.3118680896,0.8703958773,0.2921259627,-0.435241241,-0.0143577373,-0.1144619488,-0.5076311218,-0.3901972167,-0.1897224137,0.4289101388,0.4202645235,-0.616617868,-0.3657907727,0.3899545607,-0.0753045855,0.5428574992,-0.7447050387,-0.2520509218,0.2214835562,0.5069755322,-0.4945284914,0.7830214495,-0.3919158947,0.3728227708,-0.0676234528,0.6290152828,0.0348826221,-0.8820539688,-0.3045300899,0.7340970742,0.8332862952,-0.1384688193,0.0678419425,-0.0111979156,-0.5284513829,0.5208121158,-0.6701835081,-0.4924403995,-0.4824460793,0.0990899604,-0.3577973196,-0.3560294136,-0.093567838,-0.3759404868,-0.7847718496,0.9476233397,0.6597698707,0.7979511121,0.8430550791,0.2638118704,0.3771687163,-0.5779528334,0.1768299726,-0.6414717971,-0.0986544354,0.700518642,-0.202123276,-0.4869948161,0.4446386008,0.7817044775,-0.6742691767,0.7184324997,0.6722852242,0.8974118178,-0.8286946532,-0.4198326427,-0.8811148659,0.9917456491,-0.133398795,-0.9007489607,0.9769472428,0.3412454571,0.6882183985,0.2456562578,-0.7900850275,0.3824958341,-0.0981438491,-0.0140928371,-0.2786563776,-0.5737510396,-0.7319492384,0.7591260695,0.3007187333,-0.9833184808,0.2425338648,-0.8762215791,0.6946367994,0.7081691074,0.3429905818,0.702681823,0.9960566086,-0.5955844887,-0.4304902447,-0.5007453654,0.5121991723,0.9608422336,0.5939514056,-0.9515414453,0.7235951689,-0.1018373037,0.2679181145,-0.4225396463,-0.5705885707,-0.102144935,-0.8037440912,0.4287386377,0.0701976854,0.1085487826,-0.1969074692,0.2950318529,-0.6324030921,-0.6684974299,-0.8081014331,0.2077377711,0.6856428224,-0.2965724371,-0.527926836,-0.2165193147,0.0463161215,0.5221504287,0.6994850367,0.8520929085,0.8479337438,0.591583087,-0.5777534006,0.6197529801,-0.0762160095,0.281503249,-0.9241921456,-0.6374204463,0.7392876344,0.9619233551,0.26180278,0.7912814403,0.8124338257,-0.7650426188,-0.3766518558,0.2355167321,-0.3712211911,0.8269747121,0.5309138662,0.569841814,-0.9945837529,-0.0672485296,-0.2971058701,-0.3029851903,-0.688231793,-0.9060392495,0.8496283126,-0.7614001282,-0.55758988,0.1895505001,-0.8329011134,-0.8893046059,0.9166801268,-0.4826301375,0.9730754461,-0.8015041856,-0.7822384758,-0.1643186975,-0.2076285798,-0.769994054,0.4223198548,0.6420638362,-0.0964225664,-0.0315787118,0.3766691383,0.8348806956,-0.0361668122,0.7897043717,0.7679298313,-0.8817046702,-0.695648303,-0.625899623,0.303331579,0.7883828889,-0.14974273,0.1902807321,0.3104065574,0.0949564342,-0.9390660209,-0.7225451182,0.2119427499,0.2918139942,0.1777414287,0.220332942,0.0957278451,0.5948869407,-0.8642766484,0.4714714835,-0.1569706663,-0.4701524786,0.3412574193,0.8748343876,0.3346448499,0.9958721009,-0.2742939677,-0.787965915,0.1201341565,-0.7712668728,-0.0668478573,-0.3288052083,0.3819694828,0.5552534744,0.5651164303,0.8008465977,0.4771817475,0.4768138604,0.622134356,-0.3919748183,-0.2775245077,0.5942568926,-0.0861202924,0.3413363932,-0.0396168647,0.9400312523,-0.813159387,-0.5416589961,0.6423465904,-0.1600900656,0.2596300882,0.9468449794,-0.2801337173,-0.8638440897,-0.1763494798,0.6833890952,0.5062242306,-0.472665714,0.5485551707,0.395530216,0.4395468503,-0.0360186309,0.010917514,0.9362323182,0.8319903809,-0.4378139191,0.0130262645,-0.7103356064,0.1175803594,0.7955746863,-0.4898106192,0.0394086635,0.1074244242,0.3284346919,-0.8273484482,-0.679200729,-0.2417702591,-0.7775413018,-0.1299259552,-0.0320051713,-0.2092823402,0.0460183869,-0.7785905563,-0.9633059801,-0.8412694279,-0.2529792596,-0.8778553804,-0.6687338982,-0.2362415249,0.5450793444,-0.8849076596,0.209132889,0.9402295185,-0.9250251194,0.3280223604,0.6377003052,0.0721906262,0.5856786816,0.1374030208,-0.9854255857,0.8260112548,-0.4314486574,-0.7288953189,0.2198854932,0.8073622275,0.876540496,-0.1975814712,-0.5742735256,0.9870505503,0.0709721855,-0.0423654681,0.2613690992,-0.1464729081,0.3890588973,0.9174219907,0.5590192962,0.4226976039,-0.4026288702,0.8861716793,0.5615444739,-0.5259752617,0.0434747929,-0.1425182329,-0.0600433174,-0.4843354284,0.0137047752,-0.5067933264,-0.902966745,-0.6579140929,0.9600396691,-0.8374773419,0.4461168433,1.0012773237,-0.6705990491,0.9580267794,0.224599307,0.9047036073,0.9701349582,0.506893549,0.661946005,-0.0812931611,-0.2178685467,-0.8865535165,-1.0136410778,-0.8956178518,-0.1704924873,-1.0534619397,0.628130511,0.0101687948,-0.341529374,-0.6356319235,-0.7294613386,-0.5945209695,-0.6658877372,-0.9929989289,0.3753822506,0.0075999206,0.0434571803,-0.6865630863,0.0543624537,0.4119425882,-0.9145480503,0.0475815431,0.7324736576,-0.8760275904,-0.474186416,-0.3435537165,0.1218649251,-0.6576148577,-0.4641422736,0.2445990158,0.4687290689,0.6138840817,0.5019941891,-0.5019982153,0.9661794284,0.2348456519,0.3253834507,0.5972569218,0.5317802232,-0.5962077636,0.0405545256,-0.770117271,-0.7432985509,0.649511722,0.0292593349,0.9512009183,-0.4167014225,0.5881995681,0.8843816584,0.0101591045,0.3776269596,-0.1262496465,0.411036835,0.8170309212,-0.0906841359,-0.167889891,0.0385356934,-0.4210897946,0.5313898675,0.26138818,0.1079854022,-1.0211648333,-0.8020615323,0.5478668773,0.3470793085,0.3636433403,0.0354872822,0.7045119794,0.6773580343,-0.1864624784,-0.0763810546,0.5754531803,-0.4036182238,0.984766079,-0.6806339597,0.8070853957,0.2951498203,0.3843807497,-0.6269855935,0.1725852983,0.0115917323,0.2099569723,-0.8766079861,0.8163229115,0.8542339565,-0.4614835066,-0.9274674988,-0.5431224642,-0.2555697025,0.0236451328,0.1315043336,0.2609051267,-0.5215194191,0.3763368879,0.9179195225,0.1484919767,-0.7623301231,0.8917334706,-0.3503570787,0.2691193166,0.0771218441,-0.1595990302,0.125696781,-0.9484207916,-0.9478849962,0.4561921655,-0.2089818535,0.8317521165,0.7499761002,0.517206057,0.6683992929,-0.9250726252,1.0255322837,-0.8834210756,-0.0649270769,-0.3789663516,0.9981130529,-0.2704616762,0.4545011812,-0.608169893,0.6996235217,0.782142371,-0.9840185656,0.2884924798,0.0960659424,0.2283716765,0.6177681839,0.6039931656,-0.6973634629,-0.0355615011,-0.3603531147,-0.105468985,0.1875361418,-0.3050006875,0.4082150622,-0.9111098333,0.2120169769,-0.6123368188,-0.6517337203,0.9528026687,-0.5492341773,0.703389765,-0.9516700633,0.2368036124,0.4817893288,-0.1907286891,-0.2099137493,-0.2737956519,0.1513112751,0.8151440331,-0.1128939117,0.3252321031,-0.0482564362,0.2138041608,-0.5342497303,-0.1738331834,-0.3155780534,0.000408318,-0.9105298894,0.8605225901,-0.3538118973,-0.6345155298,0.5945314221,0.8464978936,-0.6760732274,0.5077133284,-0.0443555209,-0.2209449348,0.6575951317,-0.9150911049,0.0207311917,-0.474753838,-0.2496601388,-0.1327322511,0.9615613958,-0.1261715077,-0.9698412968,-0.2786294772,0.5807951638,0.1815444496,0.1142543657,0.4985991137,-0.6194536227,0.5371700782,0.4195201239,-0.7666582194,0.8981271747,-0.6533953914,-0.1911742649,-0.9286240325,0.1192325262,0.0363128527,-0.7510399648,0.4948957363,0.6208723485,0.3443323969,-0.3001243053,0.5841926442,0.6023542638,-0.7023261347,-0.165850588,0.701863091,-0.9068269368,0.019381291,-0.8400286833,-0.177442479,-0.5959036975,0.325744123,-0.0381924903,0.5882216269,-0.5335439134,0.2762803569,0.8474631554,-0.6023769136,0.8006944589,0.2538152571,-0.1005029891,-0.3267549217,0.5699418074,0.3264915805,0.7598579295,0.3424613598,0.3767671263,-0.5420357794,-0.0298291335,-0.3127151899,0.4148774413,0.2809330661,-0.0725756803,0.4088398889,-0.9026168073,-0.497699876,-0.9266179994,0.6983996126,-0.3828990774,0.8792535486,0.7613112007,0.4428830689,0.3302326469,-0.1516301578,-0.4532575528,-0.9051732087,0.1663991623,0.6364187797,-0.6544950831,0.0184464765,-0.3206204503,0.3215425474,0.7885584853,0.5291277642,0.8715585124,-0.7722486719,0.4936326178,-0.4847642468,0.1586761686,-0.9385987112,0.8052684705,0.3825782757,-0.0662166432,-0.5396259358,0.2126746842,0.7363450632,-0.0851470395,-0.6104047621,0.9586316709,0.4770971981,0.7745904796,-0.8468981548,0.6866031373,-0.1027447585,-0.9165195196,-0.78266927,-0.8024405047,0.1342902087,-0.6389696395,-0.3706057412,-0.9710098558,-0.8373972467,-0.2347712406,0.1483331768,-0.86545099,-0.5334216514,-0.2570204741,0.2555060325,0.1552090028,-0.7126110857,0.151714792,0.2100840235,0.6411833105,0.1235033158,-0.1632861207,0.060542742,-0.970249493,-0.2042639523,-0.336500469,-0.1601766485,-0.903346147,-0.169442265,-0.3538332125,0.8980485863,-0.3318281145,0.881832133,0.0240505225,0.892690143,-0.7161379626,0.1585493187,0.9819402969,0.0583989866,0.3126054288,-0.7616163148,-0.5865014182,-0.8823113826,0.0037677935,-0.6267615953,-0.3218461382,0.5184562643,-0.1988891565,-0.5820068145,-0.0134833253,0.0481030155,0.2427257655,0.0198366642,0.0394754364,-0.6989574416,-0.6616387741,-0.0871785362,0.0051680684,-0.4256865537,0.166399205,0.3541233443,0.118749409,0.9510420985,-0.3464523031,0.6992824038,-0.9366313323,-0.5113298805,-0.6672238062,-0.0074294104,-0.0608357168,0.0287342038,0.4731807351,-0.3516744449,0.7833949141,-0.4646046751,0.7099939746,-0.8285132388,-0.2231601962,-0.6034428959,-0.8202395405,-0.8926195767,0.5249803653,0.8909156179,-0.0090335297,-0.8748386066,0.6866194186,1.1253361053,-0.8930235206,0.2177234087,0.2053428985,-0.9284187374,-0.226091592,0.6191744998,0.2611779542,0.1517344282,-0.1245900016,0.3641191405,0.2701168097,1.0166641071,-0.2564888328,0.1719279703,0.032213571,0.1416394599,0.8286360551,0.0746138915,0.6678841574,0.350950369,0.333183272,0.8263962278,0.2120605599,-0.0825264359,-0.2472984889,0.8929141814,-0.2850591469,0.572984404,-0.1684346926,-0.6494578217,0.8327274402,-0.027003285,-0.7326948656,-0.6408623579,-0.2697815599,0.1368231759,0.6943933736,-0.3593188271,0.0298997598,-0.3857906175,-0.6308196642,-0.6794850193,0.0115587331,0.5592179354,0.4782573228,0.703947664,0.7935660674,0.6932505841,-0.5948298222,-0.8484122802,0.258531495,-0.9669162225,0.7160782158,-0.4846304616,-1.0030674951,0.089954402,-0.5040101566,0.0513803426,0.4987208951,0.6899689476,0.7704402128,1.0286583685,0.5791193999,-0.3806060327,-0.2839138235,0.4301292521,0.0436582036,0.6219528094,0.0610621498,0.7538875285,-0.7566649573,-0.3742037237,-0.3961371396,-0.9677223974,0.570999332,0.0094877012,-0.8344966108,0.2195887888,-0.1588923142,0.1442848078,-0.2502274608,0.3168206027,-0.7906593019,-0.6599373872,0.7296264007,0.917145462,-0.6466095687,0.7864062525,0.2340124323,-0.4537652572,0.0417664052,-0.9679477215,0.151511188,0.8081378831,0.3171287719,-0.2346691792,0.885096775,-0.6883319057,0.5120190919,-0.8353603922,0.7053382341,0.5445869124,0.5323963595,-0.3173230763,-0.8485104997,-0.7034131501,0.6492225137,0.92267353,-0.7918755299,0.1907433868,-0.1988473192,0.1961510301,0.7438029946,0.8387329662,0.1881083379,0.6840116075,0.5651426159,0.8503763294,-0.6642758022,0.4719213785,0.2825498221,-0.2674628642,0.5374244112,0.0744328584,0.0219464859,-0.4487909858,0.2133674908,0.9256921261,0.9501253012,0.6883730512,0.0817810542,0.0098059326,-0.4079347538,-0.7225291932,-0.3913543679,-0.4269082122,0.0716893764,-0.7007131362,-0.3274588503,-0.3415724685,0.2479550555,0.5158476632,-0.0368111836,-0.5213910609,0.6676909278,-0.9127150293,0.2091510904,-0.2198362765,0.1430302092,-0.8115110294,0.7808855488,-0.3101036622,0.628135993,-0.05826922,-0.5374584274,0.6398154785,-0.9232826474,0.658004628,0.5627060216,-0.4988506513,0.6009394668,-0.0498055896,0.5090349879,0.4703882002,0.9691049488,-0.123414605,-0.520082117,-0.758597883,-0.3963026712,-0.3482899613,0.5719909645,-0.3753136036,0.1442300126,0.6174969056,-0.6723659607,0.9828355114,0.5076520178,-0.6158324131,-0.294106037,-0.2882050552,-0.655758819,0.2684813536,0.7149197436,0.7634592927,0.6459103601,-0.8507129517,-0.6801140565,-0.2008184602,0.0470670963,-0.2769047075,0.1287244155,-0.5337233453,-0.608532229,-0.3358971311,0.7714787048,-0.4058460087,-0.3769197329,0.1306433357,-0.5365613364,-0.5677940271,0.683322768,-0.4705269697,-0.1656648475,-0.3206264424,-0.7142700169,-0.410826467,0.4444044919,-0.6017626764,0.5765666763,-0.6909473121,-0.8638426344,-0.3673064905,-0.2077021793,0.4158380466,0.5910234666,0.7168523313,0.967153181,-0.2180256222,-0.702254873,0.0413251734,0.7470424513,0.2845540033,-0.7479310045,0.8906488141,-0.8276631364,-0.507001108,0.5675142321,-0.9486449547,0.094286494,0.2806957185,-0.8797305326,0.1463462403,0.3463828134,-0.3518119081,-1.0046782637,0.3225174207,0.6006549451,-0.123018047,0.7965586359,0.3213018643,-0.4361431364,0.9634802277,0.4303633699,0.0724877081,0.3013274423,0.1900371737,0.1264809339,-0.7073577167,-0.3961276361,-0.842831738,0.0747243843,-0.8034037021,-0.6976838905,0.6228397248,-0.6504893227,-0.5896799966,-0.7690778919,0.5110905088,0.0295814654,-0.4810392818,-0.4097435018,-0.0864027811,0.9423810994,-0.9722176851,-0.8842670618,0.6687376543,0.4035289844,0.3948830217,0.4060716933,0.7471451319,-0.3835809131,-0.0840436629,-0.7204599274,-0.5843989774,0.7085189976,0.7022624283,-0.1356525692,0.8325123095,-0.8812165501,-0.3800542715,0.9609756609,-0.13710679,-0.7706393515,0.9488185658,0.2660093983,0.1859781961,0.8360620891,0.9252188437,0.1126670304,-0.6310447657,-0.7096221655,0.7751600472,0.5893383687,-0.6556389632,0.241558534,-0.3874187251,-0.1758684468,0.9933033732,-0.2448214976,0.5456406146,-0.2549224834,-0.2958465835,0.7021045906,-0.2406793026,0.0852649925,0.9288888685,-0.4926376695,-0.6609222295,-0.7957210803,0.3657361568,0.2029138414,0.4336090825,0.8111745419,0.4674275554,-0.0738183758,-1.0251432502,0.3580868824,0.5425631779,0.5873904266,0.7176822971,0.2829102386,0.407730053,-0.9657532147,-0.8079915216,0.7236017344,-0.630519028,-0.7876903267,0.1304783324,0.103013565,0.7630576258,0.69559728,0.8105719199,0.2606513897,-0.5321027713,-0.5754272685,-0.2827802696,-0.0546814374,-0.0393852386,-0.8662383584,-0.3374618157,-0.1533386711,-0.1656941457,0.7675533774,-0.8788109979,0.5593267185,0.1871360126,0.6404831958,-0.9116564742,0.1943787629,0.717510986,0.3291631601,-0.7285599062,0.3864859373,-0.7831134268,0.5633135565,-0.4274167442,0.1293305247,-0.3483006079,-0.0626877049,-0.4636434525,-0.3563685902,-0.8497180499,0.1698020178,-0.6412743039,0.5507891784,0.6810256663,-0.6632884817,0.8479609132,-0.566613185,-0.1342695886,0.6765580011,0.2286882103,0.1582074116,-0.5734380438,-0.8460041276,-0.6069058151,-0.971499767,-0.6664335983,0.7137834059,0.4561722828,0.1057165346,-0.0884583934,-0.3950372311,-0.1293823675,-0.4716569336,-0.4704725863,0.1810872048,-0.3078581046,-0.6492004039,0.6952994238,-0.7885087705,-0.8707614175,-0.9075426274,-0.6896262672,-0.1013300634,0.5427497473,0.5751003558,-0.995991519,-0.7331548886,-0.5647556355,-0.1195324984,-0.1595682911,-0.9578278628,-0.5490280704,0.7123365967,0.3741982982,0.2217659452,-0.6083801745,0.5223487376,-0.5708379643,-0.4933711207,0.8613327017,0.1345326848,-0.0285406997,0.7935774182,0.4090654233,0.3185298602,-0.4266195835,-0.3439922043,0.5513827578,-0.7983725019,0.2649688124,0.65408875,-0.5536616959,0.4576222224,0.2743034652,0.3053760941,0.5953383322,0.9144298215,-0.5529605385,-0.4930972784,0.664888993,-0.7034426789,-0.0264417458,0.3258399192,0.4741297973,0.3806236308,-0.7275876563,0.5018218998,-0.5063224846,-0.6890147002,0.4794062704,-0.2533277862,-0.788450279,0.6081626158,0.8895939409,-0.3046904301,-0.3494973872,0.5947031718,-0.3142550953,-0.5487004487,0.1353471235,-0.1455837441,0.4395403068,0.9740761757,0.5308776731,-0.8967423291,0.2186926372,0.123075197,-0.4186590796,-0.0862914902,-0.9234604765,0.0338134554,0.2197007961,-0.8180861939,0.3617622488,-0.9636744007,-0.6569109822,-0.3719764947,-0.5610764662,-0.2982813755,0.7415539071,-0.3825219578,0.7807703201,-0.6570934781,0.1983724352,-0.9040310557,-0.316717141,-0.0113009682,0.7497488306,-0.2878929185,0.6464992005,0.2425370232,-0.5872954529,0.6715813004,0.6840609353,0.2685186225,0.9851739787,0.8479793628,-0.6975803666,-0.8219157003,0.2503488693,-0.1252745689,0.614568691,0.5308983911,-0.2825004481,-0.5627481333,-0.6340206744,-0.4146143505,0.9516229794,0.3696294481,0.4465266334,-0.2402684299,-0.4723656605,0.1753937798,0.0432506767,-0.196686425,0.3159535397,0.4035894989,0.1428888232,0.9429966801,0.9688998288,0.3816653158,0.1665022461,0.3752799912,0.2674053683,0.4892436874,-0.5509747969,-0.7372923853,0.736301814,-0.7232967205,-0.6608610427,-0.7332874449,0.9920605166,0.9980156255,0.2044998709,-0.7524107391,-0.2480571436,0.1292236507,-0.3619750652,-0.6066654683,-0.3938984555,0.6199651819,0.9165434814,0.2359476858,0.4704912427,-0.0222823762,-0.4026968889,-0.5507643803,0.3169356387,0.7645483855,-0.045795129,-0.0685625704,-0.5296782477,0.3535418455,-0.0333494766,0.7579641271,-0.9632315539,0.4388449676,-0.2717501177,0.3194487495,0.5334005815,-0.6088645488,-0.0768614241,1.0391674881,-0.702501259,-0.860549619,0.8373271912,-0.5313374789,-0.2434724692,-0.2454959347,0.4933820303,0.6251584404,1.0025168658,-0.073463094,0.2656397896,-0.1708536371,0.8657626348,-0.7086730254,-0.8734145558,0.3683484892,0.8609192356,0.7693126048,-0.7827832312,-0.3632214355,-0.2680275385,0.4132530018,-0.7534962888,0.6252387706,0.4399243905,0.0632751129,0.9864483702,-0.2213835592,-0.5476810494,0.3913233148,-0.4209050491,0.0076078544,-0.8689832691,0.4939720153,-0.0616328042,0.1730076614,-0.4937081375,0.182261904,-0.9736293219,-0.7149246926,-0.1700237467,-0.5726300805,-0.6357180169,0.2804433278,-0.5293153488
   0.9175744352,-0.1687581316,-0.166789892,1.0554334696,0.5710173755,0.3459715396,0.6311915304,0.4542617316,-0.1536023228,0.8031527174,0.3288762479,-0.5583413358,-0.3249918216,-0.7085061122,0.1000782377,-0.2063953589,0.9558620546,0.6473386253,-0.4081484938,-0.9981594809,-0.0598274823,0.0305192377,0.4178163618,0.6885543025,0.5180195547,-0.940097834,0.6195492623,0.4991765764,-0.8046739264,-0.3624332198,-0.6435794539,-0.5686158455,-0.2102346794,0.6699297961,0.6962072901,-0.5793442717,0.228593456,0.1488756389,-0.099403344,0.6926666043,0.9963778278,-0.4751269605,0.7533828337,-0.8252794927,0.7742389152,0.4156522402,-1.0365838641,-0.1257677524,-0.0455862922,0.2889074995,-0.1313591247,0.742879281,-0.9354045255,-0.2447298456,-0.6972646209,-0.2871441747,-0.1961958303,-0.1155607397,-0.6177480346,-0.8746303489,-0.3615429642,-0.8001932707,0.2673459067,0.2317020186,-0.2273620295,0.4577553475,-0.0990193704,0.6753515616,-0.5697389701,-0.6144381695,0.3287805596,-0.9867630502,0.7738572891,0.1842544735,-0.1062380713,0.458577336,0.9539938927,0.5504488996,0.4120187259,0.2240482488,-0.5446192779,-0.6502628858,0.0401076007,-0.7418481766,-0.5879108446,-0.0859855203,-0.4151018537,-0.1929835604,-0.930567845,0.7994829748,0.7975784745,-0.3233052031,0.7991898579,0.7798441868,-0.361943149,0.2471578275,0.9432982646,0.5189318946,0.4360900689,-0.048456066,-0.548868832,-0.722582431,0.1147659329,-0.3247247041,-0.6401366376,-0.4510485716,-0.2180054051,0.5428768928,0.8631436659,0.529071392,0.0678061002,0.0767855501,-0.1547042612,0.265739109,0.0480273849,-0.4841293282,-0.877747968,0.8422580386,0.9811824736,0.8429432136,-0.8306256363,0.4320370823,0.7982096998,-0.2505007114,-0.9660579761,-0.6869768469,-0.0871256996,-0.8846580027,-0.1578834396,-0.7647937724,0.0041563021,-0.3935533433,-0.9223110092,0.7217760749,0.2398814075,0.4000489037,-0.3854019013,0.4391949597,-0.3741373779,-0.3858715496,-0.1321125685,0.7584823518,0.4300458463,-0.5820653818,0.9440438307,-0.3922072994,0.899798867,0.7567869269,-0.1833537675,-0.5208594527,-0.8357882145,0.7661557033,-0.9175299408,-0.9146144286,-0.2694214205,0.6827759182,0.7538915614,0.3035255501,0.1452585954,0.8428449282,0.3293112096,0.7373613475,-0.0488568272,0.8303944843,-0.9508506165,-0.7438285334,0.5200513463,0.6902941863,-0.0589464903,-0.3493227357,0.9859134517,-0.8365124278,0.9114820293,0.8673206352,-0.1377687534,-0.537417763,0.6779152935,0.8701389388,-0.722468436,-0.3840002609,-0.6293349854,-0.87440511,0.6679141479,0.2781766284,-0.0174430646,0.4481137648,0.4918585943,0.5117172787,0.6183666169,0.0556659264,0.8553211737,-0.2831224426,0.1488207533,-0.8804207194,0.0470989701,-0.0070000678,0.0803697816,-0.9641554219,-0.7989577321,-0.1899354533,0.7544341367,-0.21960883,-0.987227455,-0.227326659,0.6190740349,0.7066846349,0.7511342895,0.2611522407,0.4287743962,-0.9814251943,-0.0937429373,-0.061939221,0.4002913624,0.1916010033,0.2663011639,0.8813271985,0.6388162798,-0.0157515775,0.7803676744,0.684993594,-0.3951514333,-0.9613647043,0.1690112799,0.4354778455,0.6088300389,0.996337044,-0.0021625639,-0.0214334399,0.69201879,-0.8274619078,-0.1158663016,0.2653991433,0.4919246428,-0.1256221868,-0.3380521586,0.8426857942,-0.309691072,0.5348041877,-0.1810535307,-0.0162313447,-0.5501045007,-0.0609415816,-0.3973595244,-0.1182310282,-0.30240326,-0.3918371569,0.9948632747,-0.4402382231,0.8877429016,-0.49693344,-0.5092455759,0.6403706659,-0.1534685017,-0.2008237179,0.0345148561,-0.2658879038,0.6925679388,0.7416174183,0.5072342949,-0.0488974301,-0.6861285625,0.8518557878,0.7722468789,0.0754045649,0.355018144,-0.9711051705,0.4997225555,0.5714490549,0.82099254,0.848977738,-0.7132508971,-0.4567692292,-0.2016930182,0.2225633241,-0.5069649542,-0.0145981805,0.2884999646,-0.8606179273,-0.6803114682,-0.054129081,0.6315220029,-0.4202417413,-0.0156569076,0.7669653242,0.8293543911,0.6956332402,-0.6084085235,-0.4235887388,0.9129219369,0.6760850441,-0.1421349015,0.9035151139,-0.569319378,0.8036906512,0.7857904895,0.0788929072,0.7225887722,-0.1872460674,0.5043358549,0.5573893627,0.8061757235,0.5147987464,0.0769523963,0.4238951189,0.8848687377,-0.5935904538,0.7165312572,0.6782700011,-0.227472628,-0.1419332403,0.3057920586,0.0264845174,0.0902402805,-0.7467980254,-0.0761724128,-0.8947176019,0.4783410716,-0.122996247,-0.8803897752,0.3645575772,0.8685561006,-0.2461134992,-0.6447857242,-0.6717654029,0.7465534429,-0.8021843814,0.0293773231,-0.3142033256,-0.5640035845,0.9269678984,0.4748796199,0.5542678398,-0.3113036151,-0.3896321863,0.0421698514,-0.700853327,0.6614990357,0.3546843791,-0.4858171914,0.8134213234,0.9794146396,0.4492078719,-0.3578173334,-0.0416038305,0.8453553006,-0.0919491907,-0.3986516419,-0.5764557512,-0.0964057423,0.7440863165,-0.1667884632,0.6633889398,-0.0773484138,0.4530762436,-0.6499717671,0.4192442118,0.2138793654,0.5954740817,-0.9387864227,-0.1689227992,0.4239164848,0.0615605986,-0.4012866941,-0.5673153397,0.1965528845,-0.4805760833,0.8112880125,0.756530706,0.322777011,0.6641424104,-0.3954789773,-0.7273605858,-0.8897260781,0.8927832961,-0.4365376955,-0.4773587358,-0.5991506193,-0.4923863586,0.6074935405,-0.8379301922,-0.6944186086,-0.2012335362,0.1805767111,0.2009066869,0.2644791952,0.8541660019,0.0607666766,0.4877080532,0.0068450293,0.7813907184,0.0057858818,0.8137210326,0.1365489528,0.2659208115,0.5827581656,0.7452519615,-0.1202435337,0.5149810774,-0.5995190135,-0.3575095618,-0.1439824742,-0.6066219602,-0.0484356785,0.5373137207,-0.6248756125,0.4860870155,0.6197548642,-0.4948319239,-0.628312923,-0.0393470807,1.0157209749,-0.9627414992,0.3312087534,0.6255899679,-0.7930155764,0.8151989051,-0.1425407374,-0.3338656519,-0.2669609502,0.9327394854,-0.1907934817,0.6762361525,0.5760581965,0.7293516728,0.4166342626,0.8523748563,-0.7914372148,-0.4229073351,0.2338310887,0.2852922303,-0.9941706465,-0.6383971118,0.4252658793,-0.2991352935,-0.0103498848,0.3415883191,0.9790259386,0.1066164858,0.206313303,0.5974786619,0.7439375181,-0.8053991379,-0.5373498556,0.6354866317,-0.972155969,-1.0010709264,0.6073697669,-0.2049288318,0.3992852241,-0.2829852638,-0.0908230067,0.5433522967,0.424959783,-0.3847257131,-0.5559729701,0.3777261304,0.4968358747,-0.5714366415,-0.0045029301,0.5587102391,0.4859844946,0.2944750445,-0.5200922885,-0.3127118975,-0.5720297422,0.9163893261,-0.6397423346,0.2955593752,0.6383296442,0.310385366,0.3691881013,-0.0611188484,-0.1322589005,-0.4593224649,0.1421758502,-0.5853749008,-0.6223232878,-0.9347272936,-0.3530795181,-0.2088647156,-0.45851284,0.4370526171,-0.4503235935,0.1735841227,0.5685337326,-0.5191315485,0.7530659434,-0.3029928768,0.5482865378,-0.2843269991,-0.923095329,0.8673505334,0.8935351638,-0.9163507724,0.5818748564,0.5944886731,0.786966565,-0.0771416827,-0.3459613177,0.2035558508,0.8805804565,0.5968845123,0.7769879475,-0.3114795958,-0.1438905433,-0.6381060407,0.9174924051,-0.8198105298,0.3412012406,-0.4959129368,-0.0708412499,0.6627069645,-0.4887414605,-0.4877227302,-0.9843170755,0.3962117976,0.9359561595,-0.4028258782,-0.3203075716,-0.8546150969,-0.6959003307,-0.0080294228,-0.0272005476,-0.7547158944,0.512135838,0.6764791064,-0.2774787857,-0.5562927377,-0.6264004789,0.9512766358,-0.2520127686,0.3460925665,0.9220915994,-0.8136423818,0.2776209881,0.2404591588,-0.4477038529,0.8065583893,0.472980137,0.2050790551,0.7930145101,1.0091996795,0.7742892162,-0.9526376757,0.9149401077,0.9928695196,0.9873767704,-0.2569617773,-0.3534773013,-0.7961113261,-0.4793492207,-0.5652230967,0.2370305324,0.2880629306,0.174427865,0.9094722577,0.6646847917,0.4000918238,-0.6630717711,0.3701060692,-0.8608461216,0.9729529161,-0.2623319186,0.0161349637,0.550058971,-0.7140010467,1.0008680662,0.7556509715,-0.3409602039,-0.2395211746,0.823201144,-0.1431088655,-0.0829237215,0.6827594504,-0.8039405581,-0.5096518415,-0.0775877806,0.3274617868,-0.8684329731,-0.2125880284,-0.5140098066,-0.694604341,-0.9156804788,-0.1370961742,0.708810051,0.914051171,-0.6035358069,-0.113574371,0.4844611015,-0.564253585,-0.6810665539,0.5577820512,0.1163973245,-0.5973430635,0.0793653886,0.2480619261,0.5060959653,-0.0875294589,-0.6828780826,0.0142126472,0.4974632877,0.8817590824,-0.6671670141,-0.0189025342,0.8457003936,0.8483707751,0.0806775276,0.1609245389,0.8050774144,-0.183515314,-0.365608218,0.7540220607,-0.3612216654,0.1312195238,-0.4796721008,0.7756476695,-0.2059054678,-0.8414358118,0.1142551872,-0.8967833935,0.5425944373,-0.5958317113,0.5988136311,-0.7069136172,-0.5344599183,0.1329744162,-0.4699151107,0.560729517,0.5633349847,-0.7848730396,0.1763068338,-0.1513828427,-0.0260929472,-0.9452394278,-0.731256783,0.610736104,-0.6414389449,0.7403389825,-1.0152154618,-0.0222433474,-0.6550048146,0.8429564137,-0.9644987787,-0.7893291166,-0.6175083024,0.0892137868,0.1670722299,0.0485741061,-0.1386194263,1.0140383517,-0.9181171538,-0.7725967417,-0.3495413959,-0.0793230764,-0.1542828131,-0.3928277167,-0.1313684237,-0.4509798492,0.3501003077,-0.8862020871,0.5323335885,0.2227536782,-0.7652488281,-0.5544702644,0.7870661131,0.5545126872,-0.9940824383,-0.5090624368,0.4453560051,-0.3394646985,0.656144123,-0.3241484622,-0.1662347977,1.0293009315,-0.3806645,0.7153529608,0.219559266,-0.3842051381,-0.023154975,0.8080389055,-0.7216092839,0.0290460993,-0.6407284971,0.5771977669,0.1660222606,0.4089177003,-0.710820724,0.0127049642,0.7372710665,0.9236504027,-0.0202395167,0.9778502724,-0.8366399293,0.1512990014,-0.2017318648,-0.6672124614,-0.8883619884,0.0684198537,-0.7207651884,-0.495788402,-0.0706410619,-0.2810130837,0.9349653227,-0.0256574993,-0.9654906521,-0.8074968581,0.3718960441,-0.2259466238,0.5830776099,0.9560957772,0.9232051466,-0.8674109053,0.8977064168,-0.0212859315,-0.8581026893,-0.9681029618,0.1280654768,0.9089421317,-0.4793480702,0.7711748571,-0.3994534197,0.4975222767,-0.1998003726,0.0475534335,0.7040156103,0.5197153052,-0.3029386368,0.6580868385,-0.7595864067,0.3442152891,0.3635085581,0.7136384496,-0.9842343451,0.2630917627,-0.1379094595,0.095305145,0.3671108183,-0.9680680654,0.25249037,0.5708570445,-0.0430365774,-0.8100261578,0.1593054594,0.4817097107,-0.5265098721,-0.2190817755,0.658292111,0.6943409765,0.0305553619,0.170587132,-0.4955183248,-0.8728273346,0.335086121,-0.5043930719,-0.9582860134,0.5680309506,-0.4075557186,0.5300936396,0.9746506154,-0.2204578282,-0.1800197495,0.0430780246,-0.1126974119,-0.9322191631,-0.2473013561,0.9065544363,-0.8717937839,-0.4574164021,-0.1474961291,0.3519376988,-0.4001981942,-0.0290636104,0.7567499798,0.302250626,0.1800857368,-0.367732211,-0.7638601005,-0.0914248221,0.5675162056,-0.5450308746,0.7454534283,0.4894343918,-0.33241479,-0.3008685668,-0.6216568169,0.4286760436,-0.9321867077,-0.662373659,0.6273177588,-0.3890285858,0.5876510267,0.8121723439,0.0427143783,0.6401005331,0.0711375103,0.8740189274,0.0479802099,0.588413328,-0.1192137479,0.988692388,0.0009991762,0.3453116546,-0.340200314,-0.3622576711,-0.7228890648,0.9438745897,-0.1176396647,-0.151479116,0.0517305067,-0.9690044507,-0.4905856449,-0.8469007998,-0.9484000065,-0.6731337304,-0.9816230746,0.4074070381,-0.4675929149,0.8397252091,0.1680004443,0.4904674435,0.8130445855,-0.0402324856,-0.2315017196,-0.5065252724,0.6834931357,0.0628744604,0.2361892584,0.7567402525,0.0225707812,0.6024354472,0.3229933358,-0.0956785722,-0.4679403085,-0.5956060364,-0.5934658829,-0.9580602966,0.0096930962,-0.2748320072,-0.9116754487,-0.8492809793,-0.069148849,0.2287659503,-0.229664258,-0.7843494831,0.1394171804,0.3520023882,0.5143919819,-0.9633093019,-0.7350697852,0.4915069752,0.8880752,0.1908692293,0.2201572137,-0.1697426107,0.5582123874,-0.7020351024,-0.4214424303,0.0201059101,-0.0008925345,0.3315232676,-0.8698566509,-0.9363132324,-0.6454945668,-0.3492050538,-0.4099417609,0.5036868764,-0.9905223597,-0.6089861298,-0.2575186768,0.8569207573,-0.5294720945,-0.2354414811,-0.719714964,0.7236223615,-0.3315466573,0.8465407539,0.3067496625,0.2520392832,-0.6028569692,0.9429429342,-0.2906973434,-0.2687503951,-0.3085689714,-0.1983048731,0.3155378882,-0.7356616302,0.4194898154,0.9445732281,0.2962665847,-0.5242421461,0.6701422347,0.2348198975,0.7526838786,0.2049195109,-0.636873581,0.263456897,0.7729673508,0.2709396868,-0.5886085877,0.7960161314,-0.4173116175,0.0881122344,-0.5396132464,0.0480554334,-0.4905040812,-0.7387653254,1.0017599392,-0.7671197124,0.2929033805,0.9207687106,-0.2154550538,-0.5049495175,0.1707951977,0.1272263203,0.5258432741,-0.239959122,0.3037433717,0.085721823,0.9105502693,-0.2786045968,0.6430640498,0.8773567993,-0.824107509,-0.7549381156,0.5519054903,-0.4413872429,0.4917264569,0.4188504782,-0.3843965133,-0.6365587897,-0.7804102053,-0.6549029045,-0.535625747,0.3352131737,0.7072102306,0.1787554526,-0.0716153889,-0.8877125625,0.9647676117,-0.7604631074,-0.0941004381,-0.1162850597,0.0999661254,0.1254938625,-0.8265974895,-0.184479992,0.1693537918,-0.7420952838,0.9918727311,-0.1460958815,0.5126773267,0.4809072752,-0.7803971941,-0.2182993914,0.7340421514,0.674624256,0.3613842267,-0.6609908616,-0.2370425218,-0.1063525876,0.9490138229,0.3698440911,0.5553236044,-0.6683482939,-0.5518404324,-0.1680579334,-0.2720755492,-0.9064662888,-0.2723487039,0.3943086699,0.8106406215,-0.3706756653,0.2350650385,-0.5467987567,0.1607166463,-0.4788453357,-0.8827020102,0.1188838953,0.4416866946,-0.2099987357,0.6889049604,1.0356471455,0.4062023384,-0.6997779272,-0.5644952403,0.0164845483,0.4737291701,0.608195375,-0.0683977596,-0.7420607847,-0.1641887102,0.6496496815,-0.784717598,0.1322470506,0.9665616574,0.4209345211,0.8723639838,-0.240409614,0.2212486913,-0.4829615173,0.9813491497,0.8691004754,-0.1396496898,-0.6676699613,0.2175141208,0.5131931967,-0.7680821999,0.4075226515,0.0316811618,0.2177656417,-0.8884692772,0.4458743419,0.9607538291,0.8742386111,0.6148018909,-0.6152194383,0.9899866742,-0.3872048621,-0.1750490252,-0.478019112,0.1419471218,-0.2798427019,-0.5309159606,0.8417850545,-0.7019016344,-0.756133799,0.8006048586,0.4491794649,-0.0863645269,0.0800433423,0.3768003607,0.7732849054,-0.4775247593,-0.7529190103,0.7176243225,-0.8531555691,0.5840776864,-0.7064241193,0.9330556385,0.4520572285,0.5455535187,0.0530489742,0.2111903476,-0.6817309021,-0.6518286505,0.6091921462,0.6282744734,0.9037611044,0.5883308164,-0.5098031936,-0.1988415925,0.7140913298,-0.9795130222,0.1660150467,0.1059468841,-0.5252287271,0.8905447502,0.4679559059,-0.2995292083,0.1164586602,-0.6564381618,-0.0930803309,-0.1817647671,0.6326461292,0.4151392627,-0.4983309226,0.451901756,0.8392171135,0.1870458047,0.2135153794,-0.7618313714,-0.5390480353,-0.3153284182,-0.7249644576,0.6586733085,-0.0411830485,-0.8074203514,0.3696302032,-0.0634917853,-0.6706870725,0.3064653862,0.3106175364,0.7729026026,0.8797436756,-0.9935076897,-0.3839319613,-0.50922664,-0.7287342726,-0.3096826823,-0.3807303195,-0.4132871285,-0.4528692909,-0.5842957062,0.6393690923,-0.2233953476,-0.4763775003,0.9541632386,0.0283765189,0.4277408133,0.4871803344,-0.2548945402,0.5741971529,-0.3443913996,-0.6574156625,0.1602480552,-0.799866159,-0.0683351564,0.4931543534,0.9583712612,-0.3932360579,-0.1539650098,-0.2729885031,0.2733218334,-0.786188121,0.862525485,0.5883882728,0.3389997609,-0.0756455851,0.9879008765,0.2746323689,0.7176883648,0.9774340937,0.6448046619,0.3974132879,0.2487082322,0.5545873623,-0.1510115375,0.0551033005,0.8763756093,0.1144641221,0.8847544552,0.7079245395,-0.1319556279,-0.4395309727,-0.645506914,-0.4180919262,-0.4420800587,-0.7989108553,-0.1397753024,0.7615492174,0.6678942176,-0.7789192608,0.4152404097,-0.156947118,-0.8135105326,0.487799858,-0.640081013,0.2992826108,0.6391398462,0.2611381024,0.0624466553,-0.1536019054,0.8566525109,-0.7825506364,0.925881364,-0.7960701881,-0.1945829992,0.0075102568,0.0481909956,0.3510539797,0.4897743933,0.0068086373,0.3014535501,-0.1897249628,0.7089095967,0.7045258752,0.3593367572,-0.6225942077,-0.4813138999,-0.099745786,-0.2492636516,-0.8743712364,0.3947560858,0.1069579702,0.6841296304,0.2879752613,0.1969043403,0.0727405497,0.6382034172,0.6334599659,0.9464630859,0.5325239166,0.9486658209,-0.6470415842,-0.5773510011,-0.0993353196,-0.2998152953,0.8405557337,-0.4394551949,-0.1812983642,-0.3730137849,0.2247292353,-0.939653929,0.0367627172,-0.4951173692,-0.6789287136,0.9691373445,-0.5352589841,0.868934414,0.2954359203,0.057385587,-0.0228151474,0.5738589892,-0.0326854385,0.5177679779,-0.099326194,-0.039816579,-0.4940556934,-0.4392652717,-0.2714970853,0.7894925177,0.3557054362,0.8173737465,0.1867492301,-0.7206806223,0.4699596709,-0.7713581668,-0.6753551191,-0.3950168181,-0.3425989281,0.0256099571,-0.578972494,-0.7755292095,0.4312154234,-0.3013466534,0.579572842,0.8167840143,-0.1814260882,-0.6629676341,-0.8529848445,0.8673694111,-0.9063736098,0.1028506739,0.2838180201,0.1428604011,0.2317465418,0.0294641718,-0.1456005729,-0.2889929636,-0.1130024775,0.3978758163,0.8331615567,-0.8067454005,0.6353352868,0.6953120566,-0.1573257254,-0.5169450516,0.6886141525,0.1364450227,-0.2504652981,-0.0581550448,-0.1487634813,-0.0741052143,0.8190769039,0.9590920069,0.2586734152,0.4262425054,0.8597809558,-0.0906558862,-0.1547586823,0.8179966047,-0.3662601357,-0.8797430922,0.7923640067,0.3288778892,-0.5994938358,-0.7244725038,0.0875407851,-0.7714424936,0.4898527239,0.6219462533,-0.5494838144,-0.8250313414,0.1045649317,-0.5282576582,0.6640422428,0.7225949614,0.7357461143,0.519007059,0.8610408049,0.1438551226,0.7378287265,0.7594270358,-0.6179698859,0.0029004068,0.6720833896,-0.1386578086,-0.4812360254,0.5824348507,-0.6147876148,0.0624128069,-0.4170999598,0.903764987,0.3370586021,0.2905779345,0.4916177331,-0.2774555807,0.2107529414,-0.6944408924,0.9008741149,-0.7341083709,0.4392321838,-0.141632878,0.9607978579,-0.3897933161,0.5450982511,-0.4542314361,-0.5624275663,-0.9713733445,0.2869457572,0.0570400276,-0.3081269266,-0.5193722454,-0.9678705058,-0.1797465308,0.5354299223,-0.319537475,0.6140353686,0.5178949856,-0.6059474197,-0.6253954129,-1.0301773446,0.2919994758,0.1569751372,-0.992880479,0.9186734145,-0.167087988,-0.7343242782,0.9468285585,-0.2042682273,0.2255226054,-0.1564702652,0.9584596085,-1.0948046289,-0.6239548533,-0.2956661641,0.4695909299,-0.6178623386,0.9947667151,-1.0401038269,0.4455493402,-0.5118625161,-0.3179579232,-0.3010152577,0.7740110352,-0.5115825394,0.4651944873,0.7438328673,0.7701868966,0.1349169754,-0.6939207939,0.8105709018,-0.8702596631,0.4692822368,-0.4100438123,0.0228361423,-0.5771828005,-0.0725453941,-0.3084288785,-0.7111972168,0.4878680908,0.2202376742,-0.4329919324,0.7541384819,-0.1502342168,0.2622253704,0.2352160161,0.7655857471,-0.3908322851,0.8466964043,0.718571382,-0.7773132121,-0.2870470751,-0.1682308215,-0.4658768276,-0.7259086938,0.1032855847,-0.3223496586,0.1809517043,-0.9660776628,-0.2566849208,-0.6038745371,0.6624000428,-0.8848587397,-0.6026093654,-0.9072329289,0.5286662278,-0.5169241742,0.5189013423,-0.1003345031,0.0375752397,-0.1457108834,0.8672141944,-0.823508903,-0.6196109457,-0.6999045697,-0.1198266562,0.8343646279,0.5200309752,-0.4553824668,0.5654349834,0.9333384105,0.3951522198,-0.9273375961,0.5611496392,0.2532261563,0.3134246187,0.0287240028,-0.1145250871,0.8539102822,-0.0601880178,0.7391597878,0.9029730473,0.3734264922,-0.9387585434,-1.0035986988,0.6678675065,-0.4795342614,0.8534422177,-0.857997527,-0.7406719587,0.5287109366,-0.871575382,-0.7147901722,0.3783059784,0.3079051466,0.4264967537,0.1979010271,-0.9972058805,-0.021169421,0.7856740958,-0.932091634,-0.6174680931,-0.2491745905,0.7254373481,-0.3390416991,0.6939724165,-0.7162248759,0.62595511,-0.4965361135,-0.0887652612,0.5924166968,0.5635575978,0.4827447919,0.9653486701,0.9583842712,-0.8716396144,-0.6972800404,-0.1486256441,0.2311475382,-0.8657262395,-0.2011248028,-0.9463775221,0.1299458984,-0.9796207704,-0.282408723,-0.1463793293,-0.0694069305,-0.1121819014,0.0620517289,-0.2090972197,0.4648174708,0.9003818652,0.3920503472,-0.1456638085,0.1007022381,0.4490634551,-0.8284785699,0.101733267,0.6689686695,-0.4990359447,-0.7965358153,-0.0497277811,-0.5774849199,0.1274814253,-0.3730317418,-0.0062988324,0.9885612127,0.500072149,0.1982575316,-0.8459116699,0.6926638609,-0.0126310996,-0.2194799634,-0.2746421541,-0.8973019094,-0.8823027739,0.0394649994,-0.4943411885,-0.0305719594,0.85360068,-0.1203088627,0.172798446,0.2053639178,-0.4111143322,-0.0406179481,0.0542360993,0.1709394686,0.7131184799,-0.1154866089,-0.8464821865,0.0749644988,-0.3918220648,-0.146181472,-0.3074975877,-0.5088283274,0.3007609217,0.9257587651,-0.2880602441,0.5283272674,0.8041987559,-0.4478880385,0.0445054653,0.8173443521,-0.9145347079,-0.9527540648,-0.2537966615,-0.3882173333,-0.9097214977,0.5639632436,-0.345009308,-0.2274001474,-0.8387012131,-0.1935587609,0.1257503802,0.8742299214,-0.8102085253,0.0995515309,-0.6324622087,-0.8890108319,-0.8583057859,0.2181277849,-0.9562926326,0.8237738454,0.398329986,-0.7249422408,0.5478876487,-0.0553748449,0.6598557814,-0.7834479683,-0.0450897368,0.5445524425,-0.1435122934,0.5674497364,0.9013520131,0.6533085525,0.6536930568,0.4828622491,0.0430906661,0.8113354534,0.9298501721,0.0224055851,0.2591147451,-0.5547824407,0.8885632862,0.2841667101,0.9829367958,-0.5685297541,-0.6245852345,-0.016773244,-0.6421363225,0.1739561207,0.7894285388,0.6482821925,-0.1911238251,0.3132097217,0.1301213023,0.0138557379,-0.7849476977,-0.4612939645,0.2787875734,-0.0947820517,0.5505610349,-0.6605798151,0.5550099676,-0.6911050079,-0.8285278474,-0.2730366095,0.0605283082,0.5281405209,0.1563613201,0.7718877629,0.204251385,-0.0996796065,0.8403315331,0.23227059,0.0664858915,-0.3117641697,-0.1075158621,0.0516988252,-0.1661533555,-0.6292953687,-1.0070212537,-0.0625421917,-0.5973193687,0.3223435575,-0.2348535984,-0.4102545361,-0.2678326477,-0.5480654223,0.837776177,-0.2980950963,-0.4565702357,-0.5474682396,0.2865374423,-0.0919181905,-0.6065879847,0.3773197723,0.6004664649,-0.3296473087,-0.2255315784,-0.9102325632,-0.6996452623,0.9403921287,-0.6982284796,-0.4986649493,0.6885516717,0.8956373077,0.1600285586,0.7712930589,0.2801763162,0.3654606675,-0.315592501,-1.0430300605,-0.4796488296,-1.0036898333,-0.446798372,-0.4259221579,0.1314846824,0.9002061322,0.9312873592,0.492515525,-0.016252832,-0.2844758347,0.4374131881,-0.9115633064,-0.3810113663,-0.3571746698,0.1352314206,-0.7129257724,0.543793697,0.0563479632,-0.5708604352,-0.0352689183,-0.498126617,0.6184679982,0.8320969504,-0.266375859,0.1592166601,0.0611026718,-0.2479791207,-0.5292987071,-0.1442607572,1.002796013,-0.4479769736,0.8701059443,0.188004459,0.7497937614,0.1982136521,-0.8328923235,-0.4840406755,0.3125141675,0.5253889275,0.517790689,0.864133783,0.3644582324,-0.3473844047,-0.3030251797,-0.9115286777,-0.0086254086,0.9983639733,0.895335938,-0.2938821662,-0.6080682337,0.8872721789,0.065436365,0.285646478,0.2237196886,-0.7066139024,0.0934077603,0.3759076721,0.9156979282,-0.7588906108,-0.6966798301,-0.8019246296,-0.4773534269,0.2989141852,-0.8018284799,-0.4376544986,-0.2884439865,0.4956663513,-0.116738456,-0.7763978041,0.8205360726,0.8642637867,0.9122727352,-0.3373617567,0.0814683328,-0.854403431,-0.3058826376,0.5140760162,-0.7376967007,-0.4294783212,0.2065312038,0.4498183913,0.2107535463,-0.5229711819,0.3932198367,0.3464999416,-0.8763686954,-0.8549638401,-0.9776177845,0.193500553,0.678952613,-0.0779200588,-0.7887786503,-0.2428599451,0.9573618863,0.882648492,-0.5224074641,-0.1208999277,0.2842329773,0.9487698856,0.9446566802,0.4348665239,-0.7059935703,-1.0028272941,0.8991552329,-0.7963297317,0.4636205436,0.1384069717,-0.6942835577,-0.131158377,0.7815143565,-0.4605610995,0.0311275836,0.1684155248,0.6979459371,-0.7080150021,-0.365171106,0.7788224856,-0.6992402968,0.6755606178,0.4750687443,-0.1889956031,0.056154751,0.5947481292,0.4066101384,-0.7376944045,0.8761438436,-0.0975342136,-0.3891427012,0.1719129328,-0.672312669,-0.9892448938,0.7261542973,0.1758525397,-0.5789516179,-0.7806182288,-0.971846862,-0.6219217414,0.0004961722,0.9576956278,0.3622550633,-0.4708949767,0.7626518279,-0.3926506461,-0.3109926491,-0.727585411,-0.699072514,0.2176363574,0.3724506764,-0.0382585963,-0.8591363872,0.1206286992,-0.3470594272,-0.1381703556,1.0013914328,0.9679381358,0.0249041491,0.5989290487,-0.664404877,-0.6034018743,-0.7720242096,0.6673318196,0.1953506185,0.2035708509,-0.136248583,0.1039016973,-0.0727059287,0.488723033,-0.3394619654,-0.0084767308,-0.6155728994,0.4349435471,-0.6108416038,-0.1437224169,0.3255746939,0.5643578264,0.5928242258,-0.4722157782,-0.2311679758,-0.5193349702,-0.6675294828,0.809879283,0.8577040043,-0.8754887243,0.306158297,0.1340145085,-0.83089224,-0.1953345336,0.9184014419,-0.1142737038,-0.6382297902,0.5636958078,-0.7801410842,-0.7337002401,-0.353729609,0.2945569263,0.8996016301,0.7193373311,-0.2308482204,-0.0471329866,0.9267179475,-0.4605338762,0.4020626313,-0.4972941106,0.4656960439,-0.5915051063,-0.5412738586,-0.3184220794,0.1396447388,-0.0526553892,-0.5914627243,-0.1551385002,0.1201983935,0.3700442665,0.3460253947,-0.1834107767,-0.947516131,0.4491803648,0.9683447952,0.5526234782,-0.2543503752,0.9190767114,-0.4788989714,0.0259451668,-0.5639621831,0.2763704135,0.5086588213,0.4103164817,-0.8520286646,-0.9750501824,-0.9197234961,-0.3102404112,-0.4407715848,0.3285244603,0.3494524829,-0.8241358522,0.5866910977,0.3825489398,0.8982427771,0.7847063767,-0.5762737279,-0.0562170247,0.1389180302,0.8301919323,-0.9922581588,0.2718154615,-0.1147278563,0.5949506427,-0.2244258818,0.4260650871,0.8664559926,0.1655356198,-0.9588807777,0.6194479417,-0.2627905677,0.7709277156,-0.7796145392,0.1386098207,-0.0520600251,-0.4284793958,-0.9224180468,0.018782869,-0.0298948057,-0.8203499797,-0.7096114999,-0.480182442,-0.2474011659,-0.8238792029,0.4386523327,0.1634349315,-0.0837919231,-0.9794796312,0.9271461755,0.5637681973,-0.3214903225,-0.7701281753,0.7927085313,-0.3302205682,0.152189866,0.437024542,-0.8514232845,-0.1955126983,0.8103714994,0.2725055807,-0.6233740958,-0.8846617776,0.3135515977,-0.4519227493,-0.3330263156,-0.3911322252,-0.961931267,0.3637833972,0.5449923863,-0.4288999233,0.2916244588,0.3298638083,0.3940903676,-0.3868196157,-0.8280644103,0.8134745358,0.2366403311,0.0966642122,-0.4997584364,-0.7295259284,-0.3257954749,0.1107762461,-0.9950907392,-0.5773708263,0.1339165518,0.3542439385,0.8345097905,0.5793550045,0.5570282445,-0.631425313,0.9562641898,-0.6658656962,-0.6704180765,-0.9878607878,-0.9963675035,0.7295146008,0.1892527411,-0.8634499872,-0.7773217161,-0.2594728642,0.7621427608,0.8085915439,-0.9402539971,-0.595604396,0.3244043191,0.8506204646,-0.3583590466,0.094438891,0.1010432805,0.9481855332,-0.4029292829,0.0019775368,-0.261461719,-0.8117378414,0.5566351521,-0.9175575009,-0.3527947454,-0.1693778199,0.2616764988,-0.7177321236,-0.017432951,0.499194434,0.7045408684,0.7756455427,0.6097044021,0.2953458623,0.0235654566,0.9859264505,-0.6524149008,-0.4474825928,-0.7415434357,0.106594201,-0.0237127458,-0.5573784524,-0.1469323049,-0.1346443739,0.2461064794,0.1034503553,-0.4714288311,0.9104536004,-0.2776268613,-0.1703967325,-0.2714603772,0.9679114302,-0.9545845803,-0.6126518059,-0.0031282881,0.9435454615,0.4282142566,0.6853796333,0.1928558506,-0.5366205946,0.7184506585,0.9382699464,-0.5547592657,0.1277028231,0.0005931529,0.4621011198,0.696205457,-0.5930898899,0.5753499171,0.778278523,0.647465682,-0.8958322811,-0.8273771639,0.7479406451,-0.1663839575,0.5430834776,-0.0368783724,-0.3687085321,-0.7015102149,0.2157417138,0.8658626368,-0.787579499,-0.1401840812,-0.2698204325,0.5979902444,-0.0664464289,0.4069870898,0.3784599783,0.813975301,0.0147679806,0.9395761379,-0.5433551246,0.990509892,-0.9836403635,0.7028206688,0.8753102509,0.6376502783,0.8612864748,-0.5553516301,-0.525489218,-0.8053320454,-0.2964553281,0.2246488577,-0.8097383229,0.8539707605,0.0079233289,0.6729003272,0.6779187512,0.5318000621
   -0.1168582373,-0.6669386252,0.6664759263,0.1949387901,0.2052640549,0.5773839946,-0.3372625144,0.1504392064,-0.1390675887,0.380110696,0.5162435563,0.1860417627,0.7566652273,0.1278377554,-0.1804527009,0.0202482592,-0.1453903677,-0.1311473778,0.9534197377,-0.9173172508,-0.4081095616,-0.6301906945,-0.3009415671,-0.0645586431,0.8409586028,0.9532306935,-0.783974326,-0.063490366,0.9860797096,-0.5202523867,0.6162181568,-0.2766906747,0.6418546973,-0.718150786,0.8179449232,-0.2523548363,0.951437117,-0.9438146169,-0.7245846485,-0.9581079949,0.2025031346,0.8698541549,-0.7987888044,-0.7438785126,-0.2133907056,0.2232138499,-0.9874176175,-0.7515029448,0.1073928227,0.5420925185,0.1767942851,-0.1686310283,-0.1313810643,-0.1481370865,-0.1246928427,0.2335663317,-0.971246086,-0.551224142,-0.9104360923,-0.6960960311,0.05660122,0.8241528138,-0.4890666505,0.7668408041,-0.9888171521,0.7528503608,-0.0763720314,-0.3308436178,0.5870199067,0.5888736538,0.680406138,-0.4775066636,0.3555976864,0.3207287953,-0.2674975934,0.5144100332,-0.3751343424,0.1032599957,-0.410424311,0.3853302824,-0.8194344109,-0.9996919052,-0.5155099769,-0.9101190964,0.186001116,0.3944612545,0.4915392742,-0.2039496236,-0.9412897706,-0.0279905412,0.7886694004,-0.0935471532,-0.7571151059,0.0712015805,-0.125772927,-0.1714914891,0.0753624161,0.1924315795,-0.7070780286,-0.3751141202,0.3916552557,0.1741596372,0.3447484884,0.2615459415,-0.7747451776,-0.3850638118,-0.7007796015,-0.0049875488,-0.8277490935,0.7366353257,-0.8436377167,0.4504510503,-0.9831557854,-0.4012255874,0.2038412016,0.1859483999,0.9890672666,0.8164971283,-0.8514846634,0.1564500743,0.5693064178,0.3597115818,0.8566495759,0.6961985152,0.7774967656,0.8133016046,-0.1118400216,-0.9666418259,0.512783112,0.9328055601,-0.2424464348,-0.3469938856,0.3343892704,0.7882099187,0.7105723284,-0.6834895382,-0.1149091552,0.8727212069,-0.181606666,-0.3667846994,-0.4254899531,0.5146019263,0.3363551178,-0.2876648649,-0.3473660423,0.6664515076,-0.5256379149,0.9441704025,0.1015317245,-0.360042336,-0.4612479644,-0.8082968351,0.8633235932,0.5395569955,-0.431713068,-0.0481093544,-0.4351395929,-0.7225478624,-0.1316064484,-0.2385902464,-0.8577781362,-0.155192861,-0.0328086288,0.7632397439,0.7015754845,-0.8008521014,-0.0829956672,-0.4098953171,-0.9714218338,-0.6400713102,-0.2747120935,-0.8992028163,0.4326635707,-0.4626756583,-0.5031295335,-0.947308978,0.1519257448,-0.5546297847,-0.3458063984,0.2091459754,-0.4199510673,0.4898877639,-0.2940469444,0.0125998342,-0.8774447258,-0.9270334155,-0.7813853818,-0.7260688804,-0.6269050337,-0.0109786601,0.5530448194,0.0618131438,0.7898111046,-0.7204805479,-0.9458292225,0.7222605405,0.526519883,-0.4723076156,-0.479786365,0.9678574252,0.4342031987,-0.0303984407,-0.8794502237,-0.5513231076,-0.5943436112,0.7277814058,0.1524563925,0.4038411239,0.5585346661,-0.279569003,-0.1295789695,0.1330751227,-0.4633737618,-0.6300219811,0.0122689242,0.0885200649,-0.6317215595,-0.0999140502,0.1910449196,-0.6570050543,0.2068887403,0.3165946123,0.544972707,0.0203222993,0.9219507988,0.5076136481,-0.3701061698,-0.6524837244,-0.6861854271,-0.6878963583,0.7158002775,0.7141798988,0.2758432439,0.517053723,0.905787362,0.2807587906,0.454213554,0.9979234175,-0.2413155043,-0.2421973168,0.9708585144,0.0837054876,-0.0595957931,0.048445126,0.308636992,0.6921728237,-0.1290386639,0.7238009989,0.1040104168,0.8254885442,-0.2201016106,-0.0602865728,0.9485894287,0.7056087159,0.4835447667,0.6937211061,-0.0608272576,0.6477875358,0.3050963512,0.1060144466,0.3460728143,0.6985425029,0.6057860382,-0.4637833743,0.9389836656,0.0388399709,0.8452023605,-0.0311097355,-0.9698659792,0.4713393468,0.3365720655,-0.2912689951,0.8550549505,0.6516220401,-0.3563188288,0.9946653682,-0.9171009922,-0.6713557059,-0.096073698,0.911098241,-0.1189216009,0.6695135184,0.4881168277,-0.6037408859,-0.1223116271,0.1855251731,0.6475531281,0.1928462445,-0.9230652275,0.58685013,-0.403727302,-0.7358652731,-0.3845466888,-0.5303581156,0.7121951294,-0.9606343912,-0.8064161735,-0.0378980668,0.1887487291,-0.0451516923,0.8857816158,0.8559499768,-0.0233546723,-0.9777048704,-0.8292866141,-0.6924661184,0.1255900833,0.0861644447,-0.9190782119,-0.8140920995,0.5322593514,-0.2434727494,0.7809918649,-0.3255516223,0.5182385318,-0.5201122347,0.9466722023,-0.185518513,0.3820801044,0.795696904,-0.2811288279,-0.6083142498,0.0078167789,-0.1966212746,0.3390973667,-0.8223457487,0.3763604322,0.6662038448,0.6712318772,-0.8025935341,0.9230413007,-0.6092593539,-0.0756428038,-0.2333154592,-0.8138220909,0.9391744545,0.9588985437,0.2130447361,0.6585966057,-0.181317097,0.263103133,0.7254091484,-0.456154511,-0.7215276945,0.6775275187,0.3302804106,-0.2688509385,0.1864155293,-0.8130881962,0.8951457829,0.4992691833,0.7125804819,-0.3954310123,0.8642678674,-0.1390885297,-0.1727398227,-0.7240000646,0.3515397965,0.7706519387,0.9486203327,-0.0111036614,-0.9174873022,0.4400706443,0.1734138429,0.036447072,0.8123631897,-0.9941877227,0.1414994089,0.2975672587,-0.6184507336,0.7021352196,1.0333491692,0.9198074896,-0.704628214,0.5540623469,0.183528037,0.5773200603,0.6615347386,-0.9649004987,0.8647819693,-0.0959811081,0.5959075817,-0.5894946636,0.0686024995,-0.1623272574,0.6999095198,-0.8156152746,0.4436794736,-0.290266074,0.580229645,0.1791427178,-0.002071962,0.0864290642,0.6471734946,-0.9115254324,-0.0839451274,-0.6521459474,-0.376795936,0.2356063615,0.5789106909,0.3437869008,-0.9886139329,0.2446439066,-0.3400673144,-0.2164464707,0.9394426591,0.9421598895,0.7024297583,-0.4478994522,-0.9948379493,0.2556525011,-0.7481402498,-0.1995349849,0.3044014063,0.8770908482,0.9336855121,0.0538543829,0.2981988584,-0.8370333122,-0.6964011727,0.7757536311,0.546241904,-0.6566110931,0.3319560335,0.0638708082,0.2748913711,0.2663818604,0.3685299604,0.2049179204,0.5750419091,0.9113855097,-0.9097503552,-0.8558262617,0.5321047816,0.1991712731,0.5607215514,-0.3679329885,0.2203332968,0.1849141522,-0.776725167,0.9060406476,0.6158968107,0.3364477726,0.2851856402,-0.8390210291,-0.613214508,-0.2485704789,0.565245847,-0.5804865652,-0.0841582294,-0.5233144341,-0.9692146764,-0.9999372521,0.0797572645,-0.6136423611,0.9268664949,-0.3237187119,-0.9272325081,0.6865603091,0.7034620195,-0.6919181546,-0.8726630422,-0.4661830645,0.2546668915,-0.2360075774,-0.5037947152,0.1257092556,0.1888725726,-0.6580691447,0.8821755729,0.7773196887,0.5325401595,-0.9178131796,-0.6223737406,-0.2778352662,0.7932690071,-0.6399812902,-0.3641443562,-0.5129404643,0.4822154485,-0.8640333653,-0.1827692296,0.0116703645,0.3792270266,-0.5616231043,-0.1855354433,0.7603521811,0.9459978205,0.9217632757,-0.7096805387,0.7014159106,-0.1559987265,0.8590396124,0.1566635747,0.8608529175,0.8737008177,-0.6213078396,-0.5801814542,0.8199376944,-0.2934084279,-0.626838528,0.2098856308,0.3383294258,-0.3516985434,-0.9597660786,-0.5834122236,0.7819852152,-0.9826841334,0.6077109356,0.4341101783,0.8329333826,-0.2164350883,0.4199278743,-0.214408895,0.8968714572,-0.927138021,0.4647086813,-0.3965344017,0.9534968202,1.0024579961,0.6361505601,-0.630150411,-0.624006523,0.2251561814,0.7750454965,0.4227679054,0.7417124785,0.9592615017,0.0589219612,-0.8163927142,0.5720827486,0.7297376706,0.2857240345,0.4041041086,-0.2771346267,-0.0880000569,0.4081590067,-0.2842344178,-0.3336927868,0.8521378886,0.303302825,0.4255912705,0.8913899697,-0.099884889,0.1618591069,-0.0323604168,0.2891536013,-0.9144479575,0.3015873638,-0.2715049666,-0.1888097787,0.6029315578,-0.4202164131,-0.675276795,0.4237077671,-0.6191785527,0.4913080207,0.8384635742,-0.1320341427,-0.0566187741,0.3088576404,0.4731766526,0.9030040705,0.7721887566,-0.8339305603,-0.6563388639,0.4346079395,-0.5733417852,-0.3465218607,-0.7608283956,0.8898365622,0.31335466,-0.4784464326,0.8264969394,0.0370575965,-0.151643082,0.9066690282,0.1189753839,-0.721351204,-0.8758321352,-0.8097871948,0.5379562461,-0.2256926621,-0.1504168395,-0.5930624561,-0.0350844707,-0.8830587941,0.2700312181,0.5452632105,0.3498347882,0.7380263814,-0.8354828116,0.7342525088,0.778387513,0.2313979063,-0.7875201764,0.2450564104,0.1879405312,-0.8939129809,-0.8833130124,-0.6412096842,-0.3647737652,0.2353194622,-0.1759054969,-0.3560394224,0.469028567,0.1120963056,-0.7067994325,-0.6830212837,-0.9310694476,-0.1134606292,0.8858640145,-0.4850620994,0.2875746858,0.3113130422,0.9468362974,0.1795224305,0.9979467194,-0.9540590913,-0.3334480167,0.4551238635,0.0657626685,1.0066904959,-0.1720491943,0.8767821702,-0.5270234372,0.0091473728,0.3034018028,-0.0517450756,0.5069671198,-0.8811581053,0.6889906938,-0.9006207285,0.0444825976,0.9503832588,-0.3323774081,-0.7694051926,0.1924804523,-0.4070853493,0.3151734161,0.0362593743,0.657406205,0.3639852646,-0.4115758179,-0.0479499828,-0.8665531465,0.2263236356,0.5639149127,0.3679775002,0.5131488382,0.8982863978,-0.9175997591,-0.6611135021,-0.1882436572,-0.6631529171,-0.0704684801,-0.1880833968,0.0825375356,-0.7178882624,-0.8946889326,-0.3248612741,0.9495509256,0.2594537429,-0.5898259735,-0.5322412203,-0.3366949552,0.6071266454,0.1836407122,1.0099854516,0.1995774838,-0.7871554719,0.8881027238,-0.1536618784,0.1479940735,0.7450511941,0.8397552947,0.7707921866,-0.4898941112,-0.0451696874,0.4959836423,-0.3868794745,-0.5739192114,0.4378550209,-0.2013918977,-0.4465241719,-0.9297284763,-0.575438091,0.3053689488,0.2461472642,0.8876818558,0.0119045081,-0.0951489505,-0.4116917517,0.4469864285,0.2567669506,0.5771207198,0.9220481968,-0.5374967007,0.2853692872,-0.672904718,-0.1605130624,0.0808336233,-0.8136798745,0.9632750862,0.932716702,-0.5415468546,-0.2336889921,0.643460653,0.898199001,-0.0186449248,0.3966697679,-0.1477808393,0.4711697637,0.5854540526,0.4010069687,0.0810157641,-0.5212897191,0.807394581,0.0194674755,0.6513509708,0.84049872,0.4123556235,0.1846831813,0.4140873846,-0.2257554397,0.2467926099,-0.5263799935,-0.1619879386,-0.8046496348,-0.2381869618,-0.4065296012,-0.5119863363,0.6477491319,0.9761136149,-0.6402840805,0.0156970496,-0.6670953871,0.6281581708,-0.1071257852,-0.6538914513,-0.3393818049,0.0193263438,0.1002746083,0.5023524398,-0.3049535435,0.7824921608,0.3162589263,0.2423372866,0.2756720053,-0.6833479978,-0.6347843354,-0.7591072767,-0.3179279946,0.7986304694,0.1179365956,-0.9010496168,0.6688872642,-0.4156771217,0.6771282123,-0.3067294203,-0.9588732205,-0.5319655317,-0.2339363868,0.5405543963,-0.4639581617,0.6647429893,-0.5247573546,-0.2742990726,-0.1468501481,0.638641426,0.2334317092,-0.9140790819,-0.0684474747,-0.314080353,0.6318287571,-0.2819460904,0.8638748627,-0.4860042656,-0.3084421452,-0.6489482537,1.0089191664,-0.9567548427,-0.0399975819,-0.6397792543,0.0631445754,-1.0026482211,-0.4299467703,-0.3438888428,0.0205906464,0.9428534732,-0.6520457994,0.4294538447,-0.5820766204,0.3938133265,-0.7271832887,-0.0943549862,0.1614658732,0.41516545,0.5475435718,-0.7417305935,0.245736704,0.0223965193,0.3561007593,0.7729537557,-0.4563396276,-0.8060198394,-0.2288722702,0.3273277614,0.9478209834,0.0991850167,0.6460849613,0.1050704008,-0.961519646,0.2732100452,0.5791087828,0.5187501605,-0.2614102914,0.5035532717,0.3785311051,-0.4258663889,-0.3603986095,0.1455622441,-0.2336265143,0.5829783026,0.6281305892,-0.9319290391,0.7281444207,0.7592058681,0.1334355543,-0.9825774228,0.6572266424,-0.769272597,-0.4275358781,0.7654447143,-0.4927283032,-0.2242788358,-0.5052602756,0.2692756513,0.3550480322,-0.088868145,-0.9279557128,0.1628803727,-0.6675280015,-0.5680094365,0.5046909774,0.8653732488,0.3138209672,0.4383687015,0.1733487799,0.5194964181,0.1252436188,-0.7259558303,-0.3416187481,0.0048844725,-0.7385015556,-0.9685152106,0.432559395,-0.8634100576,-0.2942858494,-0.8207211989,-0.0800405464,-0.6402498117,0.3087811747,0.0584221595,-0.1762807216,-0.7939999856,0.321747451,-0.2760897095,0.0520539693,0.7655781892,0.120545393,-0.7979062869,0.7824802162,-0.3790893985,0.9930258683,-0.9315823785,-0.8913408935,0.5961587676,0.7791532527,-0.3270197426,0.3681313201,0.1897092573,-0.8243027136,-0.4799721547,-0.803967523,-0.6046698246,-0.5542899908,0.5635372072,0.3596844848,0.4637710844,-0.8172981744,-0.3363647411,0.9081378339,-0.0563672373,-0.3148320872,0.0300976688,-0.4687028787,0.6176557677,0.7686845849,0.9752569575,0.3727259945,0.4254329776,0.3773281041,-1.032750472,0.809935004,0.4438318089,-0.0384414247,-0.3872268718,-0.7156409871,0.2318070444,0.3587752715,-0.9466746805,0.5519841367,-0.8751448933,0.0374158712,0.623591572,0.7989949129,-0.4356929508,0.8791012861,0.24123812,0.5682064458,-0.7540627485,0.8302333441,-0.5230854954,-0.0118625417,0.1887878609,0.1042563459,0.708409794,0.2298137957,0.4392233837,0.6946800225,-0.0260597534,0.7651610034,0.0588062681,-0.8841354723,-0.0806994091,-0.5009225427,0.8927385515,0.4287242305,-0.1958735409,-0.4907361992,0.4089857369,0.6276773027,-0.6495580568,-0.4822047001,-0.5146775242,0.683088514,0.0204963792,0.4474036695,0.9091524567,0.1910478343,-0.6633554621,0.7552994603,0.0110335893,0.8672794482,0.0144974613,-0.9590458148,0.9263069239,-0.1124318413,0.0752082808,0.5343013116,-0.9137537786,-0.2811472175,-0.9823221946,0.2672743714,-0.5823792361,0.1800502758,0.1859491178,0.2371981606,0.1993839356,0.9695603416,0.1851946667,0.311851966,-0.5181122902,0.9327989136,0.0898028048,0.4237566226,0.8151538493,-0.8801301536,-0.8578704693,-0.0616589936,0.802594116,-0.8562872811,0.4271383135,0.8341106026,0.557178849,-0.1407420158,0.6473451155,-0.4755498122,0.462217601,-0.0297186371,0.3289471247,-0.4919980895,-0.9713396442,-0.210972726,0.8625678436,-0.81495834,-0.5955874693,-0.388188495,-0.7614147864,-0.2985339408,-0.0960576981,0.0012590774,0.3698740277,-0.8767220299,0.1916728687,-0.9126312209,0.603396537,-0.9572866108,-0.362859606,0.5373064571,-0.5843433076,0.7131583466,-0.700207178,0.0703036472,-0.3392303158,-0.4065933609,-0.8905778157,0.513346021,-0.1190034305,0.4179155499,0.5582118232,-0.1318818392,-0.7502776865,0.499571431,-0.4535499864,0.7989558847,0.415852161,-0.2425839406,-0.6884365286,-0.627395609,-0.2798712007,0.3610049696,-0.2176960252,0.536368547,-0.181860268,0.9364945294,-0.2503177152,-0.5219042279,0.3804019898,-0.8846463065,-0.1210949372,0.8117018367,0.9782967761,-0.8260139006,0.5272197189,-0.528990928,0.8086010231,0.3023396491,-0.7360484437,0.3941052484,0.9110124812,0.0670567043,-0.03453502,-0.5033624578,0.1108291384,-0.7614287073,0.3865335347,0.6046464861,-0.578971883,-0.8301739067,0.3379282859,-0.8824656795,0.0603150306,0.6917584941,0.9320849654,0.9726994323,-0.7692949377,-0.8995251666,-0.4304329999,0.0580262341,-0.027055968,0.4909129885,-0.3720281429,-0.4723787906,-0.5217491808,0.1817128689,-0.8013911537,-0.248539129,-0.6955361556,-0.6347646252,-0.4036259003,-0.3057574123,-0.4293679554,-0.6632742125,-0.8597776293,0.6335839182,0.2466823444,-0.6916123474,-0.1325913656,0.077921337,0.9648380275,0.2591566562,0.9185072757,-0.8394007882,0.4491055328,-0.9912959029,0.2108057037,-0.2671986533,-0.6619158952,-0.0752218725,-0.9256855543,0.2106136296,-0.098731183,-0.4092258364,0.5960651483,-0.4551828938,0.5904783555,0.2618482374,-0.0162042317,0.6921722155,-0.802327668,0.0948596925,-0.7760756412,-0.0067978237,0.6616184959,-0.8874311673,-0.5530826446,0.5170594843,-0.4317106199,-0.5768162712,-0.5057034761,-0.7943963903,-0.5238055817,0.6799501721,-0.6067963476,0.4869863535,0.7476808829,-0.1222791384,0.1042105545,-0.2396107474,-0.1907605795,0.7991966027,0.6742097346,0.7050647162,0.7388951149,0.058130324,0.3641605818,-0.9424745831,0.822924798,0.8388083655,0.0594473086,-0.4334468345,0.6656740728,-0.7608356122,0.4017331113,-0.4169859062,-0.4557046768,-0.1768421714,-0.5780589914,-0.502631575,-0.455496853,0.1291470592,0.0511174862,-0.9081105788,0.7976871423,-0.1323998178,0.7793660709,-0.4094302556,-0.8920537609,-0.5183194925,-0.2794214047,-0.7259921629,-0.0585378757,-0.2392615306,-0.6755062645,0.601973334,-0.6557182897,0.9546187087,0.6815158051,-1.020290385,-0.9332839033,0.8815756407,0.16202634,0.894534807,-0.0321175954,0.2913841259,-0.63114292,0.9303024729,0.2886706003,0.3225894625,-0.1456421434,0.1216885601,0.6722509813,0.044996831,-0.5667739117,-0.3708975512,0.7528075061,0.3279348516,0.4986220359,1.0405446531,-0.486500528,-0.6825192346,0.2662103326,0.7414483951,-0.7772323142,0.5866452405,-0.119798772,-0.3920033749,-0.7104661814,0.7909416649,0.7276100696,-0.3382274002,0.7649084989,-0.543711545,0.7548678413,0.9962470979,-0.7128040563,-0.9425123271,-0.6203472864,0.4860524344,-0.1908463072,0.1738671922,0.2671104655,0.920489721,0.3225479465,0.8383809354,0.1679344852,-0.2068480545,-0.7865750615,0.1718950746,-1.0002543051,0.698432183,0.7147989425,0.830685713,-0.4565829004,-0.5421342144,-0.0889489602,0.4627639651,-0.5771568342,0.1389183361,0.1662816238,-0.1903158569,0.5095116439,0.6471037059,0.3812972561,-0.8213743283,-0.6733626139,-0.5697247573,0.9833167426,0.4773528412,-0.1290431934,0.8487061595,0.1582813729,-0.3079764088,-0.5638588444,-0.8868476229,-0.603956675,0.6200040148,0.0841450606,-0.8315198069,-0.4060143561,-0.7923080864,-0.8303985151,0.6189621777,-0.4825642349,0.37846619,-0.9870118147,-0.7584778703,-0.73368121,0.6770193075,0.7189847383,0.7263180011,0.5582317329,0.8793311047,0.4860003265,-0.5805715472,-0.5279849132,-0.7813491874,-0.8857035461,0.7364010452,0.978505813,0.4382165546,-0.9134396232,-0.2630732932,-0.4005368041,0.7535576712,0.5563975937,0.672038084,-0.6084903277,0.7518898708,-0.9367273306,-0.5226019245,0.1008199279,-0.3301875042,-0.5494725646,-0.8968844049,0.6343042637,0.0558201678,0.6580256438,-0.7530826056,0.843285878,0.0746128405,-0.3155564799,-0.1593103789,-0.9709824923,0.7763822989,0.7385222586,0.8965811607,-0.5063534746,0.4402160342,-0.4204418326,0.370677473,-0.5500166777,0.0986141858,-0.1073761848,0.1862551703,-0.3787858895,-0.7296387571,0.4482035023,-0.8542887659,0.9142205876,-0.0559519566,0.6225059817,-0.9285434994,0.6884188319,-0.2517318164,0.3195118206,0.7978272288,-0.0491046361,-0.0328650791,-0.329740363,0.201565364,-0.5315470217,0.4055620282,0.6254068248,-0.8181703733,0.1462014101,-0.0041961002,-0.6542366882,-0.0004651329,0.5710662232,0.3110920091,-0.607234915,-0.0926246356,0.6405007633,0.594075033,0.8930020648,0.1799882443,-0.2285974778,0.3531179898,0.9452500115,-0.15699982,-0.8179333218,-0.6508640859,0.3892644037,0.6635715786,-0.8494448439,0.5192900219,-0.1970959804,-0.4846656057,0.0950729311,0.7551710991,-0.4980051853,0.9556001536,-0.0847615433,0.4260405232,0.9569193816,-0.6345482045,-0.4257936177,-0.7560543522,-0.4782522094,0.7258489216,0.5593223736,-0.0422695751,-0.7314714811,-0.3040985426,-0.2024536384,0.2069435676,-1.0104644332,0.3383169149,-0.1551126303,0.8758563369,0.1184103234,-0.135678524,-0.522999354,-0.8808239627,0.9924279043,-0.9371998516,0.3715991352,-0.4090011861,0.2745812732,0.992471943,-0.0667187214,-0.3470932357,-0.2059448946,0.1435689489,0.4602244427,-0.7865057777,0.929278664,0.4141966112,0.7232799463,0.7390974956,-0.6835496772,0.8332226482,0.6705331631,-0.4985706426,0.4194303889,0.4304452899,-0.6834229534,-0.8501198244,-0.0820864135,-0.7179220601,-0.1038932948,0.0300948249,-0.767951189,0.6665309895,0.005381738,0.1256349416,-0.4889493925,0.4170817228,-0.8746633655,-0.4202166792,0.0691547221,-0.3461514611,-0.98166821,0.4697924057,-0.4738308831,0.7460163089,-0.4705558248,0.6517277572,-0.4254671494,0.9321979027,-0.6095257856,0.6981652904,0.4135937465,-0.7345233833,0.56363949,0.4160151759,0.0511143021,0.9641548385,0.1177721836,-0.8635428582,-0.8220313815,-0.4662561846,0.8707997647,0.6918168744,-0.3505196465,-0.1736035554,0.1657061115,0.020824053,0.2811842809,0.8133537219,0.5978376182,0.3261313083,-0.2048629864,0.4982927097,0.2741660243,-0.5368623993,-0.6406938731,0.0625412499,0.6659885542,-0.9460321722,0.0067599498,0.9557238536,0.1740015669,-0.3866040021,-0.0255855392,0.4721683421,0.4289852907,-0.4494809906,-0.7486430166,-0.9342467442,0.9874744489,0.2999850462,0.4022357695,-0.8495267014,0.7328788468,-0.8551368458,0.2152929937,-0.2373887225,0.4585752493,-0.8130175256,-0.2422719402,-0.7460557766,-0.0140393173,0.1341937489,-0.6295809563,0.7259596673,0.1777094642,-0.0033165534,0.6004386688,0.0417064611,0.2579064428,-0.6410154492,-0.245662698,0.1468520593,-0.7659204508,0.6168208257,-0.5297610775,-0.8712966671,0.3455497858,0.2457640233,-0.9833752716,-0.7979709282,-0.5364941726,0.0374460781,-0.7761499957,-0.6065146249,0.0009750346,-0.3116578892,-0.8529353741,-0.1431830106,-0.6541023267,0.6281170884,-0.9232523029,0.9237602941,-0.8012124056,-0.010051518,0.4448527183,0.3243487163,-0.4642173054,-0.5679808687,0.3871657398,-0.9090503398,-0.3548934002,-0.8216522428,-0.4107551687,-0.1413828092,0.5510954208,-0.8417103887,-0.6008272895,0.4585819425,-0.3900673688,-0.0171777068,0.4390101106,-0.3675283396,0.9102006336,0.9504740815,0.6728686843,0.7425580013,-0.5094683408,-0.2507739914,0.1813438332,-0.369831009,-0.6176371951,0.6186058341,-0.5405761832,0.2987462784,0.4967274967,0.866543073,0.3142867303,-0.207135878,-0.8852249189,0.1312284319,0.5486244431,0.0604602108,0.1604903326,0.951006329,0.5416840429,0.9056800178,-0.5452254226,0.9906748942,-0.600823585,0.7081012691,0.4968459284,-0.7351396356,0.4922600058,-0.5043202193,0.6790363601,0.0168602399,0.1250446152,0.1454926806,0.9951813455,0.7214487443,-0.9894563992,0.9180861672,0.7423131172,0.9444052149,0.1084935219,-0.722695382,0.3784585761,-0.5108695949,-0.3758384096,0.8735935306,0.923699407,-0.0686830085,0.7726869874,-0.2861485924,0.7566554325,0.7301905236,-0.1323693326,0.30560031,-0.8773820075,-0.6323350051,-0.418563692,0.6036768295,0.0840498121,-0.3519817891,-0.9772222135,-0.9840535444,0.8803541768,0.5791439318,0.951979745,0.0663188163,-0.4615873499,0.9807080135,0.326726671,0.8190101673,0.5374614266,-0.7506521145,-0.5592336701,-0.2537313237,0.1094472753,-0.805241178,0.4790882186,-0.9064891798,-0.3180198922,0.9887936924,0.155532675,0.0399551452,-0.4237473114,-0.7778641105,-0.7357709991,0.1352081573,-0.5650853052,-0.1708703624,-0.393405752,-0.3990576947,-0.317830196,0.0377493258,-0.7348130249,0.5244838556,-0.5603401042,-0.3013270126,-0.3201369264,0.3317581691,-0.1652055793,-0.1571217306,-0.8698243116,0.5148850997,0.8808841184,-0.6013690565,-0.4250574396,0.311441789,0.4145663315,0.7412267193,-0.8739283218,-0.8727029449,-0.4392455089,0.7094733596,-0.174977368,0.8883796823,-0.6845163503,-0.4205087539,-0.9592390524,-0.0596430466,0.7819124142,-0.4658281113,0.2151465688,-0.2867180938,-0.5595040472,0.6495564937,-0.7588338828,0.4593818604,0.57501477,0.7991529472,0.3515682423,0.7061552295,-0.1048785238,-0.2874262837,-0.1145225715,-0.7937686471,0.8965398136,0.9482023404,-0.1897041216,0.729161847,-0.9960008133,0.3433335735,-0.9566808887,0.3423938763,-0.7157167703,-0.6888923317,0.2847851092,0.4682120454,0.3379098689,0.9152513152,0.00702664,-0.088251932,0.8707023655,-0.3414075968,-0.2641333697,0.3768535491,-0.9386215332,0.6277242543,0.0319864703,-0.0812545685,-0.0279919012,-0.9151275755,-0.5536464571,-0.1962053322,0.4403685869,-0.297358065,-0.4715891605,-0.4801551527,-0.8931618197,0.2276938735,-0.2970674804,-0.490087274,0.4125171803,0.3897888448,-0.5026849906,-0.0517912038,0.3113341425,0.8367295564,0.9020130095,-0.1779672597,0.7862277873,0.5734265105,0.1704542362,-0.9300808183,-0.7836988977,0.5962728239,-0.6576981843,-0.0352647746,-0.4108045575,-0.5823859381,-0.9235860388,0.6524002465,0.7685400799,0.1582832293,-0.2576403609,-0.7174067645,-0.0559245563,0.7419369676,-0.9071308378,0.3390200395,-0.9068499015,-0.8630950087,-0.4150517181,0.3342782057,0.4334335312,-0.7392619077,-0.1460922073,0.420985824,0.0264073239,-0.0651834371,-0.7812030027,-0.0280672301,0.1191134922,-0.0534156199,0.8961908713,-0.5974986347,-0.1057735733,0.6144259464,-0.2942956274,-0.0449223493,0.1071091974,-0.8266231323,-0.1125968733,-0.9667444291,-0.7456573835,0.3095824935,0.2293745,-0.972632116,-0.1182850177,-0.6898460113,-0.5507999161,0.1094768112,0.0301275537,-0.2178938014,0.8233194696,0.0299289429,-0.1532718529,-0.7624545112,0.0029335964,-0.1323524705,0.7625505926,0.3547216537,0.396238272,-0.9021345526,-0.941609776,-0.3375391136,-0.6575863575,0.6873422888,-0.9492645973,-0.6149816519,0.898045297,-0.8193154213,-0.7866455091,-0.0702160995,-0.0698564954,0.581555322,-0.8115340213,0.5710615967,0.5184318833,0.2801121637,-0.0157624084,0.6167628736,0.7273848669,-0.1795615147,0.7225193503,0.0510151415,-0.9113510474,-0.2600958471,-0.547733537,0.1691467571,-0.5756128308,-0.3038559771,0.3265519209,-0.6744785368,0.3929212236,-0.4894628521,0.7968741067,0.7363674622,0.4522465111,0.3634451504,-0.2471009557,-0.9507361249,-0.6048929014,-0.917919097,0.9128746998,0.5663596517,0.2096943014,0.2108299833,0.5420066906,-0.5833668182,0.9459666738,-0.4244938506,-0.9245907082,-0.4614710389,-0.427783188,-0.7625829499,0.8612363359,0.7036098151,0.1000790764,0.7509959226,0.6218845917,-0.4423804989,0.1556573381,0.0652404484,0.2956402469,0.7773988894,-0.4345888146,-0.9216202373,0.7322222466,-0.5759518473,0.843794773,0.7084271688,-0.8651838423,0.4457567739,0.9868758883,-0.1296490968,-0.7190834092,-0.7949594117,0.2540115661,0.1104749493,-0.6516014457,0.9472193709,-0.2585260857,0.3766232465,-0.1240730722,0.086761881,0.7813517918,0.363738149,-0.8080693833,0.4975945012,1.012779908,0.0873496372,0.0281309888,0.9522727291,0.6412985944,-0.1477587596,-0.5429125825,0.8067000808,0.5698386822,0.0257830158,0.6166322772,0.1871858624,-0.4329043662,-0.0903286819,-0.8515310927,-0.1724063838,0.3074002369,-0.0968561368,-0.1558221961,0.5153178039,0.2547257238,0.4642101028,0.0505407146,0.4720868661,-0.7496877421,-0.5308982464,0.6388941676,-0.9390213332,-0.2600772222,0.9827815499,-0.8053961698,0.5441463219,-0.4140369393,0.1661647812,-0.3936894925,-0.0993360697,-0.9757431536,0.0498580097,0.2026169222,0.2990121109,0.1384010522,0.9585853448,0.6445973072,-0.6144756387,-0.7930849449,0.1873912906,0.3995313791,-0.2568456035,-0.4696048361,0.8495309695,-0.8839211577,-0.8974458363,0.496141574,0.7414741798,-0.979243034,0.9605751509,0.7168801206,-0.9347482238,-0.155582751,0.5737465345,-0.2478680764,0.6383231807,-0.2633193003,-0.1335404621,0.0302268481,-0.5572957484,-0.7354089805,-0.1749263131,0.7101015513,0.3103431457,-0.6714035662,0.0120233535,-0.4680210494,-0.5720051551,-0.6721084062,0.3529994662,-0.1722674688,-0.7717213934,-0.701889639,-0.2222328193,0.5230952888,-0.7188496383,-0.9767428564,-0.6354993561,0.8832946275,-0.8232479902,0.3933149829,0.7932783119,-0.4093767881,0.2279868623,-0.3433007883,-0.2874433779,-0.1381976169,-0.0236933239,0.3864677087,-0.9888748995,-0.3937312789,0.1416104199,-0.4070392539,0.0372112844,-0.0215901115,-0.7073255533,-0.0950269094,-0.4798894624,0.3110973323,-0.7909244571,0.5951793548,0.0323258592,-0.0382639423,0.321490788,-0.1303523729,-0.4137156906,-0.9109121056,-0.9374457484,0.8660870778,-0.5257934361,-0.8362179257,-0.237884791,-0.7014179665,-0.3927478597,0.0369989023,-0.6915753256,0.4594896187,-0.1952424977,0.0324657796,-0.0079218345,-0.9493523652,-0.6666516165,0.1729150739,-0.1967125493,-0.3353678084,0.1967660197,0.5040070623,0.9129765963,0.442803798,0.9535035474,0.0654255054,-0.9004090803,-0.2209023393,-0.8329124714,-0.8447773236,0.8033181281,-0.8840978196,0.311633621,-0.6396069351,-0.8866321968,-0.2816154463,0.2233495827,0.2438000058,0.9704772366,0.6539951324,0.7538536232,0.6602850812,-0.81601301,0.0913787196,0.0900974779,-0.6385833854,0.8823839812,-0.4056044559,0.0470694161,-0.1167209231,0.4780034631,0.4205584918,-0.8343253305,-0.9546255467,0.6954769816,0.8343327536,-0.5072551061,-0.9574302667,0.0432499376,-0.0790720761,-0.3383691608,0.9653243934,0.3233447162,0.5927925318,0.0943389007,0.799094726,-0.9581407631,-0.6502476064,0.8922415257,-0.1241496759,-0.7106203936,0.5733455566,0.1749523825,-0.9722945324,-0.6543909157,-0.5089697522,0.1133348189,-0.9295146414,0.1963905675,0.5972550465
