encog,BasicNetwork,java,3.4.0,1,63716567638321
[BASIC]
[BASIC:PARAMS]
[BASIC:NETWORK]
beginTraining=0
connectionLimit=0
contextTargetOffset=0,0,0
contextTargetSize=0,0,0
endTraining=2
hasContext=f
inputCount=57
layerCounts=2,88,58
layerFeedCounts=1,87,57
layerContextCount=0,0,0
layerIndex=0,2,90
output=0.987560224190845,1,0.0420711087542861,0.975402358629091,0.999999994306752,0.514495630696329,0.998386603621481,0.968907751904848,0.999704638494258,0.116159593199504,0.64501989098692,0.821583582076255,0.99983201313162,0.396092777726412,0.00040923891815551,0.0280384477040908,0.696922102450098,0.126203712467877,0.996125932097277,0.374076664989623,0.766103308303976,0.993991344201385,0.286244951352178,0.0121422552229675,0.997982611813972,0.95517549108791,0.0209479481720385,0.999970907273852,0.00343304878497035,0.174581989243964,0.000463353980433903,0.844404865198176,0.997649625009005,0.00522576841858994,0.820789240879989,0.303284517430271,0.998808854805906,0.999996984622518,0.117321141356707,0.999999999977316,0.0000068493712932972,0.0191271278233148,0.979704328899806,0.999503530433167,0.999827018512453,0.18975113599616,0.304407010397753,0.000772062332645063,0.00126969683861754,0.996968122167225,0.544824679978186,0.560857432806262,0.0000941593977128771,0.951874803806415,0.815267278932427,0.933221618613911,0.954102986742581,0.0173319442028484,0.166692086059876,0.860944570107524,0.711287300296231,0.00000112346740134278,0.986626400549447,0.000618502350610999,0.999487496419889,0.193846049247718,0.652271929243323,0.000635987275727337,0.90673349134957,0.126143159560662,0.696177182498905,0.878048579919062,0.0778465064201674,0.466251459398684,0.999377506026477,0.250151711181885,0.686197237815312,0.0640497305039574,0.735098929181302,0.999715291738664,0.0662798975412624,0.000880654691983263,0.999592706758194,0.233508829753175,0.0236886001599287,0.197517354381453,0.232996111377159,0.0847117497427093,0.162932343613804,1,1,1,1,1,1,1,1,1,1,1,1,1,1,1,1,1,1,1,1,1,1,1,1,1,1,1,1,1,1,1,1,1,1,1,1,1,1,1,1,1,1,1,1,1,1,1,1,1,1,1,1,1,1,1,1,1,1,1
outputCount=1
weightIndex=0,88,5134
weights=##0
##double#5134
   -1.0664444404,-0.7195416028,-0.7481413927,0.6898833584,-0.2943664215,1.2100648819,-0.5468509336,-0.7879219016,0.4958752332,1.0065373561,-0.700208209,-0.9427994635,-1.2492974249,0.1263019347,1.5199582114,-0.9751396292,0.6575097432,0.6612923309,1.0160325637,-0.2286899193,1.4921206155,-1.3379485258,-0.6146985736,0.0834116377,0.3542063589,0.7893045792,0.3788083205,-1.0544467769,-0.9232885559,0.6375061092,0.7203039345,0.6071360235,0.3109187367,-1.1763956247,-0.1546270348,-0.860086505,-0.9288552219,-0.5683432169,-0.0062321426,0.0101884426,2.4425691858,-0.5084493071,-0.5338003853,0.8473367989,1.787927024,-0.8723254536,-2.1054876197,-0.1375115037,1.4478046582,-1.1509456606,0.1218188829,-1.1237977137,3.463744266,0.6695839103,0.7192787227,0.4514294601,-1.2153373025,-2.7451801807,1.4729776545,0.3276282777,0.9104164376,-1.1177446799,0.4462807117,-2.2813099074,-1.5936612331,-2.2155531234,1.4097726351,0.5813097332,0.9552165517,0.460001614,2.5789513315,-0.6992361627,0.8620250093,-1.1024348036,1.543499692,1.121813106,-2.1345729917,-0.4164097154,-0.1376599499,-1.1233288855,1.1009064344,-0.4369712114,-1.3855708233,0.1537145337,-1.5418496728,1.3269763505,-0.845381248,-3.256740848,0.0517711645,-0.1643313228,-0.2931073316,0.431918594,0.4424283581,-0.4629761878,0.6388778004,0.2818789979,-0.1241106577,0.1884890358,0.5655467139,0.7041039162,0.2626696345,0.2924801117,-0.5656169209,-0.9196688848,0.4702438405,-0.4556572034,0.1067322952,-0.7176326064,0.3655614075,-0.5519097552,-0.0186290876,0.3836858401,-1.458728337,0.5233984732,-0.300605702,-0.0183544292,-0.1295962524,-1.2803719137,0.4841194583,0.0869266031,0.0578170329,-1.295586881,-0.813003589,-0.4733632385,0.0887591935,-0.4869849592,-0.0382785342,-0.0685928989,-0.1098702812,-0.3914770812,-0.1814528703,-0.7879330086,0.1276388676,-0.3835273964,0.3456058991,-0.0600029352,0.0205883192,0.1801443596,0.484754582,0.2381553316,0.4420509931,0.0640075518,1.1088855308,-0.0061848629,0.3597046314,-0.3637160844,0.6696642817,0.2087972516,-0.147783405,0.2836234718,0.0886035123,-0.5231258371,1.2353144484,0.1886962007,0.5926148589,0.6220006586,-0.0720789972,-0.102407422,0.6975862759,0.5386054041,-0.1032309429,0.8761519072,0.6138880545,0.5963674176,-0.4308387077,0.3561740793,-0.3864241361,0.428048127,0.1721492901,0.3559423889,-0.5771278736,-0.4992315504,0.3858081889,-0.8838993042,-0.7910667959,-0.890502015,-0.2785444346,0.5766691739,0.2592122988,-0.5513149912,1.1821753273,0.5903072656,0.5345423904,-0.81485827,-0.1960056095,0.3761791391,-1.285445698,-0.68110835,0.492454593,-0.6110465179,0.1277163677,-1.0439671285,0.294928767,1.0587800229,-0.5964628618,0.6168727966,-0.4589757915,0.647333073,0.2221755973,0.0472388168,0.2317670662,-0.5966741173,0.707054424,-0.6744419,-0.1995151126,-0.7180450938,1.2317460852,-0.2936414184,1.1531873889,-0.3940348052,0.09311138,0.7262874495,-1.0553436179,0.1326682455,0.5861557523,-0.6394395589,-0.5916036505,0.3551618188,-0.1242257463,1.5314349146,-0.0734740492,-0.3134632367,-0.0102921645,0.4142066767,1.5994272238,0.1490954211,-0.4382324277,0.8698933082,-0.663654814,0.1253339061,0.7437665877,0.2466353133,0.3430619348,0.5860329169,0.9220419557,-0.3308008781,-0.2206898597,-0.1562761985,0.7500599976,1.4361141077,0.2180405073,0.1348748947,0.5791268345,0.7967074393,1.1743920978,0.3608111789,0.0373817379,1.204621554,0.6895571464,-0.6348934992,-0.4059704872,0.0353268,-0.1386277539,0.3181709129,0.0189635736,0.8045872613,0.8453197366,1.0539268043,0.6970995396,1.0618033611,1.1607585846,1.1995062062,0.1945480867,-0.9098475154,-0.1073670076,0.5383288636,-1.1622548593,0.2398495841,0.5480054936,-0.6959925862,-0.0778192518,0.6089002486,-0.2357561816,-0.4463204964,0.3460307002,-0.6181194344,0.0869635802,-0.9031027879,0.2012723078,0.753596972,1.6617665138,0.7504746696,0.9682868594,-0.0178126066,0.4093425749,-0.8953648013,-0.7936834523,0.2037320745,-0.0205855856,0.5195074299,0.2778247302,0.2453249954,0.7155261841,0.0541457203,0.4615866704,0.376096554,0.354821428,-1.0222723748,-0.7046304685,0.0364929965,-0.3042334744,-0.2636041846,0.4881172608,0.0648869343,-0.4501531507,-1.1099615126,-0.9931601715,0.3577986862,-0.2747565238,0.6079020727,-0.1854252184,-0.6831815285,-0.5345572436,-0.5952096873,0.0317613064,0.8174197396,0.5468052266,0.6759398117,0.6987863069,-0.7857414234,0.8933744829,0.7855266638,0.0924639367,-0.3524593626,-0.6850404717,0.1650454893,1.2489420896,-0.1086824655,0.1562017336,0.4780050123,0.4705792308,-0.1824332152,0.4271160173,-0.5927214289,-0.680083231,0.0673679015,0.197779298,0.6415309489,-0.7730834623,-0.8800348635,-0.1731656461,0.1023581924,0.8523939468,0.2614461163,0.9689930964,-0.5990869558,-1.0587060657,-0.3799649194,0.1898729486,-0.7321179595,-0.3481942035,0.4549973583,-0.3046078903,-0.3769733657,0.968153481,-0.2031231427,0.8892323029,0.4029991376,-0.3859929188,0.7946643525,0.7004809192,-0.2823115342,0.3372226194,0.5052778896,1.0389276071,-0.031212807,0.8311559518,-0.491184079,0.2766732594,-0.3777916603,0.4710711269,-0.7154614582,0.4834145598,0.1775401442,-0.5262339845,0.3296767718,1.2520292135,-0.2444982424,-0.5290756305,0.2129245315,-0.005419651,-0.024312673,-0.0843600516,-0.1835332953,-0.8750297134,0.2651736254,0.7625631913,-0.7215337678,0.1537203807,0.3036053721,0.0818254988,-0.5613678678,-0.7031224523,0.3711991373,1.2794599962,0.3962807199,0.0258882431,0.9328534967,-0.0436284836,0.3015434385,-0.0166746503,0.407279894,0.2368535822,0.4929626625,-0.3275021205,-0.1209944372,-0.2742377801,-0.5957683138,-0.184768695,-0.2859340682,-0.777008219,-0.7937974262,1.1739710392,-0.7796623102,-1.3072324637,-0.1532709368,0.2947741305,-0.0729469394,0.5025049644,0.5607502172,0.6459347141,0.0413821309,-0.2944963643,0.7935468456,-0.263226158,0.4976976046,0.6452547585,0.0262290083,-0.5360514094,-0.5823356132,0.4951895258,-0.4433713784,-0.0723444449,0.4913253758,0.2752551992,2.3879435107,0.4253213668,0.5648648429,0.8807896895,-0.8856587628,-0.2688232519,-0.9810090023,0.9832169042,1.2168873709,1.1838953245,0.0827670912,-0.5424848167,-0.0270067773,0.2944229192,-0.1295267431,-0.8136988764,0.2430437832,0.3018631317,-1.2288572722,0.3900256605,-0.2235535806,-1.3115972039,0.7776927795,0.6058442389,0.2376028467,0.4427760164,0.6462707378,0.0334298702,0.0254297496,0.1789135117,0.1142437399,0.9392422028,0.6888109304,-0.70291861,0.5760554781,-0.0798188253,1.0483154537,0.2545294585,-0.3129316972,0.3296621765,0.640505724,0.6388210993,-0.2452418718,0.2815834613,1.2746464116,-0.107206397,-0.1814771081,-0.9563573948,-0.6072433235,0.5311672061,0.2018045305,0.7823252521,-0.6824742542,0.2572378655,0.3801029895,-0.127398571,-0.2253130068,0.7736570624,-0.4595543674,-0.4066773107,-0.4761213872,0.4845992044,0.9662019836,0.2143078297,-0.6794378614,-1.2804005367,0.3318524767,-0.8483578799,0.8248983156,-0.3811503358,0.0391440412,-0.0489674456,0.392257585,0.2231811082,1.0040413969,-0.2467028568,-0.4842844087,1.2979647104,0.1511766424,-0.664519435,-0.8334627277,0.8428020514,1.353156999,0.1092975245,-0.1434609215,0.1387685024,-0.5507886544,-0.0353335572,0.1228251598,-1.5383985605,0.640429761,1.0655276175,0.864442692,0.2422854512,0.5708247931,0.4315567452,-0.157189471,-1.0802408592,-0.4986562748,-0.4117971251,0.5491910351,-0.5899796985,-0.5885084878,-0.2942070934,-1.1333147546,0.0945763042,-0.5275633012,-0.095069058,0.5230406422,0.1452963139,0.0624254251,-0.1928005877,-0.3017019187,-0.234275198,-0.2665285321,-0.3002005318,-0.4309866726,0.7946767627,0.9193815433,0.5922412136,0.2729822512,0.7676298734,-0.5011467903,-0.164278499,-0.3475283444,-0.7598785826,0.7410209336,-0.6318500529,-0.5928610878,0.9732569018,0.8246161762,0.6679896739,-0.4816190577,-0.3077814114,-0.4397923271,0.5235326046,0.6106356175,-0.4382111627,-0.7242091978,0.2739836149,-0.0481321982,-0.3760601996,1.0806004546,-0.2556430653,0.1622402921,1.0540759236,-1.0206797019,-0.9678644215,0.0593785324,-0.8169866492,-0.5669500971,0.3890649317,0.2212832364,-0.19612167,-0.1634083518,0.1069607391,-0.7835885128,-0.2978308184,0.4426906052,-0.8196648861,0.0099102894,0.2934464903,-0.4317598846,-0.5876021208,-0.0878456185,0.0631600934,0.2100091944,1.1576171679,-0.4863111039,0.7851580647,-0.5385032858,0.7876733243,-0.3644216872,-0.8541456213,0.8645943584,0.0035605071,0.4510821375,-0.4055373022,0.1038193801,0.8350175307,-0.2248011046,-0.5513507177,0.2317668461,0.8586065218,0.0808873415,-0.1182654463,0.5509502617,0.5229321443,0.8933772129,0.9373571533,0.8906217807,0.2113006734,-0.0030740971,1.3047124682,-0.1606102783,0.3305292519,-0.6539976145,0.3534352839,0.0106833378,-0.3395938525,-1.0016463005,0.6859065168,0.0357999155,1.5532332702,-0.5016144572,0.4537344327,-0.4686752677,-0.6464879038,-0.8278488994,0.6859179982,0.1396900585,0.8912102735,0.1135034169,-1.10184191,-0.7919227932,-0.2075098374,0.1762144769,-0.8047625923,0.3453979938,0.5575068721,-0.2723603798,-0.9856760279,-0.5872540382,-1.2730344611,-0.2271665004,0.5089519161,-1.0909260554,0.4772456594,-0.1662889692,-1.4627165812,0.891992375,-0.1396403787,0.4560916646,-0.440130881,0.5559076397,-0.3643636198,-0.1474811736,-0.3886654667,-0.2559842583,-0.0628933613,0.4230801087,0.0069852281,-0.762268449,0.9797300733,0.4753405599,0.9662225908,-1.0728363126,-0.6161523135,0.2601141353,0.0504669716,0.2046830144,0.3608046887,0.8951391811,0.2320126724,0.4539720519,1.0329489847,-0.3075795781,0.5397371559,-0.0788468795,0.2354047188,0.1480444216,1.8730874294,0.1789138194,-0.8232931952,1.1427148331,0.6058560513,-0.657297006,0.1072291528,1.0304627762,-0.6558990239,-0.0915326435,1.1199394796,0.2402749928,0.3366384964,-0.0172289663,0.2420377294,1.1353025117,0.7037623746,0.5875173154,-0.5157791801,0.1956115549,-0.4084697184,0.4373737065,0.4193851804,-0.1345892785,-0.3395032366,-0.6071509421,-0.7056661332,-0.492656602,1.0247807563,-0.5673683241,-0.9026162735,0.4147011946,-0.9880544567,1.1931894649,0.5541113612,-0.3396722996,0.9689791779,-1.2488591228,0.7042275383,0.8335025827,-0.1935268498,0.0233482444,-0.2131241946,-0.0315282001,0.3060745704,-0.0894197146,0.6221034622,0.0773349736,0.7988966194,-1.2403064891,-0.4680143949,-0.1655875188,-0.2038564022,-0.2565699277,0.9241844362,0.6706817873,-0.1131493112,0.1963067139,-0.288623518,-0.421402763,0.5043387546,0.3605794324,0.0264823124,0.2186865953,0.2546971016,-0.2341302211,-0.0676094958,-0.3340855344,0.1890277964,-0.985700916,-0.1801917998,0.2437575658,-0.3031738565,-0.8043594236,0.2653039285,-0.1765270476,-0.6039011829,0.1116862054,0.3627130126,0.0651155014,-0.8049161328,-0.2905876329,-0.2596021208,-0.1804272623,0.9316970091,0.7787948051,0.2224632718,-0.8476334151,-0.4759959567,0.8835826909,-0.4944459705,0.4270387947,0.1793014536,0.2368620182,-0.4289545464,-0.7352703668,-0.2454049217,0.136662346,-0.9913670508,-0.5019583134,-0.3447151416,-1.6363646316,-0.9885922702,0.2056042468,-0.9261136445,-0.0175226854,0.1985076302,-0.5713192311,-0.6303284038,-0.1697732501,-0.4016972796,-0.3040848808,-0.0915740647,0.265244926,1.2714273307,-0.5327097607,-0.0301568105,-0.5629620091,-0.104460878,-0.2748775363,0.4706189979,0.3526067394,-0.2157191274,0.4061995742,-0.3607556645,-0.1009464784,0.1647204596,-0.3134465574,0.5602120876,0.3082351081,-0.3322779773,-0.0831166874,0.1529138417,-0.0759081251,-0.2015618494,0.0567688103,-0.3490432046,-0.0013648406,0.7098742051,-0.1703085016,-0.3524490999,-0.0482396295,0.1208839939,0.4334035624,-0.6394664561,-0.6367204941,1.1994354779,0.1103608115,-0.4634063125,0.0767315391,0.8223824253,-0.0259978524,0.2948528633,-0.342269633,1.3688857842,0.7433164396,-0.3915724027,-0.1670117338,0.5882409533,-0.5448543994,-0.1201003901,-0.354354774,-0.3325705477,-0.5319401974,-0.1146697969,-0.0232180349,0.8000610369,0.0384393973,-0.4978810437,-0.4914583647,-0.1169235268,-0.201587084,-0.2639102792,-0.5056310864,1.2985813935,-0.1568126688,-0.8460676565,-0.7972304036,-1.0256808658,-0.3382415898,0.45943883,0.0143380363,0.1688474107,-0.6153390701,-0.5750076894,-0.083977012,1.0493251688,-0.6908300814,0.8360494491,-0.5073114346,-0.5154387728,0.6544834862,-0.2302863019,-0.8688192454,0.1865292719,-0.4271168681,0.2268320853,0.8462468361,1.1259744663,-0.6244827627,-0.6327314322,-0.7029880211,-1.1001591196,-0.2262400088,0.3591090266,0.103271839,0.3559114165,0.568173041,-0.4965443576,-0.0745509209,-0.0871771969,0.2495507051,0.5326040488,-0.1394073434,0.0326242757,-0.0282716938,-0.0678496956,-0.2256700186,0.1626680247,0.1444491401,-0.3964702519,-0.1750125245,0.0335328602,0.3640276457,0.5803777412,-0.1380596963,-0.442389074,0.5528666669,0.3503817794,-0.5455727097,-2.4160823535,-2.0540355719,2.172205245,1.3521583374,0.5459259778,0.2997007045,0.0642923532,0.1663154624,-0.3022145489,0.1723303059,-0.5593200159,-0.3039343526,0.3093021519,0.717447773,-0.013222324,-0.242600634,0.2077978998,-0.4561371969,-0.6728956254,0.5852500258,0.5414903798,-0.2335937563,0.0163995136,0.1274688088,0.6684113158,-0.1405125063,-0.4702157597,-0.2134117603,0.1890601585,-0.0180087108,-0.0007065859,-0.7765643485,0.781253179,-0.0138039704,0.3231351543,-0.1057110613,0.0376316877,-0.1748383692,0.7101393706,0.0195760316,-0.1433918014,0.1445721955,0.6210377361,-0.0920247773,0.5654504803,0.3361842784,0.4918544633,-0.3117043337,0.3056599361,-0.3968627197,-0.713985296,0.4630349126,0.4546668628,0.0725711423,0.4506612774,-1.2264716399,0.1485143311,0.2042806912,0.1927404385,-0.6219651596,-0.2381465268,-0.2852470632,-0.3817022792,-0.232052967,-1.5405326448,-0.4713213563,0.4685099713,0.1719372946,0.3258319452,-1.210193443,-0.3969382635,-0.5151973019,0.3154080315,-1.3652802909,0.2126213995,0.2444872701,0.0936290426,-0.1616936793,-0.8026183234,-0.4084326566,-0.6517093931,0.5226592785,-0.3076314978,0.4400823689,0.0785399862,1.282008438,0.9596924058,0.1426183092,-0.0496771635,-0.697427194,0.5209848144,0.1485020372,0.3822809855,-0.6024791344,0.2847451358,-0.4601111876,0.7057816826,0.7154193858,0.2945914128,1.0153778517,-0.0974829926,0.7850300927,0.6871531815,0.6498221409,0.4408932229,-0.0992500255,0.2494534357,0.0076392628,-0.6382755695,-0.1291464389,-0.1135288837,0.600765216,-0.7675280837,0.468706214,0.2895225655,0.2388829309,0.9364852311,-0.4323509621,-0.473941815,-0.0620428154,0.0704403056,-0.1343316843,0.1191031463,0.6939501188,0.1868240718,0.727321336,0.5632487583,0.9201521432,0.3314554573,-0.9680923767,-0.851165762,-0.3499985667,-0.0004654293,-0.3600719453,0.7797810279,-0.2962909663,-0.0224021884,0.3494582459,0.298341269,-0.6656363477,-0.7980091617,-0.8826095171,-1.0843182092,0.5539471269,0.4980119961,-0.5197013311,0.24538401,0.5979414164,0.1557363586,0.0998448702,0.466898308,0.7297268281,0.6900045038,0.1475085237,-0.754207297,0.6411306949,-0.5120430716,-0.8641073586,0.2319575952,0.7576971943,-0.5738314415,-0.7268356061,-0.6151308754,-0.04749438,-0.4568153511,0.1699070566,-0.5377098443,0.7887587345,-0.6071719925,0.1346598729,-0.8885345423,0.958263356,0.0503848504,0.7294037026,-0.9578848703,0.2982456954,0.8180465377,-0.5164417509,-1.3860533599,-0.6239553293,-0.1669810785,-0.7664609888,-1.0525128656,-1.0851565946,0.506415993,0.4902588001,0.1892385694,0.617471766,1.0557213517,0.9103979854,0.3223982151,-0.3719606306,-1.1259355494,-0.2657947904,0.8511995747,0.5846164206,0.31195315,0.0810033061,-0.3723583273,0.6119908392,0.8565940372,-0.549783073,-0.5017143436,0.3689692605,-0.8835092924,1.0668999763,0.9696064876,1.0222669547,0.6856062159,-0.5623722114,-0.1583226005,0.4235211141,-0.142200545,-0.2761548115,-0.3086324343,0.0158982572,-0.4670175024,0.7109951774,-0.2421534582,-0.3388853476,-0.6976636412,-0.4452670434,0.2440914996,0.452972071,1.3893888608,2.0644998491,1.5673067698,-0.2774658883,0.6247365362,-0.6551306994,0.4591622539,-0.0509782161,-0.5587654812,0.7191476705,0.5412290651,1.1411769437,0.0600934685,-0.0088711972,-0.308441099,-0.2850436483,-0.9399079634,0.0593658474,-0.5080545812,-0.3302833306,0.1110988673,-0.7365220316,-0.321519471,-0.3764984302,0.3606847955,-0.8606974934,-1.1020290295,-1.2924978487,0.3311082044,1.0079925235,-0.0589040389,-0.3079015462,0.5851937489,-0.8763129467,-0.0064402403,-0.3439175549,0.2581117341,-1.00929151,0.2779661261,-0.0461069273,1.0102708997,-0.2231981255,-0.9251242286,-0.7692066855,-0.8559960689,1.1295062347,-0.2662405909,0.0370697162,-0.1227436362,-0.3656686742,0.0060254258,0.2140430125,0.4250003275,-0.4339710123,-0.8956267571,0.4403613694,0.1655047881,0.3493678,-0.6623454793,0.9634469361,0.8290598154,0.7731730335,0.4350266083,-1.2815211815,0.6049299556,0.8316023821,0.0841114775,0.3694632862,-0.3310062986,0.2932704548,-0.0385012715,0.6208846991,-0.6443456184,-0.2238473771,0.6610034428,-0.0259763827,0.2171921684,0.7689834327,0.0185980916,0.5241372603,-0.4200077599,0.6034784663,0.0944191314,-0.9909213846,-0.4888276134,-0.5101574732,-0.240198713,-0.1712606516,0.3452982125,0.0020883311,0.6716472721,0.5976836004,0.1890509819,0.6556954896,0.6294175233,0.538167681,0.2388133572,-0.342047569,-0.1436054687,0.2492483113,-0.1859862037,0.3537979392,-0.131073415,0.4322023487,-0.0778430522,-0.3483442946,-0.3133832408,0.0228700614,0.9495954006,1.4208742816,0.7167077159,0.0583957146,-0.013542853,-0.3496338259,0.2838289349,-0.2871889154,0.3400480537,1.9016624041,0.93561351,-0.1085413082,-0.0090418475,-0.1193741181,-0.2816946828,0.0087454265,-0.2921452815,0.2426478037,0.7956457484,-0.1178508713,-0.1498638084,0.2502850281,-0.0519140092,0.4870159356,-0.0125236239,-0.1780795858,-0.5255151792,-1.88247802,-0.2884996649,0.4080958504,-0.0185398263,0.1036645041,0.6341799989,-0.0142734852,-0.2542801402,-1.6503009711,-0.4342942633,-0.3796115123,0.5876604984,0.3105643769,-0.4073820105,-1.1375567479,-0.1242272907,0.2177132391,0.0211248791,-0.0138482397,0.0787406479,-2.4130235688,-0.2494181285,0.2910076201,-0.0909043117,-0.7376334437,-0.2847831256,-0.0426470871,0.2915104338,-0.0397632112,-0.0382160991,-0.3136816858,-0.2693545008,0.8047796406,-0.8131559719,0.472112392,0.6239299393,0.5137169096,-0.5163976844,0.9106492187,0.3048357219,-0.2705908276,0.09766014,0.0847415071,0.1100621285,-0.2082660369,0.7302420478,-0.6157051079,0.5203940725,-0.4670456333,-0.3128338672,-0.5891331296,0.0894629276,0.1326628995,-0.2888769753,-0.507591197,-0.8022567883,-0.1638871209,-0.0615084908,0.4193209942,0.3285359364,-0.6111559174,0.7137057811,-0.7201862753,-1.2236083915,-0.2350140034,-0.457344043,0.2480834499,0.1215053991,-0.2306885089,-0.1357929885,0.0922671557,-0.2470751867,0.1609654909,-0.9334737827,0.4044637627,0.3812588049,0.0905035942,0.1681005734,-1.0296168082,-0.6284203829,0.5082316279,-0.441592426,-0.5414645574,-0.6261988044,0.2280554038,-0.1009525462,0.6894320494,-0.7008938133,0.1705199907,-0.1004682817,1.0368198506,0.6128347649,0.1158775235,0.4001210234,0.4886657634,-0.1570778397,0.1388522079,0.9114417079,0.1897659945,0.387388793,-0.7788205898,-0.5047935444,0.0417986797,0.2175170756,0.8793932471,0.7420349946,0.4343192603,-0.2590853037,0.8988434162,-0.482179323,-0.3498814103,-0.7023046873,-0.4644373478,0.6951595787,1.167986818,0.2715108133,0.2793025808,-0.4378854161,-0.8889281596,-0.5568199102,-0.0839549924,-0.3688816159,1.1092912674,-0.0339103348,1.0344616171,0.872477696,-0.5331474814,-0.1028517128,0.3919364424,1.0181974998,0.0745638747,-0.0767210287,0.0239294025,-0.6170665316,0.1555380273,0.7126598594,-0.1538668326,-0.0875175841,0.7806653785,-0.2482494792,-0.6651092454,0.2487916903,0.9179330142,-0.4774570141,-0.0035139521,0.9249818167,-0.6177509217,0.8370055454,-0.2546321496,0.9813389254,0.0495504702,-0.5826991407,0.8384206376,0.2646324974,0.5799529862,-0.8785565765,-0.705970287,-0.2062405702,-1.0596003853,0.6465656444,0.6244904862,-0.3377089858,0.8938102786,0.8410808501,-0.8420906857,-0.9180413816,0.9524910455,0.9299487535,-0.4539210112,0.4444593716,-0.2521521928,-0.2161170802,0.6189214967,0.8331793339,0.5857365607,-1.1426365596,-0.8357160857,0.8714603779,0.2802171521,-0.5842951662,-0.9169990746,-0.1756727655,-0.7122731691,0.5321029291,-0.8598748873,0.22829453,-0.7132422068,0.5290040846,0.3992996593,1.0621032638,-0.0099030311,-0.7006297836,0.235524703,0.7384393448,-0.1529551571,-0.5407178929,0.0985268651,0.553384191,0.0718644412,0.6628731443,-1.1180016066,-0.5210048164,-0.1048649895,0.4065559664,-0.1095080902,-0.2975115182,0.7339114353,-0.7784383392,0.0180685995,0.8034362402,-0.8621308483,0.5039686352,0.4617270986,0.7992279085,0.8022905264,0.4321951491,-0.9178027098,0.07522567,0.6567459115,-0.2237440121,-0.7420013742,0.2689698093,0.5267271118,0.0904435603,-0.2337859152,0.8525238513,-0.3108690449,0.520071091,-0.5457797743,1.0639630269,-0.9846807726,-1.0480503387,0.0706557263,0.191636347,0.0087971971,0.1922731445,0.1158099485,-0.6416130713,-1.108679112,-0.5052909407,-0.5103073847,0.9394507024,-0.8495475863,-0.6724691239,0.2356465359,-0.5894178894,0.5732587794,-0.5569739226,0.1568274563,-1.3565036583,-0.0904511643,-0.3942621835,-0.1164610118,0.4680116686,0.2723944847,0.8211471167,-0.1271057947,-0.3265203737,0.1708323293,1.0909864086,0.7343493977,-0.0151013094,0.2750199114,0.3297247246,0.0277219932,0.6941734893,-0.1925313767,-0.2615160608,-0.1000702502,0.2801931312,0.6349020426,-0.2371844699,0.3866551449,0.1078734951,-0.1946214631,0.1030656268,0.0430833996,0.2988535377,-0.2172274977,0.7661411474,-0.0646015037,-0.4847527571,0.2700494295,0.6066807123,0.4043389868,-0.0228690831,0.8164647779,0.0359782711,0.2258641118,0.483966801,-0.0119786239,-1.048343038,-0.0465549998,-0.8807917703,0.5098524259,0.13089898,0.7780450088,-0.3201826613,-0.6896286188,0.3195175875,0.6223776737,-0.5567374021,-0.7931846596,1.0017674848,1.231198098,-0.3592255213,0.4443272756,1.1031558675,1.1041401158,0.5924797146,-0.7902034788,-0.8762390542,-0.1252292857,-0.397361133,1.106928106,0.1260687388,-0.4768721999,0.0213080717,-0.3584862496,0.8917419261,0.7466630371,-0.8099713524,0.3882977137,0.2565546459,0.7431004387,0.7121946047,0.4654004814,-0.1334972202,-1.0407422535,0.6210784639,0.3087845754,-0.3516871603,-0.3666717682,0.2249873498,0.9557924225,0.9089376141,0.534407341,-0.6256746248,-0.6971604722,0.1297754495,-0.8779610075,-0.8465450658,0.7879894308,0.4768540562,0.8950582671,0.8318437115,0.4761956106,-0.5470210559,-0.6593175292,-1.686921348,-0.8756649972,-0.9486516043,0.4718216455,0.1683850643,-0.5031675579,-0.5014960802,-0.7159137828,0.0912238654,-1.4011340492,0.3623223418,-0.8062335638,-0.0706718214,0.2559450124,-0.4382774432,-0.3773359806,-0.7440379542,0.000029944,-0.324026707,-1.0451281659,1.0038343891,-0.380650949,-0.9190665628,-0.9043077851,-0.447156185,0.6869393417,-0.5381108204,-0.5581431654,-0.1370941847,-0.1823521356,0.4097629442,0.8181458937,-0.0743325867,0.0706617624,0.3258004251,0.252497707,0.2256505748,0.3061207191,-0.0356290117,-0.9102431679,-0.5401902725,-0.3807298438,0.2071101766,0.0485416277,-0.8908386028,0.3481729734,-0.8216458784,0.0344355869,-1.0538132974,-0.4913810191,-0.9395185504,0.1388457867,-0.0502145321,0.6069967048,1.2951206452,-0.2991610293,0.4453405473,0.389793486,0.6179503091,0.256085676,0.0854407974,-0.4022870784,0.2512661862,0.1713188524,1.8712656576,0.4316456248,0.604329347,-0.0470251641,0.0313238176,-0.0934051822,-0.2021307334,-0.5211109209,0.1547079239,-0.9301670804,-0.1534614141,0.6147426058,-0.5046671377,-0.8540975014,-0.5853715735,-0.4403032136,-1.0714958978,0.9058849564,1.010253247,0.3962292022,0.6981066238,-0.3376840264,-0.2300670156,-0.43485976,0.8087102324,-0.1764424434,0.8805745028,-0.4193557659,0.6680203481,-1.3774478743,-0.3569410588,0.2797867308,-1.0722429227,-0.3913664471,-0.8480418125,-0.0861913896,-0.8771743399,0.7459985888,0.3031743001,-0.1826294739,-0.1046002236,-0.6642047232,0.4545294585,-0.5907648272,0.1878341495,0.4571584153,0.5151002845,-0.7563301684,-0.4940094771,-0.1085816466,-0.8017054215,-0.0540061377,-0.3327495678,-0.1918441021,-0.9593065855,0.3850376375,-0.007832616,-0.001737561,0.0109775069,0.9947622673,0.4002636678,-0.4695704931,-0.2021677946,-0.3571281814,-0.2574116464,0.2665748899,-0.5282165743,-0.4235054545,-0.5508822983,-0.2731629936,-0.5947390673,-0.4289823093,-1.3426735843,-0.5385786681,-0.6082941245,-0.9246886094,0.0007963287,-0.7840764618,0.5592050621,-0.8569866614,-0.037169012,0.6973768135,-0.1632699035,-0.5315438258,0.6297910022,0.4297215645,1.1891391764,1.2159679144,0.1516699569,-0.2103237388,0.929498092,-0.2101035541,0.4502585951,-0.1233050158,0.4082916493,-0.2368611115,0.1802414706,1.0234360039,0.2391997146,0.5453325015,0.354182429,0.5867870949,0.7170040897,-0.3713938402,-0.3136549086,0.4365323287,0.3389024358,0.2331578588,-0.8290456057,-1.2239746517,-1.0243598817,-0.2498130582,0.2194980118,-0.1426509115,-0.2244945963,1.0249621021,-0.2518574789,0.604086278,0.2887189582,-1.4389889386,-0.6939761738,-0.3152229363,0.5688109258,-0.1839544672,0.1978453374,0.062747534,0.0638637026,-0.2825974977,0.2424568,1.2137666208,-0.7344174477,-0.3710343211,-0.3877812655,0.2534667218,0.5242178006,0.0277031657,0.4711267444,0.0537172761,0.5036360714,-0.1700783503,-0.5019815084,0.6959109847,0.4155694902,-0.1241400125,-0.4341913445,0.7450372206,0.1490232604,-0.0590715641,0.3411503412,-0.1939849267,0.3399759249,1.0494440475,1.3972061192,1.2364108959,0.5803129841,-0.2069114635,-0.6157842805,0.5208799173,-0.3057796725,0.6401261533,-0.7417670271,-0.4679647893,0.7990317805,-0.1134606608,0.8322966725,-0.6680540446,-0.0203274081,-0.262682588,0.9602473495,-0.0958938896,0.8363878353,0.3775329965,-0.5637803462,-0.074495651,-0.0951610966,0.2154741077,-0.5388988176,0.2439141888,0.1921310336,0.3599127986,-0.2203570226,-0.749148294,0.5933778184,-0.3218358249,0.5152946602,-0.4973645792,-0.5915213357,0.306203578,-0.1094737917,-0.2169977296,0.5637690996,-0.7552028881,0.4132210267,0.7769705067,-0.9228760371,0.6146136953,-0.8215814222,0.5458947798,1.0677353681,-0.9527189816,1.1796339101,-0.2541131612,0.8154411949,-0.0782026437,-0.1161336419,-0.1775819536,0.3305822275,0.1134796106,-0.0125300753,0.1694357059,0.9897399582,0.6726063898,-0.137600563,-0.4034511343,-0.2404694115,-0.1693910803,0.8319875532,-0.2890097118,-1.8741336099,-0.8631698606,0.583809726,0.5227952464,-0.9515182158,0.1798808359,-0.8532969957,0.467027323,-0.4712828417,-1.0282055997,-0.8636865185,-0.9566956738,-0.3519706693,0.6840665527,0.3466430476,0.7407535299,-0.1121789288,-0.9046805476,-0.5116063584,-0.8386435559,-0.4786840442,-0.1685783185,-0.605232632,0.582228706,-0.3876667831,-1.0450922183,-0.0925302912,0.574507151,-0.0810563073,-0.7116710527,0.4324692539,-0.54949464,-0.3254999482,-0.3009439614,1.0360850946,-0.8633243182,0.0954314994,0.4597098825,0.0035310076,0.7837141356,0.0208156402,-0.2840092379,-0.3212656207,0.9062555041,0.4803241838,0.4630391629,0.2938929782,-0.8334180796,0.8143615307,0.2123181003,-0.4602345426,0.3763823562,0.1414671151,-0.6332225812,0.3056551671,1.0051187545,1.1200404945,0.280090538,-0.619421151,-0.3413801033,0.2786601746,0.2620854937,0.5550560928,-0.1990872554,0.187794988,1.0822637495,0.9166075699,-0.0915477915,-0.2163236449,-0.2693600646,-0.7836319314,0.31994188,0.0331783361,0.5641915264,-0.6572163652,-0.9671732542,0.5395844086,-0.4259565903,-0.7049155539,0.187456122,-0.2418450911,0.6742755058,-1.2151390275,-0.8106072214,-0.9043325069,0.5020445448,0.4278757092,0.4099708999,-0.1020383466,-0.1371028252,-0.8366811643,-0.1621465405,-0.7861278264,-0.8025500018,0.0168444337,-0.3855584134,0.8558610977,0.0011580232,0.2202204659,0.2017717837,0.458483213,-0.1485489748,0.6753717825,0.2233913166,0.0982802306,-0.3768136899,-0.8794602107,0.030133449,0.0113068513,-0.0126751119,0.0370052317,0.312988203,-0.3220595019,-0.2304106333,-1.5076399433,-0.6352987211,1.5273920463,1.293488691,0.2155662342,0.4370870874,0.2641870433,0.4939106902,-0.2174964491,-0.671191718,0.1371489162,-0.0820933397,0.8090342408,1.0051346589,-0.1469512121,0.3000208192,0.98707408,-0.7862985592
   -0.9550280665,0.4278359302,0.6361308509,-0.2293650439,-0.2640833981,-0.335403573,0.1082467108,-0.3752362949,-0.8089543002,-0.0931708641,-0.7141875519,-0.4493636504,1.0799424612,-0.2184883934,-0.0503658586,-0.0787768121,0.4532814309,-0.4114731442,-0.7868934609,-0.4074086999,0.2534053359,0.4569839356,-0.238189968,-0.7658756745,0.851166955,0.3071329889,-0.5179248629,-0.6333077704,0.6297331521,0.7490048006,0.5686497536,0.8243996308,-0.6860260205,-0.4009839902,0.1402689684,0.0392472791,0.5322024561,-0.1621855124,1.0770579184,0.5643639001,1.0608640964,0.2519395551,0.2874648597,-0.5474108603,0.561040123,1.0037341533,1.2335356375,-0.0236125682,1.1971990996,-0.2362265771,-0.3614320142,-0.3618242181,-0.6771107053,0.5130639102,-0.0316426482,-0.7245519815,0.4189469376,0.6863170514,0.5262265608,-0.1504530563,0.7952816406,-0.2346854568,-0.3685595012,-0.4297459178,0.2416982862,0.1418634946,-0.4079032678,-0.2281330627,-1.0433986692,0.4699971729,0.2533821101,0.1129061806,0.1452576264,0.4183445819,-0.7249005088,-0.2314832184,0.0173758445,0.1063362002,-0.445182076,1.2793991571,-0.794902254,0.8121795044,0.6142217001,-0.435153891,0.9821276043,-0.1830748672,0.2512270032,-0.3690018194,0.7996317071,0.5349093239,-0.1091880819,0.4032040663,0.2414903773,-0.6317589647,0.4638664001,0.8161821346,-0.9897079156,0.8762857705,1.2857613784,0.4827892484,1.1716774996,-0.4560737337,0.3932205017,0.1335665134,-0.1620617546,0.964867865,0.9440848366,1.3947984598,0.9948570401,-1.0277399401,0.0938764573,0.5019629436,0.3296503066,-0.0248053343,-0.4058147369,-0.0592623551,0.4239324875,-0.7940665529,-0.1131915266,0.6292915271,-0.1612488768,1.1295733635,0.1962732259,0.9142867106,-0.2337522614,0.4597002818,-0.7278410945,0.2205681223,0.2447948135,-0.1729616177,-0.0958806134,0.7114232175,0.6487813386,0.0806752097,0.299560611,-0.7295146419,0.3798686782,0.0326274243,-0.425086358,0.3722328854,-0.5672094424,-0.330933674,-0.9723937261,0.6583801211,0.2621715626,-0.1056043259,1.055534154,-0.2690435991,-0.6152806443,-0.6578995305,0.405762875,-1.084024818,-0.3938296898,0.3015065208,-0.2817438314,0.7927655898,-0.3312903285,0.3004940949,1.2829652901,0.5501839144,0.392685246,-1.0556957115,-0.2197017809,-1.3290382005,-0.9682867255,-1.4242417999,0.8180346413,0.3917850706,-0.2775147843,0.4511302281,0.1156694504,0.6290672933,0.2018377413,-1.079314055,-0.1192577438,0.1412283621,1.0698262828,-0.3097885264,-0.015129073,-0.5332002437,-0.0205272185,-0.3945782674,-0.3612692088,0.727364104,-0.0839259917,-0.1100656809,1.0510669636,1.0735821367,-0.0647466752,0.309520153,0.9602268222,0.7617672804,0.0111903406,1.0648752563,0.904061302,-0.0184959821,-0.4695363296,1.017978696,-0.3267887961,0.4289855575,0.5123259152,0.3843828778,0.0889531688,0.4092359508,0.9811526398,1.7343317953,0.7290376631,0.1484581311,-0.2462333341,1.1082706789,0.888551752,0.8564906825,0.2434143479,0.0154762554,1.7486501289,0.4666044906,0.4630887264,0.2295808596,0.7043401355,-0.1088996199,0.1216655731,0.1219076886,0.9896836643,-0.4194279714,-0.0754660441,0.8866563783,0.3979963527,-0.4849439109,0.0487096127,0.5012401775,0.8652974577,0.2984299845,0.2178114185,0.1650687008,0.4355355122,0.4087899998,-0.1319069926,-0.2667154706,0.4533443136,0.0896832318,0.5481810538,-0.0338015573,0.0662197411,1.2450140204,0.4043724043,-0.9417644237,0.3957099203,-0.3627749122,-0.832952484,0.7726846741,0.4999722253,0.192823156,0.5080861331,-0.7162013583,-0.2328817571,-0.9451958665,-1.0840700312,0.7515522503,-0.551993547,-0.6505924561,-0.812676354,0.8997188386,0.6554789556,-0.9119486872,0.2655104762,0.6652565991,-0.9264719595,-0.0820780283,-0.0349450348,-0.3592718304,-0.1711051411,0.160333408,-0.0531633502,-1.2973685476,-0.0891933576,-0.2497521747,-0.3308545608,-0.1680623336,-0.4958261034,-0.3693050141,-0.2744693742,0.4832692819,0.2524174901,-0.4632111873,0.5905373567,-0.5980354211,0.9544677938,0.7406742553,-0.7472379421,-0.328388574,-0.8477889049,-0.9471378518,-1.0529013612,-0.9258350732,-0.6456862475,0.6272700143,-1.0297548752,-0.2425122117,0.1083691281,-0.1363035958,-0.2872217028,-0.6229365782,-0.0196793435,0.2032621408,-0.6269740206,0.658249522,-0.2175491361,0.2724736437,0.291652285,0.3783527517,0.4210340793,0.1557736343,0.853726395,-0.831948211,-0.8229363085,0.1575142852,-1.0070405313,-0.0225024596,0.3088590246,0.2176633636,-0.0180548781,-0.1877940909,-0.7600964944,-0.4519701452,0.0529753985,0.1651027545,0.5282018899,-0.5689715683,0.8010901668,-0.2184286996,-0.1595338852,-1.585654169,-0.6341411586,-0.403808636,-0.0857791975,-0.1539301201,0.4186266383,-0.5426562162,0.2777197246,0.903102041,-1.1276941183,0.2020759606,-1.0235183993,-0.3438987744,0.1278704771,0.2277341091,-0.1477637015,-0.5599649773,-0.2446858293,0.3417407732,0.0245364799,-0.7630900034,0.4088492317,0.4918730954,1.1791901818,0.4619535258,-0.3379573719,-0.2643164625,1.0935917895,-1.4298238951,0.0611245417,0.2163621319,0.2075469373,0.4930586324,-0.1882621684,0.3457712539,-0.1882657533,0.1765824765,-0.0421516709,0.3785376397,0.0722133954,0.1618462401,-0.1877873662,0.4857686326,0.2551965312,0.0195641485,0.5101861122,-0.1935767028,0.5390429844,-0.3687534618,0.402635604,-0.14523092,0.1679530242,-0.5714651354,-0.5714304512,-0.7211507674,0.0535791833,-1.0703129537,-1.0027340952,-0.7759104952,-0.4353783251,0.5491585982,-0.3198467096,-0.1211476753,0.399256978,-0.6314522344,0.5629721337,-0.3578824476,0.6243687038,0.3327276105,-0.0437863109,-0.2333380057,-0.077754905,0.8097789666,-0.3163849964,0.4314168911,-0.348262731,0.0708076824,0.4945059361,0.108199332,-0.2286466597,0.124577792,-0.1830692876,0.2276492243,0.4284241009,-0.043296922,0.2058092857,3.3300389494,0.5815986855,-0.2923436062,0.1671988593,0.4552547261,0.5864412078,0.7606757474,0.854705224,0.4790606845,1.2252770709,0.376725765,-0.5834612332,-0.6505197088,0.9305595804,0.8019960288,0.4135291508,-0.1501865051,-0.0715467298,-0.2313383722,-1.025010175,-0.4007478648,-0.3294082074,0.8874590677,-0.1351145579,-0.3150733663,-0.5047133324,0.420535042,0.5540292833,-0.86475618,-0.2129461274,-0.1041563336,1.0712596423,-0.3346358854,0.2857722827,0.4739264514,0.4217718192,0.3647646084,-0.4026078424,-0.2226647059,0.652376326,-0.3249160957,0.3576650682,1.0595188953,0.4431739975,0.2850106991,-0.2657556578,-0.157439155,-0.2608610736,0.8655703091,0.8886828798,-0.7631537238,-0.0194116548,0.8239009138,-0.1585011337,-0.5774232482,-0.1172419545,-0.7757057911,0.2866422399,0.0771976927,-0.0007772618,0.7593579643,0.0242382765,-0.45002726,0.2324335572,-0.0643913457,0.275452778,0.3126716129,0.2465551469,1.3725243358,-0.1031793089,0.4080912358,-0.002668135,-0.0904522395,0.1830803467,0.1756827095,0.000923436,0.2592054643,0.4386053606,0.5124430997,-0.2892546443,-0.4983913924,-0.6677271796,-0.1384397068,0.3527298979,0.3577817356,-0.0131259261,0.8042879658,-0.0002350812,-0.3502087666,-0.0854491451,0.6975507049,-0.2536846152,0.705389699,1.1401099225,-0.8737505618,0.4951576464,-0.7501825724,-0.413874952,0.0298950895,0.2091319549,0.9347612193,0.1623947481,-1.0733210736,0.6469865628,0.0481679137,0.5836074045,0.6417957893,0.3726375672,-0.1818212482,0.1238339886,0.7696329303,0.1545905851,-0.869207035,0.5386355722,0.1828965062,0.6699726633,0.0089006769,-0.8471924431,-0.0572468149,0.2615020537,-0.0852740614,0.9218179902,0.111029414,-0.3380767595,0.7452467735,0.6835387783,-0.4934127323,0.3722402003,0.3522066125,0.5894338337,-0.7034749961,-1.1266976422,-0.2272123152,0.0039491515,-0.1394071763,0.3517271259,-0.2232559784,-0.9431715618,0.2811654124,0.0533620872,0.191384718,-0.2008003349,-1.0823128706,0.2270710288,0.1687127595,-0.108963185,-0.9291158243,0.095436486,0.5741390853,0.0552412442,0.1250603096,-0.1754633134,0.3940227444,-0.060411699,-0.2066747465,0.5554735341,0.0170777994,0.0096014959,-0.6976917199,-0.5072874141,1.6747397115,-0.1015353801,0.8861041764,-0.427062048,0.2533761638,-0.184652079,0.728251286,-0.8806912216,-0.2442125512,-0.1593320211,-0.5916957942,-0.6589231865,0.0436793867,-1.667246937,1.8896188621,-0.299549116,0.311923634,0.3389939746,0.0689308695,-0.0157775546,-0.1658727345,0.4964373066,-0.0813172524,-0.6555648672,-0.3051242608,-0.6631802274,-0.26004323,-0.0834613762,0.0066023458,-0.4153634245,-0.534524838,0.0302110809,-0.9877695983,0.548111462,0.566009757,-0.3296807391,0.0394612793,0.0300960113,-0.6316847833,-0.1929127883,-0.1431872706,-0.0520388189,1.3349678333,1.1335008505,0.0846197299,0.4912096605,-0.0074007472,0.3100364084,-0.4410520563,0.1166948828,-0.6312825034,-0.0536054216,-0.3334216249,0.1376230886,0.2516416252,-0.067585661,-0.5342244261,-0.0544757749,-0.651308696,-0.3461808617,0.0489456859,-0.1171230284,-0.1222071487,-0.5009094069,-0.1541455,-0.2298654904,-0.0378258165,0.7769408392,-0.5344139717,-0.273723072,0.3752763472,0.1972846961,2.3892043741,-0.7386153805,-0.1227781665,0.9184671289,-0.5318385795,0.0689235918,0.3670677732,-0.3332205952,-0.5603440996,-1.1650604605,-1.0054815996,-0.5288428264,-0.0363681942,-0.2350758648,0.6874326451,-0.0029575059,-0.6213226265,-0.6184608002,-0.3499752848,-1.2590138638,-0.6013418704,1.0581818751,-0.6671637696,0.8444492535,0.4967724311,0.3378140766,-0.2399207534,0.7774741479,-0.3778700334,-0.0195544812,-0.2214461613,0.1888038582,-0.3618589016,-0.5173816676,-0.4647579679,-0.3655671885,-0.049237296,0.457623012,0.3616567638,-0.8245670671,0.1544568752,-0.3620995317,0.2627981024,0.0667650242,-0.2964172626,0.2755502042,0.2038878797,-0.638444343,-0.4951411176,0.7665763617,-0.1085181442,0.8896924809,-0.3963911425,-0.230526374,-0.7184216587,-0.341884376,-0.6319231142,0.6188253278,0.0700649612,-0.0866620912,-0.1074210638,-0.2873081878,0.0769538121,-0.3500052305,0.6318129013,-0.5528626088,0.0642463597,-0.2100112761,0.2617046686,0.4921976735,-0.4407072991,0.0409806477,0.2220157196,0.0091233755,-0.1252379734,0.3049242961,-0.4220053104,-0.2621415864,-0.6848716955,0.2689401457,-0.625327188,-0.0489718461,0.0329697464,-0.2236326544,-0.1903401888,0.143235139,0.1902701144,-0.2965694864,-0.360002061,0.6725759277,-0.2256908866,-0.1524928585,0.0395792213,-0.3574429394,-0.2366215778,0.0021253261,-0.2182203762,0.2148519409,-0.1841965751,-0.5939822644,0.2037552231,0.2567006233,-0.3316980307,-0.7908337484,0.0595145256,-0.6384911238,-0.7651224243,0.2252160851,0.1537372244,-0.527592783,-0.2260786825,-0.4917378958,0.0314445564,-0.3106452412,-0.2475472638,-0.3471062865,0.6470922156,-0.5140520897,0.3485927048,0.485506208,-0.3202078409,-0.6576689423,0.2664759534,-0.2340629451,0.7665949303,-0.7040233922,0.8454897341,0.6266155202,-0.6387813469,0.8715631353,0.6158239271,0.4476549356,0.6273834754,0.9618620288,0.5467621468,-0.7341006038,0.4159689847,0.72540069,-0.6551361612,-0.2830178713,0.4167508086,1.0382939714,-0.185503681,0.8664460127,-0.2450409959,-0.1240430696,0.377763621,-0.6344486789,-1.3198000025,0.3636946446,-0.3189796899,-0.1620954672,0.6645214588,-1.2817145755,-0.8232685563,-0.6469092313,0.8847325064,0.3474881531,-1.2489320627,-0.1090836449,0.5630314484,0.4084564948,0.9233730822,0.7516631106,-0.451081998,0.6293753417,-0.4556588288,0.5042357247,0.5727073836,-0.2571156895,0.3311013916,-0.3917971681,0.7722559749,0.9778258219,-0.7529547566,0.1004929183,-0.4429049603,-0.0408477539,0.2738150301,-0.0970520779,0.3145146974,0.2305024655,-0.4568849203,0.0902494079,-0.3193742466,0.1434172855,-0.2555668591,-0.2050967785,0.4354732522,-0.3622170419,0.4732449659,-0.2420761852,-0.7671943202,0.4427635903,-0.0271948008,-0.7128538958,-0.3329593292,0.4060576043,0.5334863509,0.1809775447,0.3019085423,0.7592699952,0.6768676905,0.7126774243,0.4271609154,0.3077732782,-0.4021963238,0.2800623059,0.3845991277,0.074981125,-0.0738054252,0.0872856252,-0.3734376033,0.2704562084,0.8624262493,0.1213018441,-0.0291949343,-0.1734003864,-0.3096326129,0.0235677596,-1.0632725554,-0.5168120531,-0.3980450106,0.3275551966,-1.2793303181,-0.0531651511,-1.0541573145,-0.417832329,-0.9452363327,0.4667712229,-0.6611501947,0.3602750722,2.1187728596,0.0654167591,-0.1674446975,0.0138209341,0.1902735185,-0.9808525184,0.4176500372,1.0733663871,-0.5226251691,0.3347052581,-0.0405961019,-0.3724268886,1.0894661197,-0.0457360276,-0.3058917864,0.6334808385,-0.1162398544,-0.0297024539,-1.1452819536,0.2168947293,1.5401483938,1.5794569025,0.2407085379,-0.1037960438,-0.2786298373,0.1175689778,0.189559306,-1.1564580772,-0.3741802424,-1.150359991,0.1051895297,0.1838879532,0.8462779244,0.5022458235,-0.0537814306,0.7141103711,-0.1648677665,-0.6561496308,-0.8545004475,-0.8449420811,0.1199015904,0.0175035915,0.2961545697,-0.7742449032,-0.6738201261,-0.3613307779,-0.9048205497,-0.7231499679,0.2483617543,0.2331400541,0.2295726529,0.2869222365,0.9868483866,-0.4482836922,-0.2242316548,0.0842096873,-0.0295089216,0.3249631108,0.8717236797,0.6533958219,0.3388974966,0.0329674761,-0.2225724088,-0.4985716526,-0.2025087244,-0.0941718584,1.1966433054,0.3261530687,0.2082212077,0.1053033624,-0.2339637123,0.19623254,-0.4976283123,0.2078000086,-0.4162521186,0.2596961748,0.4995951009,-0.4271038419,-0.4331031646,-0.685099986,0.1508642766,0.7328409799,-0.2619314545,-1.1195993411,-0.8845372631,-0.3581584914,0.2049990833,-0.3797539671,-0.149933693,0.5460275758,-1.1028090667,0.0988643422,0.8127266669,-0.0961769136,0.2483927258,0.118537812,0.0909483811,0.7265307715,0.041774974,0.0246480123,-0.1422912029,-0.5004318063,-0.86700316,-0.937763601,-0.4787847961,-0.7914839427,0.2289371901,-1.0553344479,-0.4908794544,-0.4937663171,-1.0702535858,0.1424698893,-1.1062604796,-0.4086587225,0.1172187016,-0.7833433808,-0.390692921,0.5421629308,-0.7570418431,0.58948728,0.3688888558,0.1156688586,-0.5773586319,0.6467312276,0.8245071452,0.0283499893,0.1792557808,-0.1546730928,-1.0886166631,-0.376411254,0.4300106716,-0.6916055756,0.1857242169,0.8791449272,0.3411112465,-0.0738720018,0.8800760597,-0.3107192322,0.624297122,0.7397271493,-0.2628417995,0.0270857109,0.3269924458,-0.1078357923,0.0429188492,0.8216924903,0.270031634,0.4270743665,-0.2800457955,0.7727453502,-0.1169509078,-0.1222533515,-0.8009278459,-0.1801332679,-0.3107671095,-0.5595213544,-0.2816578961,-0.7529864996,-0.2694840558,0.9026217464,0.220889934,-0.4439746685,0.4283445681,-0.0979124379,0.3739990314,0.5666022807,0.3799165551,0.2965854926,-0.2426519183,0.7553880416,0.4553684546,0.2352130491,-0.573769636,-0.2068868999,-2.059832428,0.4854451182,-0.1620144526,0.5177375671,0.2136739708,-0.1271591834,-0.2711577993,-0.0308092012,0.4657733486,-0.1114904388,-0.0791318276,-0.1751092221,-2.258702266,-0.3086028628,-0.0223060232,-0.0781188232,-0.0244206875,0.1166922389,-0.0746839857,0.1106181325,-1.1654684814,-0.1980859658,0.162789638,0.1332368246,-0.0659675232,0.0186883452,0.0733272903,0.1746879148,0.1833601439,-0.3834964946,0.181860757,0.1494159995,-0.0341895526,0.1235585783,0.0973386004,-0.3253895268,0.2039191994,-0.3623249044,-0.3310952947,0.0087933171,-0.0049204212,-0.1785339849,0.049352401,-0.1742647451,0.2932846764,0.0144474145,-0.1114319407,-0.2190197904,0.0954538978,0.0692952503,-0.1756721982,0.0823114665,-0.0178534777,0.1865493678,-0.0332734068,0.1002816965,0.0299442629,-0.1597664558,4.8147647882,-0.5870882909,0.5046722832,0.7836780391,0.334692992,-1.0506292951,0.06417519,0.1113998912,0.6322910342,-0.1753410255,-0.9050186938,-0.015942718,-0.8033776206,-0.6893928472,-0.0503092657,-0.4007004363,-0.325232807,0.6109937424,-0.7611396607,-0.308518722,-0.6591878752,0.4560242175,-0.2930664985,-0.3553799368,0.0112806167,0.9147137735,0.903132705,1.1075249169,-0.1143336129,0.4479329882,0.6557551752,0.4949334755,0.3279244931,-0.060060166,0.0996523395,-0.056279666,0.4258001209,0.044449432,0.1218218567,0.2945962531,0.9746838364,-0.8351093229,0.3328533957,-0.4414902146,-0.3841328215,-0.3955130558,-0.644505496,0.8223299167,0.2583654849,-0.4662543706,0.3477121592,0.019278198,0.027332795,0.4863400552,0.7234972892,-0.2489268383,-0.849896507,-0.4261550802,1.6070047245,-0.4560061608,0.9150502081,0.4093406066,0.2251751426,-0.8780806961,1.6063638137,-0.3020988704,-1.1865063859,0.0864917389,0.6680807198,0.4481024897,0.7768212729,-0.3679987493,0.0022599136,-1.0124183491,-0.3449238982,0.5586214341,-0.3249185352,1.2132208552,-0.3720668909,-0.4665507565,0.1696619409,-0.4844478802,-0.4143935682,-0.4442283412,0.4073571707,0.6855267598,0.5123911961,0.2709116377,-0.2938003169,-1.1955997238,0.4078482188,0.8045708414,0.3138572497,0.4082725422,-0.3442949689,-0.0708429196,0.239243531,-0.2774946794,-1.1838019593,-0.3969297801,0.8069072745,-0.1067794273,0.8492225892,0.7857326248,0.2974425701,-0.8396190623,-0.5284843527,0.1127563584,0.5327216885,-0.3036724426,1.0053867581,-0.2903552758,-1.0553167703,0.0547672425,0.5748900418,0.7055752255,0.1234368588,0.691210172,0.537927563,0.7622632869,0.4368753591,-0.6151326766,0.9143641405,-1.2349590251,-1.3220133592,0.4937942896,-0.5615669491,-1.1424392002,-0.5315743142,-0.2618311661,-0.3394975097,-0.5930112311,0.1469091098,0.5176900895,-0.2400029247,0.585416124,0.5535388545,-1.2179948583,-0.453845975,-0.1316795177,-0.4908162056,-0.5665252001,0.4083530976,0.1467715217,-0.0076031513,0.2120104866,0.3894001365,0.7615051209,0.7557859693,0.2568072914,0.549130189,-0.9053786382,1.2928258286,-0.5126765795,0.1853719299,-0.0158702025,-0.5907591731,0.2110096675,-0.7544098788,-0.4145548785,0.097106315,-0.1711659469,0.2000896908,-1.0302203748,-0.4000061627,-1.0208200452,-0.8486273832,0.1119666366,-0.3084472213,0.3836534879,0.6032411035,-0.0126194003,0.0047837048,0.0471464424,0.4044429759,-0.1211261253,0.1402662022,0.5810777995,-0.075621063,-0.3224082511,0.3669249975,-0.2266574238,-0.0949716101,0.8122426505,-0.1513305389,-0.4500533876,-0.4436542802,0.4570447634,-0.0149957843,0.4194325591,0.880500074,0.1417578923,-0.7981697249,-0.3443213712,-0.5965402051,-0.466155032,0.6483594504,0.0906389504,0.304312798,-0.2521957772,-1.4620311715,-1.1981825438,0.3899730935,1.0254460412,0.4845818848,0.5187115043,-0.4510247207,0.3673472658,0.3329092055,0.6016639727,-1.0067674826,0.3664428762,0.2121162323,0.3098270565,0.1119598546,0.5723577577,0.5753030713,0.4890592817,-0.2600355299,-0.3416974293,-0.4325135811,0.089737714,0.1921182953,0.0773829623,-0.0161559549,-0.3684927507,-0.4453844157,0.0794342773,-0.6072697624,-0.5444107051,-0.0851601117,-0.6891904386,-0.9862539597,0.287721467,-0.1455496309,0.0180498967,0.1471399441,-0.2732020334,-0.0001659075,-0.1266151614,0.0003860508,-0.3070925248,0.7327248176,0.1711259956,0.5833524968,-0.2494979017,0.0533364117,0.3800393281,-0.3581838495,0.6269952568,-0.3357824693,0.1772931063,0.176203381,0.1687875919,-0.0673221744,-0.0196008376,0.0475077503,0.4563736675,0.2044382005,1.324966962,1.180588925,-0.3691097988,-0.2127867484,0.4123694046,-0.319736197,0.2259436134,-0.6683353127,0.2725170626,0.0623663393,-0.004904998,-0.045249067,0.6642470531,0.4534525902,-0.0754964211,0.096290139,-0.3057116829,0.1508828672,-0.2382550579,-0.2005819584,-0.5764047199,-0.2072501976,0.1386514609,0.3869158205,0.0497604222,0.0664381187,0.6795786009,0.0960676606,0.0664967257,-0.2254182796,-0.0875223736,-3.30209269,-0.3338957948,-0.116064824,-0.3574969953,0.0119812164,-0.5817325539,-0.7875836016,0.1330762574,-0.6062853651,0.0840079077,0.0272560885,0.0187263066,-1.3616729395,-0.041878508,0.164858623,0.2029977943,0.9157289011,-0.1074528783,0.4944508884,-0.761660264,-0.1139442643,0.614033137,-0.5157153886,-0.0460748788,-0.3768871277,-0.011756984,0.1527363323,-0.5685115228,0.9441466675,1.0252159725,-0.8744342637,-0.8833181325,-0.852404858,-0.1683119511,-0.2840622413,0.5537035624,-0.8614634444,0.4488344286,1.1186728685,1.0270765858,0.9793710551,1.5064415855,0.4009868754,-0.1458646223,0.5020451109,-0.1755257361,0.0553608346,0.2835379237,-0.0493067534,-0.6968059897,-0.2455215045,-0.2810305983,0.2819818985,-0.2660872952,-0.2266496183,0.2364779235,0.4612212018,-0.3516213002,1.3062579868,-1.168767093,-0.5443131358,0.3237315137,0.5421100342,1.0835670767,-1.0875941525,-1.2290981646,0.2238079877,-1.0670745529,0.6283263101,0.909460152,-0.6522675974,-0.4074178063,-0.2209748057,0.0599515936,0.6557662202,0.4410318873,-0.8781154634,0.0130836611,-0.502936268,0.3885161494,0.3105473071,-0.2929900256,0.3714653628,0.0656616133,-0.9750857425,-0.6310956601,-0.833722862,-0.574319955,-0.3560009374,-0.0595325283,-0.7850611574,0.3839967907,-1.3623218091,-0.4604598963,0.2885158126,-0.8105621094,-0.7291759,0.8182306092,0.1915859093,0.217053049,-0.4583672498,0.3751125284,0.049201738,0.4992782123,-0.5779087163,-1.427395646,-0.5345452875,-0.3236027878,-0.9065840446,0.1274512961,-0.6808601357,-0.0399216099,0.3201969439,-1.2920671451,0.4293792848,-0.42001817,-1.123471213,-0.9006680461,0.7483218237,-0.7553996751,0.181043641,0.2612994565,-0.4277701158,0.412025748,0.3864853105,0.6130297225,-1.1249289672,0.2754436372,-0.1613224972,-0.4932580434,0.0436185549,-0.3474219505,-1.0061437982,-0.3735212265,0.1915764781,0.4691710979,-0.0725807903,-0.8559429948,-0.1587805054,0.9335432065,0.7905751051,-0.6934973292,0.313349879,0.0236644005,0.3363228636,-0.2271591926,-0.4858601134,0.1243312472,0.0963845066,1.0599516713,0.3775849025,1.1183328981,0.7412778467,0.4599925131,0.7024352837,0.2458162368,0.1758370152,0.8077341979,-0.1827257359,-0.0151071308,-0.4623761221,0.1054370087,0.556342069,-0.4904736095,-0.0423297983,0.4665620954,-0.2805458885,-0.4085770388,0.3982562308,-0.2350794027,0.2447965267,-0.0773924042,-0.454814906,-0.7283871715,2.1006384922,-0.5061562436,-0.219860239,0.4338920255,0.4512702692,-0.6217156199,-0.3994505649,0.3454097157,-0.1988563584,-0.0446278683,0.1908350399,-0.1834224308,0.5850389895,0.2367480667,-0.4033552722,0.3700927845,0.1584646069,0.0077266018,0.0806197797,-0.6130226257,-0.6092371293,-0.2952519317,0.6695482805,-0.4735267122,-0.1693502925,0.089027047,0.7528568258,-0.4064829485,0.0318444345,0.0039706671,-0.4360667361,0.1612771331,-0.1097889694,0.6644948405,0.3817805261,-0.7329642626,0.2448925813,-0.4620395009,-0.370088928,0.3430544156,-0.3808796222,0.2948441541,-0.451026194,-0.4084966096,-0.2414135357,-0.7442547706,-0.052738451,0.0214204607,0.7312505022,-0.1650590844,-0.609409307,-1.1566627775,-0.8979183011,-0.5557893173,-0.211662618,-0.5938332678,-0.3921665979,-0.1784582991,-0.3459291055,0.1441300254,0.8800192343,-0.2915436344,-0.6445877516,-0.420969955,0.7762560849,-0.2610374587,0.4839934582,0.8605135338,0.4329432047,-0.6386501449,0.2932759876,0.7688604104,0.4578632532,0.4706611067,0.8450587511,-0.2288501814,-1.0960081866,0.6569233046,-1.1764093881,1.1517834551,-0.0169221107,0.2368257601,0.0537214118,0.8210764472,0.3774681961,-0.835466032,-0.9359050442,-0.5592763615,-0.3258866939,-0.3343790007,0.8549973265,-0.3899129809,-0.1868799086,-0.1551618556,0.4787440275,0.1816567706,-0.105594194,0.0461094834,0.4525578608,-0.1392760353,-0.9957379829,0.6124086167,1.0009739881,1.0940035249,-0.5597852569,0.2661665791,0.7125681268,0.1093908137,0.1283370444,0.5564502069,0.3535066288,-1.0280234315,-0.3184920665,-0.5698938812,1.0627462794,0.8711403442,1.2967604989,-0.357289366,-0.1849070132,0.2631134973,0.1594592777,0.0174740327,-0.137578705,-0.1453214818,0.3401771748,-0.4325798288,0.2171920576,0.5074887048,0.3869785354,-0.5713810069,0.1009003404,-0.2865693781,-0.2578589554,-0.1066596461,-0.062052897,0.67624627,0.1677741935,0.1917247786,-0.637047505,-0.2345521634,0.2349659056,0.2395623568,0.5986261023,1.0638654492,0.7118111416,-2.1269853585,-0.9980033892,-0.0985588559,-0.0022503372,-0.3306141248,0.0534149262,-0.1126846668,0.3831492195,0.1255230495,-0.4828070827,-0.797126976,0.4131804491,0.2163447295,-0.4033761862,-0.0936192142,-0.0698794529,-0.1189799522,0.2009238375,0.0887348051,-0.3650639827,0.1104851209,0.1869257014,0.2241587352,0.0455869849,-0.1444481568,-0.1530332741,0.0281030163,-0.1678968797,0.3561970618,0.1409187764,-0.0801278854,0.2467119679,0.0801361261,-0.0308147771,0.3395012895,0.1696150105,-0.4532419187,-0.5881265007,0.1274555153,-0.0314569334,-0.1736120361,-0.1550353297,0.2887546762,0.6265225137,-0.2000861784,0.2809159664,0.0262388854,-0.3628578076,-0.8551123551,0.1260896863,0.2275061254,0.308403519,0.1736528666,-0.107394976,0.0010726229,-0.6101078023,-0.8298822328,-2.0145863745,-0.9042903666,1.2399328809,1.3814437279,1.1276072259,-0.1790020097,-0.0134196481,0.7012216907,0.0553282753,-0.9684350993,-0.3929236017,-0.1536921483,0.5060978214,0.0405532613,0.2270332146,-0.2827812434,0.1489002354,-0.0880310724,0.3516377436,0.2998232157,0.5563633908,-0.3812349727,-0.1121173303,-0.0561758849,-0.1275962057,-0.1374030879,-0.3386721151,0.1818505228,0.2758383587,-0.3118317556,1.4445910106,-0.2812842012,-0.2198997849,0.0004500018,-0.2257344608,0.4119120943,0.0859979847,0.0539176762,-0.3263950764,0.3879037789,-0.3681678198,-0.1622934103,-0.4164134984,-0.6388939562,0.363807491,0.1740374426,0.1401412352,-0.2799217861,-0.1725188124,-0.1346047174,-0.0405457984,0.1247722715,-0.4368961435,0.0571020192,-0.0714414193,0.2293862141,-0.8500815739,-0.2761477901,-0.6572943388,-1.1974833578,-0.3351209232,-0.7503983253,0.243648238,-0.155223865,0.1553756459,0.2207736559,-0.2973015546,-0.0833182765,-0.2276557948,-0.6733384426,0.1494772748,0.0426230233,-0.1704971423,-0.2552335617,-0.5421623606,-0.2536066849,-0.0776180824,-0.585194815,0.0289200738,-0.0750639521,0.0795706626,-0.1972847744,-0.2525448735,0.1460498822,-0.110603383,0.1435475028,0.4859982053,-0.2104641334,0.9169457325,0.6052134393,0.3456589513,0.3080424529,0.4882030946,0.0487487686,0.2697008532,0.5378190801,-0.8506738536,-0.5528344634,-0.3954844217,0.6677419543,0.1233492839,-0.6362407873,-0.3543278586,-0.4525520759,-0.1388361476,-0.312361619,-0.0382160888,0.7574952379,0.7729274246,-0.585730126,-0.0124319806,-0.4578566065,0.3771754068,0.0669221286,-0.7601244558,-0.8787775304,0.4337868137,1.1002822256,-0.6135245792,-0.2184454161,-0.5296865015,0.2821721635,-0.312481501,0.1990111154,0.0216454896,0.0813317674,0.665954343,0.0222665098,-0.061661366,-0.301323831,0.3386164516,-0.8854975956,-0.4366748533,0.9100821302,0.0331725115,0.1513170111,-0.7976098304,0.331885876,-0.4181504439,0.4421226401,0.0073012152,-0.412875414,-0.3164108885,0.9324524158,0.713075452,0.5933040592,1.3870413812,-0.7686886795,0.2566702855,-0.149229568,0.177854677,-0.1907387272,-0.04835709,-0.3606543006,-0.4895676522,0.3128137052,-0.0067330667,-0.2635250485,0.1180025473,-0.7273674751,0.1327892747,-0.8716274643,0.2322929837,-0.3742002369,-0.3166864416,0.8829744206,0.4663600012,-0.5390909536,-0.821334975,-1.3062346032,0.2683276151,-0.3992745234,1.2953588362,1.5311694726,0.9423933748,0.8691909993,-0.1454467722,0.7851727272,-0.1788562006,-0.8727518594,-0.6147287031,1.0724734838,-0.315336253,0.8801174565,-0.3650585034,-0.6195294458,-0.4844588993,-1.1882617092,-0.2531370811,-0.2403510207,-1.1492770987,-0.3434490715,0.9526349291,0.3557194996,0.4770229999,0.6031581622,0.2926502125,0.4635334357,-0.5890449034,-0.4867010595,0.2603163888,0.2886526609,-0.2867163954,-0.6060245015,0.5230554994,1.0370123465,-0.3121620675,-0.8338068143,0.3490563908,0.4820336784,-1.4207953933,0.4349865418,-0.0575809504,-0.0400461586,0.5046490542,0.5283788566,-0.5810009198,-0.1746132476,-1.180455793,0.7995934315,-0.4482398866,1.0345220972,-0.1940921642,0.4199204447,-0.7590454648,-0.2837032796,-0.2208748757,0.812373752,-0.4434037245,0.0749796784,-0.5419585046,-0.1721745073,-0.0020761209,0.9850750994,1.065910129,1.1173230893,1.165284065,0.7497169719,-0.5858223355,0.7404373094,-0.1727836774,0.5249971015,0.8579384432,-1.0828467213,-0.2264852167,-0.1902685384,0.3627599093,0.7668338121,-0.2067053307,-0.7720623023,-0.0767959902,-0.4729084138,-1.1405507684,-0.7284207261,0.9639857276,0.3120933755,-0.4694438473,-0.9282649184,-0.5268692223,0.0402947353,-0.2684519412,-0.7401099195,0.9470995728,-0.7606510028,0.5957062802,-0.8410763456,0.3677771894,-0.8258206232,0.7680547776
   -0.4784191804,0.8294520964,0.6135932767,0.4035709768,-0.7210922706,0.6394450702,0.2039830597,-0.6885096647,0.5413166979,0.3981456429,0.7816190581,0.4477189366,0.0188060341,-0.9656531825,0.2655716622,-0.9404123148,1.1048954577,-0.8916556427,-1.0563092767,0.9325784936,-0.7357090778,-0.442378966,-0.5203955589,-0.1003602425,-0.6980076477,0.2836104918,0.4370692747,0.7594868805,0.0900087105,0.6795600369,0.6179706632,0.1142855084,-0.4463575054,0.2286881547,0.5721783084,0.5633933117,-0.1170275029,0.5535472392,0.231816017,-0.0787846835,-0.6209013026,-0.8164307755,-0.5798899782,0.5658974929,0.0474368282,-0.3397597502,-0.2034096627,-0.3752618916,-0.1619895643,-0.006391799,0.1457978921,1.5846583568,-0.0928284936,-0.0812605434,-0.3521139787,-0.3839036567,-0.3429697571,-0.2568207128,-0.0719249789,-0.3408383409,0.4958457323,0.1112912652,0.3113060379,0.3930986447,0.5573456055,0.3335660257,0.0146399502,-0.633530856,0.3391175154,0.0699070793,-0.5365065097,-0.8069135873,-0.6790862764,0.0261122595,-0.1749099852,-0.2816594088,-0.4474535556,0.6499081889,-0.7518360732,0.0320559322,-0.1557066035,0.0286441124,0.2812850786,-0.0652479689,-0.0321231914,-0.6673029442,0.5296004557,-0.4764761093,-0.0827571079,-0.4663567955,-0.6804573219,0.6422220426,-0.5481294036,-0.3983900194,0.4669318323,-0.3848970013,-0.2367121795,-0.8179814398,-0.6024749826,0.5176252175,-0.4773854569,0.5272827676,0.5523904112,0.3969367348,0.3148203177,0.4960573829,-0.4698935682,-0.6327131746,-0.3906836351,3.2629923332,0.4047836,0.3738272191,0.0526955241,-0.2941113504,-0.0052873398,0.7617139648,0.3071320159,0.2116038201,0.0844146996,0.3790194599,-0.5082602476,0.2950848175,-0.2910742925,-1.0788604768,-0.9475470207,0.2231729427,-0.2837931436,-0.0042333777,-0.3718721918,-0.4495402254,0.1992863624,-1.1011719334,1.2206727183,1.2114367487,-0.061907001,0.3360776047,-0.2939625842,0.2256876878,-1.1182741652,-1.4394482131,0.1251663839,0.946167057,0.4225129366,0.0066856557,0.5458801606,0.5794470103,1.8005341476,0.4694624292,-0.6312918634,-0.8083076832,-0.152107595,-0.8387588425,-0.6108360117,1.6328154237,-0.5802759714,0.0244995305,0.1729895521,-0.0012375149,-0.3441794822,-0.7421152604,0.6295036205,1.1547040617,-0.1461670099,-0.43617691,-0.9999260159,-0.2171547394,-0.8157519805,0.6405896582,-0.0594679931,-1.1107169237,0.6749930659,0.3551410393,-0.1450587015,0.4791603838,-0.1237006444,0.1422011193,-0.0224741675,0.8871290673,-0.3572844773,0.1692581568,-0.1268781661,0.8682542284,-0.1957585615,0.2126135541,-0.7541845437,0.1060809714,-0.0081569056,0.3847266229,0.1314375688,0.2698137423,0.395371423,-0.2569229872,1.6557441338,-0.2639996766,0.3742658261,-0.2971150305,-1.430143765,0.8525015361,0.3282697429,0.6009455175,-0.0380107676,1.7671178581,0.6624830535,0.1147735055,-0.1852806322,-0.0946875533,0.0440622094,-0.3361705314,-0.6248458165,-0.0862392065,0.7447104557,0.067640823,0.2261682877,-0.8547006304,-0.5618639264,0.353755972,0.5278173068,0.251513085,-0.1149984055,-0.7809764693,-0.0636133294,0.1943858011,0.8724806006,0.3511012395,0.531095162,0.6783519472,0.1507280503,-0.1866656575,0.3814225503,-0.5101460929,-1.5436839836,0.8294211595,0.1338556613,0.9803533617,0.0277184035,0.3297328496,-0.7612744265,-0.4186704599,0.3775396055,-0.1683560227,-0.5096371368,0.068938612,-0.0769455808,0.4301840321,0.513763138,0.0386098512,0.8372323012,-0.8664789084,0.7647578023,-0.6140963824,-0.770486493,-0.2604809934,-0.264512912,0.4763264393,0.3427254731,0.4788436393,0.583170805,-0.1272448968,-0.0488649159,-0.6431212864,-0.074499704,0.0544561717,-0.7035215372,0.9036602927,0.5591348478,0.2931594603,-0.8390881693,-0.0756602074,0.3410734812,0.2409048745,-0.1998762406,0.437287135,-0.7949613211,0.3729274827,0.0221213329,-0.0002477531,0.8139266153,0.1702810144,-0.0322502791,-1.1817148269,-0.1219099202,0.2550052962,0.0215012239,-1.5329124564,-0.0162782947,-0.4744639568,-0.1952932611,-0.7222924455,0.0415519108,-0.0167675485,0.2855168263,0.2201479628,0.9111671068,1.0307064545,0.7909263128,0.7597049626,0.0268325417,-0.5635790388,0.386183813,0.3829306241,-0.3262993728,-0.1463922804,-0.3975834231,0.1685233422,-0.3685782525,0.0796695673,0.309635164,0.4114415036,-0.3850937436,-0.0123329239,-0.3429546167,-0.6659761286,-0.2539028923,-1.061385068,-0.849758103,-0.3756502092,-0.1704720125,-0.0655661069,-0.6724544936,-0.6434100757,-0.0956766261,0.7527674524,-0.0939496077,-0.3406197535,0.3393300514,0.165942926,0.5264192698,-0.5122925211,0.741892365,-0.4966095361,0.3703124484,-0.2662570798,0.1642644946,-0.3542170341,-0.1451556388,0.2145990865,-0.0005431044,-0.4040734334,0.3473867441,-0.1205313714,0.2673419221,2.6484270663,0.1481322038,-0.6975170985,-0.3316031138,-0.2938284612,0.2330121005,0.0059373305,0.4148192779,1.0986602667,-0.6250452379,-0.4830488205,-0.4190778998,0.7816421061,0.747272781,-1.0500415232,0.0059460545,0.9125685039,-0.0119268746,-0.1770131005,-0.4670661062,0.0870336399,-0.8010758403,0.3865814305,-0.1057856556,-0.2226184818,-0.03411658,-0.0330763716,-0.111455588,-0.198904351,0.0254318126,-0.7525068653,0.0395317865,0.5356261879,-0.8242848113,-0.6636075071,0.5386883671,0.0690777048,-0.4587932835,-0.482961878,-0.4073820429,-0.0008051124,0.7801243337,-0.37326335,-0.2331472283,-0.8003224198,0.5525533733,0.2838941419,-0.8668824897,-0.9384637868,0.8245912536,0.9732738073,0.3281091579,0.036411718,0.6451859072,-0.4723212211,-0.7778804595,-0.5861459478,-0.2500660717,1.8125587987,-0.6666320145,0.1997358412,0.3948830419,-0.3560994508,0.4018246158,0.0960351758,-0.2772337228,0.136854887,1.1176371851,-0.7368118318,1.0417743395,-0.223307684,1.1760815237,-0.1592852354,0.3053003034,-0.1668220225,0.2491349005,-1.153143011,0.6419492384,-0.006449388,-0.8884143744,-0.1842806811,0.1703874543,-0.1988480427,-0.1426207155,0.6921049759,-0.6275586402,0.2474512471,0.0242390425,0.3696473046,0.2153432941,-0.5397413202,0.3301255883,0.1294005665,0.1882427985,-1.0232060855,0.4572277998,0.2456925769,-0.0254979401,0.3585699447,0.1125901579,-0.4190361986,0.4569456307,-0.2169796623,0.4899907708,0.1883082807,-0.1580350626,0.1269392777,0.167650812,-0.3504774641,0.6753242597,-0.256313261,0.6138088476,-0.1266526397,0.1677622313,0.3365029588,-0.4373620767,-2.1607551025,-0.6154496392,-0.6474180356,0.3803631197,0.7371836188,-0.5653043078,-0.5690859053,-0.3365064737,1.4651579419,0.0922100867,1.0384737772,-0.7737197918,-0.2327360356,-0.2160210879,0.2282891437,0.3652333519,-0.7423131739,0.5464915952,0.9169013196,0.1562939436,0.1713020271,0.1315431994,-0.1391572864,0.0820739951,-0.0176321936,-0.004643164,1.0677552407,-0.2513704019,0.9494436575,0.6393719296,0.3153109893,0.7522498271,0.2739597765,-0.3850705105,0.7969434125,0.3728775135,0.9549496008,0.651306743,1.1213975479,0.6946981436,0.6077360731,0.7745793145,0.6294835704,0.0187164808,-0.3055585885,-0.7421236542,-0.1490941231,-0.2247385414,0.2927152449,-0.3857228095,0.9966636064,0.0761895982,-0.9620079727,-0.0566876743,-0.2293039279,-0.9458809011,-0.6198754385,0.5249978629,-0.5434701365,-0.1906757092,-0.0574360749,1.1333562338,-0.4533977543,-0.7823046992,0.4156026935,-0.219269494,0.8305022614,0.1187577887,0.4713394696,0.1157479329,-0.8577285614,0.7872733117,0.170676551,-0.6290916742,-0.0262284403,-0.9802417368,0.4435833633,0.0499947922,-0.9060449719,-1.0430988438,0.4669964408,-0.1480725525,-0.1924293416,0.7745993537,0.6736955187,0.1119771692,-0.9634593228,0.1693530662,0.1339310868,-0.4248418496,-0.0197152891,-0.4141695424,0.3357943684,-0.584765688,-0.2299312496,0.4385572829,0.2209673198,-0.139789078,-0.5204720435,-0.7774785855,0.5181126185,0.3931639917,0.2711360512,0.7240977147,-0.6618457837,-0.4829998949,0.3528308238,-0.4387372228,0.9644351075,0.0820577583,-0.3852865627,-1.2848149609,-0.5584624159,0.6625920203,0.4647700565,-0.0058132819,-0.562279348,-0.108340483,-0.1874068262,0.8162076766,0.5127613713,-0.927482346,-0.3751401088,-1.2642614217,-0.1159439313,0.1369178149,-0.8379125598,0.2434679301,0.5343410476,0.1020220455,-0.095617551,-0.1404157605,-0.9238384788,0.428282258,0.1722172675,0.9595972249,-0.9533204575,0.0975310074,0.2668367224,-0.4366141472,0.4241851749,-0.262029002,-1.2646333239,-0.2522793146,-0.0398690483,0.5113749908,-0.2356502254,-1.3816911727,0.2010755851,-0.080505736,-0.0860763482,-0.226937462,0.774029009,-0.7701216462,0.1899333173,0.2399691225,0.4232218323,-0.3905860174,-0.2834166472,0.1961908352,0.1642276969,0.0331507866,-0.5713845202,-0.1587235757,0.0991167399,-0.4708464381,-0.2997952405,0.4223820367,-1.2065196251,-0.3167034518,-0.2296551126,-0.3061264129,-0.173737621,-0.0048771039,0.3913641599,-0.0846062721,-0.4079170813,0.3748550641,0.2187184943,0.5074888929,0.3623116427,0.2399980137,-0.1590965586,0.5251156842,0.8096991511,-0.5911241574,0.6073010668,-0.5083966715,0.5469668707,1.080060593,-0.4491873822,0.0545647441,-0.1205866653,-0.1476275309,-0.033986544,0.1628920163,-0.7690194933,-0.6359086224,0.3894772508,-0.2789874826,0.7511926381,0.8087606309,0.8011323827,0.1761230635,-0.3273181549,0.8780416233,0.9013597802,0.7434410894,-0.9673960008,-0.7085580623,0.2036943351,-0.1477874858,-0.6093068723,0.3770312469,-0.8243221308,-0.1594345312,-0.4490587612,-0.1756215444,0.6882344931,0.6288371372,-0.6317771549,0.363951098,0.495799363,0.6900185125,0.3627938246,0.3227242123,0.7164176144,0.276876522,-0.124635176,-0.9666771545,0.0716123691,0.1434312134,1.8063536786,0.8780651276,0.6405748092,-0.2835692182,0.2143290258,-0.6317774992,-0.0041114194,0.3463555413,0.0859446458,0.8277796277,-0.6938583827,-0.3547799146,-0.4480858768,-1.2065825488,0.421567551,-0.7327814823,0.5079075927,0.2118821107,0.0210895609,-0.0151076253,-0.1652693553,0.4427948854,-0.727555219,-0.6652496864,-0.6844919293,0.3945851429,-0.0687824995,0.2660451781,-1.1372645281,-0.3035712114,0.2755502526,0.2651993868,0.4047079997,0.3469038073,0.1683500152,0.4814866082,0.2694771242,-0.4129696617,-0.4133514442,0.5991822491,-0.5648405101,-0.631915057,0.2931416201,0.8565885666,0.4542628762,-0.1892507423,-0.865719122,-1.0573577086,0.9144527456,0.6231420438,-0.7343992956,0.2465017597,0.218627939,-0.8355113538,0.7137921534,-0.7537807438,0.7041613551,0.1868251483,0.1146348067,-0.3834263107,-0.5056694945,0.5982981811,-0.1795836597,0.5592121855,-0.75443412,0.0073745867,-0.4472407657,0.6232750445,-0.1180211654,-0.6474474586,-0.7482389571,0.9814602899,-0.1037799732,0.3760843362,-0.0553746192,-0.1450078668,0.1816935634,0.3081809901,0.2148950067,-0.7393308489,0.4081689003,-0.8409673209,0.4338627075,-0.058866556,-0.499067097,-0.7331209815,-0.1313300214,-0.3560880735,0.0259781808,0.0970691792,-0.305851805,0.6465585749,-0.4211436103,0.1229171419,0.0286506118,-1.0726524678,-0.032727696,0.1598531009,0.3047654733,-0.5267066268,0.2363380973,-0.3687074791,0.4579684698,-0.9076534206,0.228882852,0.4460159649,0.0235148284,0.083482714,-0.400094744,-0.9883396116,0.1129526727,0.5630865293,0.0063312021,0.5187225252,0.9965973795,0.1814586342,-1.18276204,1.0341939721,-0.4622677945,-0.2058546443,-0.6343978364,0.4393362823,0.3919641705,0.50816461,0.2584239265,-0.2183334895,-1.0129151022,0.0312062975,-0.7390863435,0.2770120435,0.42438491,0.8576017721,-0.3613393005,-0.0483844898,0.4660656861,0.6343955875,0.3304389267,-0.5221385871,-0.8859479297,-1.0090518297,-0.2738019961,0.5293447561,0.2865904484,0.2195656839,0.9298563152,0.2202206976,-0.4334202627,-0.1231827193,-1.4189180117,-0.734341049,0.904499818,-0.456424252,-0.5079786742,1.0698332239,-0.2820837368,-0.3579327519,-0.8532712196,0.5802443133,-0.4110116968,0.0088680216,-0.5167395141,-0.7075333601,0.9936797267,-0.4564283937,-0.7024042923,0.5469580485,-0.0778441754,0.451169765,0.6881915657,0.9413259349,-0.647262683,-0.2604338178,0.3378499064,0.3946972833,-0.8376914824,0.3186219343,0.0827917104,0.5669771968,-0.2821937597,0.0057246446,0.1905068402,-0.1788015409,-0.0164936907,-0.0259191433,0.3849728922,0.7313925341,1.4829744932,0.5002118945,0.2622304203,-0.3540836474,0.2760996846,0.017530572,0.4086851845,0.5452543912,1.2698158645,-0.4008228114,0.4114519896,0.4506380907,0.0924819988,-0.4742111171,0.1849998085,-0.4464716864,-1.4889161241,-1.7053554425,-0.2150248873,-0.8359180413,-0.7380175687,-0.2127247648,0.8637556076,-0.1051926756,-0.1062175291,-0.2809805333,-0.7744417699,-0.6423840774,0.5591484865,0.8176717221,-0.1862411841,-0.5753896725,0.6708630917,-0.1637921723,-0.0986087679,0.2845380946,-0.1991946742,-0.332374825,-0.6601541573,-0.1747969583,-0.1354973433,0.0946309546,-0.2857144553,0.3180249953,-0.0276963666,-0.2443606239,-0.6076215724,-0.5206713288,0.5451706309,-0.2783139721,-0.8086908071,-0.8750316492,0.2678228793,-1.0377370755,-0.4162883576,0.035186954,-0.4311436199,0.5747625072,0.509106812,-0.161679638,-0.2495822178,0.3946432477,-0.4842377919,0.7341231017,0.358698347,-0.1669082669,0.3194403369,-0.0683201128,-0.2039376698,0.6266114883,-0.7370709051,0.4393245293,0.0365243847,0.0802836608,-0.8190272469,0.4921727345,-0.6031513262,-0.2510321345,1.0265343486,-0.3264477157,-0.583724803,0.0288382216,-0.5608420232,-0.0008376323,-0.0974055835,-0.0247275252,-0.0351881073,1.0542274583,-0.3536075637,-0.3575486441,0.4269224873,-0.499685471,0.0543613508,-0.7780467193,-0.4027586887,-0.108298309,-0.1354724596,0.1266731112,-0.15023852,0.1137192375,-0.416514557,-0.2517229155,0.8054421972,-0.7449582004,2.5110913089,0.7258288566,0.8542952069,-0.5906942615,0.3323692365,-0.2431472867,0.0733860949,0.1880340176,-0.0951356067,0.6439549161,0.9523370748,0.423404924,-0.4680092615,-0.0572913866,0.3287704261,0.4074940082,0.0199199199,-0.3035668441,-0.8424490433,0.8831438647,0.3036580004,-1.1218765651,0.7350631867,0.8447910916,1.0996073934,0.6024254473,0.473956728,-0.1005957235,-0.7481685968,-1.0472859935,0.1417403404,-0.1213108728,-0.0889861464,0.2833596006,-0.5505049587,0.1497422752,0.6833417672,0.5545668146,0.5936059028,-1.7826983295,0.5365120838,0.5054394658,-0.8114465487,0.439126326,-0.6791658446,0.8882524354,0.190835493,-0.9654561549,-0.7370688664,-1.1107073339,-0.2402516055,-0.5247777657,0.2680055772,-0.2799563731,-0.8155455797,-0.9316723219,-0.8403882051,-0.8703976856,0.2019245249
##end
biasActivation=1,1,1
[BASIC:ACTIVATION]
"ActivationSigmoid"
"ActivationSigmoid"
"ActivationLinear"
