encog,BasicNetwork,java,3.4.0,1,63716531046889
[BASIC]
[BASIC:PARAMS]
[BASIC:NETWORK]
beginTraining=0
connectionLimit=0
contextTargetOffset=0,0,0
contextTargetSize=0,0,0
endTraining=2
hasContext=f
inputCount=57
layerCounts=2,88,58
layerFeedCounts=1,87,57
layerContextCount=0,0,0
layerIndex=0,2,90
output=0.983734334883917,1,0.688797371458646,0.998965070997869,0.999778160256554,0.231243739572241,0.997930848378728,0.999466827312825,0.997486343154577,0.0176456995235578,0.0488275728198141,0.487845403833678,0.983094006010657,0.493222418690929,0.0100660877882177,0.341422151810072,0.735267662610592,0.246998981021078,0.960044691404458,0.673518963703586,0.789538042976715,0.998299497708662,0.160610731719819,0.00258709898464589,0.913841074873837,0.905124384189534,0.0703166773097472,0.999996221356886,0.0728848401921949,0.906557499884124,0.000298230542668756,0.501755857282487,0.964707299221728,0.00732689493805697,0.649310182820999,0.923750349540271,0.988390212528713,0.998525133529743,0.229494104930778,0.999976760842192,0.000868773121335491,0.0158068637920109,0.99924274972759,0.998906173998487,0.990854390481047,0.213481644722728,0.0980176808681655,0.00252171957076249,0.0325102562714682,0.952737067223734,0.676877648544207,0.48210490402401,0.00608824565739511,0.977158541883763,0.202667350752941,0.919299518071872,0.935959740135447,0.199670675741035,0.0224301909017537,0.187523580240669,0.610825421976148,0.00112341932049084,0.998907742835581,0.00790760053259838,0.999413048422738,0.343388534539134,0.672876912044802,0.0000235610915638263,0.958238731056545,0.179821131369714,0.762932361125235,0.980200384175111,0.488074505376836,0.290366709026115,0.99582028755424,0.708993429911661,0.958320101879474,0.74091643189099,0.161294176748663,0.982996882428634,0.0193685289880947,0.00319418189308908,0.999650201405152,0.238424695182484,0.000261835460204859,0.0376955007769344,0.3695531214679,0.0819470915197451,0.0824659706741395,1,1,1,1,1,1,1,1,1,1,1,1,1,1,1,1,1,1,1,1,1,1,1,1,1,1,1,1,1,1,1,1,1,1,1,1,1,1,1,1,1,1,1,1,1,1,1,1,1,1,1,1,1,1,1,1,1,1,1
outputCount=1
weightIndex=0,88,5134
weights=##0
##double#5134
   -0.192829065,-1.1552254461,-1.0206823567,1.2781485758,-0.7120259254,0.9401132272,-0.9681408147,-1.1870681182,0.7212270243,1.3203799378,-1.0280321322,-1.1881371989,-0.6521878938,1.024574848,2.3957288167,-0.942665956,1.0146769227,1.2301064683,1.7280534965,0.2060720436,2.3139863874,-0.1732997447,-0.6885317174,0.3752272092,1.2136059343,0.89856124,1.5278823685,-0.8310750042,0.4079407517,1.0242962492,0.7854485803,1.1444148517,0.1887785207,-0.849313345,-0.6331383989,-0.6531082584,-0.7546973148,-0.711065137,0.9351308717,0.8840896886,0.7684459194,-0.7768719955,-1.3952512631,1.2137471065,1.9122760457,-0.8344657853,-1.6578351736,0.8934706893,0.8754384659,-1.4957450501,0.8306010994,-1.1435980965,1.4107397262,0.718394962,0.8457205757,1.0039945281,-1.0440556127,-0.5614405269,1.6629006178,0.5388940166,0.0958937851,-0.0713333655,0.9565714715,-2.8338967419,-1.8308874737,-0.5105503704,0.4241530586,0.9632402078,1.328970436,0.022681676,1.4623956896,-1.2093077885,0.8268535998,-0.4307827643,1.2338209578,0.7743265724,-1.212344928,-0.7979903597,0.8283153981,-1.3303060964,1.08147785,-0.3139428977,-0.7317176671,0.689393008,-1.3326593247,0.4681475856,-1.0371895168,-0.409047321,-0.1402221668,-0.4436442135,-0.3378393295,0.6494678897,0.6111532621,-0.4844722484,0.8701243203,0.5175105329,-0.1530915517,-0.0032158866,0.4630974585,0.8795945896,0.2946970504,0.1769282152,-0.9219925682,-0.7444897828,0.6380633736,-0.7268014659,0.1540467027,-0.664823228,0.4251420429,-0.6314824461,-0.4123482992,0.6492860687,-1.1823167672,0.7179235485,-0.2449958166,0.5019856954,0.1750103407,-0.8755424412,0.6376108643,-0.0113401578,0.1962104896,-0.9667708939,-0.4701035249,-0.1492324618,0.6860954133,-0.7153886952,-0.0826947889,-0.0599285792,0.0726969263,-0.3019427422,-0.0748807567,-0.8622744054,0.0973065552,-0.6966517055,0.3983023908,-0.0411495675,-0.1082791111,0.0240186346,0.4346619387,0.2487189252,0.6316285503,0.234817469,0.924814963,-0.0988279615,0.5217347638,0.5685128394,0.9041198786,0.3764166112,-0.3404295546,0.6258196167,0.5155219678,-0.3157276061,1.034589683,0.2503599494,0.9347211772,0.6071815519,-0.0139664808,-0.0846000212,0.6254491778,0.9359806423,0.0950165652,0.7883930971,0.8155413803,0.7668584315,-0.2902903455,0.6056445498,-0.6450565191,0.4096783885,0.0330300245,0.7000031159,-0.5292192956,-0.3336493394,0.5787744572,-0.5458384818,-0.8633834955,-0.7221905806,-0.2826573219,0.4814454405,0.3231650517,-0.6255841,0.9366215811,0.5954125542,0.4558034214,-0.8585146657,-0.2999167933,0.1612423265,-1.2984895593,-0.6351701044,0.5893340478,-0.525166259,0.1994889537,-0.9365314301,0.1462091394,0.7013182657,-0.5712199843,0.5372669303,-0.630275158,0.8512846933,-0.0194163058,-0.1281256489,0.201277404,-0.6013591177,0.5915400266,0.5947805625,-0.4130616426,-0.9256395305,0.7169978359,-0.2955715167,1.1078173959,-0.3217620795,0.3197983898,0.8607803768,-1.026089711,0.3125147374,0.4183143178,-0.6212899711,-0.9156681717,0.187804574,0.3890629338,1.1940184426,-0.1413436574,-0.4879448156,-0.567273594,0.266976243,1.1347714577,-0.1523008322,0.0608101311,0.9172885848,-1.1680699826,-0.1344031921,0.741346159,0.0132744616,-0.3396398519,0.0360586714,0.8724135635,-0.1529384301,-0.5928076016,-0.2957443408,0.7274382846,1.1426745125,-0.1594032443,0.0307825571,0.6365201112,0.8344664844,1.0000771346,-0.4521363424,0.0072247899,0.6738760944,0.3759578942,-0.5019243393,-0.5250176752,-0.1432162999,-0.5210781832,0.170219732,-0.2030220963,0.844541634,0.5057974401,0.7004748543,0.5002931496,0.9284589438,0.8852175732,-0.0432145393,0.4878526111,-1.0669861837,-0.1943104957,0.50009657,-0.8519299218,0.3567436208,0.4870543554,-0.3948908144,-0.457544915,0.271190741,0.1653190693,-0.3887411451,0.2324584739,-0.6083439269,0.3008469908,-0.8856253311,0.0900045437,0.1362937503,1.275857334,0.2870733567,0.685287007,-0.2121861329,0.7357418866,-0.6663187794,-0.8098227492,-0.1757822667,-0.1588292382,0.7237920689,0.1454394217,0.3860924966,1.1135438214,0.2060499245,0.7290393168,0.1068740126,0.6102945149,-1.0633407424,-0.3807238426,-0.1789973721,-0.2185013291,-0.2648712446,0.3207417569,0.2662135611,-0.4631029279,-1.0237166271,-1.1462883452,-0.0442636268,-0.2692290516,0.7880829807,-0.2638637703,-0.712844047,-0.111128863,-0.7888221008,-0.1729089427,0.2419230633,0.8649501534,0.6561977806,0.7365673463,-1.1350448988,1.0455160701,0.8269030835,0.0405374195,-0.2824276384,-0.6348744068,0.0067041276,1.1660723102,0.0161996624,0.0816860216,0.2680789664,0.5913909087,-0.1354051519,0.3155126991,-0.5720835512,-0.4712374377,0.0175048741,0.0452905962,0.6352651184,-0.8096174621,-0.9215050161,-0.1161900046,0.1749644949,1.0345321147,0.1524821695,0.9224404305,-0.7906686832,-0.9884637326,-0.4506148276,-0.2850272744,-0.7575843875,-0.2749526684,0.5209712258,-0.1865792826,-0.6329198306,0.8758978648,-0.0480624698,0.8377149459,0.2051777056,-0.3427838054,0.9478846572,0.643737015,-0.5160339538,0.2749481205,0.4811457543,1.1409594163,0.0162763696,0.8981080079,-0.4916551021,0.46642685,-0.3328284889,0.5788272239,-0.5594852005,0.5744561176,0.3852419779,-0.57340802,0.2094801912,0.8359844417,0.11879531,-0.9677911025,-0.0960136686,-0.1944222147,-0.1807209894,0.5902339519,0.0542853921,-1.2171001693,0.4363133154,0.8974758531,-0.8069487071,0.4466817949,1.0141688764,0.4739234698,-0.4909362342,-0.6866021426,0.8568124365,0.941638724,0.5212037603,0.2359104527,0.8325621693,-0.0299338066,0.3258310249,-0.2764962812,0.7806566801,0.3459225146,0.359938744,-0.5726509414,-0.3462795829,-0.4083781878,-0.5441548992,0.0759548622,-0.203056362,-0.8715917604,-0.3320682788,1.3031726063,-0.7916205715,-0.8918722897,-0.2714407907,0.1640637234,0.3823160696,0.9104330892,0.7006858825,0.4743633374,-0.0367547047,-0.1047182811,0.9952822855,-0.1805344591,0.5779174501,1.0654529291,0.3889897444,-0.2704187219,-0.6307889175,0.7571230536,-0.5203231885,0.41255656,0.8222546079,0.5841507124,0.7314175618,0.0003330408,0.3761907381,1.0081294615,-0.9420061791,-0.026466628,-0.8133941652,1.0007329994,0.895427897,1.0372203178,-0.0580155759,-0.7011147898,0.2010064971,0.7676790248,-0.0683567009,-0.9135618302,0.1709986908,0.0064451961,-0.9687981063,0.6214793097,-0.1757324266,-1.0573124914,0.8649625556,0.7935714479,0.6317871012,0.4444430527,0.4369184747,-0.1074388106,-0.4447646784,-0.317796932,0.0928712549,0.8756913995,0.7530488077,-0.5768670423,0.3449853617,-0.4846202195,0.7321021241,0.2323507856,-0.803120596,0.428274648,0.6647241648,0.8114470483,-0.4171170725,0.4005075702,1.4034594416,-0.1314433654,-0.0963362657,-0.8239416952,-0.7006056692,0.412815863,0.1079760303,0.8651829119,-0.7607665616,0.0990405159,-0.1081380188,0.0308367398,-0.295158507,0.4444943654,-0.1807217432,-0.6018508368,-0.8518341223,0.4725734331,1.1180656721,-0.4073245569,-0.7819687382,-1.4043410949,0.4322356456,-0.5476328652,0.9871367838,-0.7933604236,0.0172474773,0.3498544497,0.9343311955,0.4849354178,0.9548735679,-0.413533458,-0.5570881579,1.2208801027,0.1206959317,-0.5037968221,-0.6951512994,0.9335167504,0.7924308015,0.3694729972,-0.6027821095,-0.1954551475,-0.6765993485,-0.6938552099,0.300363618,-1.4031452649,0.985122889,1.0824943764,0.8236310897,0.1719819533,0.5702706439,0.377204856,-0.4699923609,-1.1851891913,-0.465088585,-0.337767374,0.1898604393,-0.2439002708,-0.7916581314,0.0060431357,-0.9644357088,-0.0262621705,-0.0846566727,-0.3006246495,0.0265615101,0.3335573572,0.1829530053,-0.9820803966,-0.3178192836,-0.8640214968,-0.1917454388,-0.1036494176,0.2008472227,0.5414716151,1.0165217397,0.8664779497,0.0971767068,0.480399189,-0.6264966513,-0.1342937221,-0.5362209921,-0.7475849246,0.6270860841,-0.7940592511,-0.6203593948,0.9963251552,0.5492890037,0.4682579883,-0.567748205,-0.240087105,-0.3357615145,0.7197801161,0.5605936565,-0.5498011896,-0.7831221636,0.2620835801,0.0398545167,-0.5962378931,1.0272144561,-0.1530452621,0.3596727805,0.9198868103,-0.9836765532,-1.0634906866,-0.0514290508,-0.8222928628,-0.8110284224,0.250660192,0.3039060855,-0.2253866292,-0.3190799781,-0.0011633866,-0.7583085688,-0.3165714258,0.4602857748,-0.7110530245,-0.003851455,0.2463291686,-0.5848612598,-0.6410841992,-0.2541555916,-0.249608091,0.4237150289,1.1505760745,-0.5198417063,0.8067206184,-0.7105488191,0.7648118638,-0.5090410235,-0.7535747971,0.0663812502,0.3915313834,0.9102262678,-0.039693065,-0.2870954784,1.0644232928,-0.217236493,-0.7205386444,0.3594690581,0.8825277571,-0.4286042738,-0.5528168481,0.4335305128,-0.0469492352,0.945350828,0.3416541911,0.5536730107,-0.1784415213,-0.0206865524,1.1163917741,-0.2680947213,-0.1122458382,-0.6884091338,0.5516446637,0.1447056026,-0.4818319248,-0.7123931205,0.9094926933,0.0049195873,1.2458777344,-0.6689613669,0.5920427334,-0.0843635282,-0.5807471721,-0.5535293029,0.6522874307,0.2459796669,1.0411334551,0.3394176918,-1.2448012757,-0.8337488735,-0.1623856502,0.3163328579,-0.7438128024,0.5878133822,0.7759605775,-0.5629547364,-0.9939739092,-0.5557093345,-1.286451506,-0.1615992142,0.5060924744,-1.0707897642,0.5661788285,-0.2140212865,-1.3152201791,0.9272932316,-0.3864801096,-0.2799749562,-0.8984475177,0.5075006749,-0.4575979334,-1.0419190249,-0.3229236637,0.0841216773,0.2806756808,0.6345002424,0.1877817801,-0.7373444903,0.7878129336,0.6628677017,0.9133807898,-0.9791863119,-0.7313810745,0.5819560743,-0.1553727594,0.3078602143,0.2673914498,0.8597771566,-0.1624794603,0.3094965514,1.0328053431,-0.4069396615,0.7292864759,-0.5124339013,0.0656847691,-0.1122631048,1.3281530233,-0.0620555757,-0.6989996822,0.9565519361,0.6482346255,-0.6611951518,-0.5839633557,0.9014959317,-0.3064648934,0.0819607784,0.9935772009,0.2969131215,0.0978688492,0.0002166761,0.0094280348,1.1246938961,0.7089899728,0.6024349332,-0.349943035,0.4100021161,-0.5059430935,-0.1146031593,0.2850278007,-0.3856887163,-0.3356747411,-0.9209243674,-0.8325881853,-0.7791680823,0.7158057308,-0.2556665988,-0.8109310359,0.5230599493,-1.0393596985,1.4830265511,0.5957764109,-0.6307741359,0.9674125458,-1.2908894487,0.6827350715,0.9862006665,-0.2243281452,0.0920440264,-0.1608779776,-0.1799073047,0.166480949,0.1012844218,0.6764417011,-0.2192168698,0.7361526482,-0.6820839107,-0.3019814364,-0.3932444979,-0.4883137436,-0.0456580324,1.1194829305,0.2490724418,-0.6724789182,0.2775618694,0.1971951182,-0.5358112271,0.3856079505,0.1152641873,0.0358961761,0.7669223393,0.1249505853,-0.5672864655,-0.3366040141,-0.1104620265,0.3792102742,-0.9428069902,-0.1054883253,-0.2115437636,-0.2038974988,-1.191939785,0.1522010891,-0.5074954519,-0.5548575741,0.2030126251,0.8065300312,-0.0281577993,-1.0902296998,-0.3551031264,0.1017470475,-0.0467521758,0.8788202769,1.0951203015,0.2543249455,-0.2521244087,-1.0908501372,0.5516837927,-0.7356076761,0.9741455989,0.6249143567,0.2824528367,0.0739549059,-0.3311904389,-0.3835558289,0.376701605,-1.0658017843,-0.4306087219,0.1161765181,-0.7307419923,-1.0022056727,0.2489900806,-1.0949286497,0.1050744324,0.3071336052,-0.657658213,-0.6821037104,-0.1742687142,-0.6199320329,-0.2653339319,0.0807958934,0.2383995867,1.2412201284,-0.7480602209,0.2563127228,-0.2697567243,0.5887442507,-0.009118795,1.0141937325,0.5127549104,-0.5217451404,0.1101494476,-0.2640540291,0.3538258805,0.430494526,-0.5038016274,0.8120121622,-0.220412701,-0.4716263251,-0.2269886652,-0.1389300888,-0.3902049781,-0.5808165254,-0.2931658103,-0.3913714556,0.3664690617,0.7388308527,-0.592347635,-0.5259396786,0.0734255481,0.4958497262,0.6620872061,-0.9357673217,0.1235772868,1.1518743472,0.1804617387,-0.3172362674,0.0615685485,0.8970625803,0.1177609065,0.6129951501,-0.1777377307,1.2677932282,0.6677035269,-0.336170507,-0.1060830414,0.7555263551,-0.4180839948,0.0720881868,-0.367595815,-0.2974864295,-0.4716460915,-0.1267393443,0.0461869793,0.8885754362,0.188003498,-0.4165768097,-0.4375398659,-0.0925503433,-0.1627978354,-0.2668780731,-0.5481742431,1.4312710178,0.0048012095,-0.7997002444,-0.8175029438,-1.0646644645,-0.3065983357,0.4432488703,-0.0515148692,0.1296553893,-0.621147165,-0.3708777199,-0.0604943095,0.9566162793,-0.7795084669,0.8487331528,-0.4870976115,-0.4717117811,0.6330493222,0.012793618,-0.744079469,0.2601239696,-0.3518530877,0.274543078,0.9443174057,1.244425404,-0.5782645647,-0.6016474899,-0.6284951926,-1.1045616559,-0.3651576309,0.8229078348,-0.0395664688,0.0268633513,0.2303833438,-0.7226576989,0.3786016903,0.5223616875,-0.302175059,0.1553927374,-0.0068485311,-0.1503779746,0.2406833102,-0.0156643819,-0.045756774,-0.3929243649,-0.3066759288,-0.3758149475,-0.2638450538,-0.0403420432,0.177679915,0.2024588141,0.0133991802,-0.1216973388,-0.085006858,0.0765422747,-0.1065623791,-1.7192300195,-1.7003611609,2.2377968699,1.4623070211,1.0193864869,0.9772267653,-0.0007268684,-0.3773082896,-0.0519744074,0.337906619,-0.9261305421,-0.3240040238,0.2357320069,0.5455398248,-0.0655905597,-0.4517935183,0.1488938444,-0.2813430509,-0.4557458589,0.8995791137,0.0631346565,-0.2100064899,-0.0716251677,0.10508963,0.7442340602,0.0643904552,-0.049967806,-0.005572639,0.3300875822,-0.3834584126,0.1560856719,-1.1023801896,0.7689339985,-0.4761955862,-0.2060388204,-0.1030652344,-0.1617535344,-0.3964346986,0.4148357206,-0.1096267964,0.1899653071,0.2574490072,0.9862513201,-0.3510281678,1.0466892424,0.8438028852,0.8155852739,-0.5985732681,0.1155805784,-0.2641347442,-0.6040177388,0.4956078456,0.1902865102,-0.1852336139,0.6033483435,-0.649581551,0.2354752331,-0.1200132632,-0.0650478266,-0.7053837973,-0.0434829312,-0.1552080476,-0.5653386659,0.0575504239,-1.3664192301,-0.4878380176,0.0140244249,0.1094468628,0.2980581173,-1.0897470129,-0.3757916606,-0.5664647185,0.7662539591,-0.8525077127,0.0496457552,0.7559504757,0.0504776832,-0.625738624,-1.0143137802,-0.5975105029,-0.4667269477,0.9130419933,-0.1786055462,0.624350527,-0.384999938,1.1671041586,1.0447696047,-0.3035196569,-0.6206018276,0.7617719571,0.4397995135,0.0880582674,0.353538291,-0.5447056449,0.5372615226,-0.5749381819,0.7904202382,0.6907304366,-0.0588051163,1.0041415672,-0.2526192739,0.5682285861,0.747255453,0.6975951087,0.4139831752,-0.3087668833,0.3965588874,-0.2791771136,-0.8381552216,-0.4602084632,-0.1725171811,0.4526798116,-0.832703105,0.3658026043,0.3307482064,0.1892712737,0.943012069,-0.3556617784,-0.5629083494,0.1213649762,-0.2291597835,-0.1103493508,0.1056804899,0.7909424482,0.4763986276,0.8716382674,0.5968070397,0.707388741,0.4174856678,-0.9388295539,-0.6798944224,-0.2041325629,0.0821639584,-0.3684460344,0.5711565703,-0.8065870823,0.0340956757,0.5319140686,0.4076359507,-0.6917060117,-0.7586536223,-0.8689359875,-0.9257854525,0.7216604087,0.5280759824,-0.6441005978,0.0566014126,-0.3830951607,0.1608921714,-0.030997115,0.3707632305,0.9606601203,0.493877738,0.0908803912,-0.7200281473,0.8610761805,-0.7862018025,-1.0488658485,0.0402591264,0.5948300527,-0.6484303763,-0.590786415,-0.2739349281,-0.223299267,-0.3183412145,0.1550070257,-0.312560731,0.8196148137,-0.2124894901,0.3741508532,-0.436766704,0.7506892339,0.0077664873,0.7735150522,-0.8822100604,0.644612093,1.0414854382,-0.7597643686,-1.3279990516,-0.4287556287,-0.5144015349,-0.9074688469,-0.8866644414,-1.1245085724,0.8208313704,0.3705007557,-0.0531170471,0.6350133699,1.056399868,1.1198475725,0.183970843,-0.254690866,-1.2313376882,-0.4862473038,0.8505167636,0.6399359582,0.621299266,0.0835942784,-0.5036025424,0.3780567347,0.8908627256,-0.4541170075,-0.1006996258,0.4270866662,-0.6279808647,0.6524629592,0.8097863964,0.6475715429,0.4169498474,-0.8874697242,0.186722631,0.1371449295,0.1234511275,-0.1994754632,-0.7101260911,0.0884012008,-0.0884394012,0.749691322,0.3199965128,0.0285534806,-1.0361521411,-0.3189736565,0.3924705326,0.4905997416,1.2075200753,1.8055100145,1.2921207481,-0.0563654692,0.729000529,-0.7775779299,0.5242178114,0.0710659524,-0.4874367699,0.8854116857,0.5407120618,0.7988931043,0.2666712892,0.1722062373,-0.3780050915,-0.2186044077,-0.6311377554,-0.0552559345,-0.525466112,-0.4856634939,0.0025443624,-0.6200014021,-0.2083829993,-0.7000785073,0.2605700683,-0.9489739429,-1.3398473825,-1.5233056616,0.3088555613,1.1154280156,0.098069106,0.168425351,0.565183825,-0.7982843965,0.005735145,-0.0586394027,0.7106605509,-0.8149757534,0.1932444079,-0.9226637814,0.9254471698,-0.24332975,-0.9745465011,-0.7789637205,-0.8852919996,1.0994710342,-0.3064067167,0.0380707771,-0.1041167312,-0.375729694,0.000225374,0.2091759049,0.3560880989,-0.3603527928,-0.7810543855,0.5397630973,0.2205163152,0.3373106542,-0.6573942294,0.9735823058,0.8594964898,0.8367309726,0.5792554947,-1.1516102657,0.7763905521,0.9075250022,0.0752751716,0.2989694973,-0.3607029313,0.2938018416,-0.0432074535,0.7127717808,-0.5442637591,-0.1055111639,0.7136061134,-0.073567216,0.1460806534,0.6597602759,0.0603747436,0.5864422468,-0.28772483,0.6857899043,0.1265676808,-1.0180735339,-0.4972300262,-0.4866038071,-0.2104803607,-0.1136496597,0.415066266,-0.0441893084,0.6214234065,0.5224726287,0.1879251864,0.6906812002,0.5921073841,0.5050905252,0.2422164315,-0.0164015301,-0.3147521482,0.5440308654,-0.3340328356,0.0916359596,-0.3698390544,0.3312324119,-0.499822834,-0.3397836643,-0.7837930517,0.3509517744,0.7619498845,1.0807250823,0.5641562318,0.4790705763,-0.193031032,-0.2835635056,0.299326397,-0.0135212056,0.1222669234,1.3073695705,1.1884581765,-0.2092577019,0.0374963141,-0.1563376872,0.1503074111,-0.4181468403,-0.1204252324,0.0536957785,1.2673205278,-0.1923627442,-0.4705204,0.270755297,0.0546503562,0.4137580309,-0.4147721727,-0.2627356011,-0.591674871,-1.6435735493,-0.2634872821,0.4660093419,-0.4865793218,0.2222102964,0.7026830753,0.9304341055,0.064405202,-1.3611457265,-0.764276578,-0.4462822476,1.0467887075,0.1820623889,-0.2469277785,-0.7953497584,-0.0166946412,0.100295755,-0.5765863537,-0.1361053209,-0.3184130516,-1.7139338606,-0.0763814755,0.0028231092,-0.1449302543,-0.5752478125,-0.6139696278,-0.2345149189,0.6041533664,0.3059268543,0.3688861421,-0.3549415424,-0.1284622568,0.6644935089,-0.457041912,0.6064500312,0.7378153419,0.1821196775,-0.3567118328,0.8276726969,0.3654116458,-0.4816784879,0.1894794228,0.2511452386,0.3133292535,-0.2896312483,0.8212246022,-0.4606589107,0.8272281755,-0.4346248038,-0.7800184524,-0.5574129655,0.4251801691,0.0932968,-0.5817205056,-0.8813210353,-0.8562597873,-0.3107350963,-0.2303080076,0.5471567844,0.5210742395,-0.9627113728,0.5286208331,-0.8545108372,-0.9808530952,-0.2217240164,-0.8851233932,0.2350699337,0.07026431,-0.2413701489,-0.0446340346,-0.2347424561,-0.3355997743,-0.2401540342,-0.8748792918,0.4421626251,0.0072847151,-0.8009131186,-0.4908236388,0.0816264391,-0.9298734383,0.3184934724,-0.4858750078,-0.5781269835,-0.7746030634,0.1194769391,-0.1703635767,0.8779063104,-0.6074322951,0.0675794428,-0.2875169527,0.7942522376,0.5150860044,0.0605752428,0.4651978355,0.5617139984,-0.1698020551,-0.2853923345,0.8480253889,-0.0637380964,0.2560377572,-0.9773971705,-0.5443758927,0.303470076,0.3885973382,0.8135658181,0.2400207197,0.2537974302,-0.5210355837,0.8143302897,-0.4371138148,-0.1400441277,-0.2918798685,-0.2456217856,0.6274603951,0.8417206286,0.1274344697,0.4065643569,-0.4970756222,-0.7712258802,-0.5209002668,0.3759192871,-0.3116653246,1.2210015453,0.0215943655,1.0981129815,0.815934102,-0.7486556241,-0.3858020482,0.4055331274,0.7651903871,-0.1731868626,-0.2444064978,-0.0454101719,-0.6976061523,-0.138496083,0.3077194003,-0.306190738,-0.1445125686,0.7590015386,-0.2721479344,-0.7022876318,0.2230089751,0.8608141749,-0.4709205487,0.0043085604,0.9223232632,-0.6541488327,0.8127547231,-0.2854668698,0.9359212486,-0.0099327965,-0.6192743608,0.8478179993,0.2778472373,0.5792584271,-0.8949891882,-0.7164801549,-0.2151383385,-1.0902793496,0.6456580486,0.5945462226,-0.3237667734,0.8865883896,0.7950945813,-0.8796087423,-0.8395460499,0.9648407967,0.9078430593,-0.4475682491,0.4334602443,-0.2797350638,-0.2218039916,0.5641573227,0.7997367208,0.5880218847,-1.1114275849,-0.8420069895,0.8669861162,0.2482264571,-0.6216932693,-0.9670026474,-0.2336710909,-0.7411042221,0.5321739928,-0.8776814556,0.1961698616,-0.687484498,0.5297313262,0.4318096122,1.102792402,0.0083271354,-0.6852039814,0.2562976651,0.7344185304,-0.2194143499,-0.6287789911,0.1312314197,0.4718595299,-0.0623903224,0.7744503276,-1.02365417,-0.4966122957,-0.1392918764,0.3810434121,-0.0339192039,-0.026748895,0.8352320406,-0.703692643,-0.0545838921,0.7719736865,-0.6614152591,0.6936746672,0.6032226518,0.9198687482,0.8166206877,0.4693571517,-0.8882226411,0.0609405138,0.7787605469,-0.2312261414,-0.8086416995,0.1726647795,0.6198140186,0.2412006126,-0.2407266796,0.7574221433,-0.4566761874,0.7203661152,-0.5273775693,0.9269867299,-0.9135944807,-1.004825249,0.067740642,0.2540748417,-0.0096147961,0.224020438,0.3002822619,-0.6796402113,-1.0257963063,-0.4695211006,-0.5690450988,0.8325255455,-0.8934338471,-0.713857898,0.2769096565,-0.6018298097,0.5433077507,-0.4237133004,0.1855009947,-1.4102139678,-0.0790733333,-0.2303799426,-0.4044221488,0.7054249499,0.451976122,0.9508317719,-0.1885056723,-0.7592856242,0.0038100359,0.9461231006,0.5203321504,-0.1484661285,0.5863370278,0.5792548719,0.0285283768,0.8952959851,-0.1625789441,-0.0805761061,-0.0026073825,0.151581089,0.8229284097,-0.0269102485,0.8036998864,0.284410668,0.0909611062,0.1931056226,0.227504078,0.2825597775,-0.3224544715,0.6671987793,-0.0818015322,-0.0773033589,0.2680680968,0.378329314,0.2779678326,0.213721447,1.1963666461,0.2100346633,0.1049529882,0.5048792473,0.0933442742,-0.6873771782,-0.2295105759,-1.003056614,0.2924500833,0.4482470023,0.8500056086,-0.6498933887,-0.89796237,0.6231868057,0.7794964946,-0.4558734617,-0.534360655,0.6811840397,1.0737806381,-0.3992241806,0.6034515468,1.189393023,0.8863959913,0.0644865597,-0.7377117039,-0.878652945,-0.2057587008,-0.4262363636,1.0189402938,0.3752908297,-0.4496686271,-0.0041989229,-0.3524845316,0.8594852811,0.8250343247,-0.6764664058,0.2804455647,0.1788184493,0.6740591294,0.8545098889,0.2975719985,-0.1105795253,-0.8389525895,0.7378605517,0.1318810893,-0.3442282202,-0.1357436009,0.3600779962,1.1516591059,0.6668828745,0.5900382874,-0.4401933237,-0.3281490293,0.5047891996,-0.7588999378,-0.4359889061,1.068948134,0.4080423089,0.8283275081,0.74274998,0.4597034006,-0.3698178008,-0.6047776714,-1.6733893944,-0.5932300919,-0.8932611498,0.5518935557,0.0791587267,-0.6024826948,-0.7024110217,-0.8856572013,0.2017791935,-1.3421373704,0.3708335984,-0.6656992878,-0.1332893971,0.2630696651,-0.1022606555,-0.1195016177,-0.4786460111,0.1616384937,-0.4230490987,-1.2109587385,1.0279804505,-0.3355852108,-0.8947127224,-0.5107222527,-0.3456140823,1.0736862716,-0.6296237076,-0.8398486551,-0.2089340594,-0.2125671291,0.8743007072,0.5624507122,-0.4913191358,-0.3361518267,0.2608095569,0.4204199108,0.4758013187,0.357390637,0.3696601202,-0.6045021766,-0.3916424344,-0.517894882,0.5317072681,-0.3634309998,-0.976111213,0.9283996457,-0.373000892,0.3292979212,-0.5455125097,-0.4775027243,-0.7079001588,0.6246594715,-0.3325946122,0.7071299533,1.1797831836,-0.4550954735,-0.2684145095,0.3971672178,0.597156975,0.385793087,0.2486458247,-0.4708900893,0.1207266688,0.2890883284,1.3952984818,0.8131953912,0.7028426039,-0.2672981568,0.1330409459,0.2653391997,0.3126949599,-0.5922061359,-0.0974033203,-1.1510099207,-0.2089203961,0.9805362154,-0.5887203597,0.1024769234,-0.4351465618,-0.7020240274,-1.0127412269,0.7096379446,1.050330837,0.1444019459,0.5798107775,-0.4612248428,-0.5714819595,-0.6863020873,1.0488751152,-0.1554504515,0.7978483028,-0.7737512634,0.514879227,-1.1642366971,-0.169664337,0.4811283902,-1.1636287152,-0.5082384509,-0.8208882129,-0.2588526524,-0.5688000133,0.8660986085,0.5197891583,0.0307737257,-0.3323756978,-1.0169957861,0.1998850346,-0.7553953343,0.199832526,0.6892426796,0.4533835282,-0.6377336097,-0.465641441,-0.4214367006,-0.9802573017,-0.2404685608,-0.4026191774,-0.0247810826,-0.763549788,0.18592896,0.1403652191,-0.1564531269,0.3424366229,1.3078008949,0.2078160704,-0.8006032517,-0.1223929122,-0.7357730809,-0.2431815723,0.4126545856,-0.7131937488,-0.3902089771,-0.7765530724,-0.0339315419,-0.1970119526,0.6626556746,-0.6008238041,-0.3581977171,-0.472138358,-0.8792014722,0.4529717208,-0.5507461244,0.9942760636,-0.4724115072,-0.5655344467,0.5517625179,-0.2281045534,-0.4735542989,0.4234962303,0.4458523071,1.4087020988,0.8121006667,-0.2322706108,-0.3572891399,0.6705007539,-0.2589173467,0.0878600945,-0.1028316648,0.5817988478,-1.098275246,0.157161203,0.9401822031,0.5848111849,0.7143528549,0.491916987,0.7791905014,0.5783296041,-0.5892346113,-0.9346569349,0.6586597112,0.6380633121,0.3026874757,-0.5264898343,-1.025195468,-1.0931385935,-0.410569029,0.0042081421,-0.2763069879,-0.2138040673,1.1052189181,-0.2447806843,0.6452637263,0.3639110216,-1.3151800005,-0.9814259136,-0.5914457135,0.2797280264,-0.5858555906,0.0345354081,-0.2681258141,0.040678843,-0.0770365378,0.199554044,0.8427450703,-0.8305622678,-0.556983045,-0.1190579583,0.5163440316,0.7214412585,0.2320885091,0.7595764624,0.1705389568,0.5689121206,-0.0996262391,-0.1700700155,0.7858214387,0.1799186541,-0.3206041389,-0.5786217521,0.5479192402,0.2977408274,-0.0642250058,0.4071504267,0.0133503202,0.1979858005,0.7841462641,0.8338526,0.710352475,0.5541931096,-0.0514010513,-0.616771531,0.3449697348,-0.1681353159,0.6449725736,-0.9726362501,-0.7598292276,0.8938995174,-0.3207497765,0.9622483053,-0.5073036216,-0.0266429192,-0.2798389945,0.9601757206,-0.4118815017,1.1010367641,0.7012570559,-0.8124374568,-0.0947629442,-0.1357128338,0.2124897923,-0.6672435097,0.2033418873,0.1798586717,0.4153614877,-0.4200532459,-0.9883223013,0.386180568,-0.6699706865,0.6077763931,-0.8133586975,-0.552122725,-0.5777932994,-0.134654867,-0.1463043059,0.728382706,-0.7506572128,0.2065753063,0.9553271708,-0.9826176524,0.4624808184,-0.6912783886,0.734248417,0.8022961637,-1.0169106591,1.1856906495,-0.3095944408,0.6625733863,-0.087196615,-0.1930227809,-0.2102870574,0.0047786508,-0.0501107525,-0.1485096988,0.1885905035,0.6135283859,0.5408497413,-0.3054926662,-0.4852638013,-0.1672118561,0.0781391967,0.7061012763,-0.1567769333,-1.7248439613,-0.8253230402,0.438365128,0.8373754424,-0.6176067808,0.2830025675,-0.7157167753,0.4048056612,-0.1568011761,-0.7598392297,-0.5783512261,-0.9526941365,0.0275950737,0.7693913476,0.4272793663,0.7207585058,-0.1288753995,-0.7159222017,-0.5150184722,-0.6958909081,-0.373921716,-0.2419338985,-0.9634593774,0.7765448813,-0.3712794198,-1.0844549026,-0.2308673397,0.0251955057,-0.186993131,-0.795271133,0.3419529855,-0.6034071823,-0.4729477186,-0.3589424239,0.9418785843,-0.8899820732,0.0198610673,0.3729101296,-0.1081998754,0.6785750344,-0.0074743539,-0.2856304156,-0.3329977944,0.7326027432,0.3618548198,0.3574643082,0.2519122788,-0.8755570517,0.8631281229,0.2181120828,-0.4674371907,0.3638618796,0.0959926882,-0.6596141073,0.3510785314,0.9836015513,1.0992182001,0.2980553974,-0.6507709163,-0.3972552015,0.2425955122,0.2462324491,0.6350979429,-0.0599025748,0.2273637056,1.0959099902,0.9598415014,-0.0456488038,-0.2705280632,-0.3839534051,-0.7596574238,0.3714731071,0.0964683716,0.6632365625,-0.5671381872,-0.9177355104,0.5074964439,-0.4488288503,-0.7268190032,0.2911733117,-0.1387043025,0.7791100901,-1.1946181327,-0.7903134677,-0.8586905178,0.4228928501,0.4470906417,0.5353044447,0.0624990308,-0.2635982589,-0.3317943451,0.2913861086,-0.8466292992,-0.9430084332,0.0888569564,-0.5213740193,1.0405265072,-0.0116091721,0.4175052368,0.1842333836,0.4189090995,-0.6414944501,0.6723587077,0.0229004619,-0.5480169343,-0.4187757813,-0.7242801784,0.1214280915,-0.4203547995,0.0467279995,0.1419420622,0.4266696046,-0.5771736539,-0.2975642411,-1.2828678319,-0.4903298888,1.2925844316,1.6651354454,0.6994639596,0.8209389922,0.2493727019,-0.0399125076,-0.037475529,-0.0114271208,0.3899189768,-0.2980256338,1.1572831131,1.1200156782,-0.3424516438,0.1923815696,1.3727054422,-0.5183986997
   -0.9022826353,0.3098117502,0.2802111184,-0.2574556752,-0.7515030404,-0.7066075463,0.1823782323,-0.0626950862,-0.7473357847,0.1413573957,-0.1417356754,0.8386957112,0.989994525,-0.3984967465,-0.1146948413,0.0884865457,0.5272667092,-0.4544149885,-0.837259013,-0.3857684186,0.3076561724,0.6416284939,-0.1238220326,-0.7968717617,1.0233511728,0.3690894789,-0.5338007713,-0.636683078,0.5509723569,0.7346266377,0.5895282314,0.7655912697,-0.4733073893,-0.3537370299,0.1222493165,0.1091487719,0.4180880791,-0.2283932242,1.0800488382,0.4996556787,0.8713896034,0.2896930186,0.3751382021,-0.5721534388,0.6102340961,0.6714599042,1.0520255457,-0.1565858946,1.0940951655,-0.340425797,-0.5076869608,-0.5136845271,-0.7659024041,0.6165146837,-0.2951844766,-0.7464084162,0.3816900385,0.6011270708,0.3550389911,-0.2963112989,0.6584711979,-0.3579035231,-0.3743061503,-0.6237893095,0.2089705911,0.0800457537,-0.5400769071,-0.1967647692,-0.9212399312,0.3066011118,0.4612864971,0.2472961149,0.2278803414,0.3938446554,-0.7721939572,-0.323172138,0.2502189056,0.4427338234,-0.6146170898,0.891488434,-0.542108877,0.7012714134,0.71544749,-0.4728757504,0.747182324,-0.2277109914,0.3641984956,-0.2138720257,1.0709162346,0.3712520615,0.3369756031,0.1525385193,-0.0190070774,-0.8694616081,0.2694212258,0.5393153227,-1.035280988,0.6291623924,0.4594850134,-0.2376610659,0.8467029358,-0.9986569331,0.2999528437,-0.2347552198,-0.6327619598,0.9863655794,0.4020105139,0.786528737,0.5596653979,-0.8130036829,-0.7036560073,0.4489888965,0.3831189267,0.0838875314,-0.1954416635,-0.126946685,0.1501288096,-0.8185905742,-0.3290325329,0.7290497246,0.0910532045,1.1519027165,0.3012116409,0.7688550715,-0.106385685,0.1455388032,-0.3947577934,-0.2070633827,0.6042133713,0.2884375538,0.4901227132,0.3406064019,0.9642258339,0.1853438346,0.4794214197,-0.955272854,0.5811859597,-0.115674404,-0.7117839088,0.1277673395,-0.5829194695,-0.4866860963,-0.8920109002,0.3570041865,0.1817320482,-0.4629811541,0.8286093301,-0.2533249402,-0.7055013133,-1.0280415921,-0.0211579406,-0.7015736894,-0.8351829878,0.2216966188,-0.7238481528,1.1383257757,-0.3205461689,0.2084736043,0.7376813032,0.8072694903,0.3867359125,-1.1075860843,0.1769994101,-1.3010584417,-0.6708025637,-1.2323258185,0.5060551976,-0.0161724326,-0.2320301393,0.186013733,0.8429809486,0.5655788811,0.4263343449,-0.7105556166,0.0414916448,-0.3559095193,1.0379311661,-0.2876366255,0.0299000458,-0.4651823047,0.3143559083,-0.2934636892,-0.678294479,0.8551750186,0.1818289508,0.8428331479,1.0023653201,0.8169265653,-0.6303843506,-0.0480267708,0.7627360622,0.0167001819,-0.3547098876,1.0752366173,0.7733307459,-0.4762374814,-0.7399744165,0.7561024291,-0.2108157152,0.211353905,0.121012392,0.6293198462,-0.1692136278,0.2676337259,0.8572458181,1.0851753404,0.1759285196,0.1701522483,-0.2712959132,0.7168173087,0.9472871173,0.2727477449,0.0809944699,-0.7107600204,0.7848863145,-0.0937661858,0.3315887828,0.012460173,0.3699879136,-0.3382524189,-0.318678055,-0.2868896708,0.7696069291,-0.6443205206,-0.3743138892,0.8885164054,0.6094796034,-0.395130142,0.1280461383,-0.1218227034,0.5527378343,-0.2811187661,-0.4968715624,0.1502615145,0.6796727319,0.5590581302,-0.3195472146,-0.5424286735,0.4985003085,0.6775718905,0.3446177667,-0.0440993888,0.2384857649,0.2039297193,0.5056324676,-0.7477067932,0.5847628923,-0.2077290341,-0.7721434908,0.8786765553,0.5081350733,-0.0102207923,0.4406107019,-0.6701746098,-0.2563548696,-0.8795615809,-1.13983411,0.5675962631,-0.3185625538,-0.4965530313,-0.6676070873,1.0124671637,0.6993316028,-0.6517249041,0.5858046458,0.6097592275,-0.7888806067,0.3783063257,0.007585946,-0.0641861622,0.1148865241,0.559833059,0.5177773871,-1.1176348128,-0.137170714,-0.3041257041,-0.1127816762,-0.1599410321,-0.3327380412,-0.2214483228,-0.1736454037,0.600430373,0.1823750694,-0.5591739327,0.5479213882,-0.5742227268,0.8869166658,0.8885354638,-0.8183257547,-0.4190732453,-0.8284372946,-0.948405755,-0.9567628884,-0.8868174288,-0.742959137,0.4928586768,-1.10634005,-0.2692806208,0.2876190143,-0.1195110566,-0.1001506264,-0.3451021827,-0.0109630215,0.1264005193,-0.7885804298,0.8178936364,-0.215518387,0.1854345724,0.1331652025,0.2857488527,0.4469779824,0.2101108267,0.895385151,-0.8108296594,-0.8426445709,0.1606049493,-1.0093330086,-0.2307052179,0.2876063698,0.2884531252,0.082882945,-0.055730206,-0.7387022893,-0.3572481217,0.0763405282,0.0701523542,0.2822471235,-0.6457728497,0.7131915468,-0.2073132527,-0.0623104775,-1.5194423555,-0.7288276343,-0.3899608372,-0.1605104705,-0.3738051405,0.391419558,-0.5604447106,0.3569046416,0.844008301,-1.1090528739,0.1974410489,-0.9703626923,-0.2678534223,0.090284978,0.2314396864,-0.0224893359,-0.5468557031,-0.2889737031,0.3220236637,0.0060828401,-0.6762781807,0.5822047663,0.6104538443,1.1286667838,0.4721049839,-0.2344148585,-0.2274044543,1.0686094743,-1.4435010244,-0.4940934168,0.9504897596,-0.3302414569,0.5382442444,-0.2287601294,0.1063741686,0.3778799225,0.0567601417,0.3421441277,0.5219781456,0.137227552,0.2327790779,-0.1958570903,0.7597262834,0.4025726948,0.9026021254,0.6883058266,-0.5503534029,0.3942184773,-0.7447672601,0.3663732388,-0.2543752572,0.6037699584,-0.6331159695,-0.2959381082,-1.1662893208,0.7731406931,0.0487220437,-0.1292636851,-0.2733669172,-0.177300229,-0.0242668752,0.5923669712,-0.8764142075,0.6887335589,-0.4799711184,0.8283970623,-0.9979443951,0.7518030352,0.4960838601,0.2584340692,-0.4888951989,0.7868182982,1.0275869681,-0.3489713975,0.2621377914,-0.6724435151,0.318683863,1.3827135975,-0.5852828008,-0.0679833803,0.730822743,-0.1319461845,-0.0038883858,-0.3458928414,0.37590863,0.6794151876,0.299605738,0.6473296025,-0.0997770627,0.2835823882,0.3404266812,0.4993407873,0.7691873664,0.7737175276,0.4276912062,1.2507708839,0.3718262564,-0.5896781243,-0.6390941702,0.8766392525,0.7598370892,0.279392892,-0.0192232593,-0.1124986925,-0.2390703425,-0.802218983,-0.331417241,-0.3872549099,0.6757563659,-0.192069339,-0.0766823212,-0.4783230316,0.4519217941,0.5229967673,-1.0959234082,-0.469196585,-0.3925090291,1.0533005974,-0.3349772719,0.246179119,0.4127673386,0.2364338256,0.2634838275,-0.4453395928,-0.2466454095,0.6891953393,-0.2258870573,0.3741092085,0.8174100153,0.5261401573,0.3473026347,-0.3365311635,-0.1450277073,-0.1857979497,0.9459691326,0.9462067775,-0.7449509253,0.0867983107,0.8284420705,-0.0893557271,-0.632749404,-0.330951507,-0.7950304902,0.2056021003,0.3455003778,-0.2004050401,0.447592943,0.1879260044,-0.3406487037,0.3817729463,-0.0091634058,0.056826912,0.4048452327,0.6869482589,1.2259432537,-0.0149976755,0.752485331,0.2188746584,-0.0397845262,0.0224683559,0.1965875548,0.0831502851,0.4204654122,0.6294052314,0.3538721492,-0.2154951395,-0.5270134352,-0.6477180172,0.0094110978,0.0636069312,0.0862950001,0.0824818585,0.8403090408,-0.9526061629,-0.6827183472,-0.1774394367,0.3806864728,-0.6091507454,0.073103719,0.6580789411,-0.5470999111,0.5771009983,-1.2144750709,-0.2491722511,0.085581348,0.1641460475,0.9096645128,-0.02544907,-1.0346115387,0.5242781516,-0.0485753813,0.1663637594,0.6705814835,0.063284026,-0.3340587345,-0.2649798448,0.6160278681,0.0913088709,-0.9496689959,0.2054240266,0.2974277942,1.0165938928,0.1196530432,-1.1337793206,0.0668194586,0.4007905213,-0.4179058947,0.948360193,0.0537434647,-0.5348886432,0.8708523745,0.9792436741,-0.7670704263,0.490342236,0.3886188955,0.6245000392,-1.0921229071,-0.9912881085,0.3299577302,0.2032836352,-0.0316338037,0.2026104236,-0.336062043,-1.0823887238,0.2405135194,0.5587019499,0.3185645616,-0.1454178805,-1.1399066859,0.1964163545,0.3623751707,0.2721529516,-1.2833035834,0.2739353998,0.6224435715,0.0419908863,0.3032183281,-0.1761154238,0.6787867633,0.3643070546,-0.0075091264,0.05826767,0.2573420096,-0.0684671878,-0.9515108258,-0.9124992416,1.1873703346,-0.0084423121,0.6367785393,-0.1577299501,0.4308993755,-0.6491034035,0.5056429699,-0.8189226975,0.1153696831,0.4349793468,-0.7687643116,-0.857151238,-0.0750789801,-1.211397322,0.8952408056,-0.6490310497,0.4059034201,-0.5041776251,1.0396534695,-0.1097123927,-0.7903806205,0.8552911946,0.123625982,-0.2052552113,-0.133178024,-0.9799907519,-0.6242423817,-0.2391880661,0.3888696411,-0.1361849957,-0.728263953,-0.2317974783,-1.101903808,0.3048763181,0.7468818111,-0.0436043832,-0.1121123884,0.2483335434,-0.6109887582,0.1665703033,-0.8743874332,-0.5731907574,1.7065641903,0.9428417601,0.5599461343,0.3267999656,0.4552141612,-0.8513730075,0.1280607156,-0.5115999171,-0.8332103947,0.8875470233,-0.1956649077,0.0102528981,0.5669553455,-0.4253967803,-0.5138686554,-0.1923636093,-0.3262838476,-0.2768563168,0.0310853268,-0.4968876798,0.0094810446,-0.3103443373,-0.0183556726,-0.1547619033,0.0512012763,0.5918326801,-0.4233225822,-0.2171146884,0.4805573344,0.1531640684,0.9941322539,-0.8892767972,-0.4358438775,1.1484440826,-0.3624632148,0.2448810239,0.6976275898,0.004249446,-0.2116247787,-0.8159833101,-0.7515745632,-0.9506077279,-0.0530563107,-0.018360932,1.0378129746,0.220108549,-0.6943122891,-0.3708446742,-0.3416606129,-1.2831445749,-0.2190712096,1.2857925457,-0.5227190214,0.6325418881,0.9262273197,0.272796439,0.382990295,0.8695309355,0.0726997619,-0.571765299,-0.1696591825,0.1715557357,-0.2763798298,-0.5018847468,-1.0097724243,-0.4793025293,-0.0254388569,0.157368601,0.3088682863,-0.9056666932,0.0545799958,-0.5952061857,0.2221466413,-0.0818360274,-0.2731908367,0.2821798603,0.2881976107,-0.7739195913,-0.706836427,0.5372795843,0.1297928564,0.5621065948,-0.2533650974,-0.186300142,-0.8921583084,-1.0859558794,-0.8237377841,0.9001033875,0.1428354353,0.0292509649,0.6360726024,-0.3319197197,0.4312364551,-0.281886717,0.741144104,-0.510108432,0.435243355,0.0469386979,0.7155403395,0.7139375502,-0.2714050327,0.0526206667,0.551200284,0.2184336043,-0.451538396,-0.3511105929,-0.204789019,-0.4767428444,-0.7315012831,0.8794480924,-0.6770934607,-0.2457238875,-0.402412894,-0.0804910072,-0.945131831,0.7209770721,0.3371055096,0.188991225,-0.6060305492,0.8248942779,-0.2820272607,-0.1574506065,0.3332564906,-0.5640579626,0.4712704787,-0.3969932277,-0.4871630299,0.8929272748,-0.870830599,-0.2300766911,0.3187062048,0.5350612861,-0.4564160953,-1.3661974778,0.0981056125,-1.2129921447,-0.7082937947,0.539948345,0.1812033626,-1.1941758854,-0.6093106253,-0.0395773657,0.5416595302,0.4971986672,-0.4250884649,-0.1185055854,0.3616380839,-0.667397165,0.2732709709,0.2558698149,-0.3488983877,-0.7511831233,0.1517410071,-0.2882026137,0.7881539924,-0.657943258,0.8724232413,0.748438379,-0.6754037289,0.8509032939,0.5512810901,0.5194613354,0.6346027776,1.0484797181,0.6066589788,-0.62348949,0.446603527,0.6646518358,-0.7439740334,-0.3753855583,0.382450243,1.0601076607,-0.2174668496,0.8718459167,-0.1016478717,0.0241729836,0.3771674322,-0.7428407795,-1.3364999048,0.3203635184,-0.4562601118,-0.3217349878,0.6180895314,-1.3583027145,-0.9250957632,-0.7041763963,0.757785699,0.3631116941,-1.2661218244,-0.1862800114,0.4669140794,0.3659244754,0.7600965397,0.5738520156,-0.5887640697,0.5960795222,-0.6549287659,0.4855041016,0.4975585882,-0.4384082301,0.2191852024,-0.5458219344,0.6852872861,0.8354111018,-0.6935010501,0.2548401908,-0.5525242125,-0.3573523027,0.4476813185,-0.1474515843,0.5395707893,0.5835300872,-0.6869203469,0.3733924058,-0.8450424211,0.4990862371,0.106856022,-0.1367970504,0.8720720778,-0.8800027193,0.2662873307,0.0139849437,-1.2049977066,0.9410313459,0.3729275119,-0.4449688375,-0.5236605187,0.4548949552,0.8596483952,-0.1269151768,0.5487888239,0.666241701,0.423009965,0.6715134568,0.650558074,0.4187107081,-0.2788066651,0.1052678269,0.179500872,-0.1634129462,0.2812988822,0.294076548,-0.3630941454,-0.2012934642,1.0697513785,-0.0955597936,-0.4426455049,0.3424529658,-0.0703947969,0.4064593838,-1.0004971897,-0.7584160943,0.2631315489,-0.2891403402,-0.9520371534,0.0594425874,-0.2927112856,-0.3765606916,-0.8068758094,0.3711017375,-0.6182007717,0.2492492145,-0.2305313618,-0.620157539,0.1204802034,0.0267421128,0.26341944,-0.6586377929,0.8713750641,0.7452710025,-0.5567964985,0.4643025034,0.281393924,-0.2876796767,0.900004827,-0.3613859533,-0.5597385323,0.8201613435,-0.1456765271,-0.3143533116,-0.5341263785,0.2836015594,1.548523378,1.6875946097,0.1438181636,-0.3152826584,0.4466797291,-0.3472705756,0.2298995497,-1.0339267357,-0.6551341788,-0.9981781364,0.4486938472,-0.3125831933,0.317130323,0.4519013666,0.008156189,0.9310482917,-0.4393600784,-0.9933721971,-0.9438124305,-1.1779318751,0.0687806851,-0.212114605,-0.1760474442,-0.7255382694,-0.266130865,-0.2755588601,-0.906275041,-0.8144689405,0.4586106473,0.2334645101,0.8985570892,0.2272513311,0.7712370042,-0.4826339572,-0.503611589,0.5701193518,0.2442799664,-0.1224391956,1.2061272371,0.5179432528,0.3383619188,0.2705775639,-0.2479107131,-0.4812115301,-0.0506293922,-0.0086559158,1.2166136298,0.3557441664,0.3796699336,0.2576510509,-0.2107858848,0.3067317393,-0.425211373,0.1472476295,-0.3575427099,0.4012029742,0.7095774623,-0.362790281,-0.241683516,-0.509819175,0.401557868,0.6452966569,-0.3165035223,-0.9814985137,-0.5534375424,-0.243162942,0.4272686934,-0.0965966063,-0.0172706851,0.6065154956,-1.0453021974,0.3156542105,0.8976754862,0.0561156367,0.194773497,0.0548277752,-0.0944182202,0.5791255466,0.1880726175,0.2493763796,-0.0801232085,-0.4222170654,-0.8425892016,-0.9705699124,-0.4687393324,-0.7447153088,0.3456994213,-0.7660997115,-0.4674820627,-0.4804230359,-1.1851203069,0.0555420496,-1.0404409195,-0.4326248688,0.1250823623,-0.6956225712,-0.2980124684,0.7710656981,-0.4169557629,1.1009989312,0.1786692608,-0.0692171905,-0.9056222379,0.5168504109,0.9703307996,0.4287191143,-0.099279024,-0.0048790639,-1.1576602283,0.1845775329,0.9872166337,-0.9365187525,0.0902472505,1.1888962443,0.29174252,-0.1549883694,0.6244349666,-0.6180057666,0.3707771032,0.4537778533,-0.9162452253,0.7008753614,0.6318657152,-0.3662401944,0.0592688186,0.6010221703,0.1955380765,0.2194002803,-0.7473993426,0.7872196905,0.3474435029,0.1026247579,-0.7877041273,-0.5946801471,-0.4646070971,-0.4597171142,0.6018290713,-1.0787726806,-0.4255853239,0.4485821228,0.2488757071,-0.8086916036,0.6169133824,-0.3148311005,0.1668675095,-0.0171589919,-0.3004247823,0.7581597487,0.2166920863,1.0890191519,0.3593056377,0.6869163621,-0.5824902424,-0.11395296,-0.8990939562,0.335442165,-0.397793459,0.5325920201,-0.2930717062,0.2726451711,-1.2573546703,0.0960774917,1.0875059369,0.1310237926,0.0252020911,-1.0567419606,-1.4549737122,-0.5408161811,-0.2776368336,-0.9413782833,1.1167232933,0.6631353346,-0.4504620033,-0.4146872011,0.3805848199,-0.6434498439,0.7869233637,0.5737241438,0.2581898028,-0.678264088,-0.7642330125,-0.3249649462,-0.4954496391,0.2833075996,-0.3765482689,0.0453520536,-0.4053341645,1.0565249832,0.3519158568,0.6479183685,0.5306395627,-0.7897754078,0.3152073229,-0.000622171,-0.7970598091,-0.2091555264,0.4081549148,0.3748394624,1.1162595722,0.3025155325,-0.6279569127,-1.3734991874,0.0080786197,0.5865444993,0.5084513685,-0.2306547897,-0.3174681589,0.2486423611,0.1838898641,-0.1413534649,0.0149533607,-0.6394365663,1.2875449935,-0.5253961372,0.7165770335,0.9670760248,-0.0152735317,-1.0374479982,0.0930856045,-0.0677071728,0.6098421386,-0.2705561686,-0.9262532619,0.3397070495,-0.685371383,-0.8946994846,-0.174386604,-0.4867416288,-0.6903211317,0.4792317893,-0.9106451933,-0.2432131379,-0.3984928012,0.8597181574,-0.1443105243,-0.256706963,0.4411581011,0.3083817303,0.6324145208,0.7870124861,-0.5328653449,0.265982348,0.8321785375,0.5976996912,0.2554177938,0.3618828142,0.0589395993,0.2302993383,0.3764891727,-0.310270256,-0.0225814702,0.1863189089,0.9890513961,-1.1207387579,0.8007184002,-0.5613487721,-0.3983803764,-0.0727478209,-0.4834012027,0.7712491642,0.279618077,-0.7237859434,0.351917696,0.1246813633,0.5064264297,0.8270540444,0.9090363104,0.0345788658,-0.4762769575,-0.3290212173,0.1980598147,-0.3936912464,1.096289363,0.4793787477,0.2839056764,-0.6634319969,1.5736544248,-0.1332114819,-0.9399491287,0.0284255944,0.7890124665,0.3397677001,0.5499207195,-0.2183676185,0.2302570717,-1.2071022424,-0.3981199499,0.5891854664,-0.4699660722,0.8244105977,-0.5087833674,-0.5245788454,0.4393361758,-0.7716446522,-0.4694178678,-0.3883808477,0.4868172577,0.5661437365,0.0255702298,0.1846816502,-0.1441467894,-1.0401496884,0.1113581521,0.5611855365,0.6591548647,0.5295831576,-0.3897371237,-0.4073270718,0.2906626109,0.0161553677,-1.0781828039,-0.2137360909,0.4798541653,0.0089608735,0.831728495,0.9298295014,0.3006785106,-0.8779118967,-0.6746596419,0.0608619714,0.5695933657,-0.3006045528,0.8884420744,-0.3092361838,-0.9436265753,0.3257320886,0.602002075,0.7959484036,-0.3004887907,0.920468002,0.5237128058,0.7179407193,0.583471299,-0.5539508147,0.8479292303,-1.0096780786,-1.2503866799,0.2912724289,-0.5724835172,-1.0917526163,-0.8707157177,-0.4091295336,-0.0718379795,-0.2278177538,0.2036869975,0.4126706759,-0.3026252012,0.7905567234,0.5900012482,-0.9059158501,-0.1680992507,-0.0720864152,-0.2961476247,-0.6754730313,0.4350121586,0.1928002271,0.2193214824,0.409521253,0.3856984077,0.580640966,0.6465838233,0.1948097506,0.6793013412,-0.8714847185,1.1952182252,-0.4536780208,0.2592616553,0.1360025099,-0.5256034078,0.3100475254,-0.5895554132,-0.5414160949,0.0552398071,-0.1286109754,0.3460801957,-1.0359871937,-0.5358561373,-1.0716296061,-0.9747967981,0.0160442362,-0.282072235,0.6255905201,0.7472703214,0.1207818668,0.1193975442,0.5995748012,-0.0554564917,0.1743846793,0.2683740064,0.4206341371,0.6610751951,-0.0601657088,0.3485859486,-0.4317556333,-0.2869516686,0.9450303023,-0.5517684324,-0.7155896018,-0.3925541177,0.4745551237,-0.0801805756,0.1578891106,0.7363979126,0.2816131344,-0.6777866421,-0.6405446762,-1.2952837086,-0.2896120592,0.8145940452,0.0615737308,-0.1035921385,-0.2443216999,-1.169140811,-0.9633170513,0.4654804571,0.7700442892,0.2763594306,0.6522588311,-0.0691396287,-0.6235761595,0.0231317174,0.7252727219,-1.0397180923,0.0214067805,0.3728149555,0.2646891979,0.4847904838,0.483530317,0.1101214773,0.5712677524,0.1713231433,-0.2017126233,-0.9023245027,-0.1130499719,0.0911180292,-0.186379822,0.0180811436,-0.7445780227,-0.5601014567,0.2004956955,-0.6575369959,-0.6143944181,-0.3459550149,-0.9735759855,0.1131004269,0.6996336268,-0.2485405198,-0.4410963807,-0.1001789633,-0.1243066516,0.0833979217,-0.8145199792,-0.3165429082,-0.4070823514,0.4612004103,0.3509305638,0.936738453,-0.9099703314,-0.8606170161,0.3510606063,-0.608529808,1.0949378748,-0.5444070199,-0.0811675527,0.8267217522,0.2878270598,-0.6828302706,0.8313247344,-0.7139898031,1.0202529879,0.3509553508,0.8567099423,-0.2548600241,-0.5266095704,-0.3666933125,0.8786589836,-0.270472433,0.314333569,-0.5003044241,0.141514521,-0.6519507762,-0.0997865577,0.6507678518,0.8326877655,0.036468759,0.8510553999,0.6455780545,-0.0948118574,0.3518788361,-0.6351164709,-0.581131537,-0.5028178492,-0.120699831,0.1849928863,0.0001838698,-0.1051601058,-0.8209762595,0.6379802453,-0.450896149,-0.0791164734,-0.785482212,-0.7036012637,-0.7397388422,-0.4454419698,0.0572556077,-0.0660904883,-0.2417357811,-0.6690502307,-0.5469394469,-0.0649216212,-0.525323769,0.5881169939,0.1293121195,-0.5703694886,-1.5867206802,-0.6956483638,-0.0220260678,0.5226311258,1.1781513815,-0.0003507025,0.6753802001,-1.1189679751,0.1539684452,0.5500912403,-0.9430573927,0.122621682,-0.2607237731,0.3255949199,0.1923925446,-1.1280418882,0.820734288,1.0093204122,-0.7367130066,-0.864733621,-0.6514350678,-0.2354561433,-0.4247442328,1.0315546798,-1.2118078441,0.5648320514,1.1211396673,0.9599661328,0.7680857868,1.2775817302,0.6924563567,-0.2152220699,0.5517318547,0.3548348611,0.0248727366,0.2491738517,0.1547046151,-0.0061126298,-0.4018135559,-0.6246400919,0.5062765795,0.0400553821,-0.0792376864,0.3013768375,0.3528796798,-0.4465610533,-0.0424137707,-1.0578138819,-0.6411666831,0.131357012,0.6781771461,0.8345780583,-1.2867530272,-1.4178122036,-0.0389901085,-0.7172708849,0.9186258617,0.977287523,-0.6424059258,-0.3009967221,-0.2658220287,0.1935632711,0.7579656801,0.6982589032,-0.5746541375,0.1419842946,-0.4050660387,0.4029200352,0.6294085824,-0.0142450589,0.4861514383,-0.0026893403,-1.110345468,-0.5590733914,-0.8241983895,-0.3356412213,-0.2206955647,0.0504546586,-0.7699766417,0.4066067732,-0.9756069588,-0.4054930175,0.4676910558,-0.6532126713,-0.5581401995,0.8892909732,0.0606345356,0.3253532031,-0.3588539355,0.552303008,0.3324574492,0.5902381446,-0.4636185003,-1.0386171382,-0.519422188,-0.2382935585,-0.5754679551,0.617507996,-0.4658840002,0.2223279441,0.4949250623,-0.7646988194,0.7236181791,-0.2940846087,-0.8769912167,-0.7503240541,0.9086268753,-0.4397242462,0.0220466443,0.4044006562,-0.2974678227,0.930697603,0.4819031684,0.8276772252,-0.7997939262,0.3941949628,-0.2695046708,-0.6875677758,0.2126978377,-0.6107239399,-0.5205607421,-0.2653265721,0.1892806603,0.8505913018,0.05388109,-0.9237873153,-0.1040941861,1.0481589972,1.1916849532,-0.6774062287,0.5785050816,0.4088543317,0.8399050214,0.1572607371,-0.564072427,0.4169900515,0.2552548815,0.8362512198,0.5027488748,1.1253378963,0.5693718909,0.5196774064,0.6844647056,-0.0139122824,0.1833265888,0.7983900861,-0.6477723535,-0.142311467,-0.5908099925,-0.2315580434,0.5339484596,-0.4455589978,0.0799564201,0.7763961902,-0.1698186844,-0.9572524807,0.2400063095,-0.0971719015,0.6117602982,-0.2975785548,-0.8730742455,-0.3887346759,0.9501464353,-0.3046843679,-0.3597918746,0.6376270066,0.9549612617,-0.6574510649,-0.5705448043,0.543796803,-0.0160252055,0.1472684808,-0.0776041797,-0.0644460641,0.7978029534,0.4365920825,-0.632546685,0.084471066,0.2741352727,0.1383256666,-0.1194706429,-0.7175466125,-0.7512124582,0.0367494462,0.5693666175,-0.6544387858,-0.5568019506,0.1809400557,0.7379660288,-0.4667975821,0.2986386201,-0.1418888228,-0.3918051355,0.1053817724,-0.2177021722,0.3951870128,0.338927815,-0.826096291,0.1448285691,0.0001597423,0.2039393921,0.8269164186,-0.5392460915,-0.0126094322,-1.0359871347,-0.1753964044,-0.4423369,-0.6053353212,-0.052919345,0.1795647078,0.9849340378,-0.4183937073,-0.6663024338,-0.6736100039,-0.9114362148,-0.3175785108,-0.0948821728,-0.6105942292,-0.2051291364,-0.1029460186,0.5409987207,0.3485660754,0.9566101083,-0.3885082654,-0.8025569384,-0.5099088519,0.7323662512,-0.2384155812,0.243752493,1.029586867,0.6149717366,-0.6365439882,0.3409984622,0.904257434,0.3492928447,0.1707384324,0.9987711414,-0.0270815837,-0.9981492405,0.672417185,-1.2901178186,1.0526775003,-0.0840282642,0.1805834767,0.146616722,0.9627533762,0.4444670664,-1.0121796248,-0.7755057342,-0.2881285682,-0.2946874343,-0.589312023,0.6544980795,-0.2171153528,-0.1394712488,-0.0831239993,0.558964769,0.5260737643,-0.1143960551,-0.0244527545,0.4478115694,0.1744650477,-0.4720217242,0.8970575325,0.8969206114,1.2635221644,-0.8149795822,0.1919421416,0.7712951761,0.2196859153,0.196110059,0.4851609683,0.1089783967,-1.1093890348,-0.7234411531,-0.8161353638,0.9502057771,0.7585530358,0.6388952279,0.3464779186,-0.2511736536,0.1028224679,0.0309353935,-0.6946374043,0.4141923828,-0.0621427839,0.2499290126,-0.3941580963,-0.1221990171,0.5769281657,0.4038581994,-0.4929819876,-0.0773210662,-0.0448984003,-0.0756909537,-0.0233973442,-0.0278750917,1.5622263672,0.4685780877,0.6569243451,-0.5419395582,-0.0704947395,-0.2064827498,0.3250552265,-0.0191301456,0.8255811339,1.2758993954,-2.2210825083,-1.398555376,-0.6760088023,0.3241142519,-0.4921084123,-0.3955475836,0.1064304828,0.2531572134,0.0477244476,-0.8120979598,-1.6370090351,0.2717306434,-0.0416680438,0.1851039002,0.2086712545,0.1335021361,0.0010164639,0.2482343876,0.1107145393,-0.35618506,0.1387374185,-0.1478089718,0.0301743517,0.2470421621,-0.1493146143,0.0770833444,-0.1993052204,-0.1461433084,0.4328715602,1.0733706214,-0.1549101899,0.2527398485,0.0768558165,-0.4500356557,0.4953365375,0.7237317139,-0.724714751,-0.8237705384,-0.2560371449,-0.4090143702,0.1738801879,-0.231449148,0.7990816888,0.6064630531,0.2348868616,0.7898036906,-0.0183914637,-0.6822591042,-0.8287662876,0.5564646872,0.2802704032,0.6476964537,0.4891285539,-0.4107150079,0.3842993925,-1.0163011569,-0.4606690023,-1.5525373383,-1.3280992306,0.4505580446,1.0972488155,0.9878701643,-0.0422873552,0.1839487205,0.6088563425,-0.0870083532,-1.1261045808,-1.0935480574,-0.4734263246,0.5409726199,-0.1389861791,1.0846476194,-0.3167273463,0.1083586673,-0.4856067538,0.2027823423,0.4315146944,0.4951175683,-0.6664447172,-0.0071605796,-0.4242821202,0.3108883649,0.6203861441,-0.4975242949,0.1431561453,0.8806598381,0.0606349839,0.7097599107,-0.3875172821,-0.2766034067,-0.2454343683,-0.855553913,0.9310943953,0.4446165286,-0.0134325935,-0.5540302535,0.5916111054,-0.3194660446,-0.7825204129,0.1684974682,-1.0757585302,0.3703659247,-0.0271457997,-0.003317889,-0.7087083753,-0.1958225314,-0.4954356478,0.1347093274,0.4660885148,-1.0410706549,-0.4140423033,0.1554527649,0.6262818193,-0.8409878953,-0.5646651567,-0.7059403545,-0.7215389823,-0.131036068,-0.8028709075,0.3797335963,-0.2916818393,0.2311155284,0.8041303212,-0.7251494954,-0.6023355369,0.0066741339,-0.7374824082,0.4826043796,0.0481032668,-0.2564453789,-0.619447591,-0.9559685896,-0.67610958,0.2975264366,-1.1202700371,0.5577240796,-0.3995635649,-0.1535823335,-0.4001196253,-0.0826805072,-0.2658721616,-0.42493388,0.3679664571,0.7576414897,-0.4370405077,0.833585074,0.3259528547,0.5190740188,0.018239282,0.4812563981,0.3169765471,0.9339433283,1.067394444,-0.9323562028,-0.2612108649,-0.5086252922,0.933301555,0.4890527369,-0.706004335,-0.6333565903,-0.4384992252,0.1242801051,-0.9469543823,0.0695925701,0.861344784,0.9481281071,-0.2470136331,0.274365614,-0.8669995081,0.3397853867,-0.2605240939,-0.3620229698,-0.2240269753,0.2212792106,0.5491426012,-0.3967351266,0.0401054425,-0.7757178512,0.4676893794,-0.6827919433,0.0595990068,0.2591974113,0.0669316665,0.5043408594,0.3370627435,0.3028646631,-0.6791298362,0.5246503316,-0.8894503133,-0.5697507117,0.8373777743,-0.2849250997,0.4179371677,-0.2641838834,0.9802484304,-0.5141615095,0.8742612338,-0.0897867185,-0.6218108834,-0.3875413893,0.852769865,0.681101343,-0.0353571408,0.0325848598,-0.8164084622,0.3644369378,-0.0189105321,0.0113392418,-0.327972294,-0.1272362204,-0.3313795345,-0.5827716627,0.3424086872,0.0060422075,-0.3963580063,-0.026663036,-0.9278352321,-0.0839979473,-1.0223877625,0.0314076334,-0.4697223586,-0.1301377634,0.71669219,0.627219292,-0.5142709504,-0.867118605,-1.0585251952,0.776384022,-0.643937054,1.1207644849,1.3351938611,0.9485548764,0.8392895959,-0.1799019616,0.728557267,-0.1444256678,-0.4865351869,-0.6124679073,1.1748993741,-0.1493027905,0.9464611271,-0.3523998041,-0.4632328694,-0.3181387687,-1.1477642216,-0.0660322359,-0.1400217985,-1.144181659,-0.4757105153,0.954867968,0.2949108932,0.5416160994,0.7473457281,0.5918850321,0.5269086161,-0.5230633524,-0.4342512466,0.3603232118,0.3198853165,-0.4001082706,-0.6289545513,0.1872521189,0.9861154673,-0.627983045,-1.1701219476,0.7071106665,0.808249078,-1.1863880356,0.6635009219,-0.4788519546,0.5748685557,0.8442956342,0.532375319,-0.5258715132,0.3551811409,-0.8260029241,0.440921801,-0.3974734439,1.1469412117,-0.3556224546,0.2879391095,-0.6901737423,-0.3380999305,-0.1729659347,0.9637208587,-0.9574920815,-0.1720312021,-1.3418053359,-0.3768819356,0.0786844714,1.1827961958,0.7335530205,0.701670877,1.1564531524,0.2078171869,-0.2601295011,0.6711403636,-0.2589380352,0.6346013982,1.133927252,-0.6811025031,0.1051024912,0.0746276133,0.2010003441,0.5371767097,-0.2245702952,-0.9234156888,0.0988887333,0.2833284932,-1.1400927524,-1.2600024498,0.7720268341,0.2679344177,-0.2162190617,-0.9144649399,-0.3638155625,0.1925617205,0.0331588312,-0.5462431884,0.1979093343,-0.753430971,0.5487926448,-0.937887281,0.810679228,-0.6580201503,0.7840289851
   -0.4862621739,0.732187932,0.6979357199,0.6566834387,-0.8821034178,0.7285562594,0.2461594811,-0.4676494825,0.730888776,0.9002474699,0.8989403367,0.5757222189,-0.0617491182,-0.7828281875,0.3213563593,-0.8421608709,0.9412240552,-0.8986480852,-0.7778177872,0.9501064034,-0.8479693286,-0.4314615646,-0.5524945356,-0.0528392996,-0.816465171,0.1797648064,0.2198027326,0.9978855332,0.0471038242,0.4532812744,0.3542125187,0.1146779534,-0.5378567021,-0.0796336166,0.5214957355,0.3392757066,0.0654795044,0.7982159648,0.3550592559,0.0271475057,-0.4653595873,-0.7708051525,-0.6771251457,0.7515768192,0.0585318391,-0.226876189,0.100738676,-0.202184135,-0.1337613429,0.0125989515,0.361119329,0.9639879303,-0.8029499861,0.0017741792,-0.3181442259,-0.142391262,-0.6292093629,0.3264511881,0.4123838154,-0.3083059025,0.4388378016,-0.9690911873,0.2499507491,0.4803631278,0.7844510122,-0.4408030145,0.4010249614,-0.3648394992,0.4278253045,0.4869089082,-0.0022765237,-0.4785220946,-0.1479500952,-0.5812462247,-0.2730808477,-0.7388870166,0.5091881073,0.6063600299,-1.079319546,-0.4047800206,-0.3871846638,0.3864018446,-0.7967117205,1.1597284686,0.1701480438,-0.8884651064,0.399576144,-0.1443822687,0.0135593066,-1.038538786,-0.2753815589,0.7585847014,-0.0293584162,0.0722061229,0.0829319543,-0.510022218,0.5127796266,-0.8095113942,-0.5595512077,1.1977119066,-0.0016712242,0.4170060273,0.9149161958,0.4391709633,0.2093663404,0.0193097849,0.8559153225,-0.6493867519,-0.0605578422,1.0500173618,0.1900325823,0.4200631073,0.2847794124,-0.6765268122,-0.1840715537,0.5363920115,0.3077205793,0.1591279402,0.0639148314,0.4765723212,-0.8204503057,0.0174940756,-0.5419817004,-1.0918091094,-0.8477847983,0.004951753,-0.490713037,0.1170332778,-0.4998949669,-0.5400501579,0.1409910365,-1.2269295032,0.9505457907,1.2495614822,0.0237290972,0.3302685848,-0.1472046349,0.1093610916,-0.9866454868,-1.3211451852,0.4229043734,0.7530989474,0.4648619656,0.3585822215,0.4527565458,0.4807986242,1.7354610248,0.5985989149,-0.3301841606,-0.8797952149,-0.4379053732,-0.9815863073,-0.7106683835,1.351974697,-0.4572507411,0.2981939443,0.2447655779,-0.3570303642,-0.4344212805,-0.6469341954,0.7513677291,1.2519226282,-0.0692682128,-0.5248277699,-0.490070901,0.0505735273,-1.0025467252,1.2057106585,0.0549600286,-0.5697047045,0.9660615791,0.2761824976,0.042101227,0.5366395536,-0.3611944908,0.0947497093,-0.1540731123,0.9714270207,-0.4317050479,0.0449028741,-0.2900293583,0.8776952928,-0.1054614625,-0.775577853,-0.5257791767,0.4090035422,0.0593596073,0.2739020558,-0.1912662712,0.6706728935,1.0275389636,-0.8436613613,1.2788108874,-0.1046984243,0.4054519362,-0.4575741575,-0.8767494856,0.7536326511,-0.0256691729,0.7075320855,0.2219096538,1.0108693114,0.7938248148,0.1326192324,-0.5251446022,0.2288145254,-0.1773965784,-0.7541157372,-1.076026572,0.0147025585,0.4859478093,-0.1546355433,0.6116036491,-0.6738092922,-0.3269503022,0.2580307533,0.5023911245,0.0058155538,-0.6021137424,-1.0640130051,0.3693617888,0.4701195551,1.0420159385,0.2961840266,0.539792267,0.1061363811,0.1243687696,-0.3350277578,0.233924501,-0.4910201502,-0.8924300527,0.855652306,-0.5248876984,1.0081296767,0.0167433465,0.4143188274,-0.6974230628,-0.0870381026,0.3053617174,0.2186689488,-0.7320597796,-0.5206685001,-0.3057414739,0.8440876711,0.5090512028,-0.0295440394,0.6542735064,-0.8601335417,0.7774738651,-0.6428884256,-0.8131371294,-0.6817692564,-0.2589659161,0.6605442917,-0.3411789823,0.7807762425,0.9046386235,-0.0653175447,-0.1628102116,-0.7033309949,-0.3240446681,0.432630934,-0.3139888733,0.8053781412,0.5309960864,0.0150866707,-0.9482158803,-0.5049416518,0.4473937402,0.3754410851,0.4337039581,0.8839465353,-1.0485180257,0.4600722108,0.2730306346,-0.263364137,0.7505399419,0.3825083063,0.0350674574,-0.9469424288,-0.4761446208,0.6067072549,0.6996623529,-0.578178583,0.435988762,-0.5188532577,0.5337342317,-0.2593600585,0.3454002333,0.1346949502,0.4704233212,0.6731333671,0.8523301698,0.4553489861,0.2640863932,0.7897748552,-0.5443723123,-0.3628484878,-0.3077630318,0.7910445811,0.731498645,-0.1132850942,-0.5592139165,0.1880421868,-0.540371286,0.0594090322,0.8295893101,0.2781217317,-0.3151390692,0.5184218717,-0.1496581958,-0.7036963711,-0.1400150998,-0.6382799928,-0.6130450279,-0.039438999,0.3600689939,-0.2285914371,-0.8041355957,-0.6817319868,0.2078246653,0.921002758,0.1483969828,-0.6759831891,0.9060628728,0.6526920528,0.5325247039,-1.0366889651,0.8612135268,0.3708591684,0.1051993695,-0.9579740775,0.2938557829,-0.4453715443,-0.2026782668,0.235362717,-0.66170431,-0.6175726202,0.2004887677,-0.5839129293,0.5440318458,1.1462956681,0.3433906651,-0.1050290583,-0.0537933865,-0.1103523165,0.3850917523,0.1283877192,0.0764022988,0.6307608513,-0.8513878498,-0.6147310132,0.2947944129,0.9518725243,1.1341662397,-1.0194180003,-0.1901721364,0.730533439,-0.1578305035,-0.327336377,-0.2702521671,-0.0899886375,-0.7286358274,0.5804230882,0.0151021945,-0.0291460613,-0.1841835215,-0.2617049858,-0.1912063641,-0.4355651605,0.4523591638,-0.6880232947,0.123364464,0.4616762932,-0.8743735683,-0.9154009078,0.5632098447,0.419390197,-0.2084188172,-0.1663078789,-0.2549806726,0.4156592072,0.6477678004,-0.4105139167,0.2241707999,-0.4429652927,0.9882326137,0.5744975438,-0.8941430235,-0.8415657735,0.8725866591,1.1142499327,0.2428633858,-0.0609154924,1.0001567812,-0.6859049609,-0.4156677265,-0.6056923007,0.2831720595,0.4819949374,-1.0524722837,0.0861745459,0.6634494716,-0.4717530623,0.6063250554,0.6456011846,0.1986155362,-0.0424076293,0.7482979925,-0.0367249893,0.9147918354,-0.7912974462,0.8758638365,0.1713494913,-0.7915002592,-0.6430654666,0.4328064026,-0.4001727892,0.484352541,-0.0655734768,-1.1058629816,0.1271904101,-0.0999503907,-0.6064766072,-0.7696460758,0.5465725279,-0.1832532974,0.2497703546,0.1303269376,0.7803013516,0.0979919803,-1.3906917929,0.7270785525,-0.1276303185,-0.4051802686,-1.2901037066,0.466080598,-0.1756416328,0.2266087362,-0.0589384601,-0.5109651274,-0.5480423868,-0.320450041,-0.1648761265,-0.0244607658,0.4959692,-0.6325104104,0.4123420888,0.8622678029,-0.3896043769,0.8252110822,-0.4440515699,-0.3036278357,-0.156354307,1.3738942004,0.1462276843,-0.8380502937,-0.1027813172,-0.8540457328,-0.8670985538,0.0380767756,0.5508417479,-0.769866652,-0.6338785208,-0.5007759822,1.2526209822,-0.0284636772,0.742814421,-0.890340142,-0.3612603801,-0.1752588926,-0.0735991764,0.3233112032,-0.5649660837,0.5378549314,0.6297958227,-0.0483210104,-0.1549394749,0.2550662857,-0.276391445,-0.0324927625,0.2145374005,0.1394674175,0.9060816042,-0.422484172,0.9863926049,0.4347384596,0.5591865319,0.7971350084,0.1127886507,-0.5843265437,0.8480363459,0.3563924938,0.8377340865,0.5139549486,1.0143708922,0.9486001888,0.6454959047,0.6162505608,0.4780658976,-0.1310532064,-0.3863280228,-0.9272705273,-0.2541494547,-0.0998667682,0.2518913729,-0.5193608475,0.8825042331,0.2356482896,-0.9094297124,-0.1138946202,-0.5555711002,-0.7204241034,-0.5796481716,0.4683288486,-0.0851588387,-0.2146635121,0.0283308382,1.2613856144,-0.5840667795,-0.9140468196,0.3629362811,-0.2023309882,0.8253785313,0.032421114,0.2964635751,0.0059073499,-0.9208761225,0.7991146877,0.1529536438,-0.7158862107,-0.0322159343,-1.0919188163,0.3424189477,-0.020894225,-0.9026972207,-0.9876869136,0.5579839572,-0.1309609922,-0.1460713102,0.7680905193,0.5277016686,-0.0115385424,-0.9615073249,0.2655755362,0.2151680894,-0.3638817224,0.1346027918,-0.3087095027,0.3002376892,-0.6658131753,-0.3446648515,0.3848548845,0.1212247652,-0.1371458812,-0.4937014294,-0.655889674,0.6405572344,0.4163499566,0.1128328842,0.5954761347,-0.9096049805,-0.543218645,0.3724695586,-0.4019523332,0.8940286149,-0.0411702658,-0.5102141075,-1.3483433094,-0.4703599188,0.6272140039,0.4322276352,0.0563400403,-0.4227450993,-0.3541971486,-0.6082529977,1.0898472096,0.8392731996,-0.924468155,-0.4914168103,-1.0845077616,-0.3089873966,0.3483192623,-0.8619246563,0.3178643399,0.585024334,0.1113937,-0.0525697694,-0.2704952118,-0.7546727506,0.2028800262,0.0284951187,1.0595184372,-0.44012583,0.3597551308,0.329875015,-0.1134016692,0.7976189183,-0.1977020226,-1.0134554812,0.1145805158,-0.1354734622,-0.1745610557,-0.0122923342,-1.3739693325,0.5440700729,0.0113479202,-0.6818487834,-0.6777582764,0.7565551384,-0.4197988156,0.2191580202,0.4359114999,0.3167240981,-0.9031736374,-0.4589957227,0.4043256012,0.6398593427,0.8232547416,-0.5435211347,-0.2061006894,0.0932850301,-0.5619927723,-1.01184403,0.6288721963,-1.0364440834,-0.3282318212,-0.3450440236,-0.8144023356,-0.4935609985,0.0229367272,0.8311489429,0.2526272155,-0.8312596727,-0.1575832421,0.4113582266,0.8587927988,0.5124654019,-0.0354134591,-0.6211237439,0.8954401436,0.825567934,-0.5467528721,0.927373183,-0.3553295951,0.5599949625,1.1473638241,-0.2460729151,-0.3032165361,-0.7649083879,-0.4994125482,0.3255987511,0.3087793736,-0.7926554576,-0.5951539946,0.3175508585,0.0480797677,0.5738967287,0.3252637871,0.8836187376,0.728775042,-0.4824668766,0.7444483439,0.761046463,1.1434406941,-0.8751799734,-0.8382093079,0.4446296947,0.1732690395,-0.5758860499,-0.1211318209,-0.5575681247,0.2364824367,-0.6358817848,-0.6779263911,0.568004549,0.6663221768,-0.2733900061,0.4869344771,0.9568094939,0.8702159302,0.0299874781,0.3128831512,0.8089676392,0.1721950853,-0.4560187034,-0.8786795567,0.6354155821,0.6509056148,0.5145863845,0.9086513259,0.685686872,-0.2709405757,0.0024728481,-0.7583943735,0.1702764907,0.5745174472,-0.1075338905,0.5026992266,-0.7584334086,-0.448861633,-0.2048999428,-0.9251199523,0.4745638236,-0.8327816033,0.5857536333,0.0640130436,0.1823025753,0.2293845295,0.072623773,0.540442891,-0.788475757,-0.8619715973,-1.0239426928,0.2927011526,-0.2724992762,0.1395501208,-0.8797003232,-0.1220801463,-0.0259463023,0.4090807439,0.5705281825,0.3581455296,0.0430893907,0.4414711869,0.0842962756,-0.3954375537,-0.2332038749,0.6070284874,-0.4959738614,-0.6993780179,0.0151566833,0.9640405969,0.4410980214,-0.2429964052,-0.6077234894,-1.0706896051,0.7640768881,0.5759870764,-0.748504654,0.1036911627,0.2267412368,-0.6575324028,0.7249821361,-0.9135399616,0.5709703349,0.1255373262,0.733654163,-0.6876305145,-0.9469944575,0.652474779,0.080367887,0.8306499456,-0.5859754518,-0.2181860919,-0.7770928245,0.5357610616,-0.6694970238,-0.9193910289,-0.5949141377,0.7576269314,-0.3870904148,0.3231361787,-0.4201953581,-0.1827600442,0.2872949387,0.5788942043,0.1211053633,-0.5462485146,0.6331016406,-0.8331652966,0.4685460885,0.0099387062,-0.8936166434,-0.6672801771,0.1407803093,-0.7843244143,-0.1422759215,-0.0449756489,-0.3663645706,0.7795899372,-0.9160178041,-0.2656358666,-0.5606539357,-0.5928908444,-0.1858489386,0.1108582047,0.5445239586,-1.0763603991,0.2113357356,-0.4111380359,0.4730087207,-0.8880468572,0.5491515021,0.1317855361,-0.0555605784,-0.6703823205,-0.6981003305,-1.2291822887,0.4510881409,0.6513701648,0.2609501764,0.2554552594,0.6784597703,-0.1085493582,-0.4384586992,1.0573582957,-0.3809860623,-0.180128973,-0.6375113141,0.4739293637,0.4501573504,0.5511011241,0.2567749021,-0.2938608897,-1.0596034701,-0.1049257074,-0.7345817448,0.2000063551,0.3592554254,0.7817660525,-0.5706504297,-0.1862127202,0.3864504975,0.4192701785,0.2227333689,-0.5767045068,-0.977122035,-1.0129426018,-0.4012702108,0.3745964128,0.2647274533,0.2155508547,0.7708202068,0.1012385911,-0.4632678191,-0.1722833348,-1.3798355706,-0.8838504444,0.7210200086,-0.3710978117,-0.4743049977,0.9522436992,-0.3207929587,-0.3144577881,-0.7246907361,0.7001239452,-0.4169649454,-0.057199383,-0.5581030486,-0.7611542638,1.0563877628,-0.3543120596,-0.4763546921,0.6614775393,-0.2252879016,0.3413554563,0.7061139666,0.8955891576,-0.6081915918,-0.3371775513,0.4052447766,0.5052347002,-1.05430662,0.5100187752,0.6240179217,0.3280512533,0.2909416864,-0.124993835,0.2568156686,-0.0724852703,-0.0215570219,0.1235590902,-0.0442215768,0.5883488097,1.2693913306,0.3776615958,-0.195754651,-0.82872513,0.8185673482,0.4354997646,0.1976401544,0.6686015517,1.295671745,-0.9164001762,0.4279426124,0.6482068229,0.3073544924,-0.1399231255,0.2435247519,-0.4142720151,-1.4674885399,-0.8331653505,-0.0779637353,-1.0602037723,-0.4301363473,-0.2567516293,1.0975624228,-0.9656355152,-0.7626326319,-0.5687387856,-0.1888384628,-0.6567656658,0.074524254,1.1798330091,-0.7193690857,-0.8867624642,0.3926702135,-0.4902833399,0.2072049759,0.7459048746,-0.7356553139,-0.3776797748,-1.0450419729,-0.0828671636,-0.1377998697,0.2873162074,-0.5992340809,0.1640027109,0.5798595559,-0.1426011146,0.5691237504,-0.776662007,0.7124358067,0.0679447657,-0.7477117663,-0.4393314307,-0.0815525429,-0.8478677823,0.0017126356,0.0538239095,-0.617176653,0.6388371708,0.3753492139,0.1640531126,-0.5966450137,0.4694662844,-0.4939085383,0.6953959694,0.5660492598,-0.2487434037,0.4770554037,-0.6634193941,-0.5481491982,0.1899001787,-0.3727566501,0.4811402977,-0.0594873695,0.8534555508,-0.6969423712,0.2455774562,-0.4677950302,0.0910847539,0.9357016281,0.4417125914,-0.4365417288,-0.2490234712,-0.7355995233,-0.2730535999,-0.6305631417,0.3939124354,0.2111296094,1.0403955945,0.3498723279,-0.2618376286,0.5157740426,-0.1356471298,-0.4698582881,-0.7746412121,-0.8332557802,-0.5503943451,-0.1481993889,0.0975774002,0.0835036417,0.6796031568,-0.3617568702,-0.7904431658,0.8266334602,-0.898852675,1.1325367493,0.1140725467,0.6232661619,-0.8233026857,0.5259429507,-0.5208141101,0.2153671384,0.3919697738,0.4717381972,0.719979451,0.8868315198,0.6561226012,-0.4103123935,0.0424706193,0.6561740683,0.493320261,0.1990964056,0.1830215155,-0.9722400852,0.9672886531,0.4269229447,-0.9340474908,0.5455706969,1.280738086,1.0793724764,0.4426836879,0.7945656968,0.1127778573,-0.9053473679,-1.0043345251,0.6409402869,-0.642676348,-0.1275807706,0.0431780366,-1.0661520068,0.1892520836,0.4187464937,0.3045576806,0.6374502747,-1.2018145961,-0.0285207042,0.435856213,-0.8137250678,0.7429535861,-0.9638606552,0.5399530215,0.0674851434,-0.7988752588,-0.948831143,-1.221099937,-0.5110532486,-1.0478871233,0.2371036889,-0.3294138969,-1.2297554233,-0.8451072566,-0.7221067357,-0.5549246681,0.1277498505
##end
biasActivation=1,1,1
[BASIC:ACTIVATION]
"ActivationSigmoid"
"ActivationSigmoid"
"ActivationLinear"
