encog,BasicNetwork,java,3.4.0,1,63716735784380
[BASIC]
[BASIC:PARAMS]
[BASIC:NETWORK]
beginTraining=0
connectionLimit=0
contextTargetOffset=0,0,0,0,0
contextTargetSize=0,0,0,0,0
endTraining=4
hasContext=f
inputCount=57
layerCounts=2,117,117,117,58
layerFeedCounts=1,116,116,116,57
layerContextCount=0,0,0,0,0
layerIndex=0,2,119,236,353
output=0.980489748577988,1,0.588312805250302,0.218179568273022,0.00770380163976032,0.972475516489232,0.0160687022824095,0.0101641586992613,0.0125327595665935,0.000942701203909912,0.63734254066906,0.768607282202373,0.982220349731755,0.505572539293126,0.681772403091972,0.435833749156039,0.842565836857842,0.975606632763449,0.564712987060387,0.959595387232093,0.357502558823165,0.19164621304734,0.999976901302102,0.98874871585182,0.0731676289410768,0.488165272142524,0.000755296865383112,0.997827482148494,0.90990619762523,0.0161613775089874,0.0388586138933787,0.0018119281567564,0.559475588407285,0.691904064011457,0.0953113509018293,0.995543040101466,0.478418604668064,0.353114688297291,0.9627762605082,0.912470907972256,0.999354558357795,0.522809973327516,0.996721948519982,0.00778517557005329,0.540033042650871,0.516747021377168,0.787185589322432,0.406798005295569,0.00101272149110296,0.99413413347545,0.637713586175087,0.00000845131008103474,0.032883836854361,0.994974979146023,0.558880179058851,0.486553268111236,0.503102760595514,0.118141830691107,0.0398566621246947,0.913518118024121,0.095745301544119,0.119408674233938,0.013769472570399,0.700258400143133,0.0172553111123161,0.984032321545431,0.980275632751434,0.43182929950086,0.999743024180184,0.250793157643989,0.165534581101242,0.00248205327069739,0.000198612797062357,0.500328923924432,0.163351528959228,0.000233492090959034,0.999508236596847,0.0334298112395237,0.326121608643023,0.980795753221651,0.46596310816122,0.361280885742469,0.861630041938885,0.999329374029199,0.00594210009205788,0.999684070336525,0.97420516156547,0.764442521062124,0.0441581512191332,0.990756416479848,0.996915696931128,0.385997235699183,0.983060407297671,0.00203744411564266,0.446586936500366,0.41295665856199,0.442667386877884,0.0888934089636999,0.44541957107438,0.0707892398073951,0.999973638839057,0.994683508346923,0.0104417650836357,0.507073453145274,0.074360106820824,0.998624155242864,0.0127240458396685,0.999694067465504,0.988507648939483,0.245533293882764,0.647200846458467,0.00368149475653178,0.413991865406972,0.941775750762897,0.735510712537381,0.755688197486646,0.0917271407991355,0.878294035813344,1,0.933511069765102,0.130262886195071,0.991613180773525,0.000145959080836112,0.0849587083553157,0.756995474524315,0.0269513671839797,0.650280325587527,0.396664189261927,0.858598426714987,0.994506508418534,0.0256469010788345,0.759794258038649,0.996331304612019,0.134059897031755,0.278314058958067,0.999987627673968,0.165019503638459,0.00179171927364614,0.000496826900184271,0.484990880157635,0.108683555849006,0.527051625074829,0.854180524043021,0.790232868565001,0.000123849723236696,0.999750086008827,0.0206749761422164,0.238935593674382,0.57813994211573,0.9969506862168,0.588001464162595,0.965399895923713,0.25747408078662,0.114948684584454,0.932669381620536,0.787676891816608,0.999535119349784,0.513383284444855,0.269404014962769,0.896888909207171,0.000119094896044101,0.986118424151622,0.435554250561968,0.998418943572413,0.764178028079924,0.96320832616226,0.0247067809060662,0.114513176883409,0.0435379181405268,0.979278862589868,0.107918560208241,0.337317647996184,0.598847565175497,0.13839407993299,0.00852239402074027,0.08921129521098,0.134816112245064,0.998904976937342,0.989849531316259,0.157398238518968,0.00166844336593435,0.027356631937689,0.0321432172195481,0.988643302069575,0.996215168339968,0.434874883927761,0.680326415142541,0.708364749641262,0.344592120609091,0.999085807342516,0.0263055013535804,0.0446846258387958,0.9983799573444,0.627393958704077,0.369049989669701,0.996961718265375,0.0183681801767338,0.183430783811005,0.999203049002574,0.228486683897212,0.612353204791342,0.28946192806583,0.996186522672328,0.628431713709209,0.0283707741962876,0.942759426858596,0.99887516512281,0.133565633319441,0.480545723711923,0.251014877132256,0.996167912690033,0.0227411311362372,0.0111174690387097,0.980544709111067,0.0248903644638749,0.562460927199655,0.105880030651872,0.101121661802481,0.000236079905732779,0.287218702575271,0.31405083782852,0.573958683460538,0.94241363866444,0.990629701599714,0.0614632454101851,0.966826093371882,0.507455781917328,0.999848473397902,0.994076524434742,0.552746669031403,0.993491447243275,0.997528552729456,0.448240145347212,0.0228078166813574,0.198088386105478,1,0.117097822146479,0.001375648570786,0.948241644049313,0.991298131044762,0.767916258607149,0.99896699087647,0.0615117291154643,0.822729335987933,0.451183776877497,0.388253825527298,0.116687135703939,0.515539964801403,0.0263844798697025,0.00106527859116795,0.345563075567169,0.927099114591626,0.490683419363374,0.0209171594798613,0.11819684636057,0.432451500018651,0.949429953850387,0.877834586709843,0.983426487272947,0.999830041056069,0.996476278686072,0.51839844805839,0.892506471114279,0.13903741208806,0.219703201192664,0.988851351987404,0.0326637637772027,0.99531138222505,0.526166170344894,0.976408518035447,0.986200453496277,0.994380871955314,0.995190647734562,0.909988875722457,0.0277935996328232,0.000103190752949361,0.941207664723414,0.996307507877998,0.0001128553911967,0.0423052474343708,0.88781954197328,0.999458804398722,0.33171946467158,0.00385059280603719,0.451215567621492,0.0221459432603266,0.0809685640306565,0.590650054136599,0.999582467691414,0.000690583683682704,0.0118028470734898,0.971959093746413,0.00926742603789068,0.360154144242202,0.407730808721515,0.00273656792968636,0.997073536057593,0.494617697163159,0.0161578215517922,0.967870646730066,0.53242509565611,0.871659201288908,0.520926472441109,0.984298464965155,0.528648451403473,0.990121872639191,0.998843027244241,0.722430370143316,0.119464078365368,0.397837398764332,0.00214321373818689,0.0590117487167748,0.0616284406078024,0.702830271916468,0.2512609298741,0.495894594925908,0.983031223022898,0.00163279605378983,0.00384999357552401,0.553328410293348,0.564282226326586,0.11129773235493,0.941358094136764,0.869905304378394,0.0485000942196866,0.349366160280089,0.999779304510696,0.00402079387480987,0.999994915391643,0.740095009269408,0.000259126913243148,0.999895516145243,0.183899276093359,0.90505722880585,0.945041581277201,0.781995899994957,0.256184701931143,0.988158970920368,0.0146662855899649,0.000592525723140889,0.278269592298212,0.00247367517872346,0.535332288403703,0.999480009078046,0.603050463737019,0.441083978521964,0.981839242872117,0.979583979458251,0.252965530865165,0.999874387590324,0.0312076349905902,0.674400970740359,1,1,1,1,1,1,1,1,1,1,1,1,1,1,1,1,1,1,1,1,1,1,1,1,1,1,1,1,1,1,1,1,1,1,1,1,1,1,1,1,1,1,1,1,1,1,1,1,1,1,1,1,1,1,1,1,1,1,1
outputCount=1
weightIndex=0,117,13689,27261,33989
weights=##0
##double#33989
   0.3495705063,-0.4377158699,0.7958884761,-0.8047496173,0.0851369769,-0.5248649932,-0.0477563693,-0.9760000257,1.1934665855,-0.8193945019,0.5388562797,-1.1327901476,-0.1827186998,-1.0933741561,-0.5930026256,-0.3685198546,0.0637814362,0.081075102,-0.852339919,0.1799969592,-0.406370365,1.0672929575,-0.6821668947,-0.5233240617,0.2817290631,1.0265490274,0.8739367886,0.1456619046,0.5028782353,0.7257116243,-0.8566854111,0.6148012629,0.3225595728,0.9878629223,0.1592472547,-0.0887295316,0.0715616644,0.5074148213,0.8893497186,0.9886923662,-0.1877051437,-0.8737265743,0.0204967806,-0.3226806709,1.1939741897,0.3511961694,0.193125634,-0.3994609147,-0.9987491104,-0.6091940527,-0.1512981836,-0.5216963266,0.9760491383,-1.0563977758,1.1113758887,0.4282233771,-0.5628654524,0.2419428561,-0.1173655755,0.4247467104,-0.4107063134,1.2454979234,-0.5113302433,-0.9084399769,0.9563801352,-1.3566394079,-0.1802620732,-0.2781794471,0.2698435929,0.2794896866,0.6356547741,0.5464738728,0.2727845867,-0.3690267444,-0.7164984967,-0.6221514338,-0.0783405716,0.4474287638,-0.0190362697,-1.2141838619,-0.2411028477,0.4608134815,-0.0151471486,0.245009173,0.0474784887,0.9810352589,0.8006162715,0.3540181461,-0.9134939569,0.509244803,-0.1570531159,0.7792366615,-0.5759736681,-0.5471609404,-0.242814725,-0.1083535785,1.1489817193,-0.3605797299,0.0894218921,0.9301441784,-0.4656103398,-0.9658928897,0.2760035524,-0.0683347797,-0.2316554554,0.3057370574,0.08140807,-0.00678542,1.0283985653,0.5668621436,-0.9197844766,-0.0971241319,-0.7530637297,-0.1931930652,-0.4241717525,0.2310828913,0.0647841849,0.6153903544,-0.8799339106,0.3876527052,-0.786181429,-0.2812280587,0.3631506104,0.3498530384,-0.7898401506,0.8361987107,-0.214283699,0.4315120512,-0.4378022563,0.7440655641,0.0657493956,0.6321850306,-0.5951935691,-0.3234471105,-0.5757583238,0.4388117952,-0.6259275225,0.0897060046,0.4094876567,0.4751661714,-0.8664438103,0.2163414209,-0.4782165432,0.0130497703,0.3591847326,-0.9740906656,-0.4590143391,0.0838100266,0.9467495983,-0.8663816467,0.5694997414,-0.4024328801,-0.5293103045,0.8583072467,-0.2967379906,0.120009852,-0.5414647284,0.3432088574,-0.633577936,-0.8519516977,0.8870475322,-0.6205659698,0.3566491311,0.6581175204,-0.9892478169,0.6809711438,-0.7924619219,0.3803477154,-0.5500913329,0.750864865,-0.3248182141,-0.4412012535,-0.270316052,0.315787478,0.4189952756,0.8829934031,-0.6963753772,-0.024589547,-0.8874468753,0.1941487666,-0.7754241021,-0.8121448043,-0.0490234584,0.4207158237,-0.866947758,-0.7795716769,0.2318214371,-0.7057971448,-0.2620451467,-0.3883689255,0.8177839824,0.2295878294,-0.2314139926,0.6581873675,-0.0653053982,0.0726004661,0.5615342818,0.2060833335,-0.2849594012,0.3946698428,-0.6163681016,-1.0089747345,-0.2881418099,0.8747590443,-0.4679246876,-0.5062443304,0.7093737321,0.7166140983,0.0697704302,0.8118972493,0.6594525298,-0.8139387828,0.9537083013,0.7884898366,0.8553892583,-0.4484658422,-0.8747368064,0.8396188485,0.7635860935,0.7125550381,-0.7437931276,0.1702369468,-0.2729808294,-0.9289121088,0.3449935085,-0.9760779158,0.7915392309,0.6028185535,0.9248711806,0.1507603574,0.484988051,0.7749175085,0.7046114694,-0.850220437,0.7773308378,0.3929833771,-0.5322124882,0.5767337007,-0.9856668885,0.9310573052,-0.8879569418,-0.6475622104,0.8072288621,0.2133375051,-0.6454964993,-0.9656292018,0.1847068385,-0.3444767459,0.0548101403,-0.5423243686,0.3732922287,0.7353291243,-0.3422174291,-0.4230363337,-0.7957874538,-0.3680347696,-0.4095687462,0.3010121016,-0.2833152277,0.0460758291,0.8932256696,0.3144377746,-0.9071154561,0.7914426076,0.2971011711,-0.878495795,0.4590246409,0.2058887552,0.5456969037,0.42139569,-0.3308863059,0.2591821018,-0.5713285237,0.6829933589,-0.6246470464,-0.6718086764,-0.6755239741,0.6978709458,0.8400266563,-0.1565851649,-0.0345561312,-0.9747279975,-0.2876299659,0.5860374109,0.4437279506,0.2300501167,-0.3408279408,-0.3673448284,0.0093801828,0.4964360283,0.0626882761,-0.3332196139,0.7691002393,-0.3513289458,-0.7364738786,-0.4922145049,0.2955521926,0.8213033462,-0.6129217286,0.4240092447,-0.7075139735,-0.1241338346,-0.3731248811,0.412447367,0.0432989785,-0.6964693262,-0.1100690818,0.3274545481,-0.9769495108,-0.4844394032,0.719332813,0.9986304313,0.3246771176,-0.460136056,-0.8123265305,0.8291931043,-0.5700088489,-0.955506358,-0.8718118389,-0.6021575505,0.6398628812,0.3456936859,-0.2773443409,-0.2262797683,-0.7641698885,0.9712978363,0.9585119864,-0.3516879596,0.3822426745,-0.9244193005,-0.6151049719,-0.0157436022,0.4517856435,0.5301151761,0.5225662348,-0.3083139469,-0.8592729421,-0.9529126502,-0.1497667555,0.4731954879,-0.3937053057,-0.7818859093,0.5615686948,0.0025251827,0.9490146162,-0.4946325836,-0.409406331,0.4826579186,-0.6057052249,-0.4447062413,-0.5462192478,-0.5287284711,0.2874006127,-0.2078218593,-0.5210518614,-0.3488070431,-0.2044344661,0.1874899735,-0.9209380072,-0.89273324,-0.2214610183,-0.876360271,-0.6091010954,-0.5651925302,-0.1139015429,0.1031193924,-0.9369813237,0.9530975652,0.2244653165,0.7395940195,0.0875148929,0.3243269573,-0.5699969914,-0.8764830795,-0.1333218252,-0.7779461122,-0.3326024361,0.5045420561,0.9389654149,0.3399277658,0.7715235814,0.1852100552,-0.7112839544,-0.3106037642,-0.7679393409,0.2771445098,0.1299672452,0.0375608714,-0.5938027139,-0.0782483865,-0.6600453622,-0.8668774622,-0.2586496185,0.671797358,-0.2013927784,-0.5173232238,0.11516089,0.580628338,-0.9556196674,0.8486338221,0.9037603108,0.7860594905,-0.231365266,-0.6389573919,0.6109694909,-0.7713554066,-0.8858275292,0.3127794039,0.2927872244,0.1086040546,0.9531037281,0.9391848508,0.1394548372,-0.5624293337,0.0012276935,0.688873229,0.4511836591,-0.582903408,0.5935085425,-0.1947967975,-0.1484702671,0.3322874115,-0.7144986065,0.8449636058,-0.0720029499,-0.0167141023,0.3383739282,-0.7211962254,-0.9636780609,-0.2720037019,-0.5945888606,-0.6260593648,0.5351998295,-0.1585838449,-0.9801162448,-0.9714424955,0.7992941621,0.263167229,-0.8292790766,0.6797382995,-0.8078595733,-0.5146098159,-0.0509000874,-0.4934463583,-0.7474087309,0.5964953524,0.2165394956,-0.5421530969,0.0493456346,0.0633505518,-0.9397323882,0.4357261659,0.7377946558,0.2865650632,-0.7429471725,-0.8578119882,0.2670164175,0.8707774076,0.9715699124,0.6256555223,-0.2425862657,-0.0281498489,0.0032307829,-0.6353783252,-0.2580153044,-0.5906096015,0.8118871715,-0.8492875794,0.6018549256,0.6099691733,0.5323462761,0.6550769669,-0.0216782558,-0.4209669538,0.9176263039,-0.6905685802,0.6529928773,-0.5678781556,0.7454531313,-0.1087338845,-0.3928023993,-0.7530697939,-0.5323406758,0.7597429319,-0.6011860498,-0.5543574472,0.2429861636,0.6664168159,-0.3011306212,-0.1667245711,-0.6386548613,0.6610510269,-0.7266588417,0.8417672093,-0.2419008728,0.8497321647,0.9145091428,0.6202973944,0.6151141918,0.6483992595,-0.7026093065,0.1124111924,-0.8024901765,-0.0698399735,0.1409175639,0.115414984,0.0075683196,-0.2096743411,0.2839957863,0.517057068,0.7509777199,0.6867865421,-0.7697094744,0.3163727656,-0.6726250847,0.5174681207,0.1199300756,0.1953201972,0.7639727607,0.1098179808,-0.2266494665,0.8774224347,0.7265565613,-0.8394760383,0.3169428793,-0.8908736442,-0.7639567989,-0.0711017518,0.8803575318,0.0789118598,-0.6246205447,-0.671182844,0.3624551005,0.3677215423,-0.4651362474,-0.3506907104,0.0521407154,0.9364851142,0.4849161263,-0.7845068512,0.6903984688,-0.2499615943,-1.0027684807,-0.8464253688,0.0157895555,0.4863064698,-0.9595589365,0.8452140392,0.062023222,-0.4325689407,0.7403511332,-0.3483025537,0.7867009046,0.109443131,0.4696011877,-0.6338848383,0.4394200086,0.4294321278,-0.102358081,-0.3482355779,-0.7025815507,0.1621541113,-0.9862905508,-0.9058060713,0.6561420762,0.2515245677,0.6479023528,0.0744926463,0.5288544051,0.996822951,0.3342558843,0.7646765768,-0.6831023233,0.5606813317,0.3089204516,-0.184426403,0.8854687762,0.7052264464,-0.8210930201,-0.2867105996,0.7371063532,0.9622532217,-0.6989260019,0.1017643926,0.5222567481,-0.6876966857,0.5821317245,-1.0052132081,0.6193256536,0.1768598143,0.6292611821,-0.8222455259,-0.6119078242,0.6452119972,-0.3254145705,0.314283622,-0.4467199018,0.9476836254,0.7968511607,0.3664607576,0.4498020174,-0.9203126265,-0.4689762521,0.6836773793,0.544896219,-0.2091730203,0.1070960456,-0.2893911571,0.7678193215,0.9573954021,-0.4457981717,-0.4291511988,-0.2298416277,0.7140259765,0.3254469124,0.8705771095,-0.1198715751,-0.9176630953,0.4613573301,-0.6268566449,-0.7452724366,0.447609124,0.2114435507,0.2741544201,0.9781436062,0.5196338383,0.3236401933,0.9358815378,-0.3744884451,-0.2568378156,0.9570650606,-0.0953645193,-0.0275000516,0.8318070549,0.4878892811,0.1508666394,-0.4975330168,0.6702248127,-0.211287004,0.296470692,-0.368549166,0.779977925,0.7512096032,0.6444334823,-0.2399206521,0.4511220028,-0.8485169438,-0.960250053,0.5013088151,-0.7208982728,0.3934065041,0.3051581191,0.6416363593,-0.469836699,-0.2753734302,-0.846272077,0.605670753,-0.9372494799,-0.8974964112,-0.8169723786,0.4801524491,-0.5780260176,0.5267633188,-0.7042983536,-0.9577619415,-0.0800943922,-0.1957688377,-0.6865123779,-0.678589109,-0.6179555258,-0.4908575518,-0.9290150611,-0.0061305367,0.1755771674,0.1131861254,0.1973845484,0.4487925732,-0.3997141635,0.9341090932,-0.3965383506,0.4631961294,0.9267435898,-0.8481332663,0.1289530774,-0.0593391579,0.9426970695,0.3122006449,-0.613708973,-0.7967513579,0.4162647653,-0.2411795255,-0.2472977783,-0.5799854586,0.6179984777,-0.9061809176,0.7591877253,-0.7702822253,-0.0778493091,0.7655638156,0.0751240864,-0.8402506186,-0.5249920067,0.2383661076,0.2313974946,-0.8023310709,0.8201927379,-0.9033848164,-0.3047004361,-0.749602585,0.8576164947,0.032808183,-0.0175420299,-0.2297874268,0.7120243003,0.5505343296,-0.4479168453,-0.0310688418,-0.533641897,-0.8276752436,-0.1227779075,0.704260303,0.3197991082,0.9163545867,-0.7237607615,-0.2173530102,-0.9406615945,0.4107572292,-0.6875940116,0.7119801638,-0.3200427923,0.1897674955,0.4598404196,-0.2545065379,-0.9889780325,0.2078602505,-0.8639508754,-0.8716126154,-0.7865206404,-0.9174287728,0.7696314443,0.8823322411,0.1777459437,-0.892831567,-0.0334676243,0.291579789,0.047838081,0.5343218031,-0.8499644761,-0.0155532386,-0.7318958017,0.4324736519,0.9396992672,0.7161340566,-0.9177584427,-0.231502737,-0.251545304,0.3066159767,-0.8773237481,0.1100024282,-0.0777869103,0.6673497789,0.8084014307,0.9644504463,-0.3775161329,-0.9851960898,-0.8388514917,0.1519235652,-0.9681235408,-0.6169681366,-0.7216492545,-0.1127765539,0.6508035595,-0.3103307705,0.3214136555,0.9400171658,-0.8488766309,0.6496505568,-0.8239204093,-0.7535373246,0.6101453381,-0.076774073,-0.0979545377,0.4527779494,0.6767670786,-0.6402010351,-0.178257506,0.6144188192,0.0072665297,-0.3974740516,0.4148479554,-0.8112634195,-0.405926986,0.2364324317,0.5539797474,-0.9048148716,0.0099976255,0.9615926318,-0.4294586015,0.5686599105,-0.0603376209,0.2525936229,0.4845032707,0.3906345054,-0.78861264,-0.1296613809,-0.6478619981,0.5390185478,-0.7544499618,-0.7540252504,-0.6820879998,-0.9685555,-0.3359097438,0.8044080036,-0.0633187869,-0.4936586596,0.5512542751,0.7763251871,0.7279782658,-0.5351003288,-0.8985558807,-0.5348083434,-0.6856286563,0.2002333021,0.8897790396,0.1564512626,0.0192619017,-0.392850905,0.3560559457,0.9398850588,-0.5445629005,-0.0964730509,0.429815247,-0.5251007944,0.0382085103,-0.7445492443,0.2436365524,0.9878407065,-0.3555134596,0.016973538,-0.2644051256,0.6079107571,0.326132906,0.9752676326,-0.4814257214,-0.3384921594,-0.6148194235,0.329920969,-0.6954955215,0.5695783349,0.1607335753,0.0611714375,0.5336445227,0.1461673911,0.4983985859,-0.4696382695,0.5894564801,0.6587040614,-0.0221680084,-0.8960484888,-0.6135802686,-0.3153366447,-0.1862629668,0.9972904565,0.1365774099,-0.4484878917,-0.003234413,-0.2258344349,0.6705992813,-0.5697049971,-0.9315371598,-0.4707539346,0.2419653985,-0.5344970838,0.78406598,0.611362387,0.0696431891,0.1012701625,0.347496381,-0.6094957548,0.3012732072,0.8050937065,-0.4436872035,0.1991625754,-0.0968104516,-0.1622224859,-0.5153668113,-0.6985681912,-0.6036099195,-0.3840833294,0.0313433069,0.7986753079,-0.0842082086,-0.2413968282,-0.2706101608,-0.8515026996,0.7477040847,-0.6564146322,-0.9418907963,0.8531825521,-0.5060751407,0.566186267,0.0156673347,-0.6937500551,-0.0459493863,-0.1023926846,-0.9405133251,0.41294888,0.2940312332,-0.0954699331,-0.3648217737,0.3760674969,-0.2175529281,-0.15589532,0.9493721106,0.9455405486,0.5335659618,0.1764273607,-0.6823784084,-0.3800581069,0.544143752,0.5005455545,-0.8125983422,0.0295520652,-0.6555599653,0.6857117263,-0.4155148894,0.5680438603,0.1230188397,0.0621714862,-0.1233627397,-0.4103686823,-0.4722783091,-0.8563328425,-0.4717719388,0.7303667234,-0.6155543623,-0.5364284541,0.1955517858,-0.385312692,0.2834945287,0.2680976338,-0.0941979674,0.6150029331,0.6530167655,-0.105020061,-0.2274787311,-0.5297582665,-0.2198764933,-0.6790949355,0.4385656422,0.2239782103,0.5549125211,0.062813036,0.0848832451,0.6430199618,0.3534989964,-0.6267799593,0.3792600753,-0.9922199854,0.7713406462,0.7236594135,0.4927456473,-0.2112097821,-0.6487248854,-0.6623359964,0.0386361781,0.9211557491,0.1646796368,0.604386178,0.2341749191,-0.824496874,0.673218711,0.1252996745,-0.836962514,-1.0160472079,0.1915869409,0.5759054733,0.0952695952,-0.8629027463,-0.3846926958,-0.7808394022,-0.2172870529,0.7756763878,-0.9514563791,0.9395892123,-0.1445858294,-0.5830836369,0.0546381926,-0.8451223166,0.0265317858,0.6615252743,0.729986868,0.3789254665,-0.131548058,0.3102662347,-0.7521103975,-0.2872592845,-0.3859295542,0.4901901582,0.3325181648,0.104193962,-0.4345758051,-0.8178347743,-0.528890144,0.8756693032,-0.9281690128,-0.1916516748,0.5311560344,-0.1667949777,-0.3071605535,-0.4285190066,-0.4605098639,0.0887862876,-0.1685094768,-0.6480614227,0.6223791816,-0.1986845979,-0.9041235213,-0.695875878,0.2288990171,0.6104089284,-0.6907631469,-0.3725057421,0.4208550567,-0.8518187159,-0.8537328362,0.9350633038,-0.5213113894,0.2180613677,-0.3186229535,0.5601642845,-0.3333872824,-0.9308228634,-0.4022812307,-0.2851845287,0.0174575056,-0.7334145723,-0.2248945849,-0.3563289243,-0.2567020264,0.1435259971,0.3975358545,-0.898326202,0.3954827634,0.8719210996,-0.7376199538,-0.8193709481,-0.7245581473,-0.2489723058,0.2117177307,-0.1143055962,0.4591347922,-0.769077072,0.4263005449,0.4583835452,-0.4821644404,-0.7474195411,0.5280650943,0.8691636594,-1.0043427504,-0.762758538,-0.0184223999,-0.1351286909,-0.9262114602,0.6072544734,0.3244160974,-0.6345830111,-0.536839325,-0.677664871,-0.0669663953,-0.3036957227,0.5370648403,-0.0638007767,-0.2642301426,-0.1828332534,0.6683587559,-0.4823972975,-0.0092198009,0.8045734522,-0.0869330189,0.8394415985,0.2998803069,0.2179887667,0.546173092,0.997718889,-0.9414796941,0.4916446275,-0.2858397124,0.2873394367,0.2945871633,0.7696143671,0.3578266043,-0.3889553044,-0.1461224249,-0.36348446,-0.1199758941,-0.0535192078,-0.2222268677,0.4637890005,-0.4894616646,-0.1295233603,-0.7869476925,0.8455757325,0.4596466391,-0.2736018824,0.1623207705,-0.5174262324,-0.1849152088,-0.2910305765,-0.9121845707,0.6733643624,0.7259540034,0.5782306254,-0.6533139254,0.864428388,-0.4487953169,-0.4737481887,0.1186782249,0.2384590238,0.3289857881,0.5392324455,-0.5186688838,-0.8979797526,-0.3818444964,0.5170784735,-0.5083476082,0.3195949946,0.7699125294,0.4548541474,0.68368442,0.0583041403,-0.8156739621,0.300022267,0.9432615206,0.9204796301,-0.7212857053,-0.2947782552,0.6847485708,-0.5702025626,-0.5102483075,-0.9592539709,0.0487814979,-0.1605932969,-0.8659716584,-0.6228691621,0.3863221745,0.4973846444,-0.2644299717,-0.9228754638,-0.9439050473,-0.400562606,0.3157772505,-0.0886162805,0.678441379,-0.4085259134,0.5322357208,0.0405446258,0.390302275,0.1947459096,-0.2491725539,-0.2657748799,-0.6655061955,0.7859412835,-0.7747175643,0.5208378103,-0.8833592164,0.4995866556,-0.1624558185,-0.1950598868,0.8987255321,0.2183803892,-0.656660462,-0.8344944569,-0.3366998996,-0.8499029798,-0.5531453426,-0.9535241372,0.5966748043,0.9541031999,0.4266781209,0.6972009989,0.8634138289,0.352325081,0.3959780186,0.3311737424,0.49401861,-0.6838237859,0.8673068194,-0.469586967,-0.6153271678,-0.5322611128,0.4252489251,-0.0239950834,-0.7418378796,0.6805757381,0.7312047209,-0.7606941284,-0.8642556815,0.4973012887,-0.706554036,0.0571794922,-0.1704968383,-0.8497728327,0.7225332718,-0.0541125571,0.8203668972,-0.0984031623,0.7677901032,-0.9260157578,0.8766349361,-0.7181818569,-0.4291597854,0.5864481322,0.615745658,0.14527948,0.0009256953,0.2506590625,-0.5525817542,0.0228560565,0.2224957413,0.5924115818,-0.83846895,0.6320049825,-0.2115953141,0.1466225514,-0.1464768092,-0.1099089364,-0.6882642049,0.171304947,-0.3750350968,-0.6442373451,0.7056642802,0.5992068217,0.9858135349,0.0052669463,-0.8593488383,-0.8777740329,0.6411052774,-0.5197907577,0.0024515102,0.7189468044,0.0559234093,0.7597949357,-0.2976621557,0.9264219065,0.7165697503,0.5328335799,-0.3341068387,-0.0239501789,-0.1878369847,-0.3930740492,0.7178376991,0.462609337,-0.5583443339,-0.0345123708,0.899309572,0.6303422564,-0.667569583,-0.6745995242,0.7126616934,0.6287942314,0.9366055092,0.5372314172,-0.3744921572,-0.9360453564,0.2657015881,-0.6906213312,-0.0312922972,-0.2581653201,0.9908904791,0.6017438217,-0.790096144,-0.3064627995,0.5612094114,-0.0958814362,0.7064179393,-0.7045327952,-0.6295981709,0.8173007798,0.8880621773,0.317989273,-0.9177359199,-0.0755428207,-0.078623938,0.1850802998,0.1292004197,-0.1588218601,-0.2520393993,-0.3826740047,0.7701143354,0.0260253291,1.0096150372,0.2012374401,0.6154678306,-0.2240040737,-0.3373647498,0.2943438694,0.7856353219,-0.6011522685,-0.7095196982,0.9227495048,-0.1914928294,-0.5118358011,-0.065049095,-0.4005691085,-0.2027615728,0.2524446578,0.2715721534,-0.8388513812,-0.427189376,-0.9125398457,0.7331117863,-0.2303657958,0.5155212396,-0.7707307301,-0.4252219468,0.4357541204,0.6727917305,0.089889569,-0.4241739741,-0.7483537477,0.8985541719,0.0677903933,0.6627135334,-0.5987543918,0.4719997063,0.8740218866,-0.8657756141,-0.5303531318,0.4853641129,-0.131441935,-0.5114150699,0.4689146187,0.8267626606,0.5209063445,0.8464001269,-0.4374549105,-0.6846687017,-0.6367897864,0.5232713629,-0.2343139654,-0.5790214734,0.3435097466,0.2563873277,-0.822848444,0.7394385464,-0.7142027258,-0.0613210323,0.359670158,-0.5375462564,0.476541845,-0.092568876,-0.600881938,-0.519121474,-0.730175792,0.2467426185,0.4323119594,-0.3768374678,0.7191084348,0.4573238652,0.9467530673,-0.9823808374,0.8176350004,-0.4766025385,0.5506800403,0.4690784546,0.1988913104,-0.6829738321,0.2175126208,-0.7380217741,-0.4076864134,-0.2234517102,0.8074381482,0.6427018795,0.6263867284,-0.9342853924,-0.5306438406,-0.8621387974,0.9543542617,-0.614205339,0.2052177315,-0.9677898414,0.3871752383,-0.3794851051,0.9214868761,0.513045004,0.6929257593,0.151810115,0.8893718522,0.7664734427,0.6750102375,-0.4379011753,-0.8976639155,-0.8584668487,-0.0938649303,0.8450944958,0.964031351,0.5144106471,0.5745272016,0.5193285348,0.320607524,0.6194022819,0.2970463235,-0.2910068535,-0.9261774415,0.8959247926,-0.794527716,0.8410360411,-0.6618334924,0.9792922645,-0.4625867605,-0.0893090386,0.2873280999,-0.1487307278,-0.3300692269,0.8567111724,-0.8099704407,0.2668154452,-0.115466175,0.3302080947,-0.2742116494,0.667429958,0.7691636257,0.8981718487,-0.7823229368,-0.1672151636,0.0741128101,-0.4171754807,-0.7117985101,-0.2263888549,-0.3266604896,-0.9407011488,0.6013626392,-0.2307158872,-0.2010692719,-0.3182551124,0.4093311177,0.3394870962,0.5060184703,-0.2712741726,0.4606137455,-0.930883207,0.9108183525,-0.5163183331,0.2957318579,-0.0454832798,0.4368854229,0.9356877149,-0.2973023746,0.1202726219,-0.0537733956,-0.0101740469,0.6076519552,0.7416354504,-0.3285314612,0.4261686165,-0.6811244149,1.0273785971,0.9823527745,-0.6714243048,-0.4207737001,0.6548924916,0.6358023598,-0.128240283,-0.2051137594,0.9287739704,0.0516303915,-0.7959134651,0.3118831319,-0.2906584734,-0.7718875344,-0.9103006748,0.5776307289,0.515929882,-0.4168622389,-0.0818372201,-0.8191594347,-0.7125691819,-0.3526207623,0.8975636871,0.9387863899,0.3801247737,-0.6139138799,0.5337706607,0.5759775498,-0.0915389231,0.3815420853,-0.9900383099,-0.1851786224,-0.0744746171,0.1538349058,0.2029935142,-0.0281466788,0.6915938867,-0.3751512789,-0.5370195291,0.4303964896,0.9422917682,-0.531478249,-0.0932728275,0.4260565786,0.0513862836,0.9374978936,0.8358778444,0.9882191734,-0.2943217261,0.3332412629,0.0086011839,0.7504049652,0.411045007,0.36930366,-0.1869764205,0.2183766762,0.8491533746,0.9242442725,-0.4943592895,0.7532716673,-0.5360177676,0.963259368,0.6308789986,-0.1266007184,0.3959408666,-0.4449053337,-0.4340202178,-0.3396097431,0.7170287906,-0.0379520306,-0.7412418874,0.5121762513,-0.3731776965,0.1257768577,0.6036838074,-0.9735504335,0.9698292218,-0.0946067049,-0.7623323716,-0.5772581329,-0.6482543842,-0.0853647601,-0.00515979,0.6931605908,0.1538020673,0.4897770323,0.5134899877,0.4081637973,0.320735701,-0.0309100554,0.1053766271,0.7375299599,-0.567519332,0.0886119136,-0.4942082824,-0.9413509804,-0.8090564428,0.8988397851,0.5195465933,0.0162896617,0.0762062937,-0.0421791491,-0.5607267049,0.5806392395,0.2834529698,0.1097946106,-0.8243834234,0.2968944301,0.4771626568,0.6595884076,-0.1960029552,0.9439211031,-0.5646368913,0.9997425776,0.6313666381,0.2392070578,-0.2777647952,0.8722468872,-0.0145725418,-0.2131924956,-0.0608129411,0.234504881,0.676294215,-0.7727748792,0.3182094313,0.1688098304,0.6638031913,-0.9420574987,0.77483733,0.7235683145,0.822627505,0.2915958605,0.6996905169,-0.0528361518,-0.5001191608,-0.3193033967,-0.1068020739,0.2843174897,0.2369847213,0.1316824444,-0.2594719121,0.7811656625,-0.3876629674,0.8410144884,-0.5390119819,-0.1492531314,0.2350747376,-0.5941524868,0.6155647611,0.997681259,-0.8791392728,0.6213861012,0.6786196023,0.3679952308,0.1745830473,-0.6342106682,0.6656558453,0.7053027291,-0.1778959469,0.2181739844,0.9324891315,-0.0817542089,-0.8099928948,0.6253723669,-0.0399490034,-0.4998402549,0.0798956832,-0.499517687,-0.7701299336,0.4842629473,-0.1735933945,-0.2187631746,-0.6281333461,0.8808982364,-0.8351069007,-0.5853835513,0.3284736566,-0.7683673953,-0.5367795603,-0.5136140739,-0.4468394203,-0.0866051873,0.639660353,-0.1261441979,-0.8980680987,0.0750811193,-0.1872302175,-0.4281041856,-0.5342969261,0.1016330172,0.2402349703,-0.9131435598,-0.9658365425,-0.8768554733,-0.1805910753,-0.2726243257,0.335316353,0.4820205668,-0.3320135802,0.5489080415,0.045391678,-0.1285627432,-0.5644896877,-0.375254962,-0.7702009101,-0.8381758316,-0.8405615966,-0.5432560391,0.7156746944,-0.7210696771,0.7435698416,-0.0110966484,-1.1071168749,0.8399256482,-0.8040368654,-0.2259732336,0.4690502245,-0.5376667328,0.3814837136,0.4365879397,-0.2226494329,0.0711072561,-0.7492293958,0.8370645601,-0.2123626818,-0.2630026132,-0.4114882705,0.1422807565,-0.5199860204,-0.7572139494,-0.4849448541,0.7399795283,0.321983724,-0.9688352124,-0.0474097476,-0.8283922079,-0.3953855471,0.4743174102,0.8819891996,0.9479090962,-0.77866094,0.2073945836,0.2278260432,-0.6712413442,0.7270969059,-0.2707576061,-0.6112602675,0.1666489931,-0.3317396151,0.3074598236,-0.572863633,-0.5688058938,-0.5876089982,-0.6863657263,0.9307868049,-0.0169080294,0.1471247629,-0.8720962001,-0.5751997541,0.0984997328,-0.2964344864,0.2833313578,-0.5123355905,0.0534387162,0.4398222525,0.52307716,0.8584786718,0.8621498748,0.8209136653,0.1372544534,0.9326379451,-0.6713767646,-0.5798646377,-0.8257901249,0.7111405759,-0.6646509677,0.4052138079,0.4055649117,-0.9271044666,0.0313819429,-0.3006501745,0.7796393151,0.7675571645,-0.8839909107,0.7218101022,0.9003260544,0.1953638092,0.9716367488,-0.1583514425,-0.8457669439,-0.2770680671,-0.3737584967,0.5300653839,0.8472633278,-0.8180174566,0.8113402445,-0.4180726006,0.3498056176,0.3201703203,0.6627009177,0.9841297792,0.7057696513,0.9283170459,0.017646631,1.0142396491,0.5975464481,0.2803358597,-0.1948688031,-0.6303899505,-0.7388430771,-0.3198089045,0.6822807837,0.6900379604,0.422751761,0.6109660661,0.4670032497,0.7312201865,0.5995814647,0.2709219271,0.4153131352,-0.9599888669,0.9620110862,-0.1961670787,0.8782746865,-0.6090413862,0.7972243542,-0.0040787312,0.9662309186,-0.0236979895,-0.120348501,0.6515463138,-0.4847637092,0.8010099267,-0.3181086277,0.0654648037,0.2315255301,-0.1459764702,-0.2212922718,0.3103625566,-0.0787867624,-0.6746353251,-0.5550114356,0.9851403548,0.0783932509,0.3278035838,-0.6621849585,0.1712628899,0.926546003,0.7225492041,0.1724993896,-0.8893296873,-0.7254322779,-0.1050823366,0.932549665,-0.7925871214,0.1156880414,0.714420752,-0.6813947025,0.1890847244,0.7144939603,0.1320328524,-0.6202517995,-0.1366816656,-0.6624554991,-0.8434451684,-0.9543006076,0.5629628977,-0.9536186552,0.7710781409,-0.9495699346,0.7993739522,-0.6913539729,-0.2897598073,-0.7522670555,0.5781630207,0.7869096703,0.0812774457,0.9444219222,0.3522250903,-0.9928659506,0.3129499382,0.0941760078,-0.9439975342,0.359948927,0.2056870755,0.0844646536,-0.3636698934,0.650138433,-0.4525258053,0.1297237042,-0.9250056965,-0.976952691,-0.4930177984,-0.8085962028,-0.5032530419,0.9506967023,0.0711812574,-0.2039271548,0.9136344029,-0.3777834025,-0.7785343703,0.7792179997,-0.1737046398,0.9760993572,0.0749075283,-0.5847453509,-0.9193907639,0.3009039364,0.2796761732,0.204431758,0.6397901274,-1.0072144845,-0.2138648667,-0.6878399433,-0.4800616992,0.3891206834,-0.0791101964,-0.1375999176,0.3096892617,0.2405061121,0.3449567117,-0.6215714287,-0.160669284,0.6242218305,0.4277183655,0.9109560096,0.7755029559,-0.8082897367,0.6808677791,0.2819280713,0.7279775603,0.9546653631,-0.0794610162,0.3748447514,-0.8877547624,-1.0123525955,-0.6125729364,-0.681368703,-0.5169133817,0.4012410987,-0.3749696952,0.3909360121,-0.8713171372,-0.4421832626,-0.4749759949,-0.5534102315,0.05878843,-0.1480871346,-0.6277241268,-0.6410127846,-0.3530853976,0.8202787783,-0.6693214584,-0.1616413635,-0.2094082164,0.3962281193,0.7626480816,-0.3591162557,-0.0866895927,-0.1938196272,-0.3475784418,0.2173551677,-0.058800949,0.5083317898,0.212033606,0.9453194262,-0.7063288395,-0.3362614698,-0.1326542467,0.6208223911,0.5159619074,-0.9489076685,-0.6589699399,0.2685273968,-0.7404711931,0.5512015667,-0.3164533852,0.9517574126,0.4472564104,0.5298920779,-0.818318105,0.3391627107,-0.8843286278,0.8696809997,0.6600912965,-0.8535092255,0.3193397389,0.4104383035,0.6963956325,-1.0121076601,-0.1773433629,-0.2124982405,0.049556091,0.6754691014,-0.3508150101,0.9065317025,-0.2235169622,0.9874892711,-0.2454877587,0.2092666044,0.6071149277,-0.2681086424,-0.4554130073,0.6550821777,0.3536398153,0.855326338,0.2287793157,0.7932314129,-0.2525737677,-0.4693003956,-0.977212324,0.3917107827,0.6325003533,-0.9002357335,0.5789677547,0.9242683933,0.2946077786,0.4948878302,-0.8413299229,0.8809118629,0.5269057908,0.876862351,0.588837553,0.9231650468,0.675912076,0.3914946835,0.3308574419,-0.231712333,0.4835898942,-0.2950085242,0.7217873506,-0.0267354052,-0.4218566228,0.2861866001,-0.0973812129,-0.3038775185,-0.1121130077,-0.1749517928,0.4999702853,-0.3984797967,-0.1996757437,-0.3894467636,-0.9388625553,0.7229718818,-0.214782458,0.254282958,0.2178180499,-0.3291186593,0.3231458256,-0.8651597647,-0.9993051499,0.6453293984,-0.3048440827,-0.4376443533,0.0736106567,-0.7048973243,0.0781094114,0.7163454269,-0.5692708232,0.170194886,0.7266300522,-0.0972157164,-0.7416270269,0.8694471995,-0.5050022459,0.1315831804,-0.4399728067,0.4280878434,0.4946635455,0.7887774622,0.0567147505,-0.5920978473,0.9734581019,-0.2450289953,-0.5082407753,-0.2201439349,0.8568076116,0.421344501,0.1028915371,-0.6356382082,-0.5674942436,0.2016550469,-0.3848676946,0.022702284,0.6554792119,0.3410474302,0.6143297352,0.0829113611,0.2377941391,0.605687154,-0.162876597
   0.3061970208,0.8147094911,0.7515994755,0.9360145388,0.4687694189,-0.5626949168,0.7946547361,0.1857080898,-0.6771670981,-0.8190769351,-0.0732203121,0.4585891751,0.9082577451,0.3347622232,0.0872543138,-0.5358956881,0.3188809435,0.7084788343,0.753490117,-0.3646927299,-0.3297461913,-0.3560362628,0.553201713,-0.2487871418,0.25039456,0.5381582062,-0.1816263345,0.9789436764,-0.5393883534,-0.1667284367,0.5965880376,0.5393286936,-0.9128111134,-0.0200846084,-0.59466327,0.2847159406,0.9013411569,-0.1677226114,0.4498566816,0.1052793022,-0.0833371565,0.2496673743,-0.8530256072,0.6346430903,0.8181621523,-0.0000832019,-0.9045187748,-0.9449399882,0.5586430919,-0.0357449365,0.4475267678,0.4441956666,0.0817303275,-0.5323382692,0.675049986,-0.7300489503,-0.763515679,-0.8102330005,0.9377425339,-0.8840787222,-0.5176605041,0.860407192,-0.3542888777,0.9943634109,-0.2265508596,-0.471849018,0.5929367092,-0.8415674239,0.0284403304,-0.3933772558,0.3354354363,0.045307206,-0.0873328544,-0.6504208162,0.450812951,-0.4694306019,0.6475419527,0.7401018797,0.9686911013,0.5371794019,0.2599962482,-0.2311332889,-0.9450031356,-0.8384782103,0.2809675792,0.0902067291,0.8256548885,0.1239875451,-0.5248962154,-0.961508182,0.0278952215,0.0840244989,-0.4308845336,0.7568125342,0.5658130573,0.3015927546,0.955339737,0.2400870471,0.0299633017,0.5894620416,-0.1161132874,-0.199953252,-0.2254271859,-0.6709170829,-0.2108214894,-0.5623529897,-0.8046673577,0.4929968094,-0.78189219,0.1014794406,-0.3784271913,0.5031002414,0.2825167109,-0.0985726085,-0.733475459,0.5865140546,-0.6487649766,0.5338311516,0.0372084425,-0.3646936691,-0.8326023927,0.4268138903,-0.6576055463,0.4143144404,0.3526229463,0.4862621125,-0.781166991,-0.7170834753,0.3173390451,0.3795105454,-0.0489326308,0.7843743682,-0.4917140871,0.1652325492,0.7274867228,-0.0766177576,0.6250216433,0.6433530871,0.8111101613,-0.3897332708,0.671330985,-0.0213012927,-0.2594107012,0.810442666,-0.5333453016,0.432892699,0.444118114,0.8975802599,0.5288975524,-0.4189050773,-0.9653199115,-0.045161744,0.1042266897,0.4913560271,0.4163813614,-0.3098715497,-0.0208907654,0.5180149361,0.305239277,0.3520309855,0.3384712852,0.7835979728,-0.5719888584,-0.4925022658,-0.6266482888,0.8967423705,0.1152821656,0.4160152911,0.6431503568,0.340336099,-0.2201620335,0.4948865733,0.9642975354,0.2298508927,-0.7108764966,0.8855205812,0.727922751,-0.55268744,0.762728157,0.4814382899,-0.7976430598,-0.4502255563,0.5037728566,-0.0777385224,-0.6036870195,0.3213603181,-0.9165407729,-0.2055914466,-0.9004737229,-0.6599539203,-0.1519165434,-0.5686849856,0.1754137762,0.3901387512,-0.5544904204,0.5925116904,-0.3991814209,0.0579550143,0.9557783802,-0.4486506473,-0.8087204603,-0.5966389935,0.864895015,-0.3745330279,0.8906823189,-0.8314139253,-0.1506798852,0.7353458321,0.2714192548,0.3406496999,-0.4742842114,-0.360709196,-0.5536680822,0.1190574214,0.9249168439,0.5116278272,0.563113732,0.2866792141,-0.3278275702,0.2543603415,-0.1384794195,0.7315960275,-0.5585019473,-0.0343448112,0.5614887339,0.379706549,-0.313038705,0.7165958355,0.6683961153,-0.0573092937,0.3288178269,-0.7561792402,-0.5809118672,-0.3134606707,-0.3542089391,-0.1213239412,-0.4265384034,-0.0066879448,-0.9338782424,-0.379049472,0.7499255948,-0.5110993734,-0.3439044565,-0.4336579751,-1.0020504235,-0.09219816,0.620608578,-0.9516125289,0.3018861363,0.835477925,0.6590969253,0.4853513505,-0.8209287005,-0.6923009034,-0.0860865523,0.9633052251,-0.2597386663,-0.7684604439,0.8409699273,0.2920472578,0.7216898093,0.6176362871,0.2990525483,0.2563113542,-0.7907083394,-0.0547093369,-0.5493527647,-0.4150421593,0.1767760278,-0.8392474868,-0.8389347888,-0.1989933544,-0.3400515895,0.7324142349,-0.0190211544,0.6573407548,0.2157926549,-0.8810380763,0.8875832186,-0.3402866034,0.7492701102,0.081491261,0.2490101483,0.9327755667,0.32461352,-0.9266247968,0.0317545329,-0.9687702904,-0.5643919227,0.5133143271,0.0113802085,-0.2946494129,0.6776825807,0.725168195,-0.1240917442,0.5131594488,0.4002728873,0.65974274,-0.7974793574,-0.5844613813,-0.5974235129,0.6669592843,-0.2618946142,-0.4371144615,-0.4746930879,-0.687759199,0.315599247,0.4149139769,0.2417112055,0.1668071223,-0.2145746708,0.7957967196,-0.3790014061,-0.9781024105,-0.0906419016,0.3778032552,0.5586557026,0.9598906645,-0.1160940328,-0.6607729016,-0.5536563364,0.2191680626,0.8760579399,-0.4400459986,-0.8554536231,-0.5992731708,-0.2096479123,0.1197661366,-0.1046692437,0.2360208107,0.7371115247,0.8155830137,0.1044984894,0.1358143847,-0.8882972429,0.6013083589,0.9405547659,-0.9103183106,-0.623703168,0.9197239489,0.0549421584,0.7341801954,-0.8603150673,0.552392088,-0.8625946281,0.3285598791,0.8580339308,-0.1346722121,0.9717046498,-0.5589225098,0.7539784818,-0.0621538319,0.6733369223,-0.8361447315,0.297664692,-0.6073129076,-0.3450081198,-0.8501101859,-0.1005624764,-0.1439282135,0.4786954005,0.5280846405,0.2146601993,-0.9499181281,0.4702286488,0.408649688,0.7519872426,-0.5509451092,0.7279989162,-0.6573138473,-0.6349640153,-0.5892248201,-0.2338536599,-0.7673368123,0.6366566615,0.3798137051,-0.0666584444,-0.732363611,-0.8141681673,-0.0985716746,-0.2151236982,-0.6750195305,0.818606061,-0.5756469526,0.9715749598,-0.3683144191,0.213123699,-0.8898542324,-0.5317472889,0.2091618818,-0.161208916,-0.9010655978,0.7800037619,-0.9579538676,-0.1099533915,0.528502772,-0.0922481138,0.6503116703,-0.4753729894,0.0516406238,0.0467232339,-0.6685083105,0.7546796179,-0.6737013201,0.9064408839,0.6014577177,0.7275350419,0.7017375409,-0.3258516857,-0.6151893447,0.6850900057,0.9583542256,0.3742996415,-0.9114610117,0.7901227154,0.1183366141,0.1136063788,0.9088404337,0.1775671967,0.8979831238,0.6553136226,0.4442377227,0.4515144192,0.3515120552,-0.8944939545,0.0535516614,0.9683145663,0.092051799,0.5337944159,-0.5849207137,-0.3568836848,-0.1884063253,0.9297864168,0.8199527229,0.9170085584,0.0173594027,0.9459564578,-0.6826400037,0.6588448934,0.6204203579,-0.4899890009,0.4787197191,0.2022904856,-0.4368422893,0.0711674286,0.8341687055,0.7658371426,-0.8198338345,-0.2956623683,-0.7698137232,0.1379824531,0.8760655854,-0.92113174,-0.4893683695,0.492728994,0.7457217489,0.0210487819,0.2761510665,0.335273362,0.3095865794,-0.6275399865,-0.6025622836,0.715404799,0.400968511,0.1646699622,-0.5481120883,0.4330146564,-0.6021937412,0.2171283532,-0.1453024366,0.7058391867,0.4182120878,0.8196830167,0.1576679738,-0.3092511842,0.0727903439,0.1597286574,0.6930825383,0.5633414725,0.6372111256,0.4274638448,-0.0715798964,0.5180561305,-0.7421968511,-0.9008416914,0.641397482,0.4125005582,0.7760266805,-0.355535786,0.4119091693,0.2444643229,-0.8350575242,0.0867157309,0.9095460527,0.9729379712,-0.3157376108,-0.7308572478,-0.0589865546,-0.2533688635,0.8169950707,0.8230124118,0.0271803622,0.8607990087,-0.0296272254,0.030120413,0.3260028363,-0.2237373728,0.8649299041,0.9079320319,0.5871825855,0.2377142261,0.3454484634,-0.6638399614,0.0775804477,-0.7393284801,-0.1557920387,-0.1512484634,-0.4157321406,0.1333376651,0.6287241845,0.8733498843,0.1225668459,0.5608171071,0.893711233,-0.7729906638,0.702125649,0.5088699885,-0.0134149266,0.6843872145,0.5312031157,-0.7528359809,0.5518535938,-0.44100983,0.8100122486,-0.7374702267,-0.6878088558,0.6795210241,0.618418592,0.3817039165,-0.6406501176,-0.7719279066,0.7440903812,0.9220940375,-0.7747835585,0.0225582589,-0.6255696248,-0.1101445915,0.6463482168,0.8397608607,-0.0861994408,0.3102861175,0.3263212406,0.9324235106,0.6245838921,-0.6747720375,-0.114667903,-0.2918767422,-0.5597628486,-0.7810998351,-0.5485620969,0.4245759594,-0.5398966124,0.5980074007,-0.4755301115,0.1067964171,-0.8815412271,0.1588062147,0.861731107,-0.5553183421,0.5230762598,0.513803683,-0.1396646128,0.1581731754,0.0955038644,0.3443555613,0.3418481633,0.7164064958,0.8501561641,-0.0840877486,0.9316456645,0.7216328282,0.9516008991,-0.4562031018,-0.0125140495,0.4593932516,0.742163619,-0.0354175876,0.3960881882,-0.7373351578,0.8778937383,0.6692560417,-0.3247008366,0.8096697033,0.2234213866,0.1145238052,-0.3568299626,-0.5737471885,0.9657177103,0.353879366,0.5636452563,-0.6791140263,0.6419160969,0.116766922,0.5916203057,0.6311243627,0.1590948318,0.73229468,-0.5579291914,-0.8944789817,-0.4201784026,-0.6332254781,0.1265070272,0.0062126269,0.1244991688,-0.0380797376,-0.3891516809,0.6632528991,-0.9288449539,-0.9116261898,0.9251407636,0.5896893549,-0.4881883567,-1.0130613435,-0.4005636126,0.1110694574,0.8029971679,0.1948380855,0.0161026118,-0.4247059571,-0.4664645585,-0.0440458035,0.7049471216,0.1644096812,0.9010882982,-0.9145644946,0.3722951824,-0.0312103214,0.4351476808,-0.2993433282,0.8811747136,0.7673255564,0.5267094111,0.8679071769,0.5867177722,0.7781463361,0.7896114466,0.5798357077,0.3171355641,-0.0179673244,-0.568776334,-0.7436256803,0.6501237884,0.3642716059,0.4622844748,0.2977264994,-0.6098835103,0.7606708811,0.4498436075,-0.6276347508,0.5750564462,0.5202590694,0.5082878509,-0.6095465009,-0.1555781209,-0.9666590961,0.1195915487,-0.8380408108,0.0700176534,0.5680428809,0.0854744192,-0.0614700975,0.6016359521,0.5716063519,-0.5662363532,-0.2175540797,-0.5756233475,-0.201302459,0.879675236,-0.6230988689,0.177239124,-0.4178639153,0.067968118,-0.7658174796,0.1671917905,-0.5229017846,0.3471003907,-0.0306360753,0.7529973165,0.0583575336,-0.5100449621,-0.3778041801,0.4712143518,-0.7356099958,0.371178288,0.7011896956,-0.866757028,-0.041014601,-0.3410944972,-0.4266646307,0.5069630122,-0.5704924311,-0.5751271352,-0.3246665452,-0.7892117257,0.8887225331,-0.7852281975,0.4899975018,0.4901094793,0.553666475,0.4072629118,0.1368947355,0.7706401807,0.0985823146,-0.3996314066,-0.5861789613,0.4102146011,-0.009340318,-0.657453526,-0.4190975167,-0.2026273718,-0.2628427892,0.8982420862,-0.9662072182,0.4404984249,-0.6046484954,-0.8496371807,-0.9668364553,0.6474843182,0.4019248518,0.061701676,-0.62946067,0.6994766763,-0.6661866257,-0.7696954968,0.0693381319,0.7562562807,0.8496941422,-0.1422707615,-0.3680839493,-0.2892444173,-0.2918008617,0.3433485989,0.9186107452,-0.5456335601,-0.7235795251,0.0330678609,0.5792867855,-0.7929985431,-1.0378607361,0.6617001013,-0.5998086288,-0.3782586317,0.2686564864,-0.3864829321,0.3254921435,0.6697046028,-0.4499670408,0.4507134223,0.1214176755,-0.5374399466,0.7085736774,-0.8925695252,-0.4552934105,-0.6177335478,0.88127499,0.7537067888,0.9500219787,0.2467123055,-0.632917154,0.638041112,-0.5272670969,-0.2357489594,0.5388295987,-0.2300503015,0.9167475963,0.2262099459,-0.9222627436,0.9051405301,-0.3625251483,0.3823828618,0.141860357,-0.6982644247,-0.651892515,0.0132530117,0.3835531771,-0.6862718377,-0.7925041301,0.821720276,0.0343438407,-1.006887063,0.2979292911,0.4233308866,-0.8495091231,0.2630344908,-0.5235732669,-0.5211794492,0.7207728892,0.9979431477,0.5366898327,-0.3630043177,-0.3484007417,-0.2646242411,-0.0981940321,-0.7419765084,-0.4453159638,-0.6714277614,0.5029017281,0.0856742447,0.6268682823,0.6375375221,0.9992017268,-0.1818226833,-0.1336804992,0.4048364925,0.9245282253,0.9654029098,-0.2732711297,0.5726870944,-0.1799867816,-0.4818637614,0.9163851612,0.788571228,0.2571421696,-0.1776948004,-0.1980285298,-0.2021791395,-0.7172724865,0.6109999019,0.3559448622,0.4225795365,-0.3303440396,0.1189541487,-0.3443009359,0.7230187281,0.3490759406,-0.1828236663,0.4030064698,0.4723071462,-0.9251822436,0.7561658384,0.2310725717,-0.6110135369,0.9050788401,-0.722630083,-0.0248780141,0.6467165405,-0.4034989527,0.6987612108,0.1617076915,-0.3738783494,-0.7880589264,0.9230328335,0.2283450023,-0.0366497449,0.1832796479,-0.2319134644,-0.3097043616,-0.4071407132,-0.589012885,-0.795564948,0.0060003536,-0.4884959365,0.2665317932,0.7291578311,-0.6582135073,-0.7014837411,-0.0606814783,-0.373973632,-0.7699011821,-0.007088405,0.9382659857,0.8053454991,-0.9535434554,-0.6069660854,-0.5326107676,0.2442673099,-0.4050291757,-0.8017056643,0.4094273576,-0.9637057138,0.1994255622,0.3544079921,-0.8721219481,0.2101791266,-0.5359138433,0.2555689877,-0.5113100957,-0.7973986554,-0.9276687785,0.0498734837,-0.6073841236,-0.9856334406,0.6363309601,-0.6189411695,0.2374555892,0.4495729461,-0.80021458,0.0577176236,-0.1998134989,-0.2985372749,0.1216760822,0.8508199496,-0.6706321527,-0.5870304185,-0.5662472725,-0.719795517,0.1829337403,-0.763180496,0.6894945832,-0.1281048496,0.4526758947,-0.2397700527,-0.0965745225,-0.4849212551,0.3778088938,-0.3865505789,-0.3566779258,-0.4632280069,-0.0242316276,0.7974205425,0.455397964,0.3713372123,-0.1668639239,0.6002782765,0.7929138193,-0.5562314244,0.2357937178,-0.1725767381,-0.5820306745,0.3041142024,0.5373711743,0.648302477,-0.9336062253,0.9295838189,-0.0482911011,0.9905943141,0.3822114377,-0.9567909745,-0.7491516401,-0.8573944115,-0.5165779696,0.0033391548,-0.0063184015,0.6075348016,0.5753423946,-0.7042636028,-0.2532528319,-0.9945219996,-0.283966875,0.7227529753,-0.6553774475,0.7466187065,0.7412373271,-0.5431723362,0.6179055756,-0.052833773,-0.6927658867,0.3443511746,-0.8873388216,0.2070991369,-0.0597560113,-0.9878267177,-0.005927277,-0.6191773379,0.0284664744,0.0965219589,-0.1509562499,-0.3913615212,-0.3186327805,-0.4234718314,-0.1765049977,0.913458892,0.763053247,-0.3142861443,0.3641818908,-0.2773998927,-0.6686017706,-0.6112927913,0.8213655186,-0.3069401452,-0.3454987433,0.4047506554,0.4506699025,0.5271763636,-0.9856914813,-0.9611071986,0.3647651636,0.1290119715,-0.8786006783,-0.0841920539,0.4378493322,-0.0708601757,-0.6075761918,0.4439875025,-0.756112022,0.743646389,0.5577903174,0.02424103,0.4261692627,-0.4583295913,-0.3293956211,0.6262509755,0.914698769,-0.1034746361,0.39406118,-0.3935742698,-0.9351173961,0.7772980234,0.8019090995,-0.1922133514,0.2574701577,0.1403532815,-0.5010532004,-0.3085831062,-0.7523494098,0.1070920653,0.1733791024,0.2295383109,0.0223759273,0.0903506557,-0.2925499945,0.9512296777,-0.4602974289,-0.7802519211,0.8176903259,0.6631734479,-0.415460922,0.7506067766,-0.8470494403,-0.0625379035,-0.0506635745,0.7305708743,0.3485608584,-0.4943712472,-0.3152572342,-0.5975493035,-0.3859843291,0.6860058052,-0.5051765903,0.7883079014,-0.7628810848,-0.0271375319,0.3312610501,0.1025630282,-0.7204487275,-0.2537946532,0.9751958015,0.9603603152,-0.2631628813,-0.426064281,-0.8530455206,-0.7138975934,0.3728697313,-0.6783551598,-0.1402191811,-0.3918805246,0.4750618033,0.4279804422,0.3969837757,0.4563976219,-0.3664961237,-0.3868461681,-0.5329881037,0.704370993,-0.8726812188,-0.5679124687,0.9986077221,0.7397891269,0.1049427976,-0.8359975384,0.7445890381,-0.6659082283,0.7728123279,-0.1429527452,-0.9992417052,-0.0079603774,0.7517514874,0.8372848627,0.6172120528,-0.9618358062,-0.2125840009,0.7625705336,-0.247080302,0.7506946319,0.6671131393,0.6724868264,-0.8889701138,0.0570375196,0.25449154,-0.2883571504,-0.4972054168,0.4943478422,-0.8663474008,0.7118590492,0.9134301785,-0.224189205,1.0477176191,0.3998367018,0.6183955776,-0.574765561,-0.8901002677,0.1779225821,0.2937519711,0.351917138,0.8584516318,0.827018826,-0.7533148307,0.3666120058,-0.8219694384,0.0038574317,-0.1530830355,-0.8711783726,0.9324200102,0.2718964347,-0.6847048616,0.2802391841,0.1618192866,-0.4097690205,-0.6772620218,0.0296445648,-0.8917627509,-0.5986870952,-0.1283019076,0.5001473543,0.9004761699,0.1203123412,0.6922175533,0.1624210389,-0.8027039869,-0.1475381282,0.3097466498,-0.6055112017,0.1907802571,0.0314790577,0.9562311435,-0.3383027657,0.4957526666,0.9539288595,-0.4471327753,0.3276141293,-0.6631434987,-0.4583545646,1.0857636896,-0.3462743961,-0.9209479958,0.0952284733,-0.6703269184,0.5014219983,-0.1109213086,0.6321835968,0.5058052861,0.867655511,0.0618869689,-0.4395292676,-0.9365934141,-0.2740950428,0.5523277254,0.1381283628,-0.3534689718,-0.2817715654,-0.4699621372,0.1366079467,0.1349295193,-0.0374856968,-0.212938382,0.8033938463,-0.408447815,-0.6555788922,0.3176574904,-0.1900433069,-0.082723689,-0.2898184449,-0.8259694969,-0.6734030319,-0.3629417237,-0.8967635772,0.5994379911,0.9091760542,1.019426306,-0.4113490613,-0.2475375896,0.1601933002,-0.4939879572,-0.7726827921,0.0256370306,-0.2595991569,0.4833896438,0.1459133704,0.1313921261,0.5019628266,0.5152703278,-0.5067799311,0.6307236191,0.8282175586,-0.8252332721,-0.8767491787,0.8500257642,0.4209631328,0.7050683981,0.8289779504,0.7302328564,-0.0693901012,0.3837701221,0.6230624184,0.9529415088,-0.4272540865,-0.8383431153,0.3272006019,0.4515437667,-0.1661678596,-0.563712112,-0.0975351441,-0.2739568681,0.7872041284,-0.5368437784,0.4380664045,0.7383531316,-0.0005702239,0.5806398897,-0.5187589063,-0.1163800309,0.7635132746,-0.4919629641,-0.7351941168,0.7890751225,0.3842467642,0.8370769043,0.3750878633,-0.5682686939,0.5942434316,0.4958345119,-0.2050195396,0.0299940312,-0.6384960802,0.7015375577,-0.1449568651,-0.039187803,-0.6924162741,0.5783204179,-0.2131418467,-0.8316824942,-0.3060062321,-0.430504312,-0.1937048393,-0.4448669334,0.8173249619,-0.6768524581,-0.9645724345,0.4645910714,0.5765909151,-0.32637327,0.7017099633,-0.2896987641,-0.6386428707,0.0640238606,-0.7797016886,-0.8147901503,0.6585635714,0.0640864307,0.1563378332,0.8487416428,0.0435835752,0.455692789,-0.9317093367,-0.0191884883,-0.675983468,-0.6533913145,-0.8590878483,-0.1577538948,-0.4724031655,-0.8263964679,-0.3271596628,0.7981824505,-0.4833324763,-0.4124375344,-0.8464413204,-0.4959424281,0.4961458828,0.8647883085,-0.6508006664,0.4244211008,0.6045306901,0.9321611547,-0.7865363077,-0.1579019689,-0.5535409947,-0.5426183833,0.076622463,0.4870819825,-0.737526554,-0.6281434262,-0.3213334442,-0.0270243967,0.0037706754,-0.6795316328,0.4974829989,-0.9517593636,-0.1789165932,-0.9616963788,-0.8678055598,-0.497218128,-0.7732739592,-0.1284348075,-0.0264621844,0.6276931048,-0.9173255566,0.7743158334,0.7675769228,-0.8703449305,-0.7631973705,0.2039206018,0.2078237096,-0.8834783527,0.5019223397,0.7731365951,0.1632994189,-0.0683568078,-0.8731758295,0.5116014465,0.9595200854,0.6654486058,0.2629182005,-0.1594710088,0.2161126258,0.480741248,0.5385707943,0.1721220735,0.6067963857,-0.2451302832,0.6353380591,0.8351426926,-0.6172081315,-0.8989046844,0.5787244609,-0.9948651742,-0.4946057554,0.2686471393,0.6422251291,0.7625946049,0.4277587198,-0.203141986,-0.6770112661,0.1431203994,0.2344946418,-0.603894606,0.2728802902,-0.1341756746,0.6864266105,-0.3711191556,-0.938878726,-0.2389214081,0.505002452,-0.9935300901,-0.1373296399,-0.5582473809,-0.4544138012,0.2093923388,0.9234026553,-0.4018716689,-0.3763093896,-0.5893772642,0.0267616102,-0.9214243025,-0.6446036679,0.3082793361,0.021535718,-0.0019993462,0.9084876267,-0.2884798173,-0.7102581084,0.1064324116,0.041555072,0.8712853077,-0.7411292008,-0.0182594928,0.7824513618,-0.5102912733,0.3116539478,0.2170184154,0.6155160845,0.7794060762,0.7237862611,0.7727369598,0.3594787888,-0.6269789563,-0.2494939001,0.2864669645,-0.5105052107,-0.1434924879,-0.1228328861,0.5501524134,0.8941239669,-0.7695827831,0.5294306731,0.2469638485,-0.7309615917,-0.8059960535,-0.6192716853,-0.2883952906,0.9279614195,-0.0235660924,-0.039268664,-0.7832971011,-0.5343976329,-0.8986453774,-0.6546737866,-0.7014652068,0.7355197909,0.8224614058,-0.8924997226,-0.7182205328,-0.6896811205,-0.5686809592,-0.1651035229,0.1243192793,0.2858684849,0.6112864246,0.8302556781,0.0117911482,-0.797633584,-0.0685768478,0.9176610916,-0.7431252468,-0.873418495,-0.099952542,-0.7249317639,0.9234592023,-0.2828855577,-0.4791580375,0.6471653656,-0.3995489837,-0.2305819046,0.9645726018,-0.72228862,-0.5760705806,0.8154495234,0.364323819,0.6223568236,0.1304626727,-0.6101468452,-0.7254049658,0.4840790948,0.9929647295,0.3602088069,-0.6018876905,-0.7811925831,-0.5225253547,-0.8908511509,0.2851827768,0.7143536027,-0.2052322212,-1.0055108728,0.0191258204,0.5450364183,0.5075897863,0.1249015034,-0.601726858,-0.1522569554,-0.8442524892,-0.8170818552,0.4552325044,-0.7946786707,0.377052702,0.406115065,-0.6921142613,-0.1786157884,-0.3460110013,0.1839755009,-0.8496687515,-0.8146424728,-0.4342080657,-0.5641089181,0.0385642939,-0.2074257601,0.9119713979,-0.415124694,-0.5624943757,-0.4723218841,-0.7981022848,0.4662095871,-0.9001045938,0.9388186783,-0.335339337,0.5781298516,-0.230787316,-0.9890517499,-0.6189710769,0.4159624407,0.7730841386,-0.9201700138,-0.7031843228,-0.3969664108,-0.9293299686,0.5168403148,0.0376408721,0.2240538878,-0.4158739841,-0.9142177432,0.5247795174,-0.6738773681,0.8620567027,-0.4896766944,0.1188766916,-0.3641605047,0.2299892159,-0.0353356963,-0.5715527974,0.8904776917,0.2621492566,0.5555937482,0.7601269374,0.6375067633,-0.7713535751,0.6055970962,-0.6239383354,0.8374321848,0.658611372,0.743846755,0.3456781884,0.161146575,0.8534578261,0.240672294,-0.1958050917,-0.5709733652,-0.701610091,0.732255339,0.2536930537,-0.5046526535,-0.5970621455,-0.890932883,-0.8633521626,-0.9326438244,-0.1692253083,-0.4239829021,0.6929759969,0.5977712483,-0.2898766844,-0.7664638841,-0.5738557117,-0.8802128837,-0.2220941425,-0.8591332367,-0.4850919068,0.6181619008,-0.4424989153,0.8685415665,-0.3161110046,0.6294577963,0.1036247119,-0.5924104827,0.1796235039,0.375231255,-0.6072862498,0.6271648378,-0.4725262473,-0.0966833243,0.8368570903,-0.7903422812,0.1615120308,0.0568207775,0.7785265386,-0.8154449325,0.1416475597,0.443765095,0.3333352659,-0.2726921573,-0.2986330685,0.5787195953,-0.7861656827,0.4121270418,0.5924285524,-0.9672692314,-0.8371659752,0.778728726,-0.0333288105,-0.3105262177,0.9564689999,-0.0236478497,-0.8649494005,0.8872268676,0.9392281931,0.5915363968,0.2472267584,-0.5553958171,-0.8171406493,-0.2955924841,0.359295285,-0.3724466467,-0.1207011378,-1.0225223192,-0.0555701274,0.0588887856,-0.0847391767,0.9706107184,-0.9641087448,-0.7947310631,0.4248300311,0.8864165476,-0.7356214433,0.8477853033,0.8816737357,-0.4884375725,-0.5680180834,0.7625887931,-0.2662376222,-0.9939780685,-0.2876715589,0.7741814937,-0.1885059772,0.2255865852,-0.3278740021,-0.9569531946,-0.1066957604,-0.8175657138,-0.1159690893,0.9558638261,0.8939656632,0.3659497684,-0.6224513276,-0.2674235748,0.641062321,0.0270016123,-0.8292192603,0.5281365227,-0.9189965391,-0.6024790443,0.064693699,-0.9981733148,-0.6926823978,0.6174037827,-0.8976113078,0.8032649325,0.2720055347,0.800916295,-0.3776369357,-0.779502768,-1.0096069386,0.8412899029,0.7739993549,-0.8501194538,0.1930600458,0.9964400006,-0.8482691577,0.7306514561,-0.2166369682,-0.4620047864,-0.7549707742,0.0619535547,0.6265218279,0.4305656785,-0.2867659379,-0.5885691024,0.1885820438,-0.5617379655,0.5653866686,0.5501478967,0.1399268184,0.4181386635,-0.2977207488,0.627297475,-0.7103144346,-0.9361522867,-0.0359787756,0.7403427541,-0.1143823109,0.5439604961,-0.5917088031,0.1319009708,-0.437942483,-0.4548441435,0.9354911271,0.2308723417,-0.7967640632,-0.2152120406,-0.441460925,0.5024679615,-0.047580813,0.0089019732,-0.1135593292,0.8084075553,0.0596482511,0.3185080086,0.4592415917,-0.9120923687,0.2924196282,-0.6104468206,0.6110190777,-0.6306689612,0.4980555738,0.3324653496,-0.3107574651,0.5518782708,0.5483232522,-0.6263304949,-0.9049218888,-0.8491762259,-0.8918193481,-0.942876834,-0.5306539793,-0.9017719914,1.023292583,0.9707303647,0.0119185513,-0.0909732545,0.0487856339,-0.5800978807,0.4807251624,-0.1926936158,0.6769445823,-0.9329352834,-0.5673862941,0.6106211017,-0.3731094006,-0.3235194572,0.3296020919,0.1763991569,-0.6299958572,-0.2216432736,0.6038621041,0.2885961362,-0.4471950931,0.9853871728,-0.7353725979,0.8641011278,-0.2640063439,0.3468444901,-0.9591454354,1.0383746292,0.6993623625,-0.6637998691,0.3758791712,0.0619302751,-0.4184541043,-0.6584291851,-0.423151314,-0.7256223975,-0.2008677874,-0.2337592948,0.658089279,-0.2007533249,0.7939911426,-0.813730377,0.5742260453,0.2229774364,0.9231067006,0.1505937159,0.0012320346,0.8822988785,-0.8440135179,-0.1507630416,0.0689838464,0.4521846869,0.0523751875,0.9993073184,0.2465610675,0.4666847012,0.1207080282,-0.6468646272,0.7286532745,-0.8952741479,0.4614155726,0.4249275306,0.974211875,-0.2640611977,-0.6651137819,-0.8881305173,-0.0709644463,-0.6024564055,-0.737694076,-0.2500223806,0.3736364659,-0.3429484109,-0.071750127,-0.0553903733,-0.5419196378,-0.1181568562,-0.664359906,0.36002852,-0.2944135374,-0.5721496305,0.7931719399,0.3474422748,-0.7864608554,0.9614747557,0.7503654476,-0.6272149792,-0.608611589,0.8840572241,0.2513243058,-0.8500556633,-0.8077776811,0.7077218468,-0.6242358686,-0.2863005581,0.2797527692,0.3383701726,-0.4194107468,-0.8606517884,0.5504362914,1.0294442719,0.7696864627,0.8708379591,0.8805576428,-0.7495825864,0.4551301296,0.1889962439,0.3778973168,0.3661751268,-0.5650592963,-0.6497915424,-0.7684101906,0.1980053031,0.4093427564,-0.4488133907,0.986470955,0.1861105593,0.7820902267,0.9153226254,0.5094455671,-0.1220064282,0.2254766043,-0.9473818199,-0.016388102,0.0360320586,0.466834827,-0.2392604477,-0.2888610801,0.7052343015,-0.0879793937,-0.9533210254,0.7325796956,-0.2118634417,-0.1644158926,-0.4352367278,-0.8967368331,0.1341081437,0.1243013572,0.1225473757,-0.2397263746,0.0563082997,-0.9392110639,-0.3162410059,0.6021820786,-0.4985645777,0.6473200434,0.9340781631,-0.0294766944,0.1635550712,-0.1970489386,0.7457043475,0.4922160447,1.0026535113,-0.8882586528,0.4834023625,-0.6173004956,-0.3813629305,0.222466603,0.073042718,0.5850342854,0.9747445426,-0.2589550819,-0.9888972239,-0.8973476747,0.5661588197,-0.9853645165,-0.3290549497,0.5974095827,0.7826037291,-0.4860649264,0.2782476768,-0.9735862671,-0.88389259,0.2059801494,0.8729780999,0.3316306548,0.2028880078,-0.2065068023,-0.4154433893,-0.1509738114,0.2445607507,-0.0878346811,-0.0358183361,-0.1242768023,-0.5249172454,-0.2895093141,0.1983872585,-0.1581667737,-0.2788922073,0.0050290243,-0.1399289646,0.63895305,0.9230210114,-0.843644474,0.8493264747,-0.88002069,-0.4542546274,-0.7981595444,0.2133814098,0.8679577482,-0.778540255,-0.9602764566,0.0612868751,-0.0680053751,-0.6136650909,0.9069954554,0.3768950768,0.7094272207,-0.4640131489,-0.1194436446,0.1875812527,-0.6343126336,-0.7935383903,0.4806327653,-0.287023105,0.6678434078,-0.0083103694,0.3223433573,-0.9372929833,0.066057172,0.3101159063,-0.6015721598,-0.2471192841,-0.9395315159,0.9122557764,0.4387456461,-0.7035482267,0.6564208288,0.700728909,0.709569171,0.774226489,0.600485371,0.8918084127,0.793225097,-0.708684861,-0.718787221,0.6759073325,-0.7447150218,-0.4044198394,0.5001419768,0.5003902931,0.286440272,0.8070116964,-0.431796648,0.1370255897,0.7332422083,-0.2904496381,-0.9153115395,0.851955962,-0.7756043584,-0.360234697,0.6193688072,0.2941983262,0.2789551986,0.9810422185,0.3615052654,-0.9746196665,-0.3365504308,0.6503113713,-0.5906383772,0.0507259215,1.012307375,0.3837506053,0.9817205079,0.2890646505,-0.2175440256,-0.6302956744,0.7777185719,-0.380664375,0.9432903118,0.3993125413,-0.391804449,-0.5854467685,0.3427676242,-0.4011335121,0.19576718,-0.4634728167,-0.6451108204,0.0870458284,-0.3442168712,-0.7417440201,0.7074338377,-0.8709471503,0.1429556925,-0.5273206305,0.1262539634,-0.3624134668,-0.3759664737,0.8816151587,0.1852095104,-0.4763581375,0.6343468522,-0.2914875026,0.0943108861,0.3455171647,0.106247999,-0.4773919845,0.1119568716,-0.5915726982,-0.0741169644,-0.6446950038,0.4975978694,0.5877426365,-0.2640052621,0.206200308,-0.5231124472,0.7696045248,0.6515346082,0.8648976338,-0.8281056291,0.4334318195,-0.6397473352,0.5661039106,-0.4902827857,0.3700246572,0.8592056654,-0.026896827,0.1016006652,-0.4800178441,0.9358825437,0.2470665199,-0.6493709838,0.6557898847,0.7042131118,-0.3079227139,0.230153481,-0.5316603249,-0.2514116914,-0.7707259035,-0.2757736242,0.6711979765,0.7812784212,-0.5453461452,0.0543405132,-0.2709347135,0.4686707539,0.0949845545,-0.1025102453,0.1222625507,-0.3722095139,0.3966868779,0.5962293584,-0.0248432403,-0.4123942593,-0.6488592379,-0.6652400327,0.3826844304,-0.9096193678,-0.0911633928
   -0.9294613329,0.6271958544,-0.2399332556,0.3117811018,0.4982690259,0.8192856725,-0.0017648759,0.9474332205,0.6092056334,0.5453848096,0.3467427822,0.4601541822,0.1655195321,-0.7321000663,-0.5942535063,0.5810956431,0.5432753988,0.2990136892,0.3399903399,-0.1289828725,0.0647790228,0.2378455935,-0.1308274587,-0.731577057,-0.7253982899,-0.3996620197,-0.4428548997,0.4531410001,0.7541796446,0.07494094,0.9829619676,-0.744353615,0.5621907203,-0.8459570919,0.1814159289,-0.7618286804,-0.2308734507,0.1305574338,-0.2638433054,0.0617053477,-0.7034146848,-0.5635779022,-0.5286298233,-0.5983831338,0.6471641868,-0.2026250815,-0.2672746423,0.8494585563,-0.5190590725,-0.8302743628,-0.1381665563,0.9255605574,-1.0007335963,-0.3829642124,-0.0176679253,-0.3124916677,-0.4900315536,0.0522629241,0.0340519033,-0.7344706319,-0.7850069319,-0.0443260077,-0.5265590228,0.3752539731,0.2225605346,0.1573926365,-0.11275403,0.1540841966,-0.8960868907,0.3747384828,-0.8294271143,0.4329645458,-0.2295832016,0.7023896282,-0.3938905378,-0.0775466792,0.6769002274,0.4371621286,-0.8601792847,-0.6772877128,-0.756417056,-0.456939242,-0.1781642283,-0.6116827821,0.4132274657,-0.3612254372,-0.4716422588,-0.7348060976,-0.4554411666,-0.08794018,0.0868007844,-0.3898326005,0.9157086137,0.1771188688,-0.6121575179,-0.7704356671,-0.6772514694,-0.2905949686,0.381041319,-0.1804378446,0.8810020643,0.3046113878,0.1514697256,0.3322214166,0.0443374564,0.7277944761,0.2078476992,0.9051386083,0.4556291027,0.5352897325,-0.3732442115,0.5198108189,-0.5062314583,0.1996287632,-0.7977929575,-0.202412082,0.0282839602,0.3772533679,-0.7928103565,-0.9200077862,-0.6590436263,-0.0246161844,-0.2702941844,-0.6526376253,0.2765879232,0.2954141925,0.8453563691,-0.1888148672,-0.4624314293,0.021084077,0.4374477506,-0.7458865728,0.2919358142,-0.9293159256,-0.0241718681,-0.4877046776,0.8762187207,0.1827737516,0.4881473944,0.0479107453,0.3316197454,-0.7831338817,0.649176841,0.4209446605,0.139031951,0.3173835249,0.9870721357,0.0868215331,0.6021308889,0.1238606341,0.1145157125,-0.8128032382,0.3849587275,-0.6760063728,-0.2089308254,-0.3109775025,-0.0748125747,0.9236164304,-0.8118999545,-0.8195365426,0.2986508577,-0.8036073584,-0.5134314735,-0.2667140749,0.2864830175,0.8760438874,0.5295473055,-0.2177663844,0.0091773868,0.5442863416,0.2582088245,0.3788175972,-0.9723328121,-0.2180693766,-0.2610975512,-0.0479308004,0.684745196,0.890867085,-0.1641139572,-0.1929066676,0.2601547951,-0.5579324139,-0.2220404118,-0.3669710504,0.1217271044,0.8736884953,-0.6568302716,-0.2827254309,-0.0471631494,-0.5420844748,-0.5102611491,0.242585648,-0.2955663005,-0.6228120622,0.5800764796,-0.746739256,-0.8966955107,0.5809534172,-0.5679737351,0.678228788,0.0619673811,0.9027151551,0.8671557043,-0.4906960972,-0.6189696181,0.9302426855,0.046276824,-0.6826070319,0.3750522422,-0.933307905,0.4717279832,-0.2705757788,-0.2349445961,0.4319734917,-0.8783910972,-0.6610881684,-0.8307664038,-0.1958699597,-0.8514909889,0.4103158773,-0.8386683346,0.3368067317,0.6604040161,0.9414685582,0.606290198,-0.5397593409,-0.4567632395,0.1322798915,0.5683708148,-0.9312520497,0.4272841787,0.9046385275,0.3889768849,0.9021533672,0.9515786696,-0.7751425612,-0.3930781451,-0.2171243604,-0.8110648644,-0.9805871691,-0.1588351485,-0.0525911297,0.4112918322,0.8403822952,0.0238198327,0.8537929906,0.244331024,-0.498663009,0.1274099505,-0.9974227718,0.8784753234,-0.9637355163,0.6478894509,-0.6340759919,0.7634694973,0.9120383758,0.3488383028,-0.7402841113,0.3518194199,-0.7327325436,0.3706128765,0.2761636507,-0.3969841211,0.7196646399,-0.1715523398,-0.157114322,-0.8152459593,-0.3548473239,-0.8067820003,0.6784816831,0.3077766049,0.173122375,-0.8952635297,0.154390407,-0.9098613918,-0.0974862268,-0.8659935455,0.8632043059,0.0906741232,-0.574447101,0.4447019896,0.2722664849,-0.0788464096,0.7906528776,-0.7124533843,0.6740606527,0.995083499,0.5456114204,-0.6130569511,-0.8500029669,0.424535333,-0.5391912882,0.678358539,-0.0506181544,-0.7895855384,-0.4297719342,-0.7227264328,0.0980050534,-0.6634694591,0.8911950096,-0.2180406501,0.1463035517,0.6697913545,-0.1331084922,-0.6429136033,0.9443557727,0.4764020207,-0.0721983001,-0.1217423932,-0.4888477074,0.3299766076,-0.2462043892,0.3354750709,-0.3562592636,-0.7828927766,-0.7710636369,0.7748723135,0.1906401303,-0.9439197744,-0.4763216365,-0.6686327956,0.2135004591,0.6514175231,0.1119420244,-0.6373741991,-0.7705298527,-0.0321656578,0.8165338307,0.0985438604,-0.8710313659,-0.3328550072,-0.6055152315,-0.0761198539,-0.8949552207,0.9066226889,-0.0783566701,0.8739348007,0.9801005657,0.0752803657,0.2171913867,0.5351462475,0.7016854604,0.0400385446,-0.8651965118,0.7952631465,-0.9382186443,0.2963265876,0.7720164468,-0.2671495873,0.1953617313,-0.2864294556,0.8824783795,0.715914139,0.5989726443,-0.3273500321,-0.1876768109,0.6915571991,0.9216746977,0.9825566133,-0.575256499,0.6545259555,-0.8618983896,0.1929572182,-0.8237778359,0.554978135,0.917676065,-0.6135639036,0.2245113432,0.2807421059,0.9449846339,0.1068968519,0.032541185,0.3412500408,0.5591013515,-0.6478630287,0.8716574833,0.3210180614,0.0065696698,0.9776811959,0.8672780839,0.3235101138,0.7258711074,0.8506592024,0.4597893589,0.4976696811,0.9343505668,-0.1392810943,0.0852815806,-0.1657891195,0.2126672787,-0.8854575875,0.8937715791,-0.2034113924,-0.6983272239,0.6467415326,-0.9509826935,0.1777233647,-0.8668017754,-0.7298248262,-0.551849029,-0.3819975053,-0.9042691411,-0.782363913,-0.388755505,-0.8261759305,0.949478671,0.2371883405,-0.4622581674,-0.5720142941,-0.024812555,-0.8637590477,-0.9403504104,0.34690713,0.2402564955,0.2856992108,0.8842647247,0.9701058775,-0.8690914895,0.7775025938,0.77040844,-0.3338232258,-0.0032347714,0.688953556,0.7481456735,-0.4936827582,0.654803777,-0.6237259458,-0.9494564047,-0.7353187279,-0.0137977433,0.5906844095,-0.1007812772,0.3648507311,-0.8875700542,0.7420540178,0.6652148144,0.7462020786,-0.0946856361,-0.6243798433,-0.9729912886,-0.0914417659,0.8584053166,-0.2563549858,-0.6452468511,-0.9319791361,0.7828476152,-0.1238047095,-0.0696679577,-0.8411565596,-0.7468644862,0.2338824699,0.267327665,-0.6035818457,0.2176830551,-0.059731018,0.0773264338,-0.5073149476,0.2767184684,-0.5392655806,0.1802374753,0.5434873302,-0.8900384541,1.0163815524,0.3588129157,0.1852454876,-0.9069400054,0.4219557456,-0.9292463498,0.8842824263,0.5389118069,-0.9010693721,-0.7565195822,0.2871835815,0.6555829029,0.0140264532,-0.7691576293,-0.3671753178,-0.4442832235,0.2280254285,0.9504391074,-0.8759664966,-0.4023787064,-0.8779970634,0.3508523253,-0.9473140961,0.4615467115,0.1851635471,-0.1207156444,0.2235319215,0.1239224708,0.503565107,-0.900543696,0.4589409531,0.573564457,0.1561931527,0.1049143717,0.7151688558,0.8321254163,1.0035445464,0.5746237222,-0.3713265768,0.0376379798,0.8601911849,0.9702664886,-0.5604271928,0.7288815443,-0.2769639461,0.4482077534,-0.4682740076,-0.8929322495,0.5435558866,-0.0412168106,0.7766243016,0.2334307908,0.428703019,-0.5312782538,-0.3799502402,0.8588263564,-0.7351662583,0.2014858308,-0.8045810653,0.7634114593,-0.804027094,-0.8678990546,0.7181759951,0.8761939303,0.620289396,-0.1534149938,0.5618841465,-0.7330841057,0.0743403629,0.2971398723,-0.4272948023,-0.0392919629,0.5145156841,0.3881904764,-0.646217148,0.235912924,-0.793433228,0.3746926803,0.7219815729,-0.1515187793,0.2940313275,0.5383001895,0.8696091247,0.2901316255,0.6469586695,-0.112778743,-0.4832683255,-0.8918053282,0.3635208827,-0.7386714547,0.5760434776,0.2764253436,-0.1448250253,0.1198450744,0.3487071498,0.274765632,0.4753592769,-0.699781986,0.6231389496,-0.1720775995,-0.5599381403,0.8398068103,0.7271266441,0.0583520576,0.3937268039,0.3248444315,0.1953328791,-0.6207613203,-0.5533654919,0.3969278631,0.7739630121,-0.8971099097,0.9584816629,-0.1929806257,0.1002332061,-0.4374381972,-0.004156079,-0.5376181437,-0.0084766206,-0.346783592,-0.2680366769,0.9479332344,-0.7663767866,0.2301792003,-0.6382930509,0.8073903174,0.7717577726,0.736124094,-0.7037517542,0.1778517916,-0.1093301545,0.8535880466,-0.1282007802,-0.4890696781,-0.10903853,0.262814833,-0.2290608329,0.601273963,-0.7151626332,-0.6460148053,0.3000127851,0.6957590177,0.8304821468,-0.9090281869,-0.2077166521,0.3223525781,-0.8587825161,0.9461380019,0.2604324668,-0.2384411305,-0.2854249678,0.2679445047,-0.8307637347,-0.4627382524,0.1646858548,0.9387793698,0.7550717949,0.7284312093,-0.9138238551,-0.5426167282,1.0182537605,0.1369623181,-0.7020059154,0.593956152,-0.7373963277,-0.8650191582,0.2118673089,0.2785629717,0.8197146098,-0.1690268888,-0.1548178827,-0.2920105157,0.3870325663,-0.5782662058,-0.1069648116,0.2547051314,-0.176891294,0.9722409355,0.8903415547,-0.8255320525,-0.3318640053,0.0971416268,-0.5629131524,-0.3421353911,-0.6867345946,-0.0477208617,-0.8957708323,0.1952488433,0.9677909335,0.7129119569,-0.0162278271,-0.7763733334,0.9261817448,0.8087473721,-0.733487486,0.5753029652,-0.1075794643,-0.1230832757,-0.5771410636,-1.0462864706,-0.1416999586,-0.0752411589,0.0527700405,-0.2296177538,-0.848691085,0.4542972639,-0.7006977306,-0.6146361292,-0.420759373,0.6835283933,-0.864534659,0.9133957774,0.3485185475,0.4619434578,-0.3221229562,-0.328833061,-0.7210432791,0.2697156618,-0.093050837,-0.9835114065,0.2020585458,-0.4649399616,-0.2221718532,0.7500764902,0.5071471555,-0.1916384079,-0.3883992991,-0.2536471541,0.7639091836,0.8056615006,0.8153449176,-0.5356732011,0.0057031618,-0.9182672881,-0.003741451,0.962136358,-0.2469430161,-0.9082260604,0.4718017317,0.8592617042,0.8751284775,0.7868012274,-0.5834031511,0.7217765035,0.9783971504,-0.4822288922,0.5247246131,-0.2188291117,-0.404501984,-0.2189290444,0.3232443217,0.491873098,0.7008662473,0.2836504235,0.7058342786,-0.3179482347,-0.09469699,-0.980579804,-0.0653681013,0.7458610157,-0.2868182909,0.6637720756,0.7685551726,-0.3943770638,0.8946428525,0.2408435401,-0.4048129016,-0.6032452203,-0.9329186555,0.9710864918,-0.7024300849,-0.1836288527,-0.1640381408,0.6702820634,-0.413702848,-0.9260153367,0.5564578551,0.8229543785,-0.6220124997,-0.7785622273,-0.2456412921,-0.0163743487,-0.901566682,-0.6496706248,-0.513449342,0.14206447,-0.8557674038,0.8473861119,-0.5293498089,0.5213887434,0.8536400315,-0.4926234476,-0.9618987234,0.5678561894,0.3902962629,-0.8496687132,0.5793181724,-0.7796157869,-0.442981718,-0.8488261996,0.692658728,-0.1310660381,-0.9462023809,-0.9055548877,-0.609196949,0.1642937296,-0.8161971341,0.6859040924,0.4489008869,0.8966036658,0.7018871332,-0.0111328999,0.4413476779,0.2102685166,0.7500567246,-0.2495859897,-0.2100672861,0.9857670374,0.6082219842,0.3204748912,0.257453613,0.0087400941,0.5093002149,-0.0451848188,0.9067622745,0.3357511439,0.0018807255,-0.3817464329,0.4262331396,0.2804285622,0.8389336731,-0.2992305107,-0.0865355041,0.4686004655,-0.2138069921,-0.7693730425,-0.0813934525,-0.350962989,0.674481558,-0.5613672647,-0.1458053549,0.742356286,0.1520779034,0.983275345,0.898476991,0.1350902129,-0.0186463618,0.0976587813,-0.48270488,0.6598802017,0.8298433769,0.6817814108,-0.2132221237,0.3079196437,0.4354007687,-0.7594463123,0.9470606136,0.0078146178,-0.4116722018,0.0407313123,-0.8847800562,-0.0207303324,-0.1917698581,-0.2703672316,-0.4508085543,-0.4482284626,-0.2252726157,0.2826307804,-0.9314477282,0.308425825,0.2683249939,0.806268927,0.8272757061,-0.3897612948,-0.6142476662,-0.8556608995,0.1771692715,-0.5185996357,-0.5266237933,0.1093413488,-0.3129894562,0.9495440422,-0.5221469468,0.6956628704,0.1982848152,0.3735403928,0.4088194354,0.7543663671,-0.3667264946,-0.3003863066,-0.7865946482,0.9571929968,-0.0049501816,0.6276027318,0.0065853584,-0.884606746,0.0682535308,-0.6837167421,0.5365946907,-0.0950961102,-0.6363133809,-0.3062421806,-0.3447005425,0.836045004,0.878840091,-0.3917099909,-0.8599532912,-0.4554571204,0.9699253755,-0.4334318969,-0.3930101259,0.8448594186,0.8673681901,0.1780478221,-0.5502619337,-0.898610444,-0.2457481853,-0.5596060271,-0.6095812862,0.2096308694,-0.1017977593,0.3931805818,0.4193671077,0.8133875627,-0.6728362533,-0.6486155388,-0.4542275005,0.7590303581,-0.1948299879,-0.7784279702,-0.8168447512,-0.9532006212,0.5124593128,0.4758079047,0.0195734114,0.0059410888,0.9401102827,0.0504124244,0.3244873688,0.8780545424,-0.7500245666,0.2246285271,0.7204042126,-0.4599682131,-0.4335563846,-0.0332666088,-0.599978314,-0.5713978662,-0.6997491353,-0.5621154331,-1.0204630773,0.4885184064,-0.0306152728,-0.8390676157,0.2151530239,-0.6946400127,0.5245322977,-0.3814613563,-0.9483669362,-0.5265149454,-0.7507008148,-0.1120386775,-0.7426408959,0.5624702771,0.7954849427,0.2768288844,-0.2658987605,-0.9569667037,0.4952815733,-0.0858976976,0.1512288977,0.8561218393,0.6876159444,0.3417110858,0.0953333463,0.2946251693,-0.1491236193,0.9095567492,0.9824778394,-0.1836079395,0.1006977965,-0.3530979203,-0.5712675808,-0.5252972657,0.1153373346,0.5929353264,0.4534862071,0.3293491595,0.8578128525,0.8989493761,0.1364451063,-0.8280092031,-0.3227179533,-0.7078678076,0.3255556141,0.1123746337,0.0399973453,-0.3156211529,-0.8444480464,-0.5255030741,-0.5575342034,0.4193698372,0.5139117959,-0.4320804256,0.9547725943,0.4599617542,-0.8245854039,0.4299054725,0.9031808135,0.5781286938,0.5899000946,0.8670668609,0.4320688684,-0.4233633789,-0.3684797563,-0.3818985787,-0.6635898214,-0.3694953267,0.6289693002,-0.2796276367,-0.5551392928,0.3251437722,0.7940355006,-0.6426954171,0.1573775364,-0.5994632658,-0.4390975296,0.7141043087,-0.5551805544,0.4676102551,-0.8696112231,0.5614388525,0.2731336666,-0.0409116784,-0.556443969,0.5306108211,0.5673713799,0.6495293764,0.0577062682,0.3066491165,0.3644798252,-0.0663693023,-0.6991779991,-0.5390950995,-0.2380929943,0.2254505949,0.6741981638,0.2662272944,-0.9636549376,-0.3075366569,-0.5381323443,0.2474273777,-0.7636474105,0.2034642111,0.3509345647,0.5454225743,-0.8705332706,-0.0670083266,-0.409496984,0.9635521966,-0.4235866241,0.7509296026,0.1458356269,0.1436123388,0.5522823526,-0.8880212267,0.9981669627,0.1980445767,-0.4813009677,-0.2937701226,0.0140969346,-0.42805575,-0.6966091162,-0.7493785636,0.3514296343,-0.7679706639,-0.4931440238,0.0881594946,-0.3002225733,-0.9125595028,-0.3695576267,-0.4015306011,-0.1144123436,-0.2124059327,-0.7741871542,0.1914934072,-0.034382744,0.4608067987,0.236694818,-0.4440418724,-0.1646607882,0.6508264844,0.8504211373,0.0593883639,0.104150195,0.8741752659,0.5872769524,0.8434734589,-0.8012029454,0.9427421066,-0.2659140446,-0.2914132126,-0.2902923191,-0.488640651,0.0851771087,-0.7287335253,0.7869917824,-0.007881753,-0.7533044924,0.9055589519,-0.533891442,0.2456494584,0.6227387751,-0.5670148226,0.6271832912,0.0661720079,0.0868011385,0.3385734222,0.248261458,-0.6057398309,0.2141677676,-0.800952045,-0.2821461601,-0.4662156912,0.5961715682,-0.104051786,0.1933744715,0.7114709493,-0.3149087572,-0.1197552371,-0.0151781378,0.4657299794,-0.4314870393,0.2655484805,-0.0118989754,-0.5566567496,-0.5045432814,-0.2174813377,-0.3681454259,0.2877337078,0.1676393619,0.058663717,-0.6636810905,0.4429424945,0.4553471042,-0.2041641734,0.2778565467,-0.0277863203,0.2364832977,-0.1407268004,0.3271958344,-0.7624689075,0.1906887892,-0.5630186003,-0.512111177,0.8726383946,-0.6656357131,-0.8343578454,0.1613077778,0.510459863,0.5034929646,0.7163127206,0.8529352074,1.0036090099,0.2555033021,0.5105830714,0.5267750543,0.8328973531,-0.6197754805,-0.2408214579,-0.5542202613,-0.4580442605,-0.8485341278,-0.004953194,-0.9637102346,-0.7834044252,0.3517734751,0.7383528225,-0.3262011875,0.0056926352,0.6382701661,0.0625911094,0.8376939318,-0.5039367577,0.1175734688,0.266050417,0.0748279021,0.8021368245,0.1105299162,0.88598775,0.0617328653,-0.1013079251,-0.7270212185,0.3549511969,0.4785932178,-0.8323082805,-0.9823433803,0.095191784,-0.6776886821,-0.8824052431,-0.2646925441,0.1381665623,-0.3261205513,-0.1844019597,-0.9672250417,0.9841598604,-0.8538846677,-0.8645210248,-0.8918290183,-0.0029652095,-0.6386906755,-0.0091692773,0.0825085224,-1.0323275334,0.7896135327,-0.0615309189,-0.2261398731,-0.8346102024,0.5325591697,-0.5089261258,0.8838669305,0.8903565247,-0.7521187673,-0.0460774956,-0.0337820492,-0.7972310816,0.7699299381,0.3245182158,0.2081046503,-0.6815887568,-0.1077553508,0.1523294871,-0.0906196206,0.2183742419,0.1829423415,-0.1111004756,0.8355042387,-0.5154331748,-0.0797953025,-0.0428956191,0.3202316036,-0.3066359298,0.5244916959,-0.3228308381,0.080421976,0.6670044682,-0.4393762857,0.1438125807,0.7554255014,0.910796359,0.8012652937,-0.5184975517,0.4302120678,-0.3092296512,-0.3809966122,-0.9887193322,-0.5478236465,-0.8587584343,0.3177173136,-0.5543371068,-0.0274401765,-0.8133528064,0.7816169944,0.6981321487,0.7192444284,-0.0856571233,0.1503785509,0.5452009189,0.3032269136,0.2834731182,-0.0060614358,0.5320367984,0.2426241461,0.7187096717,0.5194825892,-0.9911048315,-0.2961716743,0.5415704182,-0.231606403,0.056533075,-0.8083587216,0.5521678174,0.1900972878,0.0623802443,-0.8365162457,-0.3383446588,-0.8484386264,0.3359771568,-0.670674349,0.2676807172,-0.1166328317,0.0115494571,0.8152201287,0.2951991295,0.9917790049,-0.184795268,-0.4128040761,-0.3649610164,-0.0153270082,-0.2960086923,-0.5659587263,0.8711574956,0.4643289022,-1.0317455258,0.4488168611,-0.4700531677,0.6277127601,0.086949029,-0.5919724726,-0.0077311329,-0.5019775241,0.3178983702,0.138825053,-0.3412001096,0.0975712518,0.6320367137,0.0852465615,0.5108746814,0.6454151597,0.8236885787,-0.1623682738,-0.650676497,-0.5358848595,-0.5406242394,-0.9747209238,-0.5650187851,-0.351733599,0.8837939399,-0.2175675642,0.0212333196,-0.3535141414,0.6439584341,-0.9501976742,0.5414664318,0.9130555944,-0.1304060417,0.1284612549,-0.6375355606,0.1626597033,-0.2579408768,0.9831864193,-0.1742041126,0.9753552917,-0.1617604034,-0.8968617391,-0.7941364535,0.3667234521,0.0393908034,0.3984412046,-0.0396654502,0.1196412225,0.8991442178,0.6528846257,-0.8717393833,-0.1948162799,0.6452142315,0.5310776243,-0.7729294364,-0.6973570464,-0.8554482423,0.8552909915,-0.5771568457,-0.6827155702,-0.2193488634,-0.6140430113,-0.8523484134,0.9696685142,0.4758268252,0.0995286073,-0.6598208943,-0.9362132855,-0.4677968484,-0.7843837186,-0.2364200585,0.6504097168,0.0183625479,0.6752387489,-0.5453531851,-0.7694627965,-0.199861588,-0.5874497805,0.9580448562,-0.5474826522,-0.869498856,-0.8373429144,-0.0663181301,-0.0561380638,-0.3904604849,-0.9322290821,-0.8243973955,-0.0310370187,0.1594155512,-0.5396169286,0.2385030535,0.2729411782,-0.5738237411,-0.2777324926,0.9539870417,0.0342764829,0.6236005027,-0.2856246274,0.5260374918,-0.7895460562,0.8752100671,-0.8493231869,0.3753391039,0.11515395,0.7854897807,-0.0891697865,-0.778477503,-0.9830511022,0.4889617693,-0.5891826599,0.3346374036,0.1407145145,0.3459696215,0.7214166304,-0.5967750573,0.9406555872,-0.4881452117,0.0402879933,0.191752748,0.711170582,-0.472862619,0.2271832989,0.3001919872,0.6723470432,0.8785500872,-0.3389683742,-0.6025316459,-0.8121787805,-0.7424119575,0.6153066731,-0.4717286115,0.0981636753,-0.3958704703,-0.0355609033,0.4271409908,-0.8756205041,0.747398946,0.2013514315,-0.8266856805,-0.2291890354,-0.5808311443,1.0026857827,-0.3831176206,-0.1832870506,-0.8672579912,0.0766686825,0.6902256144,-0.0895858205,-0.400507409,0.1475992331,0.5818178358,-0.880482845,-0.56356648,0.6417009857,0.1933132449,0.7142227035,-0.2548143928,0.5687016214,0.8958382536,0.2148363128,-0.9757996,-0.4416850278,-0.489906944,-0.4256644958,-0.5838510345,-0.2036742109,0.6758983996,0.1968875919,0.9010346373,0.123687702,-0.7945410171,0.7949826255,0.8989446706,-0.646087639,-0.4981285799,0.1885878883,0.0307435132,-0.1956955011,-0.8926816125,-0.5146950549,-0.0709796829,-0.7651119815,0.356788194,0.2836697091,0.3975906532,-0.6098456724,-0.3002047356,0.3547434572,-0.6568354704,-0.1425069313,-0.8806946208,-0.2442196171,-0.1295768829,0.373577101,0.0197663617,-0.0532937304,0.4797761678,0.183350474,0.1903093451,0.884917991,0.8276602857,0.7607024609,0.9822135815,-0.0996348428,0.2707249062,0.0263356754,-0.1361047623,0.5494487511,-0.43824754,0.0341861187,-0.6235310878,-0.9489343322,-0.270485671,0.9148312145,-0.742172909,0.9359976619,0.8985443781,-0.7371117616,-0.0506647468,0.324199065,-0.4504456796,-0.0183636803,-0.4465216485,-0.5558383058,0.4662057251,0.0550629064,-0.9163764458,-0.9738260163,-0.975198105,-0.7812114827,0.7196532499,-0.5709576587,-0.6092995653,-0.5150295753,0.2305490958,0.6733771292,0.7470862336,0.9366009122,0.5227773716,0.9657230692,-0.7149996642,-0.8548047426,-0.6207032835,-0.8455382485,-0.4892366138,0.8954176193,0.3683693694,0.0667957672,0.0662890814,0.6941791129,0.7071904721,0.7830000781,0.3004483872,0.7043358821,-0.8003003316,-0.7890918782,-0.2379971951,0.5666175256,-0.2250412241,0.6198275886,0.7040096405,0.097509138,-0.0586138552,-0.4826589581,-0.0958886922,-0.3647106333,0.0571386343,0.3278092474,-0.9038675409,0.7653401265,0.7433431333,0.5369713532,0.0759196555,0.7686404114,0.2927182015,0.8827051521,0.849569447,-0.7610304259,0.7475192014,0.3039913629,0.1779375881,0.9114355762,-0.2981417467,0.2261001024,0.362184556,-0.0461045126,-0.7516405282,0.5288578286,0.0622452338,-0.6702483393,-0.6202449202,0.9695433168,0.6386914684,0.6131689811,-0.3986318672,0.3660017684,0.5559499122,-0.0751072048,-0.0854970226,0.767651527,0.3710384881,-0.7563428233,0.5578643897,0.8815844115,-0.3902187804,0.1397480104,-0.4073276234,0.6543710286,0.1818059522,0.0962338286,-0.1363296842,-0.1484922711,0.1565658679,0.2285165859,-0.3846939207,0.9309214801,-0.1258729344,0.9341047042,0.3413725912,0.3784791447,-0.1743453623,-0.6270159033,-0.9641636394,-0.4420332063,0.7342631494,-0.6255936512,0.8980184915,0.7685789631,0.9407459135,0.9824434828,0.176176752,0.4585618326,-0.9762626242,-0.7551303693,0.3182413652,-0.8853169426,0.868624937,0.6168544585,-0.5668848569,-0.3715401957,-0.1907377597,0.181705474,-0.986175812,0.98815022,0.6589338529,-0.7379438952,-0.1700059843,-0.3347868773,0.3796877836,0.3335745872,0.9341698922,0.8359140054,0.6629328122,0.6186492889,0.0850041558,-0.6876348481,-0.3925310456,-0.86476297,0.9651174855,-0.1387107107,-0.5026685875,0.1876782401,0.3151039553,0.7806159073,-0.7601176001,0.5080227212,0.1295002804,-0.5029833988,0.8308103804,0.8914532904,-0.7722928027,-0.3104729383,-0.1104326146,-0.8900562447,-0.1110763211,0.0646130563,0.4866100162,-0.0514901872,-0.3768228929,-0.0892475779,0.3547558031,-0.924647926,0.2446572829,-0.6005546101,1.0119939792,-0.429320239,-0.4104844814,-0.9486399948,-0.6794976459,0.1651795611,-0.6523454464,-0.9099566838,0.6188481676,-0.0054295792,-0.9149285192,-0.2894692679,0.4542123609,0.0547811338,0.0955336032,0.1558870548,-0.378500983,-0.1740446636,-0.1258761538,0.2759377712,0.7308053138,0.5098840611,0.8053084368,0.4252735116,0.0912396518,-0.914651442,-0.913558581,0.5869624373,0.6694863984,-0.4297451511,0.480831821,0.6816432599,0.8338920139,-0.8174000572,-0.8562940624,0.1911140748,0.558575285,0.9224982401,-0.8843631145,0.9263185489,-0.7089261834,0.3403446158,-0.1688992204,-0.8804629023,-0.9862884646,0.671609666,0.8714282498,-0.2294762725,0.8662819847,0.9274669505,-0.5879154965,-0.6976936246,0.8987214965,-0.426905858,-0.8360173906,-0.1551160022,-0.0705568139,0.2879807067,0.750768838,0.0304526549,0.8847720521,-0.0642884519,0.6917633945,0.4218330232,-0.5353472911,0.0050160783,0.0855750876,-0.1093590603,-0.5390632704,-0.7209755318,0.8093988707,-0.8649461522,1.0537887824,0.9662137664,-0.9797008234,0.4057809366,-0.7520622858,0.1387397147,0.5162073535,-0.6167809053,-0.788346885,0.8562400981,0.6378399877,-0.6518950266,0.3978008599,-0.5556808996,-0.7913533347,-0.5671509941,0.7713557269,0.4854370452,0.6004965018,-0.1094224037,-0.4505701368,0.5387500033,-0.2082023784,0.4312069917,0.2073813137,0.8008264084,-0.5641768457,0.4134388354,-0.438040614,-0.7980592833,0.4602831722,-0.0635110647,0.7913395643,0.4942143901,0.0166826713,-0.6295785235,0.9867131424,-0.2356252722,-0.2379119971,0.8194163445,-0.8266334162,-0.9130554735,-0.5087461316,-0.3451520055,-0.2051513345,-0.7290769512,-0.1829319544,-0.456046795,-0.2672604543,-0.249057325,0.8318537245,0.6423995242,0.4468340922,-0.6931537266,0.2546744729,0.078641053,-0.5865772464,0.944044146,-0.3670191327,-0.3892814747,0.5083234599,0.9861391835,-0.7662183138,0.8391813617,0.1174434323,-0.7293273558,-0.2487751469,-0.53773578,-0.4684278749,0.6482221074,0.8524983462,-0.6168846317,0.9648213624,-0.7370352215,0.8251845358,-0.3580595867,-0.0692214244,-0.6093737929,0.3205369254,-0.9713061159,0.1250532554,-0.2428681804,0.0669761597,0.3732196015,-0.9807537545,0.2059901554,0.4853301022,0.71677926,0.2967655976,0.1992073837,0.3508305348,-0.6938208894,-0.7509292815,-0.4493122021,0.2793756647,0.8074752273,-0.2661889956,-0.5323203044,-0.6480633613,0.2828741166,-0.0236450134,0.2348065536,0.2508597547,-0.9354650748,-0.4321374711,-0.8432648515,0.4457970066,-0.6825553708,0.0271174864,-0.2589792907,0.0744865138,-0.4758862427,-0.6052869454,0.5606350469,-0.8392259661,0.2275095192,0.9530009787,-0.8470249511,-0.4542307967,-0.6889616498,0.2454047823,0.1862312973,-0.0357801439,0.7679261862,-0.7509928751,-0.3276473417,0.0120919843,0.2274547489,-0.7328952115,-0.9362561182,-0.1962081592,0.5896041592,0.2962479125,-0.0954666478,-0.5895275506,0.5142034253,-0.3137808175,0.8126207021,-0.2177373864,-0.8588945425,-0.7802840652,-0.7455572682,-0.240975254,-0.5015343344,0.144289292,-0.5004331408,0.4164203388,-0.9973858747,1.0082391234,-0.1621499255,-0.431565289,-0.8595677135,-0.4373860591,-0.9816579063,-0.4435282888,0.6410144887,-0.642549172,-0.7537067575,-0.115239437,-0.9288308766,-0.6554471981,-0.5681333566,0.369602333,0.8887738231,-0.5526196568,-0.3919637503,-0.3493791694,0.8649673892,0.7159519913,-0.7604781984,-0.0230988339,-0.6146775491,-0.2618804717,0.693887186,-0.6009172453,-0.4747853287,-0.463277555,0.6003284161,0.022910766,0.1678319242,-0.228730377,0.7459916599,-0.776880354,-0.7951524197,0.5721433531,0.9365852372,-0.9008655161,0.7465926248,-0.26610482,-0.4808123915,-0.8673368379,-0.6943743673,-0.6547262237,0.4413105264,0.1562712795,0.8887207145,-0.9456430844,-0.9014667982,0.1305372254,0.1930405541,0.7094890568,-0.1738085366,0.2328305832,0.3261190252,-0.4286739031,-0.9267289849,0.8768636439,0.7073716473,0.8802274594,-0.1633419133,-0.651433184,0.4330588781,0.0338524922,-0.4383209559,-0.1964078346,-0.9294541404,-0.0151848547,0.456805376,-0.4243257149,0.2750278461,0.258420149,0.4078005388,0.8129554821,-0.2085847524,-0.0819429731,0.249562299,0.153116865,0.8926085807,0.7073169801,0.3011466725,-0.4164503638,-0.8081271465,-0.1633497241,0.0275429475,0.4316534883,-0.9079800053,0.8246637976,-0.5940542161,0.5125740241,-0.6040203907,0.5602196135,0.3252192731,0.9014727556,0.8672253772,-0.8491624503,-0.1585115201,0.2691943408,-0.4129798299,-0.7300382371,-0.0716914336,-0.6678274978,0.5151449261,0.416117133,-0.5006016107,0.2319299016,0.8236617473,0.5845730061,0.7361810778,0.5569438423,0.1787118239,0.1254424281,-0.6435775707,-0.4909605973,-0.7318530695,-0.0905709172,0.2692435264,-0.8722902311,-0.802469643,0.0778904889,-0.3086093994,-0.1610469021,0.3843494872,0.846778911,0.6734902169,-0.1763463706,0.7746662606,-0.8664866422,0.2254828185,-0.3600525257,0.0429778689,-0.0694187818,-0.6839416025,-0.0564981795,-0.4393631148,-0.7757349035,-0.0556954554,-0.1003477782,-0.900546143,-0.2407088468,0.7943220032,-0.0634727344,0.6942646466,-0.485764841,0.6702823322,0.1851968971,0.6624208563,0.01112228,0.1164151684,-0.0197776654,0.0205920324,-0.7013821948,-0.57153726,0.1637814573,-0.9156030739,0.1055796796,0.5104201193,-0.8119397201,-0.3335836513,-0.5500943855,-0.8134520996,0.0666635908,0.28418406,0.5302975134,0.1021663053,-0.181471714,-0.7254059897,0.1851160046,-0.1927253521,-0.1817621958,0.8714268292,0.4701576609,-0.3619303499,0.7025516575,0.7169280975,0.960163685,0.4968664381,-0.1515802673
