encog,BasicNetwork,java,3.4.0,1,63716884050361
[BASIC]
[BASIC:PARAMS]
[BASIC:NETWORK]
beginTraining=0
connectionLimit=0
contextTargetOffset=0,0,0,0,0
contextTargetSize=0,0,0,0,0
endTraining=4
hasContext=f
inputCount=57
layerCounts=2,117,117,117,58
layerFeedCounts=1,116,116,116,57
layerContextCount=0,0,0,0,0
layerIndex=0,2,119,236,353
output=0.986961268573963,1,0.997278355492338,0.00555547697235105,0.0488155339494166,0.412729428164382,0.176964013031819,0.932482997257796,0.840994555961438,0.999485563294454,0.807789035282057,0.00902845701522901,0.0165208235756115,0.978916528097558,0.0952341080156547,0.00857630630918237,0.285938427915594,0.648282249353065,0.239183464987301,0.426716395272671,0.993430399040345,0.603992569517569,0.924661183727412,0.541900756403435,0.338424781234494,0.496027067767604,0.0063268990752973,0.745654282836854,0.0124348841561188,0.703117746229402,0.972618174244085,0.0394881182963829,0.993414844034413,0.0575146664964893,0.94744732556903,0.00708903266838287,0.998842371974125,0.00659206819054405,0.519874235428608,0.249184198952021,0.375383500019508,0.125729831260184,0.120008453745257,0.226855080497427,0.999968619356535,0.18144953591598,0.0278189312143038,0.729831772433064,0.00285251331767861,0.805980777559143,0.781744959976079,0.444682444671257,0.99992972428477,0.0422397071789611,0.299806731692977,0.517331706111789,0.0300845912821736,0.796920240897265,0.136961385280036,0.37812624185817,0.891665601456232,0.767590219361223,0.999017029689115,0.874568864059175,0.637758339854323,0.666275594913176,0.0274747571329195,0.640396627934027,0.0265298406890414,0.659190770775167,0.000172027609523429,0.326912028505889,0.977045115961093,0.0254684748991837,0.0191031777980495,0.827160199417841,0.996673135802316,0.761210211032882,0.0937761175032352,0.471135065545223,0.0576902745890505,0.923560957120622,0.979504067088523,0.229853431790306,0.385828385809065,0.0243187792582717,0.859223753840301,0.992302772146944,0.000361215088928846,0.510772866116447,0.728954380886999,0.0506766306024451,0.965459286723422,0.00174402668763958,0.273442727103422,0.972041613323806,0.967440593345561,0.531172439729466,0.812730523507868,0.0241448936713077,0.784849151187859,0.196431468035302,0.216492178178909,0.194772056121078,0.999412097125178,0.966827375742767,0.968611754542813,0.00231392707272442,0.609256019326197,0.812417727351479,0.997866731939536,0.48773498140171,0.109054313830553,0.34145780519575,0.998088757132646,0.994925473228472,0.0339630213055808,0.527588979522148,1,0.977197621734243,0.314077970810527,0.0461469722597836,0.507578162626082,0.999842704096948,0.00224135587000506,0.832846345101555,0.244174907010762,0.34181220708502,0.421537849059646,0.246263442420402,0.073463778422064,0.304698877464629,0.997202155361059,0.993038315080565,0.00524725008658457,0.999270305001794,0.42868709689868,0.266730241962748,0.416868489660409,0.936038244750521,0.597985303623809,0.0895929580753011,0.702722174525383,0.787016707176967,0.651972907099111,0.00545904586491468,0.0083546520895623,0.0550845535385408,0.485223193604957,0.771746577223328,0.794481413855072,0.831568508853873,0.475390149314643,0.444164042320996,0.00760494874301659,0.361974457651865,0.827569707662895,0.830418416879769,0.465748212269937,0.123563916729045,0.134014576591669,0.713465602130875,0.937137526960553,0.0000619291103822577,0.77864179144963,0.417369900057539,0.998733786624077,0.805860585895955,0.318164381289998,0.00358528647720907,0.00120688465484367,0.998278694650098,0.287061758766936,0.978317696341189,0.935241042009812,0.26279582605205,0.000011123076641504,0.111527983296894,0.696151505778826,0.999919570410762,0.452649641326752,0.000948836338808631,0.898044979854723,0.948512217404068,0.999399041712175,0.930457409006712,0.0769067854429128,0.0488410787151403,0.617309378719655,0.976644533275148,0.57650653376776,0.441286093710398,0.950491819540896,0.999486756498787,0.665045569650875,0.0214775796455136,0.0567768360623049,0.944289859036912,0.909807042369129,0.989401000320469,0.999887537597602,0.00765435835336266,0.000336018017451702,0.406506183684593,0.879938004531573,0.134454397682712,0.333985926001302,0.615500083934197,0.704860269943873,0.673924818678823,0.452314119322767,0.405546174996106,0.989152208776963,0.603439007533256,0.248942562876971,0.0112963897825383,0.628204550558022,0.992707505802993,0.10971519957284,0.325997758549959,0.0047943473080348,0.467915497140567,0.291515106562669,0.654859346254909,0.997438744251542,0.810421060184791,0.964783852930066,0.89016766231321,0.52288924086798,0.997834048442985,0.282890509104957,0.892722736355034,0.17406768954949,0.482662533497297,0.693104287587943,1,0.0643099712232606,0.662756511966605,0.555887132144885,0.88602327992168,0.537765238524091,0.00137774734743355,0.0292272619934608,0.950790512608669,0.00702773715479598,0.00387699900486698,0.629321624845791,0.75427579953369,0.998757266608784,0.432566167624931,0.124412116253325,0.663269849238658,0.621359159695464,0.769978535626018,0.958780079077679,0.00800610561305882,0.591275213693519,0.000158814251523015,0.878343979015147,0.106893278464678,0.077733495410694,0.545089298636793,0.00018172886874786,0.586989912527348,0.953450587617997,0.278917716388021,0.0000361982239837898,0.96307362102312,0.0844326717788659,0.785917442600088,0.12953307169942,0.603554299429983,0.85266721199821,0.653906897676493,0.526284111210399,0.999821076995228,0.429134622191022,0.00227941105023636,0.970337726607727,0.0277980216721667,0.9796745390059,0.703801927285937,0.99536189167768,0.668784490230081,0.999611192166265,0.947358629861508,0.332022050056449,0.00651944862231479,0.0464681795749469,0.305750223252707,0.811732912421454,0.22571225363537,0.975895650178635,0.844578957351982,0.265214487881422,0.923215367566684,0.998127482846895,0.844401377891031,0.00334404132585366,0.492435998812965,0.000379989665098349,0.0435045755358058,0.00343349375778422,0.996944900427101,0.913721955092728,0.354146188703516,0.677151596917008,0.00791989909515598,0.174913421942707,0.999955496549742,0.269466063055571,0.765379578780945,0.062320516860268,0.936795351647756,0.309716136862774,0.999952422647805,0.867543965422798,0.838747590572483,0.695139468787911,0.928424889868971,0.533259082926489,0.958707603959537,0.173070128319941,0.994627799069317,0.680500698478379,0.863307330308956,0.995719116273848,0.350126455301013,0.0159980224574744,0.974200951119077,0.0003682865982753,0.436763273159007,0.73683526504559,0.990433304706871,0.131204972168845,0.967221670501102,0.949987472053768,0.310078704879584,0.0257543896274481,0.00163200306687355,0.256552513004774,0.752481449537576,0.659408750128785,0.105876567462352,0.877041017226971,0.998142783634126,0.236331903157724,0.985097614344962,0.879165276453413,0.3466862748623,0.2209892803663,0.000381305078676173,1,1,1,1,1,1,1,1,1,1,1,1,1,1,1,1,1,1,1,1,1,1,1,1,1,1,1,1,1,1,1,1,1,1,1,1,1,1,1,1,1,1,1,1,1,1,1,1,1,1,1,1,1,1,1,1,1,1,1
outputCount=1
weightIndex=0,117,13689,27261,33989
weights=##0
##double#33989
   0.1114478189,0.1548944078,0.1925407626,1.1448133941,-0.8438599644,0.8052804693,0.7927434136,0.6824515256,1.1004248444,0.6616196916,-0.5990848018,0.4800897215,0.3650217268,-0.4834587428,-1.341307811,-0.6367858388,-0.1197431295,0.0556838789,-0.4206889697,1.2998141118,0.8096743326,1.0452970003,-0.9227761238,-0.7983414453,0.1923407873,0.1063308467,0.3482677176,1.211172192,-0.5189455459,-0.5719678082,0.4001042827,0.2838666286,-0.740476073,-0.0156599501,0.5711549289,1.0006813745,-0.9628219846,-0.2512269018,-0.1229846883,-0.6364416156,-0.8057735875,-0.9623118433,0.0839652187,-1.013264546,0.9454481473,0.6744892038,-0.0705032682,-0.4669992706,0.3882031625,0.3117652263,0.335061318,0.5772504195,-0.902967255,-0.6203543748,-0.9204184364,0.1323770526,-0.3659160691,-0.3156967226,-0.2056711519,0.7316091862,-0.7388573364,-1.0893837206,0.4979637478,0.9239930659,-0.7475585304,0.2132593875,0.1136504089,-0.9632426861,0.0204707121,-1.4232009018,-0.4702053852,-0.9774007456,-0.8456479847,-0.6882233137,0.7635739078,0.6772027678,-0.2599022892,-1.0386392756,-0.5538109907,0.9305072724,0.9347541805,-0.3848007468,-0.6588515756,0.2202016476,0.4403219233,0.7752175606,-0.1424790979,0.9120967036,-0.1641387124,-0.7796628817,0.2408372552,0.3924206007,-0.8550379713,0.4701955879,-1.2156684173,-0.9413438624,-0.3872793171,0.1808187833,1.0547483202,-0.2678737031,-0.7037110091,-0.0138377052,0.6719593172,0.2270522102,-0.3202353829,0.2013884774,0.6922788907,-0.6066723363,-0.1824044476,-0.523307059,-0.4985962509,-0.3893844054,-0.7470341698,0.0571334689,0.9240255229,0.762912452,0.4565297067,-0.6834916294,0.76461635,-0.4783602079,0.0674912526,0.1965570846,-0.5253158259,0.4599947569,0.5458410836,0.7883412382,-0.7228727188,0.936955836,0.0267053006,-0.0059540538,0.9144261481,0.1610499651,0.9376924097,0.2949824052,-0.8864497365,-0.3813099508,0.3474267953,0.9365279766,0.7364821971,0.7134235633,0.4783904731,-0.3173234074,-0.9220325844,0.5271647436,-0.0120444909,0.2836739624,-0.7668895655,0.6372405868,0.6048635681,0.7840571988,-0.6526960107,-0.2449268831,0.6979921164,0.8801962759,-0.4560623522,-0.3005884053,-0.3945437948,0.5591297027,-0.7152362741,0.4849988786,0.4495264344,0.4184784843,0.5935326583,0.5307702204,0.1486405464,0.85709325,-0.0500188895,0.667612545,0.8900888212,-0.3135476892,0.0331291716,0.3448641845,0.6110648625,-0.3884031474,0.0219950211,-0.6176175629,-0.5374308521,0.5383069622,0.1272416656,-0.9489589803,0.6678797733,0.7762416179,0.2713279139,-0.1503213917,-0.9397802194,-0.484916731,-0.9973008026,-0.5819946914,-0.9377178321,-0.3100567776,0.2123604898,0.8309326421,-0.1604961514,-0.7893310875,0.7350975751,0.3678870914,-0.3543297176,-0.4151681406,-0.5127008209,0.5427061027,-0.9601183758,0.6606529652,-0.8510169698,-0.5429306325,-0.9774258981,0.5324802536,0.2116959396,-0.5231995583,0.8438536855,0.3488824664,0.4619589207,-0.7937043083,0.9157603828,-0.0105262918,0.4369881972,0.7244770872,-0.7593909435,-0.2332544371,0.9260915258,0.9586737832,-0.4493278022,0.8364905929,-0.0018494965,0.3819605078,0.0339968459,-0.8328808883,0.2156372387,-0.0884208094,-0.5344003863,-0.6524288649,0.3772125862,0.7057827134,0.9711638649,-0.9727383475,-0.0428277618,0.7899842124,0.8552619947,-0.3896451341,-0.2018338213,0.2354371309,-0.4402262961,0.8557270747,0.026864569,0.8780210034,0.0274196296,-0.9040962375,-0.890647335,0.8842639719,0.1343270974,-0.1270154585,0.0122168777,0.5399309915,-0.822373576,0.2949445103,-0.8878120766,-0.6582769393,-0.662944728,0.1283476505,-0.0014878889,0.1749615115,-0.9982118906,0.3817476646,0.2694505817,-0.80288114,0.4307869943,0.7193556467,-0.4650096854,-0.2822348182,-0.8684124581,0.6201092312,0.7875609497,0.1982688184,-0.1669966239,-0.6432561205,0.3960683247,-0.273811478,0.1351635072,0.22322425,0.4164630792,0.1080693929,0.5476885145,0.9077612047,-0.7746849982,0.3766982155,0.590416983,-0.1079183091,-0.7249824333,-0.5345299661,0.857866362,-0.261950539,0.2355039123,0.2670225797,0.1981808268,-0.9040528866,-0.5258738582,-0.07221378,-0.9139138214,-0.2531266688,-0.7728095413,0.4613265701,-0.5194216517,0.7244588583,0.8788254731,0.0498197767,-0.7673105368,-0.9307749043,-0.7044675234,0.6648329275,0.5123415564,-0.3497876881,0.9114277907,-0.4216813713,-0.6929785443,-0.1025679382,0.1327550065,0.7927380109,0.3547077486,0.8064535426,0.6327188285,0.8446355566,0.3264565403,-0.5911536774,-0.1160667446,0.9835821205,-0.4092981703,-0.5222061204,0.7623169035,-0.0923779243,0.5704453313,0.4819782608,-0.0271063096,0.1343295172,-0.8281408644,-0.7590174989,-0.5954150208,0.2047625082,-0.8224250415,-0.2311951943,0.4312845407,-0.1379567652,-0.3384873707,0.0584620182,0.4417647585,-0.8512792299,-0.961716053,-0.7520006488,-0.6392254577,-0.0046311978,-0.7079225845,-0.6963740766,-0.4037567191,0.3893336918,-0.6444417134,0.7972809627,-0.5696680688,-0.919945626,-0.0374954342,-0.3277145444,-0.3453709592,0.5734568578,-0.6603660859,0.0407838164,0.6304714327,0.8009075137,-0.4155002686,0.5020017191,0.890000952,-0.2604357833,0.6063048581,-0.6680689775,0.8634318113,-0.381562878,0.9264342288,0.2148052781,-0.9099269327,0.8092553377,0.7471225945,-0.6888165723,0.5696723919,-0.0975798841,0.6756949665,-0.0970693694,0.7864847103,0.013904495,0.6109220476,-0.980638823,0.9836347074,0.9304156484,0.7752309553,-0.4016992503,-0.4019784389,-0.7362151511,-0.327216527,0.0721888522,-0.7246727858,0.4100506711,0.2676945274,-0.6755700098,-0.1802478072,0.1376312728,-0.8603175596,-0.0749162437,0.9737213462,0.3483179431,0.4774753277,-0.6835410807,0.8734997826,0.0193941058,-0.4879679447,-0.4660652352,-0.4181054981,0.6067301584,0.717588282,0.8144120783,-0.6884833693,0.9725487411,-0.7887339923,0.9466221037,-0.1500014772,-0.0915952523,-0.2322553764,-0.4477014117,-0.5589082507,-0.8441387526,-0.6763615481,0.611546425,0.2846033894,-0.9608133462,-0.0192032823,-0.5008965459,0.5074957156,-0.2024346758,-0.910954405,-0.4596943522,-0.3823156071,0.9546599795,0.9793179257,0.9751588056,0.3600507591,0.1547846484,-0.7490445884,-0.9609280228,-0.3034255578,0.2748965448,-0.4985632805,0.7604331274,-0.4057187545,0.2202209594,-0.6002557186,-0.3329351887,0.8174654114,0.3602986204,-0.9293384315,-0.9613882025,-0.7512298758,-0.5944937047,0.3586626581,-0.1703587181,0.9150704739,0.3572728795,-0.3812345363,-0.7614960042,-0.9917587556,-0.7245335747,0.6298616058,0.1419110497,-0.1053919682,-0.5150655359,-0.8164061595,0.942006937,-0.9730691845,-0.9377130666,-0.6587269294,-0.0462253795,-0.7504472849,0.8801646014,0.3787227112,0.501944772,0.7607743789,-0.4292224639,0.7797018586,-0.2310656025,-0.1809991183,0.2927609185,0.1422124916,0.8201135954,-1.0417302581,-0.2721105676,-0.65500087,-0.3190971349,0.6586423258,0.4470939286,-0.9273617,-0.5997107575,0.3608827994,0.9005536724,-0.3929996159,1.0318825201,-0.1995661051,0.9998438186,-0.1175829516,-0.3396854086,0.312259818,0.7290999753,-0.7227053096,-0.769459221,-0.0170988221,-0.0217389412,0.509370317,-0.9141544281,-0.2051619415,-0.450925791,0.0087915992,0.9639209632,-0.3231811118,0.1643468692,0.9386873772,-0.4991352276,-0.3125172433,0.5047577151,-0.4981041077,0.5750615591,0.0457173303,0.333639378,0.0562993258,-0.6099419628,-0.1742021712,-0.5420953624,0.7860925224,-0.2008844027,0.8483659524,-0.262791078,0.7614669177,-0.7053269597,0.8404805539,0.5280349628,-0.4827192097,0.494680994,-0.1558021055,0.4829083831,0.0202976002,0.6741686129,0.9233530135,0.4818479284,-0.7647076608,-0.6490205106,0.5480104284,0.1945567658,-0.2523472281,-0.3319701544,0.2793305091,-0.6910637538,-0.8884644951,-0.825508699,-0.2835216627,0.9107131328,0.2268102767,-0.0123024293,0.6039487224,0.7910648612,-0.0130410385,-0.2295136967,-0.1857938553,-0.2456406801,0.0113562626,0.0774664448,-0.26210881,-0.5703382283,-0.0028230499,0.7800015122,-0.1836521679,-0.0020386986,0.4258086301,-0.3161899447,0.1387753877,-0.3532531317,-0.5999321243,0.2654874952,-0.9269870878,0.565336513,-0.6626954204,-0.5644981283,0.6970914808,0.4005853875,0.9075930354,0.1025375754,0.9012268161,0.7485668412,0.5862242917,-1.0134452096,-0.2773245872,-0.5477401345,-0.7872630087,0.1607427338,-0.6677328289,-0.2306582725,-0.4143890525,-0.0935870839,-0.8311972567,-0.9740647926,0.3182998855,0.1997030775,0.8938251347,0.9062889827,-0.7337374036,0.0006852528,-0.2258030296,0.260485971,-0.5482134691,0.0317849563,0.1524155904,0.3943022756,0.6607097121,-0.4896891865,0.4444593948,0.7002606353,-0.0236623687,0.5950579665,0.6509036806,0.6711683182,0.0230977622,-0.5126907103,0.9320322406,0.3911701239,-0.5732856876,-0.815730468,0.7158577481,0.5341644935,0.0236241853,0.6333000506,0.2746723398,-0.9686375345,-0.5288553525,0.2855646623,0.7734004894,-0.0754914571,-0.6394183491,0.1409011751,-0.3898803913,-0.4209889258,0.4361289524,0.8645853912,0.973726828,0.8078371664,0.5805623974,-0.4488513499,-0.7358365548,-0.2967857935,-0.0590436682,0.9076769657,0.2329931227,-0.7889658574,-0.6366114115,0.9488510792,0.3569308574,-0.7533188972,-0.6937272441,-0.5902578066,0.8891790564,-0.8137547889,0.4933406904,0.4806372692,0.4984154075,0.2238940988,0.4215066689,0.7249924213,-0.5434803405,-0.3623974197,0.3909852193,0.0904573738,0.9891878711,0.3445729257,-0.1222522435,-0.7575915708,-0.129218567,-0.6525774131,-0.2728200075,-0.2102824504,-0.5435293737,-0.5589096786,0.2874280616,-0.4094214445,-0.0587454607,-0.3584246748,-0.4967875974,-0.9394417913,-0.0911488626,-0.2533714876,0.6324125032,-0.7105490095,-0.0506005436,0.4040279039,-0.4357791983,-0.5767897834,-0.7476488521,0.648756925,0.3978031992,0.718639821,-0.7779944189,-0.2635170735,0.7449360133,0.171201759,0.1017205508,0.3304523007,-0.9189473033,0.3259955025,0.8088436635,0.6591021056,-0.1473298398,0.2763471196,0.8970833478,-0.1071747496,0.4507579738,-0.5447171752,0.8404456693,-0.5229035234,0.7419836703,0.0477807866,-0.0994918841,-0.7366777923,0.3202940563,-0.2933935931,-0.9898950324,0.1053037304,-0.27933218,-0.2507973538,-0.5181354354,0.2141132803,0.4708858663,-0.1481627392,0.000698851,-0.1393570545,0.1725064984,0.7552537352,0.8915743559,-0.072723997,0.5076261886,-0.3596870531,0.2878574315,0.5152683851,-0.2639569439,0.8478902792,-0.6959732269,0.429151816,-0.6864510371,0.2029588607,-0.0603921016,-0.3113274102,0.3195786026,0.1089425894,-0.4051538738,-0.6144945428,0.5823794584,0.367306665,-0.3157660662,-1.0338540639,0.6946350765,0.5361338816,0.2085835841,-0.8170572749,-0.2842854525,0.877751041,0.8028466338,-0.4611778391,-0.6801892505,0.3096063097,0.9380461708,0.8130983183,-0.7163782318,-0.3479844257,0.2176078008,0.0913069461,-0.0740247592,-0.5904015916,-0.2706023233,-0.5057810416,-0.5190601833,-0.8779173201,0.2542282373,0.010500148,0.3867299707,-0.1000517321,-0.0833082204,0.1149659051,0.8137647662,0.3452223579,0.4411227255,-0.0511330905,-0.2923067191,0.604822626,0.8098564575,-0.9112631641,0.778171308,0.4495605477,-0.3657844488,-0.7617537545,-0.8287413317,0.9341919066,0.1326273728,-0.4887151784,-0.0454378136,0.4520903993,0.6018797135,0.5983244301,-0.1406248008,0.7897013271,0.7520364525,-0.7779746496,0.7000502191,0.0784386301,-0.3245600568,-0.448286237,-0.3723953778,-0.6780838345,-0.5491146691,0.7635862142,-0.7996002798,0.8822190712,0.8008871393,-0.3426516976,0.0773325182,-0.158739641,-1.0006521957,-0.799711482,-0.0186615893,0.8382397279,0.1437585394,-0.7602735647,0.2850074578,0.5017280609,-0.5155652133,-0.5552904763,0.0671944379,0.1230643045,-0.2227673508,-0.7331655424,-0.5399489041,0.9347294298,-0.1855963549,-0.5150058132,0.3814903328,0.2466676664,-0.0122270503,-0.3681835682,0.6338104764,0.851967706,-0.6826107749,-0.6697403842,0.5250615002,-0.2166868043,-0.7240870451,-0.7948701028,0.6554240036,0.8885499363,0.5702735761,0.4641749745,0.0314555993,-0.8867410042,-0.6805342853,-0.8905179115,-0.0983034409,0.4024936075,0.0599537167,-0.8209621253,0.6297445086,-0.159816223,-0.9103710923,-0.7152908416,-0.0289622354,-0.8260294488,0.194092959,-0.506860232,0.464556623,-0.4147072614,-0.6952709246,-0.8177050983,-0.8553959278,0.9576558961,-0.2713971674,-0.2396228606,-0.4094956766,-0.0499488265,0.6496240722,0.4264235896,-0.1499454472,0.281413436,-0.4995509859,-0.6782891205,-0.4973073605,0.9613460574,0.729398774,0.6283560883,0.4412519017,-0.1525805088,0.1873619184,-0.3127601655,0.5094335291,-0.0250443362,1.002365812,0.8797781541,-0.862870489,0.2012194929,-0.1893868071,0.4649755252,0.3624685166,0.3918170016,0.0831907859,0.7809735939,-0.0250083453,-0.2371069396,0.905527229,0.1947444424,0.6989928387,0.5600582099,0.0238003204,0.4897878555,-0.6278568197,-0.0469944618,0.2558588427,0.7220618094,-0.1073958365,0.4716874934,0.2111298526,-0.7384189616,0.3775630576,0.6539181013,-0.5627213327,0.8370779799,-0.2844389846,0.2353362202,0.6454404819,-0.2156498126,0.1680079862,0.4721729875,0.0663112787,0.6430014442,0.2833548546,-0.1847077935,-0.1034528027,0.4506155486,0.9444172225,0.9214416371,-0.491941179,0.1532143972,-0.7092270219,0.4497529065,-0.7617079064,0.5807200633,0.7596332167,0.1041708409,0.8791051237,-0.2390606143,0.6180602345,0.8703519816,-0.3734248248,0.7400765202,0.9497083411,0.398699145,0.274721764,0.086707676,-0.8113749136,-0.7264131138,0.5167330092,-0.286495959,-0.1759544573,-0.1824810989,-0.1714409474,-0.3890176322,0.4163821159,-0.367720718,0.0675352297,0.662175753,-0.1866774952,0.0881631116,0.9484842819,0.3290549768,0.3748283696,-0.5088751834,-0.5528152287,-0.9495503698,0.0759275998,0.8341472952,-0.9489553466,0.8078977328,-0.442673129,-0.7818775539,-0.725441536,-0.2563830216,-0.2202075343,-0.8530520694,0.3962902143,0.7866658168,-0.4789356272,-0.9894781442,-0.1749279252,0.1360064151,0.5347150823,0.2638222284,0.4316993272,-0.8167208424,-0.016102393,0.8588925379,0.4563926626,0.318693687,-0.3371577248,0.0860996974,0.5838689415,-0.5752746707,0.8153260188,0.4462782708,0.4282198575,0.2246661419,0.0313285962,-0.197191377,-0.054558069,0.0570039109,0.2113542273,0.6910871456,-0.3808214478,-0.3542506858,0.836548742,0.5836444673,0.4715204369,-0.5237598641,-0.842141647,1.0010396747,-0.9353412893,0.9667385415,-0.3137989732,1.0034870635,-0.3443085463,0.5963269246,-0.1976942006,-1.0070240647,-0.4799946585,-0.0454373923,0.0121816444,-0.9695310222,0.6071689999,-0.7144861698,0.8276321681,0.0105475368,0.3978892494,-0.9428735178,0.1661051338,-0.0686062381,0.9936127631,-0.833178217,-0.8386721384,-0.3700849241,-0.0338674138,0.4287995776,-0.6606851491,0.3680423094,0.621809864,0.4163214308,0.7815698216,0.7265137778,0.4917421562,0.6902869633,0.7805359767,0.548276916,-0.6593187038,-0.1875007779,0.8639634882,-0.8049919163,-0.9359889284,0.6890716696,-0.4684009905,-0.5836393265,0.6377681214,0.7720780411,-0.1128338471,-0.2926437987,0.7038932272,0.7843835369,0.9794735527,0.333083018,-0.9519888018,-0.8324024556,0.7473931514,0.583474781,0.0639317988,-0.3083169964,-0.3682993439,0.6718964388,-0.0749166506,0.7863904803,0.3331687771,0.0791973822,0.1986542646,-0.7665474248,-0.0033076917,0.6766538969,-0.0193649587,0.6268479763,0.8893062927,0.6049279669,0.4950453661,0.025445147,-0.874738285,0.0059930199,-0.7587435069,-0.4599607473,-0.963624743,0.5328280873,-0.0735537512,0.6595293168,0.0482609576,0.5690415273,-0.5446495994,0.1459883777,-0.6979973759,-0.0723825164,-0.578923672,0.6364017539,0.1596824743,-0.9792559699,-0.7164947094,0.8376857972,1.095030899,-0.8873317148,-0.0006422053,-0.2373543695,0.5575888136,-0.8738833111,-0.579204287,-0.0005000103,-0.2998434631,-0.0470230682,0.0811014637,-0.8748014222,0.5182651355,0.0395352821,-0.5663500213,-0.8446951478,0.6077835497,-0.0081153618,0.8130712497,-0.6864798807,-0.9836557138,-0.4790803345,0.7914975991,-0.8303413553,-0.8080582613,0.5480053206,0.1365221615,-0.5147726267,-1.0502913591,-0.7326390388,0.0628208543,0.6914925937,-0.9220784542,0.1046393614,0.8808224663,0.5656908413,0.5393498573,-0.1900833983,0.0320066798,0.7655402659,-0.5587856478,-0.9596864597,0.1337900945,-0.1769242654,0.7621802776,0.537956078,-0.3295079518,0.5290227831,-0.402430525,0.4678935105,-0.8828846443,0.108158668,0.411019112,-0.6904231948,0.3327168178,0.306295864,0.8374276109,0.8741456358,-0.6641120194,0.5678462563,-0.7291955765,0.6216050236,-0.6656441059,-0.117052828,-0.3202170132,-0.6297858173,-0.1912270279,1.0268132529,-0.8290636378,0.3631934609,-0.8992149935,0.9655550883,0.2845263916,-0.6700003439,0.1666507639,-0.3972462933,-0.8674174527,-0.3560203028,0.2438560718,-0.1334260651,-0.1135157376,0.8170513661,-0.8529130045,-0.9464016302,0.6038581543,0.7809176523,0.6466520292,0.0497912269,0.0721913186,-0.317329619,0.7091902196,0.0686015165,-0.3239338849,0.1529375221,0.1056689476,0.4577318033,-0.6429109812,-0.5286613345,-0.8672812885,0.7380065811,0.9832198661,-0.9289867563,0.0025369524,-0.220214108,-0.7764390759,-0.1806260013,0.5404770656,-0.2008693493,0.1312265634,0.8521235273,-0.0484637138,0.7497349978,0.3484015217,-0.0434381126,-0.9009885262,0.5040480995,-0.1507443755,0.4874190544,0.8224977196,0.7580967347,-0.8084718106,-0.8336616163,0.6747558587,0.5302622522,-0.7606811844,-0.4572488115,0.3359618739,0.1941052232,-0.9414762115,0.3511215946,-0.4443629407,0.7015737612,0.2370455469,-0.3437406118,-0.8776732411,-0.425575339,-0.4256424056,-0.9232494047,0.8428841852,0.0156036268,-0.3229511508,-0.4106381099,0.6616205522,-0.7296773847,0.9018541888,-0.6878031048,-0.6850738334,0.9210638363,0.3154341699,-0.7151067413,0.7614040229,0.4233481436,0.1419808521,0.2736929774,0.2345655174,-0.753250116,-0.4619471688,0.8283138265,-0.5929230445,0.9272269117,-0.1630788152,-0.4045054088,0.0593755321,-0.1717111768,0.6168263634,-0.9530283596,0.1607676861,0.9082720225,-0.8957773375,0.2800499032,0.6668045562,-0.8771247776,-0.2483980213,0.4349265023,0.4299041499,-0.4302431726,-0.6011069961,0.9302430036,-0.8187551389,0.6382493163,-0.7537697722,0.2315964987,-0.6690631303,-0.6838472554,-0.512131795,0.6847871214,0.4272426838,-0.5321825891,-0.14900354,0.8475110172,-0.5812143979,0.7375504963,0.9075566146,0.5435490744,-0.3527366313,0.6844041215,-0.5362179441,0.6404544838,0.7316729788,-0.4847592951,-0.0164824203,-0.3774823428,-0.0353977537,0.2060407235,-0.4404224369,0.8424428202,0.2239005885,-0.5493794345,-0.0141932968,0.3883181659,-0.7732651338,-0.6892305548,0.051948776,-0.5162906082,0.9285634166,-0.9662663514,0.2577219194,-0.5797743816,-0.4566338571,-0.9410944567,0.7218587388,-0.2818441995,-0.272231977,-0.7388925515,-0.3187241721,-0.1019791099,0.5559817776,-0.3723838123,0.0245963059,0.4767833892,-0.0767153754,-0.787209773,-0.5139857333,-0.5249440762,0.1305430623,-0.5719513616,-0.2885260707,0.829595528,-0.8617098467,0.6925488806,0.0611531304,0.5575477406,0.8903567901,-0.1517753772,0.5328270928,0.1704089681,-0.8427657323,-0.6491803955,-0.8883631785,-0.3804976945,0.887286255,1.026861939,0.939639873,-0.1690280168,-0.3146394834,0.2126825656,0.0051537019,-0.6659234261,0.8714072166,0.0990312132,-0.2506505245,0.7466440603,-0.9341452957,0.7388328317,-0.2525764276,-0.8065865043,-0.945526097,0.0538502137,0.7795949992,-0.5957245879,0.6843835048,-0.4279177295,-0.3408645938,-0.5397967035,0.7251620366,0.5381388141,0.3969158831,0.7838498383,-0.9556006764,-0.9836528802,0.6202569796,0.6785224553,-0.106036689,-0.7826421788,0.1183282709,-0.9139062608,-0.1341100843,-0.615676663,0.5879880434,-0.7491153133,-0.783166408,0.7347773654,0.1933267627,-0.7835430464,-0.5977391769,-0.136001771,0.3437884116,-0.6497496844,0.1793410088,0.547756936,-0.9243561985,0.2419923959,0.3353585346,0.5175763088,-0.0440241539,0.6076913231,-0.3522125494,0.2594890228,-0.3945470502,-0.1755867509,0.220726615,0.8335038465,0.1895292142,-0.1372423149,-0.1507265757,0.6002466637,0.0261134715,-0.6270996871,0.8759794556,0.2067578052,-0.3931972267,0.1780824933,0.0351288104,0.5749834296,0.6049109581,-0.3617179908,0.6309495156,0.9416592551,0.9446603535,-0.3521531926,0.2034665892,0.7083356199,0.9594331345,0.0153475377,0.5773003951,-0.6605703474,-0.4284280796,0.2954004437,0.2295414663,-0.4178619016,0.4452891099,0.4026123364,-0.4031268722,0.4525397165,-0.492171708,-0.2679619276,-0.2655707862,0.5896310772,0.4627084054,-0.2261440306,0.4597238018,0.2820117732,0.0701179983,0.4731297138,0.0466533648,-0.3964997828,0.2562166513,-0.2235002964,-0.5968695645,-0.8965775253,-0.863661795,0.4058838351,-0.8761770799,-0.3068934623,0.8728825104,-0.4911709666,0.7701680419,-0.7745160433,0.137746903,0.0393789089,0.7790315711,0.9795049711,-0.000679233,0.2195241389,-0.2275132608,-0.1083068766,-0.238167471,-0.3549345483,-0.4987592364,0.6203227899,-0.6911057334,0.9406869135,0.3625067525,-0.880127773,-0.1033187929,-0.3606710847,0.4569119202,0.0709928459,0.6402649141,0.4196663164,0.5882053368,0.2415693065,-0.3305220896,0.1887243996,0.9042758204,-0.3913932189,0.7371838785,0.7548997573,0.6475565081,-0.634413944,-0.2045916954,-0.7742123958,0.1141662849,0.578181945,0.0591299626,-0.1748648096,0.8902076365,0.2927337145,-0.0121970768,-0.7904715592,0.23636699,-0.9084480531,0.062708073,-0.2001612254,-0.3567562967,-0.3607205627,-0.5312541627,0.6897413765,-0.5563123562,0.5732901858,-0.3504111702,0.6626658961,0.5807910054,0.5183175093,0.9465724791,-0.9873375921,-0.5488739092,-0.498494409,-0.2115537412,0.7445393631,-0.4641315188,-0.9290526262,-0.1842805065,-0.3982159549,0.3841319795,0.4675698929,0.782705538,0.8142656231,-0.7359716123,-0.6156344001,-0.5040778497,0.5026228152,-0.3997873765,-0.4126473323,-0.5861916175,0.92020217,0.2641987341,0.8540429136,0.0113410163,-0.6441342368,-0.853467233,-0.3867555536,0.4470926435,-0.5229220312,0.8990617834,0.2687132559,-0.8412391713,0.420322596,0.8566256492,-0.9264397199,0.0631940057,-0.13239676,0.3620355068,0.3198765536,-0.5060611918,-0.0379575673,0.4185672366,0.702253721,-0.5333065426,0.998299852,0.5228172441,-0.7438570331,0.2433864686,-0.1363461342,0.8019443546,-0.6523885375,-0.9385338645,-0.0898530367,0.9254661511,0.3460114427,-0.6770185067,-0.0564774221,0.3808734168,0.483291867,-0.9256798235,0.9019992345,0.0956352831,0.2750320002,-0.6039851712,-0.4219119047,0.9745934914,-0.3190075216,-0.6026616671,-0.935611744,0.2252562584,-0.4225641238,-0.8289354265,0.830908874,0.9085620318,0.629514039,-0.1548105293,-0.0793686678,-0.2838235949,0.1204414486,0.2379201456,-0.5257548855,0.8829762175,-0.3679333819,0.2073228106,0.8934163756,0.5579124504,-0.0234758787,0.6265512115,0.2112108003,-0.8696989546,0.2015336573,0.0966202142,-0.3005909266,0.5245811522,0.1480805419,0.9940431977,0.6957295151,0.9744942651,0.1621787203,-0.7390788764,0.6923642984,0.1750536139,0.6966355691,-0.6150177019,0.3085907278,-0.5377348283,0.1218871551,0.0232249978,0.4672788479,-0.0869224239,0.0758168075,-0.625710521,-0.3037968341,0.8347371521,-0.8761048012,0.4737288598,-0.2479684968,-0.2566971388,-0.0547692155,-0.6076666065,0.7704986066,0.1297943721,-0.5667255792,-0.3087611841,-0.7064968924,0.4591496524,0.0689608134,-0.6556085483,-0.585433663,0.5654029272,-0.0138573844,0.9030469879,0.5709473921,-0.001618845,-0.0325523147,-0.7888430841,-0.7596353515,-0.1275308525,-0.9926937815,-0.7802824354,-0.3765232041,-0.329203503,-0.6614837683,-0.6267319422,0.6886878872,-0.807551576,0.2179956971,-0.5983889767,-0.3120388386,-0.4512866603,-0.9347355952,0.3991036104,0.5935875712,0.7261228868,0.891740427,-0.015256888,-0.0351225317,0.6804668033,0.2241055397,-0.6748686718,0.7660471241,-0.8618598479,0.0587616523,-0.9454357012,0.0472898541,0.3162062005,-0.6417959413,0.8547741315,-0.8849398093,0.0329825481,-0.2561092081,0.6892758143,0.5094197215,-0.188153852,-0.1425282672,0.6132487177,-0.1873033262,-0.20931997,0.8700930737,-0.4325355732,-0.6564121075,0.0093975907,-0.7070694196,-0.6563663952,0.1786552511,0.2252283018,-0.8465702579,0.6650158035,-0.669432916,-0.9667143138,0.7965517606,-0.7441689937,-0.1530956937,0.222275716,-0.3789261038,-0.6950638308,-0.7193946312,-0.4947051875,0.0163420712,0.8372539013,-0.7072778687,-0.641695191,0.4340659369,0.2772160693,0.8563656299,0.0312272287,0.0549162853,-0.6933212677,-0.9433506914,-0.0229517159,0.2073095655,0.6615763726,0.3588805881,-0.6677062165,0.9302317195,0.0474041689,-0.2083732091,0.2757229302,-0.8997767395,-0.0970480585,0.4949855048,0.8925953824,-0.8952436475,0.1934738419,-0.0023814288,0.1757199917,-0.0355293261,-0.6608909657,0.7996074696,-0.4280493534,-0.1841922345,-0.122234982,-0.379693104,0.5106692903,0.9763471557,0.8742230723,-0.4299679668,-0.2188610055,-0.3570804173,-0.2333082859,-0.6882737325,0.4463460666,0.2114011989,0.6036720836,0.8554583548,0.0607799942,-0.6430281404,-0.8336495525,-0.4784283942,0.4385154557,0.8736863439,-0.5305769733,0.6908469604,-0.8262825226,0.9650279744,-0.3674293237,-0.578585797,0.0111842008,-0.6569789481,0.5170488385,-0.4413321143,-0.6222333112,-0.7550072505,-0.0214474369,0.4988105058,-0.5083501074,-0.5085251126,-0.2489254216,-0.9071699206,-0.2791846368,-0.0600898282,0.5999214348,0.0396138876,0.2755477888,-0.6459551017,-0.0293754817,-0.3809324407,0.7471549989,0.3351985403,0.375977721,-0.3707355976,-1.0233794186,0.763859862,0.0285006637,0.2157626766,-0.9300291624,-0.6839711419,-0.6843261009,-0.1157316611,-0.2395693815,-0.4257009763,0.7548273047,0.7806290131,0.55795187,1.033151345,-0.3100508269,-0.5009688682,0.550953354,0.6787425584,0.4431921737,0.6643288024,0.4035667655,0.2952574666,-0.4769722403,-0.6433102644,0.7931495829,-0.9430423404,0.5147947504,0.6065243095,0.0671044477,-0.8705295124,-0.6767505129,-0.1820246397,0.7637842824,-1.1054365259,0.7967646243,-0.3823237146,0.2232757475,0.6194750626,-0.1154386793,-0.763965607,0.526859216,-0.066236142,0.8132269918,-0.6076596583,-0.1988511594,0.0760698621,0.5466602104,0.9756147757,0.0725407403,0.3030508889,-0.3355273292,0.9445741513,0.2324041052,0.8252928445,0.7762886871,0.658732961,0.8127772334,0.4737091035,-0.6509309285,-0.4817200416,-0.9210522398,-0.7648190009,-0.3987615508,-0.389447191,-0.0855641267,-0.8722755249,0.6590836794,-0.7586124313,0.2186219845,0.6478861508,-0.3723367373,-0.5226207409,0.514731779,0.1765755568,0.4457475148,-0.072490027,0.9467620561,0.81278234,0.866386941,-0.0667879531,0.5259251915,0.4601019396,-0.7366196157,0.0896440872,0.5827561636,-0.6820285047,-0.434212196,0.7876955465,-0.7993025351,0.4016899964,-0.2190908702,-0.231134089,-0.9951105389,0.4666245231,0.0534649403,0.852168366,-0.6875768284,-0.471414723,0.4882864696,0.1538752848,-0.1061819496,0.2019084927,-0.0984491027,0.5859142701,0.0780522555,-0.0685433101,-0.62966466,0.2249847386,0.1847471168,-0.1006445282,0.2756358723,-0.9854472918,-0.9994540927,-0.4793870623,0.6059370375,-0.8593236838,0.4888888554,-0.1611205887,-0.7575149362,0.9737215526,0.4370827678,0.3412021,-0.444944395,-0.0388291322,0.9362753133,0.0026477194,-0.0659644576,0.8179131677,-0.3692624085,-0.9444911869,0.5785678047,-0.8572477237,-0.4848385328,0.6883023165,-0.0518044983,0.5167863197,-0.7977754966,-0.3640651072,0.8705162189,-0.9366328385,0.854124207,0.122565415,0.5868186881,-0.9556130014,0.8411714828,0.8946547274,-0.1280787332,-0.4728763828,-0.7875270491,-0.8829933984,0.260523008,-0.763353357,0.4157809184,0.0848915011,0.7802951763,-0.5755722323,-0.1849660837,0.6087498272,-0.6993267646,-0.7473997419,-0.7429070972,0.1180653792,-0.0931465232,0.966650429,-0.9128611344,0.1993206889,0.3308153915,-0.2918096994,0.1584662552,-0.4391066477,-0.41634032,-0.7137158593,-0.1841576108,0.6783124586,0.1447060837,0.2885117655,-0.8969364668,-0.3448271835,0.723801333,0.3560234818,-0.9640220752,-0.5434843015,0.3888926719,0.1622652018,-0.8135640494,-0.8067420738,0.9358637312,0.6695494042,0.020607072,-0.3280201661,-0.7182171327,0.2917628228,-0.9395586197,-0.7265635084,0.5272988827,-0.9624169801,-0.0105345341,0.150541337,0.9558724486,0.599986132,0.5302225522,0.1525228442,-0.1247477463,-0.0380933028,-0.389067186,0.2824112286,0.8517016225,-0.2838220275,-0.9745297742,-0.8002669746,0.8685042463,-0.3659538678,0.9948516209,-0.477987152,-0.4578437613,-0.4278112736,0.755336336,0.4508852555,0.6554846842,0.2916686385,0.9253787828,-0.4481286329
   -0.3921919808,-0.22601097,-0.5753410956,-0.7546931418,-0.8236145112,-0.9604250576,-0.839710635,-0.0095013334,0.5212949164,-0.8329762597,-0.498564558,0.8511500468,0.2814933497,0.7660407939,-0.6537300006,-0.2883595605,0.2216808386,0.135720275,0.6714409318,0.7801683891,-0.4920254933,0.3393687021,0.9243642698,0.4860214574,0.5413060769,0.8964408699,0.3302142487,-0.2438351734,-0.3974440206,0.7545984859,0.7352106894,0.4622705215,-0.6388033957,-0.8600982845,-0.7764972723,-0.2877782502,-0.148818447,0.7699765933,-0.5640845332,-0.8936511243,0.7404381257,-0.5017348792,-0.4542901437,-0.5068215423,-0.5663733989,0.8628675929,0.6384136014,-0.2841367401,0.8738373933,-0.248634711,0.2785470008,0.3660784694,-0.3388107416,-0.2767635962,-0.7102425349,-0.1748096955,0.4718312628,-0.6305904735,-0.2803311146,0.39026827,0.5969232195,0.5030128163,-0.6436248969,0.3336541445,0.2855080491,0.7506839219,-0.7732994649,-0.818567063,-0.7605280198,-0.6933318763,0.2942056918,0.3530476781,0.5245182924,-0.1594290495,0.8926615372,0.8674205096,0.4894526925,-0.9378328749,-1.0025393727,0.2055949769,-0.2093866968,-0.5190562027,0.0100583619,0.3850035455,-0.9169652763,-0.3589112775,-0.3899942149,0.1020204024,-0.9114889219,0.0640999744,0.0274363125,-0.9601842659,-0.4325546351,-0.4376870242,-0.4868294368,0.0070546953,0.9465559848,-0.995981032,-0.0409781761,-0.8141591065,-0.4970159541,-0.6588202385,-0.1285698727,0.6635967257,0.4057843589,0.4403785938,-0.0843975557,0.4463521697,-0.515541385,0.8562892232,-0.3064149778,-0.0816550623,-0.0972142688,0.1696533005,0.7019439724,0.8196980514,0.5371346834,-0.8531782974,-0.7300976361,0.4528502888,-0.5906368667,-0.6636814151,0.5945076225,0.6293859457,-0.2626252042,-0.6131262881,0.0775748223,-0.4134318215,-0.2777076941,0.3278476187,-0.2366924216,0.2917770578,0.2955817703,-0.744765246,-0.9703030886,-0.9468660092,-0.7838113699,0.0344820771,-0.2747606777,0.7254408342,-0.5141034635,-0.2219079339,0.7363286968,0.1764280646,-0.2127338699,-0.7186525525,0.6826736825,0.2907407077,-0.99809095,0.0933043127,-0.2866017593,-0.9599287237,0.6498763918,-0.1367159167,-0.7769551559,0.868405612,0.342492471,-0.0656020025,-0.2448493785,-0.923586948,0.1689270001,-0.9598885351,-0.2941347952,0.0224883505,0.8117277712,0.9220862402,-0.2567033741,0.43966853,0.6812332812,-0.8080200087,0.4396513855,-0.7543837842,-0.2349202312,0.5320701059,-0.2595397104,0.6658188246,-0.226316309,-0.6374537227,0.5090627564,-0.5699503183,0.2472220303,0.3895814899,0.9616497109,-0.1388909852,-0.4363539105,-0.9255638811,-0.37736959,-0.2051385518,0.3438581435,0.3307016667,0.7884702087,0.2481588318,0.6024459059,0.3924479004,-0.3873254662,-0.7755891043,0.5438913992,0.6627257342,-0.8721399479,-0.1729075758,0.8894264119,0.0841827081,-0.237256541,0.4341560136,0.1165864384,0.2229123913,0.0104027222,-0.4700618334,-0.7328273023,-0.101887707,0.5096992895,-0.1626910859,0.1121148093,0.703090245,0.1866182023,0.3506768964,0.0251561055,-0.0858383479,0.6515038288,-0.5201452469,-0.223756481,-0.8087946732,0.5669345755,-0.4557651723,0.016606043,-0.7054419748,-0.64601977,-0.0818200655,-0.1483328707,0.5036097006,-0.6883873607,-0.491026433,0.0055002477,-0.7564903518,0.3720232427,0.1428317967,0.5258275985,0.0363171138,-0.681571657,0.3529818251,0.058323608,-0.3496428562,0.5798728983,0.9154613843,0.1634398134,0.6716621677,0.3188857739,-0.3809000007,-0.6139447085,0.3275709588,-0.7656546834,-0.8578321038,-0.7747543779,-0.7284486578,0.4241982875,-0.2794504498,-0.0756360365,-0.8622872696,-0.1008679018,-0.6640143007,0.2322421839,0.4030423128,-0.0880199363,-0.0011013057,-0.4752972064,-0.4664879742,-0.9252290894,-0.3424432093,0.9645325528,0.7980777519,-0.8266998468,0.7223761167,0.5818418153,-0.8768710999,-0.3264713717,0.878073755,0.444464804,0.8633466271,0.7271265585,0.290161627,0.0711077004,0.5831752452,0.5274753896,0.8848525656,0.5684714761,0.0230905771,0.9162807491,0.5478523074,0.9815258287,0.0191366685,0.3132481674,0.8574691798,-0.7798082071,0.2217267674,-0.3259164457,-0.9265827077,0.475109586,-0.9579773586,-0.1124530903,-0.0196850079,0.3970179454,0.300015228,0.9562037763,0.8369891792,0.229385717,-0.0105867109,-0.8699373231,0.0661513676,0.9407273594,0.6723480726,-0.1707437305,0.7566536187,0.0728830329,0.8283800571,0.0009958915,-0.0682456784,-0.5529227791,0.3296355124,-0.6914588714,0.1783189731,0.227445064,0.7783280479,-0.985991539,0.8622668452,-0.7205785694,0.5499043541,-0.9435043132,0.6221524623,-0.2506963603,0.0466414993,-0.1314972767,0.4465594133,-0.7975130265,-0.2476562075,0.9785737728,0.0177440234,-0.0343618271,0.1904594181,0.224134559,1.0187077083,0.6185285546,-0.4685975448,-0.9024176106,-0.133762024,-0.6379419019,-0.8025229828,-0.0247954215,-0.6386301163,0.952107799,0.6136977553,-0.451399505,-0.2358255675,0.3470839871,-0.931220314,0.5055588877,0.9897808315,0.9358637318,-0.4077796503,0.6546473733,0.7684283322,0.291032567,0.9992258033,0.9435955799,-0.3709278309,0.3211809995,0.2426541833,-0.1532702465,-0.9182998573,-0.5132149648,0.7122926059,0.2865671532,0.3095624592,0.0613301942,-0.043354729,-0.7460358437,0.7868912819,-0.9755429088,-0.5733490066,-0.1889486801,-0.7847539968,-0.5839590726,-0.2634541467,-0.2987230161,0.2115144857,-0.8908907455,-0.3580520585,-0.288786341,-0.8195110826,-0.2203320565,-0.2666381936,-0.2648490961,0.0451504298,-0.7411485088,-0.5664333016,0.163964567,-0.7014760659,0.5993924084,-0.4252814562,0.1674587864,-0.3853993715,-0.275497401,-0.4636637378,0.2315811095,-0.8044944414,0.4881666589,0.7882548159,-0.2281468223,-0.1562672792,-0.0383629318,-0.4261930977,0.3149937059,-0.7434711299,0.469488171,-0.1525025111,-0.2100134256,0.6015280158,0.7553524182,0.704463721,-0.9354589586,0.5268491162,0.6730781123,-0.9092222067,-0.1516890276,0.2493607491,-0.0744205307,0.4750188211,-0.2570269326,0.7707336905,-0.4343592754,-0.9016831263,-0.1873755883,-0.8510119501,0.7743892931,-0.871363118,0.9317895342,-0.2783529184,-0.2365038982,0.0844536157,-0.2746085534,0.6149298547,0.1219506392,0.3508141185,0.1330370857,0.7611484268,0.4530300717,-0.7618941638,-0.1794685436,0.2528296835,-0.3254756132,0.5549266349,0.2709824546,-0.1527867088,0.7195324891,-0.7868345965,-0.2049921353,-0.875483435,0.3480053381,0.0302152474,0.2272094177,0.3596963102,-0.2596905722,-0.2856800304,-0.5766552386,0.4564323532,0.6299339523,-0.5716992948,-0.79199318,0.4006950547,-0.8913767814,0.1289704934,-0.8966078098,-0.543017646,-0.4875835502,0.3167663523,1.0114320934,0.5201606766,0.4649766194,0.8957370948,-0.3522918183,0.8357300814,-0.2479692872,-0.5951943809,0.8561451283,-0.2974939858,-0.7810433353,-0.894276337,-0.2454392137,-0.0260307263,-0.2605157753,0.4603872028,-0.7939284985,0.4818712591,-0.9098644727,0.3369591883,0.2792408098,0.7144460624,0.2959757583,-0.7961435456,-0.6844116973,0.3432806131,0.275854016,0.0041491128,-0.4577970755,0.7336214258,-0.4869022003,-0.3757297058,-0.3898596923,-0.2410967176,-0.8329680425,0.1713901885,-0.2035502861,0.8117536718,-0.3975536208,-0.5426439361,0.6287920757,0.3525252385,0.4003265219,0.7933858674,-0.7665121516,0.048530242,-0.5240838084,0.014253524,0.243237939,-0.6780036689,-0.4989236583,0.3804494977,0.0254286819,0.8186247058,-0.6536470361,0.4308922895,0.6447013025,0.0204259589,0.7925709365,0.2268840738,0.5237160478,-0.6929009303,-0.2262121596,-0.7384933782,0.9914770639,-0.589731698,-0.9372072822,-0.0311499922,-0.3981858023,-0.207557121,-0.9379833242,0.1854967928,0.0021382239,-0.0993122829,-0.3321999082,0.9290008882,0.005736079,-0.921869088,0.1021023873,-0.7479182451,0.8423377827,1.0087218785,-0.0764165891,0.9856594113,0.1897597012,0.7461619329,0.6897979233,0.4796005372,0.4195958732,-0.5802324539,-0.0055216531,0.2931782145,-0.7125763845,0.3187474952,0.3711557302,-0.9050108194,0.9379410754,0.7423353442,-0.6980283496,0.7759101615,-0.5209730439,-0.4121392291,0.8560262679,0.3335165592,-0.2693268623,-0.0429466827,0.8698113829,-0.0392844698,0.8468722007,-0.3472173511,-0.8613947751,0.7608268586,0.5187486691,-0.2417778,0.7251370088,-0.496568382,-0.3210951865,-0.6662542938,-0.7916500338,-0.2699392231,0.2821225529,0.4470117133,-0.0323753522,-0.5894109799,-0.6278304746,-0.4673373277,0.4886574936,0.8813706895,0.0329221655,-0.5191801802,0.3268281668,-0.8462535605,-0.708117721,0.8499625911,0.1952819248,-0.4595069289,-0.8060439206,0.0339633999,0.7678723405,-0.5040818811,0.9950030699,-0.3738000209,-0.0724937662,-0.6664694983,0.0770010079,0.4958358801,-0.1903751075,0.0502779578,0.6607797054,-0.493055742,-0.9485669704,0.0584625718,0.2214344647,0.4129308948,0.5416452418,0.044758542,0.6169160188,0.2813752138,-0.3626063196,1.013747999,-0.0568235434,1.0138012067,-0.6938746641,-0.5732698922,-0.8328340199,-0.6796249951,0.6085256423,0.0585876473,-0.280097426,1.0095629746,-0.1647763531,-0.2691249038,-0.4555101395,-0.48253207,0.5301306472,1.0039522552,-0.3901307964,-0.1604282862,0.4536583328,0.9667135329,0.2201335872,-0.5736235247,-0.6669080684,0.8398489029,-0.3705489111,-0.8681778709,0.7194441589,1.0427812285,0.38060342,0.1954701607,0.849267818,0.0606262736,-0.2123680429,0.0810545336,-0.8367627603,-0.3088730835,-0.1142187389,-0.2355686733,-0.5770915723,-0.3501424139,-0.6948938562,-0.4227308142,0.50677307,-0.5554313174,0.5060058545,0.3855638098,0.2255123073,0.0168880367,0.449078856,0.6342515029,0.5565618706,-0.2729907312,-0.6553770164,-0.4215437274,0.6231765342,0.9451150543,0.8630018503,0.381082231,0.2814230696,-0.2451247822,0.8833542003,-0.3577343977,0.5910763216,0.744201982,-0.9270656127,-0.1079885792,0.969896085,-0.4046144001,-0.5191975704,-0.7936947716,0.7033321888,0.3617157878,-0.7959106806,0.550409285,0.2039053326,-0.032251569,-0.402112499,-0.4518742226,0.3440823155,-0.726432112,-0.6429537198,0.8179150507,-0.2058614074,-0.3946052364,0.8268261023,-0.39367936,0.8543929378,-0.1488602333,-0.3811366683,0.6289575811,0.334372492,-0.7475201555,0.2513339354,0.4474755736,-0.969755874,-0.3657262411,0.4265261476,-0.8987581417,0.4241261563,-0.7850134623,-0.9160623451,0.4082298148,0.4764734574,0.2345359286,0.963044046,-0.9055179138,0.3830646919,0.2470974147,-0.3398003735,-0.1282280102,0.5282862339,-0.1096753323,0.796969412,-0.1343295287,-0.5615098099,0.5407389816,-0.9856358358,-0.6600756997,0.9035814693,-0.0792125018,0.1939655057,0.7800449852,-0.8750278641,0.405462543,0.0373197509,-0.4439782865,0.3804937285,0.8983877189,0.0669620338,0.5764569191,-0.5702726582,-0.0151821746,-0.8696882498,0.8227661982,0.7117400399,0.677072743,0.7768096122,-0.4752387107,0.5381479258,-0.5195115802,0.7951831077,-0.6490386669,0.097570328,-0.4935186159,0.5181962617,-0.4333768824,-0.1190312758,0.2530450994,-0.5094529958,0.2591256793,-0.4265009545,0.8503168331,-0.9036810887,-0.1575272657,0.4554635332,0.4584933032,-0.0043278705,-0.5395693613,-0.7760385503,0.2532848574,0.2078997483,-0.2782896319,-0.4467540581,-0.0296529586,0.5822481283,-0.7157245679,-0.9356933398,-0.4294744251,0.1658562285,-0.1327242153,-0.2407265372,0.4673908335,0.3940554303,0.0214077231,0.0271415225,0.9680305134,-0.3063686752,0.5514685049,-0.0417379505,-0.0727847598,0.4048525335,-0.4994446194,-0.6350512865,0.9830955508,0.8213592906,0.9893478506,-0.8234819905,0.594307599,-0.5058940617,0.1418024266,-0.1195254105,0.2183716036,0.1487760889,-0.9592175594,0.5138162793,-0.2903242439,-0.3868932601,0.8424180561,-0.2215140719,0.1121575417,0.1435966778,-0.322357365,-0.8604901904,0.7753471526,0.0106697822,0.9403832451,0.9842469644,-0.9533001483,-0.5758196083,0.6028262823,-0.6510071762,0.4633100527,-0.7088453659,0.0004824315,-0.4659141471,0.8745390346,0.6519909519,-0.8135765013,0.8740131845,0.0559308928,-0.271041398,-0.4205873356,-0.4416646715,-0.3626836526,-0.9930337634,-0.38555969,0.3278938897,0.114673322,-0.4447636956,-0.6293622549,-0.9159191378,0.7117869949,-0.9537403669,-0.2368584772,0.950840215,-0.2352848025,-0.7861348975,-0.2702577801,-0.857334703,0.7261420204,0.8492192711,-0.4261884047,0.2205091448,-0.554836149,0.4293625895,0.148097834,0.8184345763,-0.4802863423,-0.0300775881,-0.7004189143,-0.0095761171,0.7475454741,0.8354502859,-0.1390514861,-0.0864289304,-0.6525510111,-0.8911014603,0.5539123603,0.5701186598,-0.4211555962,0.0089917326,0.3157783653,-0.8441765761,-0.1962073337,-0.4320330544,-0.4062340202,-0.9028985011,0.4247904078,-0.5783708486,0.8629914842,-0.8282984028,-0.7938202603,0.0871274044,0.5774965059,0.0430746465,-0.4783978631,0.958358585,0.3313257935,0.9843119149,-0.6675549532,-0.2483983228,0.3797427335,-0.8318539306,0.6045038862,-0.3211694783,0.4280265201,-0.3349393351,0.7787786599,0.3962370875,0.8726130766,-0.7010660409,-0.1052624676,-0.9523870708,0.3088844857,-0.930095794,-0.3249737343,-0.2840803577,0.6689949879,0.1536582812,-0.2791956152,0.2251370957,-0.1796268457,-0.8268565701,0.2697626181,0.9518329436,-0.5727738104,-0.3415477388,-0.3429561803,-0.6972964998,-0.1611378158,-0.4448281601,-0.0886975554,0.6313053525,0.1020015188,0.7869935281,0.6025253364,-0.4155802597,-0.0303283596,0.694502701,0.3609898197,0.0448794478,-0.7162067075,0.6743148232,-0.7605015733,-0.9984053681,-0.7552256449,-0.9217798494,0.1543903491,0.989653017,-0.4729823534,-0.9730554855,-0.8050809889,-0.5473472777,0.6014219025,-0.3389001136,0.430091107,-0.1302306895,-0.2778040803,-0.9318024542,-0.7218486543,-0.0763810231,0.7899166993,-0.9413098052,-0.6767029397,0.8297536162,-0.0688898262,0.3648709394,-0.9411551478,0.6777430833,-0.2702228524,-0.6545804533,0.6733684059,0.5565395302,0.4514710865,-0.757933045,0.1496245056,-0.6096794912,0.9021367611,-0.9956927188,-0.4696040968,-0.0655491179,0.4141378765,0.6970098586,-0.4771766006,0.1299251279,-0.2050038284,0.2034434047,0.0283398253,0.1402137026,-0.8307227793,-0.7836994303,-0.7018424698,0.9817101101,0.2316502208,-0.9334975699,0.4087129874,-0.7119107283,-0.3199737671,-0.2758101996,0.5228923266,-0.7125811582,0.2218030852,-0.3709128962,0.1328260579,-0.7631056141,0.7619230313,0.5890882504,0.4066697257,-0.1104209814,0.4568009211,-0.97393386,-0.7996863582,0.4770952081,0.9798922066,0.8747611124,0.2529843696,0.3105116234,-0.5924840328,0.5693467888,0.5220977088,0.1564196475,0.2142443135,-0.7343448231,-0.4577230746,0.759168443,-0.9598233233,-0.0387258494,0.5921262021,-0.9797450218,0.5469769238,0.9005989029,-0.4050609551,0.6920219022,-0.2075105921,-0.8287360058,0.5896928595,0.8457272801,0.0762369668,-0.2622873299,0.5991044443,-0.6748553726,0.309867339,0.7212296847,-0.4746034334,0.0180387659,0.9936801761,0.3085634782,0.8679006025,0.934425074,0.7152925258,0.4460658383,0.511192497,0.1973769274,0.6831466705,-0.320411866,0.2051088113,0.6070774417,-0.9224842834,0.3197123319,-0.0541435279,-0.7381685232,0.6066763008,0.8383519561,0.3158655441,0.790907298,0.4312147022,-0.1243575549,-0.5395501772,-0.2609677775,-0.8243691938,0.3332557687,0.924639787,-0.474747194,-0.4761437965,-0.2937788352,-0.1516658405,-0.7402902195,-0.7152564509,0.7470659117,0.9093290353,0.8841243577,0.2344577991,0.0160642555,0.5759540595,-0.5994297912,-0.4344031662,0.7646437968,0.4985976509,0.5349563574,0.855684768,0.8196941409,-0.0434287357,-0.5384148264,-0.4516381096,-0.246408421,-0.8203968393,0.0163124104,-0.9896112629,-0.8028853,0.8377652584,0.620971963,-0.8364320622,-0.4516079068,-0.0564920188,-0.7229160222,-0.2443283709,-0.4839024745,0.330704253,0.6744868979,-0.9254034068,0.0801724502,-0.5577213466,0.4251784075,-0.181156385,-0.6162362542,-0.7455758782,0.2496980766,0.2849397758,0.5920410846,0.5945061312,-0.2900871761,-0.3023333403,-0.7029988406,0.944499338,-0.1121449868,0.2237968379,-0.5718220252,0.1727352688,-0.8669367605,0.1293897911,-0.5388917741,-0.916389532,-0.8585409892,0.6885496524,0.7731090221,0.2559385251,0.5871592997,-0.9793366986,0.4795950904,0.2270000202,-0.68799409,0.8883473596,-0.2064252318,0.8543791123,-0.7541762535,-0.7512276041,-0.7399525831,0.4764906563,-0.1563549093,0.7409045367,0.2989425958,0.7043722067,-0.5688958814,-0.4675402843,0.1052351325,0.2454066085,-0.4991605833,-0.5976768163,-0.2247493517,-0.442502865,0.2053484564,-0.4791860134,0.2975423195,0.1056318112,-0.891399775,0.3356296133,-0.0323464911,0.6157392194,-0.6685354624,-0.2079355624,0.8525391095,-0.6419623485,-0.2839252392,-0.0242606792,0.719953391,0.7391125808,0.737067814,0.3880486897,-0.7285358006,-0.93209922,0.1651936334,0.5123520255,0.3283070538,0.3720513351,-0.2808229504,-0.9512498219,-0.2010698796,0.3867444184,0.3017632891,0.4947618211,-0.6766912972,0.7875128296,0.8089744033,0.3085657796,0.7462483517,-0.7501151256,0.2965524308,0.6832667862,-0.8650406282,0.7475240251,0.1766340424,0.754513414,0.3205397061,0.1185172372,0.5775657252,-0.4542684891,0.6296027537,-0.2121729613,-0.620013764,-0.5363159386,-0.5798477908,-0.2450156008,-0.8046157075,-0.3475621029,0.2598025967,0.5971583256,0.3651023051,-1.014706814,0.042722028,-0.0611851012,0.4430645834,-0.0289815334,-0.3111478425,-0.8531888267,0.2273079874,0.5197547009,-0.0101470102,-0.2152124585,0.1217138776,0.0304879143,0.4856775791,0.6039103449,0.3939348619,-0.8878778721,-0.2387118128,0.9950222271,-0.8963537612,-0.7529150688,-0.3743180583,0.8503404859,-0.0256060182,-0.2552033337,0.9932115518,-0.4282090584,-0.1977624649,-0.1073616603,-0.6467768425,0.7235881868,0.5580456182,-0.6064099152,1.0320746344,0.6265196214,0.5417694564,-0.2871552898,-0.0213382127,0.6403403181,0.114547535,-0.7707299407,-0.7384828902,0.3087262694,-0.9518956925,-0.6889877857,0.3349045182,0.5094213577,0.039545715,0.9655612103,0.1949231631,-0.6693583622,-0.62513456,0.0572562861,1.0150924729,0.2279126313,-0.2882777069,0.2612328346,-0.6712870371,-0.2886659625,-0.0336119902,0.8210874803,0.9305164368,-0.9838847372,-0.8923886017,-0.5956343204,-0.7344660503,-0.4957364388,-0.8855742134,0.989050152,-0.2956479425,-0.2454057406,0.8791191711,1.033562301,0.4894747093,-0.0574718898,0.3411500716,-0.908779707,0.5389222107,0.2197188391,-0.6735863566,0.6955878624,0.0494778021,0.1953268564,-0.2513128979,0.5412793032,-0.0921525289,0.5588484348,0.0846275185,-0.7995510177,0.6377769449,-0.3650179168,0.4259763962,-0.8408920207,0.5953765933,-0.7125858214,-0.4513350851,0.707215527,0.4587783615,0.1053445141,0.7992242825,0.0304739051,0.3356272726,0.9625230248,0.0300009006,0.2465982808,0.723532259,-0.0371194857,-0.5215033709,0.774377561,-0.6566850089,-0.7672292382,0.4329113873,0.9348073016,-0.9900997108,0.1766119113,0.2234711875,-0.2055360733,-0.7795266401,0.6809784027,-0.4544981369,0.0210162447,0.6664981108,0.678829785,0.5242695781,0.3944045509,0.9267949614,0.6322338121,0.2260384047,-0.4014454136,0.0247124765,0.9672284945,-0.5883899652,0.6643764824,-0.812666342,0.0888051663,0.8126634697,0.3018472943,0.0517535234,-0.0161703978,0.0810547843,-0.8857499018,0.2931849858,-0.2707830386,0.630915143,0.2714758085,0.9696998931,-0.8527164762,0.8912903753,0.8688954806,0.7242573186,-0.0312049532,0.7298331133,0.4611230075,-0.9483673439,0.8232400753,0.3841012895,0.6200769738,-0.5732380486,-0.3083814992,-0.5506272276,-0.265496421,-0.7599796691,-0.1670731052,-0.8789461017,-0.0263767805,0.6049523552,1.0241877049,0.4277256905,0.5664244951,0.6473162944,-0.6506294783,-0.2966409408,0.6989565054,0.5979554989,-0.0215765137,0.0954604894,0.504236328,0.105121614,-0.0904280877,0.5797907971,-0.9538949324,-0.3395414073,-0.410810592,-0.4711630752,0.5182135966,0.7828387131,-0.4319398442,0.2625563846,-0.841565751,0.6827880667,0.3030560291,-0.6474385198,-0.5299208235,-0.2484490353,0.1467816901,0.3171801352,0.3114356454,-0.9149543335,0.1101441309,-0.315663783,-0.9327463816,0.2144625505,0.1947054264,-0.4802615232,0.4140391134,0.9448977697,0.4900912943,0.6300849293,-0.3309777384,-0.0256399338,0.4674466042,0.7540822224,-0.1221561776,0.472407561,0.0964700045,0.0730936891,0.2838964051,-0.8578231432,0.3118380344,-0.4143853637,0.6241425862,-0.3269174345,-0.2420843644,-0.4637234724,-0.974304024,-0.8385511004,-0.765243483,0.0417207464,-0.4054297499,-0.624096413,0.2530536696,-0.8967879852,-0.9942003435,-0.8530082084,-0.7959710826,-0.9743804898,-0.0655359578,0.4220589742,0.6163928308,-0.6693549278,0.4348451842,0.1128193001,0.3195239444,0.8666316036,-0.7846363779,-0.332821501,0.8889708562,0.1875188031,-0.1810015126,-0.073963417,-0.9461798513,0.5253641841,-0.9716561166,-0.7157579404,0.5994453015,-0.4082890196,0.2277690386,-0.9317644768,-0.2271541281,-0.7416742954,-0.0978994725,-0.768795202,0.1796909949,-0.6144107267,0.3288079684,-0.3289920482,-0.4113353096,0.127023821,0.5000413308,0.7491529187,-0.4026741497,0.7270176457,-0.0562266281,0.9487698698,0.411342364,0.1561711812,-0.0466489017,0.0170736774,0.1220726918,-0.286387763,-0.6722323189,0.1491135544,0.9631544938,-0.5408106685,-0.4180263822,0.812417366,0.8249417553,0.2733390852,0.9586219763,0.6967984954,-0.7789938481,-0.8730926445,-0.8547800773,0.4320138975,-0.1698405765,-0.9463567029,0.2317308781,0.4528450756,-1.0648478802,-0.5589351219,0.4515103597,0.3291013611,0.8416076805,0.3720455239,0.9417697143,-0.8606931587,-0.3141408798,-0.0198363785,0.5787319632,-0.1468071309,-0.9592911227,0.4177652571,-0.6062965125,0.1913955267,0.2190035269,0.1089772858,0.4552537291,0.1553525616,0.38608099,0.7842300206,0.4571928057,-0.1924284602,0.2633078416,0.2869916936,0.6320662426,-0.2512484147,0.3406099159,-0.9997029008,-0.9837545802,-0.4440815377,-0.94976541,-0.0810356609,0.2551581911,0.4360791387,0.8639452809,0.3968806532,0.2469642198,0.956193398,-0.7992785413,-0.7919371582,-0.2622673746,-0.9133785208,0.8272781128,0.4787001722,-0.6516815636,0.0993451314,-0.9032458814,0.6220155041,0.4007422987,0.9590323032,0.5946449574,-0.1745002599,0.5030402789,0.8738099032,0.2212876266,0.7299713637,0.9690238548,0.9119667816,0.6010252363,0.6577309849,0.080683419,-0.5768797595,-0.777337984,-0.1993046738,0.3543450318,-0.462228599,-0.4711387654,0.7468070189,-0.3838496402,-0.634929277,-0.2641267097,0.9235798772,0.5003252407,0.401100259,0.7882190854,0.2657908097,0.7527015914,0.8715564318,0.5730917337,-0.3377345989,-0.1178737894,-0.5980634222,-0.0555764075,0.1670482423,0.3943502896,-0.65310725,-0.7766725472,0.0448773961,0.5808331086,-0.0893827058,-0.6428898992,-0.5598562541,-0.4296540425,-0.5302579854,0.3575952294,0.4548180812,0.8213871331,0.7293691527,-0.3844103662,-0.4409626002,0.3875582145,-0.0369433426,-0.644021303,0.04956824,0.5333493436,0.9719559583,-0.6431540757,-0.9617123976,-0.1901635796,-0.3292321039,0.6783395581,0.0783023563,-0.0089142005,0.7692927107,-0.7592910548,-0.1568792751,0.098596674,0.5101569414,0.3180756897,0.8186161148,0.4908004447,-0.0173218638,0.9049882246,-0.2391952008,-0.1115499491,0.1005300642,0.8166232175,0.3570015656,-0.8158897953,-0.043799126,-0.0941537831,-0.1487114374,0.1941113224,0.080247713,0.7799793121,-0.3633709057,0.2950845197,0.911424559,-0.5747971919,0.6876228249,-0.5365016245,0.8127212356,-0.0670098457,0.9039883526,0.4315271262,0.2464208431,0.655415135,0.5928839285,0.2085532315,-0.2721862209,-0.9366684007,-0.7536388955,0.4849498648,-0.8343846866,-0.3046327518,0.3055920918,0.0464719062,0.5297180101,0.787320407,0.0502171856,-0.0747303161,-0.7587820168,0.2637918471,-0.3122706045,0.1094674028,-0.2123821059,-0.4570715506,0.8289957995,0.4665905949,0.4902300875,-0.282305508,0.2300952746,-0.7040626329,0.6653371149,-0.5980917501,-0.0699807777,-0.3611780187,-0.1210864925,0.2223308935,0.5520789676,0.9454352306,-0.3265659133,-0.6163128784,-0.3942098717,0.9849147068,-0.4682823729,0.1399131992,0.9582021091,0.1998276282,-0.614891424,0.0396595798,0.1708341434,-0.1260769432,-0.5704840961,-0.3754380696,-0.5926398934,-0.7326920985,0.4603378797,-0.2060521509,0.8391638901,-0.6523505433,0.0051376342,-0.465975613,-0.7039151706,0.6510359216,0.0625938895,0.8341996982,0.4444398712,0.5884692548,0.4591830199,0.8018390844,0.7795546001,0.5898648748,-0.9305550042,-0.1819258916,0.4294196269,-0.2146197281,-0.3139624848,0.5739842869,-0.0687488848,-0.9386303647,0.8010813068,0.0034895261,-0.99756692,-0.2980772179,-0.970788694,0.112440202,-0.5002670569,-0.1092655373,-0.1588469522,-0.197571347,-0.5859380682,0.6925817312,0.4292385372,-0.9087193274,-0.922210465,0.1204760533,0.053933068,-0.6422523484,-0.8267286493,-0.2863484357,0.1691723306,0.8143197004,0.6847477838,-0.9470424243,0.8214257393,-0.0490318563,0.4708202982,-0.9211579298,-0.2356554194,0.254580779,-0.7566456594,0.8173047448,0.0018130362,1.0043989263,-0.5174670629,-0.7229902267,0.6824974056,-0.9440405553,0.3404760726,0.5120145998,-0.909543876,-0.1289210242,-0.1553880318,-0.373463192,0.8183015847,0.1839710323,0.665861634,-0.9724350792,0.2014743144,0.724961969,0.7963770253,0.0214205747,0.4718994821,-0.509314269,0.4148120806,0.2283356722,-0.0538722713,-0.382311032,0.1004517036,-0.1538993741,-0.0477329,-0.515595568,-0.32671384,-0.7015005879,-0.2590393105,-0.3833245414,-0.3323799886,0.2165855217,-0.9715374106,-0.4816365717,-0.5032406314,0.6457050609,-0.8050187659,0.3309892201,0.2158912442,0.2128466195,0.8750238146,0.4365449621,-0.9629258567,-0.5052088039,0.0411861796,0.3444014424,-0.0564875004,0.7933763961,0.1034001199,0.7581960957,-0.7258142662,-0.1888925502,0.63552381,0.2124228185,0.6622050561,0.7488748439,-0.2549735334,0.8281724377,-0.1183079621,0.494948882,-0.3029257173,-0.222657009,-0.8171446413,-0.4982222091,-0.5870768085,-0.7529965722,0.0719575029,-0.1469376578,0.8944801382,0.0904075755,-0.2242771959,0.1717836373,0.8190062049,0.4226281066,0.4211988688,0.6598046117,-0.5470522402,0.0041685837,-0.1758459673,-0.0869160714,0.6758328954,-0.9247815363,-0.5895568467,-0.2217604109,0.1612097944,0.821522922,-0.2754315286,-0.4004633302,0.5267227226,0.332928434,-0.0221644876,0.5572946708,0.1891321688,-0.6541420152,0.0983821019,-0.4162627138,0.6227033921,0.7044719655,0.8296816751,-0.3859495947,0.5308905098,0.1776494869,-0.1030091411,-0.2634206668,-0.5726027056,0.0346015399,-0.9417276082,-0.7640366993,-0.4382628745,-0.2928242147,-0.7783361264,-0.3874564956,0.3954435641,-0.3534084851,0.3889876802,-0.7869900179,-0.3552786582,0.0951849646,0.9298019068,-0.7864671769,0.1907544452,0.3524910076,0.0974588242,0.0563512683,-0.7944621456,-0.0693204516,-0.8493147065,0.6642803678,0.7351736488,-0.7270266862,0.6139367092,0.6340186942,-0.5139523746,0.1614934406,0.1233209821,0.6554859922,-0.7713974483,-0.8272907114,-0.9972718697,0.1030500616,0.6615559856,-0.3775717212,0.2853026561,-0.439340133,-0.8887806807,0.6484182995,0.5109903316,0.2493350227,0.3283842843,-0.2280354693,-0.105361135,-0.0157819434,-0.2631971236,-0.8445525872,-0.9137720602,-0.6856589055,0.0927871457,0.0292638521,-0.9792255727,0.0599734422,-0.2833882206,0.8108379719,0.3404843715,0.1758265346,-0.4281652263,0.952096776,0.1011875857,-0.9978872618,-0.7558518633,-0.9442139717,0.5777087438,-0.7790391843,-0.8245906342,-0.7514439391,0.0161388199,0.1898997997,0.4528418177,-0.0473149103,-0.9315840811,-0.362121832,0.1028723495,0.5426312254,-0.4034110613,-0.9296226297,-0.6756647884,-0.9188951711,0.8448085714,0.5659875518,-0.9391908039,0.7546838831,-0.4840673735,-0.4107927393,0.7370288592,-0.4568962482,-0.0049983117,0.6367887289,-0.007410291,-0.29266415,-0.3982731604,0.2507253981,0.9655508649,-0.9572648459,-0.1003386616,0.8475857334,-0.1654949647,-0.002194717,0.1524564112,-0.5167253339,-0.579234763,-0.5608853719,-0.2503751969,-0.5915734789,0.7252319701,-0.8440267064,0.7455547001,-0.8037345473,-0.9151725564,0.597292509,-0.5642986615,-0.6030571816,0.7391196042,-0.3683044894,-0.9829849725,-0.3542411576,0.1742966125,-0.4628813144,0.2022270979,-0.6381454912,0.5576257818,-0.2660822025,-0.9461942588,0.184501202,0.617229041,-0.3944200836,0.4516370458,-0.2163075818,0.1877862421,0.9305981969,0.6516675869,-0.5397334285,-0.2536619779,-0.580465573,0.2192133207,-0.9708238102,-0.4621556962,-0.2311585185,0.3638883703,0.130793867,0.564266066,0.3198017317,0.1798904542,0.4141729761,0.7114642697,-0.6015097673,0.153939885,0.7450602934,-0.4782055002,0.0891770452,0.6306793148,0.9891035982
   0.108117535,0.3530476811,-0.3122628681,0.8692123763,0.0551114714,-0.5980196874,-0.141730553,-0.9651141144,0.710538895,-0.0355476615,-0.8062950841,0.219317785,-0.6096926233,-0.2975713932,0.414128512,-0.0844036713,0.9041817641,0.5798095361,0.4595607096,0.7037381128,0.9154335588,0.7162446637,-0.9218298569,0.0632391633,0.7011472915,-0.9449276118,0.8559699845,0.9504841539,-0.0528027119,-0.5613159536,0.2759380666,-0.2610626746,-0.6726684756,0.8855849527,0.9538362367,-0.4614899553,-0.4059071205,-0.8133530095,-0.266037625,0.9211663543,-0.267182871,-0.8536348714,-0.7236734646,0.2520771582,0.9280492981,0.8184244122,0.7545994158,-0.0679476334,-0.807381544,-0.2754763394,0.7507463195,-0.0000181588,-0.0926288127,0.0594624293,0.4409771698,0.6645382022,0.8084570178,0.2632979675,0.3983845122,0.2652572651,0.3794722629,-0.4026958896,0.6006329785,-0.5457117467,0.3867470935,0.869374374,0.3010567839,-0.792873176,0.063871854,0.5364599419,0.4891573833,-0.9159295266,0.8230824314,0.5394639478,0.0426179472,-0.2840680256,-0.4558275374,0.3549370367,0.4150365333,0.7236789283,-0.5348428817,0.6760737352,-0.7744571533,0.272304864,-0.2241661879,-0.6219868752,0.8515277404,0.3083331415,0.4535661975,0.9781619436,-0.9091166823,-0.2746459816,-0.2343979503,-0.2314504549,0.1743330211,-0.3085359356,0.0922281956,0.5139927901,0.516148245,0.3504418798,0.7407445929,-0.7662432662,-0.9671065152,0.9653342965,0.696997252,0.2882188079,-0.8841511677,-0.6307083451,-0.6520173201,-0.1268609962,0.8538242282,0.3409222573,-0.393082276,0.5619101648,-0.7144535961,0.3613004948,0.2575032849,0.608048918,0.3326276891,-0.6724540066,0.3895779789,0.5248431279,0.7733848002,0.5580828061,1.0365196509,-0.7644837381,-0.6908247757,-0.6789155417,0.8827189879,-0.4818103514,-0.1187431692,-0.4810884259,-0.8654805468,0.2139454431,0.563431493,-0.1659800123,0.0466863928,0.8360859799,0.9635337296,-0.7544553458,-0.0901258819,0.3505852692,0.074627678,-0.1128878434,0.0817856774,0.9097797767,-0.7889625511,-0.4017717037,-0.8770882136,-0.4645928822,-0.8670633947,-0.8846813085,0.8093272103,-0.0507539216,0.6641550242,-0.6638302232,0.3805019846,0.0346669975,-0.8846980895,-0.2736392485,-0.3621461193,-0.4764333091,0.9573463949,-0.960567649,-0.5129543735,0.5070350906,-0.3065266578,-0.0636219806,-0.5598737147,-0.9722562647,0.2848145861,-0.1568088274,-0.752893427,-0.534480733,0.2085580046,0.7146374529,-0.6272462049,-0.4258312548,-0.6607766761,-0.0969374507,-0.6551354918,-0.2861192854,-0.9122029321,0.4652711881,0.8939959076,0.166227413,0.5222360437,0.8205205026,0.8822945414,-0.5446664513,0.737801888,0.0370195123,0.2746552312,-0.517726397,0.4230527873,-0.0192912641,-0.170613278,-0.952625387,-0.3464361697,-0.4994821704,-0.8387887347,0.1157245885,-0.3988821733,0.988931224,0.3325009829,-0.057194401,1.0128798827,0.1619196348,-0.7819732359,-0.231932858,-0.6464680976,0.5247652063,-0.0716889643,0.7723919267,-0.759790279,0.7701126536,0.887826645,0.2493989452,-0.6769805484,-0.9147160766,0.8429996595,0.2397995668,-0.3350641451,0.1416983894,0.788169627,0.1324836403,0.7863787044,-0.4795570548,-0.5480351787,-0.345550566,-0.6534931951,-0.7030272668,-0.3810455021,-0.7610979705,0.5038468512,-0.2511055868,0.4781788309,0.4413857047,0.0434552227,-0.0613257507,-0.8305323733,-1.002007304,-0.9659610827,-0.2267326781,-0.9009113368,-0.1654374218,-0.01465344,0.6718635277,-0.4973608728,0.0634398944,-0.2736587193,0.2186493375,0.6608821025,0.6981687714,0.714382222,-0.1861954703,0.6427818636,0.6356953055,0.1142021852,-0.4539711135,0.3407988195,-1.0555561358,-0.8751712837,-1.016406545,0.4971789501,0.2610719558,0.83030318,0.2814035913,-0.4747074218,0.1923477788,0.4243227912,-0.12542607,-0.4850152635,-0.195590558,0.6075126683,0.4765254683,-0.1736101159,0.0079158409,-0.9196912076,-0.7516729346,-0.4551583312,0.684947079,-0.9648608639,-0.7579857098,0.9874553037,-0.4593766029,0.8160008137,0.5016893192,-0.4960301791,-0.6464028079,-0.503854078,-0.0285443971,0.2875725157,-0.0044162742,0.0793729911,0.7591724849,0.9557286195,-0.5205316753,0.0596440855,-0.3558373154,-0.3381060458,0.5408244103,-1.0148543807,0.6458682268,0.8437219862,-0.957208868,0.4761552618,-0.368047679,-0.714380545,0.6094769288,-0.9519552728,-0.9899813026,0.0123204346,0.0247981667,-0.7111889346,0.0246057491,-0.5276465621,-0.5802786737,-0.9531617119,0.0706688165,0.1203155722,-0.7414398907,-0.4805428702,0.0206188423,0.6444201796,0.5632212988,-0.2019898598,-0.80982468,0.463167805,0.1568829243,0.3026969468,0.0698227216,0.6192232482,0.7493427211,-0.7875693535,-0.8083769107,-0.661234083,-0.5042756789,0.6630888415,0.1621741815,0.8825234031,0.5869346762,0.7051435564,0.1098621158,-0.0361904773,0.7470788439,-0.7469564489,-0.3739715853,0.2012330415,0.2803443737,0.8342076467,-0.3370312535,0.2151469843,0.722688558,-0.13144863,0.8580131052,-0.4607593443,-0.5344910538,0.7347934399,0.3151919731,-0.7559904072,0.5544382316,-0.7598059729,-0.216752756,0.8052325609,-0.4445483986,-0.2836066434,-0.4323400232,-0.1162954961,-0.2443523193,-0.0602723926,-0.8253867229,0.424503946,-0.1980163105,0.2516138214,-0.240458941,-0.2360297784,-0.8590739131,-0.4289206762,-0.3411662763,-0.147850328,-0.037490864,0.7084909611,0.5259679541,-0.9268104166,-0.7818312508,0.4556070381,-0.4040891304,-0.2378203303,-0.3567667198,-0.0735807012,-0.6629260887,0.2307051163,0.7303221644,-0.5455573861,-0.942725586,-0.4540803209,0.3609874783,-0.7884933038,0.0310518608,-0.3299477482,-0.0537933002,-0.6173660066,0.999163493,0.0664398936,0.7915944252,0.4695562985,-0.9043081544,-0.5086724493,0.1426006162,0.1542238701,-0.0491054711,0.3534185525,0.0429040081,-0.6440214841,0.8453522591,-0.5771361246,0.9861822811,-0.5058706021,-0.7517858063,-0.2392467545,0.6227854016,-0.9124835249,-0.0456630123,-0.11959597,-0.9175844224,-0.7597322237,-0.0997959932,-0.5413139335,0.8535154494,-0.1131429416,0.9981364476,0.3093251711,-0.1110660408,0.5320666864,-0.6440765678,-0.8483551649,0.6636810998,-0.1189231418,-0.0375454816,0.8148660672,-0.869142501,0.5212740886,0.1959783531,0.3780785373,0.9310041214,-0.1261387414,0.2448981424,0.5235916121,0.5269471052,-0.2800595537,-0.9380573758,-0.6679207037,-0.292044648,-0.7993444536,-0.8933304015,0.7040941251,0.3089901101,-0.9681048396,-0.384558034,0.9985681946,-0.986764867,-0.8622289083,-0.703718779,0.8011902237,-0.6278080341,0.7086211812,0.3976456056,-0.4861832273,0.6345245561,-0.5065429666,0.4916999107,0.5215063983,-0.6099433416,0.8815145683,-0.9657843593,-0.026910415,0.9683998817,-0.362681585,-0.0616449468,-0.4459112246,0.9592809997,-0.6637512363,-0.1949968282,-0.1199096008,-0.4302292613,0.9184685058,-0.4304345578,-0.931014662,-0.9053765425,0.6037861147,0.4922272182,0.7763979337,0.0341083651,-0.1289662765,-0.304310178,-0.880499493,-0.9171576884,-0.6010203129,0.3928978565,-0.082185635,0.5856363877,0.8819453782,-0.7289153168,-0.2384485184,0.0976181463,0.6424717165,-0.3229280246,-0.4737853839,-0.0799469005,0.4332430822,-0.9472705873,0.8462496451,0.3888657446,0.1779026458,-0.4099081846,0.0430110128,0.5924657169,-0.4617877521,-0.5873259521,0.748051512,-0.6326012026,-0.2136059299,-0.830947789,0.0692654468,0.5819097725,-0.189204196,0.8816226593,-0.1665026668,0.9107282931,-0.3598605542,0.857981296,-0.2861744588,-0.8100377292,-0.0619420159,-0.1837635728,-0.4084428384,-0.54159053,-0.5589569474,0.6080053829,-0.4489776141,0.3627467099,0.2192238663,-0.750028411,0.6903447431,-0.2890448664,0.8212840976,0.8475868843,0.4050795723,0.5388380575,0.8509644097,0.9854252059,-0.0290206909,-0.3607081986,0.8423766167,-0.0161785238,-0.3772974332,-0.9119410755,0.5800298984,-0.8327873883,-0.260816268,-0.1108744907,0.484711571,0.3060928896,-0.4177471875,-0.9401404819,-0.671389787,0.1471206653,-0.8655376865,0.9195685666,0.2479455131,0.628599278,0.9087137397,0.1033585153,0.1725337374,-0.7732211352,-0.02932967,-0.5469349808,-0.5520106619,0.4816297348,-0.8330799894,0.2005263919,0.1443115905,-0.2685726888,0.7975025138,-0.8475090992,0.7572684165,0.185147546,-0.9578870393,-0.4777393061,0.1470216948,-0.6125166125,-0.6969561805,-0.6128694322,0.5505591939,0.2697203507,0.8973178049,-0.9860485997,0.0628452538,0.8564477559,0.4035623247,-0.0908348264,-0.1079861171,0.198071712,-0.2978975634,-0.3070950223,0.4269981763,0.0512338161,0.0554749042,-0.8747425062,0.8966949093,0.4944459901,0.285718311,-0.2825517584,0.1692862354,-0.009753765,0.9400394475,-0.3930963853,0.2646010219,-0.9231502311,-0.9580839919,-0.793268082,-0.7036859072,-0.0093558199,-0.5063580928,-0.8171987476,-0.2416080787,-0.7166178595,-0.871549556,-0.6083419182,0.3269766502,-0.9889079976,0.3239631502,0.2830276623,0.4794965955,0.1560565937,-0.0549664079,-0.8597966276,0.630875908,0.9578968084,-0.3581011691,0.0030582684,0.2829407029,-0.0751455302,-0.4572047482,-0.0234798265,-0.8839328828,-0.3226229131,-0.3205001559,0.892490094,0.6395442024,0.0282125008,-0.8962281571,-0.5322433665,-0.1272507703,-0.7915272928,0.3775029653,-0.6869128172,0.6495817063,0.3373722998,0.2450717031,-0.9379289388,0.7472428557,0.8265556311,0.4011504175,0.1056865354,-0.1107440644,-0.427665595,-0.4013875885,0.7488381883,-0.8457340779,0.6101040837,-0.6060072878,-0.4527611225,-0.7287284222,-0.0079169729,-0.7260556879,0.6154204556,-1.0112963801,-0.7559368616,-0.1997507073,0.3484103312,-0.0221025805,-0.0727503748,0.5233649049,-0.1203045962,-0.1440554155,0.9249215397,-0.363754394,-0.36184186,-0.5437897995,0.5265582388,-0.8215935546,0.7379559445,-0.4164432419,-0.6870826245,0.6741284473,0.036799522,0.6037816552,0.1639880589,0.8808069254,-0.7658017756,0.3496311985,0.227295286,0.0468488192,-0.3634524494,0.8930913438,-0.2099383537,0.9937371568,0.5469113384,-1.0036074608,0.4490380989,0.0943988928,0.6950654636,-0.8959532019,0.2940194021,0.9502928005,-0.2319995061,0.0456672028,0.3111795644,-0.713859744,0.3200659403,-0.2369030062,-0.3193872612,-0.5814144143,0.7318171413,0.3565247054,0.6898948307,-0.2216975903,0.4568285276,-0.0090560215,-0.2030359427,0.8747972346,-0.5164633453,-0.4853601802,0.985092072,0.5641994109,-0.5103843273,-0.7539982494,0.8823017388,0.0472589356,-0.8879919112,-0.1166260289,0.9721934642,0.445406448,0.4399460496,0.6240806592,0.7050085461,-0.4891594694,-0.915269986,0.813731128,-0.2323957866,-0.0798323956,0.2014331212,0.5111365987,0.2041572542,0.4610179788,-0.0143929161,-0.4373253079,0.0617994285,-0.795713341,-0.1129512722,-0.5112795526,0.2048516106,-0.9861797318,-0.8779332682,0.4839366519,-0.5366115452,-0.3009141414,0.0256496404,0.9043968855,0.3703816592,-0.5216402078,0.9382189658,-1.00377985,-0.217606963,-0.9820376321,0.4578162734,0.2453962956,0.6654972544,-0.7969331111,0.2372190738,-0.9243584685,0.134552634,-0.9301131612,0.3453762424,-0.026835647,-0.4653960115,-0.6354217651,0.4355117667,0.802389068,0.5837997819,0.7345774108,0.7876284945,0.9600878437,0.1659626336,-0.459665623,-0.5715806531,0.2940676757,-0.8903653437,0.6612884386,0.9345761347,0.9679343173,-0.7538450367,0.9121132604,0.6005740059,-0.980126383,0.6971471567,0.650220798,0.6401254107,0.4597486832,0.0305729184,0.5091466467,-0.6316035828,-0.8285135591,-0.7249697551,-0.4632466967,-1.0136549228,0.5215377715,-0.2150617193,0.0594458941,0.4104574917,-0.0799483125,0.7002796814,-0.0986835786,-0.4804751513,-0.4310250295,0.2947730758,0.282911007,0.5403872519,-0.5450587362,0.8740625092,-0.3452019499,-0.1522219682,-0.6939978687,0.1488213331,0.0980722897,-0.3119128555,0.0109888108,0.7330778501,0.3213933738,0.9212195349,0.7580485508,-0.7303583233,0.6537412807,0.7081694614,-0.9085216374,-0.2047590334,0.8165478145,0.2816312116,-0.5487798785,-0.0032888625,-0.0955109764,0.4219358141,0.8346875023,0.8082101437,0.0897762537,-0.9016012206,0.219561727,-0.6774380487,-0.2508440424,0.6644425502,1.0000726459,-0.110642819,0.233050303,-0.759204242,-0.3919584796,-0.5727822659,0.118573434,0.7867534722,0.2935637987,0.9323021283,0.3908066834,0.5886726417,0.8591710249,0.7049249017,-0.1304799419,-0.6360745731,-0.9599085313,-0.3121663338,0.4952505063,0.61168308,-0.738377117,-0.2127153532,-0.5032825118,-0.7900506272,-0.8493489943,-0.7512015784,0.9564510101,-0.2350121261,0.3451657301,0.4091659723,-0.138405628,-0.3314842904,-0.2755904641,-0.8704577903,-0.6765789576,-0.7324561086,0.8808643018,-0.6496557377,0.5775670992,-0.6270885177,0.8227295465,-0.1900148919,0.8046451717,0.4706691998,0.8308755334,-1.0090312783,-0.754166666,0.8659287056,-0.1078610591,-0.7664034585,-0.0941992926,-0.403168408,-0.776116715,-0.3062505228,0.6222819687,0.7029935742,-0.6166581304,0.5085948141,0.1014136556,0.2444474276,-0.6703500267,0.712016498,0.9218925408,-0.4867562321,0.611976322,-0.7859720304,-0.2483629508,-0.2007229051,0.5011997811,-0.8857739634,-0.1971443417,-0.6915314215,-0.8179321417,0.1585408538,-0.8323244195,0.1683129462,0.1658571088,0.5958501352,-0.82747404,0.1094629681,0.7959110661,0.4629277747,-0.3110708907,0.5203525952,0.1537630647,0.8301577913,0.0679494279,0.3803510445,-0.5006345516,0.5343861197,-0.6887919968,-0.6132316882,0.1389673585,-0.0490737289,0.5482796235,0.2434816657,0.7982561521,0.6361078723,0.7044528279,-0.0036347331,0.8680117066,0.0197175917,0.0795609345,0.731482403,0.7587278514,-0.2581804711,-0.1305980151,0.6676915225,0.9080546238,0.0078964277,0.2417216803,0.5258892562,0.5892329945,-0.8567563464,-0.4378708946,-0.2027537822,-0.1398314255,0.8177755223,0.1074124997,0.4166485757,0.8129245222,-0.5603879035,0.117822803,0.3514576173,0.9239660759,-0.6789809626,-0.7541413291,-0.7748413986,-0.4032981446,0.2465207143,-0.9685678534,0.2935273199,-0.2870258334,0.5067125714,0.9794093895,-0.5270785614,-0.2755722996,0.3124142919,0.6270116309,0.9678740979,-0.5261868242,-0.691932505,0.6868792049,0.7921625084,0.87989487,-0.4444176616,-0.2428765993,-0.5821409015,0.6015688203,-0.0138718747,0.9645545914,0.771910461,0.3294602862,-0.9888970813,0.5819717148,-0.9735099247,-0.3076039701,-0.925321432,0.4130299439,0.6184843184,-0.8971114195,0.5375118033,0.2932710589,0.8106524467,0.5513761764,0.6744778827,0.5066765879,0.637855598,0.0887254209,0.9338304569,-0.1364055867,-0.3911280742,0.0639662449,-0.5498075189,-0.0483607114,-0.2611209388,-0.3671780889,-0.7973531922,0.7722813812,0.6361312183,0.1671022213,-0.8882783208,0.7637511413,0.6870389525,-0.971714865,0.892127253,-0.8762984099,-0.6728221537,-0.6280507463,-0.0315570771,0.3533252504,-0.5852694749,0.6018379221,-0.3205165071,-0.4252381007,-0.8084048429,0.0273034762,0.217474287,0.1664906893,0.7195032854,-0.2437858814,0.943205586,-0.2262656326,0.0753990728,-0.705724222,0.4210582697,0.7745103274,-0.6313010499,0.1465177293,-0.046924653,-0.755406797,-0.3709724614,-0.1484187838,0.7718276206,-0.1145826708,0.3481183351,-0.6092774939,-0.5166083974,-0.9391051446,-0.4288567588,-0.779333092,0.7253444425,0.4196975764,-0.0108626351,-0.4169342757,-0.7550507649,0.0497719298,-0.6077112262,-0.5291955948,-0.9218728948,-0.4378100474,-0.7957701945,-0.4055857007,-0.8266597064,-0.4588920039,-0.7721577299,0.5530818709,0.1209991356,0.8537421323,0.403392621,0.7896021127,-0.5929840424,0.2638964072,1.0176169239,-0.0098863537,-0.7247108197,-0.5229958336,-0.8769186008,-0.6073659983,-0.2508772711,0.9668383252,-0.7152183412,0.4153577727,-0.9722723803,0.2755348517,0.9777914294,-0.9803462616,0.5142227918,-0.6519239135,0.8670910331,0.9218344044,0.4725757746,-0.1511555127,0.3200036764,0.8664619637,-0.7505513009,0.6825638807,-0.9183072571,0.277516587,0.6524129314,0.0589754786,0.2997610205,0.5210992531,0.5762335811,0.5252493876,-0.6342354376,-0.6109030312,0.5540918304,-0.5372898709,-0.4793385112,-0.9553348003,0.4322411159,0.2044347655,-0.3857515347,0.6584745864,-0.6983493626,0.2694461629,-0.0173385228,0.5935779056,-0.5701582781,-0.5462976527,0.8438552564,-0.2380771698,-0.5500722159,-0.5649481262,-0.0944579692,0.7447968398,-0.1085345863,0.1996179284,-0.5057488851,-0.3305281873,1.0079814426,-0.1997089404,0.9498172375,-0.8715290809,0.030337982,-0.1848974145,0.5271031334,-0.0554669687,0.4887749155,0.657047785,-0.0312107629,-0.1273760846,-0.6887980213,-0.6332804685,-0.7086721773,-0.3046835558,-0.8209676355,0.4178959502,0.5034691663,-0.0211897533,0.3376386749,-0.5812167456,-0.4913253511,-0.4226563213,0.2543739654,-0.0052601053,-0.1678433,0.1593139393,0.9501703107,0.7457322745,-0.7424071911,0.2916968748,-0.0978526883,0.017476048,-0.1060338432,0.6081315036,-0.3739335271,-0.5445268895,0.6845365144,0.4390288732,0.7198509683,0.4541167915,-0.0350567056,-0.4833248503,0.6489477683,-0.6274198917,0.6911957718,0.6145747814,-0.619029482,-0.6735741654,0.9677712849,-0.3305716106,-0.6740921358,-0.7394031172,-0.2014232326,-0.0738903589,0.9137876243,0.3194656382,0.6956011864,-0.0068093958,1.0109843825,-0.2355441957,0.5328982556,0.0614726905,0.2586914727,0.2846766603,0.6859219519,-0.5331261999,-0.4161192521,0.817281321,0.2700188379,-0.888955051,0.4376015636,-0.6975586761,0.0659269287,0.351541909,-0.4903872271,0.0883494904,0.0339943007,-0.7353128155,-0.8146320937,-0.049564685,-0.1121467873,0.6598442108,-0.2571806459,0.6712472036,-0.6020033252,0.3804106201,-0.5816705185,-0.1714513135,-0.8797198223,-0.3130798024,0.2883005944,-0.8998507656,0.767950296,0.5209050866,-0.7678740963,-0.3671961469,-0.4495110474,-0.9321073992,0.2111141407,-0.5770782267,0.1804005068,-0.4690846947,-0.7669245734,-0.347445501,-0.7676328574,0.2271820097,0.6693666224,0.740795689,-0.5786335028,0.4327572566,-0.5794941548,0.3998322713,0.3358880922,0.0193698275,-0.7988448017,-1.0187324691,0.5259349029,0.0045301018,0.5567007835,0.9042349963,-0.3141107743,-0.8655779156,0.2178985658,0.1051197974,0.4966697976,0.1020755647,0.5817612104,-0.3457201943,0.9008130593,0.9413774976,-0.2606030344,-0.5167149561,-0.6279647227,-0.4960365279,0.936190498,-0.164059784,0.9920351566,0.7875503709,0.4027651454,-0.2354372593,0.20359753,0.3909229928,-0.220827228,-0.342990196,0.6978212353,-0.8325000654,0.9304364118,-0.2464647556,-0.542256317,0.5230275859,0.5155307938,0.8052728761,-0.3242940093,-0.3054558764,-0.7237834735,0.0826264382,0.8293615737,0.5126455514,-0.9986052334,0.3377688722,-1.0289370916,-0.0516315549,-0.3371916719,-0.7366819158,0.0993858536,0.9290350217,-0.4858249064,0.1526201087,0.804151573,-0.8157779758,-0.3414338753,-0.5681857792,0.5279534509,0.6836789279,0.8374867953,0.8170376659,-0.2410990809,-0.456410887,-0.01591026,-0.3722175588,-0.3524358036,-0.7961764518,-0.5532171827,-0.8811330509,-0.3284155112,0.837970839,0.7011466409,0.5541249094,0.3643597094,-0.7653742066,-0.8319565125,0.088839627,0.0735750772,-0.610638184,0.0797063667,0.2416487867,0.0535912475,-0.9510948852,0.6332762394,-0.8826218509,-0.4014515581,0.0575869331,0.1353976698,0.4356960008,0.7152610889,0.1629073364,0.692759623,-0.5993417568,-0.2124397965,-0.0199961064,0.867945535,0.0109576746,0.1241469319,0.5676447051,-0.1270200407,-0.5833605656,-0.6306151976,-0.1688198641,-0.1811439313,-0.3130767587,0.0532985375,-0.5917347231,-0.7697154396,0.4793635007,0.6965850345,-0.827038755,0.9323239449,-0.4355978196,0.591814163,0.7844587056,0.2577884775,-0.1239300963,-0.4625156626,-0.6411827369,0.5477641425,0.5639144165,-0.5878874139,-0.9173427953,0.349442727,-0.3532315505,-0.4636295429,-0.7198339149,-0.7987433169,0.2749848628,0.0975232687,0.9871020546,-0.4208177923,0.2262685436,-0.0982428306,0.0166395405,0.8553310427,-0.2693955078,-0.7185410187,-0.5208803636,0.1627950391,-0.3687845744,0.9171568723,-0.3606411758,-0.5440186609,-0.6861973651,-0.6728028496,-0.6599211071,0.920379179,0.9669709799,0.3457714725,-0.4964045592,-0.3651070611,0.8833800599,-0.9666154376,0.2620974269,0.7764618757,-0.9365757337,0.1636393245,-0.2947965927,-0.0004546125,0.618309188,-0.3335463326,0.1785896618,-0.3333841936,0.8966509674,-0.2337117775,0.9619639481,0.3193162049,-0.7401752111,-0.6164615096,0.6400024857,-0.3507640868,-0.4901465259,-0.0182883524,-0.4319581936,-0.5394852748,-0.9400005477,-0.9265354058,-0.4182658293,0.5247262543,0.5741374159,0.0524806787,-0.3416386659,0.0941153184,0.6882756391,-0.8737933614,0.0278430162,-0.8528119498,-0.3347834378,-0.5313870016,0.3289460718,0.6146870168,-0.5687881718,-0.2907183068,-0.3607365313,-0.4537691821,0.2491213654,0.460151882,-0.4030758142,0.2019279221,-0.8284334048,0.8127351758,-0.2049008208,0.1401505034,0.0669830261,0.1790533653,-0.6214127096,0.0599274464,-0.2972563272,0.1894317211,-0.1329369129,0.3076371196,0.1369838581,-0.3437964816,-0.227490886,-0.7294889697,0.1685711013,-0.0619681055,-0.8335026836,0.833728469,-0.4818680912,0.8140618111,-0.9449891244,-0.424836312,-0.5955360754,0.6836552814,-0.6898222922,-0.5377036341,-0.9118226429,0.136343704,0.3669564442,-0.1404959977,-0.6011959306,-0.5602451265,-0.6175859254,0.3765798445,-0.8628252536,-0.7290103068,0.6392076144,0.1293322487,0.090748105,0.9779341533,0.4900786765,0.9033873935,0.7067766504,0.5438483595,0.5186737665,0.7393832808,0.881070964,0.4679493579,-0.4587298146,0.3764706479,-0.7745553071,0.2620836547,0.8999363647,-0.9834912025,0.010006357,-0.1136095327,0.2274161005,-0.8225480409,0.3269590968,-0.2099843491,-0.2174849742,-0.3873448429,-0.7996849857,-0.596517558,-0.23890494,-0.1155106011,-0.1633244192,-0.8562481323,-0.8518959849,-0.0912107122,-0.6484193311,-0.2771578879,0.5525954997,0.1892202767,0.9395519341,0.4581249988,0.1236045288,0.4549327674,0.908366042,0.4262033651,0.7685181649,0.0146761689,-0.6455947408,0.3696564959,-0.5565193824,-0.9594247889,-0.6612206686,0.525824273,-0.7979078375,-0.9764042672,0.2072269498,0.0765265964,-0.2971072893,0.6311569779,-0.4101894855,0.9871456198,0.6311956538,0.790624816,-0.6559464455,0.4329489849,-0.7690558418,-0.412651191,0.87312208,0.801978071,-0.9515445622,0.3469049213,0.3426939323,0.5497212771,0.6999186415,-0.2938075998,-0.9220236891,-0.1596248888,-0.7825722373,-0.177307166,0.2748743032,0.4737533656,0.6425634609,0.1905360598,0.1231608789,-0.422566829,-0.0497895809,-0.8129307018,0.9036666302,-0.6566741789,-0.8771965159,-0.5024148762,0.7275495813,0.1333612925,-0.738950578,-0.3599906475,-0.2746239064,-0.0204960307,0.0619862922,-0.8068168548,-0.9836064332,-0.1628568933,0.3926372497,-0.29002574,0.3711369785,0.6273989616,0.6159938935,-0.4751371257,0.2953308355,-0.3711663247,0.1519554628,-0.0262281864,0.129059401,0.8363455765,0.3292632476,0.679187116,-0.5560717726,-0.7128157944,-0.5377761068,-0.6967065648,0.2946111576,0.6884265337,-0.3464565579,-0.0243150895,0.1668186037,-0.695917813,-0.6555008878,-0.4089408808,-0.4176197002,0.2801833589,0.005514389,-0.9496411465,0.5989981406,0.4470343557,0.7129762554,0.1366904581,-0.4267972982,-0.2230580784,0.3373981364,-0.7471950118,0.4321362497,-0.172761454,-0.7710446612,-0.5550224123,-0.7462003003,-0.2111604776,0.6028180709,0.1223669185,-0.5533541179,0.8445365387,0.2978751016,-0.5292170631,0.3029077722,-0.1508070986,-0.4047508829,-0.0946812806,0.033096902,0.1371341658,-0.0584264117,0.558960374,-0.2454875434,-0.9082804222,0.8817711113,-0.6746428201,-0.1393999311,0.9428865831,-0.4543607908,-0.6135142948,-0.5717658888,0.3049588644,0.8131150083,0.7933876129,0.3674919326,-0.0011688139,-0.3153503218,0.8345601879,-0.5595296573,-0.1599630665,-0.3056940803,0.9303237955,0.4085890774,0.0623011987,-0.0087610864,-0.3668485761,0.782552215,0.8035926489,-0.9404619121,0.0049168497,-0.2126324862,-0.7923837474,-0.0898998701,-0.6011839003,-0.0788317367,0.0298772034,0.9484418015,0.7486098796,0.0533091255,-0.962474847,0.755246455,-0.6519630413,-0.2055238265,0.7379422785,0.8757598898,0.4692493779,-0.7503625304,-0.0966496221,0.4940694274,-0.9146251733,0.552662371,0.3459408808,-0.3869368692,0.2565520145,0.7394303151,0.5923208209,0.8221616282,0.2080027777,-0.6413615402,0.1199485494,-1.0102055453,-0.5791557604,-0.099503344,0.126882419,0.3293648753,-0.3603965452,-0.3529222161,0.1635893695,0.9723281537,0.5188417232,-0.7532514573,-0.1986348348,-0.7960436215,-0.7616192392,-0.676480006,0.2703045195,-0.0627880014,0.2280266751,-0.1467750117,0.3545378065,-0.1800500357,0.4888326557,0.2787654765,0.7189795184,-0.2913161688,0.7227587735,0.3693131842,0.2162253546,0.0466875734,-0.4015565037,-0.4177507684,-0.5861254306,0.4066489824,-0.5435693746,-0.805322068,-0.7070016679,0.8939035896,0.1422741024,0.989790237,-0.256775784,-0.4636637698,-0.3445263247,-0.5460635635,1.0005935091,-0.0812759644,0.8582092918,-0.9046386004,0.1484730161,-0.0980302991,0.8683931869,0.4550745232,0.8657782057,0.6076314755,0.2858593317,-0.7125608608,0.6039372216,-0.5776755234,0.1762493862,0.3933894073,-0.9142913737,0.0328597295,0.4272075589,1.0028427527,-0.7887092999,0.4136927452,-0.4095902683,0.3115512814,-0.101531529,-0.5232270679,0.5738287751,-0.4380330106,-0.2310813222,0.7090837421,-0.5069218168,-0.548187512,-0.2728689178,0.4833289694,-0.4054841543,-0.3304162174,-0.4976918466,0.3528826245,-0.0689818467,-0.6541936347,-0.7429317647,-0.7565757838,0.7790952937,-0.6403718684,0.9551849795,0.6258299272,-0.7687941923,0.4738564951,0.4724017039,-0.0176693849,-0.4368461358,0.5476748977,-0.9221018838,-0.8236308887,-0.7819403803,-0.1188578018,0.5577883394,-0.1513102697,-0.7097011069,0.8316812645,0.1650140604,-0.8895744269,0.0980859584,0.0594905416,-0.1816438422,-0.7964291846,0.6659306586,0.201769951,0.8046230303,0.1368308361,-0.1870536422,-0.7917543632,0.2551598605,0.27881824,0.6128640763,0.4726443021,-0.5696540084,-0.6243073808,-0.7591349975,0.7582799265,0.495731466,0.8296311117,-0.1911763209,-0.088228881,-0.2469834426,-0.4798188869,-0.8524124339,-0.712484317,-0.5197284513,0.3208318227,0.7802590373,-0.3762659955,0.8761759806,0.2832451362,0.1648326281,-0.8105780835,0.3017840729,-0.3295548067,0.4769274189,0.0491931589,0.8161701603,-0.0077731314,0.6399194131,0.6184198039,0.0039035553,-0.2778981382,-0.7404485049,0.871568253,0.6039328692,0.9710330188,0.6895631391,-0.5905699871,0.9848656714,0.910416627,-0.7616308689,0.8171496599,-0.0869926214,0.1180133151,0.613120554,-0.2915310949,0.5699251596,-0.2902006168,-0.2056700343,0.6481262772,0.6153069296,-0.2526867936,-0.2506926761,0.8076565906,0.5035827519,0.8740993042,0.2182550839,-0.5917027277,0.99487619,-0.6354646072,-0.3631115352,-0.9581183112,-0.4161445436,-0.5908883112,0.9630569468,-0.2135579432,0.8188832898,0.3270589241,-0.3841026622,0.2988087076,0.7257187301,0.3297050299,-0.0926579881,-0.5364703847,0.8664932635,0.6653779915,0.5710143243,0.9965090445,-0.0965875399,0.7646193181,0.1351897793,0.5442982319,0.6100437185,-0.4152558229,-0.7392626899,-0.7741635378,0.9872585579,0.018312204,0.7338405856,-0.4190818246,-0.7067775195,-0.6116314966,-0.0194313637,0.1138747851,-0.3273734529,-0.1209749009,-0.9416206938,-0.30609836,0.1232481535,0.3771787145,0.9320147864,-0.0328642799,-0.1076512874,-0.2013799981,-0.0202803143,0.0900106352,0.3848965539,0.8857964206,0.3911683065,0.3291850171,-0.8804614421,0.8987858195,0.4128252036,0.9665607583,0.8107535716,0.8413102143,-0.8316997259,0.6013348319,0.2895433851,0.4913986619,-0.1977245361,-0.4378954705,0.5909885666,-0.2862680068,0.7549322177,-0.6146845604,-0.8809127225,0.4274626739,0.1096708975,-0.3704724443,0.4107789319,-0.8372722799,0.1987361602,0.2328081975,0.8232215246,0.980381121,-0.0451826774,-0.3281784401,-0.1587669977,0.8721985379,0.665183298,-0.2505792595,-0.2990384704,-0.4251329312,-0.0600466646,0.2165768429,-0.8435122889,0.4864933639,0.4974128376,-0.2996022267,-0.1530007491,0.128038764,-0.63071978,0.7582275938,0.123439036,0.66810822,-0.4504090606,0.7656613933,-0.5122258451,0.6802755609,0.7130678895,-0.6751761998,0.6050752382,0.3334735818,-0.577812746,-0.6991609543,0.6260719622,-0.7287701005,-0.5930961758,-0.6885443154,-0.8894980143,0.9745132847,-0.2313716218,0.469732859,-0.3556595587,-0.5085271013,-0.1032475576,0.6212064044,0.6017522634,-0.3298124004,-0.1802123491,0.9962356892,-0.7803474432,0.5566908282,-0.5548153215,-0.9064876992,-0.5945569427,-0.2786318073,0.6048564399,0.5034665346,-0.7873836409,0.8967324237,-0.6205357532,0.940730079,0.9511930052,-0.922298193,-0.9296953623
