encog,BasicNetwork,java,3.4.0,1,63716592937003
[BASIC]
[BASIC:PARAMS]
[BASIC:NETWORK]
beginTraining=0
connectionLimit=0
contextTargetOffset=0,0,0
contextTargetSize=0,0,0
endTraining=2
hasContext=f
inputCount=57
layerCounts=2,88,58
layerFeedCounts=1,87,57
layerContextCount=0,0,0
layerIndex=0,2,90
output=0.982630095791708,1,0.037335265918681,0.977976063909435,0.999999998961887,0.349644015419026,0.99715858811447,0.981821165181489,0.999582349478144,0.0488850548238286,0.846795437393889,0.785656276340353,0.999657252418845,0.509062594766615,0.000345591421854058,0.0233435207874126,0.831179366429812,0.578666476050911,0.994630098393436,0.308789153333181,0.629340803129425,0.997214912258031,0.395515260724069,0.022725561499509,0.997768510174909,0.954651832264963,0.0104734439984415,0.999993278695149,0.00321548354767475,0.162905437192653,0.000971099850691668,0.908744077602578,0.994957900497993,0.00743961666497526,0.695251996644865,0.624461698465627,0.998390617288233,0.999998832547689,0.467675629722357,0.999999999995741,0.00000515239186502643,0.00352734769652551,0.989992156676371,0.999086562950567,0.999994422698694,0.226675947798995,0.460765461090162,0.000677371054323682,0.000721442417785207,0.997038486919801,0.392702006727255,0.608538072750614,0.0000679638862774261,0.645625730560839,0.924744001666152,0.97483784794276,0.943789495546623,0.0372534710962033,0.126888055174918,0.235649934423091,0.909002008120026,0.00000234923121415303,0.988037254086592,0.000480386364017774,0.999912226951228,0.354526336562173,0.844889393157712,0.000238960082532528,0.843881094221279,0.339806439891546,0.659993415938337,0.797004382850563,0.083618350128677,0.2910116934463,0.999763154284905,0.389620800683597,0.596688443466022,0.0540544578487182,0.926341064761909,0.999507280483841,0.17343340929628,0.00109461846166967,0.999682715529662,0.190317432370301,0.00909138494225905,0.113493025463033,0.235402533230883,0.0577388701976151,0.379559749995704,1,1,1,1,1,1,1,1,1,1,1,1,1,1,1,1,1,1,1,1,1,1,1,1,1,1,1,1,1,1,1,1,1,1,1,1,1,1,1,1,1,1,1,1,1,1,1,1,1,1,1,1,1,1,1,1,1,1,1
outputCount=1
weightIndex=0,88,5134
weights=##0
##double#5134
   -1.807916121,-1.0443366995,-1.0735916593,0.970261833,-0.638981753,1.5785486573,-1.0626261433,-0.9423676097,0.5202027577,1.4556687321,-1.4008464863,-1.4645657949,-1.9979301718,0.0839977942,1.783426258,-1.5411116353,0.80410218,0.8231420341,1.4397928035,-0.2377633263,2.1758712881,-2.0629830369,-1.1303342692,0.5029487461,0.7917782636,1.1198623888,0.5867088249,-1.449487299,-1.1199290938,0.5728522944,1.150612211,0.6878326349,0.3147603748,-1.6418732713,-0.4348895594,-1.4601703365,-1.2645118364,-0.8281215708,-0.2317684998,0.0463718793,2.8773389962,-1.1108810605,-1.0714540191,1.4190544043,2.1815323518,-1.4886301815,-2.9807787109,0.0455767225,2.1819116806,-1.8125790771,-0.0312873462,-1.6709543372,6.1975701772,0.8589136978,1.0301677619,0.56850873,-1.6891986271,-4.7984142207,1.9462163872,0.6333118103,1.2373203129,-2.0179020149,0.9470304603,-3.2350762484,-2.1617641541,-3.0614403369,1.902312303,0.9108815159,1.2814062988,0.9004736954,3.2950597878,-1.1957900075,1.098941126,-1.5933155694,1.9541938553,1.6641171315,-3.0516084555,-0.8311542713,-0.0806111113,-1.6774898856,1.4447220382,-0.509250368,-2.2098213245,0.5425600909,-2.2699869889,1.4991634104,-1.4224700668,-4.0688004181,0.065825138,-0.2576464047,-0.4592431638,0.1140799232,0.4270126931,-0.2124644869,0.5889043483,0.1538211225,-0.1591881501,0.4216591544,0.5464094647,0.9456475841,0.2693914773,0.2991087757,-0.5931482939,-0.7693731144,0.2384477351,0.0496755512,0.0871523541,-0.6465915911,0.4031062193,-0.4199628559,0.0851439324,0.0672196367,-1.3795981365,0.6323948825,-0.1862007559,0.2664557908,-0.178205223,-1.435089989,0.1773302242,0.1116980634,0.1059373179,-1.2434012364,-0.8869178843,-0.6525680934,0.0693968673,-0.4460346144,0.0192654305,-0.1161417939,-0.0775478946,-0.4755925585,-0.1663499204,-0.7154183593,0.5782479179,-0.5427382591,0.1912658923,0.0143001253,0.079286324,0.3539145885,0.2924456221,0.1679218293,0.4042196065,-0.2045512181,1.1092768439,0.1055969962,-0.0166886672,-0.4505371827,0.6427312414,0.1952587298,-0.2700084764,0.3899220434,0.1451222537,-0.3841285053,1.1857155311,0.0106018821,0.5577797938,0.7107616862,0.1305750946,0.0062141764,0.7113268659,0.4013970331,-0.1333777923,0.7632440593,0.4928304615,0.4821757555,-0.2634851413,0.3185718783,-0.1994399292,0.3556787963,0.0559673362,0.3438462864,-0.4816688795,-0.4867686396,0.3742235987,-0.875247187,-0.8735428415,-0.788759168,-0.2594172784,0.6188119747,0.3171281613,-0.5063641906,1.2326350133,0.4527299671,0.4597494554,-0.9940226549,-0.2219752775,0.4752656574,-1.1742479232,-0.8674059412,0.3353221758,-0.7321238172,0.0395529459,-1.0122681432,0.3977076052,1.262688189,-0.6045664149,0.6305796358,-0.3786717461,0.6988120201,0.1939223669,0.162453778,0.3562479783,-0.3668167046,0.6929591585,-0.9334179156,-0.0175468609,-0.636724819,1.0918869632,-0.1798959706,1.2946121219,-0.5797834543,-0.1123537876,0.6470301207,-0.9857098948,-0.047939054,0.5242777423,-0.8449322336,-0.7299007613,0.3019477125,-0.0997381427,1.5153561156,-0.2633671157,-0.445163954,0.035856429,0.269104525,1.5359724289,0.3182539342,-0.2846753661,0.8326447775,-0.5036500921,0.1425117935,0.6850242355,0.3796099861,0.4613457401,0.4463852445,0.9191978137,-0.2060179823,-0.1999914429,-0.0864630248,0.8326450493,1.7136112796,0.2571828882,0.2802538921,0.6237276994,0.8212889311,1.2403816583,0.3714633971,-0.0855800769,1.2977430619,0.7536693406,-0.4713914915,-0.161522268,0.2357324909,-0.0969862577,0.329889772,0.1327078208,1.0196037737,0.9412673077,1.3615479284,0.6200775433,1.1127832844,1.1140582053,1.2644202843,0.2077960549,-0.9116392844,-0.1179413727,0.2898782208,-1.4299453044,0.3662771624,0.7573657638,-0.5922299543,-0.0654080958,0.4999546296,-0.3708907834,-0.4278121773,0.41182961,-0.5080667467,0.0921507115,-1.0917437133,0.0681479112,0.6843654575,1.6885136304,0.6851872576,0.9897673424,0.0946181334,0.5067425146,-0.9401386642,-0.8320566848,0.1505975002,-0.1447557688,0.3673649683,0.2387272188,0.2440589192,0.6513381333,0.1860388301,0.5500355437,0.4252962026,0.2612580342,-0.9487414623,-0.7908526615,-0.1840528198,-0.4897586522,-0.3633854762,0.499482332,0.1156620415,-0.2563097823,-0.9561661419,-1.0369595674,0.4203224167,-0.387391246,0.5837968678,-0.3895533705,-0.4943867062,-0.5345186683,-0.541208924,0.0225844954,0.770250932,0.6032781956,0.7847922302,0.733828617,-0.7663033783,0.8176913738,0.6595577592,0.1029479523,-0.3449300543,-0.8421318733,0.1818662545,1.3828348643,-0.1991675078,0.2713720472,0.4908772852,0.358299127,-0.2127516863,0.5143006151,-0.574966747,-0.7304382114,0.0550332324,0.1310155859,0.5621691326,-0.803668532,-0.8410024425,-0.1057165499,0.1183612179,0.9343183523,0.4333664458,0.8660920889,-0.675772935,-1.1285050284,-0.482625012,0.1318274027,-0.7314921138,-0.2955322266,0.4870232366,-0.1507954957,-0.407406118,0.7627062395,-0.3132382006,0.8866495387,0.4297769061,-0.4421178016,0.739779948,0.7433008965,-0.073938214,0.2144608117,0.4347715085,1.1102200583,0.0418334982,0.8550130163,-0.4921733774,0.2246803936,-0.4023817363,0.4578573408,-0.6813331313,0.4879130075,0.1899049327,-0.6139772744,0.2801121775,1.2701802528,-0.2210083349,-0.5686545161,0.0384881513,-0.2099720347,0.3988452604,-0.0615852038,-0.316308851,-0.6788160387,0.2199138547,0.8055411243,-0.4696188379,-0.0237516144,0.0363149863,-0.171117068,-0.5510454795,-0.5140104831,0.1113802662,1.4113273541,0.0386202997,-0.2124929801,0.85121883,-0.0751882599,0.2137315459,0.2289023852,0.526345574,0.1091682136,0.5682128833,-0.2854519389,-0.1401552335,-0.3240440047,-0.5598099764,-0.2360146916,-0.3015020968,-0.5623078365,-0.8363420297,0.9012770916,-0.5446712462,-1.4395505221,0.0017760154,0.2706268287,-0.141628898,0.6600999709,0.7399297262,0.6983717942,0.3038423522,-0.5370566879,0.9346050995,-0.1758148943,0.3002396578,0.6243603898,-0.0360537696,-0.4816747066,-0.5174163695,0.6100266089,-0.4287441603,-0.169987947,0.5793031491,0.7729125218,2.6040580051,0.4308757631,0.6286010759,0.871771373,-1.2405862117,-0.3871507154,-0.8086228264,0.9846906276,1.2267053543,1.1822047479,-0.0858851419,-0.4893429268,0.2296149368,0.2213721902,-0.2321610754,-0.7589799539,0.2508912423,0.2519463508,-1.3879930551,0.4264094699,-0.0160171539,-1.3693177852,0.6696715472,0.5346779658,0.412721905,0.3406824572,0.4758212614,0.0458759629,0.2240419904,0.2283352726,-0.033883356,0.9164916861,0.5304885469,-0.5806884343,0.533476095,-0.2149650886,1.05478554,0.2651528128,-0.3785853738,0.1747462885,0.680449293,0.543226719,-0.2989012578,0.3766123844,1.2382670419,0.0559858576,-0.0358651518,-1.2071144981,-0.4822935589,0.627640775,0.2739681217,0.9734406541,-0.5881877524,0.036496376,0.3965244877,-0.0011799631,-0.1780296718,0.7376581228,-0.497687605,-0.6731582138,-0.6864902993,0.1410897907,0.8801229609,0.0798009665,-0.7558630719,-1.266197158,0.2643567741,-0.8532433141,0.7578599134,-0.3512566907,-0.0926887546,-0.0645092469,0.3920603156,0.0700244318,0.8581272918,-0.1591701916,-0.3633216776,1.1020509581,0.123614793,-0.5218500382,-0.5794418817,0.9890557184,1.0897088763,-0.1177917208,-0.0203060153,0.2689999811,-0.5406998208,-0.0697599066,-0.0794076088,-1.5260721876,0.6875203081,1.1736178293,0.9771590715,0.3593795573,0.6707370314,0.53607546,-0.1750820909,-1.2492189561,-0.4002954115,-0.4221345002,0.8194354836,-0.4898922482,-0.4091763422,-0.3177667803,-1.2184063694,-0.1061857376,-0.6109843827,-0.1554466128,0.818853894,0.1905686828,-0.009747609,-0.2596061888,-0.4249327351,-0.2241694506,-0.3532425259,-0.352794738,-0.3181692869,0.8987526968,0.8050741442,0.5279780449,0.2349078671,0.6858788068,-0.462907117,-0.1784100019,-0.1986730139,-0.7376212846,0.6041397218,-0.5583481823,-0.5452407589,1.0549734756,0.9154421663,0.6519859247,-0.3423127077,-0.3345576003,-0.4723247703,0.5453686065,0.728789667,-0.4454163712,-0.7233959867,0.226601902,-0.2385384824,-0.2276987899,1.260558679,-0.2499712281,0.1559623471,1.1533825639,-0.9764116315,-0.9083733209,0.1300144935,-0.9435696024,-0.4882249092,0.4331679323,0.1141435837,-0.2858279817,-0.215286278,0.0798816426,-0.7737470783,-0.3715114018,0.2842412668,-0.7997136966,-0.0893188985,0.2155577239,-0.2899392292,-0.4236733107,-0.0972547089,0.1112832048,0.1178969879,1.1924583849,-0.4103847729,0.8991696103,-0.5487401914,0.8511637811,-0.1342421089,-0.7501591267,1.0524741676,0.0845381258,0.5975773279,-0.1638328335,-0.0651794407,0.784536705,-0.2136580797,-0.6845970997,0.3115694091,0.8461090273,0.1014368861,-0.0925831777,0.2519859486,0.3067337683,0.9026667634,1.3314087852,0.9722108085,0.3154232491,0.2374051876,1.2619001579,-0.2311153934,0.1223729104,-0.4355121281,0.1449379241,0.0628161004,-0.2687608808,-0.9236946075,0.7274873673,0.0135991323,1.4957690703,-0.5439976629,0.2434489616,-0.4572225952,-0.7727210188,-0.7764372589,0.8650483104,0.3207654357,1.0401701703,0.1840453736,-1.1363389926,-1.0291274668,-0.1322371599,-0.1041604812,-0.6899061864,0.4031888015,0.5752897855,-0.2430719533,-0.8491670253,-0.6682506304,-1.3426929657,-0.3322494628,0.3151610549,-1.2754947487,0.5913273979,-0.1090118873,-1.6376088223,0.6304539796,0.0817769064,0.3538370545,-0.7405781222,0.5471257759,-0.4471933086,-0.2132593373,-0.5143089437,-0.202305834,-0.1363158772,0.6093262135,0.058664788,-0.6665141002,1.1586384807,0.6089458917,1.071958905,-0.9330638811,-0.5039282308,0.1470452477,0.0405946592,0.2024770897,0.3232647505,0.8438165566,0.2331175709,0.5501214025,1.09577487,-0.4158437171,0.3860517701,0.0649038151,0.2908833974,0.3768730922,2.1071504778,0.1817617417,-0.5000794654,1.2285989175,0.6015416266,-0.6266745768,0.0605203217,0.9318107461,-0.6192053536,-0.1040304502,1.1546408772,0.1660221861,0.3835250196,-0.0428568678,0.0416503909,1.0115335421,0.7158480327,0.7305855672,-0.7135017922,0.1292670801,-0.4386582351,0.4442230882,0.2806785853,-0.2787533032,-0.5766416717,-0.561198402,-0.8487985054,-0.7597269792,0.7872069309,-0.7446570281,-0.8010101114,0.2663466873,-1.0347378453,1.0182265117,0.4968884568,-0.428095948,0.617202297,-1.127171268,0.7762618858,0.8873901813,-0.282031883,0.0346336185,-0.2885023785,0.0313867655,0.2664119284,-0.1402313788,0.9151693683,0.3317333542,0.9849477918,-1.1510117392,-0.4801455399,-0.1120857091,-0.128259778,-0.4432438262,0.8705966043,0.7839665612,0.0498112814,0.2738316834,-0.5485305314,-0.7250409407,0.504177482,0.3399869592,-0.0428615956,0.1273657211,0.3030707552,-0.2266282884,-0.0250159449,-0.5299480679,0.0869061872,-0.9400339624,-0.1953073732,0.2563275969,-0.3149825486,-0.7338648855,0.1809341105,-0.0341229859,-0.4837087257,0.4186510322,0.3825578699,0.1591919104,-0.7635640337,-0.3167060324,-0.3425158443,-0.0141351256,0.9393774379,0.7590839855,0.4653964336,-0.8388659462,-0.1619518009,0.659149358,-0.4802561705,0.3580895957,0.3911757748,0.3644104224,-0.5559693852,-0.5166293816,-0.0613263805,0.0108080908,-0.5741019105,-0.2401992414,-0.1293042146,-1.7484813857,-1.175662342,0.2901598683,-0.7291315886,-0.0442483527,0.0329268376,-0.3947502247,-0.2107122429,-0.1660570482,-0.2107766857,-0.1865381084,-0.4143628134,0.0784029367,0.7301015361,-0.7764404399,-0.2745963217,-0.6537447508,-0.0341684265,-0.3702751071,0.3727051009,0.2218334279,-0.4413845682,0.350407001,-0.6213971538,-0.0468213968,-0.012552933,-0.186088749,0.1350056603,0.4549126236,-0.2010993438,-0.0149351084,0.231609165,0.0396692323,-0.0016277653,0.140433334,-0.3750583192,-0.3512586105,0.5308770561,-0.0216297183,-0.1658491936,-0.1133730097,-0.2539492426,0.6251134621,-0.6521538743,-0.4174028295,1.1716937051,0.0914699155,-0.4977209994,0.0780302332,0.8092447259,-0.050298291,0.2698254176,-0.4040075461,1.3676135656,0.7425902016,-0.3993329042,-0.18207738,0.5606605768,-0.5957131708,-0.1680590875,-0.348981191,-0.3293245764,-0.5240255066,-0.0955237203,-0.0366323839,0.7733214398,-0.001707349,-0.5140682674,-0.473398017,-0.1091417968,-0.2001671979,-0.2513234441,-0.4975239413,1.2941479867,-0.1487552985,-0.8480172405,-0.8146292587,-1.0105933507,-0.3182058982,0.4684256187,0.027847701,0.1795291526,-0.6201924411,-0.5674016599,-0.064673058,1.0586421753,-0.6533007787,0.8430771916,-0.4935128326,-0.4977976526,0.6568376659,-0.2221338024,-0.8629367409,0.2088088798,-0.395457003,0.2502489554,0.8443333207,1.1078147625,-0.6574113604,-0.6247636655,-0.705244005,-1.1100258332,-0.243771691,0.1659396136,0.1413170349,0.5412049419,0.5309751036,-0.6853173438,-0.3140407842,-0.0841649249,0.2049935331,0.3293374359,-0.1018734164,-0.0338166289,0.0940038346,-0.1950045733,-0.3099670578,0.1689559574,0.2796823778,-0.5293865734,-0.3170716619,0.2408669088,0.4341177584,0.388049517,-0.0148836453,-0.2656299371,0.5484875703,0.4301451407,-0.6293641921,-2.5292269257,-1.8652264217,2.392861526,1.2647529764,0.7443353936,0.4960926374,0.0600553637,0.3680531335,-0.2636572257,0.3970006671,-0.5886938934,-0.0670392146,0.245787983,0.5862367179,-0.1716181136,-0.2974736733,0.2603011545,-0.5042460849,-0.6598368875,0.4636965441,0.5901241392,0.0407176765,0.1519498512,-0.031130871,0.717663068,0.1575841138,-0.3072403859,-0.2332046507,0.1150776983,-0.2337692082,-0.1025263634,-0.6202123988,0.3031879598,0.2627238624,0.2112746724,-0.0379191949,-0.2149643427,-0.1382006311,0.403737413,-0.0160463937,0.1725027667,0.2579933303,0.6689819718,0.1042265452,0.3306283459,0.3859984776,0.7405541535,-0.08361178,0.4214939064,-0.5041889997,-0.8344750471,0.2913346491,0.2856688257,0.0406994546,0.5332332131,-0.8461198047,0.5554032085,0.3255899765,0.2751152664,-0.7246580482,-0.3359041123,-0.3165789077,-0.2261371315,-0.1474117855,-1.3805873455,-0.5325961912,0.4934961277,-0.0194540303,0.1708927101,-0.6786940889,-0.1204195843,-0.4558502528,0.201058841,-1.4341316604,0.4450685702,0.3493819788,0.1654892033,0.1291004036,-0.6904988283,-0.2951754951,-1.0189531441,0.6114459083,0.0500827778,0.3736488981,0.0565942632,1.4272248629,1.07607953,0.2287436366,-0.0047285157,-0.973618342,0.4142440572,0.1895559484,0.4745459011,-0.6425756298,0.1637690336,-0.5272452888,0.7075097629,0.5896507355,0.1802007622,0.8338165017,-0.2239918098,0.8487258012,0.6982372049,0.6019559055,0.2978312551,0.0117057392,0.0136079623,-0.1919373053,-0.7028299943,0.024751408,-0.0703670604,0.5852783389,-0.8474976995,0.1940124011,0.261168922,0.2011370315,0.9418015693,-0.3686579761,-0.3312536172,-0.0986103417,0.0339760431,0.0634400851,0.094659327,0.6159551763,0.1436868743,0.8632284897,0.6717003653,1.089527112,0.5137238314,-0.7952052588,-0.7381589932,-0.1995839596,0.0031378943,-0.1482030956,0.8099495341,-0.1482916934,0.0068885539,0.4051176128,0.421078667,-0.6614383433,-1.0099301417,-0.8937964102,-1.1940487883,0.5427520435,0.2918521238,-0.5911391705,0.2350639785,0.5673649655,0.1062992313,-0.0466071273,0.5362058523,0.7182943821,0.7061999515,-0.0190649572,-0.6838778448,0.6686097605,-0.5053340365,-0.8586544871,0.3091155171,0.6870391677,-0.6194449394,-0.7758551493,-0.4950623794,-0.1219728827,-0.4773854601,0.1114775119,-0.5667246866,0.6740772475,-0.8621466583,0.1684856725,-0.9081565334,0.9919562269,-0.0125205304,0.6823121759,-0.9609046398,0.2349913885,0.7639208505,-0.4549899524,-1.4256558593,-0.5410747541,-0.1748336682,-0.6516116155,-0.9670916654,-1.0380827827,0.4233341741,0.603529507,0.1924383701,0.6120343621,0.9936443414,0.9678265934,0.4217681023,-0.4559982636,-1.2730480558,-0.2913311992,0.8990218996,0.6413718251,0.188323393,0.1027959825,-0.4515423877,0.6338221364,1.0044861591,-0.4267291345,-0.421028543,0.3174415777,-0.81407025,1.135652311,0.9585917843,1.0244654209,0.7335397861,-0.4479077173,-0.2475809294,0.3885715168,-0.2325065387,-0.2554465309,-0.3485640288,-0.0488116468,-0.5301759395,0.7344643826,-0.2450339439,-0.2450659828,-0.5100268412,-0.5359277418,0.0926177286,0.2968025743,1.4281147229,1.9512634285,1.6620255568,-0.2786005063,0.6156731682,-0.6972496327,0.5520041505,-0.0553574702,-0.7172568582,0.7980057456,0.4664670059,0.9745199055,0.1413726901,0.0114220931,-0.4844037568,-0.4904074351,-1.0044000134,0.0358769049,-0.3097560152,-0.4287804704,-0.0343851159,-0.7606618213,-0.2471038843,-0.4748271002,0.4779990613,-0.7896895243,-0.8997141884,-1.4409859669,0.2013074587,1.2447315881,-0.0972917794,-0.2521006287,0.5074842268,-1.0211922176,-0.0740693539,-0.2315973,0.309051933,-0.9120806382,0.3683954509,-0.095000125,1.0827673428,-0.1518925855,-0.8152468195,-0.717306188,-0.8155609559,1.1614675644,-0.1001595573,0.1879989727,-0.0940160547,-0.3870879961,-0.0773807446,0.1841582392,0.526579608,-0.3994484954,-0.9246621636,0.4027062936,0.0955325375,0.37071767,-0.7636584445,0.8155131139,0.8315783615,0.8625125518,0.4701273393,-1.3220361739,0.5473236807,0.7370036705,0.106265891,0.400474445,-0.3768451166,0.3007674887,0.0365931397,0.6969282532,-0.699983542,-0.1929296527,0.6607104967,0.0575989752,0.3008405006,0.8114679306,0.0762593405,0.5886116939,-0.3677554608,0.6050765436,0.137561724,-0.9723313105,-0.4094920167,-0.6399268535,-0.2374892573,-0.1798358306,0.4007422149,0.0332279668,0.6403694157,0.5534437943,0.177669215,0.6662852661,0.5468705007,0.5423221159,0.3135553469,-0.4037725372,-0.0469265237,0.1187199333,-0.0837882562,0.5126312233,-0.0098345664,0.6521560305,-0.1332244093,-0.3944796333,-0.4508166307,0.1158073659,0.8377571158,1.3660249242,0.7858826063,-0.1733152125,-0.1548948795,-0.3559005713,0.2381205945,-0.2200427814,0.1840369077,1.9081885544,0.9516150708,-0.1950551432,-0.0203617654,-0.2474510942,-0.0436727754,-0.0032653406,-0.3373845709,0.0114587563,0.7245491769,0.0400563547,0.0920664243,0.379783968,-0.0687874652,0.5284801937,0.0373639319,-0.0132546847,-0.2993150767,-1.9350717504,-0.3169818429,0.6322246685,0.1415874905,0.1840332411,0.8238533657,0.1861295358,-0.3525072467,-2.0240859502,-0.6855269947,-0.3832039138,0.3092122099,0.3182499589,-0.6501442227,-0.8980322302,-0.113913754,0.3539424222,-0.3328974214,0.1131958618,0.4082349359,-2.4347601995,0.0050818939,0.3307282177,0.1224311273,-0.7972831678,-0.2725756662,-0.2861023313,0.4396856831,-0.2161747092,-0.2811626783,-0.4193169391,-0.2420380887,0.752863881,-0.7794186025,0.4662190893,0.7289564274,0.5155989883,-0.479778401,0.9484232209,0.6107091467,-0.3810841106,0.2156542589,-0.0520124825,-0.1023209345,-0.2174737702,0.6566756617,-0.4338306982,0.5567514528,-0.4883347672,-0.4683254338,-0.4351076237,-0.1288705406,0.2215248235,-0.2344391997,-0.1119717949,-0.5492174243,-0.4360360757,0.0883116083,0.0988137884,0.3944460425,-0.2375394924,0.5991333922,-0.127212197,-1.4139652212,-0.1058868522,-0.2855879877,0.1769645691,0.2078686341,-0.3702966076,-0.3084446397,0.2430778036,-0.1980700289,0.0862889554,-0.9924706451,0.342762883,0.237280952,0.0818315449,0.0475234346,-1.0849893989,-0.6015056396,0.7509881837,-0.4005420901,-0.4571822944,-0.517936445,0.3934044554,-0.2339533995,0.5725356072,-0.8090187367,0.2325768144,-0.1229409995,1.1828437473,0.4280149393,0.103576377,0.3183344362,0.4001826129,-0.3545846335,0.1259614175,0.8162221842,0.3085166633,0.4165100209,-0.612013086,-0.4575920368,-0.0058764667,0.1751261471,0.7958340905,0.8498735114,0.344904279,-0.0702051061,0.9233723519,-0.4384030846,-0.4376900454,-0.8593555037,-0.4318982276,0.8553416163,1.3383548025,0.2916400304,0.2972754705,-0.3808656467,-0.9275378717,-0.6146303117,-0.2327426649,-0.525049095,0.9639347826,-0.1021108487,1.1282698956,0.8769889539,-0.6368324057,-0.2495937757,0.309343188,1.2188868877,0.1880514872,-0.0735702086,-0.0245396792,-0.5714641857,0.0916577674,0.7740403745,-0.2203419789,-0.0378350676,0.7334385801,-0.3029661584,-0.5283852113,0.2908273664,0.8427627559,-0.5799931828,-0.0288221355,0.995161845,-0.512490924,0.8534461412,-0.2409680838,0.983021011,0.1059795218,-0.5299079752,0.8897713161,0.3052328359,0.561120335,-0.8604292895,-0.6606470288,-0.2065636073,-0.9819257214,0.7814565958,0.6696769985,-0.3213626784,0.8537722553,0.8405437964,-0.8523305213,-0.9312983109,0.963839659,0.9805312288,-0.4163725665,0.4701928934,-0.2265912571,-0.1800640428,0.6072053029,0.7979088329,0.5643824881,-1.137026488,-0.8514006372,0.8713086788,0.381937816,-0.5742760134,-0.9879674298,-0.2287417082,-0.7486038539,0.4475059802,-0.9655579113,0.1764708392,-0.8178601252,0.4751532704,0.3499556082,1.0174079128,-0.1067321017,-0.7897542207,0.1603235307,0.7184971168,-0.0355490999,-0.5333818146,0.0415169327,0.528953043,0.1581174488,0.6947383931,-1.1550761246,-0.5638592045,-0.130092025,0.4303908129,-0.0105776822,-0.3277330193,0.7279898293,-0.7389395564,-0.0478435081,0.8025434776,-0.8772741153,0.5114123521,0.4903792383,0.8235286123,0.760447303,0.3839855551,-0.8987988831,0.1534277724,0.7530578178,-0.2561507316,-0.7508278549,0.2977490309,0.5550877722,0.0512641751,-0.3425269953,0.844292229,-0.2874376881,0.628218089,-0.6439588477,1.0821296187,-0.9564614399,-1.0648134669,0.0025913492,0.2067712163,0.0268679368,0.1441156325,0.0755162767,-0.5989700116,-1.0974268041,-0.4809741989,-0.5461427057,0.8414072566,-0.9270182509,-0.7481462592,0.3051587386,-0.6410148493,0.5107251528,-0.6729884926,-0.0265949073,-1.3820035019,-0.0627039846,-0.4671161277,-0.1438920179,0.4334410695,0.2530049935,0.7699248397,-0.4095214142,-0.0785406516,0.3082335773,0.9688263158,0.6800557987,0.0668197414,0.2044912109,0.3490161334,0.2490858241,0.5213834997,-0.2949374411,-0.2170603677,-0.2249486484,0.1275751447,0.5666406922,-0.3052732886,0.5144268994,0.2251422193,-0.1269584248,0.1719167525,0.110381278,0.406590265,-0.0874551007,0.8722856465,0.0457219786,-0.4303323682,0.5539927659,0.5149249918,0.4622798784,-0.1073916787,0.8878729173,0.1303813811,0.4319739227,0.5507977958,0.0537556152,-1.1636691494,-0.254558449,-0.7595315319,0.3783739696,0.3827567962,0.7669677546,-0.2189859129,-0.8218958877,0.272094294,0.5011842854,-0.6869891634,-0.562021198,0.9966136938,1.1126236654,-0.0667286512,0.5334914201,1.0765415917,1.1638596737,0.6591843321,-0.5463639112,-0.8328150175,-0.0574911669,-0.377689423,1.0944624348,0.1602695128,-0.4076343435,0.0166937464,-0.3758909025,0.8606608561,0.7615928475,-0.787158271,0.4456352066,0.1905943363,0.7367498233,0.6698393375,0.4273924861,-0.1881975485,-1.0805569982,0.6539980546,0.3584978801,-0.3757421827,-0.3943594708,0.2336647337,0.9848576357,0.9134184982,0.5007133195,-0.6662562895,-0.7208526518,0.1218549405,-0.8775711847,-0.8260514042,0.7904831627,0.4859232138,0.9144599186,0.8600876418,0.5023137058,-0.6006008945,-0.6987415139,-1.665532501,-0.8811912017,-0.9449115172,0.4740063972,0.2028858295,-0.4981204964,-0.5428299917,-0.7705797544,0.0941513179,-1.3823935885,0.4210473842,-0.7525264917,-0.0883351721,0.2065117516,-0.3929111072,-0.3394886225,-0.7958787812,-0.0425271833,-0.3139674715,-1.1397831598,1.1471501422,-0.2287178574,-1.0305762057,-0.6303255158,-0.3211796186,0.6704389473,-0.6119800967,-0.5682770777,-0.2010574484,-0.2268278773,0.3782510707,0.926186239,-0.2186781913,-0.1336204502,0.2430536638,0.5816478511,0.4278219403,0.3344591193,0.0551377827,-1.0200933664,-0.4789424334,-0.6334403943,-0.1769032082,0.0999860444,-0.8630503172,0.1468830661,-0.8722579838,-0.0608425451,-1.2303580434,-0.2023626434,-0.724204871,0.2418557827,0.0854254172,0.77740233,1.2075059602,-0.2604834033,0.386008638,0.4933125003,0.4897474127,0.3059724192,0.2180836937,-0.3299793712,0.3645738885,0.136310149,1.8416164636,0.412669063,0.3633287352,-0.3001557593,-0.2329595681,-0.0708336293,0.0562258249,-0.5092512277,0.1557170251,-1.0252723406,-0.0094030654,0.4480633086,-0.5861320336,-0.8722331826,-0.8605557791,-0.2523621678,-0.9891988232,0.6988575383,0.7884472893,0.7529088017,0.7155303806,-0.382536803,-0.1887171535,-0.5282925787,0.5353635983,0.0993865603,1.0812026127,-0.4010146186,0.5395722693,-1.1164648691,-0.3802157103,0.3328717975,-1.0777848618,-0.2404143258,-0.80348882,0.0065039361,-1.0697443261,0.5020303698,0.2938544419,-0.3165034651,-0.0351838175,-0.3729320577,0.5489464222,-0.3713482347,0.3312132398,0.5447746331,0.628447354,-0.6498697059,-0.4917839996,-0.3006312282,-0.6882566032,0.0432309745,-0.2483280341,-0.3074448475,-1.0698013233,0.2613566715,-0.1193448504,-0.0506821408,-0.1391863101,0.888062473,0.3205853025,-0.3020697958,-0.3482579178,-0.4216426292,-0.1794728078,0.2660425203,-0.3222166057,-0.3727171585,-0.3530938902,-0.0188069234,-0.5040638078,-0.8418475943,-1.3015019679,-0.3700619598,-0.7317729533,-0.8446896689,0.1792780023,-0.6579012072,0.4971784432,-0.7919212566,-0.162967726,0.6251981837,-0.1836067252,-0.4590368138,0.6271725747,0.3516427034,1.1588387046,1.3124959903,0.1888727591,-0.3952847512,0.9611946433,-0.0944595027,0.4116140673,-0.1353432585,0.3036173447,-0.1590737593,0.3123427811,0.9496363547,0.1511529987,0.6213072577,0.4550612881,0.5528998215,0.6972571929,-0.4511474805,-0.256899816,0.5777203884,0.3587695871,0.2973766301,-0.8669010517,-1.2511547815,-1.0111748129,-0.2563854391,0.2709798465,-0.1392598016,-0.2083837237,0.8581234226,-0.3517540598,0.5394884119,0.3425635319,-1.5123135776,-0.603987452,-0.3300190915,0.5902152591,-0.040557704,0.3543858736,0.1861518397,0.0138632505,-0.3380227156,0.17277584,1.2847202135,-0.884652903,-0.577951596,-0.5763263923,0.4080634731,0.4366010839,-0.0964986977,0.4972476748,0.149572368,0.4154906969,0.0325454559,-0.3933670548,0.5610131987,0.395939142,-0.1464874053,-0.5795160896,0.711926418,0.1226645535,-0.0534370894,0.4312116388,-0.2506019707,0.4193337416,0.8615507071,1.3702516915,1.1648552988,0.4333622972,-0.2450879453,-0.7269990866,0.7546758572,-0.2892520442,0.5809606142,-0.9065223809,-0.5093963225,0.6375395351,-0.2369100248,0.5931268337,-0.6310130857,0.1247741948,0.0253457185,0.9570083481,0.0729024888,0.7740757714,0.398421887,-0.5874563267,-0.0955250923,-0.0554539867,0.3503580578,-0.640039732,0.3148089081,0.1537135363,0.3490378193,-0.1630481417,-0.5480203073,0.4983516967,-0.1320224859,0.5619756735,-0.4617607236,-0.7674157634,0.2797334753,-0.2063967703,-0.2604527613,0.593943114,-0.7571523399,0.3601380194,0.8025531996,-0.8988330452,0.7109153356,-0.7700754314,0.6273814174,1.083428969,-0.9348066861,1.244106866,-0.2264041647,0.8318405176,-0.0940310596,-0.088850127,-0.0867113031,0.3666421242,0.2022890609,0.0430233885,0.1469822432,0.9678044412,0.6224386292,-0.1611173101,-0.4186196711,-0.1694800312,-0.1812213054,0.8678469428,-0.2512564955,-1.9636047699,-0.9309007459,0.5326334499,0.364271076,-1.014612465,0.198208567,-0.8471386059,0.5575446149,-0.4785870315,-1.0394795594,-0.9245850927,-0.9924225955,-0.3560824968,0.7515673739,0.3547379538,0.7284701404,-0.0620520716,-0.8703554631,-0.4766992548,-0.7619421195,-0.4933143763,-0.1682249004,-0.4653221803,0.5947845311,-0.3609437474,-1.0971757447,-0.142955777,0.5053255127,-0.1352501663,-0.6748369208,0.5338782987,-0.6059608,-0.3374925404,-0.3146733296,1.0553758676,-0.8937820037,0.0234958621,0.3468837638,-0.0704250026,0.7435951569,-0.0357480104,-0.2941300181,-0.3156302927,0.8820809626,0.3759133866,0.3955699633,0.2237642634,-0.7959161821,0.7969630772,0.2307416671,-0.3905642198,0.3348855411,0.0531852006,-0.7447018484,0.1776769641,1.0203909078,1.1459336583,0.291545412,-0.5923632954,-0.2493110285,0.2897066216,0.2304835822,0.4991391101,-0.2428582297,0.2911474827,1.120671695,0.9036598466,-0.1044669732,-0.1671090574,-0.1854932577,-0.7964361203,0.3258705955,0.1427800865,0.6077694312,-0.6861696094,-1.0007417105,0.5299139512,-0.3795299462,-0.6026669459,0.2065800782,-0.2449106566,0.5808630091,-1.2978790958,-0.9045332815,-0.9454843713,0.4731564032,0.7513298075,0.4163864336,0.1728847682,-0.199874686,-0.8993693271,-0.1402019799,-0.7303180069,-0.4968093826,0.0279080087,-0.3733672863,0.7841949453,0.0339865044,0.1301148342,0.102130333,0.6506669937,0.0314877251,0.4871689714,0.2528580179,0.2743888237,-0.1889974574,-0.8884447133,-0.0130590792,0.0353052239,0.3764486965,0.0023772466,0.2122097354,-0.4597298989,-0.3401394176,-1.4164947413,-0.7375353577,1.2529794594,0.9418489933,0.2498774541,0.400352317,0.2121386919,0.6158774048,-0.3427907446,-0.7158180127,0.4561018421,0.1933549883,0.6974569681,1.2749615433,-0.2168771174,0.1760330937,0.8404547384,-0.7696635418
   -1.0974904645,0.2858999937,0.9951037458,-0.2863689675,0.064543898,-0.1596208666,0.0881783639,-0.407163478,-0.6356872361,0.0327889553,-0.761498367,-0.732678539,1.1090149257,-0.2203707614,-0.0877850528,-0.1288208405,0.4104028149,-0.43337434,-0.8408962097,-0.4781811622,0.2508923645,0.3903732669,-0.2840242598,-0.753120131,0.7921295577,0.245588938,-0.5217901333,-0.6226532886,0.6464346622,0.7195822296,0.5759626074,0.8321849666,-0.6783876491,-0.4491693513,0.0862560668,-0.0244097419,0.5713337428,-0.088531843,1.1099005711,0.6094911493,1.1053718853,0.2670269606,0.2416734018,-0.6224297148,0.5450249821,1.0317083765,1.2559044855,-0.0355539004,1.1503444339,-0.2567495655,-0.2933893853,-0.3490696943,-0.7391949613,0.4691416353,0.016389414,-0.6797801435,0.3994957456,0.6915285985,0.5315229751,-0.129736124,0.827137943,-0.1894225566,-0.3495780561,-0.4520374496,0.2805967036,0.1668165105,-0.3802270787,-0.2706268793,-1.041116262,0.5009286898,0.3390273774,0.3459477716,0.0967680702,0.2700795405,-0.4671430418,-0.04427418,-0.1492078235,0.0166628157,-0.7457959782,1.0423831852,-0.6096441016,0.989358377,0.4808989136,-0.6597233506,0.9752641476,-0.3091088961,0.0562614104,-0.3928816782,0.9450479041,0.8993688032,-0.201646867,0.4089770135,0.2684749624,-0.5492930251,0.4186984902,0.9082276387,-0.965292829,1.2353804294,1.5300295835,0.5804768111,1.0997751254,-0.5932068694,0.2593492292,0.0877324722,-0.1288178714,1.019534908,1.0375109695,1.5377771258,1.0372536694,-1.1277122127,0.1465150636,0.5196721029,0.3436500733,-0.1511972905,-0.5238126733,0.1004103447,0.4459733876,-0.7470699026,-0.1532384767,0.3824438199,0.0513027227,1.1331984465,0.3045293772,1.1078033412,-0.2300775745,0.5598565065,-0.7128076247,0.1406630601,0.3731443451,-0.0050246787,-0.254053823,0.7946354852,0.72875755,0.1884553313,0.1552070111,-0.6978654828,0.4353057712,-0.1000457122,-0.4295585633,0.3294118745,-0.6626705936,-0.2777892378,-1.1275046288,0.8750075451,0.1871234733,-0.0374419445,1.0541703135,0.0939426643,-0.4124479261,-0.5685078378,0.5350529588,-0.9202648147,-0.3660070119,0.4100744637,-0.2463615824,0.6296861125,-0.2343744559,0.1074200301,1.4567597566,0.3316300723,0.5860650847,-0.7784807666,-0.2008935952,-1.4008367951,-0.9897575122,-1.4371426005,0.6808850954,0.3159370962,-0.3105086046,0.835453389,0.1316696801,0.5038304083,0.2695110908,-1.0687032289,-0.0047666354,0.3223365997,1.0814905334,-0.2980985453,0.2853516313,-0.3803645186,-0.0294408653,-0.3353683397,-0.3215557995,0.645167631,-0.2100411298,-0.366771901,1.0519066478,1.0604636823,-0.2082519244,0.1224823785,1.0045003537,0.7679393364,-0.0216079983,0.9412214228,1.0274485538,-0.0551235531,-0.3901347488,1.1490069219,-0.4361528191,0.4218512937,0.4672407452,0.5954445504,0.246164236,0.4348712321,0.9847310099,1.872728633,0.8954593092,0.1601599185,-0.3390292487,1.0639226126,1.0548736741,0.9302744764,0.2772312487,0.0780496097,1.8775559765,0.5223591246,0.3778863291,0.0834311143,0.4468062542,-0.0010227486,0.1160112494,0.1035729138,0.8746235191,-0.4249226523,-0.0094405914,0.9755888383,0.3646108714,-0.6863794461,-0.0889336284,0.4963552033,1.0073665837,0.3925435873,0.3406206499,0.3690114347,0.5010853076,0.339908339,0.017819012,-0.1074538729,0.6128573948,0.3985844566,0.5620431252,-0.0069937768,0.1624681178,1.4063430086,0.3729154023,-0.9608405881,0.3812667854,-0.3674683816,-0.8376580118,0.7274089609,0.5254787687,0.1651551862,0.5665012373,-0.7273075288,-0.2529369168,-1.0033153913,-1.0860349797,0.7121411405,-0.5847341017,-0.5602603962,-0.8336898944,0.9103084425,0.6555823636,-0.958762813,0.2916921678,0.5869274134,-0.9611544964,-0.1170455469,0.0008765269,-0.3572529917,-0.1719270124,0.1771688637,-0.0783336339,-1.3090373171,-0.091520885,-0.2621682422,-0.360384481,-0.1958320262,-0.5254636182,-0.3720870388,-0.2508929361,0.4646383578,0.2410593386,-0.4014871799,0.6484899999,-0.5707527064,0.9108734919,0.6783155129,-0.7367597563,-0.3424282283,-0.8280005669,-0.9145424912,-1.0133161409,-0.9665273318,-0.6502885786,0.6335012337,-1.0196919346,-0.2085964821,0.0582147259,-0.1163987089,-0.2830249991,-0.6066919008,-0.0885564779,0.1862325542,-0.6323299245,0.4967494126,-0.2647072319,0.2282966017,0.2127255509,0.3835400153,0.3255904927,0.0016412522,0.7839746097,-0.8473982266,-0.8170872251,0.1894313925,-1.076372754,-0.0195422447,0.2949825942,0.145610603,-0.0619216311,-0.2339584433,-0.809565784,-0.5678113081,-0.0052444168,0.1089462467,0.6134922049,-0.514303264,0.819016127,-0.2155112103,-0.1358347128,-1.5345515858,-0.6519191155,-0.4633032066,-0.0819428509,-0.0557182519,0.476538739,-0.5167828205,0.3032418837,0.8892698819,-1.1349225981,0.1372042876,-1.1005683984,-0.3666873269,0.2210425195,0.3234868438,-0.135458284,-0.5942079458,-0.2470253909,0.2598706954,-0.0329167389,-0.7162292711,0.3996946424,0.3902748712,1.080373629,0.357905001,-0.4530687889,-0.3644071691,0.9348838471,-1.4679823165,0.0027162843,0.0057569579,0.0063108646,0.3106077096,-0.062442223,0.4135017899,-0.1847263834,0.0101224384,-0.2880990289,0.1381010405,0.1858577284,0.0495678249,0.0154327038,0.3892730356,0.3342540333,0.2581647098,0.6259835707,-0.0847885085,0.6815510336,-0.539033216,0.4099406384,-0.2425410055,0.3238872199,-0.2403039623,-0.1045975942,-0.7423665832,0.0299194019,-1.1805259474,-1.2543865516,-0.7565531314,-0.3469416019,0.1547033328,-0.1326420359,-0.1842497027,0.5226498513,-0.7075862593,0.606229182,-0.2465465487,0.7974372375,0.3392824104,0.0117222377,0.3534942614,-0.0306096,0.8518086662,-0.7087639384,0.4414319019,-0.2972389314,0.1188370827,0.5265443173,0.258490891,-0.0832552619,-0.1190280709,-0.1417103615,0.0782246571,0.3402238576,-0.1051413229,0.2099462943,3.5763203223,0.8418104035,-0.2416579567,-0.0764428479,0.4588306697,0.7814408511,0.8264337473,0.7412218199,0.4718712501,1.2869752203,0.3774234748,-0.6275526372,-0.6700881284,0.927135399,0.6815948442,0.3323186501,-0.0924629703,0.0976440435,-0.1125943125,-1.1526456114,-0.5138037062,-0.3631027617,0.9400752499,-0.2021062906,-0.4031111901,-0.3966220989,0.3945804857,0.5486382544,-1.0856545733,-0.3216863469,-0.1006507395,1.1464266328,-0.3041443906,0.3491785513,0.6003907858,0.3251869231,0.3357728055,-0.485014633,-0.3007358993,0.4622113364,-0.4007486861,0.3601390836,1.078069527,0.3295503438,0.2397350299,-0.2068438414,-0.0015171921,-0.1999470505,0.7182790985,0.9797108864,-0.6594076182,-0.0265086296,0.7075435395,-0.0665512092,-0.599910284,0.0186622099,-0.8845198212,0.1809631366,-0.0458385932,0.0409743786,0.6231481061,-0.1172794422,-0.5306238956,0.2091827518,-0.251425556,0.1892394558,0.2219312505,0.099933332,1.2530447487,-0.021571163,0.4148891145,-0.038959316,-0.1074114809,0.1689775335,0.2383826078,0.0700674786,0.4161610019,0.43456334,0.5784188892,-0.145504074,-0.3055921804,-0.4935722254,-0.119495561,0.4655817387,0.4783197654,0.1366462646,0.8684543267,0.0809375526,-0.2149446898,0.0020282907,0.8017358908,-0.1242265051,0.8245285645,1.347341718,-0.7346668121,0.6403708488,-0.7234586692,-0.5342307106,0.1300647167,0.2676875956,0.9607969058,0.1552766357,-0.9793380788,1.0188437558,0.1202789299,0.4504701315,0.6256176089,0.5796672412,-0.1118224137,0.4211765645,0.9531614187,0.1034816669,-0.7831368899,0.8766317447,0.4858016356,0.5789050819,0.1008474462,-0.7724335557,0.054865826,0.3545109832,-0.0464517832,0.7224328925,0.1621829157,-0.2311769576,0.4653184772,0.5084507233,-0.3857869474,0.3738153979,0.3055461431,0.3538476003,-0.7955058411,-1.4585607854,-0.2253952426,0.0413948723,-0.4328930592,0.5463397878,-0.0486624093,-0.8681708068,0.2404831594,0.0639002624,0.2209436556,-0.3155915589,-1.1920224494,0.1709732908,0.2414904199,0.0241577248,-0.8544060941,0.1122412914,0.7348614591,-0.0158222422,0.1244676666,-0.0056903248,0.5069123223,0.0461973675,-0.1245383999,0.560482791,0.0865599215,-0.1754990626,-0.6762820898,-0.5560016888,1.6332244896,-0.1209814441,1.0875997489,-0.2531776057,0.3421361943,-0.2876360816,0.529839091,-0.6996215752,-0.3659174799,-0.0805823158,-0.4765093503,-0.6357318033,-0.0024533585,-1.9201599434,2.1804540903,0.2743548096,0.3656409536,0.0640275132,0.0561340321,0.2506861128,-0.4622871593,0.4637648926,0.2641233137,-0.730755198,-0.3978092688,-0.3075985209,-0.2156753611,-0.2910743262,0.1024379141,-0.288622079,-0.6303170853,0.1167842492,-0.8472811743,0.9712486743,0.4162608516,-0.5780135004,0.2915996624,-0.1313697065,-0.3381911868,-0.1949162056,-0.3131318821,-0.0239576687,1.362588872,1.0169421723,-0.0172642115,0.435399693,0.0571348162,0.3046076694,-0.2614008806,0.2476241981,-0.8499243388,0.0130055515,-0.6748452731,0.0658403963,0.1098930864,-0.0611083073,-0.5852520447,-0.4758758472,-1.0073659651,-0.3042244619,-0.100826924,-0.0006712376,0.1601203389,-0.4408718603,-0.2660790152,-0.1527751889,-0.042701592,0.8321595922,-0.3901475163,-0.1419372928,0.5037252791,0.0916995555,2.5299889463,-0.4352653022,0.0733429484,0.8765403129,-0.4640296302,0.0438070574,0.289955868,-0.0197385622,-0.4763489805,-1.2478848268,-1.0035988184,-0.1202553092,0.1087957856,-0.0390037844,0.8903603107,0.1795949135,-0.6342836759,-0.5835856261,-0.5625049669,-1.1695885244,-0.6072381852,1.0931584457,-0.5605494302,0.7407928335,0.230038515,0.0620405562,-0.4721505198,0.8255668548,-0.5066430958,0.1099075583,-0.4501236413,-0.0738319261,-0.5364982153,-0.5995133125,-0.2349398929,-0.0913681337,0.1093575269,0.4118205333,0.2611397696,-1.0737581028,0.1428808491,-0.354978115,0.0502177637,0.2672718827,-0.1819270118,0.1842877162,0.3316879596,-0.6301609083,-0.5409061566,0.8063164059,-0.3932725905,0.9635367942,-0.2414069782,-0.0755976559,-0.6842823108,-0.4776286836,-0.6025757609,0.1315669003,-0.3344974888,-0.2510700724,-0.2152812695,-0.0573930006,-0.0058093291,-0.3110951788,0.1612848691,-0.4410667608,0.0204512233,0.0360324331,0.0580310584,0.7167786794,-0.3780316446,0.0161470774,0.200272486,0.0348209663,-0.2398060494,0.2065889987,-0.4228905572,0.0656398062,-0.6330310186,0.1494460751,-0.5477765453,-0.0120165808,0.2821504719,-0.0835379685,-0.1366678884,0.2036932588,0.2193384078,-0.4500767928,-0.3499744603,0.6661849666,-0.3165277065,-0.2432824243,0.0111201136,-0.3417206252,-0.6191433245,0.2649019091,-0.4530725549,0.2151539408,-0.167291346,-0.4672683831,0.2950532546,0.0811189429,-0.5267292248,-0.4160411038,-0.3917385381,-0.5749490792,-0.8127601097,-0.0441071971,0.1959646295,-0.4309356594,-0.1174395503,-0.6379565591,0.0617450112,-0.4189281278,-0.2167485954,-0.374528217,0.7132281178,-0.388787932,0.4318376948,0.4802235764,-0.2811767415,-0.5501273585,0.3439627385,-0.2379398721,0.7558445672,-0.7564853052,0.8298180797,0.6445558876,-0.6367724574,0.8329419283,0.5963562372,0.3307791367,0.5181969962,0.861991259,0.5068692384,-0.7878292756,0.3758738474,0.6989309779,-0.6708670631,-0.3538031382,0.4165446387,0.9349757116,-0.2673322284,0.8264969721,-0.3288708576,-0.1883775172,0.4156136939,-0.5824435581,-1.3131095444,0.3684033958,-0.3780483697,-0.1730617593,0.6854540657,-1.298185613,-0.808138447,-0.6119990076,0.9449599135,0.3042773743,-1.3063968412,-0.0560701713,0.6115566863,0.4482798745,0.9851537514,0.837150764,-0.4016666444,0.6492206358,-0.3833810311,0.5559419848,0.6189902625,-0.2381162934,0.35921213,-0.3301756593,0.7970951934,1.0225317999,-0.8418416467,-0.279932639,-0.5387163382,-0.2647578622,0.3632458602,-0.0740914652,0.4177561815,0.2925415209,-0.1513799352,-0.106668176,-0.3710247163,0.1839899458,-0.0357543141,-0.2108701431,0.2883525036,-0.1490025734,0.3395037255,-0.2442101282,-0.5260538134,0.4072753384,-0.0131114031,-0.5383164869,-0.5116912184,0.5286152832,0.4250633736,-0.1820467182,0.2373937154,0.5857161275,0.8595793173,0.8183959679,0.4276005329,0.5453401793,-0.1884349679,0.1652801472,0.1578044471,0.1930007129,-0.2724876074,0.0472584344,-0.6152626791,0.3170466577,0.8284476338,0.1361153,0.1529440016,-0.2478457841,-0.3595810178,-0.1179305563,-1.0520587783,-0.3243913822,-0.5413670588,0.1729471699,-1.1205678921,-0.016440566,-1.1935409848,-0.5479121282,-1.0987112269,0.1252568916,-0.7315989808,0.3275954832,2.8460489247,0.0168325339,-0.3159346617,-0.1652230767,0.2173346033,-1.0242549061,0.4576563313,1.1952248706,-0.5893602672,0.2731732962,0.0459669421,-0.408932516,1.0702209548,0.1218340368,-0.1633199359,0.3962395035,-0.2530021494,-0.1404778734,-0.9793692542,0.068749214,1.3862318797,1.7462265486,0.1063781905,-0.4692983132,-0.352740192,0.0092566703,0.3180930289,-1.1699784251,-0.2952105063,-1.2782570356,0.2086657036,0.3770245928,0.9360734742,0.6503321506,-0.2039861833,0.8263169354,-0.0956614124,-0.69298553,-0.7830496681,-0.6472329808,0.2351284983,-0.1302466465,0.3357128836,-0.4268110049,-0.5703904435,-0.338497157,-0.7591421445,-0.7176061348,-0.0434246199,-0.0584246174,0.3123240694,0.4396777309,0.992387899,-0.2768243315,-0.2120286238,0.0276987497,-0.028604631,0.2997611867,0.9589003015,0.6741345072,0.3288917999,0.0311568724,-0.2311937499,-0.4723932578,-0.215309993,-0.0850989838,1.1990944339,0.3218171605,0.179749209,0.1103089235,-0.235813187,0.2064251849,-0.478935628,0.197635699,-0.4106408922,0.2375224433,0.4715611042,-0.4315292424,-0.4733216773,-0.6831371692,0.1640397492,0.7199406404,-0.287945669,-1.1112916825,-0.8873313116,-0.3986785616,0.1854900759,-0.4192470166,-0.1656131952,0.5519037091,-1.1094212917,0.0630750951,0.8108671043,-0.1039201653,0.235379011,0.1218601995,0.0776775802,0.6916543665,0.0438642441,0.0200207286,-0.1673192467,-0.4890188381,-0.8754588521,-0.9057486361,-0.5130603719,-0.8201202438,0.2326157753,-1.053721094,-0.4447290077,-0.4601714411,-1.0838821153,0.1131535366,-1.1045205783,-0.3944956685,0.119629558,-0.8011678819,-0.3917679622,0.7505125324,-0.7904177887,0.4746353221,0.1937223504,0.1377119928,-0.6495629927,0.7059217534,0.8844836871,-0.0519642118,0.171076097,-0.3682415131,-1.2233115629,-0.5950859973,0.2101501088,-0.2284403271,0.2421374201,0.4617578149,0.3847792395,-0.0027639181,0.4395558834,-0.4746746557,0.6073964494,0.6612504192,0.1293582536,-0.2324453237,0.2338318902,-0.0447300451,0.1905854281,0.3415352499,0.2639750664,0.395168579,-0.3050790217,0.4282656112,-0.1393052274,-0.1886231837,-0.714098595,-0.4454949114,-0.1219691804,-0.3949907809,-0.2235531716,-0.5323694978,-0.7581784836,1.0645852825,0.218630736,-0.242268568,0.5500227981,-0.2058840728,0.3351599628,0.3844569588,0.599223752,0.0970709718,-0.2959942996,0.7243931865,0.4550237503,0.0405214495,-0.3679634642,-0.1785325249,-2.402602093,0.2874070846,-0.0037728831,0.1951687633,0.1324234749,-0.2479761695,0.1101217099,0.2961144062,0.1391309598,0.0356072387,-0.0689333325,0.1647652174,-3.4028681569,-0.2504417929,-0.1408701142,-0.1004431415,-0.1070479836,0.1036158703,-0.1289289348,0.2606319364,-2.074801231,-0.1977132466,0.0932272125,-0.0731359803,0.0776881926,0.1570125994,0.1520891489,-0.2233304905,0.3184416554,0.2564951766,0.4481887892,0.2004939492,-0.0088978308,0.1321293188,-0.0566857945,-0.1988130589,0.2048624943,-0.4525133013,-0.5898153586,0.0370945731,0.0301997897,-0.1737583756,0.1765180198,-0.0169863179,0.0679893163,0.0650859354,-0.2370949212,-0.294353951,-0.089944426,0.1215449263,0.0303560016,0.1557201291,-0.0001619103,0.0307145637,-0.023197378,0.0099743027,0.2800149636,-0.2559124597,7.1570307486,-0.512087726,0.5689987384,0.7696255759,0.5287483368,-0.981997171,0.1248108085,0.1664559727,0.5565924045,-0.1128216923,-0.8910957832,0.0704324347,-0.6648938454,-0.6535491149,-0.0951168998,-0.3708280149,-0.1465745083,0.5419544071,-0.8008973684,-0.4810136102,-0.7016829793,0.4050467623,-0.1443393872,-0.236063081,-0.0052600188,1.0362230549,0.9542521923,1.2080408005,-0.2316768003,0.1505412155,0.4972832459,0.6445923207,0.424357233,-0.0858469569,0.2198529538,-0.1954779066,0.5036300397,-0.0934017762,0.1457497149,0.2324693433,1.0241306459,-0.8221649841,0.1672087762,-0.4253178253,-0.3621245668,-0.3670151914,-0.6240407871,0.7660625132,0.2695718622,-0.2744669551,0.368412685,0.0241942975,-0.1090668007,0.5040038078,0.9480036082,-0.2080339584,-0.9784965596,-0.308753384,1.7193100829,-0.4518073383,1.0857987765,0.4325074051,0.0636041758,-0.9558287715,1.604406834,-0.17427363,-1.3132038625,0.2309025041,0.6838906752,0.2034093646,0.6167696081,-0.2733193257,-0.1363457808,-1.2429382479,-0.3192569682,0.5844220953,-0.5529329287,1.0609414805,-0.3825846895,-0.321570319,0.3000191755,-0.3989184489,-0.4779433926,-0.0530075318,0.5216034982,0.5847283096,0.5876660684,0.3907824944,-0.0773996201,-1.1399510109,0.5833892604,0.7389188183,0.3658205587,0.4636044281,-0.3404707779,-0.0530797928,0.184462422,-0.2816616844,-1.1677925704,-0.5284304758,0.5914635241,-0.2060171632,0.9376476163,0.6847762262,0.3341764779,-0.9587901983,-0.5351897779,-0.0717743388,0.4494671869,-0.3575608384,1.1141924793,-0.2476611041,-1.2056484616,-0.0165359559,0.6144361926,0.6984010463,0.349986636,0.6660027529,0.5320638899,0.798379641,0.4454689922,-0.7171615281,0.8961913753,-1.2352020667,-1.323072548,0.578039124,-0.5336901174,-1.2326711525,-0.5082243286,-0.1617418038,-0.2491253945,-0.5851124369,0.3621096452,0.5709292104,-0.3002272664,0.52389515,0.4025798612,-1.2478490191,-0.4473622532,-0.1127368871,-0.4927279922,-0.4524865493,0.4457989537,0.1746093793,-0.0833360422,0.110137313,0.3910459985,0.8156989073,0.7376239447,0.3629973057,0.5624746693,-0.8541187607,1.2761057437,-0.6281779323,0.1931339838,-0.0444022059,-0.5835679275,0.2099411717,-0.7341884572,-0.3214315177,0.1133775693,-0.1866416619,0.1871577205,-1.0754331735,-0.4293648873,-1.0146726431,-0.7426541756,0.1585052594,-0.2612332549,0.3842996351,0.67933619,0.1026282118,0.0129597043,0.0304012576,0.5817025521,-0.2548207451,0.0275307646,0.4481786076,0.3512980718,-0.1673546278,0.213195571,-0.0402214345,0.0582925216,0.8361473108,0.0842551132,-0.607315051,-0.3248730951,0.5482076881,-0.182705636,0.6236722918,0.8590535652,0.2377610871,-0.9485132483,-0.2415347768,-0.5714746642,-0.7003043911,0.407570619,0.175858744,0.4938723814,-0.2929188297,-1.2974309368,-1.198407854,0.5575031917,0.9469732465,0.1854917498,0.2276767459,-0.3963493639,0.1312977194,0.2289415606,0.6544614887,-1.2714368601,0.2619975061,0.2240408461,0.3215595381,0.0643664316,0.4869329543,0.5414162807,0.5836261064,-0.4208327963,-0.36173594,-0.3368238999,0.1340399114,0.2970357125,-0.0757867231,-0.0336543817,-0.2024465444,-0.2892473401,-0.2983306639,-0.7384121035,-0.4820247664,0.0790435847,-0.7380504905,-0.7475383693,0.3871412286,-0.0498957279,-0.0954738263,0.0842268734,-0.1234673948,-0.261353798,-0.2160860304,0.1430386047,-0.5306766969,0.3841970463,0.1160196511,0.2665848104,-0.2676334357,0.0613010447,0.1388513004,-0.1791476686,0.2486899414,-0.2297816606,-0.1653677552,-0.0194979067,0.0679388778,0.1694668426,-0.208966305,-0.0767780497,0.2113969786,0.043114415,2.1643318893,1.5754502784,-0.4032988987,0.1069875251,0.1834352874,-0.1809949508,-0.0934856335,-0.276130057,-0.0737566447,-0.0055584537,-0.1718495072,-0.2057108199,0.333795946,0.4090513336,-0.1426532041,0.0858268261,0.0514898117,0.1948533108,-0.138252404,-0.0784158398,-0.0636790702,-0.1645353089,0.1217297089,0.1419857609,0.0211610591,0.2931802424,0.5361644549,-0.1767735106,-0.1320509129,0.0095540683,-0.0781523688,-4.9196775405,-0.3300431979,-0.1093428597,-0.4742973419,-0.1836049901,-0.5902930697,-0.6950775055,0.0394559151,-0.6645456422,-0.1699657549,0.0699666521,0.0302287018,-1.2679471841,-0.1446178788,0.1571168374,0.2218942894,1.1004418702,0.0424048895,0.3428477362,-0.8863621851,0.031759784,0.6081460772,-0.5142327326,-0.0261446543,-0.2699139753,0.1900287109,0.2907521558,-0.6912485236,0.7297258521,1.1584730859,-0.8226340089,-0.861408594,-0.8256215319,-0.1820377779,-0.2905529522,0.3903870699,-0.7772004424,0.742083526,1.2836116964,1.0660293119,1.1653378491,1.4865905314,0.3561875781,-0.0713120071,0.5537517741,-0.1129579283,0.0918633952,0.1902386121,-0.0305829972,-0.6633700573,-0.389282237,-0.2390753396,0.392504113,-0.190287755,-0.1699983392,0.1843979969,0.3848555351,0.0670682858,1.5785994816,-1.1129490805,-0.629764529,0.3041963555,0.6490883057,1.1996502771,-1.1609500528,-1.315056925,0.3230608457,-1.1024382046,0.7280148841,0.8951366492,-0.7385319955,-0.5275058665,-0.1457977283,0.1901101591,0.6226113455,0.348319129,-0.9367132891,-0.0015727035,-0.5563853565,0.2969725409,0.3432955723,-0.1708558374,0.4354133375,-0.0009348291,-0.971895379,-0.6292611627,-0.7446381706,-0.5735169156,-0.4011518375,-0.0600797898,-0.7175246354,0.5361713562,-1.4362691836,-0.3922517731,0.3405388155,-0.6645479693,-0.6930121653,0.8449580033,0.1952960066,0.1558880084,-0.4040760589,0.49835567,0.089996757,0.5838609028,-0.460557347,-1.3958435541,-0.5751425307,-0.4443697801,-0.8943193101,0.1238515149,-0.6000017728,-0.0716412986,0.3752718762,-1.2703121908,0.3749979553,-0.4686546881,-1.14806375,-0.7968999416,0.7028050574,-0.8196466957,0.2116750237,0.1558934984,-0.4139461153,0.2795944319,0.3581360303,0.7064838337,-1.0388845445,0.2395838767,-0.2175038721,-0.5974971069,0.1197553965,-0.0673805396,-0.9362373286,-0.3980098013,0.2137223504,0.2205373526,-0.1104046825,-0.5376412851,0.0583663217,1.0234854407,0.9271858847,-0.7334315766,0.2033948963,-0.095684063,0.2757796408,-0.3398295401,-0.478775289,0.0773838251,-0.007156122,0.7244872449,0.3532744995,1.343475195,0.6258366828,0.3758538007,0.5728065752,0.1458121162,0.2744976045,0.6625678488,-0.1593208359,0.0481131196,-0.5503606227,0.0757556989,0.7971770159,-0.3967916279,0.0195795611,0.3265107574,-0.4236845609,-0.3418585285,0.521874174,-0.2022814375,0.2634751694,-0.0633817477,-0.321259993,-0.8031351696,2.3593601233,-0.6824850451,-0.1568607133,0.4425742492,0.4029565662,-0.4705979291,-0.3252426928,0.0581826873,-0.5433936589,-0.2543199667,-0.1920722013,-0.2377165421,-0.0017795476,0.0652472845,-0.3014720009,0.1995700897,0.2993778474,0.0371771337,0.0456919357,-0.7190649295,-0.8028904013,-0.2592563113,0.5198793049,-0.2393444523,0.0005923827,0.006198915,0.6675130541,-0.2250615924,0.0492357501,-0.2163349904,-0.443203778,0.1597317442,-0.0929281822,0.1817118065,0.5978154713,-0.5323412833,0.2893185293,-0.3546443769,-0.3755528247,0.3599140402,-0.1345722777,0.2407132396,-0.0360172764,-0.1084316309,0.088810379,-0.7335679173,0.0708096778,0.2260007119,0.7138019866,-0.2098642218,-0.4174289447,-1.3790126682,-0.5291902894,-0.687594473,0.1298234045,-0.684210533,-0.1619832213,-0.2471965545,-0.7384389444,0.1191373564,0.808026514,-0.3903927397,-0.6083256753,-0.2065550644,0.7743901318,-0.2691130074,0.6319859709,0.9177822747,0.6338745625,-0.399432075,0.3901582124,0.9072422119,0.5405065705,0.5566035051,0.8336839456,-0.2494555502,-1.1178894554,0.743042736,-1.1025711162,1.2802274089,0.1393269343,0.2766796649,0.1016158726,0.8683226301,0.3213790225,-0.813967818,-0.9469026459,-0.3743739202,-0.2063438717,-0.21600095,0.8320731715,-0.3384923719,-0.3406479734,-0.0867435738,0.6477186514,0.2516369445,-0.0938710188,0.1112337223,0.4437944656,-0.1985340411,-1.0977826578,0.6168810532,1.0694131071,1.0354511734,-0.4860830215,0.2339504789,0.7241750257,0.0702439851,0.1552473868,0.3945261409,0.2562953194,-0.9904698264,-0.3531138354,-0.6374142145,0.9424462465,0.8997763117,1.3365176406,-0.6062459376,-0.1482493886,0.3800662354,0.2653288219,-0.0109706935,0.038120559,-0.3503347299,0.6947488108,-0.4626312934,0.0443903009,0.6532615152,0.4792585695,-0.6614166026,0.2274737417,-0.244391679,-0.2289947067,-0.2401688341,-0.4231982316,0.9545993359,0.3151737617,0.0584696593,-0.5527602363,0.0421383973,0.1480882049,0.4695355895,0.5369826003,0.777871074,1.1922670757,-2.1910402463,-0.9773450427,-0.2472581975,0.0838151982,-0.1872917815,0.1403248236,-0.0136515983,0.2139689278,0.2414550429,-0.5187744199,-0.5502389059,0.1062022713,0.0678266193,-0.5589138538,0.1051629237,-0.2484024671,0.0983100058,0.0551787947,0.1497157347,-0.1310509032,0.2250576491,0.1116729451,0.1412607183,-0.4424490341,0.114823975,0.0419307365,-0.1957743001,-0.351931325,0.7755496862,-0.0054949511,-0.1930366912,0.1538597113,0.1104680026,0.0936975005,0.4343707858,0.2544291743,-0.4448930006,-0.7375970296,0.1468089413,-0.2396899193,-0.1331738009,0.105582778,0.4232242763,0.7908030237,-0.1468010174,0.3478096285,0.0785568711,-0.4413678489,-0.8515737431,0.103730367,0.370031153,-0.3310477465,0.241095022,-0.0800723235,0.0546500358,-0.5372920359,-0.7776559573,-2.039422322,-0.75155525,1.3792527744,1.1363479696,1.051519728,-0.1848863546,0.0323473771,0.3906550763,0.1679758936,-0.6384363201,-0.1030025081,-0.134549506,0.6064000642,0.1806616144,0.0041844876,-0.1463566204,0.0840018932,-0.2377824542,0.7297614297,0.2568056171,0.3975563202,-0.4119279272,-0.0269009307,-0.2292808216,-0.1738038981,0.0679866515,-0.2850784303,0.0946595201,0.1009419475,-0.0299784882,1.6132596381,-0.6881315225,-0.1296548501,0.1194054634,0.0782343824,0.2382767731,-0.0622474574,-0.1516358046,-0.2050957284,0.3759186581,-0.2361794705,-0.1795921653,-0.3944856801,-0.5463979605,0.4257139947,-0.1317457596,0.2243492898,-0.3339540924,-0.339026486,-0.3472282667,0.0602476496,-0.2584945382,-0.3348072505,-0.0264361171,-0.1723085988,0.0159762719,-0.9974449158,0.0369845985,-0.5986496421,-0.9096819475,-0.0586745324,-0.5975977985,0.2647603278,-0.0713195477,0.0120125689,0.0063902107,0.0636292564,-0.1658066722,-0.7838880519,-0.574043022,0.0665267413,0.0938969145,0.0925337574,-0.1539495548,-0.6219685504,-0.5777447441,-0.2670401694,-0.612246301,0.0222880158,-0.1790620825,-0.096424153,-0.2642269064,-0.1655231311,0.4629103682,-0.1833811367,0.2463325202,0.3117618123,-0.4648547192,1.3228623316,0.8050801368,0.3171625405,0.4153007681,0.7932308394,0.0473050327,0.2157132192,0.3841465624,-1.0967333994,-0.6124717838,-0.570415103,0.7031349141,0.2249192923,-0.552382917,-0.3451931757,-0.8083331883,-0.2697289559,-0.1344508498,-0.2221530642,0.6098454806,0.6707821113,-0.5837129177,-0.0123758398,-0.2040356531,0.2515011033,-0.0500564104,-0.8557288145,-1.0460876263,0.4173979308,1.1866297943,-0.52251669,-0.251782492,-0.3559310025,0.1706690796,-0.0367375993,0.3678353155,0.1091005459,-0.3613858273,0.7007762605,-0.2991846136,0.0971934762,-0.4290229053,0.1799635375,-0.6177111512,-0.5743357075,0.6419765454,0.2314819567,0.1358040788,-0.8203633635,0.2090834138,-0.1980758954,0.3740197199,0.4128793469,-0.1837230427,-0.3631158406,1.0593453369,0.4353757267,0.4073168148,1.4904631795,-0.8360864279,0.1582246582,-0.0896449179,0.1901069194,-0.3220406462,-0.2233404403,-0.2945680951,-0.4656861687,0.2650718281,0.0798832699,-0.2521535609,-0.0211489111,-0.76875977,0.0697018016,-0.7970340032,0.2744081209,-0.270742882,-0.2408725157,0.9735418797,0.3694350056,-0.4919169846,-0.7740318461,-1.2815860867,0.3284960397,-0.4601877196,1.2277643721,1.5869662988,0.9191770325,0.8458732122,-0.1684783878,0.7554668478,-0.0112789402,-0.9275743667,-0.6809725886,1.0880505881,-0.3548481077,0.90587324,-0.4224958286,-0.4930274637,-0.4546089685,-1.0766188235,-0.1791977403,-0.2633813271,-1.0882957227,-0.2545470538,0.9903019532,0.5289058931,0.6926685882,0.6662517749,0.1986604803,0.4368437861,-0.6299118083,-0.4172703212,0.4629570187,0.3855690223,-0.3244792662,-0.4672643934,0.7395991082,1.062889827,-0.423374298,-0.8929064032,0.3351949071,0.4070038005,-1.2243236165,0.6307757016,-0.3187436708,0.0284901799,0.4488015019,0.5375517059,-0.5539648681,-0.0924076925,-1.1640110394,0.920583349,-0.1644799205,1.0332524484,-0.2648877282,0.1882283354,-0.881415297,-0.2430138275,-0.3004079907,0.6656233128,-0.3665627796,0.3306115406,-0.5699964329,-0.2555772741,0.0806613225,1.0259080581,0.8548512956,1.1895041966,1.129689026,0.8186158573,-0.6874735808,0.4424995359,0.0150996366,0.6861530469,0.9467463088,-0.9283597262,-0.236099351,-0.2637449501,0.5495527747,0.2709444479,-0.2411338745,-0.6772002218,-0.1628839226,-0.5776682292,-1.090607429,-0.9027172848,1.039154132,0.4971371229,-0.3233828584,-1.0772774079,-0.586651746,0.1527677091,-0.2450945002,-1.0423597671,1.1335313868,-0.8197164271,0.609512956,-0.7645120799,0.2845691845,-0.9742684406,0.7468463472
   -0.2968406372,1.0018250391,0.6555510559,0.226556117,-0.7371661597,0.5411563273,0.2341957505,-0.586422987,0.6149393619,0.3696984196,0.5586538554,0.1520141094,-0.1589248225,-1.0541897755,0.2664229201,-0.9838336983,1.1632342402,-0.8055845492,-1.0007805085,0.9215240964,-0.7166030531,-0.58965148,-0.4530954545,-0.1227126447,-0.7023580082,0.2831753415,0.6228486353,0.6017001104,0.003396234,0.5671774145,0.5377188968,0.2098393243,-0.2199649617,0.4326686136,0.5224020553,0.6655189665,-0.1231834201,0.494932914,0.1128033693,-0.1755677707,-0.6383997412,-0.8870291927,-0.4916822146,0.6291124335,-0.2702885396,-0.5406420097,-0.1730108085,-0.1705048652,-0.2356903186,-0.125134385,0.2320462877,1.9236878275,0.3495355978,-0.1713435574,0.0069941582,-0.5442009764,-0.0009443434,-0.4579860531,-0.1934786328,-0.3482540619,0.4895612414,-0.0324037343,0.1246940601,0.3378698108,0.6336891307,-0.0003163117,-0.0737182752,-0.6643027626,0.2626904779,-0.0317114562,-0.5403323381,-0.8061928442,-0.5446383449,0.0038665852,0.0176749913,-0.2135875315,-0.2414850782,0.4852873465,-0.6866263915,0.0569761444,-0.3243128899,0.3967590548,0.2816057896,-0.6022120204,-0.0027253592,-0.3611660912,0.1505160027,-0.199803514,-0.2031912228,-0.7027319415,-0.9347602631,0.5941660977,-0.5948843174,-0.6146944623,0.5193231977,-0.1583976486,-0.1442054789,-1.0926930567,-0.5995860199,0.745825975,-0.4606631571,0.4085401183,0.6571479937,0.5225008974,0.3384889965,0.2053175003,-0.64820659,-0.3829252415,-0.1648434807,3.7602943392,0.3331872656,0.4084185051,-0.0439636732,-0.1138270772,-0.0129707591,0.6782158835,0.1292139765,0.1438282012,0.1643461656,0.343045184,-0.3653523974,0.1816573681,-0.3671283013,-1.0088899403,-0.9776887696,0.4433247287,-0.1634182041,0.1526556737,-0.3567876009,-0.3462013007,0.1006954502,-1.1421263851,1.1725213177,1.0089709869,-0.0662752873,0.2434018995,-0.3819930955,0.1587746834,-1.2516964873,-1.5743886254,-0.0730938737,0.8096394399,0.3528182085,-0.0872869808,0.6280108946,0.5296815385,1.7771060986,0.6359241879,-0.6273503174,-0.9471495046,-0.2556107252,-0.8889108245,-0.6714233205,1.8013789122,-0.4733379077,-0.0020758847,-0.0107107727,0.0259552921,-0.3190254152,-0.7451394929,0.803247709,1.2206990819,-0.0923533886,-0.3758342271,-1.1275781155,-0.0864079579,-0.7224278606,0.5428829469,-0.083994761,-1.0105755852,0.7494400659,0.2193841793,-0.0930478208,0.3631149292,0.0078655062,0.3248467461,-0.0028778812,0.928300162,-0.1198088952,0.06757384,-0.1434628642,0.8977966273,-0.2092152241,-0.0297225563,-0.7609593479,0.0179519273,0.0048512359,0.3796965988,0.1937232248,0.1345308699,0.2339608705,-0.2648479727,1.8533861181,-0.1635916941,0.3913570959,-0.4535866805,-1.4352336574,0.9103541417,0.5121436062,0.6485063415,-0.147114024,1.8208420476,0.5660251916,0.1924498519,-0.1028642034,0.2220069562,0.1451416352,-0.2959298864,-0.481194966,-0.1526081124,0.6933796283,0.0793071183,0.2592606658,-0.7601600091,-0.5988282545,0.342660616,0.6880290051,0.3561931672,-0.2257142141,-0.857061158,0.0290561505,0.1820250654,0.8838853112,0.3159121882,0.4420699385,0.6822807969,0.2150844065,-0.1717925569,0.5126900089,-0.2927331277,-1.4029470839,0.9388273391,0.082013787,1.0135877064,0.156957263,0.3879807363,-0.6589589975,-0.5970455628,0.595741906,-0.2332546243,-0.495432917,0.5066655778,-0.1218071446,0.1434769566,0.3970256052,0.0697559877,0.5998934944,-0.5958379537,0.6487549191,-0.3991619588,-0.4050632838,-0.4574761317,-0.2380062872,0.6340470559,0.306869825,0.1987299861,0.6652643988,-0.0504755532,-0.002108201,-0.563737392,-0.1715408153,0.0829510215,-0.4345121591,1.2661562996,0.3809858963,0.199267103,-0.6623036852,0.0637350248,0.1556329079,-0.0188934907,-0.1511499839,0.4469382291,-0.5769845193,0.2498629146,-0.1354681021,0.0300745053,0.4963942657,0.3158952605,-0.1672896492,-0.8082158574,-0.1949419175,0.4100700111,-0.4284754023,-2.1835733043,0.0774856632,-0.6598785049,0.06438936,-0.7095432915,-0.4184088618,-0.3315357659,0.5254560844,0.0685537332,0.9823834261,0.7889382835,0.9495395969,1.0960708644,0.2479638552,-0.5515981837,0.2760702717,0.4100368811,-0.5957346106,-0.1614659076,-0.229698572,0.2838297855,-0.428918291,-0.0785811869,0.1554009832,0.1769760829,0.0045291417,-0.1806893333,-0.5879039937,-0.5077926322,0.0040635899,-1.0189175737,-0.9724862692,-0.1935446274,-0.1028108787,0.2262961804,-0.3053743749,-0.516647654,-0.3034962559,1.0551363023,-0.1138981069,-0.4938951178,-0.1199390983,0.0318943212,0.4464189806,-0.5927754144,0.6453836568,-0.5296998857,0.2901360825,-0.2150857163,0.0043832213,-0.3959791405,-0.0848521412,0.1278493876,0.1390344986,-0.489881906,0.3529562753,-0.0851042842,-0.0702694941,3.0058765916,0.0228534345,-1.0841976668,-0.331798491,-0.251872631,0.304590338,-0.1871732471,0.4779694795,1.411508682,-0.380165126,-0.2764214761,-0.5616642915,0.4762746669,0.6278858238,-1.1384063382,-0.1165858211,0.5335433678,-0.4421765017,-0.1369604104,-0.3319739651,0.2578579336,-0.7606946089,0.4736227603,-0.0629246127,-0.1384436851,-0.0187548878,-0.0518995517,-0.1504619694,-0.2189271108,-0.205916664,-0.7053618718,0.0364425381,0.5568177236,-0.652890261,-0.5945459154,0.7371960226,0.1896849949,-0.5122204809,-0.3152079116,-0.3854080923,-0.1149332585,0.9883621956,-0.1420630132,-0.0661295555,-0.8029186232,0.231821261,0.2811047645,-1.0944011623,-0.881679087,0.9898855301,0.9073820399,0.1221428518,-0.1761781131,0.7324607056,-0.4340444525,-0.9868637915,-0.3477315699,-0.279603563,2.1167323681,-0.2344076695,0.294939111,0.3001083798,-0.1443745477,0.3786414208,0.1438987533,-0.5379362193,0.18023212,0.7010464177,-0.6543498278,1.0747868663,-0.057782311,0.9740969763,-0.0778488206,0.3627507728,-0.1085086546,0.4402598185,-1.1454276368,0.996190612,0.1071669401,-0.4627390289,-0.0164816169,0.1655171255,-0.1092810535,-0.0560837349,0.656811117,-0.5320892064,0.5775207465,0.1109235648,0.4861574207,0.2700758355,-0.1237342678,0.331735453,-0.1682582242,0.4138951755,-0.6839350111,0.2654585656,0.2408892958,0.16106604,0.1327776203,-0.0140054363,-0.2451094901,0.6299291087,-0.3769134563,0.2258856873,0.4266592551,-0.0654427263,0.1020001858,0.0223378389,-0.402319673,0.8459926076,-0.5433256596,0.4759260991,-0.2299732219,-0.0225577471,0.0757638507,-0.1690679984,-2.857578202,-0.6594292661,-0.6436827293,0.3867779164,0.7195924503,-0.61098779,-0.5206189839,-0.3691564682,1.3830571923,0.0123728998,1.1021137697,-0.7832071811,-0.2475766229,-0.4406298331,0.1027865262,0.1214289054,-0.6386623434,0.5262732165,1.0690601305,0.2747586921,0.2277175459,0.0757512632,-0.2561910515,0.0325200587,0.0051562854,0.0976235026,1.1957131382,-0.1393717468,1.0569696072,0.6297047023,0.2452164316,0.6142703652,0.28580076,-0.2361831564,0.8244041937,0.2816454686,0.9024466632,0.6172828328,1.0050385458,0.7348483729,0.6845230155,0.7233207628,0.7119157893,0.051443401,-0.2858088007,-0.8703521446,-0.2784935167,-0.2027861462,0.5663141764,-0.3569960673,0.8830692095,-0.0828438022,-1.0895804193,-0.0276935804,0.0265947643,-1.1109497415,-0.6335950727,0.5268907999,-0.6044067106,-0.1382777554,0.013523031,1.185153657,-0.275707282,-0.5900429612,0.5443779746,-0.1757091646,0.9090052093,0.1295971342,0.5052100806,0.1679259831,-0.7798601509,0.8514524927,0.2050623704,-0.5804375738,-0.0268572452,-0.8618811573,0.4283349919,0.1142710894,-0.8034478132,-1.0109920451,0.4007064406,-0.2143529515,-0.2075487801,0.7126459445,0.7179019101,0.1980016431,-1.010903472,0.2680084027,0.08283874,-0.4777955931,-0.1053610932,-0.4061501886,0.3002293228,-0.5793629496,-0.2741110282,0.3962808673,0.3215687644,-0.1499431527,-0.6452841731,-0.9496222982,0.4047524269,0.2877809213,0.2334543883,0.7920844821,-0.4707784022,-0.3959282027,0.1880528611,-0.5525104256,0.9490151598,0.2354909682,-0.2271657813,-1.1402882933,-0.7086901406,0.6779986894,0.5407868793,0.1007221174,-0.6644605131,-0.1272106543,-0.4675578641,0.3774920567,0.4498270011,-0.8543769308,-0.4094359833,-1.2626736934,-0.2597378117,-0.0309970892,-0.8674529604,0.2445551657,0.2593994261,0.2209493512,-0.3132356104,-0.0624247078,-1.0069768642,0.1946206906,0.6524659845,0.8452407594,-0.9800905221,0.2964482977,0.581831901,-0.2718312229,0.4795725002,-0.2342801114,-1.3170953524,-0.2845109972,-0.1116629591,0.2259031719,-0.0127189665,-1.4596344557,0.3063777761,0.0455800673,0.1316888165,-0.2825541869,0.8506787983,-0.714072909,0.1916750634,0.0658425119,0.4270329278,-0.3542029443,-0.1290594736,0.4615021246,-0.0458927608,-0.0229713237,-0.4202659287,-0.1881539615,-0.0133466998,-0.4226230946,-0.3302040854,0.2541146881,-1.0321889141,-0.268433073,-0.0220628753,-0.4668955106,0.1120138375,-0.080080922,0.6363481995,-0.1019431081,-0.1524991652,0.3695289839,0.283317599,0.6357302704,0.4345081534,0.2414041307,-0.1257080205,0.2464999199,0.8473203508,-0.3262472854,0.3853926092,-0.502812356,0.6555061944,1.0517174596,-0.3623286742,0.0787218323,-0.2138181824,-0.2225609205,-0.3747607261,0.1557226619,-0.5780764752,-0.5108209822,0.4588964523,-0.2051166389,0.734248201,0.7073596388,0.821883025,0.2487090018,-0.2221565809,1.1276798346,0.9975161677,0.6409976755,-0.7007462719,-0.8016848048,-0.1466241422,-0.4363386866,-0.6361273285,0.3836845624,-0.8055557858,-0.4018406527,-0.4392558372,0.1441669649,0.588606254,0.5052524983,-0.6743917384,0.2440043945,0.4049944923,0.6302493558,0.6651073008,0.2433621964,0.6289532581,0.1791582764,-0.0505449439,-1.043961162,0.1240776429,0.2371785256,1.9914803286,0.8637455975,0.5990890644,-0.266173873,0.1576026933,-0.5331172435,0.0141799976,0.1252524459,0.0744141331,0.8887643064,-0.7877606736,-0.1179246866,-0.5258903494,-1.3450315394,0.3566371091,-0.8202985401,0.4614665751,0.1008674899,-0.0957601659,-0.0516744814,-0.2149037616,0.2545216105,-0.6730675752,-0.6728466186,-0.6731749738,0.3970919304,-0.015046995,0.3352840296,-1.0732776592,-0.2601597126,0.3943180672,0.1363777792,0.2243754716,0.3216843019,0.1386070146,0.5238171738,0.3045428014,-0.3745403965,-0.4316103133,0.5810877775,-0.6496866637,-0.5940072712,0.3016399815,0.8241147827,0.2938379202,-0.3443333519,-0.7254312216,-0.7928143985,0.9640986541,0.5685833832,-0.7934928485,0.3044481423,0.4069522854,-0.8111788818,0.6959963075,-0.7796829347,1.0086967791,0.1458878373,0.2071645869,-0.4468548617,-0.3342009706,0.3598697523,-0.377639841,0.2929476891,-0.7649780014,-0.0914734337,-0.2208871666,0.41971786,0.3490422482,-0.568235323,-0.7974196642,0.6323013526,0.0013530212,0.2255495949,-0.3212288791,0.0470958735,0.6054999139,0.3059587757,0.0070431921,-0.5936691508,0.344048959,-0.8693688211,0.4820724389,0.097257043,-0.265560429,-0.9419632753,-0.0778666752,-0.6163173165,0.418027265,-0.1324865284,-0.2951187953,0.4976793808,-0.3763899581,0.2237318742,-0.3002012566,-1.325827804,-0.0313198622,0.0926520775,0.2095212443,-0.2956797831,0.0641389926,-0.5562049888,0.2081609466,-1.1150877373,0.1930884338,0.64787027,-0.2167075341,0.4084976002,-0.1510127791,-0.7803966564,0.1730469726,0.7115836006,-0.0360362192,0.3599424481,1.0231322079,0.1274832588,-1.319212973,1.1086885628,-0.4460454945,-0.2169575337,-0.598462648,0.4392791643,0.3898733061,0.5222376701,0.2951434045,-0.2013832669,-0.9973541581,0.0515753221,-0.7953508583,0.2581630715,0.4190415271,0.8589274867,-0.38454734,-0.0685174969,0.4574830467,0.6224736016,0.2980011712,-0.5628595721,-0.9257017668,-1.0672275171,-0.3059986311,0.4518806343,0.2190039553,0.1574230617,0.8467252393,0.1880882817,-0.4632375805,-0.1546549932,-1.4610756306,-0.743951082,0.8439308705,-0.5426609513,-0.5328255951,1.0736353463,-0.3254020091,-0.3930052639,-0.8501922077,0.5904453392,-0.4066847916,-0.0233845736,-0.574932723,-0.6854455645,0.9899251965,-0.48189942,-0.6883622552,0.5730201747,-0.0835627527,0.472529831,0.7211472979,0.9141541015,-0.6661097113,-0.190703363,0.3256541979,0.4397774423,-0.7459908182,0.5561930055,0.0324706227,0.3009363755,-0.0527621662,0.1348343299,0.4270165104,-0.3403022465,-0.2289644165,0.2326308631,0.3507330158,0.5517383594,1.6709940154,0.552334767,0.0822787489,-0.2220692052,0.1241579508,-0.1432453139,0.0545674269,0.475752028,1.5061163733,-0.210552474,0.2786963245,0.422150351,-0.1011646615,-0.2953074869,0.3540144067,-0.6355402437,-1.5059371564,-1.7873660536,-0.339428425,-0.6818448423,-0.7438929551,0.1694206703,0.968434491,-0.1007239616,-0.1462547237,-0.2678312881,-0.5454768102,-0.7015518668,0.3980555259,0.7218566025,-0.1799020409,-0.7387273361,0.603133837,-0.0139551361,-0.3027022718,0.3601217993,-0.4987402972,-0.4626767042,-0.3026395712,-0.2758652505,-0.2693477873,0.1877704056,-0.1503523403,0.1768947604,-0.0641637544,0.0744178145,-0.6355765076,-0.4563526815,0.451122842,-0.6066617488,-0.6552185593,-0.7910232671,0.2864826614,-1.0079067049,-0.7939026838,-0.0921324268,-0.5406117852,0.4359652626,0.2874578828,0.0444485312,-0.2499951518,0.5696628944,-0.268492745,0.5428166194,0.1642281425,-0.3276667115,0.2043188831,-0.0415865215,-0.332267801,0.6333750771,-0.967746889,0.4141389497,0.0148148813,0.2623648655,-0.6862325285,0.5903501976,-0.6628082006,-0.3426654515,1.0774038072,-0.0758460039,-0.5888294498,0.086147982,-0.3703428533,0.1216257518,-0.1145567831,0.0441031797,0.0132355915,1.1387563582,-0.5173661939,-0.6478206524,0.3735535613,-0.4424249228,0.0555800855,-0.5967362116,-0.5060385162,0.007767221,0.0027893811,0.0385064891,-0.243171581,0.1027318894,-0.552530916,-0.3390538518,0.7738914733,-0.4835541338,2.7711754688,0.7255163059,0.7177631776,-0.5475055966,0.4274162646,-0.1705977822,-0.0203048201,0.3088565982,0.1061092389,0.5999477908,0.6990264047,0.398196179,-0.2177596836,0.0224267812,0.2678222063,0.4956540153,0.055225855,-0.5847270176,-1.0113117652,0.8588528068,0.3908297663,-0.9175052135,0.7084138527,1.035673097,1.2292577178,0.9757097101,0.5659287422,-0.1226734064,-0.516613169,-0.7915608054,0.1059090704,-0.3726073251,-0.3600742046,0.2294017595,-0.4341995932,0.1970285755,0.5460398637,0.7611046718,0.6961339237,-1.9011942136,0.5445602774,0.5212364844,-0.9445511137,0.3593372266,-0.7768768692,0.896975427,0.0441916585,-0.7750857523,-0.6866373904,-0.8957368754,-0.5061762422,-0.4420719647,0.3107089686,-0.0581417878,-0.8657052932,-0.8835821986,-0.8596778376,-0.8279976674,0.1978136681
##end
biasActivation=1,1,1
[BASIC:ACTIVATION]
"ActivationSigmoid"
"ActivationSigmoid"
"ActivationLinear"
