encog,BasicNetwork,java,3.4.0,1,63716653581185
[BASIC]
[BASIC:PARAMS]
[BASIC:NETWORK]
beginTraining=0
connectionLimit=0
contextTargetOffset=0,0,0
contextTargetSize=0,0,0
endTraining=2
hasContext=f
inputCount=57
layerCounts=2,88,58
layerFeedCounts=1,87,57
layerContextCount=0,0,0
layerIndex=0,2,90
output=0.966113085351255,1,0.186053645866243,0.962550739837329,0.999999932784628,0.658231819403699,0.998264035797822,0.995808081196983,0.995267708573629,0.116635079828989,0.757442932135924,0.631254338923422,0.999872974966291,0.426338887047772,0.00143134559486577,0.635669546924842,0.547578523845597,0.567908382013443,0.992952487819287,0.67587773921516,0.446732481361442,0.999284960753978,0.197010725911034,0.059683648458044,0.927181119327377,0.907254849186808,0.00553467184744083,0.99964983085375,0.000928590215035786,0.229093707593295,0.000796981651498081,0.791955375223516,0.946103564916593,0.4845628798276,0.508669147842043,0.473191190277357,0.984886660034468,0.999978577414411,0.667112170678807,0.999999993967472,0.000806133236457109,0.00782576503215108,0.999639958739049,0.999092781224496,0.997580260446194,0.693834471817808,0.283588325546668,0.00331483350032371,0.0114618186760913,0.975555783602655,0.448273804420721,0.413129538328149,0.00610714844216445,0.046864432006987,0.999999668085948,0.994259424899132,0.867954040674481,0.097721984779582,0.127232663270626,0.0000775383355552802,0.447369038142658,0.0000913552924348739,0.86618157441029,0.0727435788359541,0.999795009845031,0.473957103113325,0.55048773691271,0.00084321298710358,0.541642274806282,0.448938509097979,0.646616778596078,0.827962687711456,0.0250504607247346,0.466360962182675,0.997852287764076,0.926049774246702,0.734774049290278,0.0332051965847673,0.990896415625534,0.99484701083382,0.188054657169762,0.0391546423423503,0.999996418265686,0.290388172647952,0.0429312115555698,0.0154494191002845,0.47785737217042,0.0774354453959795,0.201509032778389,1,1,1,1,1,1,1,1,1,1,1,1,1,1,1,1,1,1,1,1,1,1,1,1,1,1,1,1,1,1,1,1,1,1,1,1,1,1,1,1,1,1,1,1,1,1,1,1,1,1,1,1,1,1,1,1,1,1,1
outputCount=1
weightIndex=0,88,5134
weights=##0
##double#5134
   -1.6990524668,-1.0117791643,-0.5668952354,0.7405396485,-0.7376637783,0.8388221267,-0.5254350994,-1.1454914726,0.5770654836,1.1905429971,-2.4793990545,-1.0618443874,-1.3760960029,0.2770797482,2.3564152716,-1.1659568096,0.9746706739,0.9575123327,1.6416825525,0.619755392,3.0513667121,-1.8408403152,-1.0952988682,0.8289348911,1.0923522307,0.7336353617,1.3718473645,-0.6975469502,-0.9528944871,0.6586415205,1.2276282682,1.1423450536,0.8042037569,-1.9254771289,-1.1165948361,-1.5881526018,-1.1160295323,-1.0870872994,0.8183308126,1.6303115461,2.9039052607,-0.5463364171,-1.1678846133,1.2429205738,2.480032062,-1.0982412762,-3.5873771901,1.0872829972,1.0846485657,-2.5842355868,0.8797245196,-1.89253942,6.3373216792,1.0955445083,0.9041316851,1.2207883858,-1.0882503181,-4.6622634364,1.4612300091,0.8306610881,1.0218532824,-1.2322331065,0.881329099,-3.3274927502,-3.0221923959,-3.6894407928,1.3241978626,1.0396682524,1.2657117577,0.4685223974,2.5096630603,-1.3874271952,1.0027997615,-1.3761332448,1.7512191913,1.5576447498,-2.6592330465,-1.1893957718,-0.0041974619,-1.9882816368,0.7867947189,-0.3303434338,-1.4549049972,1.1081266973,-2.1237401881,2.0050444826,-1.0303448954,-3.7254119736,0.1668650291,-0.2590557719,-0.581712342,0.0325423909,0.6632712322,0.0688553198,0.6539999972,-0.1275708806,-0.2854300255,0.0608200009,0.7402353649,0.6531311305,-0.0487836643,0.5586207217,-0.7729112326,-0.7170622815,-0.2828010971,-0.5288451888,0.5591088281,-0.3506134515,0.2000923869,-0.4818304326,0.0869408944,0.2169698289,-1.0524250265,0.3347721115,-0.9645889718,-0.035443826,-0.1333974021,-1.865400986,-0.3005572244,0.580610735,0.9546251934,-0.9968098377,-0.631926486,-0.1599907741,0.6377814508,-0.1015326975,-0.1719418167,-0.0546180747,-0.1547893758,-0.3864037242,0.3954962351,-0.1891724585,0.5394759963,-0.5066133763,-0.1590352572,-0.0954526629,0.2140078972,0.5093111531,0.3727000476,-0.0615793539,0.5442264904,-0.2913701688,0.8569737237,0.0323578101,-0.0235179581,0.6635564623,0.4653430583,-0.0084564474,-0.4876121182,0.3073730757,0.0582692218,-0.4245248542,1.0936937892,0.0058090888,0.3010003509,0.7442152171,0.2265542941,-0.1740664914,0.6255012199,0.4203662306,-0.4961399747,0.8709324851,0.5890762811,0.6931716904,0.2571483079,0.4987084979,0.230693876,0.4320645109,0.0806414709,0.7327651539,-0.0911359809,-0.4551718311,0.3319650856,-0.6778666839,-0.6731857635,-0.9619245416,-0.5636607314,0.4345472842,0.3864102114,-0.3960962404,0.9336353267,0.2552527035,0.2613751407,-1.0110438332,-0.7439514332,0.3316655326,-1.5234844674,-0.9330070379,0.4397893696,-0.4355556038,0.1329794465,-0.7410758715,0.4497238441,1.4326663872,-0.8057868287,0.355810733,-0.4124723627,0.6275115605,0.2114677222,0.0755317076,0.1433612194,-0.4803107362,0.8686930913,-0.562575911,-0.5565403356,-0.936920877,0.857021064,-0.1997137454,0.9699788606,-0.7127348056,-0.1215969986,0.4927118173,-0.9165671695,-0.0134535471,0.3016276078,-0.812580327,-0.7257842744,0.4659924449,-0.0732038344,1.3274241825,-0.1616407212,-0.4103561491,-0.0097103465,0.218272559,1.5545476529,0.3156417217,-0.3133061381,0.8615789564,-0.543949089,0.2167686879,0.6122014579,0.5055922291,0.6581539452,0.4968864417,0.8209546775,-0.3790237826,-0.3480944133,-0.2365567038,0.7656224364,1.7436549269,-0.0104074575,0.1274832544,0.5949333192,0.6003553368,1.2605633587,-0.047929613,-0.1578016046,1.4256366834,0.7251329057,-0.55321149,-0.3122020758,-0.0499311781,-0.2532127731,0.5597758353,0.2289469013,0.8814418217,0.9525030035,1.1939545793,0.6962789605,0.8493557992,1.0392820895,1.0516091955,0.2787844679,-1.0476460998,-0.1562919765,0.287939726,-1.4570086398,0.5709166468,0.8713038414,-0.2788033243,-0.5017462787,0.4951252057,-0.5874106998,-0.2126468752,0.5042033311,-0.1790327499,0.0446784682,-0.8430837133,0.0639154788,0.5609413665,1.4647391845,0.6023221069,0.9759597417,0.2814287296,0.735897626,-0.661129334,-0.694240119,0.2118877086,-0.1094260586,0.2908571563,0.4408798587,0.4793943474,0.8283922029,0.3265631058,0.695832844,0.6701702671,0.3397753627,-0.885359988,-0.927901072,-0.214562164,-0.2684065716,-0.4334810772,0.4363061017,0.3302353045,-0.2110501834,-0.9622122002,-1.0642988374,0.2638970381,-0.1985214312,0.4445766202,-0.4631424917,-0.4561676294,-0.355394473,-0.4528457725,-0.1897770114,0.3900033683,0.7310512772,0.5246311932,0.5512208607,-1.2268204014,0.8577294535,0.8797959289,-0.0987380385,-0.2072188819,-0.6873648262,0.3050096427,1.4879838438,-0.3429376953,0.1214790171,0.5684025864,0.3961021173,-0.4045471945,0.5836175779,-0.8962023449,-0.887400049,-0.0261188828,0.2405549452,0.7348741147,-0.8941279459,-0.8171246816,-0.1363351356,0.1545327795,0.7833542534,0.3194394856,0.7581455177,-0.7645586381,-1.1295685091,-0.5363494415,0.3173302205,-0.6948514349,-0.1596441327,0.4654689301,-0.1026115643,-0.6204266463,0.4874837679,-0.2426759808,0.2985145727,0.769898464,-0.0465511583,0.9649614641,0.7050051413,-0.3325998122,0.0727357251,0.3659955972,1.0586770904,0.1401102116,0.9271901519,-0.3007828868,0.2365054997,-0.1687038987,0.6851720245,-0.5233702342,0.5609712911,0.4310392355,-0.4728030033,0.2169389309,1.1132043449,-0.1600889668,-0.3537446987,0.0696207271,-0.0969181172,0.1654244851,-0.1613887517,-0.1656734252,-0.7529944377,0.0692024589,0.4728565966,-0.4667627101,-0.1510040154,-0.004125572,-0.3261999004,-0.7726578049,-0.6404685164,-0.0944796168,1.1995288029,-0.1585277436,-0.1076599939,1.2452045116,0.1045594255,0.1368715086,0.1578643175,0.4273384983,0.2622363992,0.7584178072,-0.0532011293,-0.2459773489,-0.1945299453,-0.5729091475,-0.0738003291,-0.1237978193,-0.3726222395,-0.6554919355,0.9346357078,-0.5331491014,-1.1513990211,0.4294878771,0.5536117323,0.1972248253,0.6867631462,1.02631183,0.8169475052,0.3142433607,-0.2989576488,0.6280339678,-0.0914990596,0.7558994738,0.8793256881,0.3540271454,-0.3305813622,-0.8887463516,-0.0112215142,-0.6705123358,0.045761958,0.4662634735,0.3598159682,2.4738778277,0.4026201152,0.711807346,0.837358394,-1.216504882,-0.3357546532,-0.7985926386,1.1706168707,1.1929012034,0.7378052836,-0.1868674879,-0.3211990341,0.5866778853,0.1648112916,-0.3572695423,-0.7628744038,0.0622059025,0.0389989463,-1.5215499903,0.3218746911,0.0805524118,-1.0750731728,0.6132737807,0.5866343035,0.2922795545,0.1491179647,0.0844610392,-0.1828442251,0.181350142,0.3556301237,0.0568772221,1.0755252376,0.5920889335,-0.7052641259,0.5253591629,-0.098569003,0.8478401184,0.3561885965,-0.6646073713,-0.2424771225,0.6630533429,0.5977182711,-0.2564489302,0.7042570693,1.2262647204,-0.0250106939,-0.3673066134,-1.2696267175,-0.4200689888,0.6524307668,-0.0755311024,0.7101277674,-0.6771332613,-0.0944827007,0.3465694087,-0.1650955301,-0.1671817298,0.8210259536,-0.410276014,-0.5090325101,-0.9494042411,-0.1472279386,1.0674943113,0.2527518403,-0.8809608897,-1.5831123777,0.1393085484,-0.5529228979,0.824516054,-0.2088156048,0.1460299243,0.0083867089,0.2642551642,0.1161687585,0.9557227655,-0.0675831802,-0.5902208448,1.4303323091,0.4631112386,-0.3233571539,-0.7563361012,1.1179582321,1.2330949506,-0.076577704,-0.143784062,-0.0795210619,-0.797764266,0.1462616313,0.1655643033,-1.2150521319,0.5670035541,1.2590334786,1.0570064978,0.207033684,0.5065147233,0.2872554713,-0.4960870306,-1.0316383993,-0.341016492,-0.6353258445,0.6074161348,-0.2986546636,-0.3335261635,-0.3468499539,-1.2041492002,0.0598615794,-0.4830446887,-0.1442626906,0.2239148738,0.2950932694,-0.0292557661,-0.0876101411,-0.2639338633,-0.2507947296,-0.3110492693,-0.3773666435,0.0904268506,0.8499962143,0.8031526245,0.6149734937,0.11526709,0.4512584441,-0.4319521121,-0.0197530676,-0.1309244987,-0.5196788942,0.434810731,-1.042262528,-0.5079690034,1.0807516374,1.0190980086,0.5919923325,-0.2539150458,-0.3584144074,-0.6286368118,0.2098076154,0.516179551,-0.7311846909,-0.8080455991,0.2972735783,-0.260297993,-0.249041987,1.2728815934,-0.2479504456,0.0028977038,0.9647723241,-0.7785542681,-0.6262309166,0.3944433593,-0.9676149863,-0.5703491007,0.4562464262,0.2042725559,-0.3983498653,-0.2410385131,0.252762741,-0.8357478309,-0.2739694029,0.371010093,-0.7230501896,-0.1240562875,0.3088099866,-0.2851718871,-0.461413984,-0.3907636261,0.0414901191,0.4340511332,1.3764470445,-0.2795290485,0.6582878958,-0.7455850374,1.0305357816,0.0829452753,-0.6577934729,0.8515174842,0.372431606,0.6396405628,-0.2077134488,-0.2634334986,0.9060175269,0.4939715621,-0.7180268906,0.4602869693,0.2945965788,-0.0388742439,-0.6333586978,0.0803480528,0.0578626201,0.883140848,0.8930778549,0.5863581339,0.2725276031,-0.1990060147,0.9715954139,-0.3178216247,-0.0157411787,-0.4834439742,0.1898090338,0.2331125547,0.0190264487,-0.7830485531,0.672005754,-0.2038159584,1.4938344795,-0.4820250535,0.3680890159,-0.4883256615,-0.8720448979,-0.4877147366,1.1119709584,0.1909822517,1.2586770241,-0.071561202,-1.6747050463,-0.9379816196,0.3426068311,0.3665790729,-0.5063482085,0.4680587148,0.5154722418,-0.2970022772,-1.098501429,-0.9932638418,-1.3576435317,-0.3709230393,0.6596882152,-1.1537157909,0.4347439918,-0.249879254,-1.5716440416,0.9270055894,0.69072842,0.1609191108,-0.0202850498,0.140015726,-0.6520914073,-0.1969811608,-0.2822343406,-0.434116434,-0.0963350343,0.7126692907,0.1895895946,-0.3551305549,1.0076260364,0.1923552902,0.8906820013,-0.1808994808,-0.305274023,-0.0225146104,0.3252089406,0.2560926237,0.259396442,0.5134973351,0.0062244292,0.5664090295,0.3225698199,-0.3479565443,0.4190272096,-0.085315923,-0.1836796402,-0.016613935,4.1509905789,0.2194904799,-0.878296523,0.6498378426,0.2249088833,-0.1990747792,-0.1011191327,0.7612187702,-0.1201536352,0.2403449255,0.6424354744,0.3063437945,0.3476200471,-0.0500967669,-0.3731151648,0.6007804069,0.6889079093,0.8467773386,-0.3490330947,0.2286197876,-0.3380783555,-0.0814888298,0.3540959138,-0.4819213743,-0.1354775387,-0.1412674077,-0.488443782,-0.6670346144,0.6842483013,-0.1928964284,-0.5462502044,0.5076493541,-0.5805625151,1.4970710087,0.3675008344,-0.1866421814,0.597960781,-0.5061100466,0.9484364323,1.3356907342,-0.3242402588,0.0601179045,-0.2996899271,0.0757976079,0.3635788453,-0.1632214917,0.5074254317,0.1334523331,0.7694671169,-1.0113016765,-0.847786398,-0.2154562874,-0.5785183598,-0.5250443417,0.9485858102,0.6205215288,-0.251363146,0.1963718387,-1.1609069072,-0.2455722948,0.4783811114,0.7413131289,0.142677924,0.002664705,0.4043180928,-0.315329035,-0.3392758658,-0.4567051961,0.4297171398,-0.9165540364,-0.2966851358,0.1243950082,-0.2126923241,-1.2283324064,-0.3096150866,0.0321029079,-0.1119611674,0.355207772,-0.0938170752,-0.1972060348,-1.0068817998,-0.159848196,-0.2447660893,-0.1113461347,0.565451271,0.9578172591,0.6017330522,-0.6185196296,-0.1390754606,0.3313312782,-0.3400196241,0.5801991405,0.2887351346,0.0829899142,-0.3068802852,-0.4139478524,-0.0308532805,0.1397472932,-0.1945326249,-0.2561376445,0.3119239382,-1.7093139758,-1.1429519435,0.7082725513,-0.2712550549,-0.134589408,-0.2160773903,-0.0496886229,-0.0414489967,-0.2342510015,-0.0275606165,-0.322283628,0.1573982489,0.242902391,0.3773472284,-1.1849085409,-0.080370356,-0.3481090107,-0.3291104173,-0.3463741648,0.5801863874,0.0304012032,-0.7247290876,0.4892734217,-1.1432974596,-0.3691511674,-0.2907315957,-0.2770326521,0.245893809,0.5206642642,0.0578858219,-0.0195782899,-0.0574071645,-0.2960513424,-0.5401117919,0.1073382389,-0.1619175039,-0.4981536696,0.3233418144,0.2336883922,0.1347468851,0.0809886634,-0.5548377332,0.3183228627,-0.1933857999,0.3547962762,1.1632143721,0.1558862493,-0.2509814495,0.1135903971,0.8609518469,0.1003961358,0.4069785776,-0.2042914851,1.2957861421,0.7573658168,-0.3008520444,0.0134542996,0.6847671473,-0.5986308206,-0.2540880416,-0.4166394504,-0.3647034147,-0.4817849268,0.0933728005,0.3168098273,0.9849014173,0.2156956682,-0.5121996589,-0.4267918697,-0.0981693376,-0.1571298235,-0.2625352406,-0.5597484808,1.4227260657,-0.0557612896,-0.7328393829,-0.574793605,-1.0316231655,-0.2485455105,0.5107450324,0.1156631323,0.1939109197,-0.6958412194,-0.5145624004,0.0979240994,1.1688448743,-0.633051244,0.8785994169,-0.3916590993,-0.3288292282,0.595753913,-0.0722796739,-0.8502986282,0.2243858894,-0.1793775755,0.3853410999,0.9111837645,1.1865388969,-0.6394650574,-0.5149823022,-0.5504511896,-1.0831173324,-0.3121699905,0.389825653,0.1145166213,-0.1143917804,0.4783620158,-0.8437848502,-0.0039604896,0.3353876754,-0.1778098889,0.1919498248,-0.061583057,-0.4960799528,0.3559933206,-0.1068155613,-0.3686140857,0.1286865133,0.1577380689,-0.4697109238,-0.1743127461,0.4140062489,0.4947188349,0.206696242,0.1439506432,-0.1740348055,0.2649815202,0.5150608646,-0.1378487781,-3.3784672783,-1.5130324578,2.2888921182,0.9654336703,1.1268395297,0.455957066,-0.3600464351,0.1022986175,-0.1259396547,1.0125530165,-1.0506986204,-0.330575292,0.0236951752,0.5724084778,0.1047981562,-0.2750565721,0.0256863765,-0.4649648028,-0.310902372,0.2266066956,0.2331595263,0.0317257442,0.2404591542,0.1573904341,0.4798067927,-0.0282901642,0.1372211626,-0.0408430476,0.099540404,-0.2717112069,-0.2714460343,-0.7345226547,0.5926168052,0.3507559753,0.2011178058,-0.3286839943,-0.2047129408,-0.0508485603,0.4293686594,-0.0810645567,0.071483019,-0.0976268263,0.8746629744,0.4436916467,0.3370171364,0.1709793066,0.5381209877,-0.2728371528,0.3355731646,-0.7958601517,-1.1629460197,0.5572530672,0.4458662019,-0.1246033957,0.5988074986,-0.5871077468,0.6258444817,-0.1667708018,0.5720867321,-0.7026188017,-0.9992964559,-0.2769408789,-0.0077421522,-0.1839448057,-0.9125614385,-0.5453452004,-0.0113851925,0.0310126964,0.5494060924,-0.7049332294,-0.5940111827,-0.3498545647,0.3096984037,-0.9374727736,0.6129896321,0.3460086685,0.6522082997,0.1953331129,-1.1272082525,-0.4608780291,-0.8460849798,0.3461013471,0.3116237912,0.5760918255,-0.2993337228,1.0867330631,1.1281882441,0.5319212199,-0.4415822163,-0.2749893532,0.4712477498,-0.1871777439,0.2770863292,-0.8705840203,0.1168866988,-0.5516258646,0.4390004894,0.5973273344,0.2165044521,0.7912245564,-0.2977965491,0.6297225421,0.9943863043,0.9854820811,0.0330163601,0.2543429354,0.2670148756,0.0459715623,-0.603951867,-0.0368781568,-0.2321266531,0.8365936209,-0.8502197914,0.3142640503,0.0757961205,0.2462503014,1.032848713,-0.1073149334,-0.3710323321,-0.2494418601,0.0109147165,0.2471354116,0.2804086926,0.5041985122,-0.2291647228,0.6771891943,0.5746641062,1.3898965897,0.4636797293,-0.9399623686,-0.6717754756,-0.143573284,0.2169609939,-0.0870217849,0.4390825547,0.0676523866,-0.1436678634,0.3057111745,0.5135209676,-0.446514896,-0.6808274267,-0.8507943539,-1.4730643373,0.602614009,0.5060967528,-0.8730820954,-0.0190342576,0.439889448,0.2180953124,-0.164759991,0.3672997101,0.5961413684,0.8186026265,0.2161245139,-0.410654095,0.6000742393,-0.9200197446,-0.8942895822,0.6825052087,0.9694095271,-0.2681469488,-0.5063906033,-0.2140845795,-0.4743422894,-0.5111832295,-0.1397413608,-0.4288905987,1.2248100799,-0.7964407715,0.2584975056,-0.9133486944,0.7656520385,-0.4210422572,0.4341792476,-0.9153449416,0.2581849132,0.8923306259,-0.6980173209,-1.564557598,-0.6653987852,-0.5083375418,-0.4260593378,-0.8930869674,-0.7675115722,0.2868374495,0.6344147955,-0.081875475,0.9251160745,1.2993526745,1.072287764,0.3287002236,-0.5265832919,-1.0791126468,-0.4357157507,1.0487805829,0.8988296413,0.4323563534,0.2514119934,0.0379119771,0.3024516442,0.9027375603,-0.2560191692,-0.049134006,0.081785222,-0.8195080396,0.679554693,0.4493565625,0.3243128788,0.2996938346,-0.8418187191,-0.0460004279,0.3206418038,0.0747523604,-0.2150548601,-0.6075209885,0.0358970021,-0.5027532016,1.3971537937,0.1001902167,-0.1102922518,-0.9934380107,-0.5234371466,0.2989221051,0.552442693,1.3736882499,1.4796308294,1.5283113009,-0.265498527,0.2502792525,-0.6799253006,0.5533085332,0.2929817681,-0.748203243,0.7215044256,0.6893487926,0.8404890679,-0.1058298838,-0.1946086403,-0.4331046209,-0.2640015223,-0.6035619754,0.0647658886,-0.013304537,-0.5364997948,-0.4558941557,-1.0302999924,-0.3796747536,-0.3626210691,0.3141788439,-0.4879720884,-0.527320705,-1.6646719158,0.5474962611,1.5635152578,0.2838096297,-0.3846962297,0.5248268161,-0.616076935,0.2258547634,-0.3044109685,0.387265294,-0.9353313595,0.1166167773,-0.9912815141,1.1438310073,-0.0915660232,-0.6429165734,-0.7447816301,-0.8727667134,1.1561136364,0.0867290687,0.256871949,0.142460111,-0.3377273702,-0.2339453221,0.177136907,0.6553138668,-0.3354082316,-0.8247280365,0.5235351514,0.2398216139,0.3888373785,-0.7125091908,0.7873146213,1.0119231536,0.943970505,0.5618732871,-1.223377557,0.3773960664,0.5508987237,-0.0046878903,0.221027102,-0.4428953001,0.2750886465,0.0976137511,0.7769888399,-0.7334438323,-0.1290092413,0.6343294217,0.0474948349,0.1771415719,0.6802228747,0.0720700264,0.615394165,-0.2692163125,0.6938034095,0.2030551792,-0.8835571991,-0.4225621258,-0.7371068803,-0.35712153,-0.1888598098,0.4793898677,-0.0116040636,0.6929009043,0.5998167963,0.1090999703,0.6135127823,0.6869560367,0.6223465644,0.449434193,-0.3094774314,-0.2059129512,0.2219001905,-0.1226436625,0.2259933896,0.0410279188,0.4782823537,0.1605041719,-0.4049632276,0.0130277678,-0.1497053034,0.771553314,0.8579236618,0.6381298781,-0.2526335652,0.2929025627,-0.3730682822,0.6712906481,-0.0408286609,0.4113039149,0.931487826,0.4716314664,0.2173196392,0.4014409196,-0.3803287142,-0.2087948487,-0.0058221414,-0.0791897029,-0.3912034654,0.6135559671,-0.3027740218,-0.4332586935,0.5268442047,0.0141614841,0.2852592829,-0.2329215145,0.045175693,-1.0490598055,-1.6005316352,-0.6771504661,0.457056867,-0.1007853486,0.5378221614,0.4417945044,0.3654650712,0.5884289535,-2.8366721548,-0.0319568357,-0.1186410135,0.206706068,0.4023376041,0.0937155668,-0.3726941654,0.3655280466,0.1392929801,0.0410460543,-0.0510606727,-0.2150899557,-2.6972981305,-0.0195626632,0.009333431,0.4074790963,-1.1661365936,-0.4890206563,-0.3210998336,0.4499276697,-0.3917904411,0.1415696741,0.1969166043,-0.1260109887,0.3643827531,-0.3357615101,0.6064839892,0.7759334349,0.4719110906,-0.3443861615,1.5598193675,0.7617561774,-0.0751888649,-0.0722295185,-0.038407539,-0.0625605152,-0.1823990632,0.6321639144,-0.3760059709,0.4026323462,-0.9963079873,-0.1101928067,-0.306086612,-0.4490369495,-0.0737826136,-0.5584104398,-0.1994619658,-0.2173880138,-0.708999126,0.0116393063,-0.1077994962,-0.0255072796,-0.3290469574,0.6587225943,-0.1638578598,-0.8417952857,0.0355758938,-0.0462936736,0.1794964432,0.3898951383,-0.4633956233,0.0769579215,-0.0357739703,-0.0149592588,0.274024205,-0.6607819311,0.208880299,0.2179434293,-0.4530734727,-0.1677906156,-0.6602689383,-0.7018285155,0.7861139125,-0.3697474838,-0.7105920002,-0.5294875356,0.1908537111,-0.038572154,0.9226899407,-1.0146163513,-0.3187107432,-0.3025156663,1.011820693,0.4803135031,0.2249273233,0.297760954,0.1986076693,-0.4201982411,-0.1257093371,0.7778341041,0.2651452979,0.1517276096,-0.5976775092,-0.2829942356,0.0246647923,-0.3197834487,0.3427968098,0.6995899056,0.586608218,0.0610428674,1.0839093146,-0.7345630399,-0.4721874087,-1.0398539021,-0.4553143856,0.5551947791,1.1090038763,0.2052912129,0.4573522721,-0.3453541875,-0.7889058523,-0.1847889315,-0.3420667945,-0.7585914133,0.786473733,-0.2601794052,1.2233103641,0.8806358111,-0.6928495362,-0.4964158259,0.3126636325,1.1461932611,0.0425428173,0.1504083311,-0.1120569638,-0.6322818713,-0.0852979202,0.8757579621,-0.1739191974,0.1993700568,0.6594921181,-0.1780716756,-0.3106747198,0.5413761185,0.7057875728,-0.6439250107,-0.1511044704,0.9617737544,-0.4482445209,0.9160400474,-0.3002179851,0.9007221172,0.0291943026,-0.5292189425,1.1127235002,0.1712893156,0.4784285431,-0.7864446633,-0.44084168,-0.0912338115,-1.2517084295,0.5976842534,0.7347023288,-0.4664890868,0.5797148212,0.6560694596,-0.927618776,-0.9170747202,0.6143496756,0.8187023753,-0.5861339256,0.2766212322,-0.2596358699,-0.3685775625,0.5365516795,1.187884315,0.5807461324,-1.3227320747,-1.0316848068,0.9909092031,0.3736491361,-0.5716712287,-1.035052844,0.0283383554,-0.8142164375,0.2444350785,-1.0054958594,0.4690657543,-0.9116580866,0.4743655208,0.4362661539,1.0114502489,-0.2008645089,-0.510043828,0.3141781942,0.7571904212,-0.0179051334,-0.3563039048,0.0251184498,0.0137247361,0.0854803321,0.6629745617,-1.3133316042,-0.7006431679,-0.0701938458,0.6763308374,-0.0259844194,-0.5798701262,0.8009927646,-0.7108602988,-0.1555567501,0.6598081275,-0.3959983508,0.8641027997,0.5394104584,1.2261476686,0.6870783587,0.3205342594,-0.7824098983,0.0744364018,0.8739283011,-0.1892309537,-0.8318938721,0.039598677,0.3457704702,-0.3683293321,0.0394532246,0.7764696606,-0.364103012,0.5065323988,-0.7777091282,0.7329792624,-1.1671738682,-1.4031950263,0.1884205381,0.354786596,-0.2442865359,0.1472108523,-0.0033607821,-0.5392604636,-0.974690561,-0.3824881076,-0.3138931683,0.8252199117,-0.9113834667,-0.6059219018,0.2125054349,-0.4819340039,0.7756539259,-0.7485835722,-0.1357755306,-1.2293112443,-0.119027412,-0.3221112237,-0.4410487977,0.2930050165,0.4483914178,0.8639455191,-0.7213479732,-0.1739914458,0.5756382786,1.0491302198,0.5593496865,-0.1809825284,0.1503770702,-0.0129962839,-0.0084367474,0.303165755,-0.7110077135,-0.5048733243,-0.3277860252,-0.1771244758,0.4976269557,-0.4151004649,0.3694604028,0.1814200463,-0.390886462,0.0155576122,0.0811829919,0.3568836564,-0.0593939873,0.903802533,0.3845919779,-0.1707662248,0.7380879653,0.2623375967,0.4883230467,-0.2248737466,0.689565508,-0.0383147461,0.2011851732,0.7631922948,0.1926405055,-1.1301237802,-0.2247384813,-0.7522513375,0.3679906536,0.1804993042,0.6839521475,-0.1040452353,-0.84507737,0.2744419578,0.6573321656,-0.5409075095,-0.386694094,0.7937332692,1.0761202202,-0.2965392167,0.6872598174,0.9629112027,0.885121638,0.4867652576,-1.0701841755,-0.9371278073,-0.0196711315,-0.2602795538,1.4105292152,-0.1671785366,-0.494125325,-0.3646944517,-0.2913953725,0.456615299,0.9140740244,-0.7346845511,0.3412614983,-0.2930708154,0.7468105129,0.6648905889,0.5201624704,-0.1745106325,-0.9748113715,0.3358457465,0.1727666057,-0.5400171871,-0.0468594049,0.2162107326,1.0170928887,0.8020642592,0.6794310493,-0.5599936196,-0.5149518822,-0.1410497385,-0.7332167571,-0.6910563125,0.9986979024,0.8818475144,0.5686428656,0.6551020631,0.5625407466,-0.5017210847,-0.6864606542,-1.9769232907,-0.7017340305,-1.1146291604,0.2625458859,0.1850661549,-0.2408890461,-0.7587661009,-0.9249918088,-0.4232920155,-1.0740274243,0.2759861747,-0.3138569625,-0.5619821738,0.6018539206,-0.5905593763,-0.141091494,-0.7511649134,-0.0907351876,-0.3013164329,-1.1581590532,0.9874592264,-0.235269346,-1.0924014798,-0.7753394567,-0.4441463506,0.8929026565,-0.7586287913,-0.5301273587,-0.2668792222,-0.087273489,0.3886667545,1.0087376985,-0.2356271029,-0.2277387994,0.0629638439,0.4362021491,0.6461783704,0.4217899117,0.3168214321,-0.4604107385,-0.5024590114,-0.6186307342,0.0035973234,0.1278009976,-1.091996253,0.111254163,-0.7947396168,0.0073353968,-1.0698762247,-0.4174010322,-0.8559191573,-0.1354753331,-0.1181062819,0.5521056251,1.1189825334,-0.4162672197,0.5177551596,0.1544742778,0.659044133,0.7293353773,0.318836548,-0.3613558488,0.4341091553,-0.1954360761,1.944075149,0.2777749295,0.2250610123,0.0189442463,-0.02756943,-0.2307845979,0.0839803889,-0.5519716455,0.2583241014,-0.9541780077,0.073721557,0.4332814422,-0.2498614115,-0.719115422,-1.181996791,-0.1367219542,-1.0535099015,0.8000723997,0.5756835131,0.8098710307,0.7459377659,-0.0390283352,-0.099611073,-0.5097128906,0.3237302244,-0.3371868668,1.0104120785,-0.0046599053,0.6260158544,-0.7278422368,-0.0617149091,0.5163866888,-1.3584543206,-0.3250596525,-1.0421074117,0.0166798133,-1.1952243112,0.2597980438,0.5363164274,-0.0728922714,0.0909434699,-0.3881762575,0.58968727,-0.1540730865,0.006638222,0.3720736104,0.3303811484,-0.6083535539,-0.2042251097,-0.5091950504,-1.2132971323,-0.0386039439,-0.2057056422,-0.3308881917,-0.9605888003,-0.1974989077,0.2328961497,0.1623055293,-0.1001102832,0.9965466288,0.419243425,-0.3577938459,-0.4364581749,-0.4043635099,-0.2379083564,0.2895618108,-0.2332135426,-0.4334539153,-0.4251196032,0.1213618678,-0.7337347187,-0.6480205502,-1.2632820758,-0.4759604741,-0.7713403639,-0.9609405236,0.0967894275,-0.6280002269,0.4241496461,-1.0624580721,-0.418768839,0.5306269292,-0.1893818979,-0.3803790736,0.502464175,0.1288735521,0.9850635554,1.3773555865,0.2617007116,-0.7155326043,0.7670718583,-0.0850862702,0.3990794225,0.1584855282,0.4758528982,-0.1030245195,0.3922183343,1.2294193761,-0.1066544886,0.6879315878,0.4482933197,0.5580507011,1.1529111825,-0.2410509403,-0.2817127596,0.4511819368,0.2025283066,0.4659198828,-0.9056799964,-1.2847818777,-0.7284308761,-0.1730012628,0.2599144128,-0.1913915313,-0.2505338046,1.0806059929,-0.321578326,0.3987374105,0.4819765775,-1.4319812848,-0.4937930962,-0.1136808526,0.4617202316,-0.0347083136,0.1623223839,0.1850960159,-0.0031827149,-0.4406362028,-0.187536512,0.8548953449,-0.7535926075,-0.2442783991,-0.4815034016,0.3177736969,0.1219291616,-0.0923260959,0.5273308709,0.1680571751,0.4891776507,0.0765182934,-0.3636397745,0.7996300548,0.2742626523,-0.1336273267,-1.0637168998,0.5251229556,0.0194802257,-0.0111174648,0.4992179385,-0.1669017918,0.1809374834,0.4329201625,1.2411832923,1.0812801074,-0.2081806044,0.1538901979,-0.4983130249,1.0864727103,-0.2975514714,0.7522576575,-1.3863922625,-0.5473692503,0.5640196542,-0.3384896806,0.4794681804,-0.988885604,-0.0587528034,-0.0714547775,1.1716303396,0.0865655755,0.9564309486,0.4484199058,-0.8081961526,-0.2989010867,-0.0416353325,-0.0277349701,-0.5171987193,0.0412488448,0.1402728633,0.5922079518,-0.1944950457,-0.584919865,0.3706688828,0.0841409249,0.2918041083,-0.0656035761,-0.7344360524,-0.1298584352,-0.2427118834,-0.5643168406,0.5935342034,-0.5735649443,0.4454963268,0.6487526351,-0.933163414,0.5626919647,-0.4194270667,0.9235353914,1.1918049493,-0.65064548,1.0283022296,-0.6320416504,0.7128539447,-0.2641543699,0.0132686265,0.0491744691,0.2059606915,0.5290280718,-0.2790869301,-0.3202142961,1.1816567638,0.8538141444,0.0143730067,-0.2075479697,0.2053766449,-0.2176442714,0.9860963226,-0.2353216979,-2.1285652345,-0.7454878494,0.7612512738,0.7907193191,-0.7670261106,0.3779254419,-0.8421328022,0.6106578726,-0.4290212335,-0.8780059956,-0.9149638641,-1.0047252047,-0.1197660699,0.8986649257,0.6687242784,0.577685736,0.0196086473,-0.5762904674,-0.0785128768,-0.6809751408,-0.4177136383,0.0354574892,-0.4715264243,0.9282028491,-0.2138034708,-0.7519220983,0.0117530647,0.6720942617,-0.2257681605,-0.5111862996,0.4828245405,-0.7296134755,-0.5194223698,-0.1508469114,1.0446966507,-0.592236282,-0.0023943296,0.2460362509,-0.2298197136,0.8346399667,-0.0183818393,-0.0687893038,-0.2353750875,0.7870925231,0.4395512543,0.4344395234,-0.0178423001,-0.6807592522,0.8834653554,0.1189706477,-0.4032146038,0.2996705776,-0.0707987032,-0.5588444687,0.1159554131,0.9856301396,1.5131145029,0.3249129905,-0.7615526435,-0.3284346455,0.0837059787,0.3162143191,0.6622762333,-0.0543063233,0.514798833,1.0505200759,0.8018225106,-0.2041083132,-0.1349546172,-0.4005879046,-0.8424015514,0.3445440849,0.2913494575,0.4445189549,-0.8374573804,-1.034696703,0.5842652378,-0.556846047,-0.5094468811,-0.0712148466,-0.2725635784,0.6504812522,-1.4213307007,-1.0764039539,-0.9753398777,0.2761229299,0.2941706496,0.2659204506,-0.102168348,-0.0432497799,-0.7770041763,0.1418539559,-0.7187467739,-0.4163173534,0.1705035982,0.0354051646,0.6833640379,0.2564610784,-0.0368189567,-0.4412169595,0.1099045129,0.0455847348,0.1331533802,0.0125000906,0.1895681337,-0.1704661144,-0.6371385653,-0.3457167399,-0.245376838,0.3865988584,0.378393371,0.0403755657,0.2608881182,0.0768642136,-2.8178231474,-0.7123405789,0.9193350505,0.3822650882,0.129970268,0.9737580389,0.4956884938,0.4056717069,-0.7152334333,-1.1917714747,0.3997537078,0.231730419,0.9380247145,1.2397250652,-0.034956835,0.0753778915,0.3813541168,-0.4499191328
   -0.6140933901,0.3145776216,0.9014748125,0.0988038163,-0.2647456624,0.1252435105,0.0821551075,-0.2502166018,-0.5578356157,0.283389518,-0.2512461507,-0.1727221562,0.5608398148,-0.4520480816,-0.1916505426,-0.2694871606,0.0872068212,-0.6882122034,-0.7868861579,-0.273534357,0.2469891316,0.3061699671,-0.4656995673,-0.4079293128,1.0823240899,0.4935183566,-0.622465559,-0.2918511937,0.7399364649,0.8650360431,0.7107755818,1.180762635,-0.4532437371,-0.3986239657,0.0224505843,0.0400225044,0.374039584,-0.0499811764,1.3037907688,0.1697912884,1.5801510379,-0.1336730017,0.0547901011,-0.6155208106,0.4294887101,0.7778415033,1.2475466826,0.1625273081,0.8763246766,-0.0726545435,-0.2710341168,-0.4289002114,-0.8309682819,0.2227517913,-0.1372897732,-0.4416941907,0.2644495016,0.8766725435,0.3300805366,-0.286196692,0.4794963114,-0.1237101699,-0.5694331523,-0.6108248619,0.2272702507,-0.3473851069,-0.5236343147,-0.4513806561,-0.8781985598,0.53799069,0.2544779463,0.3733492835,0.0799042331,0.2502710197,-0.4554070983,-0.2984348047,-0.161830262,0.375290037,-0.8430453622,0.9381522406,-0.3966458498,0.3277055608,-0.003140401,-0.6096656383,0.6038816683,-0.0247671873,0.2637951555,0.2791829022,0.6782145488,0.4363040487,0.0851698907,0.4443183176,0.6482605727,-0.4106535472,-0.0121402278,0.2223977441,-1.1778287939,0.847445238,2.5925049145,0.6490773622,0.8218644803,-0.6053195977,0.2922981224,-0.116682342,-0.2144118802,1.1391288444,0.6644339447,1.7284382915,0.5485412518,-1.0393621481,-0.1280737932,0.0246286759,0.623221919,-0.0416830819,-0.6413180308,0.1307138453,0.1513544585,-0.6346468891,0.0225516969,0.1136200931,-0.0764542801,0.4751624618,0.2744456139,0.9461776216,-0.203557252,0.4783192703,-0.3969348425,0.4583733386,0.3422515217,0.2482719834,0.0897922888,0.646137301,0.7674746105,0.1711917572,0.3430195701,-0.8878140748,0.4700192785,-0.1926859472,-0.3493136332,0.320296382,-0.5603782731,-1.0419178389,-1.4640553866,0.7574794972,0.1455523609,0.2693676498,0.8852885265,-0.0050652135,-0.4194184078,-0.8869595231,0.2181524526,-0.8600355063,-0.4449877385,0.4401236183,-0.2610959607,0.5611789961,-0.3919162408,0.1855348089,1.6373471166,0.5765807633,0.8031507546,-0.6428962284,0.0877325389,-0.8895144096,-1.07795547,-1.0842961468,0.9412225398,0.3371511615,-0.2473021634,0.6975562137,0.8157458184,0.422459041,-0.0576266842,-1.0212496299,0.1044440725,0.3969950164,0.9276861207,-0.0096453135,0.0535530615,-0.394777599,0.0225853973,-0.3399538162,-0.5163384201,0.4731107005,-0.0779971793,-0.3381224114,0.8667161576,0.965647049,-0.2121457503,0.3084174284,0.799323437,0.5603326493,-0.147173185,0.9465983843,0.7586374854,0.1345330246,-0.3320129419,0.7829149823,-0.4206540212,0.3100274048,0.2010462366,0.4001759906,-0.0748662048,0.29558155,1.3551737678,1.935353337,0.8695697051,0.0242320551,-0.406456003,1.0169372647,0.5550649406,0.5359927164,0.1255075447,0.2111530275,2.1270375668,0.3716419043,0.1462037424,0.0750933316,0.6000307825,-0.376852539,0.1691314581,0.3004810598,0.7760520506,-0.8114455869,0.2018922764,0.8093930517,0.2407644898,-0.8139744217,-0.0035103691,0.6222607905,0.9385155709,0.2236846403,-0.0655398592,0.0499506076,0.3028664286,0.0691627958,-0.1720289531,-0.6715888937,0.4786529724,0.2295614279,0.206721295,-0.5211182249,-0.4019802904,1.4593712255,0.5145849586,-0.9440704663,0.6205424838,-0.2029208784,-0.8724129667,0.8404329291,0.6272684595,0.2090788982,0.6138291725,-0.5529092253,-0.208001917,-0.7301885852,-0.9952855818,0.7850928455,-0.3932729289,-0.4533457551,-0.7024052233,0.9819433315,0.675831774,-1.0665585343,0.2830241754,0.499299771,-0.8843357297,-0.0045488107,0.1026496717,-0.1414296117,-0.0492440957,0.3829622187,-0.4349415068,-1.7284198992,-0.1357928884,-0.1465251378,-0.0991944234,0.1456417434,-0.2855644808,-0.2327506623,-0.141996339,0.2473088061,-0.236500541,-0.7631532465,0.7769416892,-0.2356978814,1.0919734534,0.8831692318,-0.5962049472,-0.3835498287,-0.7898752816,-0.9036962644,-0.8317465924,-0.6869182819,-0.3576810802,0.8244420079,-0.879674895,-0.0629233427,0.2057829193,0.0736463167,-0.0762702504,-0.2978119062,0.0219396958,0.3268234785,-0.6395615422,0.2606541099,-0.1992424628,0.5663318428,-0.1142494523,0.8031306752,0.4259562454,-0.242517739,0.7243307619,-0.3768010469,-0.8447190337,-0.0444934659,-0.6569438304,-0.2590235216,0.0453908921,0.2138440492,-0.1031482462,-0.076505529,-0.990202828,-0.0313140821,0.2766245604,0.1148803064,0.4279051652,-0.4829011834,0.6047636219,-0.0117748661,-0.9662746998,-2.1550796702,-0.1622653941,0.0118152093,-0.0402291868,-0.2025402741,0.4731981686,-0.2126406598,0.3467784805,0.551127531,-1.2660604569,0.4933635829,-0.8973529548,-0.4797446996,0.3064934957,0.4217160917,0.0477513492,-0.7186568879,-0.3875248945,0.4656041563,0.2124992372,-0.3309889934,0.4102925141,0.2148510478,0.6564447574,0.6165311355,-0.3611724987,-0.3843773302,0.3016445914,-1.5468007665,0.1638144058,-0.0371099783,0.4431743765,0.3659157195,-0.00751256,0.5378873278,-0.3511649908,-0.0205830158,-0.5555174374,0.0866717397,0.2511669658,-0.0679053564,-0.342421644,0.2253717096,0.5019853306,0.3593850085,0.3030815083,-0.1649807135,0.938324291,-0.2182205942,0.4415918927,-0.5409538683,0.3841632993,0.0428646233,-0.0976315814,-0.8431078143,-0.1695674998,-0.8487168509,-0.6090247951,-0.1902471486,-0.3872376307,0.3958130065,-0.1548574793,0.0492129222,0.5367078154,-0.7858304114,0.5858903761,0.0331429744,1.0594270042,0.263845107,0.1247808857,0.3429124063,-0.201807073,1.042161281,-0.5635106917,-0.2404646817,-0.1726765733,0.0541215414,0.4128012016,0.3586397568,0.2360599405,-0.3689659863,-0.1009274153,0.1743015402,0.672423134,-0.0860077142,0.5266806193,4.1411880466,0.557715932,-0.1844772647,0.031220852,0.2845849812,0.5215810908,0.7532282226,0.661262521,0.578197329,1.3048545942,0.4051887651,-0.5934268496,-0.7708321977,0.8671579791,0.7645843899,0.6037292665,-0.2138787979,-0.0103405417,-0.1541013444,-1.2013421693,-0.5837699668,-0.2219669989,0.966828746,-0.1877088408,-0.444014721,-0.2070668823,0.2594590118,0.4139226064,-1.1086789769,-0.7656871553,-0.1085743933,1.2828062404,-0.3331286549,0.3549293926,0.6909161476,0.1890819796,0.1131243896,-0.4857021,-0.2715574225,0.5111986897,-0.2907637519,0.2205610314,0.818206812,0.2693512726,0.3646672664,-0.0374676331,0.2748844462,-0.1046053087,0.8698609465,0.778124679,-0.3821499006,0.171230103,0.699616624,-0.0766530753,-0.598604332,0.3426500601,-0.6740939561,0.0592941023,0.0307717713,0.0757211816,0.5809394664,-0.1767612602,-0.6479352817,0.5037498351,-0.1155142934,0.2142774851,0.2003522635,0.0136713198,1.1570643695,0.251077307,0.3149799987,0.010257574,0.0323651433,-0.1854122589,0.2259806341,0.0602674628,0.6629822662,0.447409287,0.748101986,-0.3034552902,-0.102726226,-0.5140915232,-0.317934751,0.4138270885,0.2892210308,0.0334605708,1.2855191269,0.0047991357,-0.7466243656,-0.3888793305,0.5349966929,-0.4592789678,0.3641337166,1.2189046688,-0.6787339728,0.8239116739,-0.7039790239,-0.5370083236,-0.1889839126,0.2279920842,0.7397270171,0.0895364982,-1.3076088996,1.3160421407,0.2612184881,0.3014083868,0.0449228559,0.0246039244,-0.5154784024,0.2616639364,0.6630774481,-0.215926438,-0.9725634165,0.227794525,0.4064571005,0.1926902274,-0.1245091968,-0.7360565254,-0.0997973953,0.4879120972,-0.0524027139,0.7170024702,0.1950499769,-0.2243367304,1.0885197938,0.5225825652,-0.3944690288,0.4202447976,0.6187165342,0.3846054525,-0.4666378241,-1.4557544884,-0.0861917422,0.2445018744,-0.7015122387,0.2386629929,-0.3342336982,-1.0971963048,0.7595423827,0.3584105949,0.5494360862,0.2731545758,-0.9851334238,0.4244494949,0.295619077,-0.0986638316,-0.385343049,0.3528232835,0.1722187985,-0.0291965407,0.1697883994,0.1430248165,0.2599421345,0.19873848,-0.3915311459,0.5921931448,-0.0948046503,-0.2381146598,-0.9196586686,-0.6363679122,1.3004991159,0.2178129712,1.1238889004,-0.0369226107,0.0214769576,-0.2192120576,-0.0883008908,-0.6868840043,-0.3717913121,-0.2646508417,-0.5372998048,-0.5804895171,0.6735496713,-1.7931637732,2.0198790825,0.2273876961,0.11794098,-0.2485927227,0.1151108801,0.0573039222,-0.4094784919,0.6255652147,-0.200031922,-0.2139304386,-0.4053453781,-0.4487798985,-0.4917589909,-0.4821008126,-0.1081208582,-0.159562292,-0.3934973287,0.2055068363,-0.4895185292,0.9974124696,0.4559175376,-0.5105402993,-0.0120621101,-0.5348308737,-0.4015513547,-0.1911703784,-0.1524681889,-0.7652399875,0.8014374134,3.2746231752,-0.1022716963,-0.2604867597,0.0046681266,0.1146557666,-0.2993416422,0.2807942814,-0.6291628513,-0.1012566399,-0.1561382876,0.3407288592,0.1908592215,-0.0316909084,-0.325194627,0.0862823637,-0.4927778379,-0.3461185264,-0.0867608178,-0.0296744319,0.1041882319,-0.3328309135,0.0709120302,0.089309446,-0.0607472998,0.449061323,-0.5168581731,-0.2568709616,0.1856887261,-0.0740695745,0.9987520205,-0.5328179308,0.025299076,0.8580998288,-0.3864967242,0.0713220765,0.3384422801,0.2993828305,-0.1021464253,-1.3670975416,-1.0299045707,0.1709709523,-0.0589269843,0.1265093299,0.6813924178,0.0884885472,-0.0723295674,-0.3134899441,-0.352568642,-1.0703061831,-0.7693548462,1.0352430834,-0.1830090152,0.6643970526,0.5225294238,0.2104346106,-0.3798313892,0.7655290837,-0.5668468636,0.0832967694,-0.3866006349,-0.1957717637,-0.7269549954,-0.3518574411,-0.0898403837,0.0306722367,0.2186897986,0.0493110361,-0.2568015877,-1.7037336603,0.2981646986,-0.2346317879,0.0820402768,0.3339976559,-0.4305893685,0.0664520154,0.1925734621,-0.752021554,-0.7146388638,0.8341537953,-0.6241575444,0.9660300562,-0.2789484124,-0.0099638565,-0.4752545142,-0.2453829732,-0.3310166942,0.2914518498,-0.0174842865,-0.0811305583,-0.150598147,-0.2432054938,-0.192122899,-0.5036229477,0.3998669569,-0.2956293175,0.0453416463,0.2868774747,0.0397597578,0.4085687149,-1.0700401205,0.5134634457,-0.1211511593,-0.0101480152,0.1595751325,-0.1187777673,-0.193025392,-0.3519812312,-0.623054172,-0.3117656411,-0.2574079263,-0.0293761039,0.0015820342,0.1032843076,-0.2862549409,0.2688348114,-0.1158998763,-0.0313982475,-0.052718427,0.2030531386,-0.2245109393,-0.0582468063,0.1365470445,0.1026081757,-0.303981663,0.2544813427,0.3369581299,0.2613797731,-0.0520251594,-0.1133193757,-0.0701620373,-0.0270248207,-0.3732245875,0.1285068362,-2.5077110163,0.236729124,-0.5391538941,0.0574806593,0.0536148554,-0.2716946835,0.0444182893,-0.2301002482,0.1398916344,-0.2895417835,-0.1581538428,-0.2456373861,1.863663451,-0.570209846,0.3104983046,0.2456118992,-0.5261198215,-0.3431560092,0.4448797607,-0.5595065773,0.5960750417,-0.685597518,0.7652170522,0.8005465324,-0.2053990131,0.8820222785,0.691319289,0.7007221176,0.6402035734,1.0676130161,0.589194102,-0.6194942439,0.5086607439,0.8785867459,-0.6699810005,-0.4308221019,0.3459695546,0.7592857033,-0.1956606495,1.0569921814,0.0203790052,0.1086379026,0.40570102,-0.6274511076,-1.1124427323,0.2373477922,-0.3570229224,-0.4661239126,0.3654975808,-1.8107167931,-0.6701635022,-0.3837997721,0.8077053338,0.3572623446,-1.3560453275,-0.2545582801,0.3115401667,0.4430161735,0.7621373987,0.9823621854,-0.0693860766,0.6597970044,-0.538312178,0.0969502164,0.2692753468,-0.5490985139,0.1985244501,-0.4591410401,0.5751281579,0.5609328614,-1.2987337446,-0.0308320124,-0.7781318017,-0.1972519423,0.4650524703,-0.1527318408,0.1657000663,0.3263535615,-0.0675041417,0.1456867815,-0.4926823484,-0.0391670314,0.0015681787,0.2137513812,-0.1807224187,-0.1124538312,0.4456773599,-0.0171982462,-0.2395438104,0.0136038861,0.0190879676,-0.476906867,-0.5561445571,0.6082504889,0.2983765599,-0.5304062134,0.1506371594,0.5190038034,1.1484218636,1.2560640977,0.4524802468,0.6968217083,-0.3081915504,0.1577149701,0.0225471067,0.3215553534,0.1703136957,-0.1872369008,-1.0698247966,0.2056397067,0.7544548283,0.0285865208,0.0956446152,-0.1565852304,-0.2188366495,-0.285902471,-1.0735725431,-0.2514382864,-0.6135100441,-0.0378344133,-0.9438757468,-0.0140837883,-1.1663970528,-0.1963605349,-0.7809020435,0.146102158,-0.8843871996,0.491562062,2.5323093996,0.473405636,-0.2018489521,-0.1705565398,0.3259644956,-0.3245381718,-0.0604815905,0.7853727591,-0.8463754715,-0.0202946088,-0.0158099477,-0.4456762612,0.4233530643,-1.1885749917,-0.3948402425,0.2672385443,-0.2621270024,-0.1236910276,-0.4014688183,0.0202653832,1.3953513146,3.4615997782,0.0099991714,-0.2679142508,-0.072445459,-0.0374210662,0.1003112502,-0.4796326141,-0.0024362451,-1.8031206593,0.0692491488,0.4233028545,0.4730258131,0.0737709936,0.0757093875,0.3161205379,-0.4096872188,-0.5435598219,-0.4164885479,-0.2232251692,0.0914673726,-0.0967633785,0.1197609996,-0.3732033335,-0.1526516076,-0.6627013841,-0.5272006768,-0.3287657488,0.0741088107,-0.2190833391,0.0541072312,-0.0401909014,0.5245721717,0.2082289452,-0.0876924848,0.0370837217,-0.1285829991,-0.2505201732,1.4251339277,0.7854866319,0.4254721903,0.1681480201,0.2076813392,-0.304383224,0.0369280962,0.0242647805,1.2295656013,0.3782972758,0.3188451847,0.0115130442,-0.1794416126,0.2418434687,-0.415250655,0.2236181449,-0.1951843702,0.45708078,0.6592063701,-0.3439516088,-0.4882917972,-0.6359257059,0.3159947521,0.838260076,-0.0503061537,-0.966809956,-0.843502444,-0.3410084414,0.2644229433,-0.9594252305,-0.0284239273,0.5465405862,-1.1296353994,0.058560036,1.0158390328,-0.0980617408,0.0884505612,-0.0556548966,-0.0976987426,0.7261456342,0.1643966515,0.0506598079,0.0110479888,-0.4025950084,-1.1745177751,-0.9973613752,-0.6127634081,-0.6370289202,0.7034893086,-0.8278583911,-0.3321710907,-0.4490627936,-1.0803810998,0.2056367293,-0.7730078881,-0.1662501417,0.1066001531,-0.658938332,-0.1112490877,0.9078420364,-1.0385882995,0.7073222457,0.3426364702,0.264221566,-0.49532531,0.9264195269,0.7440905434,0.3938563895,0.2832180586,-0.8568262576,-1.6342448591,-1.0169287013,0.4090090722,-0.2196632761,0.5321233111,0.5118098283,-0.0635411198,-0.3845914941,0.5090328714,-0.5093499759,0.5189926646,0.5417778941,0.0452663226,-0.1579687331,0.7480232807,-0.9627860175,-0.0613555909,0.135264902,0.260078603,0.4769899662,-0.4653313556,0.2769875068,-0.7915658062,-0.0136299563,0.0324765084,-0.6086022317,-0.521755668,-0.0441616503,-0.2892394468,-0.7505073627,-1.1565864826,0.970506711,0.2790853078,-0.5394209937,0.1354337387,-0.4780381074,-0.0927743723,0.5229386178,0.6596560798,-0.0406552135,-0.259302457,0.4379491363,0.2146656105,0.1222257303,0.0690420276,-0.6433914732,-1.8953719451,0.6271893674,0.509095943,0.8090013525,0.2766409366,-0.0047998366,0.5565664669,0.4446002471,-0.0480801287,0.0132655309,-0.1551710786,0.1188787018,-2.5688837915,-0.1909613968,0.171785317,0.2376190585,0.283454557,-0.1917144905,-0.1979282077,0.8741690458,-1.3783974181,-0.033772114,0.2938071846,0.2517891531,0.702801031,0.2290174428,0.0134265896,-0.0184187465,0.5692811687,0.3328817038,0.6181313441,0.047110206,0.1918032966,0.3314681694,0.4779256541,0.1779195325,-0.0767670667,-0.6421270559,-0.7364102998,0.524174474,-0.0642386874,-0.2578295775,0.5324546848,0.1127974305,0.2621727954,0.2644245436,-0.5216570148,0.0439229981,-0.0840154216,0.3153582701,0.3117582216,0.6152629226,0.1852379046,0.0816318815,0.2459823718,0.6027727381,0.3665845994,0.2648106244,8.2001121067,-0.7510759518,0.2026244621,1.0392641092,0.8641756636,-0.8626691442,0.2617366322,0.2783623348,0.6585558099,-0.1247328728,-0.5988874477,0.6827448863,-0.104456205,-0.7546220412,-0.6382829855,-0.5307169277,-0.3275227548,0.3626400971,-0.4166601769,-0.1909600795,-0.3618991603,0.3648302435,-0.5275960895,-0.3167220918,0.111848904,0.9118915049,0.8085239196,1.2403155844,-0.0770069663,0.3025399505,0.688248419,0.9137389262,0.6746968361,0.0039610068,-0.1634338918,-0.4929938563,0.2263310363,-0.168490917,-0.2090337307,0.3177115737,1.3314351838,-0.927102156,0.1247400481,-0.371172913,-0.1325821056,-0.0800493435,-0.6942117078,0.9169477709,0.1158183706,-0.2886978783,0.7030602406,0.1100512845,-0.2070120367,0.402702542,0.7063429771,0.0233220305,-0.8280385144,-0.3954541823,1.3473941485,-0.3384836741,1.1868876124,0.4157643272,-0.2572735948,-0.8501630105,1.7214884691,-0.2165891897,-1.2265553157,0.3051890641,0.5546111156,0.1579194645,0.1758343877,-0.1811985115,0.0168573047,-0.9858767611,-0.3494654383,0.3820728666,-0.376079793,1.0260904006,-0.6741630684,-0.4060265261,0.1161587359,-0.4379341229,-0.5463529758,0.1340908199,0.6386070889,0.6795758891,0.2777477684,0.0782659721,0.2511583525,-0.9570145273,1.0004936263,1.0735731414,0.2521182146,0.5493633109,-0.2687048838,-0.0792380287,0.2142265962,-0.3451020297,-1.5373981828,-0.5521086612,0.7573455642,-0.307169576,0.5514627408,0.4817036784,0.2639554689,-1.0769589575,-0.5623649178,0.1367504532,-0.0239702736,-0.460955484,1.3132363983,-0.4093032733,-1.0596691829,0.0697328799,0.6164482225,0.736995894,0.2334411813,0.5904836944,0.6167074117,0.8624337925,0.7676793194,-0.3390290659,1.1185139115,-1.0407115757,-1.4723465218,0.6307783401,-0.6550582588,-1.4064450197,-0.6455338749,0.1057175359,-0.1679593762,-0.0200143439,0.341334204,0.5001945764,-0.3333869778,0.2828253984,0.4998349277,-1.640618163,-0.3751648926,-0.1608378809,-0.3627456175,-1.0785330965,0.5075032246,0.632999085,0.1674779555,-0.0355753358,-0.1351055191,0.7728453647,0.4127484961,0.4534971984,0.1543186747,-0.9777721973,1.1600358531,-0.1814969035,0.4894025799,-0.2103395476,-0.677494071,0.1484635206,-0.7451921934,-0.3777003916,0.174464571,0.1729606451,0.5778096523,-0.6493285217,-0.3600582127,-0.7663099599,-0.605393428,-0.1016467743,0.0178789027,0.3463136746,0.6508646143,-0.095375142,-0.0165358531,0.1699739604,0.0847943561,0.0392669503,0.3492006292,0.2958893402,0.4670084008,-0.1359396638,0.2418957042,0.0464817446,0.1271409644,1.0232142286,-0.139154912,-0.5798300023,-0.5638963177,0.3819576721,-0.4086838769,0.0695483767,0.6234251871,0.2697561693,-0.652868589,-0.6881999934,-0.3890687608,-0.5005874591,0.712364345,0.5405010276,0.7103458262,-0.1497353034,-1.2363568467,-1.0025547462,0.1365873717,1.0382746251,-0.0020149806,0.5284996531,-0.0508749686,0.2783536423,-0.0440547534,0.4104611831,-1.1776249258,0.1184162719,-0.0152959649,0.019054561,0.3176767252,0.7684804891,0.3668599913,0.5561478611,-0.248104343,-0.5863609564,-0.6762818108,0.0190130809,0.2422342768,-0.0741832298,0.3188182573,-0.2493738898,-0.6647942493,-0.1752091165,-0.8749005071,-0.4425831451,-0.2742526427,-0.6090827917,-0.3306517521,-0.1159407384,-0.6088163419,-0.5295100593,-0.3395810575,-0.310807095,-0.1652301779,-0.363150692,-0.0334663957,-0.3467089548,0.1536472835,0.1581831137,0.4812646292,-0.4488623467,0.2107744421,-0.3266083409,-0.4085077066,0.1920650331,-0.1100178685,-0.0568940326,-0.4504097691,-0.4001333574,0.3186771776,-0.3649532016,-0.2688931747,-0.3390172601,-0.151348628,1.9023001465,1.3642925731,-0.6412592842,0.5896088672,0.4564139472,-0.6591918604,-0.0490997188,-0.6873645948,-0.2288190408,-0.0747299304,-0.2842737604,-0.3420913406,0.3070600445,0.6629116848,-0.2665124954,-0.2422028012,0.1892112839,-0.097294345,-0.3034409855,0.4213274525,-0.6213995531,-0.1834659221,-0.0043060172,-0.0344236964,-0.1312035646,0.4091781493,0.0885413845,-0.4295158737,-0.2480123531,-0.165685568,-0.47479401,-5.0617667449,-0.3548243387,-0.3832924141,-0.6096819355,-0.051007084,-0.2738903101,-1.5775552266,0.1692573288,-0.2802865382,0.02080282,-0.0742919455,0.2117627232,-1.8235056128,-0.1611543242,0.2072344819,0.0698909253,0.8608936267,-0.1825522458,0.4932027658,-1.0889625278,-0.1308157268,0.5000442665,-0.3399430575,-0.0373149255,-0.1069103295,0.2514077647,0.5898689058,-0.8826421212,0.5466856128,1.3172665578,-0.9661936736,-0.9536435624,-0.5262443943,0.1709631179,-0.3160088227,0.8337266167,-0.6828060186,0.6745619499,1.3117059192,0.7775367124,1.044364723,1.3270095814,0.1424790041,-0.2737146105,0.2775979677,0.2277452675,0.2086883867,0.1812046599,-0.2464997042,-0.4282808948,-0.5639570904,-0.339392239,0.3158168149,-0.0012749422,-0.178231077,0.0742974693,0.4643971425,-0.012560518,0.3657195156,-1.1674695751,-0.2862318811,0.3991257701,0.7145037602,1.1073132232,-0.9468385051,-1.2161894309,0.3050861876,-0.8005581042,0.8962809151,0.9448663537,-0.627038191,-0.4539965767,-0.1148020311,0.0873178716,0.7712582168,0.4311251347,-0.7795319008,0.3454783712,-0.6256729822,0.5985954425,0.3428713494,-0.1262101263,0.3903183186,0.0093130382,-0.943334375,-0.6755404801,-1.0142947085,-0.8933236011,-0.1385674,-0.0607970381,-0.5518953897,0.5827785244,-1.5264577439,-0.6483162784,0.0652471576,-0.9995762406,-1.1161341573,0.7382893764,0.3476566651,0.284832776,-0.2580288476,0.5574126307,0.1924429789,0.5389722147,-0.7851385876,-1.1778329687,-0.3484003251,-0.2417264581,-0.4450625939,0.1672784438,-0.2802391299,0.3265821332,0.5692540986,-1.2858827038,0.6131298142,-0.1501766004,-0.9427709686,-0.9712533254,0.3624388305,-0.6665761217,0.093278582,-0.2067531199,-0.660568213,0.1825303471,0.2530278176,0.7759831168,-0.9586011981,0.1303463938,-0.5649306421,-0.5349361046,0.2128382918,-0.0106039425,-1.1767614541,-0.5115424451,0.2018892675,0.0219906849,-0.2859479003,-0.7285502522,-0.0939408414,1.0541042395,1.23406559,-0.693526119,0.2445567641,0.0254667112,0.2707025884,-0.3213391988,-0.5189108016,0.3222587585,0.1949167667,0.9164952391,0.4322290834,1.5457161305,0.0437165684,0.014840872,0.7391326243,0.4051274876,0.4734984339,0.715138672,0.0390253422,0.1059941605,-0.6763655373,-0.1999045654,0.5312267634,-0.0840617936,0.0687456642,0.1294328785,-0.2001799784,-0.4817756477,0.4923539441,-0.4693546807,0.4688973394,-0.2126339274,-0.484475251,-1.0356819422,1.9148351757,-0.732284928,0.5127970697,0.9004915978,0.7519642893,-0.1769698174,-0.1617263521,0.1284838846,-0.3137114193,-0.2249281112,-0.1855527813,0.0402655504,-0.1225728612,0.0278138292,-0.1958178482,-0.0163936862,0.3714082666,-0.0517110932,0.0721533805,-0.6603148157,-0.551407226,-0.1808910288,0.5898446552,0.2403145592,0.0938889266,-0.1552803014,0.5817914054,-0.2587216345,-0.0801413187,0.051481252,-0.6583165136,0.106955218,-0.0279367745,0.129873717,0.6272155651,-0.2519897752,0.3678711366,-0.1731016867,0.0676472135,0.4647771495,-0.1561835297,0.2184513023,0.0577572341,-0.019613685,0.3970478667,-0.7147397787,0.271503866,0.4681620292,0.5896216611,0.0649283158,-0.5722578041,-1.5306752756,-0.4867141489,-0.3527815283,0.0559682314,-0.9284236357,-0.5455798671,-0.2760394604,-0.0329247847,0.2717562264,0.5561239542,-0.9105110677,-0.9336042234,-0.2878412397,0.6086093574,-0.402001279,0.414779835,0.8922182525,0.4535220599,-0.8223368443,0.3587469815,1.2015732369,0.5172137743,0.606420478,1.024789533,-0.1017621235,-1.3178420253,0.7742630645,-0.6609826179,1.2505580716,0.394078557,0.1595774167,0.0362210832,0.5950775605,0.2413338307,-0.6893113558,-0.5680270598,-0.038767046,-0.1869192449,-0.2280400547,0.8104401753,-0.2669836748,-0.7685374246,-0.082233888,1.3253337729,0.4828256537,0.0024709406,0.2020784017,0.446238302,-0.1198703027,-1.0304906464,0.3486704063,1.1372727712,0.9599294344,-0.3362659655,0.3177143504,0.6833608708,-0.1042207171,0.2629879897,0.2105206199,0.4076305167,-1.024741642,-0.2592463527,-1.0129961098,0.8728779663,0.9098855261,0.9087267679,-0.0993431718,-0.0429346242,0.3752986608,-0.1458575518,-0.0555671931,0.2473043412,-0.1579208784,-0.278145893,-0.0772751153,-0.5445426269,0.1291341194,0.8760923709,-0.1093970917,0.2019284513,-0.1453361403,0.00119047,0.2760011107,-1.4485257986,1.6108883426,0.6507722481,-0.4076101445,-0.2796096835,0.2295362809,0.0100897972,0.329742406,0.2317125625,0.0715788682,2.5524254965,-2.618640082,-0.6159045196,0.2130754673,-0.0380609633,-0.3010427524,0.4497545946,0.0554247833,-0.0166992303,-0.3189376032,0.0079476028,-0.709138641,-0.2530021025,0.3099158594,0.054736046,-0.0777225638,-0.056749851,-0.0419041793,0.169276424,-0.3708166486,-0.2273903166,-0.0473199261,-0.2747186666,0.2053012174,-0.2314912695,-0.1292794823,0.1824525646,-0.143829218,0.0891530338,0.0910753547,0.5386450964,0.056475793,0.3501021537,-0.0808095704,0.0832953596,-0.065575573,0.4480341582,-0.4099637636,-0.2086675769,0.2842019987,-0.4194912339,-0.2658898032,0.3249627521,0.3734800604,0.1631602701,-0.2159570709,0.1221878206,0.0097841486,-0.3653727702,-1.1907562327,0.0089191127,-0.4508370903,-0.1242841058,0.0390888131,0.2685870633,0.2937229461,0.3464378947,0.98915511,-2.3089999285,-0.7857269561,1.4526598663,0.1114381827,0.431652403,-0.007542828,-0.3301340088,-0.0686708714,-0.5574757581,-0.979071638,0.1222704974,-0.8666981902,0.4075869082,0.1626613616,0.2877110926,0.2973316389,-0.2323324227,-0.2265668922,0.3727777977,0.1207234489,0.4796102435,-0.0477481129,0.1040918053,-0.2997123701,0.2360246134,0.0594144525,-0.4855785056,0.0602726974,0.3424201081,-0.0751442176,2.0614116721,-0.1613472663,0.0818237727,-0.1310612189,-0.0569751804,0.341359435,-0.1002018503,0.3664936884,-0.2750908719,-0.0563444599,-0.1834465123,-0.1779258343,0.0021328071,-0.46726239,0.1880620074,-0.2181597848,-0.1378603689,0.0261450082,-0.0775403612,-1.0311461015,-0.7245744576,-0.9667724667,-0.0599659834,0.1218398771,-0.1176966461,0.4361178512,-0.2994135781,-0.0364995326,-0.9996869904,0.635310441,-1.016765768,0.0270928088,0.2279215566,-0.2970947339,-0.0353455894,0.0843512222,-0.0741761214,-0.7245421926,-0.8495591336,-1.1463354373,-0.0230269109,0.3675240524,-0.1985142725,-0.2553904362,-0.4975923101,-0.3109433645,-0.3020527809,-0.364490217,-0.063799979,0.2124451421,-0.1510652915,-0.2326575326,-0.1289038826,0.377214968,-0.1247465106,0.3263305039,0.3223140746,-0.3670432132,2.2210953805,0.474596682,-0.2523926299,0.1067123363,0.9295176447,-0.0219749014,0.0610080498,0.4190403094,-1.0452383197,-0.1076134976,-0.8509395919,0.6411006438,0.6072376735,-0.2785150465,-0.2314400406,-0.6110350468,-0.1571788172,-0.0223473277,-0.3712280366,0.1028812442,1.1479058423,-0.3026233683,0.1283363804,-0.0602243726,0.2102289022,-0.1347967682,-0.8853622259,-0.8799474439,0.33127841,1.384448615,-0.4284143567,-0.3229455757,-0.1069383238,-0.12290236,0.0065020464,0.5158761963,-0.2212249368,-1.018579295,1.3203015838,-0.0393720041,-0.2040049705,-0.5475994009,-0.2247308366,-0.3080608791,-0.5805416493,0.8466887671,-0.1929625349,0.0929373251,-0.8856830785,0.1104323955,0.3216008693,0.2289046971,0.39135133,-0.3647484643,-0.4597417824,0.5695673169,0.2270609515,0.342692376,0.8900282146,-0.4251437899,0.1264331392,-0.1099196732,0.1785813128,0.0520388333,-0.1323393661,-0.21741402,-0.1075789399,0.1506469863,-0.0791077462,-0.0620073489,0.1379383901,-0.6743375745,0.1044689219,-0.9209959478,-0.1609693482,-0.496318916,-0.5315075584,0.9510235246,-0.1048714724,-0.5210628204,-0.6934317219,-1.4005611741,0.6707969029,-0.5582544534,1.2925374452,1.7767447197,0.9115182701,1.0169094765,0.221674415,0.6769594718,-0.0249558331,-0.821798794,-0.7442308287,1.1250802015,-0.2481556194,0.6914321731,-0.6765556456,-0.053926974,-0.3272460617,-0.95437202,0.0977547587,-0.0121305723,-0.8863722641,-0.1778206626,0.7972878412,0.7374914692,0.6798750478,0.8974147991,0.2018435154,0.3042335905,-0.7593216493,-0.7624125508,0.3162204378,0.1755704973,-0.7352629425,-0.7626457652,0.6455752864,0.9326044016,-0.510276285,-0.6198883682,-0.0604580694,0.2262340067,-0.6597063488,0.469520281,-0.4433518161,0.2730542835,0.4277246787,0.4771332781,-0.7792577491,0.0996210904,-1.2407174368,0.9100578214,-0.2225356243,0.7280481661,-0.298592378,0.2952193436,-0.9024479046,-0.6931958536,-0.125256413,0.7345425607,-0.0654159844,-0.0214741887,-0.813018779,-0.6170800186,0.7066239396,1.3376498821,0.6261852186,1.4372204171,0.8050630548,0.6738027197,-0.6009512106,0.5914999884,0.2643339593,0.6485039286,1.1964701919,-0.8867182665,0.2010396881,-0.0467447523,0.5919693437,0.5497343263,-0.2846814716,-0.882876679,0.1447559013,-0.187990146,-1.1061948521,-0.855289255,0.9134597228,-0.0774080457,-0.1103773418,-1.055607244,-0.3876886063,-0.198834091,-0.2896809505,-1.1967823975,0.5826134344,-0.8498879595,0.4687160638,-0.7001398369,0.1830268554,-0.9948995783,0.7409003756
   -0.2870706484,1.0282617414,0.8468805525,0.3990017889,-0.8321665693,0.6964025455,0.2567648063,-0.549641305,0.5394276758,0.4409580824,0.6287985297,0.2141275221,-0.1131082195,-1.0238538294,0.2533311736,-0.6157335457,1.2412364519,-0.652518844,-0.9912319661,1.0236239885,-0.731368093,-0.5941887069,-0.3001467116,0.0883857646,-0.6395932126,0.4584105006,0.7185246654,0.5937268341,-0.2468201242,0.4695759417,0.3124202355,0.2818114465,-0.159875812,0.4458645549,0.3769407872,0.6503357158,-0.4545827358,0.280569183,-0.0206560961,-0.5178621797,-1.0221637229,-0.9764355204,-0.5070324138,0.8741676017,-0.128323539,-0.5303249363,-0.1802034005,-0.1438912492,-0.2177403809,-0.0366252382,0.3182911656,1.7587498664,-0.0302227989,0.1695885452,-0.2235407735,-0.497117757,-0.0579297801,0.2689149878,0.0099702073,-0.4611867548,0.7084020718,0.3601084467,0.4274612888,-0.1334650768,0.8247168044,-0.3602015891,-0.3858966124,-0.3682735777,0.2394565385,-0.1068837093,-1.5516906875,-0.9770314745,0.0800691405,-0.6276397083,0.0044079487,-0.1330095338,-0.1869680191,0.1633524276,-0.6899619498,-0.2354567401,-0.7381680274,-0.050256177,-0.0625955324,-0.3390853878,0.0424295121,-0.196102721,0.0043399379,-0.2699149844,-0.337894016,-0.4612096377,-1.5001441692,0.5251423819,0.0643774228,0.0640088514,0.1236798745,-0.649394769,-0.2132913362,-1.0051296396,-0.292495407,0.9155781142,0.220755929,-0.0090321929,0.7188228932,0.4403323662,0.2489050302,-0.0846667851,-0.1828007037,0.0855499004,-0.3339046678,3.3806937085,0.3810404144,0.4997765008,-0.1209042462,-0.0455128193,-0.4606020488,0.8236100782,0.1992327204,0.28697686,0.2791287619,-0.1210527998,-1.0061118039,0.6149336456,-0.3284188932,-0.7029350082,-0.6216403529,0.283070706,0.1284179184,0.1547715114,-0.9043010672,-0.1542233315,0.1663058273,-0.9034873626,1.047979668,0.8064463931,0.1176346002,0.3304202878,-0.2998015241,0.3485517681,-1.7154138885,-1.5179830755,0.0665877276,0.9254965872,0.4814869776,0.4021762094,0.2139534905,0.1308858071,1.7422300393,0.5200290455,-0.7451865283,-1.0810495959,-0.3249336038,-0.5904856995,-1.0704258726,1.546255753,-0.0094538208,0.1892284954,-0.0368515894,-0.0062199563,-0.4569035885,-0.726103401,0.9702108437,0.9850785625,-0.076095784,-0.5438425824,-0.4106609225,-0.2874760001,-0.6703847107,1.1617812119,-0.2284835774,-1.1503461055,0.759537631,0.3230224933,-0.2835703274,0.2432712827,0.0231201779,-0.080036174,0.2284002742,1.3255163603,-0.1100587855,-0.0038821297,-0.52338659,0.7885985569,-0.0036100809,-0.4162834081,-0.6870554734,0.3859446534,0.1350356435,0.6045785311,0.3714324525,0.4134810361,0.1279058848,-0.2702840541,1.2455589004,-0.1227696981,0.5688363966,-0.5851123848,-1.2117153912,1.116593047,0.7036533974,0.5749452054,-0.0720201282,1.7627221209,0.9278820366,0.3534538707,-0.2323103124,0.3052079199,0.6402484368,-0.6027971336,-0.6494550234,-0.6012781254,0.66434979,-0.1124269904,-0.0562463997,-0.9762526905,-0.4616597164,0.1408221864,0.7289947939,0.1840301188,-0.1952177609,-0.9910313896,-0.3416843191,0.0189803792,0.7174275601,0.2472376817,0.1234696707,0.3559858313,0.4102477,-0.2385463398,0.6888961927,-0.6064138946,-1.0264076114,0.9534846842,0.4034577966,1.3436906747,0.088712239,0.4475635934,-0.3362111082,-0.410455609,0.5458125275,0.0151684148,-0.5351416785,0.0558476342,-0.0335431612,0.12957123,0.3114936811,-0.203961901,0.072794052,-0.7803574759,0.7059762359,0.0414618666,-0.217268029,-0.3681401748,-0.1548815166,0.3590297535,0.8543004155,0.6185040165,0.4700021632,-0.1554257887,-0.0199730552,-0.4630330303,-0.3528356971,0.1275093945,-0.5802737003,1.1947907268,1.0999548878,0.205413355,-0.5805203769,-0.0339147861,-0.0350834338,0.2282807156,0.1190382533,0.6924385007,-0.2907535817,0.1958315317,0.0494155848,0.3521237293,0.4135049236,0.2813087922,-0.3474866219,-0.6396624035,-0.1153408522,0.3921318343,-0.5677907316,-2.2467875681,0.6332406657,-0.7219637391,0.30862912,-0.1584356015,-0.7808546617,-0.7535368116,0.2661072707,-0.2492276222,0.8637028785,0.4839277998,1.3166525131,1.1131955656,0.0461548736,-0.3998628036,0.3160992787,0.2978560115,-0.7319164677,-0.5694930153,-0.4899376747,0.2026677734,-0.1588776428,-0.2279522136,0.4553767166,0.3036241072,0.0166624687,-0.0144304303,-0.8345747916,-0.1545285058,-0.0015960314,-0.4751855334,-1.1530114305,0.1561187634,-0.1044816653,0.4033796478,0.0205667137,-1.1350476173,-0.0577287688,0.5935143192,0.1633121828,-0.5956470312,0.2448075687,-0.3399801564,0.4885411656,-0.4695674355,0.4975106413,-0.3055366829,0.6570771709,-0.1972561868,0.0017220612,-0.3910128471,-0.3367467717,0.2111170357,-0.0560587447,-0.2779359797,0.2656233646,-0.2070871233,0.0018125574,3.0394196855,0.4648447369,-0.913628602,0.0860357254,-0.3872653695,-0.0471273017,-0.1885254851,0.6303041958,1.8080738037,-0.0147649795,-0.3184747609,-0.809967262,-0.0334634857,0.1339062975,-1.1214251901,0.1084577369,0.2187886986,-0.513692217,0.040987905,-0.1589078241,-0.0540270513,-0.9993605277,0.4321882652,-0.0708720383,0.1673084442,0.0264495478,0.2399429597,-0.0669718303,-1.050759948,-0.8074068147,-0.5055137732,-0.0695359738,0.990625181,-0.5235556011,-0.4071937705,0.3883113908,-0.0426455213,-0.9053115812,-0.133087661,-0.2902581481,-0.3143252992,0.9163447935,0.4187400558,0.1852487973,-0.444522079,0.3576793694,-0.4106928343,-1.2634670504,-0.7367141742,0.8915480955,1.1659333759,0.1756489456,-0.5377140471,0.4677391593,-0.8874091593,-0.4230920394,-0.2701524611,0.015916926,2.0195360606,0.0471075666,0.2247040187,0.1867624806,-0.1599702499,-0.2439356066,0.3355320897,-0.359913482,-0.2372278728,1.0927349695,-0.3927313036,0.6824533976,0.058968653,0.8492833901,-0.4753050944,0.4943514477,-0.3516187343,0.3660315926,-1.257501785,1.2428075313,0.2633561626,0.1036972262,-0.2633658735,0.022700414,0.3863392166,-0.7271411904,0.2976043787,-0.2643523262,0.9983594745,1.3732499667,0.1589375378,0.2626557681,-0.5997773373,0.0378974481,0.2967359723,0.5606790273,-0.6422119539,0.4604507357,0.0001376612,0.2626074851,-0.000599789,0.2682775142,-0.1960194105,0.0721463905,-0.3030104598,0.2399204898,0.5109429877,-0.2014331641,-0.004789667,0.2559163041,0.2504073641,0.7183264609,-0.2308673269,0.0044425323,-0.2006754325,0.2441640101,0.059650816,0.108366563,-1.9962941815,-0.5729600589,-0.3904040723,0.4658625557,0.7202280772,-0.9473359303,-0.9799980909,-0.0898767736,1.1323642675,0.4117878653,1.0788494726,-0.9052470882,-0.1892937408,-0.5156305105,-0.0813580751,-0.2920184407,-0.5232697725,0.3341740549,1.0576124957,0.4040213328,0.5728179485,0.1424183023,-0.3760973589,-0.0009839134,-0.0604450281,0.1135025975,1.1154113312,-0.4729820432,0.7850309465,1.1053843521,0.4128920038,0.70516137,0.2904890727,-0.0091079485,0.6988448168,0.1179293821,0.7429268126,0.445739993,1.2947913492,1.0220411163,0.4188266231,0.4239411258,0.6047147568,0.0972015112,-0.0650747598,-1.0814019616,-0.4156282226,-0.3888567879,0.3808611899,-0.4388119691,0.6112538565,0.0170838538,-1.3202344732,-0.2508184069,-0.5134275296,-0.7665846761,-0.6248515761,0.2373423143,-0.4258796635,-0.1527801618,-0.0102216498,1.1280109079,-0.2332044415,-0.5560094807,0.5531368299,-0.1848708238,0.9038676664,0.1743264614,0.5315217777,0.182888685,-0.723646645,0.9070993613,0.2893594362,-0.5320819357,-0.0391974917,-0.8254685883,0.4551128281,0.1058022565,-0.7531528465,-0.9799723299,0.4393870671,-0.2254080225,-0.2565426231,0.7511371116,0.7308031119,0.2108528438,-1.0293790505,0.2903199566,0.1039093701,-0.5228249369,-0.1367543858,-0.3639001032,0.3285976455,-0.5788958817,-0.243742239,0.3639553607,0.313421269,-0.1860839186,-0.7177819037,-1.0214359626,0.3802493531,0.2459739758,0.234661422,0.763914395,-0.4414513847,-0.3829587279,0.1570756582,-0.6484916281,0.9231188318,0.2614783418,-0.2060177833,-1.1592928073,-0.7527470693,0.6806786652,0.5683845888,0.0522296078,-0.6296578447,-0.3979909658,-0.3729679974,0.6828258623,0.5809085605,-0.7064176204,-0.4815966488,-0.9975298007,0.255824621,0.1197961213,-0.7714821241,0.7923905662,0.2862657613,0.5970673623,-0.1074507212,0.0037979764,-0.9467699714,0.4221956856,1.0429531674,0.1604679984,-0.6244716667,-0.1693355404,0.6883624364,-0.4919689664,-0.0369572264,-0.3543536879,-1.1379764178,-0.1971996216,0.0084069028,0.3032636994,-0.30708788,-1.4646540203,0.2611748902,0.075147642,-0.2025694157,-0.4101529555,1.1743105428,-0.6785590528,0.2720797691,-0.0091276788,0.1419533357,-0.0113772176,-0.1358665792,0.2287311044,-0.1805022944,0.1266778383,-0.2199311503,-0.2384104219,-0.1364198984,-0.0849564082,-0.271067402,0.0858265936,-1.0518351147,-0.3894551076,0.391508999,-0.5191476397,0.5807167651,0.2045316315,1.4180963133,0.0068145066,-0.2748521744,0.5375956188,0.234364416,0.6210786618,0.2196761023,0.4560854466,-0.1713526228,0.3474445288,0.9281932199,-0.3270480103,0.6940729743,-0.2499065672,0.6097862049,0.9595523493,-0.3073578676,0.0920988381,-0.1525991178,0.0936199829,-0.118803686,0.4673022384,-0.5287122297,-0.9936472359,0.2591952301,-0.0212269042,0.680837002,0.5966480293,0.8832549719,0.3601042627,-0.0815633846,1.1823441076,0.7715971732,0.7136914588,-0.623870106,-0.5782887733,-0.1061016996,0.0784900061,-0.5679220506,0.5642118234,-0.4777418121,-0.2064519981,-0.0517812374,0.0481505421,0.5247832848,0.705161641,-0.4045406939,0.4733702938,0.4477191782,0.5929590896,0.8498160026,0.185358319,0.8808411746,0.2598046841,-0.0029566496,-0.9575784313,0.1699060517,0.3481822882,1.8998675279,0.79268369,0.6293537108,-0.0625890279,-0.018735005,-0.8268063368,-0.1073731364,0.1737381093,0.1202462557,0.9461965224,-0.785115935,-0.0595961719,-0.5193752706,-1.3496996905,0.5065614283,-0.8258978845,0.3497017267,0.0849316941,0.037395499,-0.0416427543,0.0423137155,0.425721021,-0.6489722488,-0.6796828136,-0.7832663135,0.2708466341,-0.1754039247,0.3039313328,-0.8964673253,-0.0806963607,0.6737705189,0.2270649707,0.1698679086,0.2072835734,0.1515968397,0.5712129514,0.4543021076,-0.4106874754,-0.4783073348,0.705214202,-0.5771478219,-0.555607485,0.2087777078,0.7665141042,0.260430072,-0.5017094139,-0.6497181448,-0.7519009631,1.0398983646,0.6073704395,-0.8282486079,0.1930011226,0.4643355275,-0.6209920348,0.6001451996,-1.0123529122,0.9570504684,0.2130122371,0.2000433061,-0.4755459476,-0.1587943937,0.6398137411,-0.2575986257,0.4635716504,-0.5445260581,-0.0999350107,-0.4469434815,0.241022332,-0.0498692279,-0.136841336,-0.7168384664,-0.2037938502,0.2229765777,0.297433193,-0.5900296303,0.2993500292,0.5850922607,0.3405387298,0.1677018817,-1.0885349498,0.6687464774,-0.2539572413,0.6528150649,0.3570629846,-0.3462043829,-1.0708892876,0.4209694553,-0.4144559517,0.4725745504,0.1791464894,0.1643937961,0.7753065546,-0.4456657927,0.2078196516,-0.5480909448,-1.0325900256,0.0241044996,0.0304198961,0.7968754626,-0.6390392948,-0.1877162997,-0.8847371954,0.4285145161,-1.0113206388,0.1290751861,1.0065218306,0.1937847218,-0.2980121472,-0.3330455743,-0.7940394798,-0.2119188406,0.1490261168,0.1279384319,0.1240431347,0.8656445314,-0.3533759589,-0.5422403452,1.0662715653,-0.2298912228,0.216053365,-0.3613093953,0.3355218569,0.3362920234,0.5194499206,0.2989871279,-0.0955825412,-1.0676871506,0.0234731583,-1.1025602566,0.213999346,0.1532619113,0.6384231114,-0.6489918745,0.0043631878,0.4840891212,0.347786945,0.5635820185,-0.5018624577,-0.7219977278,-0.9353525271,-0.2513783217,0.4632372103,0.3393188385,0.3681440119,0.8686752581,-0.0559526073,-0.6056233463,-0.5042188138,-1.940047787,-0.891414002,0.5338502011,-0.6861047126,-0.3630264048,1.0170248826,-0.3318840111,-0.7687588156,-0.9035352393,0.6975046041,-0.5254080064,-0.0166156048,-0.482114938,-0.7133443933,0.4619333396,-0.3816718238,-0.8682506028,0.8873857446,0.0667274354,0.3845781918,0.6498784654,0.6101370474,-0.5117771314,-0.3058964834,0.4896773377,0.266823769,-0.6888195505,-0.2316524136,-0.0175441808,-0.1845203627,0.0988943708,0.3817209361,0.4851361906,-0.6258721895,0.2255871783,0.1608407769,0.59930951,0.6612105388,1.9935055941,0.3002270104,0.0831556482,0.2431024966,-0.0438061927,-0.1446579321,-0.1036470904,-0.1748030289,1.4011769697,-0.638291596,-0.1215648468,-0.0740080832,-0.212720161,-0.384635694,0.4089545182,-0.2445956507,-1.7903083681,-2.4135102924,-0.5612721564,-0.7540707939,-0.6131325049,0.336431962,0.5088817025,-0.3144032717,-0.0279796774,-0.2340151103,0.3008590416,0.07940428,0.6813065658,0.2173104971,0.1184992349,-0.3329129538,0.6790920185,0.0220751039,-0.2737713085,0.1626258106,-0.4758452394,-0.0105315608,0.0869723916,0.4557501742,-0.4305659388,0.0790009333,-0.0205620975,0.2646628121,0.1825136327,0.1858389161,-0.037463055,-0.3084536338,0.8662388768,-0.084299857,-0.3491609535,-0.7573135679,0.0775855232,-0.9762110466,-0.8076274465,0.1872568349,-0.6112772531,0.3000935828,-0.0972315404,-0.035616086,-0.3173555437,0.4092399982,-0.1383591332,0.3280953925,-0.124006657,-0.3119527652,0.4448038489,0.0349118351,-0.0675091787,0.2037425192,-0.73042644,0.8346255313,0.3620260878,0.187803424,-1.5697166909,-0.0691983422,-0.735497936,-0.3744905805,1.5948547236,0.2988701142,-0.5107816794,-0.130947822,-0.0728941021,0.1903691705,0.3853935573,-0.2291485404,0.1735453475,0.5558194173,-0.4316194832,-0.4468542343,0.2885179331,-0.5194546223,0.2180458358,-0.3896956693,-0.3400310677,0.239051868,-0.0906875953,-0.2646736243,-0.7553974748,-0.2862646184,-0.6748857501,-0.5896957458,1.3223618897,-0.3524984331,2.5702272795,0.488181429,0.6162192062,-0.5580655304,0.3699496159,-0.2308559188,-0.2683788968,0.33438911,0.6013788944,0.9118635626,0.5977268213,0.2352698483,0.0779226932,0.2263930052,0.7029126572,0.9647554461,0.5449023388,-0.2994497565,-1.0931925703,0.5338913964,0.3427991222,-0.7112270842,0.769399752,1.2895362489,1.1204794149,1.0091201125,0.5529250152,0.2064835986,-0.8522548999,-0.5043706997,-0.1268706499,-0.1014512211,-0.2709841419,0.2588179378,-0.4897693531,0.125770631,0.3065612738,0.5478578097,0.6008532353,-2.4104209718,0.0374690235,0.3152713402,-1.022483259,0.4181983715,-0.8532515751,0.7751053688,-0.1498919543,-0.8325034929,-0.7902724043,-0.9565581621,-0.7300899686,-0.379923397,0.0375190388,-0.2378959732,-1.0411620588,-1.0453274863,-0.5924829816,-1.0008194067,0.2531326322
##end
biasActivation=1,1,1
[BASIC:ACTIVATION]
"ActivationSigmoid"
"ActivationSigmoid"
"ActivationLinear"
