encog,BasicNetwork,java,3.4.0,1,63716509592727
[BASIC]
[BASIC:PARAMS]
[BASIC:NETWORK]
beginTraining=0
connectionLimit=0
contextTargetOffset=0,0,0
contextTargetSize=0,0,0
endTraining=2
hasContext=f
inputCount=57
layerCounts=2,88,58
layerFeedCounts=1,87,57
layerContextCount=0,0,0
layerIndex=0,2,90
output=0.998160932357105,1,0.687627275471807,0.995901915383549,0.9973284051288,0.634265060248909,0.922563237563635,0.9998515707704,0.997903352368183,0.0479071118962064,0.106208132231176,0.570728694583517,0.994927273236977,0.490518024971687,0.0201649493801976,0.360895186640919,0.70196206506975,0.0779703335007626,0.906688260406073,0.111850647197147,0.619244649971659,0.998868196211893,0.0328617578400654,0.00635585376637191,0.978269164980806,0.805870912611928,0.0602034557937079,0.999998613608787,0.0350936477701125,0.623210722507584,0.00066681582786586,0.867828706062726,0.861920144439302,0.000853800218360578,0.782975093159261,0.970517021057459,0.995176479885563,0.993289897958328,0.282398735841714,0.999768704890493,0.00149472812411223,0.0107987053758823,0.999409352527125,0.975533125261694,0.945533631229763,0.29433834879155,0.334970716256479,0.00585329333588543,0.00464524856617233,0.957192008297978,0.856257404042075,0.83506083447695,0.0318025691931721,0.992742911964412,0.0159511818894532,0.83548539826837,0.991012037415248,0.445336431418817,0.00501330924538665,0.352363893571126,0.230513704026226,0.00619908284849189,0.997504277283021,0.00694940807860263,0.999910456536143,0.602579778077441,0.661740232018719,0.0000994877809276482,0.996293965858162,0.505695475725444,0.808414516790522,0.985535602730014,0.673541540303477,0.0644726138637243,0.999429305402479,0.603295239123115,0.960615009818756,0.920687418200219,0.559859049112909,0.632575693319651,0.0423360514819081,0.00217730302366565,0.999907724138951,0.29209243831194,0.00118896806877393,0.0225701797955479,0.307050580274638,0.0340085271709645,0.112409477257378,1,1,1,1,1,1,1,1,1,1,1,1,1,1,1,1,1,1,1,1,1,1,1,1,1,1,1,1,1,1,1,1,1,1,1,1,1,1,1,1,1,1,1,1,1,1,1,1,1,1,1,1,1,1,1,1,1,1,1
outputCount=1
weightIndex=0,88,5134
weights=##0
##double#5134
   -0.4656301119,-1.0921315121,-1.5920839274,1.9342836623,-0.7428336788,1.3212978358,-1.5427058889,-1.9808454062,1.0648579322,2.1257186665,-1.0003520851,-1.3364173121,-0.342464778,1.0696062792,2.961121025,-1.4448290497,1.3391448163,1.8469093621,2.2464071034,-0.0184458196,2.6276103006,-0.4159123047,-0.7115055451,0.5426171575,1.4617601179,0.9263495633,2.4107048197,-1.2102345575,0.7434662717,1.1499286296,0.7655878126,1.8956574441,0.2569564035,-1.1403593164,-0.4500097696,-0.9808507315,-1.391749441,-0.5649204232,0.8169625993,1.6793874967,1.2347803765,-0.9077270196,-1.5180985549,2.2799413073,2.9084835252,-1.2726347541,-2.121646316,0.7464289572,0.9967937362,-2.4937212106,0.9816372257,-1.1607959237,2.411907577,1.0755405644,1.6173615389,1.5065551978,-1.9780334094,-0.9202360485,2.6869203281,0.7044023314,0.2254577745,0.0548206948,1.35903624,-3.3159373753,-2.3600003979,-0.2088130093,0.6031042035,1.4534652732,2.3394919842,0.2278804442,1.6586955015,-2.28111807,1.2089633777,-0.5963473134,1.0459713957,0.6541328075,-1.4968715567,-0.8527580995,1.0095322618,-2.1305238773,1.1741536614,0.117388087,-0.9317516762,1.0577963824,-2.4121894089,0.4207665233,-2.1253827295,-0.5474471584,-0.2229541485,-0.5283225638,-0.332428275,0.6441819668,0.5677117777,-0.5112289047,0.9004360794,0.5062403752,-0.1700852394,-0.0060687673,0.4351827016,0.8174807272,0.3807760048,0.1183228248,-0.9129261025,-0.6696867942,0.6600921929,-0.6857779704,0.1736981411,-0.7245173076,0.4105776694,-0.677905519,-0.4475666969,0.5816185927,-1.1759074163,0.7329047387,-0.2272870779,0.5074752705,0.1553558543,-0.9397207467,0.6244069023,-0.0397943678,0.1254577648,-0.9270592893,-0.4817754896,-0.1660297788,0.6077154228,-0.7610028665,-0.1130210523,-0.004279681,0.1854116646,-0.2443949627,-0.0458087895,-0.8907112511,0.0959928346,-0.7425396663,0.4566241481,0.1115436312,0.0415241775,0.0383893475,0.4737916994,0.2318239422,0.6191483648,0.2843541062,0.9081223317,-0.0782845928,0.498853177,0.6221107038,0.7881301256,0.6139003443,-0.344056971,0.6570674567,0.3233187975,-0.3631784184,0.8629063627,0.0900543091,1.0995627711,0.657971862,-0.171095145,-0.1800865629,0.5238582188,0.9171059464,0.2516343816,0.5348116254,0.6109163098,0.8436634692,-0.4251508787,0.4034514062,-0.7098416041,0.3302792292,-0.0823695907,0.6916497125,-0.7197043612,-0.4830424442,0.6484385926,-0.8245617407,-1.0359336504,-0.497860185,-0.2075506509,0.4423781668,0.1562703617,-0.8387953598,0.7169923787,0.6440771419,0.5784111609,-0.8363416435,-0.0407449241,0.4494258343,-1.1023892255,-0.5330335601,0.6953694279,-0.2915865686,0.1096711668,-0.923342493,0.0471797072,0.7875182001,-0.5116589626,0.7469359316,-0.6870270285,0.8028859929,-0.2661584013,-0.1910425077,0.0494690205,-0.5823231182,0.4284173363,0.8379085039,-0.3722021366,-0.9954853186,0.463762896,-0.2433651018,1.0356510569,-0.5091593356,0.178905247,0.8776389589,-0.928169983,0.3856642239,0.2675960787,-0.7682114494,-1.0248989466,0.303728972,0.4348375375,0.7557181379,-0.2815097365,-0.6314175592,-0.5438835365,0.2493359757,1.0174938852,-0.2505713149,0.1740265754,0.8299789992,-1.3252754874,-0.1982037352,0.7233563002,-0.0265786189,-0.373139395,0.0681477406,1.0577311608,-0.0245433839,-1.029201268,-0.2180949851,0.6957630652,1.1262510144,-0.0784300726,0.1978519222,0.6230187846,0.8877537204,0.8597720632,-0.5015128979,0.0434344623,0.7068680312,0.2433137922,-0.5047376259,-0.5749752715,0.0684835211,-0.6414086938,0.2111754734,-0.3983085361,0.7953147557,0.4147667042,0.9114889718,0.3530660429,0.7423867252,0.8176488156,-0.1532901759,0.6706469899,-0.9928019696,0.0193202665,0.6509102909,-1.0376079678,0.1582798796,0.4394708895,-0.2438810317,-0.4145159323,0.5296210262,0.2773919584,-0.4733667295,0.323284638,-0.8367336525,0.4372311556,-0.7629075313,-0.1563216044,-0.1651084864,1.2040478967,0.3438112722,0.6781622338,-0.3791598,0.9699415729,-0.5553320976,-0.7947383318,0.0008548595,-0.1880710924,0.9578690398,0.1484890265,0.5839750478,1.0938457124,0.1565546786,0.9831738872,-0.0752186237,0.4871116612,-0.7994984482,0.1605287046,-0.2106294789,-0.2359612652,-0.1554534772,0.3215211288,0.1497616442,-0.4253351184,-1.0316225144,-1.1730974067,-0.2401317217,-0.2330465506,0.7981942324,-0.4416776624,-0.5857623474,-0.1097126151,-0.8744871115,-0.0953313768,0.2753693212,0.7151230361,0.8473100487,0.9200108563,-1.0634883782,1.0196690923,0.649122595,0.0067673323,-0.4057923532,-0.7788825567,-0.2159074355,1.0182986119,-0.1485795356,0.0348060312,0.0927306317,0.5020700993,-0.1416254269,0.0756937129,-0.8471748905,-0.6161627626,-0.1164263207,-0.0772380494,0.5092026568,-0.8928400785,-0.8247503477,-0.0444122258,0.0646307386,1.0294011603,0.1663668432,0.9886184617,-0.7182543052,-1.0145133651,-0.3952176866,-0.1245796172,-0.7240600544,-0.3123309623,0.563874622,-0.0437469055,-0.679916212,0.8889784055,-0.2607437852,0.7919534408,0.1547840495,-0.3246886745,0.9693777131,0.6810144927,-0.4547696112,0.2095853081,0.3014669785,1.0317010114,-0.0014248095,0.9456342669,-0.5166022798,0.5000082527,-0.5105258567,0.3154090455,-0.7601832555,0.6320108387,0.259419849,-0.8504747602,0.1222189963,0.7608585777,-0.0076128073,-0.7902364226,-0.1637784815,-0.2363757703,-0.0140933345,0.7481080522,0.2297729069,-1.2143944293,0.5344509327,0.8742057245,-0.6254102356,0.6226450172,0.8807927495,0.6034850069,-0.5624806653,-0.8317149065,0.8808801406,0.86977788,0.4718615973,0.2160481814,0.7771247669,-0.0886936393,0.2081350541,-0.3573411375,0.633188026,0.3136968024,0.1913198124,-0.7331179354,-0.2783079611,-0.3666952885,-0.4127511825,0.1253245915,-0.1747131484,-0.8286134058,-0.1190670015,1.2126140786,-0.6591343351,-0.6399276659,-0.1796929395,0.2205532497,0.3567352444,1.0528654965,0.7957151572,0.6417590743,0.0492394744,0.140141448,1.1515880177,-0.3119661243,0.4881430347,0.9846061573,0.2196144656,-0.3272014684,-0.7048867064,0.9466356521,-0.3938151221,0.1486710578,0.7188380313,0.7762556471,0.7413295647,-0.2576641822,0.3788397303,1.138492575,-0.9985869991,-0.007615865,-0.5822265867,1.1184220229,0.6811711043,1.1114266436,0.0693739628,-0.6463229752,0.1324646503,0.8318567778,-0.0725787316,-1.1096054269,-0.0800922875,-0.2578750702,-0.9478114016,0.6503315346,-0.2406127511,-1.093204207,0.7763671262,0.6917901976,0.5513272345,0.5103538753,0.4107012105,-0.1660363984,-0.321294819,-0.0865024272,0.1320934581,0.7373982278,0.62579671,-0.7569900305,0.606118989,-0.5106878324,0.8559104667,0.3112149312,-0.7530315618,0.6686884326,0.4872415618,0.8110818121,-0.5485393272,0.4281994097,1.3122100495,-0.3404457511,0.2115930139,-0.7970887958,-0.6105224743,0.3380464233,0.1484898325,0.8339775323,-0.5565310129,0.3512906136,-0.0457195137,0.0220440015,-0.0721400065,0.4989566559,-0.4092882703,-0.8317054316,-0.9604913801,0.4348212738,1.0190572978,-0.3326908774,-0.4401430462,-1.0019760855,0.503419146,-0.6641069581,1.0389525004,-0.6622374625,-0.1143138526,0.5039198939,0.9958431633,0.1128089967,0.7804937482,-0.8305580959,-0.6076021598,1.1128237914,-0.2987637376,-0.8047637259,-0.8300323927,0.9416140859,0.7821135096,0.3812715535,-0.5116629768,-0.0460294668,-0.4603987448,-0.7961628002,0.135698442,-1.3780336287,1.1078654917,1.2783159449,0.8576312736,0.3574856495,0.8477323712,0.5390290797,-0.2742315423,-1.2696802119,-0.4351077342,-0.2483527693,0.0849484967,-0.0833285192,-0.6003996243,0.150126202,-0.8573757791,0.1847761027,-0.1454795803,-0.4503020574,0.2279747544,0.3345527092,0.5935528961,-0.7465495806,-0.1346626214,-1.0866630945,-0.256609053,-0.2335187373,0.0937832392,0.7748894464,0.9871894429,0.6560273435,0.2307326754,0.5759217624,-0.6466802467,-0.2418209887,-0.5435334711,-0.757510817,0.7577161147,-0.4421959401,-0.4445808531,0.7825674705,0.7057429884,0.4624984547,-1.1045726932,-0.5246768023,-0.3745786813,0.8169027422,0.5879804825,-0.4568728324,-0.6634983499,0.1766943187,-0.0071427956,-0.9028534034,0.9345488521,-0.1242468089,0.4443810343,1.0492652848,-0.8616942047,-0.8740759338,0.1789550623,-0.7084738372,-0.9056015466,0.0737065383,0.3396358236,-0.1230318754,-0.1313843566,0.0327561657,-0.7201660999,-0.2462576552,0.500619202,-0.633081404,-0.0167002569,0.2222256982,-0.4498250726,-0.7258272687,-0.1957574955,-0.2604141188,0.450319488,1.1514738906,-0.4956234697,0.882380255,-0.7992731819,0.8578231928,-0.6557280255,-0.6624678304,-0.0670595725,0.4253835617,1.2248522811,0.1197158539,-0.4918373293,0.9765817185,-0.3203450956,-0.8764994822,-0.058990788,1.3728004139,-0.3665061587,-0.5039383075,0.592178238,-0.3294993157,0.6656716608,0.388209797,0.4587413211,-0.2138604737,0.2193460656,1.307719342,-0.2736545491,0.0033046031,-0.6465022991,0.6436039058,0.2622654554,-0.5769653708,-0.6725940948,0.8745728815,0.0681063306,1.0508028901,-0.6401965299,0.6497065145,0.1042763118,-0.4727106475,-0.5043457709,0.5788931129,0.489571465,0.9231638005,0.5569149883,-1.0442159649,-1.0739306212,-0.3474078005,0.0720351339,-0.8645752205,0.6012517504,0.8648934776,-0.5477779129,-0.8516807372,-0.4326552947,-0.9606462259,-0.3310422614,0.1525627684,-1.1296426822,0.2312811746,-0.0166218519,-1.1649822518,0.9030098697,-0.6673207282,-0.116259678,-1.0218291613,0.2727711754,-0.6164465563,-1.0163766647,-0.0918010325,-0.1204466301,0.4458797558,0.8378908073,0.3339682657,-0.6719816097,0.7643430731,0.4172129109,0.9040731459,-0.8602301587,-0.6146492205,0.6347670839,-0.1704973599,0.2951518767,0.4466018174,0.9613196986,-0.265280924,0.3737070365,0.9317353368,-0.4176616052,0.4874029402,-0.6713074764,0.0870214857,0.2936786957,1.1844295083,-0.3361169437,-0.7424439951,0.6596170284,0.5586004389,-0.4746924271,-0.3509421076,0.937006376,-0.262915378,-0.0316055185,1.0379939675,0.6007171383,0.2195042407,0.0101755549,0.1985951183,1.0818708059,0.8889880228,0.4203181577,-0.194098686,0.6457290149,-0.3651578586,0.1314452926,0.4983333469,-0.4138426997,-0.2386072816,-0.9096204744,-0.6924116799,-0.8003748061,0.535966515,-0.4677590707,-0.5884106002,0.6517389403,-0.9630361718,1.352884947,0.9568682524,-0.6403472436,0.7617117363,-1.1825328787,0.6384234198,0.9470703747,-0.0960191726,-0.0675115464,-0.2342995715,-0.1973518786,0.1633212874,-0.1194054497,0.7312117027,-0.2683246754,0.6803566508,-0.8718700869,-0.4296214952,-0.3935449489,-0.2089827093,-0.0475660363,0.9130766823,0.2634968594,-0.5232826574,0.4584078299,0.2128962595,-0.8831579564,0.4839932012,0.0102435895,0.0656441887,0.9493220923,0.0422293388,-0.4501173116,-0.3760435961,-0.0470698522,0.4872849391,-0.801268758,0.0961989048,-0.2663487653,-0.4734058969,-1.1281996744,0.1257974422,-0.6191983304,-0.4447318221,0.1146204457,0.8073959793,-0.0012683578,-0.9720758819,-0.4327571318,0.32582455,-0.1823830768,0.9001939324,0.9013792325,0.2455804497,-0.4226538448,-0.9901144544,0.5038183564,-0.876380825,0.987926263,0.6462029678,0.0758798207,-0.0043151041,-0.2987644224,-0.3663329495,0.4003016417,-1.0297172933,-0.5428988539,0.0286389691,-0.82147918,-1.0493825984,0.2524861792,-1.0784959675,0.1113680565,0.2752264053,-0.6057178814,-0.5747420222,-0.1537354416,-0.5948143944,-0.372791607,0.1151543501,0.2682926536,1.1867202762,-0.7066892504,0.2162907654,-0.4109399715,0.6517977168,-0.0947824232,0.8315132927,0.5505478449,-0.5888141042,0.1679922692,-0.2248134586,0.4706885349,0.5800173568,-0.4873853026,0.7548894125,-0.3220645235,-0.4994633679,-0.0881707809,0.0158639684,-0.2380424692,-0.5302159592,-0.2675838164,-0.3114574635,0.612578882,0.7926502726,-0.5580677128,-0.4886363666,0.2608835778,0.5228873486,0.6865231658,-0.7568798933,0.0824360065,1.1455786825,0.1995877598,-0.2285055223,-0.0992447162,0.7900014986,0.1360102398,0.7577374353,-0.1013992454,1.1874462582,0.6447716356,-0.4790062822,-0.1752044927,0.8130715927,-0.1132869905,0.3949388971,-0.2855458779,-0.1773291926,-0.3218861902,-0.1814803978,0.0314666751,0.9694055035,0.00892626,-0.3962907133,-0.3816285709,0.0301389088,0.0769507071,-0.243414572,-0.4435101776,1.4299403481,0.273762772,-0.7510831299,-0.8550362343,-0.8864348349,-0.4025373305,0.5023278924,-0.1450207552,-0.0584456333,-0.7601583193,-0.4775961623,-0.0805460603,0.8584943632,-0.7809124113,0.7882824193,-0.5525750844,-0.5804010992,0.4326984834,-0.1528364202,-0.717413034,0.4816321022,-0.4851750327,0.1172812392,0.9904877602,1.0829708001,-0.7369461707,-0.7054453331,-0.5974633095,-0.986019043,-0.3751483744,1.1595717511,0.0778125457,-0.1652393188,0.3949822994,-0.6944479708,0.2219936944,0.8777902631,-0.5059607856,-0.0299852464,-0.112812579,-0.1909548625,0.44045012,-0.0593343432,-0.4464098776,-0.0951090813,-0.6034329707,-0.7081984323,-0.6946983066,-0.0533233175,0.3127883179,0.0854150768,0.6414440246,-0.2071699838,-0.3737540071,0.172392146,0.2725355855,-1.5781726493,-1.2046230363,2.0442798659,1.3396407441,0.8786795002,1.208968743,0.0358696284,-0.7002731917,-0.0754924385,0.1015379099,-0.9114898276,-0.2976537042,0.8020336507,0.8644303987,0.170473022,-0.2096984941,-0.0318830225,-0.3911471906,-1.0672981233,0.816250568,-0.1506993799,-0.3510569063,-0.3644671568,0.2807634273,1.1259318304,-0.1819794883,0.0124928738,-0.1320220057,0.5127783997,-0.4240865059,0.2665444683,-1.2445657668,0.7867704951,-0.6327351928,-0.4061987889,0.1942040059,-0.2612359385,-0.6216697276,0.2419605233,-0.3233519647,0.1322401958,0.2646208126,0.7819528829,-0.4415088474,1.004264637,0.8567797492,0.801730963,-0.7897741493,0.0188949017,-0.4564395473,-0.8576757533,0.5040330581,0.2924158072,-0.2015393396,0.4218929467,-0.4272812777,-0.0240613115,-0.1284647373,-0.3426042649,-0.7524674315,0.1265312485,-0.1213472482,-0.7514714446,-0.0111860616,-1.3344757765,-0.4451844829,0.1975180651,0.2575499854,0.2310909697,-0.9176093131,-0.288673537,-0.6941847881,0.7600422732,-0.8703065371,0.1899036118,0.9628328367,0.0765851862,-0.6148432261,-0.8191753893,-0.5072096149,-0.4732824349,0.9028047655,-0.2586804141,0.6406830745,-0.1299285023,1.1302054042,0.9443075469,-0.497148949,-0.474896402,0.6787505229,0.797592403,0.3069263975,0.3102438314,-0.4085443814,0.7486515383,-0.6579093538,0.8583542838,0.393412919,-0.3194878663,0.9358969119,-0.2722293809,0.4508376306,0.5323370708,0.3776107109,0.4938138057,-0.4367245543,0.3233790245,-0.2740274584,-0.6084605477,-0.2753018955,-0.3436338117,0.2315104998,-0.9210505992,0.2158708551,0.3633607142,-0.0358866216,0.7698758189,-0.0308089679,-0.4132059483,0.2405769834,-0.1363685745,-0.0866292158,0.1080952516,0.7987288389,0.4500343095,0.9077922336,0.798683541,0.742987564,0.6931546443,-0.9776401413,-0.6395217708,-0.3493524858,0.210079279,-0.3597709947,0.7640698813,-0.8117146549,0.1449830916,0.4417046873,0.0188483414,-0.9060973221,-0.7986206458,-0.834748701,-1.0375451787,0.6953352523,0.273944902,-0.5981059767,0.0045290238,-0.5989282612,0.028479011,-0.1595470709,0.2783456619,1.1740434097,0.3985585966,-0.0711317836,-0.6967202876,1.0563032781,-0.9763287483,-1.0758923577,-0.1460177401,0.2048769443,-0.6835634049,-0.2903814962,-0.0697163619,-0.27878579,-0.6240906094,-0.0953070185,-0.459865132,0.7446872544,-0.5576450802,0.2026292952,-0.6603527431,0.8051606075,0.0643725119,0.7272422784,-0.7984232307,0.6638809186,1.049054887,-0.7385315173,-1.410311677,-0.3408181195,-0.7536062726,-0.9004511818,-0.7626940467,-1.3127655735,0.7427990578,0.3795778326,-0.2392674354,0.3821621426,1.0231699685,0.8105137949,0.2006541522,-0.1375554669,-1.1577604853,-0.6167593873,0.7185793107,0.7209316368,0.6947540745,0.1361879435,-0.6580396504,0.6910152317,0.8294575132,-0.5648464539,0.0499277111,0.5932629302,-0.7879859855,0.5843600395,1.1680978183,0.9308524811,0.5326167266,-0.7118548614,0.1340866354,0.16929817,0.0837495289,-0.2687095254,-0.8593275022,-0.3836243342,-0.070873577,0.5904584593,0.3232069187,0.1519093187,-0.8612219114,-0.1856790881,0.4486629658,0.0786399741,1.3941906048,1.523776097,1.3291012885,-0.286215879,0.6024956207,-1.0576676477,0.3448492651,0.0803447509,-0.5169698669,0.9720069699,0.3452405929,0.6358209531,0.1049818069,0.5146677641,-0.4595656529,-0.2702316965,-0.698827393,0.1458925176,-0.6324031298,-0.2746061086,0.4017208405,-0.3317072187,-0.04246627,-0.9998283619,0.3651982115,-0.6724910761,-1.3953503799,-1.4852977384,-0.0468885304,0.9240775573,0.0328729781,0.1600205,0.351880857,-0.7875254529,-0.327888693,-0.2707896792,0.8069527428,-0.8283883055,0.2952473969,-0.7213351675,0.9284287203,-0.2328521529,-0.9162045718,-0.7967774265,-0.8950683706,1.1040461703,-0.2933140573,0.0724718497,-0.1494027339,-0.3924771292,-0.0067854909,0.1914251764,0.3589210089,-0.3574366295,-0.7654503323,0.5475797109,0.2056412926,0.3608878311,-0.6338234558,0.9956482631,0.8642502997,0.8324961373,0.5869613801,-1.1196367233,0.7440028638,0.9116364526,0.0589158342,0.3124859974,-0.3384201132,0.3025773049,-0.0165935908,0.7208288269,-0.4893683386,-0.1974768124,0.6865172,-0.0810755441,0.1739618091,0.6803983828,0.0542274468,0.5876102513,-0.2667286312,0.7160459578,0.1019835986,-1.0092383762,-0.4854250903,-0.4734098518,-0.2139595087,-0.1075883236,0.4431308896,-0.0137769676,0.6798730276,0.5391161535,0.1643930388,0.7093840299,0.6216859746,0.5258172035,0.2479512651,0.0038381213,-0.5288661069,0.3399019459,-0.2684989146,-0.1507470494,-0.4187743944,0.2032035986,-0.8266033919,-0.7105192349,-1.2550407563,0.6644074399,0.8184760217,1.477941173,1.0835191331,0.2389190921,-0.2525158522,-0.2992569985,0.1723317461,-0.0028523278,-0.0424285088,1.4531549556,1.0610001045,-0.4509604987,0.243840328,-0.1057147466,0.3011402376,-0.7772237506,-0.2503063036,-0.1900878803,0.838336678,0.1727262063,-0.2468922156,0.2375948253,0.124147348,0.1350565745,-0.363270206,-0.2066546904,-0.5968593173,-1.3334783162,-0.0655878584,0.5282508179,-0.1100372452,0.0885113485,0.6767975098,1.0680309189,-0.0411922164,-1.2167943564,-0.5605830398,-0.5623916075,1.2090627455,-0.3889672757,-0.7891133185,-0.41792751,-0.1203558468,0.1918548318,-0.5710914463,-0.5314514868,-0.735398762,-1.3253091163,-0.0732044789,-0.0324304941,-0.1609479128,-0.5372071241,-0.5861332997,-0.3249378768,0.6400647246,0.3348771077,0.3334654467,-0.4124337589,-0.1935039618,0.6638086473,-0.4733282878,0.6322456386,0.7916416789,0.1248224715,-0.4113271561,0.7274957883,0.2878740358,-0.5560319235,0.2413996158,0.3035173255,0.459290998,-0.1821724353,0.8179222629,-0.4441866161,0.8589617951,-0.4765029619,-0.835527574,-0.5493194618,0.4766574185,0.1851224289,-0.5344015637,-0.8623602921,-0.7563488962,-0.2457750679,-0.2067859618,0.5539504701,0.608690367,-0.9502349878,0.6036032255,-0.7687680417,-0.8623677422,-0.1573370223,-0.8353602308,0.250978246,0.0892067208,-0.1497860027,-0.0070719388,-0.1562551262,-0.3690854779,-0.3482180339,-0.8268038932,0.5167743066,-0.0079968368,-0.8504294493,-0.5215017609,0.1125992246,-0.8142437514,0.3694570369,-0.5364909687,-0.6427385805,-0.71638929,0.1272612143,-0.278114905,0.7880930084,-0.4535533364,0.0482483811,-0.210186614,0.8566724648,0.5456276738,0.1084083165,0.4220467474,0.6320534308,-0.1660900096,-0.192361021,1.0049801,0.1010705199,0.3616377031,-0.9230832696,-0.6240996977,0.2144622394,0.2483917441,0.7337942078,0.2581030431,0.3615644047,-0.5383636849,0.8207265901,-0.3317214843,0.0246041227,-0.1361044658,-0.190382393,0.6158190727,0.6961050065,0.1162950023,0.4065572054,-0.5284808628,-0.5975174494,-0.4382120874,0.4833784627,-0.3910581158,1.1311852062,0.0144009904,1.09799313,0.9741785672,-0.7361929091,-0.4688553297,0.320734322,0.939227441,-0.01007278,-0.2269250304,-0.1009833988,-0.720312865,-0.0219290144,0.4387964765,-0.4623273207,-0.2410192633,0.6891814328,-0.4274531383,-0.8528787431,0.1125665754,0.7476008703,-0.6474926978,0.032787823,0.8054596544,-0.6451209505,0.7616088066,-0.3751330733,0.8270468886,-0.0740131368,-0.5118576683,0.8317286015,0.3050430828,0.6498549445,-0.8094633321,-0.662694374,-0.1441867641,-1.0036787626,0.844451377,0.7409221035,-0.3115497191,1.0125292883,0.7700843259,-0.9360649805,-0.7895727019,1.046437662,1.0002596961,-0.3027578933,0.5801574032,-0.3396707621,-0.2198128612,0.485516345,0.5993837704,0.5242021364,-1.0749691697,-0.7932722863,0.9028577911,0.2838909659,-0.6643442561,-0.9522134988,-0.3782841459,-0.8905691366,0.4692867999,-0.8461915157,0.2875926487,-0.6315512628,0.6135372892,0.2752967529,0.9987861389,0.0713892366,-0.7531906488,0.0715859369,0.6503685938,-0.2902939757,-0.7073985331,-0.150400883,0.629156564,-0.3160185353,0.6998920124,-1.0255229339,-0.5436803594,-0.4888672266,0.2617418926,-0.0473772858,-0.0032565906,0.8949174632,-0.5539546195,-0.0121319447,1.0776653938,-0.4234718264,0.8478794144,0.6222983696,0.7804824292,0.8001707278,0.3670835342,-1.031204495,0.1271987023,0.7483299746,0.002424643,-0.8995849943,0.044672986,0.6550630024,0.155372695,-0.5370130058,0.4704839642,-0.4639082683,0.6573540174,-0.574149917,0.6763216635,-0.6126306451,-0.9978912686,0.0031574581,0.3568392816,0.1566359244,0.3534336399,0.4495151347,-0.6297237573,-0.8962465215,-0.4367054029,-0.5977451396,0.8251492475,-1.1177970181,-0.8737369681,0.6695930985,-0.4326885229,0.3864297457,-0.3662934193,0.0666979102,-1.1889777124,-0.0491757723,-0.1624360908,-0.3943182345,0.9447171071,0.3340114945,0.9591949681,-0.1631019841,-0.6817229885,-0.1012481171,1.035056938,0.7538122962,-0.2527538443,0.5118480075,0.653144176,-0.1786988105,0.9288626002,-0.1960368454,-0.035215965,0.1184279564,0.3059822498,0.6043163648,0.0448712144,0.9728403375,0.4066638609,0.2756081479,0.2808600485,0.3805539761,0.1603612826,-0.4494171077,0.5913668895,-0.144483236,-0.100427818,0.2707301182,0.2759115111,0.3422795199,0.548246312,1.0428877425,0.2446822579,0.1123789292,0.6563426761,0.1466515857,-0.4834725174,-0.3803656006,-0.9147633955,0.5359721227,0.7152923487,0.8832134543,-0.4785770179,-0.7466654915,0.6847365786,0.6053379572,-0.4125162207,-0.5801882366,0.7329142537,0.9739101089,-0.5707185406,0.3601728093,1.0979315611,0.5615294125,-0.0319577924,-0.6640918566,-1.0530663204,-0.1137619563,-0.5593874422,1.0325435008,0.1839926699,-0.3437860073,-0.181283852,-0.6278874707,0.8008185764,0.750356389,-0.6999582622,0.2842220678,0.226713308,0.6973269307,1.2361139094,-0.2252773051,-0.1672518124,-0.7531416051,0.6563256202,0.1868656626,-0.1417188943,-0.3430838631,0.1392342248,1.4998240688,0.3760140402,0.8071461346,-0.0040675119,-0.3697530396,0.8112101574,-0.6084809515,-0.4661475987,1.0574164392,0.2324090877,0.742870283,0.959452737,0.1259218654,-0.7580556306,-0.4820927751,-1.3539636894,-0.6367954795,-0.8695572004,0.5658286154,-0.0585149885,-0.8359442436,-1.0584520868,-0.8750264888,0.4785951156,-1.2055569895,0.4106359859,-0.6736930086,-0.1722760148,0.1766401363,0.0630860835,-0.1248780605,-0.5735242254,0.3306279787,-0.5159551596,-1.296840287,1.0160660805,-0.1526972722,-0.9506754905,-0.640010911,-0.2758009834,1.0690399053,-0.5610106834,-0.9329791268,-0.3721672282,-0.4329338832,0.7971083811,0.4870580905,-0.5878379326,-0.4681074185,0.2765221869,0.4797523188,0.2738732869,0.4048169617,0.3766694272,-0.7226587945,-0.3988028137,-0.76684001,0.5420909847,-0.0352802525,-0.6848389105,0.9001811261,-0.3216507478,0.2290494736,-0.6748152722,-0.5723746336,-0.8461612689,0.4066610928,-0.186831869,0.8873872351,1.263332955,-0.3700763893,-0.3481382668,0.4036789637,0.5711073757,0.1490965624,0.0353372961,-0.5016017561,-0.0237705444,0.3359460769,1.224420118,0.8546696196,0.6527307878,-0.3479258991,-0.0877579684,0.2008767707,0.2604351936,-0.5035665464,-0.1917363291,-1.1652135139,-0.0622869206,1.1257143395,-0.6225532033,0.0884837097,-0.3863545599,-0.6483655198,-0.7535623615,0.7764271743,1.0253012679,0.2624893995,0.7719811123,-0.4763763423,-0.5645195912,-0.6761814013,0.9896509728,-0.1363801633,0.9050247785,-0.8386864666,0.4580287684,-1.2234515777,-0.206798146,0.5336666469,-1.103438844,-0.5314935309,-0.8756090539,-0.2266423986,-0.4413299555,0.9734091262,0.458338003,-0.0246926333,-0.3202281141,-0.9443344255,0.2956879847,-0.7745244395,0.2522474359,0.8842512673,0.6534782912,-0.7436181593,-0.5961030122,-0.4767214215,-0.8577596269,-0.3515743404,-0.4542016164,-0.027587135,-0.6022007305,0.2509178542,0.0082442921,-0.2515636824,0.1974398749,1.142958352,0.2724755729,-0.7403554807,-0.0150489509,-0.8669300206,-0.3975795174,0.2897162337,-0.6305764519,-0.3056280119,-0.8225057562,-0.0886456193,-0.0206374351,0.6865391012,-0.802924939,-0.44659769,-0.6097646412,-0.8430093643,0.4309414506,-0.4382356863,1.1065964319,-0.0969093243,-0.4787886023,0.700791713,-0.312981336,-0.4577002428,0.4428767171,0.5195210324,1.2946191968,0.8892481041,-0.2122418311,-0.386774411,0.5347918144,-0.2744139526,0.1064493604,-0.1410716179,0.7935427748,-0.9442418793,0.1525224187,0.922345568,0.6414949682,0.6871912698,0.5932371784,0.8619503467,0.6897952713,-0.5038004665,-0.8521712665,0.7342777877,0.5502420904,0.3377190777,-0.5827535261,-0.8632399402,-0.9345033274,-0.5045623659,-0.087771584,-0.3416523875,-0.2220212112,1.1080967104,-0.0756222865,0.7545797261,0.3686811311,-1.1842456239,-0.771712685,-0.6812858672,0.2958804573,-0.4526859595,-0.1243019043,-0.1698437556,0.1272831327,0.0058692618,0.0985770154,0.9326108193,-0.8505349379,-0.6191636656,-0.0296038235,0.5391601071,0.864692807,0.3786358497,0.8421715634,-0.0560999492,0.7068578178,-0.0871223779,-0.3242990011,0.6035531375,0.0865230946,-0.3977036707,-0.5957409532,0.3873712175,0.1896611384,-0.1334705953,0.3338499346,-0.097670105,0.1205725252,0.7355086505,0.6468652922,0.5407162141,0.5422854215,-0.1503338855,-0.6263876783,0.2679576338,-0.077986618,0.7194687793,-0.9661015255,-0.8203878909,0.9880017865,-0.4383433776,0.8831808981,-0.4819012092,-0.1601376216,-0.3594197508,1.0286227158,-0.4525804807,1.0433690504,0.7294173437,-0.8733923923,-0.2170606558,-0.0820076054,0.3484343944,-0.5188957794,0.2169671609,0.1930788504,0.2032213843,-0.4102146343,-0.9533674117,0.4934531652,-0.7492594416,0.5450760994,-0.970610285,-0.3432560844,-0.5040263233,-0.0232869553,-0.0218594111,0.8187087484,-0.9513517121,0.0579141233,0.6795149256,-1.0653989336,0.3779956583,-0.8968005624,0.8016296192,0.8299248682,-1.2347182144,1.1292791648,-0.6661891423,0.6620246377,0.1514341577,-0.252322662,-0.1777725921,-0.1116602262,-0.4799014723,-0.0466129217,0.2073399163,0.4019967962,0.1657443588,-0.4606382903,-0.4570111576,-0.1067905472,0.3302996086,0.8259721182,0.0630072627,-1.5675253158,-0.8858389468,0.2426204481,0.5062063482,-0.5863533402,0.388580075,-0.7550842309,0.54170187,0.0907261626,-0.8837374893,-0.6157564042,-1.0185235409,0.0432332353,0.8207656233,0.2991405197,0.5241654105,-0.0331390082,-0.8350048111,-0.6751921314,-0.7241676202,-0.4700716786,-0.3461441176,-0.7674301389,0.6638867875,-0.3567448481,-1.1828474716,0.0315025731,-0.0654951232,-0.2190119031,-0.8385120178,0.3537013965,-0.600928337,-0.4746660498,-0.381397439,0.9456994636,-0.8637366093,-0.007492451,0.366917686,-0.0902265705,0.6847879836,-0.0036009906,-0.2643883228,-0.3150605242,0.7138337422,0.3482629913,0.381594292,0.2778069486,-0.8778003086,0.8562533102,0.2355814353,-0.4545216449,0.3919769782,0.1085215939,-0.6816857259,0.3801515764,1.0151448819,1.1095183627,0.3227830129,-0.632231778,-0.378795177,0.2678417749,0.2469852652,0.6354369099,-0.0155755099,0.2444651708,1.084364261,0.9797798578,-0.0139868813,-0.2484576505,-0.3768664352,-0.7381605003,0.4153776811,0.1063389108,0.6709861755,-0.5338515675,-0.8978178278,0.5172032392,-0.4182358336,-0.7409143774,0.3303817414,-0.1162786945,0.8214691835,-1.1787158777,-0.7472853189,-0.8339872115,0.4136560334,0.4905301474,0.490134247,0.1145093273,-0.4272486413,-0.2757999449,0.3858049471,-0.7099677893,-0.9091395066,0.1974345345,-0.53931361,0.9216151241,0.0229206291,0.5679566421,0.128945883,0.6340775013,-0.6799622756,0.685615902,0.0797577284,-0.3509933671,-0.3240808141,-0.7292819888,0.172461854,-0.3892878531,0.2026355468,0.1972490911,0.4126227684,-0.6903348908,-0.0944118295,-1.0775776593,-0.5113186689,1.3792094719,1.6602609245,0.684525543,0.8172712992,0.0881005585,-0.0108891727,0.2250805039,-0.0162187282,0.336267505,-0.4800963801,1.1317531146,1.1245429948,-0.3941015856,0.3370259846,1.349396797,-0.3807941456
   -0.9046897769,0.1934116258,0.0182073359,-0.2841284722,-0.7204324147,-0.8543066418,0.0925985105,0.0473501956,-0.8796402098,0.3151900601,-0.0669139874,0.6908515071,1.036647879,-0.3592181384,-0.1731102047,0.2367480361,0.7911369884,-0.3666143455,-0.9189209564,-0.5277862581,0.2993671593,0.7524315102,0.025888928,-0.794526237,0.9740629713,0.2348978791,-0.6625112615,-0.6419535442,0.5705385844,0.7696968735,0.6298962529,0.732716129,-0.477092669,-0.3726439495,0.019175652,0.0419190599,0.40508112,-0.233968299,0.9948787566,0.3976959122,0.8091127856,0.3920542596,0.3998438482,-0.6553073672,0.4725623588,0.5714698826,0.9789548147,-0.3669213803,0.95738153,-0.3303500369,-0.4569407106,-0.3184439589,-0.6114025362,0.6483417018,-0.389369035,-0.7922076848,0.4181815779,0.6409988001,0.4870848315,-0.1644660529,0.8584010466,-0.2834593775,-0.1505620149,-0.4682254122,0.3407523917,0.2353233293,-0.4332438912,-0.1602368713,-0.8727521611,0.1884398092,0.2439098199,0.0188824396,0.2192656617,0.601574835,-0.8263441026,-0.5838125217,0.240082588,0.3883369926,-0.1960822753,1.0886290168,-0.5749208536,0.5390862325,0.6500298271,-0.5980103628,0.7551936443,0.0205151806,0.5730467692,-0.0222763353,1.0874701213,0.2956381204,0.2266969687,-0.0204491188,-0.1105554265,-0.9953797654,0.477949192,0.6560863415,-0.9826731413,0.5571182802,0.3609372261,-0.2582740027,0.8232680263,-1.1213585231,0.1507608931,-0.3100199013,-0.7120453212,0.932847622,0.2342917157,0.5172318111,0.5943518094,-0.7383407229,-0.8265236995,0.4266621537,0.2943633803,0.0843029578,-0.308883078,-0.1882066047,0.1614361752,-0.7863697419,-0.3671744052,0.7854397871,0.0274837041,1.0199108426,0.3283428548,0.8740169233,-0.1206913724,0.0979077941,-0.4457288653,-0.2609297143,0.6380472325,0.4608041898,0.5214598712,0.247604552,0.9868766845,0.1077226503,0.3599048809,-1.1669672324,0.6647943224,-0.0352902255,-0.6903098202,-0.1635015364,-0.6220210435,-0.3845153555,-0.7925785548,0.1778215872,0.1924817491,-0.3604041428,0.7520177852,-0.3965978055,-0.6906013654,-0.746489732,0.1244229956,-0.7305673318,-0.9132796366,0.2897487214,-0.7273896829,1.2956121451,-0.2462681265,0.1650899123,0.6992575492,0.7521889017,0.4322729933,-0.9101430334,0.3007149947,-1.0887066165,-0.6989542413,-0.9714965532,0.57659413,-0.0586093355,-0.4672264014,0.0692094505,0.9528199535,0.7195531709,0.4484165147,-0.7237808663,0.1663606458,-0.6172162127,0.7631214382,-0.326786982,0.0806687855,-0.6509314741,0.2395667049,-0.3582233354,-0.7451393765,1.1380958372,0.3388330944,0.6858187743,1.0053723799,0.9151356263,-0.6060018425,-0.1375840783,0.9096746501,0.0702883247,-0.5120596707,0.9490909178,0.7201094764,-0.4243163032,-0.5355959763,0.8235498015,-0.2438050334,0.2662637074,0.1112461504,0.5951915305,-0.1416369494,0.222879622,0.7394180232,0.9312252585,-0.113106873,-0.0075323403,-0.312546725,0.6059754148,0.9773858514,0.1798218907,-0.0716125719,-0.7720499771,0.8004125175,-0.2680821928,0.1856619144,-0.0140087616,0.3594329427,-0.5745018619,-0.5026263983,-0.3894011272,0.7419978655,-0.5610386608,-0.3953677125,0.764005393,0.5348346891,-0.3654914938,0.0209711196,-0.2162247915,0.5547277366,-0.293087886,-0.5874612975,0.0696183559,0.7232086535,0.582561929,-0.3613473451,-0.4616232475,0.4811382029,0.6865900306,0.2832443975,0.0696570656,0.2062796561,0.1530771975,0.3487393103,-0.6826309351,0.5329046053,-0.3847044779,-0.9676709995,0.9762689699,0.5270936731,0.155935523,0.4109686348,-0.6194319539,-0.1945810289,-0.6920107703,-0.8658699199,0.6038322946,-0.2679470815,-0.58980727,-0.7589053926,0.9806283719,0.6758202909,-0.5666265945,0.7261584078,0.5876744381,-0.627830495,0.4975929076,-0.1065535346,-0.0210470747,0.22378171,0.3757272633,0.5956590953,-0.8787561472,-0.0479735191,-0.3075897974,-0.2154697871,-0.3537907285,-0.4106761893,-0.0880279673,-0.1739086416,0.7379548287,0.4138080476,-0.4881581034,0.5268477998,-0.5616596684,0.8039453412,0.9046177055,-0.8790560098,-0.5312698543,-0.7601059569,-1.0743182197,-0.91108114,-0.8157648023,-0.7423265371,0.4998462643,-1.1306802583,-0.4952535733,0.2178311315,-0.2701670469,0.0216872287,-0.3692941848,0.0185228581,0.0068463454,-0.8847469639,1.1163513674,-0.2326732991,0.1365331647,0.1179821418,0.4326278288,0.7045814186,0.2928722404,0.7427503925,-0.8864359124,-0.944976282,0.3747368812,-1.0174659263,-0.1138221448,0.4138699687,0.3238675002,-0.3762890898,-0.1595118065,-0.8755379202,-0.4200615163,0.087567598,0.1152551657,0.420529743,-0.4900823787,0.8378025273,-0.5651038072,-0.1410433305,-1.3297262435,-0.590984291,-0.1862144553,-0.0837556681,-0.4790814537,0.4096546295,-0.6814517094,0.0702000948,0.7274841744,-0.9914972006,0.1400569807,-0.947502601,-0.2535391942,0.0770966449,0.07983463,0.0144787475,-0.5570899013,-0.2797274516,0.4016092738,0.0302508352,-0.8464907387,0.47757618,0.6752050918,1.2152241201,0.6173043179,-0.4244228103,-0.5574389398,0.8310240477,-1.1062997018,-0.5383960354,0.7367716332,-0.4306310931,0.5681576243,-0.3226211478,-0.0963044676,0.4191304907,0.1481344711,0.2124592614,0.5677138089,0.3656765913,0.2856127162,-0.100523018,0.7762190037,0.3565186022,0.7287514988,0.6887167082,-0.6915907985,0.5285815924,-0.7850309075,0.3487044758,-0.2476701899,0.7149331418,-0.4180843538,-0.5171537902,-1.2549244156,0.6239306333,-0.0604264866,-0.1025787607,-0.3819051171,-0.0787155288,0.2240632516,0.6748273429,-0.9946078449,0.5067569572,-0.6124046026,0.7861239997,-0.9505754617,0.9128251837,0.5415292715,0.3020081851,-0.614426339,0.8202356439,1.0107420924,-0.1872204733,0.4126737039,-0.5612371117,0.1506376942,1.2766325322,-0.6221602644,0.1191464986,0.858412257,0.1360327694,-0.004226191,-0.188847778,0.2694296239,0.8835394009,0.2376869222,0.7200982067,-0.1925114862,0.1521143059,0.3320832299,0.563261818,0.7134391062,0.6894118334,0.1705230141,1.0708635128,0.2660364288,-0.6210837849,-0.5750075296,0.7444594316,0.5391880659,-0.0617993986,-0.216812684,-0.379809898,-0.4707302324,-0.9109314228,-0.2833288576,-0.4267866933,0.6169981236,-0.380292124,-0.1530219967,-0.6209464282,0.3319577881,0.4200275494,-1.2340895973,-0.2773178234,-0.2746092533,1.1984078941,-0.3329301987,0.2656030689,0.4249542949,0.1769898432,0.3226439466,-0.4640260043,-0.2329931741,0.8876825158,-0.3204425845,0.2869092549,0.7876410383,0.6624388207,0.5693840213,-0.4005872184,-0.1830569524,-0.2406556117,0.7606061211,0.683059823,-0.5252306638,0.235428109,0.8055270391,-0.1360685356,-0.7962665274,-0.4443763649,-0.8039001007,0.0660735375,0.1831689893,-0.3360665802,0.4470696549,0.2600726984,-0.3319660354,0.3304956726,-0.1666425388,-0.1378452322,0.2197019697,0.7973450848,1.0563720002,-0.1884444447,0.579464991,-0.0983946704,-0.0925715454,-0.1745159946,0.1888505614,0.2712463001,0.4527726656,0.3755021397,0.0032819782,-0.1335311837,-0.8398498716,-0.9777060292,-0.1238456753,0.1370815903,0.2466791953,0.1540988626,0.6289603978,-0.992667251,-0.4839864613,-0.5295484295,0.1543827012,-0.2619398507,0.0290442338,0.3465408546,-0.3991622657,0.5632099686,-1.2094609745,-0.2271964627,0.0664906389,0.3772332293,1.1142489329,-0.1712545799,-1.0442763609,0.5016370039,0.098778639,0.3660538059,0.8063450784,0.3116188025,-0.565011324,0.0633008442,0.4967461603,0.2346862983,-1.0378239356,0.4464031956,-0.009671377,1.3075251493,-0.047512938,-1.0735179361,0.3482580939,0.5216630622,-0.5915391876,1.0592178757,0.1773094339,-0.6723483005,0.8647849399,0.9873892786,-1.1389516639,0.3367337984,0.3666668572,0.5050787511,-1.2529849064,-1.0975371289,0.6390680802,0.2834931457,-0.1016807223,0.014051142,-0.4733355951,-0.9365080112,0.1908870204,0.6073452223,0.4835049361,-0.1987253128,-0.7820823338,-0.1310913537,0.5204275133,0.3094261449,-0.780780893,0.059489684,0.5541162194,-0.1454225437,0.2481059071,-0.2807756472,0.7378643103,0.6582555119,0.6059950756,0.2673434171,0.2987859628,0.2149333269,-1.015833456,-0.9670500887,1.1227486387,-0.06470522,0.3630856503,-0.1888332806,0.4683068481,-0.6508410113,0.6750316138,-0.7769577695,0.055715342,0.6498545411,-0.9292888413,-0.601312928,-0.4014578311,-1.5926586383,0.770593029,-0.9615927666,0.3447943194,-0.557733837,1.3488867064,-0.2520817207,-0.7066357775,1.0390847872,0.0335051363,-0.0188458921,0.1366462642,-0.670542922,-0.8452689156,-0.1976597029,0.4442995345,-0.2175981787,-0.6108773816,-0.2924396348,-1.2169268969,0.1987413989,1.2024157847,0.6318029883,-0.091942008,0.5583429008,-0.4817714742,0.0836565688,-1.159854517,-0.4438183961,1.4350191235,0.4182809066,0.6947888498,0.2244288857,0.4196849145,-0.9586437526,0.4292302845,-0.3359633517,-0.7157146403,0.8346339579,-0.6521764995,0.025320077,0.575618576,-0.379760661,-0.2355151947,-0.0988916293,-0.6499803941,-0.2483774128,0.2553850387,-0.453245403,-0.1896428847,-0.6839826097,-0.1741455497,0.3038890284,0.4818669953,0.7924639885,-0.7466458021,-0.2955280313,0.373821643,0.4001324567,1.1744736744,-1.0569761885,-0.5311794137,1.2387635838,-0.4526749846,0.3272277549,0.6854273721,-0.2088836686,-0.3604211187,-0.8559167476,-0.6288295252,-0.856177247,-0.0662385897,-0.0421499514,1.0855146943,0.3930680741,-0.8950155252,-0.4060436707,-0.304332923,-1.2931994047,-0.1870464112,1.0774513288,-0.687185804,0.7369290672,0.8449222406,0.4206458703,0.5786249539,0.793272145,0.087153667,-0.5433250342,-0.0428271759,0.0752569963,-0.2355174283,-0.6215980328,-0.6845905121,-0.282283432,0.0972615191,0.3408991985,0.4718716971,-0.8170997624,0.1225327609,-0.5359098153,0.2622742861,-0.0818867864,-0.1918960374,0.3553744657,0.357970519,-0.7291524773,-0.7489814925,0.4524944504,0.2470614121,0.5261150722,-0.237178453,-0.1958090181,-0.8244685994,-0.9913990734,-0.9212518341,0.8475468401,-0.048081718,0.0645006639,0.638380952,-0.6036047252,0.7516900145,0.0112393909,0.6694854281,-0.7312613716,0.1579363012,0.0666360392,0.5483281266,0.376484516,-0.2572612436,0.2602320116,0.5495018323,-0.0340607095,-0.5569443958,-0.5741934001,-0.4596041172,-0.6966247143,-0.5319878499,0.9848046997,-0.4421296755,-0.2722801915,-0.6728208774,0.033644733,-1.1116859489,0.8270966604,0.2115261997,-0.2615690404,-0.7388188693,0.7387827626,0.0759331932,0.0546360369,0.3247895101,-0.7212491393,0.7365711601,-0.8578150383,-0.7668367574,0.879809869,-0.9069452515,-0.2351520348,0.4899863306,0.3530331419,-0.504733517,-0.9568444915,0.1472426811,-1.1339509462,-0.4626201363,0.500270124,0.1384245981,-0.9113645434,-0.6961107242,-0.0133186924,0.2198178026,0.727410837,-0.9716743217,-0.0262259075,0.2051132055,-0.9108825052,0.2116358365,0.2923595628,-0.4282541583,-1.0270645246,0.1638646565,-0.3186442207,0.7341924155,-0.7998639287,0.7107906387,0.7165065005,-0.5256867895,0.8728348222,0.7199681328,0.5830365577,0.4611067321,0.9716703404,0.313403408,-0.7358087769,0.5267023583,0.4909120281,-0.7393079123,-0.3337405555,0.5320799142,1.0441341282,-0.1515320968,0.6919231871,-0.0663618512,0.1464169413,0.4552404162,-0.7322510902,-1.139686387,0.5287678168,-0.474545278,-0.2649851705,0.7096729653,-1.096688964,-0.5600985151,-0.4086558477,0.8928141086,0.4638141584,-1.1487901449,-0.1517623924,0.2490192512,0.3833432379,0.9451912728,0.5701180125,-0.8497594462,0.5833920215,-0.7272669131,0.4497054143,0.5685625114,-0.4596040794,0.1900950212,-0.7658892423,0.6808194536,0.8273523833,-0.7568060115,0.3821267731,-0.5031963252,-0.3485653361,0.5324902598,-0.2363356785,0.511238997,0.6081621209,-0.7676811318,0.3852468624,-0.8097455663,0.5466802485,-0.1089132413,-0.2635100849,0.9071000453,-0.9121376504,0.1104639102,-0.0990110896,-0.990758046,0.9408082571,0.0547474724,-0.5452308619,-0.6116475939,0.3596148263,0.6888678481,0.0204768127,0.589732894,0.5145823643,0.4075109391,0.5698977007,0.853451706,0.6625826219,-0.2393084743,0.0637108063,0.4037161653,0.0641069236,0.3151489938,0.2192691272,-0.4883735176,-0.0938529434,1.0802541188,-0.1644358172,-0.3980181365,0.6555296948,0.1397882911,0.4369844033,-0.8064187659,-0.6745587829,0.2736580157,-0.3196624445,-0.9514953485,0.036505839,-0.1361027077,-0.1066405443,-0.7930029406,0.3842115992,-0.7644864112,0.3639952421,-0.165656369,-0.7005960613,0.1738050979,-0.0667231445,0.1992833511,-0.5415880648,0.8466056677,0.9328110928,-0.5141079751,0.5308090139,0.3903838633,-0.1907834753,0.2909973438,-0.3430868687,-0.3920757867,1.1099357459,0.1919489222,-0.5874097371,-0.5180814325,0.3397017609,1.4520895691,1.5437224704,0.1781024757,-0.2694766444,0.3044454142,-0.3240934217,-0.0728249707,-1.1882264605,-0.7832753934,-0.4715231793,0.7581963204,-0.1529851102,0.4209261396,0.687278295,0.1986904321,1.3192555255,-0.5175825034,-0.9215722035,-1.1616379519,-1.1428656912,0.2097490411,-0.0498234253,-0.2424120422,-0.4730968846,-0.5037836629,-0.5280164195,-1.1635943839,-0.6701108685,0.094867858,0.0619256608,1.2927084359,0.4980757711,0.8102251432,-0.3041323793,-0.6620440167,1.0433488727,0.3591909219,-0.0099797547,0.8470207458,0.5455659338,0.3373577941,0.413096353,-0.4139202375,-0.3753706849,0.2422440873,-0.1814911348,1.00551963,0.3501911542,0.3704881356,0.5713074448,-0.038846271,0.5332400862,-0.3143928144,0.3317671893,-0.2561810973,0.3351548908,0.7249805926,-0.3914467664,-0.1651045182,-0.520660143,0.4829053728,0.6919240915,-0.2574453658,-0.76668478,-0.4221891546,-0.3066113677,0.4254552723,0.0298232344,0.1881396121,0.6351979604,-1.0991734401,0.3821566885,1.0286717758,0.1988554067,0.1192632577,-0.0055283963,0.0658204092,0.6525061392,0.1447306338,0.0123877607,-0.1627809947,-0.2932429219,-0.7622396017,-1.0357937588,-0.5102420307,-0.810855245,0.3624097037,-0.6567065911,-0.6938700018,-0.5518537742,-0.9898065791,-0.0401093781,-1.1060907348,-0.625223396,0.1018501322,-0.6052274816,-0.343417682,0.7021836408,-0.5449167788,0.9629957818,-0.0163894354,-0.1829330474,-0.8796399781,0.4487419292,0.6514587784,0.4357089584,-0.3358656477,0.0739946309,-0.8629866811,0.4352721263,1.0270233839,-0.8390208031,0.3526245403,1.2023729912,0.232167321,-0.1628014843,0.7483722209,-0.4518708499,0.4297973052,0.5793213963,-0.9731009697,0.827975044,0.6295058215,-0.3077001251,-0.1139595277,0.649404229,0.1514871038,0.0438997248,-0.7163843779,0.7489962822,0.4364743726,0.1072727468,-0.6976205079,-0.4951458533,-0.3398584306,-0.5351304722,0.6142633187,-0.9049602653,-0.5181835343,0.3938643421,0.4579924751,-0.7183413963,0.4839458106,-0.5093498753,0.3154327542,0.0028030436,-0.1997538682,0.7706411032,0.3283171769,1.0278200658,0.5557346488,0.849427591,-0.4607481527,0.0457558972,-1.038679267,0.2846287595,-0.4183838426,0.7776837173,-0.5997876925,-0.003818225,-1.250962905,0.1439757052,1.2188643355,0.3930926598,0.0044192591,-0.8792460146,-1.4427770716,-0.3840848431,-0.18488435,-0.9579117928,0.9049520324,0.76905965,-0.3918960698,-0.3116579999,0.6927867072,-0.5576946706,0.7612785359,0.3736333856,0.3655402815,-0.6005189577,-0.6214636017,-0.3243007311,-0.5557661792,0.326094473,-0.3798637484,-0.1349043885,-1.1044679723,1.0603540166,0.2711257913,0.5369389463,0.0162576582,-0.9697145145,0.3759120962,-0.1424299357,-0.8159952657,-0.544905108,0.2283331078,0.3627418011,1.0552414515,0.2914430112,-0.9845593104,-1.4197978734,0.1095402699,0.7495783645,0.4758211267,-0.1686431811,-0.8477882834,0.3121290421,0.1464006357,-0.3937701227,-0.3134234138,-0.6649095786,1.2433172259,-0.4276658259,0.7991107929,0.9590040198,-0.2419878966,-0.9456231456,0.0750212602,-0.2013308374,0.4301481454,-0.5646114837,-0.9825340276,0.3556770707,-0.4967987364,-0.9399666514,-0.3403881474,-0.619021965,-0.8142264708,0.4097824155,-0.8829444044,-0.1252695321,-0.3962033948,0.8028599032,-0.1798365735,-0.2947345473,0.3686887897,0.2975876068,0.5387601652,0.6035452949,-0.7186490295,0.4885027842,1.0643354794,0.7340978935,0.3726558919,0.4272414475,-0.013650117,0.1007514903,0.5033583419,-0.2803361681,0.0488866574,0.1966652743,0.9054196412,-0.8716730542,0.7481967443,-0.7179279172,-0.500294326,-0.1842553553,-0.5399335971,0.7009119939,0.2304814978,-0.6270298037,0.304261558,0.0372103214,0.5226612802,0.905551442,1.0372456145,0.1052750755,-0.3194434305,-0.2902941094,0.0695903568,-0.2151265811,0.9956060817,0.4003221868,0.5079646053,-0.6946917412,1.389861775,-0.2363128599,-0.9727194124,0.2622526068,0.7976303935,0.2656666152,0.7575699808,0.0491419539,0.4079576753,-1.0012650635,-0.3877126783,0.7284940316,-0.7299247323,0.7691765177,-0.4156269258,-0.539417026,0.5813731783,-0.9363689887,-0.6483180838,-0.276733768,0.7402419381,0.606983016,-0.0190029254,0.3546950204,-0.0417027828,-1.0759851297,-0.3148079664,0.3568088951,0.8805550215,0.5394145115,-0.3618322153,-0.5177568064,0.6923661983,0.1864839749,-0.7860362809,-0.1883131773,0.5700415768,0.0014284649,0.8186140811,0.9569916197,0.3472196098,-0.6558569264,-0.4888213972,0.1414166001,0.6399767352,-0.3163928961,0.9845682635,-0.4557120745,-0.9004900258,0.2513006073,0.6186259212,0.7200110852,-0.442193283,0.7565726465,0.3980583554,0.6226988449,0.4697222061,-0.4909047632,0.8557207892,-1.0288361226,-1.1167878318,0.1874852356,-0.5548027223,-0.9232943466,-0.8459228492,-0.4027577117,-0.0925479379,-0.4780912049,0.2168539005,0.181589434,-0.3653418326,1.038376165,0.6874204894,-0.9482096148,0.1224395268,-0.0378650011,-0.2882074501,-0.4014731757,0.2651169625,0.1436354734,0.1888481379,0.4788032839,0.493158483,0.7117653433,0.7856870853,0.0640600599,0.9390935918,-0.8495654703,1.0394622531,-0.471084932,0.1987161223,0.0847808511,-0.2896553809,0.3716903427,-0.4609063512,-0.40768863,0.0683479967,-0.0764325327,0.2873078644,-1.245519828,-0.7111685003,-1.1218094619,-0.9181336495,0.1586569285,-0.0206463172,0.8742548334,0.7175982944,0.0466166941,0.2739662524,0.7163081388,-0.1206232519,-0.0566663989,0.1153388171,0.4420586724,0.6655021914,-0.1693790925,0.0895976104,-0.3311349433,0.0169701095,0.9901360365,-0.4517040717,-0.7949927725,-0.4815357862,0.6210296245,0.1723749679,0.1730282406,1.00771729,0.2584675698,-0.565368466,-0.4685735022,-1.430894288,-0.1122828616,0.7885237358,-0.1483756859,-0.6547716933,-0.1268750276,-0.9857858352,-0.7791366688,0.483433095,0.7071433195,0.2014389616,0.4358898442,-0.0120215963,-0.7209322557,0.2616448157,0.8990952062,-1.0426251291,-0.3326037505,0.3160129475,0.0279673814,0.3242167426,0.3559404293,0.2158101947,0.6124405998,0.1608199757,-0.6111096174,-0.8945043892,-0.0687604468,0.2272841981,-0.622299465,-0.1544473629,-1.0279206118,-0.7269583827,0.3085635339,-0.5971699071,-0.5132958191,-0.2895027691,-0.9841424836,-0.0115405428,0.899397138,-0.3099669258,-0.3117552369,0.019988521,-0.0125197327,0.0428046644,-0.7092406728,-0.1912208989,-0.338544958,0.4413025255,0.4944249737,1.0076176527,-0.8980135357,-0.9330164057,0.3404291557,-0.7505170667,0.9110719334,-0.4170504978,-0.0073351299,0.7397338331,0.2405647483,-0.6976450104,0.8517834422,-0.7527590378,0.9346984595,0.3026964574,0.8646913642,-0.0607147109,-0.4335611184,-0.4323407916,0.9073587091,-0.3619150311,0.0539206742,-0.6321839985,-0.0234282508,-0.765569063,-0.0177270343,0.7010002732,0.8043291387,-0.0425554936,0.8938668069,0.6039365694,-0.2592775197,0.4453417593,-0.5472880465,-0.5793587633,-0.4367058092,-0.1278442755,0.2371761268,0.0561702608,0.0165169891,-0.6017165203,0.7827102011,-0.2931352799,-0.111329942,-0.6760188226,-0.7198093175,-0.7511131326,-0.6025407282,-0.1445738577,0.0455665112,-0.6925551586,-0.9709045202,-0.3172827081,0.0294706731,-0.6508554046,0.7168733036,-0.0792828023,-0.8076920033,-1.3391280555,-0.8895590918,-0.2407687162,0.3939814485,1.1386570651,0.3357771537,0.7254077951,-1.1099049804,0.124941217,0.5676960256,-1.0741375001,-0.335057663,-0.2148071859,0.5238513501,0.3688927175,-1.2891331348,0.9394208809,0.8011538661,-0.2713800307,-0.7655061162,-0.5492013061,-0.2227749146,-0.7104306548,0.9993710498,-1.3130964937,0.5986437023,1.0219955503,0.8381472621,0.6252672077,1.2579464017,0.5891119279,-0.0159069757,0.4915380825,0.5230689475,-0.2019893238,0.1708491275,0.0412781342,0.0475206843,-0.3562630002,-0.6121892687,0.5042344095,-0.3473317592,-0.3251586006,0.5116034389,0.35051729,-0.1578361818,0.1185549289,-1.0031461491,-0.6086568094,0.2280195106,0.7386969027,0.8343250214,-1.2401699775,-1.283706602,0.0291656583,-0.7768694671,0.841015201,0.9332123295,-0.6198705249,-0.0054044238,0.0116423924,0.3931887411,0.589240913,0.7896453697,-0.6957077127,0.2760681853,-0.3171489566,0.6093093807,0.7672667305,0.0639089123,0.5485408255,-0.0092299606,-1.05702162,-0.4444647821,-0.7043725911,-0.3109281087,-0.1502746389,0.0889733061,-0.8285586036,0.4466881197,-0.8601566547,-0.3817535743,0.538290169,-0.583337547,-0.526625116,0.8894979493,-0.0233463524,0.2602882434,-0.3824272694,0.6012419921,0.4000260444,0.635373557,-0.5161111048,-1.1490851572,-0.6156227535,-0.3932650798,-0.6903407385,0.6184664121,-0.4600586321,0.1228339654,0.4901841677,-0.7626608469,0.709107809,-0.3177786336,-0.8141980469,-0.7263095468,0.8799811721,-0.4702034264,-0.0108154141,0.3866714457,-0.2914606198,0.9231672904,0.4962640587,0.8324209317,-0.7907310728,0.3982539882,-0.2853189874,-0.7183923802,0.2254096994,-0.6364612315,-0.5452098098,-0.2779020814,0.183877149,0.8813320721,0.0771677075,-0.8874882205,-0.0703422379,1.0278354283,1.1251962976,-0.6589923517,0.5740347525,0.3811820899,0.8685673261,0.1616511554,-0.5690902288,0.4275096249,0.2107972597,0.7494030759,0.5147918321,1.1243641473,0.5637085467,0.5009692984,0.626305594,-0.0263672398,0.1470983004,0.7682851799,-0.7316448268,-0.1555895739,-0.613161907,-0.272938812,0.4986436939,-0.4620857501,0.0711431037,0.786552129,-0.2226429236,-0.9811440749,0.2355582795,-0.1238467814,0.6019202811,-0.3143834908,-0.9311519631,-0.4437551983,0.957949001,-0.311942285,-0.3663116211,0.6336209204,0.9519420154,-0.6651427006,-0.5761434186,0.5374563133,-0.0158582349,0.1503469408,-0.0732153205,-0.0631103559,0.7971230414,0.4336891327,-0.6385992719,0.0813835204,0.2829867382,0.1415680171,-0.117685607,-0.7165639104,-0.7508258005,0.0360186971,0.5719702499,-0.6552676889,-0.5591982074,0.1743995576,0.7300773946,-0.4757560448,0.2968850531,-0.1441370819,-0.3960172634,0.102192895,-0.2166277079,0.3997916114,0.3277152664,-0.8383828227,0.1354946843,-0.0033838817,0.20018086,0.8236639786,-0.546250223,-0.0126268207,-1.0324504431,-0.185048091,-0.4459542124,-0.6105550947,-0.0531760886,0.1701609762,0.97618418,-0.419288825,-0.6658466379,-0.668429014,-0.9044348625,-0.3241145986,-0.1022831798,-0.6052525306,-0.1977566645,-0.1049406478,0.5457102873,0.4812663203,0.7768534821,-0.5468898336,-0.7301755251,-0.4358408155,0.6915855735,-0.3930921849,0.2499578074,0.7798350511,0.3216846077,-0.610420879,0.4433395285,0.9476984483,0.4306511189,0.2426427619,1.0128591258,0.0053383276,-0.9761128532,0.6574091065,-1.2965256206,1.0772841074,-0.0059698029,0.3347319039,0.2356512615,0.9567944474,0.496299666,-1.0836055931,-0.8574350675,-0.3354042404,-0.1649907454,-0.5205625054,0.7729759529,-0.0922267071,0.0065989579,0.0129469874,0.3871338131,0.2400523261,-0.006475437,0.0777199727,0.6526031265,0.5282241488,-0.2744744655,1.0776320559,0.9565095278,1.2120975662,-0.6883157127,0.4314378267,0.6604857218,0.2177887013,0.4570076781,0.3177273814,-0.0358223638,-1.0134841092,-0.6776574293,-0.7321344219,0.91687698,1.1015509634,0.6271416296,0.5383572144,-0.1319276235,0.0510148481,0.0100067977,-0.9421028243,0.7002661647,-0.187886731,0.4274542425,-0.358260246,-0.0382862729,0.8257644934,0.4076688526,-0.3713680422,-0.2170924773,-0.0648640082,-0.1284259559,0.685535575,0.2702242222,1.563448998,0.1760298328,0.6744336039,-0.6224530414,0.085436871,-0.1507778161,0.4465966438,-0.5160797503,0.8901131168,1.1138548089,-2.0141632575,-1.639933569,-0.9076041762,0.4970352061,-0.5737112807,-0.5585825771,0.4853968584,0.1693881224,0.0681395789,-0.5742400265,-1.3182698103,0.2385957252,-0.5464918186,0.4374919058,0.3689447768,0.2846462691,-0.1747740887,-0.1288915981,0.089000474,-0.5480227312,-0.0583089298,-0.4540311376,-0.1883303277,0.2825308658,-0.213721922,0.3271457278,-0.0156617368,-0.0469343578,0.7461145062,1.2456629008,0.0271695431,0.2403851337,0.2948965208,-0.5044761327,0.673055996,0.539655259,-0.3838039096,-1.0244089288,-0.1873817442,-0.1082590866,0.0870390236,-0.3251544873,1.0455205008,0.5936557328,0.5004004763,0.8329634789,0.0769211773,-0.7704019689,-0.9661118924,0.5829013868,0.4579526734,0.5078806775,0.4042280269,-0.6116918375,0.4152733291,-1.242407549,-0.6045151002,-1.6428485565,-0.9931178804,0.3261263229,1.1648732223,0.6937590146,0.0157711366,0.0963932633,0.7425100765,0.0825366051,-0.5633113832,-1.2943779909,-0.3627946123,0.6885238503,-0.0794085083,1.17370346,-0.3768451471,-0.2034834416,-0.7347539423,0.2399556374,0.067988563,0.5729848633,-0.658237609,0.056153817,-0.4711270209,0.144336868,0.5989866842,-0.6193459971,0.040853585,0.9054615892,0.0209003677,0.4868994072,-0.4044047469,-0.2668885609,-0.2795554396,-0.9132775413,1.0080608838,0.5331840096,0.0220040092,-0.5170966539,0.5053916025,-0.2954254367,-0.6597302453,0.1997438949,-0.9153504205,0.5490139894,0.0292720395,-0.1733042245,-0.8886452802,-0.1418768739,-0.4115677345,0.2573666486,0.5693730505,-1.0177431219,-0.4572585671,0.1192898439,0.5642097996,-0.8281870891,-0.5275450761,-0.6134845572,-0.6324275872,-0.086562012,-0.8707058562,0.3532915518,-0.2806719317,0.2418992519,0.8046040167,-0.7485322108,-0.6617161569,0.0203577107,-0.7041583204,0.589498247,0.0481952021,-0.2158357306,-0.653452872,-0.9226840103,-0.6652931309,0.4186679935,-0.9727045867,0.6522069315,-0.4211963505,-0.05703317,-0.355606207,-0.0169213249,-0.2607333493,-0.315095296,0.3935585361,0.8048542317,-0.4516547242,0.7050655838,0.4555235948,0.5605975157,-0.1618930648,0.4557909682,0.2840260988,0.9015620622,0.9450504445,-0.9154387448,-0.2658377339,-0.5943537468,0.8941126862,0.4625452701,-0.8256258654,-0.6985437157,-0.3070826483,0.2056364529,-0.8405380148,0.049759871,0.9769166591,1.0130582911,-0.2556464339,0.3449221213,-0.6501967839,0.506356594,-0.1850498448,-0.1626678509,-0.1679081667,0.3182054749,0.5382976646,-0.3635610852,0.1282781357,-0.5618937106,0.582000807,-0.5651979016,0.2280310414,0.3697689735,0.0156993092,0.4829462324,0.409498683,0.4188880117,-0.75144154,0.5737797303,-0.7838996354,-0.4954165087,0.8871925685,-0.2036859253,0.4986713316,-0.2741773728,0.9346984734,-0.4291043188,1.0029297386,0.0175413919,-0.6036258715,-0.401793847,0.9007827739,0.7063179613,-0.0797423624,0.0687064613,-1.0086278979,0.297702896,0.1617952146,0.1301571043,-0.4982773102,-0.1643380391,-0.2607359146,-0.5388709901,0.4656364971,0.2737624424,-0.4677231224,0.1607786122,-0.9735857372,-0.0259097866,-0.9437951206,0.3539117748,-0.2531347094,-0.1095215177,0.5231122941,0.7944796809,-0.4514023571,-0.8939595471,-0.8297790598,0.6891800807,-0.4845694438,1.229385998,1.3077451147,0.9492831126,0.8454693412,-0.2629809604,0.707455094,-0.0446493001,-0.4654792815,-0.7403577351,0.9634406588,-0.0857421464,1.0500801123,-0.2519825853,-0.5088616536,-0.3930734698,-1.312381522,-0.4201878082,-0.2579951453,-0.9873051702,-0.3463672258,1.0423994382,0.5007682535,0.5500484436,0.6255518622,0.5100599609,0.6652891252,-0.6104213655,-0.3874512102,0.7023105675,0.2401219925,-0.4821171065,-0.4644811871,0.2076640868,0.9118678399,-0.6037579411,-1.3391507264,0.9883887402,0.8470130916,-1.1475220265,0.469540441,-0.7709250225,0.3390779534,0.7160201175,0.6342933051,-0.6808519868,0.468710134,-0.6663706655,0.6773397491,-0.288891953,0.9247440029,-0.526285691,-0.4564434392,-0.7020334626,-0.0973941739,-0.1136558219,0.8522908614,-1.0728650287,0.0940559943,-1.2579452895,-0.1992786929,0.2682222284,1.1739419832,0.5177221542,0.7749738069,1.4073823234,0.0344081,0.1570120558,0.6903400976,-0.1808409465,0.8331055474,0.9692011924,-0.7550751225,0.0802623332,0.354007469,0.2709759853,0.6057095603,-0.4097309571,-0.8058876566,0.3528858414,0.3468841313,-1.3970451521,-1.3075795566,0.5857250517,0.3149283823,-0.1597816702,-0.6969058907,-0.3843295534,-0.0862584539,0.0676551521,-0.6984467386,0.522810769,-0.7531807518,0.5430180043,-0.9318165121,0.8281919991,-0.6530801898,0.7881433695
   -0.4793561934,0.7388074663,0.706165161,0.6656133778,-0.8739276927,0.7363078362,0.2516788376,-0.4586399379,0.7336592602,0.9038978067,0.90754176,0.5832555739,-0.0513579724,-0.7747018861,0.3255553063,-0.8383215451,0.9448116611,-0.9005440182,-0.7867424109,0.9621311569,-0.8301261395,-0.421089085,-0.5477837912,-0.0469610139,-0.8147387907,0.1865642916,0.2253293995,0.9945610385,0.0550534159,0.4657903856,0.3553922884,0.1201027626,-0.5286544276,-0.0744785215,0.5304500564,0.3518438549,0.0681002783,0.8045194159,0.35930246,0.0344009822,-0.4613802386,-0.7599543517,-0.6710464765,0.7554691478,0.0594358861,-0.232527526,0.105456126,-0.1914743189,-0.1287576041,0.0131811568,0.3678304192,0.9595306866,-0.9927891774,-0.2166126827,-0.3825474401,-0.2419298249,-0.510311092,0.313500788,0.3770171892,-0.368036088,0.5778414961,-1.0480496428,0.2086076722,0.4561975372,0.8932258664,-0.2061324583,0.3458181085,-0.3446556743,0.1816686547,0.4816043731,-0.0094160029,-0.3229959577,-0.137247914,-0.5006592948,-0.4587149181,-0.7863127394,0.5730569309,0.6425948668,-1.058726902,-0.2544576502,-0.3702549831,0.6363592908,-0.9378575177,0.9892470294,0.0630945158,-0.674638921,0.7456656191,0.0569621267,0.0030896261,-0.9240135464,-0.0482249075,0.5947444954,-0.0703586107,0.1835215592,-0.1099974272,-0.5674741306,0.6585478758,-0.9077681423,-0.6177224034,1.2506820024,-0.2831772396,0.3979232519,0.9997125278,0.2757495065,0.4434568893,0.1786299423,1.0532167565,-0.6892047156,0.2326271655,0.9466426413,0.332726249,0.472585537,0.0889750713,-0.8879284426,-0.3215954265,0.3129613014,0.3190988809,0.179985865,0.1329474641,0.5610462169,-0.4398347823,-0.4027327272,-0.7793374018,-1.2343382033,-0.9680914822,-0.1126932573,-0.2422734294,0.3503852693,-0.6018842665,-0.6079981771,0.3235178195,-1.4750242427,0.9752682507,1.291879797,0.0577272883,0.2728294073,-0.1305443726,-0.0551235355,-0.9421508431,-1.1485605189,0.5402253257,0.7750302043,0.3812792787,0.0945634914,0.2456572127,0.638798777,1.6438871747,0.2966990905,-0.1249769815,-0.7843033013,-0.6521099443,-1.2142268565,-0.8909470507,1.2267137556,-0.3281563039,0.208106275,-0.0483528409,-0.2267971764,-0.2657701189,-0.5382418858,0.7006537458,1.3913592181,-0.1015680829,-0.5924786538,-0.7841536338,0.300027643,-0.9255784733,1.044212884,0.2235060827,-0.4534802433,0.9540085117,0.3292544349,0.0903272346,0.6487277777,-0.2850400496,0.2003492363,-0.3023601268,0.8084255233,-0.5483855189,0.0081782404,-0.0976165621,0.8719582267,-0.139313853,-0.7877465126,-0.5180045568,0.2643815123,0.0337003397,0.3520385007,-0.2513109762,0.7118197406,1.0312520257,-0.9074094766,1.2837872086,-0.0541434068,0.379692354,-0.4169396233,-0.8516488431,0.7662624455,-0.1231902002,0.6839411865,0.1144860321,1.0659525295,0.778643435,0.1536036277,-0.3721093138,0.5310740077,-0.1460860366,-0.7291788445,-0.9738258799,-0.0034242646,0.7398091527,0.0649532709,0.9351104406,-0.5352731515,-0.2481433191,0.2524610708,0.5048268109,0.0582802155,-0.6104250476,-1.0167756419,0.5832101206,0.5758759016,1.0479354733,0.2807970057,0.5554055459,-0.0479214896,0.13734009,-0.4071636712,0.2972292283,-0.5919464484,-0.809319469,0.8247775612,-0.5473916507,1.0910994514,-0.0739739917,0.3093931011,-0.7274734907,-0.0877769668,0.3763996478,0.3497186422,-0.6817932704,-0.5042303317,-0.3715765472,0.7874962777,0.3548493925,-0.2574702916,0.532079486,-0.8422013899,0.8819574408,-0.6912089663,-0.7899792584,-0.7362436591,-0.447179315,0.6074105867,-0.4826566358,0.7191848819,0.8095591195,-0.1330415005,-0.2765901603,-0.567078161,-0.2613933689,0.3843327418,-0.4320122293,0.7548952238,0.5917654696,0.1258762509,-0.9273957094,-0.4736041278,0.5088526998,0.3634940402,0.2576157364,0.8193172388,-1.0249336367,0.747808961,0.3787448594,-0.2629167236,0.6215675803,0.2935640315,0.0362270045,-0.7876913954,-0.4044008622,0.6912767473,0.8315076661,-0.4665572298,0.5537490434,-0.3256710066,0.5191368457,-0.3673727273,0.3704056399,0.2382535207,0.3188043824,0.8017063887,0.7189135679,0.1957303863,0.4328615697,0.8820870042,-0.6964836445,-0.3900978071,-0.2745700726,0.7245591542,0.5948799139,-0.1995213008,-0.5279497284,0.1872618432,-0.5287346394,0.1540924088,1.0451780515,0.2885830688,-0.2395809205,0.3420043595,-0.0719988908,-0.917346826,-0.0018486589,-0.6611737676,-0.5591871175,-0.0019815223,0.1842439115,-0.3171987322,-0.8931996013,-0.5257013663,0.1709454429,0.6317428239,-0.0052870892,-0.8638894273,0.9764130837,0.5834019339,0.4319705948,-0.8394788659,0.9083619301,0.3922130421,-0.0924230621,-0.9993797383,0.4015677366,-0.4795643048,-0.179803396,0.6820386594,-0.643592522,-0.3015281501,0.1778973855,-0.4200204053,0.5464078112,1.0620685133,0.1316566332,-0.1692470617,0.0911626579,0.0807412884,0.3438345394,0.0054838152,-0.0203891215,0.6640963686,-0.8638979508,-0.3874446044,0.359125139,0.9961688449,0.9863993146,-1.0696714706,-0.1873528962,0.8705866267,-0.1037666506,-0.4524111656,-0.3315268029,0.0544158198,-0.7184266202,0.4255420946,0.1680056691,0.1740786025,-0.1912140262,-0.2344387054,-0.1926415622,-0.3414193413,0.5865063228,-0.4899226488,0.1566830219,0.57951997,-0.8504104047,-0.9654989865,0.6998440776,0.6521652888,-0.0675690213,0.0954601767,-0.0796103202,0.5408185179,0.767031229,-0.4398277722,0.3366165918,-0.4972947827,0.8574355532,0.5494809467,-0.9631314653,-0.8027831158,0.9442794682,0.8877550441,0.2343092606,-0.1109034971,0.7728849417,-0.6523930543,-0.3457523476,-0.6239889497,0.1696334755,0.4232322297,-1.1520612128,0.1474896346,0.9548585619,-0.4946617729,0.4588320727,0.5820036063,0.3189288023,-0.2440519021,0.5015082303,-0.0365119773,0.7625930911,-0.9168126139,1.2854248331,0.0618311287,-0.6047356256,-0.6427424802,0.4382890786,-0.1980310733,0.7598429858,-0.095683945,-0.9330329346,0.1679853943,0.2112357868,-0.6526608834,-0.6452707453,0.4638998799,-0.0693591667,0.2266659236,0.1144789944,0.6374137586,0.1299197421,-1.2367020283,0.8492518942,0.2169987541,-0.3845225956,-1.0881235826,0.5375729163,-0.4151486984,0.1847783524,-0.1898223003,-0.4661992095,-0.5871782232,-0.4026575242,-0.3441107755,0.1217746503,0.6512396009,-0.5069561367,0.564117563,0.8930115832,-0.5455291832,0.8450266072,-0.3772766795,-0.2982486551,0.0863027882,1.2280815911,0.145254438,-0.7136976924,-0.0685214426,-0.8682267092,-0.8343512201,0.0539255326,0.464599276,-0.7731802749,-0.5384993343,-0.4639094694,1.2203357311,-0.2629923603,0.5786271331,-0.9415796207,-0.4570798576,-0.0945077203,-0.1768935938,0.3243302213,-0.6412848653,0.5003251847,0.5187024527,-0.0073629699,-0.0729040067,0.4377555315,-0.3833160459,-0.097448169,0.136344302,0.0388146001,0.855918534,-0.4187703449,0.919417516,0.507350185,0.3747474134,0.7342484785,0.0110167293,-0.9227545817,0.6738487081,0.3758495014,0.7871794808,0.260708242,0.78805893,0.8932979824,0.8255266542,0.5595442182,0.1932778418,-0.3921977448,-0.5359939528,-0.9290591377,-0.2000868164,0.2065343687,0.3621723559,-0.5611724446,0.7213646062,0.1548685031,-1.0023220388,-0.0648154105,-0.6372738943,-1.0542773545,-0.6877576639,0.3490891076,-0.263166612,-0.2287783898,-0.0529560492,1.0753488278,-0.5569101913,-0.9143670027,0.2944942593,-0.2873997894,0.9827507939,0.0256130765,0.3978895305,0.0848379718,-0.6646193942,0.821072989,0.2606909331,-0.7225807743,-0.2409114474,-1.1797388135,0.39742495,0.1591123366,-0.8468159737,-0.8799104613,0.45863237,-0.0495534191,-0.1012147991,0.708429273,0.6239331361,0.1095027436,-0.8056632785,0.2773509221,0.1939643353,-0.4959045827,0.1661532341,-0.0565854107,0.2142402526,-0.6341422356,-0.1917114766,0.4917664157,0.1296627301,-0.2422877221,-0.4023561022,-0.9409851809,0.620536473,0.4006437388,0.1504302441,0.4581544284,-1.0403831036,-0.6141792271,0.3762441188,-0.5398665743,0.8505038155,-0.1616044964,-0.7548101273,-1.1951538087,-0.4859216646,0.6869493443,0.5669571114,0.4345279111,-0.2477614512,-0.7960184633,-0.4437170177,1.2340107258,0.780980625,-0.8886174972,-0.5783127999,-1.0059277202,-0.7943559369,0.1532994028,-0.8508339751,0.196822826,0.4846078689,0.3078786116,-0.0099439522,-0.2880589631,-0.6048887086,0.2646167645,-0.243081749,0.9992889453,-0.6104811521,0.4259312227,0.0998074202,-0.1003636551,0.8164717514,-0.1197131582,-0.802961498,0.3936623681,-0.2110918,-0.1707455269,0.1842849091,-1.2178595363,0.6294668527,0.2466385426,-0.5460961586,-0.5278821766,0.895637735,-0.3086852263,-0.0729519603,0.0261861176,0.6355843314,-0.6640665968,-0.6690834624,0.7318665487,0.6064601428,0.7448320492,-0.6409012797,0.0196814356,0.400662777,-0.973128949,-1.0215595506,0.5020123798,-1.2482654378,-0.0730943651,-0.1840669942,-1.0613435428,-0.8921568899,0.02255342,0.6915671255,0.1797556183,-0.82927494,-0.119277643,0.3246016147,0.5991340879,0.5155670749,0.4289797025,-0.6609135146,1.2007926383,1.1496407309,-0.5841097896,0.8925289836,-0.0858503659,0.6941135176,1.1674987635,-0.3777966568,-0.3295309338,-0.4673862421,-0.4136473216,0.4125442196,0.3638252114,-0.8753502987,-0.6381430264,0.3710218681,-0.0606887094,0.6008169075,0.4402988438,0.7674924916,0.8457081963,-0.2865932107,0.5905532455,0.8379026874,1.2966122837,-0.7718391783,-0.7094707989,0.4668803329,0.2875375216,-0.4055454647,-0.0900193531,-0.9091322439,0.1575965697,-0.7028771197,-0.729676267,0.5447611423,0.7145088228,-0.1372184615,0.5004265426,0.6232888085,0.8149393799,0.0203619431,0.3755669363,0.5509144386,0.2172362948,-0.5849811732,-0.67138249,0.6553673838,0.6420930855,0.4737877215,0.9272793813,0.6953839531,-0.2931304774,0.0271315011,-0.7533538842,0.1763792885,0.5569046821,-0.1281467525,0.496471455,-0.7644104387,-0.4539640987,-0.1575808394,-0.8983132737,0.4763474696,-0.8242514435,0.5998754702,0.0872846414,0.2241473458,0.2623147923,0.064248091,0.5446674519,-0.8171366564,-0.8736606607,-1.0461387575,0.3176216091,-0.260818135,0.1766211742,-0.8441474022,-0.1159527015,-0.0688116882,0.4005671115,0.5501744122,0.3528305223,0.059231365,0.4315737008,0.0793632376,-0.3847207226,-0.2077160916,0.618828329,-0.4834124624,-0.7132208017,0.0292432103,0.9614032309,0.4645379775,-0.2292979349,-0.5870234474,-1.0305603407,0.7650687433,0.5532304078,-0.7286268583,0.0911917367,0.2198492561,-0.6298732519,0.7295482184,-0.9335008693,0.5698694152,0.1231392114,0.710108964,-0.8152835904,-0.899035466,0.6412094578,-0.0884098663,0.921847441,-0.4416119262,-0.2728457321,-0.8288860776,0.5821090214,-0.633038677,-0.9649795724,-0.4611535807,0.8462164207,-0.3304701992,0.264886855,-0.4249364599,-0.3902441833,0.1155329106,0.3389820738,0.1504067782,-0.5161969272,0.9097560839,-0.8362264136,0.4401480492,-0.0472892278,-0.9074428145,-0.5696521126,0.3694273055,-0.6700492533,-0.0613657843,-0.0514143429,-0.4074410582,0.7596632868,-1.1205556123,-0.3897890374,-0.2595836642,-0.2984435496,-0.1070464876,0.0423013149,0.4198104446,-1.0818833789,0.4547572175,-0.5741542764,0.5183740336,-0.8006492405,0.5960406848,0.0096564076,0.0749024091,-0.5788352412,-0.53007669,-1.0005182315,0.434139453,0.7768428538,0.6155984695,0.311092639,0.6763532108,-0.0542543741,-0.5934392387,1.0612964901,-0.3668912264,-0.1800897022,-0.6343671351,0.7110834001,0.6002944077,0.7063385587,0.3701580693,-0.223423012,-0.9594448592,0.1576198072,-0.4718305543,0.302619742,0.6350677695,0.844016032,-0.6126786299,-0.3817989047,0.1174658546,0.3437060695,0.2654616373,-0.5414458035,-1.0335148372,-0.9573056159,-0.4217475586,0.3682224879,0.1815462878,0.0354404973,0.606674546,-0.0154862532,-0.3785173018,-0.3351739728,-1.3037708431,-1.0327514021,0.5436862635,-0.4334919916,-0.6002646983,0.9621035881,-0.2469664649,-0.2963884968,-0.8692444002,0.5778298017,-0.5466202021,-0.2066815139,-0.5316940001,-0.6077036072,1.1282254251,-0.3943344786,-0.2767790411,0.5840858202,-0.4720309079,0.2089079629,0.5599400911,0.903512903,-0.450698017,-0.66643947,0.2738806133,0.6206375435,-0.9911012093,0.2938259662,0.429667729,0.0327640364,0.8967062511,0.2434311062,0.187538731,-0.0444485743,0.0629737931,0.3540934236,0.0562763791,0.9763403933,1.2110691177,0.461331657,0.3080623824,-0.8343975171,0.7351272393,0.3651575094,0.0671237656,0.6634960347,1.1631996872,-0.6530905208,0.4969601147,0.664311246,-0.0268560069,-0.2732131918,0.4743891229,-0.655297573,-1.6086830127,-0.6218038222,-0.3277877615,-0.7971133674,-0.348840784,-0.4310004447,1.2356924362,-0.867796872,-0.8890739063,-0.5580879449,-0.022572555,-0.5856327653,0.1646224303,0.9308974823,-0.7726135955,-1.0538114189,0.4193793042,-0.5118466478,0.0721192458,0.7357140197,-0.9071788668,-0.6327644861,-1.1208639984,-0.1412862554,-0.5069753457,0.3371884747,-0.726184532,-0.0669736361,0.7429901979,-0.0136211463,0.3965076497,-0.7382403082,0.7268465348,0.0701991851,-0.7135696328,-0.3611675762,0.0328891532,-0.8352942715,-0.0258557193,-0.0688814224,-0.6388962296,0.5807556251,0.3762706025,0.200724465,-0.6839592585,0.428460673,-0.5828137017,0.6809815927,0.4803258131,-0.2680669818,0.5625445857,-0.573098715,-0.6286635863,0.0797002776,-0.3991781694,0.4532912814,-0.0224017034,0.9042380793,-0.6613688414,0.3616697403,-0.3951732796,0.0250300809,0.7996468939,0.5257769995,-0.2487287208,-0.170381275,-0.7429725166,-0.2846762142,-0.6717150475,0.4463964486,0.1095596798,0.8735480141,0.3631915702,-0.2693116764,0.4604538058,-0.2347480112,-0.6249855483,-0.8435418918,-0.870919054,-0.6771615545,-0.2373695634,0.097502637,0.0066011559,0.7187076401,-0.3816650742,-0.7639803871,0.7948094128,-0.9261191253,1.0387350202,0.0255795941,0.7181156032,-0.9190095651,0.3327443824,-0.4884908282,0.013233268,0.0755013402,0.2655455416,0.4280074516,0.8277712472,0.8404161632,-0.5650704502,-0.1884317954,0.5474338199,0.3799132729,0.0246892904,-0.0463319876,-1.0718381114,1.1634426943,0.2423065322,-0.9652324013,0.6575255167,1.2755649775,0.9269240465,0.6439389976,0.8633196062,0.139598001,-0.8394712124,-1.187275956,0.5380217557,-0.7275832224,-0.2788453355,0.0634035271,-1.0943881471,0.1181854943,0.3093326872,0.4318022037,0.8444144313,-1.082764855,0.1173107379,0.9056959504,-0.4226629976,0.7487302078,-1.1470410258,0.8046388304,0.3177926929,-0.400301821,-1.0123290508,-1.0872447067,-0.626083752,-0.935486596,0.4484401098,0.1783970658,-1.0451834087,-0.9675317144,-0.7364891879,-0.4798506173,0.0305745536
##end
biasActivation=1,1,1
[BASIC:ACTIVATION]
"ActivationSigmoid"
"ActivationSigmoid"
"ActivationLinear"
