encog,BasicNetwork,java,3.4.0,1,63717023994218
[BASIC]
[BASIC:PARAMS]
[BASIC:NETWORK]
beginTraining=0
connectionLimit=0
contextTargetOffset=0,0,0,0,0
contextTargetSize=0,0,0,0,0
endTraining=4
hasContext=f
inputCount=57
layerCounts=2,117,117,117,58
layerFeedCounts=1,116,116,116,57
layerContextCount=0,0,0,0,0
layerIndex=0,2,119,236,353
output=0.98826314875998,1,0.996236799468968,0.00592194113707769,0.0441179578274408,0.440672451903239,0.183989674029814,0.904638481431313,0.828265415235272,0.999538909213823,0.791675723295842,0.0195666823316858,0.0148724211226179,0.966437670769117,0.0801328999622656,0.0167838052605132,0.304679734097134,0.639634502558743,0.234906477881687,0.582122819744159,0.995157651873044,0.593188353327503,0.921856464570392,0.599961906231178,0.355615540703838,0.468172749392253,0.00504847689301641,0.750419169846789,0.0148392700658892,0.704915775293753,0.970782183068334,0.0352718491254509,0.993775932512973,0.0485917977569782,0.95376938381569,0.00681770738375505,0.999016956035233,0.00977873423788596,0.405068411040926,0.220316150796946,0.403320009288605,0.165608564420592,0.205451334305528,0.193991549248064,0.999969034613999,0.217958755375402,0.0338555658867045,0.673830883477306,0.00302106306214057,0.770802667692541,0.760254441897395,0.523742807612906,0.999910487096052,0.0631851916653422,0.31040106102395,0.539094129975442,0.0337246329894729,0.771514129194062,0.212380127465917,0.40248136680135,0.870984526625503,0.783784929823621,0.999256077385979,0.850818535640381,0.650733876581386,0.675767060867969,0.0252599544466593,0.631805301629712,0.0365345655908125,0.690321981171399,0.000175434195883294,0.331973994056582,0.966008011979851,0.0340652714586023,0.0265252564585339,0.70260481746121,0.996371250357969,0.770655225133714,0.14787299935642,0.517849150612171,0.0708307083998571,0.901454382488824,0.979580504439286,0.167078345839539,0.423626297062522,0.03067130418596,0.832790121472669,0.992047930550283,0.000365788141981532,0.488271667217352,0.831566629937447,0.0544856519250102,0.954654295236989,0.00230462189824417,0.283992238711158,0.963260188007612,0.975432509942955,0.483953905809051,0.849603282948707,0.0351890466019854,0.761108182238558,0.166362782108004,0.216581460849139,0.19794075117814,0.999398175127103,0.969561373068727,0.968858084729467,0.00264539755710609,0.637303802946161,0.831520927613836,0.997822305826173,0.412185133822459,0.117870754132565,0.318568021961243,0.998461527942258,0.994667918431522,0.0207274584394767,0.600106995000395,1,0.978853366096644,0.337880454934824,0.0789591776426868,0.51843858104503,0.999779048602417,0.00210426547529518,0.879940032343709,0.307536069498948,0.237314067153847,0.395194016012466,0.250033816052299,0.0883587908772293,0.243657571876691,0.997608238564292,0.993577744905454,0.0043652284797671,0.999489732839463,0.490285078959569,0.242866524964143,0.385667027425072,0.942631343683426,0.585479634370293,0.097073775960583,0.729432578706805,0.767833096241708,0.700254214236314,0.00411946223675629,0.00611419896661595,0.0491527188575778,0.53055585772534,0.740910468568206,0.807006326978349,0.864082122447548,0.365325377001696,0.387367389354134,0.00939675861867582,0.357917908887091,0.834732650286198,0.8268019693041,0.428590446830775,0.096483253856981,0.14210475673427,0.678837148126999,0.887355589336975,0.0000934717880419943,0.789346832173213,0.430626388531362,0.998558695653026,0.769825226150922,0.347194354011262,0.00449303913157907,0.00193214963090356,0.998823879390735,0.285398496247088,0.966920218651309,0.950268193449854,0.286432924388004,0.00000819391063582651,0.149425322886746,0.696963472498248,0.999925922185118,0.455522120627174,0.00123548851203058,0.825805150532225,0.951926536551883,0.99955257250854,0.912389287378172,0.0720361279584425,0.0349953359635261,0.661047121075877,0.979996119557371,0.557571358012004,0.579578852750722,0.952457078159837,0.999394004672812,0.666354002133314,0.0302891498697114,0.0514063069046026,0.954088269202006,0.941213453316187,0.977353932125869,0.999920612005821,0.00552151193995177,0.000299577055464913,0.381861502661475,0.900640508243807,0.0908166358556989,0.305273898481068,0.627311223061321,0.674235739766231,0.684791068906993,0.383738856002416,0.43451696164392,0.99212324788122,0.661520117972552,0.220837085636364,0.0176133781253036,0.696043173581039,0.990968414963612,0.179049124680788,0.388989919125912,0.00389255128955046,0.481264484298547,0.273213612418028,0.63443193175027,0.996499827653861,0.830456413750035,0.978748549728815,0.839228549832301,0.489466215593909,0.996030178309953,0.348578333147182,0.889167567358498,0.1457852175191,0.469336623845792,0.713566256396506,1,0.0838258295467543,0.630378420243116,0.565128542403369,0.867009872069985,0.685129100356812,0.000916892997774441,0.0363811860460965,0.963772200967004,0.00965953561070618,0.00750602572159726,0.710132074689151,0.821565352275468,0.99853157978607,0.41731028180157,0.121557165127814,0.695562551898148,0.600792538378276,0.732747438085662,0.967667887066742,0.00894584217213117,0.516042763081242,0.000170028853374853,0.938842620054737,0.149825340019389,0.0783001056609516,0.462926742886492,0.000132425120318651,0.565977320608319,0.926385495208619,0.310415885248024,0.0000602043519812229,0.956717473571055,0.0753806357208358,0.863558577977587,0.149045300592093,0.658143194606056,0.888798778052299,0.714373146420054,0.507934432562464,0.999850326552841,0.350234741493385,0.00140247218414495,0.964861473221363,0.0177697056189971,0.981454424621918,0.718875107736936,0.997138521319114,0.76133464929394,0.999558858475026,0.936508079012618,0.344213755510983,0.0056585618411157,0.0676303219116377,0.334692985572264,0.851048881962466,0.332833539722191,0.975162421664643,0.840425048290879,0.304275550622235,0.844334124031613,0.997200175808546,0.860039006547534,0.00290247675578693,0.509171776032535,0.000188529694246659,0.0269349250303262,0.00272745830383627,0.995728893485703,0.905029573425048,0.452299912395957,0.687121549936118,0.00957927088481329,0.151944389851141,0.999943283303358,0.267487870625062,0.786396740293918,0.0414285945642462,0.949606569004443,0.322629034936741,0.99994230035548,0.83115137630814,0.883043615622395,0.635325858620329,0.938819569681664,0.54357879853559,0.932074337990578,0.128460344218028,0.989206127856419,0.702548829433379,0.850746628999576,0.991123730229853,0.426425892661782,0.0257255990789521,0.973388941272891,0.000451574615491547,0.477816710799694,0.70581797629855,0.990410506015109,0.15803940727667,0.966592405374955,0.950741501025418,0.477998330361958,0.0242303654275646,0.00096143903459308,0.213791791112972,0.735717491972304,0.703448116432391,0.0900442914605941,0.846232709739308,0.998245815825391,0.221773597636596,0.986940333938565,0.862175228970013,0.337870675210145,0.21839391632596,0.000335613156740364,1,1,1,1,1,1,1,1,1,1,1,1,1,1,1,1,1,1,1,1,1,1,1,1,1,1,1,1,1,1,1,1,1,1,1,1,1,1,1,1,1,1,1,1,1,1,1,1,1,1,1,1,1,1,1,1,1,1,1
outputCount=1
weightIndex=0,117,13689,27261,33989
weights=##0
##double#33989
   0.1190178324,0.1588808493,0.2067843582,1.189167808,-0.8862214632,0.8342513938,0.8191735202,0.6754332543,1.1275548477,0.6787956927,-0.5928447048,0.4811400523,0.4074920274,-0.5115220511,-1.4252967903,-0.6847832739,-0.1471384785,0.04353653,-0.4226686076,1.3856696879,0.8467254557,1.119643306,-0.9557286777,-0.8462131568,0.1928478248,0.1179698414,0.3459535598,1.2656187953,-0.5065743797,-0.5856330625,0.4017318463,0.2956097503,-0.7619049635,-0.0209160242,0.5711103656,1.0007880982,-0.9828731545,-0.2981397663,-0.1627406631,-0.6421850833,-0.8267908859,-1.0056311051,0.0828542281,-1.0677303856,0.9544187168,0.7014782953,-0.0758562203,-0.4831209516,0.4184864961,0.352024248,0.333551751,0.5842058055,-0.9650135286,-0.6147022454,-0.9361754535,0.1194790112,-0.4098062842,-0.3496808702,-0.2134639825,0.7866848181,-0.7402658002,-1.1145620367,0.5490392439,0.9439086343,-0.7519467381,0.2384702345,0.1191415743,-1.0149445768,0.0192594579,-1.4976568181,-0.4745245046,-1.0056996618,-0.8392574249,-0.6998165539,0.7632982028,0.6920493387,-0.2523168117,-1.1101048388,-0.569685258,0.9602363341,0.9372590734,-0.4255403408,-0.7133248812,0.2207101817,0.5034850495,0.7772745641,-0.1422881022,0.9264480282,-0.1601439184,-0.8115104699,0.2394142978,0.3938162211,-0.9150520584,0.4621719009,-1.2785803596,-0.9784209086,-0.3814642796,0.1648982768,1.1179534759,-0.2913569525,-0.7286524067,0.0070752129,0.6709861908,0.2315885605,-0.3257646894,0.2045399696,0.7291282561,-0.6093069889,-0.1834998224,-0.5701823301,-0.4973739726,-0.4048239551,-0.7482052236,0.0564787163,0.9421051326,0.8058463753,0.4552817725,-0.6839589973,0.7644711385,-0.477713649,0.0678496986,0.1982931733,-0.5253007877,0.4612572377,0.5457727073,0.7889756448,-0.7220457794,0.9372605849,0.0274847061,-0.0049539381,0.9155297949,0.1628332241,0.9376095118,0.2953361892,-0.8864693071,-0.3806900123,0.3478199264,0.9357177562,0.7376998209,0.7139043719,0.4797580536,-0.3166707399,-0.9218124427,0.5274210312,-0.0124115321,0.2844548506,-0.7663652005,0.6370659736,0.6052128797,0.7831601411,-0.6509322266,-0.2451417888,0.6980541126,0.8805879267,-0.4553035099,-0.2999372602,-0.3941727028,0.5599698818,-0.7143429451,0.4863072487,0.4500474368,0.4184103622,0.5939507959,0.5310045929,0.149202571,0.8577069787,-0.050203248,0.6676646696,0.8906200931,-0.3126993363,0.032906108,0.3459868179,0.611133451,-0.3880437426,0.0219864154,-0.6169960954,-0.5365766675,0.5389716861,0.1275125189,-0.9484749456,0.6686173972,0.7765991271,0.2721509204,-0.1494183715,-0.9381360086,-0.4848497184,-0.9968414935,-0.5817726357,-0.9379752734,-0.3093652389,0.212693322,0.8316959025,-0.1592654387,-0.7890809705,0.7360376681,0.3694915525,-0.3546672387,-0.4152658794,-0.5114763014,0.5425705975,-0.9602419911,0.6614478851,-0.8501003669,-0.5426199422,-0.9776813585,0.5333818407,0.2123895486,-0.5222183963,0.8448292154,0.34941437,0.4626637844,-0.7935467538,0.9158607285,-0.0104058827,0.4378711081,0.725145485,-0.7589378527,-0.2331231959,0.9269070523,0.9591879836,-0.4488871012,0.8376748043,-0.0008485025,0.3825504149,0.0344093652,-0.8317153497,0.2158857459,-0.0875601568,-0.5337692275,-0.6511430968,0.3773488097,0.7066985261,0.9705381698,-0.9718960855,-0.0435714669,0.7900176481,0.8553478231,-0.3899986431,-0.2005799793,0.2353517163,-0.4393119933,0.8556733134,0.0270553173,0.8781577048,0.0269979735,-0.9041142075,-0.8897517297,0.8851717975,0.1355354581,-0.1270990409,0.0124709536,0.5400830986,-0.8218995953,0.2952687374,-0.8873420436,-0.6578047497,-0.662925636,0.1291761188,-0.0020923056,0.1749409116,-0.9984246605,0.3816614392,0.2704699667,-0.8020098395,0.4307551522,0.7199178359,-0.465363333,-0.2808698002,-0.868654452,0.6206231482,0.7887721537,0.1982678581,-0.1659925046,-0.6431353671,0.3968594194,-0.2732055074,0.1356493209,0.2238185861,0.4164659872,0.1079050173,0.5478646656,0.9081695855,-0.7747988256,0.3763149849,0.5904065101,-0.1077415307,-0.7245613688,-0.5351131719,0.8584577133,-0.2617151348,0.2357740738,0.2670134662,0.1980403632,-0.9029569989,-0.5255001275,-0.0725069332,-0.913640246,-0.2524379728,-0.7722797733,0.4618005033,-0.5189664471,0.7250671732,0.8793587289,0.0499676893,-0.7668469278,-0.9309106758,-0.7039932713,0.665309139,0.5129841388,-0.3493806294,0.9120506576,-0.4207076509,-0.6925176,-0.1018877726,0.1325071836,0.7932532241,0.3546629285,0.8064233616,0.6329489817,0.8455233874,0.3271650131,-0.5912015048,-0.1158547791,0.9845559176,-0.409019754,-0.5215655609,0.7623129842,-0.0919661286,0.5715331433,0.4815826815,-0.0269671575,0.1349929086,-0.8279239428,-0.758734055,-0.5955299931,0.204954396,-0.8216850323,-0.2307738213,0.4323505285,-0.1374524536,-0.3376317207,0.0586208808,0.4428161168,-0.8515112695,-0.9613559748,-0.7521335917,-0.6374250939,-0.0037654596,-0.7068256285,-0.6961257699,-0.4033279607,0.3884363216,-0.6437577501,0.7977697326,-0.5694651918,-0.9182452303,-0.0386753618,-0.3263551766,-0.347037414,0.5752676369,-0.6610169633,0.0393928899,0.628386364,0.8005669774,-0.4151417954,0.5022167863,0.8898015428,-0.2608032861,0.6060088068,-0.668768164,0.8614281716,-0.3822205996,0.9271653507,0.2147853764,-0.9098774731,0.8074020491,0.7467422119,-0.6901460165,0.5694086915,-0.096486213,0.6768289435,-0.0991144299,0.7877383103,0.0136630725,0.6120041074,-0.9808168422,0.9859209563,0.9288066095,0.7746668184,-0.4025350084,-0.4025093291,-0.7370909212,-0.3280264764,0.0722721202,-0.7256393831,0.4097843952,0.266591673,-0.6746067163,-0.1815836871,0.138117876,-0.8607128026,-0.0748698791,0.9755971013,0.3475921517,0.4755547275,-0.6836657139,0.8750702838,0.0201851011,-0.4879834477,-0.4664707511,-0.417539606,0.6059018837,0.7172853794,0.815651575,-0.6888733044,0.9698169085,-0.7893444565,0.9467206002,-0.1515821485,-0.0928834563,-0.232143164,-0.4492609175,-0.5587209009,-0.8452227986,-0.6776596985,0.6118575334,0.2847153308,-0.9617704199,-0.0185828756,-0.5002306213,0.5069081572,-0.2036785021,-0.9111410427,-0.4593864056,-0.3825548516,0.9544795475,0.9803331374,0.9753149906,0.3593675027,0.1525580361,-0.7483138901,-0.9599705083,-0.3027089633,0.276183647,-0.4989835012,0.7599960912,-0.4069292252,0.2205657908,-0.5990548692,-0.3339703417,0.8172978591,0.3600270396,-0.9291431682,-0.9599969495,-0.752241818,-0.5927479546,0.3578290102,-0.1716921773,0.9141282126,0.3574883636,-0.3829122797,-0.7619189863,-0.9934721236,-0.7245881316,0.6300065035,0.1465721568,-0.1064445846,-0.5157214288,-0.8239437047,0.9518290836,-0.9735516831,-0.9319745977,-0.6467756351,-0.0546221392,-0.7363295089,0.8682173463,0.3780812702,0.4908212082,0.7455954315,-0.4333576214,0.782949099,-0.2248132822,-0.1741676355,0.2898748137,0.1412092479,0.8215517227,-1.0583461121,-0.2747413182,-0.653510838,-0.3069871294,0.6601881785,0.4480946592,-0.9422504243,-0.6109661016,0.3522250362,0.89814567,-0.3807731886,1.0561029156,-0.1912621068,1.0131744184,-0.1125477161,-0.3244840201,0.3143624631,0.7389832182,-0.7180339613,-0.7741653727,-0.0095289349,-0.020552015,0.5078427212,-0.9220125126,-0.2014014698,-0.4518350023,0.0056061469,0.963038713,-0.3148707814,0.1634512894,0.9480069336,-0.4992101217,-0.3127284669,0.510832987,-0.4993091685,0.5584042779,0.0464394318,0.3394689259,0.0553955709,-0.610016215,-0.1745987699,-0.5372148412,0.7840987204,-0.2200495461,0.8533597378,-0.2612745295,0.7580144433,-0.7065853712,0.8367674756,0.5199188904,-0.4858949535,0.5032853397,-0.1571640618,0.4838808961,0.0179709094,0.6679818673,0.9300504705,0.4778566408,-0.7673202848,-0.6464097699,0.5507495766,0.1937357179,-0.2565673305,-0.3319270294,0.2794391092,-0.6934601776,-0.8968522493,-0.8207088982,-0.2884102297,0.9078538114,0.2321255962,-0.0060322358,0.6052318349,0.8063052684,-0.0171875442,-0.2298900447,-0.1837353913,-0.2491633387,0.0144091061,0.0756129224,-0.2713150577,-0.5748908585,-0.0117891862,0.7803927341,-0.1735600418,-0.0145740749,0.4465404683,-0.3188775067,0.1392136808,-0.3559415109,-0.5905879058,0.2663239451,-0.925682858,0.5468892261,-0.6524910156,-0.5680936487,0.7271848997,0.3937798281,0.9063399923,0.1105135709,0.8957159228,0.7489514573,0.5878985411,-1.0204853626,-0.2730908472,-0.5485308238,-0.7860930539,0.1588474294,-0.6649374551,-0.223551297,-0.4157590031,-0.0938846372,-0.8293864304,-0.9759516485,0.3199931259,0.1996677996,0.8967356052,0.9120954065,-0.7333379151,0.0027714473,-0.2299660631,0.2508374707,-0.552832966,0.0324617821,0.156819001,0.3934060192,0.6620260375,-0.4938693212,0.4397543881,0.7049581439,-0.0233041048,0.5990250062,0.6442856515,0.6747070523,0.020012886,-0.5168731289,0.9354028002,0.3912120938,-0.5672111583,-0.815886702,0.7160865997,0.5361311477,0.0281256533,0.6348944304,0.2732259581,-0.9710154361,-0.5228633217,0.2836756649,0.7723458529,-0.0756895607,-0.6418081073,0.1429944849,-0.3877752756,-0.4202920185,0.4423066699,0.8599150957,0.9737772301,0.8085784921,0.5824161502,-0.4463318417,-0.7249147116,-0.2988289328,-0.059656252,0.9091131804,0.2358427599,-0.7816302793,-0.6427981192,0.9550019028,0.3564654095,-0.7495285575,-0.6895915733,-0.5928752436,0.8954996868,-0.813973959,0.4857519589,0.4801908067,0.4905508504,0.2270044685,0.4216063849,0.731759042,-0.5422954455,-0.3631603358,0.3919559552,0.0946672427,0.9921721391,0.3438329554,-0.1174487009,-0.7602489239,-0.1394386999,-0.6562893165,-0.2738403315,-0.2071695611,-0.5409111885,-0.5636932948,0.2931891015,-0.4097353843,-0.0621983118,-0.3557473153,-0.5001576115,-0.9343419149,-0.0873662093,-0.2588808173,0.6355873855,-0.7252039648,-0.0467147072,0.4087543046,-0.4323449161,-0.5760795498,-0.7462318798,0.6497240972,0.4065700938,0.7121365855,-0.7810811949,-0.2753363768,0.7495682506,0.1735061521,0.0906209191,0.3288709154,-0.9154916335,0.3227578586,0.8114567383,0.6591077135,-0.1417304742,0.2685682835,0.9018436915,-0.1083125426,0.4495970833,-0.542650577,0.8432308778,-0.5215389816,0.7461243388,0.0471940666,-0.1052245931,-0.7360640772,0.3196633531,-0.2995220314,-1.0000516981,0.1089635695,-0.2812078389,-0.2503154009,-0.5261568425,0.2114522903,0.4687282793,-0.1500882525,0.00897002,-0.1350096731,0.168888519,0.7579956038,0.8854511049,-0.0624059339,0.5064595026,-0.355173731,0.2857439049,0.5157860211,-0.2623041609,0.8451934386,-0.6953708265,0.4298698185,-0.6834317675,0.2020614092,-0.0604896415,-0.3123048835,0.3145267752,0.1043458296,-0.4055937492,-0.6189662416,0.5826515541,0.3724751779,-0.3175917931,-1.0415843304,0.6959783434,0.5370808431,0.2096926963,-0.8171088706,-0.2817867554,0.8782703661,0.8004230399,-0.4624603912,-0.6720921788,0.3089146909,0.9309813345,0.8118299516,-0.7118114648,-0.3502379901,0.2213151948,0.0941828474,-0.080983259,-0.5899639543,-0.2753384702,-0.5089264042,-0.5211282898,-0.8759091872,0.2511333321,0.0167340273,0.3923077689,-0.1115956567,-0.0895819391,0.1156026536,0.8143824563,0.34528792,0.4431765361,-0.048400106,-0.2973063476,0.601462536,0.806826067,-0.913800964,0.7768997424,0.4548215854,-0.3663152668,-0.7632473591,-0.8333009108,0.9362633043,0.1340073281,-0.4913691145,-0.0517959677,0.4483565512,0.6004482478,0.6121438241,-0.135736138,0.7899694952,0.7556612091,-0.781151102,0.7011995631,0.0756663601,-0.3224181351,-0.4568850786,-0.3740349288,-0.6825590746,-0.547259181,0.7643924044,-0.7916148046,0.8740018369,0.7994915505,-0.3549512466,0.082725874,-0.1627644175,-1.0098198426,-0.8033942092,-0.0260122625,0.8321898189,0.1398441787,-0.7606814523,0.2780753466,0.4941285686,-0.5123499003,-0.5541763065,0.0654898889,0.1211479136,-0.2234065458,-0.7390237081,-0.5454902258,0.9321087726,-0.1850944394,-0.519740234,0.3837193316,0.2536187211,-0.0108103153,-0.3765127699,0.6286144303,0.8547567902,-0.683582555,-0.6626766252,0.5340118936,-0.2213161729,-0.7221719719,-0.801542722,0.6601717522,0.8857005964,0.5721126876,0.4712149279,0.0243844791,-0.8845398874,-0.6841879028,-0.8901348873,-0.0959702866,0.400842352,0.0539591008,-0.8214542796,0.6272284158,-0.1557116559,-0.916294803,-0.7165520311,-0.0347402147,-0.8265450002,0.1967953553,-0.5120857167,0.4609378396,-0.4186197081,-0.7032850432,-0.8134746442,-0.8554476148,0.9621332067,-0.2763549502,-0.2444203251,-0.4214876502,-0.0466865099,0.6436164653,0.4241944917,-0.1553652229,0.2775979239,-0.5021250939,-0.680084362,-0.4990870552,0.9571872399,0.7252102327,0.6296308082,0.4354754322,-0.1574401716,0.1938497099,-0.3116270863,0.5133692626,-0.0321923095,1.0003176152,0.8709885665,-0.8689497766,0.2008714944,-0.1890427618,0.4544957402,0.3633049329,0.3883800583,0.0777507093,0.7793937552,-0.0210086172,-0.2406163332,0.9108760869,0.1868287839,0.6937991712,0.5614401601,0.0204128292,0.4905296011,-0.6303040234,-0.053591713,0.2532879701,0.7196969427,-0.1091447967,0.4765894189,0.2113685681,-0.7269762344,0.3702468407,0.6534311702,-0.5716836891,0.8367633561,-0.2917836132,0.2300603089,0.6381237578,-0.2099615608,0.1750118964,0.4776392178,0.0617321893,0.6375218821,0.2832919687,-0.1837043705,-0.1027047997,0.4509724511,0.9481882704,0.9201690468,-0.4909847417,0.1518421575,-0.7065284226,0.4511925459,-0.7618299962,0.5816868855,0.7632899243,0.1075787004,0.8829440656,-0.2391618967,0.6196567042,0.871149891,-0.3716318149,0.739738067,0.9490578795,0.4032551852,0.2766136714,0.0893025169,-0.8107314865,-0.7248813702,0.5165725983,-0.287113503,-0.1734210518,-0.179083878,-0.171380215,-0.3883150994,0.4159002069,-0.3630561552,0.0666870919,0.6644618104,-0.1838078866,0.090033955,0.9513834636,0.3301936091,0.3767639076,-0.5062397661,-0.5492053537,-0.9468964309,0.075949732,0.8339966932,-0.9462361731,0.8091148278,-0.4386311226,-0.7816578503,-0.7253166825,-0.2543971897,-0.2176818476,-0.8529777791,0.3994928714,0.78661663,-0.4774116028,-0.9895030583,-0.1713817908,0.1385435033,0.5368562099,0.2627390043,0.4337169993,-0.8140663838,-0.0143337175,0.8613621527,0.4568051291,0.3215542006,-0.3372803736,0.0878307162,0.5857404346,-0.5743929817,0.818719502,0.4469967518,0.4312724079,0.2281341685,0.0328950694,-0.1939031464,-0.052484508,0.0572112137,0.2120414703,0.6941926843,-0.3803003636,-0.3525504219,0.8355779442,0.5874480763,0.4730185127,-0.5249253454,-0.8422670969,1.0034160553,-0.9327699345,0.9688873019,-0.3112877616,1.0058289391,-0.34265069,0.5955232563,-0.1972968751,-1.0043120394,-0.4794109272,-0.0424821649,0.0127824674,-0.9685997998,0.6094502452,-0.7135881671,0.8322314966,0.0121647462,0.401302882,-0.9411847055,0.1693588022,-0.0695308903,0.9962515785,-0.8338210434,-0.8342564674,-0.3669382418,-0.0281395812,0.4275170354,-0.6581674089,0.3477724261,0.6243691171,0.4186044067,0.7709106327,0.7405772446,0.4882672096,0.6935888376,0.7784838317,0.5496380937,-0.666940462,-0.1980729166,0.8584381963,-0.8032831273,-0.9367173476,0.6928183117,-0.4698649282,-0.5819806883,0.6381254382,0.7617428516,-0.1170781808,-0.2937020422,0.7126933684,0.7821553088,0.9846426799,0.3136234167,-0.9685368393,-0.8374385128,0.7448112848,0.5972343634,0.0734215573,-0.3149294935,-0.3680646959,0.6709658609,-0.0648151871,0.7816536349,0.3435380408,0.0864917996,0.1905878183,-0.7686586241,-0.0065737351,0.6760392342,-0.0240912024,0.6246866717,0.8847912692,0.6041483631,0.4910432524,0.0282545338,-0.8783283157,-0.0002554096,-0.7679686267,-0.4601582525,-0.9628516083,0.5281021643,-0.0814805727,0.6559527635,0.0502030383,0.5707856688,-0.5447598723,0.1416532276,-0.6980743704,-0.077889899,-0.593738718,0.6372018488,0.1586173684,-0.9843824789,-0.7210982566,0.8297677163,1.0944606451,-0.8812267442,-0.0040507063,-0.2457780558,0.5538677106,-0.8716346649,-0.5887203521,-0.0016275728,-0.2982085346,-0.042629496,0.0885291235,-0.8722489174,0.5182533887,0.0299227683,-0.5700550509,-0.8454904534,0.6067771996,-0.0193920367,0.8155765214,-0.6883219326,-0.9876475017,-0.4797195892,0.8019389257,-0.8280048868,-0.798690211,0.5455147984,0.131736075,-0.5041411926,-1.0656168725,-0.7310557993,0.0624342112,0.6850157952,-0.9172007332,0.0948411472,0.8733529817,0.5724444237,0.5376589278,-0.1742328166,0.0258002489,0.7618374379,-0.5662064784,-0.955463571,0.123920729,-0.1818768664,0.749348479,0.5467418436,-0.3241736092,0.5535319588,-0.4079804746,0.4625617865,-0.8883632039,0.1086986625,0.4128539719,-0.693721614,0.3401955241,0.3068753775,0.8428278549,0.8738155964,-0.6660256974,0.5693283016,-0.7302149811,0.623146926,-0.6618161188,-0.1107915449,-0.3150209492,-0.6300265,-0.1896587459,1.0286709955,-0.8290698537,0.3631843852,-0.8955616508,0.9659201327,0.2819250017,-0.6667906359,0.1609617642,-0.3984730072,-0.8693752741,-0.3568939751,0.2492530434,-0.1273918949,-0.1124588866,0.8192362016,-0.8528904547,-0.9379125489,0.6029476656,0.782460433,0.6499392773,0.0520579542,0.0767100421,-0.3176375638,0.708066887,0.0689168241,-0.3209681055,0.1543544755,0.1058206092,0.4585371753,-0.644637554,-0.5256073916,-0.8669177715,0.7370889268,0.9830884362,-0.9280288334,0.0046064376,-0.2238113115,-0.7728789512,-0.1779785775,0.5405159641,-0.2009076288,0.1305053504,0.8554388089,-0.0455738285,0.746929639,0.3507420771,-0.0417014342,-0.8995409277,0.5064922009,-0.1482110399,0.4888020802,0.8291889914,0.7617462698,-0.8073213293,-0.8336181655,0.6769745262,0.5324541099,-0.7592809888,-0.4579637355,0.3398460978,0.1948715766,-0.9373688516,0.3526141939,-0.4447581943,0.7052615257,0.2369502342,-0.3435598586,-0.8753423948,-0.421763234,-0.4247495392,-0.9238287847,0.8481442115,0.0192913004,-0.3195446646,-0.406926795,0.6612692574,-0.7276930718,0.9042025736,-0.6873821027,-0.6842747402,0.9229749229,0.3155049181,-0.7150012571,0.7592382092,0.4247978014,0.1442944217,0.2774154188,0.2369291162,-0.7510946189,-0.4557755667,0.8293720066,-0.5874982219,0.9289689128,-0.1613054981,-0.4074268754,0.0653965652,-0.1709559393,0.6191929412,-0.9519202184,0.1630249055,0.9119171,-0.8955375239,0.2808443834,0.6657724969,-0.8814925261,-0.2474715547,0.4322252878,0.4347367885,-0.4361448232,-0.6017278736,0.9337271943,-0.8158485,0.6354424194,-0.7542477964,0.2289920667,-0.6687533212,-0.684471182,-0.5119539377,0.6811154111,0.4292383404,-0.5299775364,-0.1513740654,0.8448818682,-0.5839311141,0.7382825817,0.9060878569,0.5428811422,-0.3517224101,0.6812760355,-0.5380701132,0.6463219441,0.7322183925,-0.4823346327,-0.0222483945,-0.3760785504,-0.0407109592,0.2103714203,-0.4409411357,0.841983038,0.2268796299,-0.5546364124,-0.0179423531,0.3837458521,-0.7736416481,-0.6885828605,0.0568617365,-0.5172810155,0.9287032559,-0.970009652,0.2593838919,-0.5799767915,-0.459973512,-0.9419784027,0.7259835958,-0.2838766789,-0.2745423013,-0.7402406221,-0.318692874,-0.1055155117,0.5519816142,-0.3728561677,0.0269911483,0.4730439159,-0.0777424351,-0.7836158811,-0.5146418181,-0.5259660857,0.1278009139,-0.5697397209,-0.2910945137,0.8311115351,-0.8627883324,0.6941280935,0.0628306876,0.5544209294,0.8862395473,-0.1507807285,0.5315003742,0.1685934835,-0.8368529753,-0.648511619,-0.8900570119,-0.3810606185,0.886403618,1.0258717633,0.934499271,-0.1721942374,-0.3126093184,0.2176705735,0.0044084179,-0.671990084,0.8701736444,0.0955062909,-0.2510487384,0.7450708215,-0.9324165058,0.738293365,-0.258023945,-0.8027513092,-0.9475241585,0.0532666573,0.7757730366,-0.6005518511,0.6872449576,-0.4342207591,-0.3422073357,-0.5378159696,0.7259275927,0.5371746102,0.4014739358,0.7822371577,-0.9529169249,-0.9850426667,0.6195260115,0.669522944,-0.1024929888,-0.7834556865,0.1123631401,-0.9140354543,-0.1320090764,-0.6165271966,0.589981493,-0.7504483558,-0.7808530362,0.7316328969,0.194763379,-0.7857601981,-0.6004917736,-0.1362453923,0.3438440429,-0.6505040713,0.1802411499,0.5473906247,-0.927922857,0.2404471064,0.3329260406,0.5159794746,-0.0466019336,0.6102205749,-0.3526575122,0.2594259574,-0.3979019029,-0.1778581024,0.2195216311,0.8323985866,0.191669448,-0.1350402227,-0.1531618848,0.6007199013,0.0231343224,-0.6238440328,0.8750815155,0.2084821876,-0.3937601586,0.1775309288,0.0371245919,0.5753597536,0.604239229,-0.362591422,0.6310759221,0.9396665932,0.9442746999,-0.3531266296,0.2028107197,0.7062346605,0.9602543882,0.0127526525,0.5772679767,-0.65940984,-0.4302521127,0.2920737456,0.2290058586,-0.4204458986,0.4441740678,0.4025897846,-0.4026014241,0.4520853398,-0.4937605402,-0.2716465774,-0.2643739139,0.5882557693,0.4600417991,-0.2278957377,0.4589011755,0.2829371663,0.070723791,0.4722447997,0.0432537582,-0.3990644462,0.2571227492,-0.2259942015,-0.597533061,-0.8959534834,-0.8644923061,0.4077327061,-0.8753220601,-0.3102923834,0.8688020772,-0.4916518931,0.7696301972,-0.7747939052,0.1360087568,0.0394279254,0.7773947342,0.977791664,-0.000843024,0.2203143146,-0.2281797018,-0.1065568539,-0.2384191249,-0.3564348531,-0.4986241257,0.6184661518,-0.6908938396,0.9386147283,0.358916444,-0.8816245335,-0.1054943344,-0.3594212363,0.4600132952,0.0701142471,0.6438998595,0.417884659,0.5871042368,0.2383564606,-0.3296166095,0.1847245987,0.9028304859,-0.3937581759,0.7380940476,0.7558852258,0.6522443901,-0.6389397952,-0.2063161713,-0.7835870495,0.113262341,0.5781615468,0.0528837905,-0.1753393035,0.8887324796,0.2928603631,-0.0155734931,-0.7922430523,0.2317214352,-0.9168675644,0.0618045953,-0.2016842509,-0.3598976329,-0.3637158442,-0.5317740523,0.6835026745,-0.5600153151,0.5694846988,-0.3531928627,0.6572858688,0.5788921584,0.5192516652,0.9449039711,-0.9943132759,-0.5553800578,-0.4997442732,-0.2123932731,0.748222524,-0.4615211626,-0.9327731002,-0.1852777561,-0.402910523,0.3878967285,0.4648995945,0.7844996388,0.8138675735,-0.7415930819,-0.6146499308,-0.506091202,0.5032387886,-0.4000340968,-0.415805783,-0.5905473008,0.9196405929,0.2607083513,0.8533137372,0.0054640486,-0.6468993782,-0.8563721464,-0.3867875343,0.447615629,-0.5281920807,0.8942128768,0.2642859254,-0.8445557839,0.4174934084,0.8565978874,-0.9279197491,0.061700236,-0.1371996602,0.354589101,0.3217771973,-0.5098704765,-0.0434189226,0.4135136902,0.6985651813,-0.5337742119,0.9997888632,0.5210310289,-0.7491875893,0.2386838221,-0.1383472206,0.7956160986,-0.6563403481,-0.9414566859,-0.0893527231,0.9250612036,0.3419909591,-0.6810573738,-0.0626967174,0.3761298519,0.4828667433,-0.9259478874,0.8995432843,0.0910780002,0.27609558,-0.605929184,-0.4239732152,0.973872534,-0.3210569444,-0.6015757222,-0.9378446409,0.2199149291,-0.4250470492,-0.8294267036,0.8310545158,0.9049520353,0.6234236269,-0.1575884696,-0.0844193302,-0.2841397978,0.1200596135,0.2361523167,-0.5238434854,0.8776530283,-0.3715738995,0.2001743685,0.8919016672,0.5527557272,-0.0282330667,0.6220658496,0.2106307115,-0.8695166835,0.2052073524,0.091525505,-0.3058911501,0.5342837788,0.1505228255,0.9930691968,0.7001147168,0.9741939575,0.1620147986,-0.7409503133,0.6963246667,0.1735439029,0.7010580249,-0.6100909759,0.311982033,-0.5363657623,0.1241774226,0.0260489122,0.4674188861,-0.0835387551,0.0807081363,-0.62334336,-0.3000852519,0.8389639603,-0.8740741084,0.4747370874,-0.2456986084,-0.248590033,-0.0502783245,-0.6041805658,0.771444556,0.1254222666,-0.5684775656,-0.3020545699,-0.7055487206,0.4628322144,0.066678167,-0.65302079,-0.5882131543,0.5687932324,-0.0091773861,0.9058588473,0.5755873502,0.0016674092,-0.0320746107,-0.788151493,-0.7560995382,-0.1271792496,-0.9887688495,-0.7796565962,-0.3724781798,-0.3268097053,-0.6575502215,-0.6266671111,0.6886371571,-0.8028095386,0.2225134762,-0.594410037,-0.3107583528,-0.4504123045,-0.9347095498,0.4028459478,0.594507923,0.7308594726,0.8966992334,-0.0154118119,-0.0312202955,0.6865047949,0.2288884874,-0.6714200774,0.766926447,-0.8665783534,0.0607972017,-0.9401222719,0.0504241893,0.3178807534,-0.6360691679,0.8580457024,-0.8810908905,0.0322568106,-0.2556193041,0.6897792737,0.5121908631,-0.1821118041,-0.138839817,0.6136846888,-0.1880333323,-0.2069883054,0.8727458883,-0.4333375383,-0.6550305936,0.0104779003,-0.7074423543,-0.6576298216,0.1793666866,0.2260813859,-0.8419837039,0.6664651076,-0.6699258172,-0.9669515088,0.8003603245,-0.7390908083,-0.1507591183,0.2262130591,-0.3823357806,-0.6956061163,-0.7184413097,-0.4955692677,0.0211361772,0.839806345,-0.7015793242,-0.6377024056,0.4415698879,0.280859886,0.8637344284,0.033213354,0.0558622566,-0.6981065844,-0.9397985562,-0.0181289171,0.2170772017,0.6516911157,0.3607025523,-0.656117963,0.9219522987,0.0563566531,-0.2069883512,0.281211742,-0.9163220106,-0.0872046735,0.5158870852,0.9039764499,-0.9011563777,0.1903646143,-0.0067430701,0.1768923952,-0.0327721583,-0.6593306016,0.8033969474,-0.4180482471,-0.1738647097,-0.1369971866,-0.3888284336,0.5102592079,0.986757148,0.8822049733,-0.423206663,-0.2156547409,-0.3657548623,-0.2439967184,-0.673678933,0.4373346618,0.2205074017,0.5867864798,0.8557398462,0.046459059,-0.6446533601,-0.829412453,-0.4748549073,0.4431683512,0.8788793711,-0.5329248972,0.6841306828,-0.8230120956,0.9669333508,-0.3586105975,-0.5892493227,0.0159864535,-0.6700709426,0.5264427981,-0.4419839619,-0.6292357984,-0.7509095351,-0.0040434911,0.4988951612,-0.5129793859,-0.5211198063,-0.2487897276,-0.9077376289,-0.2756123145,-0.0557479326,0.6161857907,0.0303695796,0.2726973869,-0.6388902443,-0.0246927527,-0.375211527,0.756819544,0.3436990045,0.3692946451,-0.3642988595,-1.0230601216,0.7638189645,0.0390116496,0.218345842,-0.9426376978,-0.6783029761,-0.6924451762,-0.11864474,-0.2330363428,-0.4219408689,0.75527965,0.779285425,0.5594694503,1.0497711844,-0.3163286617,-0.5073944262,0.5609395909,0.6906259724,0.4272596387,0.6506408335,0.3946213831,0.2917196201,-0.4730365394,-0.64579733,0.8050079584,-0.9455285187,0.5113356751,0.6221834664,0.0652882095,-0.8722079621,-0.6850736036,-0.19395933,0.7687088813,-1.1281282751,0.8020527182,-0.3778036786,0.2298598374,0.6198764688,-0.0926781564,-0.7628007379,0.5466758054,-0.0713840101,0.8083445031,-0.6310464372,-0.195577005,0.0799363909,0.5518029923,0.9721365527,0.0707283635,0.3046625826,-0.3440963502,0.9465621313,0.2271028012,0.82811074,0.7714772554,0.6623926932,0.8156888006,0.478362875,-0.6544920831,-0.4872311581,-0.9261243795,-0.7645512173,-0.4011977288,-0.3904893436,-0.0814979087,-0.8689146796,0.6522595892,-0.7687645812,0.2180130292,0.6424234667,-0.365213442,-0.5220151207,0.51871629,0.1780513076,0.4410889914,-0.077550245,0.9473123441,0.8039863088,0.8641353309,-0.0765527923,0.5261372099,0.45766451,-0.7409779598,0.0897411255,0.5735240703,-0.6822707177,-0.434127636,0.7893716935,-0.7997890654,0.4015805796,-0.2191370392,-0.2317397563,-0.9997847289,0.4641899697,0.0522471283,0.8562130754,-0.6875485607,-0.4755873137,0.4872909983,0.1635619705,-0.1088761834,0.1984974975,-0.1009176187,0.5859869747,0.0785177245,-0.0710194103,-0.6304503978,0.2295885671,0.1820597234,-0.1022486601,0.2751460548,-0.986712026,-1.0006327478,-0.4753184611,0.6043101863,-0.8590291463,0.4889288065,-0.1581176169,-0.7611170451,0.9727295282,0.4350568172,0.3325346877,-0.4445461531,-0.0414927966,0.9327589389,-0.0005233586,-0.0632312377,0.8152590221,-0.3685302886,-0.9432386397,0.5785388835,-0.8642868182,-0.4828916239,0.6896455613,-0.0520104365,0.5093532694,-0.8010951909,-0.368640272,0.8726982049,-0.9381318036,0.849231504,0.1291803051,0.5853618646,-0.9549648492,0.8409913999,0.8954867908,-0.1233681094,-0.4734442081,-0.7974536252,-0.8859062586,0.2472125949,-0.7632261229,0.412475067,0.0861431411,0.7754400509,-0.5691286805,-0.1862801297,0.6155517438,-0.7106157528,-0.7534207879,-0.755667983,0.1123817427,-0.0941318537,0.9680746843,-0.9130691727,0.1990634695,0.3312820063,-0.2935551009,0.1592077948,-0.43955881,-0.4158018795,-0.7147600351,-0.1843562327,0.6786557136,0.1442552828,0.287406818,-0.8981196636,-0.3462037895,0.7239876063,0.3558582176,-0.9637327402,-0.543696181,0.3889990933,0.1623603316,-0.8150333057,-0.80769393,0.9347362638,0.6701145676,0.0207807551,-0.3280498468,-0.7179539691,0.2899262169,-0.9413101492,-0.726274442,0.5274439441,-0.9619249701,-0.0127237869,0.1507926105,0.9549716954,0.599298067,0.5301232288,0.1510627679,-0.1250378918,-0.0389941723,-0.3904011059,0.2807509806,0.8512648114,-0.2838295296,-0.9747538007,-0.8013521501,0.8679168286,-0.3672305503,0.9950394848,-0.4780663128,-0.4589856649,-0.4283856418,0.7558391611,0.450099009,0.6552363356,0.2909917261,0.925385887,-0.449522856
   -0.393145474,-0.2266338476,-0.5742378048,-0.7554747946,-0.8240245224,-0.9607112701,-0.8403528457,-0.0095648408,0.5199444733,-0.8331284408,-0.4993146558,0.8505433862,0.2818088181,0.7654149159,-0.6537489906,-0.2887571461,0.2205535418,0.1353405597,0.6700343833,0.7791283924,-0.4919640809,0.3397751662,0.9235338073,0.485917455,0.5410751999,0.8971522381,0.3286845659,-0.2439767453,-0.3969073936,0.7543536117,0.7345252209,0.4611425458,-0.6396990468,-0.8598303644,-0.7771717384,-0.2880832351,-0.1486158428,0.7697193783,-0.5645324505,-0.8937728373,0.7401544588,-0.5016122269,-0.4547785425,-0.50784185,-0.5660360043,0.8604730153,0.6378768728,-0.2848158151,0.8737121955,-0.2501102684,0.2786987739,0.3654170938,-0.3381712195,-0.2784467284,-0.7108072745,-0.177098808,0.4727892295,-0.6311963451,-0.2810213652,0.3907249756,0.5968029525,0.5026041126,-0.6433880743,0.3332780509,0.2853455874,0.7503573148,-0.7730111513,-0.8191901445,-0.7612354985,-0.6934088197,0.2942086494,0.3528691401,0.5243043285,-0.1594856345,0.8924896737,0.8673499317,0.4889928103,-0.9380861505,-1.0026811226,0.2060675787,-0.2093752911,-0.5190249219,0.009489756,0.3844756317,-0.9170313697,-0.3589590284,-0.38964755,0.1025344661,-0.9113982051,0.064419381,0.0274164217,-0.9597375646,-0.4326292629,-0.4373902166,-0.4862981546,0.0067499341,0.9466293508,-0.9963660842,-0.0408655133,-0.8142991586,-0.4972018569,-0.6590435997,-0.1285843754,0.6634632464,0.4059825877,0.4399165618,-0.0844769178,0.4461193814,-0.5155426563,0.8563670076,-0.3067048712,-0.0819921537,-0.0974893121,0.1694253666,0.7021095955,0.8196961511,0.5371135148,-0.8535523238,-0.7303619061,0.4518833091,-0.5905549409,-0.6637080217,0.5943810625,0.6290647004,-0.2630777918,-0.61341402,0.0774524711,-0.4134360032,-0.2780581141,0.3277062271,-0.2366602367,0.2912623158,0.2954468408,-0.7444559214,-0.9703607571,-0.9466259426,-0.7842141777,0.0343548949,-0.2750818016,0.7251378452,-0.5140563627,-0.2219212912,0.7354151901,0.1763154903,-0.2129923644,-0.7189301712,0.6825171501,0.2910363385,-0.9984828964,0.0936455241,-0.2870731598,-0.9601631094,0.6500837951,-0.1371184488,-0.7769212253,0.8681357512,0.342146712,-0.0655840831,-0.2450265624,-0.9237650875,0.1693496262,-0.9601683257,-0.2934237614,0.0221041524,0.8114421913,0.921702051,-0.2567730572,0.439133854,0.6809618609,-0.8088274632,0.4397830406,-0.7540284589,-0.2342459829,0.5318569891,-0.2598468589,0.6676073638,-0.2272732045,-0.6379676031,0.5088130043,-0.571199042,0.2478876785,0.3885717084,0.9631510078,-0.1395022341,-0.4356268599,-0.9240254456,-0.3772703963,-0.2061415664,0.3428094046,0.3295001197,0.788633505,0.2480789593,0.6019546791,0.3930660314,-0.3871384289,-0.7752952222,0.542815047,0.6624876201,-0.87255464,-0.17127453,0.8898502066,0.0842207153,-0.2369827039,0.4319203884,0.114460265,0.2240351855,0.00978552,-0.469341721,-0.7342304391,-0.1011799889,0.5081193905,-0.1631523504,0.1128382742,0.7019362277,0.1870350901,0.3506733474,0.0250490948,-0.0865691759,0.6515167199,-0.5201112321,-0.222812603,-0.8091109842,0.5676334145,-0.456331235,0.0175354691,-0.7053690502,-0.6474546811,-0.0817776689,-0.1467060477,0.5031219267,-0.6890474261,-0.4922153109,0.0055126531,-0.7574182602,0.3706578342,0.1431749274,0.5275867873,0.0348454049,-0.6820481366,0.3537990198,0.0583279808,-0.3500320141,0.5799559092,0.9155236315,0.1627232164,0.6724958746,0.3179357191,-0.3806390858,-0.6133564541,0.3270271734,-0.7664451863,-0.8576585595,-0.7763759245,-0.7292830985,0.4249832149,-0.2789157291,-0.0757831824,-0.8627837574,-0.1007002177,-0.6634246659,0.2313819544,0.4029840815,-0.0873639579,-0.000886514,-0.4758986911,-0.4669975003,-0.9276975007,-0.3425304318,0.9644978007,0.7974332794,-0.8261192308,0.7219687459,0.5816764678,-0.8755184585,-0.3269005109,0.8784994782,0.4437052809,0.8613488349,0.7277338343,0.2878427315,0.0715263164,0.5827638288,0.5279809902,0.8830068641,0.5698141901,0.0230366603,0.9179851044,0.5459711077,0.9813101248,0.0146545189,0.3147994272,0.857541948,-0.79561851,0.2250186019,-0.3256793885,-0.930671066,0.4863737232,-0.9618593154,-0.106817983,-0.0244219073,0.411557975,0.2972833119,0.9455336694,0.8361888968,0.2406406775,-0.002909257,-0.8616070091,0.0660729187,0.9390031407,0.6651502345,-0.1693991864,0.7573617735,0.0654754889,0.8418374664,0.0094432578,-0.0602263882,-0.5623600882,0.3276897487,-0.6886371505,0.1759805012,0.2423662052,0.7956673717,-0.9964171306,0.8652139686,-0.7299138858,0.5648327833,-0.9454052218,0.6323821241,-0.2409188796,0.0429477176,-0.1285947689,0.4408461291,-0.7898954177,-0.2370788594,0.9883142357,0.0173008045,-0.0335147657,0.1832433756,0.2315081922,1.0191624518,0.6247576713,-0.4790836102,-0.9022566539,-0.1221718444,-0.6367822372,-0.8122427739,-0.0196962677,-0.6347067348,0.9626916616,0.6135981756,-0.4464285678,-0.2317825648,0.3461884295,-0.9483135362,0.5147653957,0.9933699456,0.9306625651,-0.4072581492,0.6557139161,0.7756174103,0.2909811812,1.0029887837,0.9404371331,-0.3731055625,0.3254881277,0.2402380439,-0.1506503553,-0.909639703,-0.5090998382,0.7193101955,0.2904914637,0.308553051,0.0524813608,-0.04034914,-0.7447447936,0.7861522123,-0.9833065745,-0.5635391468,-0.1811312253,-0.788907985,-0.582938538,-0.2452336078,-0.2911007096,0.2188320791,-0.8922307801,-0.3555100261,-0.281792563,-0.8249876681,-0.2179992684,-0.2640548591,-0.2708862216,0.0476823477,-0.7410525599,-0.5607790295,0.1771153156,-0.700625104,0.6251123908,-0.4266907569,0.1681776014,-0.3887888787,-0.2668947117,-0.4734295968,0.2336584511,-0.8140791939,0.502817,0.7924349912,-0.2015055897,-0.1647686509,-0.0371009777,-0.4313854443,0.3173182379,-0.7416020188,0.4627970659,-0.1444769429,-0.2114207692,0.608625759,0.750833527,0.7111615303,-0.9349903858,0.521816781,0.6686917137,-0.9020358478,-0.1438900557,0.2524641017,-0.0752130202,0.4742308479,-0.2564789559,0.7749331189,-0.4433198214,-0.9039212673,-0.1867194967,-0.8484030644,0.7770015685,-0.8753593119,0.9324546036,-0.2830688578,-0.2379026517,0.0883352343,-0.2693691605,0.6097401129,0.1240265106,0.3551598752,0.1401356539,0.7617466224,0.4594764098,-0.7646418804,-0.1765345868,0.2567624972,-0.3280160431,0.5589922404,0.2777599523,-0.1472558699,0.7207258979,-0.7865897678,-0.2130879538,-0.8727994327,0.3483331616,0.0356850099,0.2251765576,0.3596506767,-0.2568722211,-0.2833736051,-0.5865735592,0.4604145904,0.638854257,-0.56162869,-0.7920467248,0.4041913573,-0.8872053591,0.1320073082,-0.9019769231,-0.5367190327,-0.4846634798,0.3138632524,1.0146371104,0.5239028597,0.4580340068,0.8963882408,-0.3459203627,0.8359427156,-0.2460021474,-0.5977604458,0.8560129219,-0.295266483,-0.7765838542,-0.894128725,-0.241926214,-0.019866458,-0.2643698264,0.4607696016,-0.7901014896,0.4830333707,-0.9104026406,0.3383054011,0.2888515056,0.7201601987,0.295022606,-0.8020493741,-0.6818604019,0.3506493842,0.279866951,0.0068058373,-0.4558437801,0.7334275577,-0.4863273596,-0.374478141,-0.3854932127,-0.2441243731,-0.8372207967,0.1765623906,-0.1999051515,0.8201282216,-0.39476832,-0.5354504885,0.6298772165,0.3566348805,0.4014561754,0.7993007242,-0.7727954456,0.0517341203,-0.5299341866,0.0170942534,0.2490046491,-0.6638277638,-0.4993744333,0.3828309899,0.0207211755,0.8331828261,-0.6570666526,0.4270314997,0.6628849489,0.0138546422,0.7990912971,0.2218048874,0.5226146726,-0.6959810356,-0.2404203474,-0.7364516855,0.9987972767,-0.5790761171,-0.9258785318,-0.0324898411,-0.3922609903,-0.2055202266,-0.9424924626,0.1856880809,0.0057152048,-0.0874676344,-0.3268939973,0.9384386407,-0.0009385514,-0.9273474449,0.10164795,-0.7502444037,0.8543202274,1.0303147219,-0.0676002783,0.9956505202,0.1979443798,0.7604033156,0.6933453488,0.4870395953,0.4348902103,-0.5783673778,0.008155966,0.2943122679,-0.7102275476,0.3182801301,0.3765883441,-0.8997446734,0.936423923,0.7448360237,-0.6909747098,0.7801174862,-0.5113389212,-0.4145959895,0.8556363651,0.3356412357,-0.2626877372,-0.0469117038,0.8766246834,-0.0318071946,0.8448637182,-0.3472793529,-0.8583694221,0.7660075254,0.5251832654,-0.2558843066,0.7288678729,-0.490703104,-0.3131854689,-0.659641109,-0.787762009,-0.2690016641,0.283960079,0.4605380925,-0.0260428946,-0.5818465154,-0.6191610079,-0.4661886458,0.5010476418,0.8843278028,0.0379488458,-0.515049585,0.330209795,-0.8379450105,-0.7059290461,0.856257434,0.1965141984,-0.459448815,-0.815643768,0.0409551536,0.763952662,-0.5072101651,1.003015574,-0.3601300926,-0.0647533718,-0.6467841844,0.0789014672,0.5022057631,-0.1785704937,0.0488367963,0.6627747588,-0.4866097913,-0.9457026643,0.060514293,0.2164600608,0.4077251375,0.5513799637,0.0454678881,0.6362628502,0.2860028326,-0.3538708149,1.0166328953,-0.0431765792,1.0173911398,-0.6856804598,-0.5834056856,-0.8182699584,-0.6732238241,0.6308117991,0.0548054089,-0.2737360073,1.0211382447,-0.1702940858,-0.2733874543,-0.4547054372,-0.4990631176,0.5362953679,0.9966859886,-0.3841154106,-0.1642039823,0.4592121792,0.9740865037,0.2221096634,-0.5776341001,-0.6716613489,0.8342765754,-0.3687731147,-0.8697225464,0.7215345926,1.0564017792,0.3763805431,0.2010010003,0.8373634449,0.0609111379,-0.2180811016,0.0928515947,-0.8222548431,-0.3053150863,-0.112240233,-0.2472035623,-0.5882172501,-0.3512297243,-0.7037870957,-0.4192989044,0.4963179454,-0.5542618347,0.5011386603,0.3770405682,0.2320391588,0.0174992822,0.4515335219,0.6389979821,0.5625906736,-0.2754406068,-0.6537146025,-0.4213378659,0.6212500756,0.9355968483,0.8646837798,0.382808907,0.2877664707,-0.2451940413,0.8788743984,-0.3572324906,0.5970457553,0.7422447552,-0.9270476636,-0.1078845152,0.9699770999,-0.400606891,-0.5170310476,-0.7920527071,0.7123985625,0.3600487951,-0.7970100417,0.5480665413,0.2043075224,-0.0294748954,-0.3998366739,-0.4495096402,0.3372675604,-0.7223199187,-0.6415328476,0.8092397663,-0.2017219176,-0.3965672753,0.8230038243,-0.3969062648,0.8489765346,-0.1527148089,-0.3833662825,0.6321338803,0.3339480167,-0.7477148975,0.2510147826,0.4604081354,-0.9721827725,-0.361708969,0.430898326,-0.9078647894,0.4148397677,-0.7844601528,-0.931687736,0.4137589581,0.4761193138,0.2281178419,0.9680451301,-0.9071201026,0.3861850779,0.2484778673,-0.3384327516,-0.1245323355,0.5342268015,-0.1196332684,0.7977991064,-0.1472218894,-0.5612144076,0.5389795215,-0.9821377067,-0.6639606325,0.9072483612,-0.0793678682,0.2093437253,0.7709070324,-0.8823524248,0.3864949882,0.0433521621,-0.4433743165,0.3923980849,0.8908357213,0.0678273968,0.5840908779,-0.5781546645,-0.0143881924,-0.8751249822,0.8258792028,0.7105221531,0.6850424511,0.791435306,-0.4723751968,0.5373138663,-0.5219863516,0.7870310134,-0.6486602215,0.0989339711,-0.4911899294,0.5221814379,-0.4318400993,-0.1210857177,0.2488935815,-0.5150339915,0.2589308876,-0.4160063745,0.8563237333,-0.8997116798,-0.1550289461,0.446798186,0.4482090866,-0.0008596994,-0.5452534079,-0.7736135693,0.2455907103,0.2075169874,-0.2799041307,-0.4510748805,-0.0274740918,0.5743986048,-0.7114375256,-0.9371293559,-0.4315697875,0.1612998152,-0.1301123767,-0.239974962,0.4667483427,0.389944038,0.0198374393,0.0262632836,0.9758094698,-0.3064137883,0.5532011704,-0.0397907479,-0.0619568304,0.40568838,-0.5005419567,-0.6445944375,0.9831531118,0.8249209738,0.9891422425,-0.8225075288,0.608651273,-0.5068790877,0.1425106022,-0.1149183183,0.2205471371,0.1476683876,-0.956129149,0.5111073363,-0.2926785178,-0.3870268147,0.8458364934,-0.2137174812,0.1121205906,0.1454811743,-0.3270970714,-0.8597768411,0.7727503641,0.008388785,0.9394911867,0.9926696375,-0.9528533815,-0.5749481945,0.6034504609,-0.644353404,0.4569058463,-0.7074054072,0.0032772246,-0.4670277958,0.8651378351,0.6474888929,-0.8210806223,0.8850851022,0.057346381,-0.2748762958,-0.4192350477,-0.4435656628,-0.3575416305,-0.9896417327,-0.3784291566,0.3306344268,0.10853691,-0.4526365207,-0.6362962698,-0.9346717,0.7123741122,-0.9556910047,-0.2310510442,0.9461159967,-0.2281296975,-0.7840924996,-0.2551824084,-0.8671207182,0.7263726957,0.8461615585,-0.4264713737,0.222525278,-0.5554723721,0.4297122204,0.1481677377,0.8182204596,-0.4793376963,-0.0304686238,-0.6998767112,-0.0099521484,0.748004469,0.8352370477,-0.1396239017,-0.0867700145,-0.6520280408,-0.8905938857,0.5543601176,0.5699956832,-0.4209124013,0.0088942713,0.3156077337,-0.8445604961,-0.1965221145,-0.4313855955,-0.4058800325,-0.9025458251,0.424360266,-0.5784113524,0.8627752276,-0.8284516103,-0.7932499038,0.0880338816,0.577045107,0.0436806952,-0.4787929291,0.9591666079,0.3311217063,0.9850004508,-0.6671304136,-0.2485490852,0.3798925295,-0.8319336479,0.6044326754,-0.3208062796,0.4285063513,-0.3349392987,0.7786324042,0.3959481396,0.8732473643,-0.7013889477,-0.1047242941,-0.9527166893,0.3088880574,-0.929646288,-0.3248974262,-0.2844102728,0.6692171963,0.1540756128,-0.2788901587,0.2251309247,-0.179508398,-0.8266690566,0.2697491348,0.9511199141,-0.5723873246,-0.3413374003,-0.3431944288,-0.6972454267,-0.1612073989,-0.4446743343,-0.088763982,0.6313943269,0.1018318919,0.7870599859,0.6027098529,-0.4160021303,-0.0298060436,0.695071744,0.3610765198,0.045406373,-0.7159606975,0.6743981532,-0.7607930771,-0.9982505916,-0.7552047116,-0.9218635853,0.1541076748,0.9901237332,-0.4725401715,-0.9734103858,-0.8051442153,-0.5465877568,0.6018168713,-0.3382486196,0.4303474891,-0.1302003417,-0.2773648349,-0.9322136493,-0.7217497435,-0.0760342998,0.7895682058,-0.9409684669,-0.6770689978,0.8297017021,-0.0683108393,0.364534876,-0.9399496366,0.677737061,-0.2700785077,-0.654691292,0.6737492523,0.5559357245,0.451622927,-0.7586597982,0.150369998,-0.6091253337,0.9039177252,-0.9960633301,-0.4695432454,-0.0660255481,0.4149515546,0.6970492107,-0.4771782394,0.1297927019,-0.2055773398,0.2035674193,0.0278463451,0.1413847523,-0.8313417899,-0.7843466151,-0.7024987981,0.9821777175,0.2319521919,-0.9337512128,0.408723654,-0.712219956,-0.3191716667,-0.2763068463,0.5217814354,-0.7127134064,0.2226512107,-0.3707445775,0.1330591169,-0.7637337103,0.7624580778,0.5890539482,0.4066173055,-0.1102066493,0.4572823343,-0.9744871541,-0.7993573453,0.4774050961,0.9803928905,0.8747539016,0.2536963904,0.3106367468,-0.5923854344,0.5699905822,0.5211239716,0.1565027624,0.2142653973,-0.7342528516,-0.4580237056,0.7591372725,-0.9605388978,-0.0385591275,0.5913793253,-0.9794573648,0.5464141852,0.9005990666,-0.4042971255,0.6917192568,-0.2088987821,-0.8287740148,0.5895437842,0.846779367,0.0762333831,-0.2616568337,0.5985258704,-0.6752268838,0.3087777094,0.7215230829,-0.4747078632,0.0173518024,0.9933638576,0.3086365359,0.8669271049,0.9342506212,0.7152446227,0.4455556211,0.5117929362,0.197058769,0.6825228262,-0.3202496604,0.2058724978,0.6065664689,-0.9221763578,0.3196216111,-0.0549072285,-0.7382631756,0.6064450339,0.8384322321,0.3158437,0.7906019812,0.4314049914,-0.1244932018,-0.5401513419,-0.2624285449,-0.8248065539,0.3333421398,0.9254845864,-0.4747140935,-0.476438388,-0.2941847581,-0.1514654988,-0.7402348485,-0.7157260797,0.746129924,0.9095482856,0.8844364971,0.2350374407,0.0172839585,0.5756574995,-0.5977475989,-0.4350170989,0.7646694913,0.4980856946,0.5355838852,0.8543289128,0.8196037131,-0.0450004959,-0.5380026746,-0.4506718921,-0.2447121795,-0.8205778687,0.0160190646,-0.9924377916,-0.8024192222,0.8380143629,0.6200771963,-0.8349136742,-0.4519157916,-0.056157866,-0.723513793,-0.2429473947,-0.4852080741,0.3279248754,0.6736224329,-0.9253648744,0.0805113461,-0.556700462,0.4250148814,-0.1801620762,-0.616720678,-0.7446740958,0.2488445511,0.2854095568,0.592426554,0.5955649328,-0.2894395917,-0.3035741323,-0.7027017072,0.9441100409,-0.1122612269,0.2256902782,-0.571087147,0.1708912963,-0.8669222267,0.129145875,-0.5372350662,-0.9167853476,-0.8578361136,0.6896110885,0.7721288614,0.256976272,0.5862262177,-0.9784495474,0.4807863851,0.2274941969,-0.6877634075,0.8883257436,-0.2072902646,0.8551914222,-0.7549804504,-0.7512178346,-0.7409835827,0.4765374521,-0.1568222538,0.7404179633,0.2978981678,0.7042298059,-0.5683232771,-0.4668291388,0.1052211062,0.2453827615,-0.4991500086,-0.598198483,-0.2271167489,-0.4421831695,0.2053379693,-0.479431939,0.2971948653,0.1048535143,-0.8902592861,0.3368288194,-0.0313837968,0.6148875981,-0.6684965198,-0.2081362384,0.851575596,-0.6415031828,-0.2819113286,-0.0242088671,0.7217747866,0.7392438025,0.7362463328,0.3868979476,-0.7284196002,-0.9319498735,0.1652040651,0.5118317667,0.3277355134,0.3723822657,-0.281144904,-0.9522862365,-0.2002489139,0.3887441944,0.3023110019,0.494081041,-0.6773636981,0.7891506623,0.8095127782,0.3088001421,0.7451455716,-0.7513139241,0.2965975358,0.682709783,-0.8641857045,0.7493361203,0.1762331375,0.7574014497,0.3201346212,0.1190547416,0.5767917269,-0.4543043122,0.6270035875,-0.2124236405,-0.6227820486,-0.5351491984,-0.579286705,-0.2431604835,-0.8048300579,-0.3480127256,0.2458192065,0.6052930042,0.3625133421,-1.017360047,0.0532186464,-0.067948713,0.4479192567,-0.0303845056,-0.3044579954,-0.863268515,0.2131826461,0.5108633183,-0.0089843768,-0.2117326531,0.1234990283,0.0293334499,0.4824214867,0.5971255196,0.3869302028,-0.8984225248,-0.2385320564,1.0093079841,-0.8910181308,-0.7570769231,-0.3905826999,0.84503183,-0.0338541176,-0.2586838949,0.9979538168,-0.41964928,-0.2081146964,-0.0977643305,-0.6526891642,0.7289571052,0.5571477308,-0.5978508222,1.0321757135,0.623620421,0.5475593605,-0.2937384072,-0.0208872781,0.6399127933,0.1130612417,-0.7792521923,-0.7398755131,0.3070453016,-0.9418854572,-0.6932922453,0.339745482,0.5002526121,0.0393263124,0.9732269065,0.1889448536,-0.6867455974,-0.6282932209,0.0523332011,1.0237130717,0.2278020864,-0.2868746789,0.2542169982,-0.6774921529,-0.3080943037,-0.0283398127,0.8196559452,0.9228657178,-0.9886047954,-0.8963824258,-0.6061360462,-0.7400225886,-0.4997733714,-0.8901862351,0.9775324526,-0.2958121435,-0.2550147441,0.8764359719,1.0422465846,0.4907210904,-0.0574707275,0.3395244253,-0.9089071551,0.5274647381,0.2183586908,-0.6758749038,0.6940763798,0.0391166172,0.2034246693,-0.2475066282,0.5346723865,-0.1010813201,0.5657986817,0.0874100421,-0.7881805289,0.6354541364,-0.3712904437,0.4220466971,-0.8529571205,0.5979524108,-0.7132365128,-0.4597787304,0.7079297987,0.455641692,0.1039907677,0.8099354645,0.0316269806,0.3623387541,0.9556169571,0.0259109042,0.2389533711,0.7293650031,-0.0491141356,-0.527318317,0.753782237,-0.6463273846,-0.7590858913,0.4588634492,0.9370657266,-0.9958858792,0.184304916,0.2230878396,-0.2045545645,-0.7729179945,0.6809936594,-0.4539340025,0.0220185052,0.6680513115,0.6784599341,0.5287002834,0.4006428793,0.9288561094,0.6340094249,0.2286014444,-0.3987875853,0.0251664363,0.9707409623,-0.5846384428,0.6656449216,-0.8100394332,0.0915137255,0.8134793563,0.3011276146,0.0539209618,-0.0099911632,0.0843826513,-0.8839528862,0.2936033004,-0.2729331668,0.6299406933,0.2744485711,0.9711790475,-0.8492696283,0.8898382477,0.8699502219,0.7230376271,-0.0321347303,0.7346433361,0.4624906841,-0.9436496714,0.8239768848,0.3838682343,0.6221008656,-0.5696804352,-0.308326076,-0.5469900681,-0.2640346891,-0.755300961,-0.1637230738,-0.8758016726,-0.0263732627,0.6044765424,1.028779093,0.4302580535,0.5701353152,0.6496224844,-0.6496876226,-0.296609244,0.7010218977,0.6005896116,-0.0172614595,0.1011579479,0.503717155,0.1090506872,-0.0865972504,0.5841101662,-0.9504292978,-0.3376494338,-0.4118052404,-0.4705210267,0.5221797516,0.7851384243,-0.4305902802,0.267205776,-0.8377935691,0.6837976659,0.3017861746,-0.6474513635,-0.5262716578,-0.2457902473,0.1521870854,0.3214241982,0.3115287026,-0.9147035985,0.1134305105,-0.3122757196,-0.9317375972,0.215792205,0.1972736678,-0.479340802,0.4154042591,0.9450284716,0.4919908575,0.6345449863,-0.3289689799,-0.0245642325,0.4671154391,0.7568890709,-0.1174993821,0.4728703263,0.0994308323,0.0738272383,0.2833645703,-0.8571698115,0.3091795476,-0.4098492134,0.6267260032,-0.322095058,-0.238934156,-0.4585499611,-0.9699683066,-0.834614318,-0.7639657719,0.0404546034,-0.4065380554,-0.6222819709,0.2575306037,-0.8926788932,-0.995492842,-0.8533327253,-0.7964968812,-0.9806793181,-0.0642494884,0.4173941493,0.6154905992,-0.6661393864,0.4350760952,0.1164715216,0.3167823227,0.8647240592,-0.786793265,-0.3379355282,0.8904452476,0.1876832363,-0.1793674705,-0.0735550157,-0.9488933915,0.52399084,-0.9742030282,-0.7198480045,0.593859088,-0.4070753479,0.2302903114,-0.9319017965,-0.2254512329,-0.7481822957,-0.1041383799,-0.7678935683,0.177164579,-0.6098898198,0.322293016,-0.3278455177,-0.4136399968,0.1222582406,0.5034551676,0.7449300011,-0.4077001873,0.7231284727,-0.0590118053,0.9467793387,0.4111587854,0.157386364,-0.0500966306,0.013063668,0.1227837394,-0.2889380813,-0.6739034457,0.1490005141,0.9601640779,-0.542374602,-0.4183762827,0.8103664836,0.8250937019,0.2735319326,0.9586589073,0.6969955237,-0.7829257492,-0.873759223,-0.8511124097,0.4281335866,-0.1709524944,-0.9448751073,0.2308730816,0.4530522918,-1.0713315487,-0.5579703461,0.4503198587,0.3299281715,0.8443928135,0.3718256415,0.9430265319,-0.8636634873,-0.3193022879,-0.0241907902,0.5746704955,-0.1460686567,-0.9602763794,0.4196614493,-0.6079540359,0.191411194,0.2199304582,0.1075028428,0.4536213523,0.1540490778,0.3858974104,0.7816767118,0.4510399815,-0.1938769442,0.2588063617,0.2880392998,0.6306807858,-0.2554770258,0.3417781908,-1.0001445376,-0.9866287953,-0.4439500211,-0.9515783408,-0.0751303547,0.2563088974,0.4345320971,0.8654559215,0.3892566818,0.2452856934,0.9576213412,-0.7973178527,-0.795924845,-0.2645018821,-0.9145728414,0.8265941678,0.4730880395,-0.651850746,0.0913252363,-0.8992647778,0.6207666061,0.3982896439,0.9596546098,0.5947488102,-0.1759162548,0.5038077783,0.8732510189,0.2218874661,0.7293942727,0.9692122328,0.9105795668,0.5989882267,0.6573121108,0.0805132627,-0.5770018611,-0.7774339563,-0.1994849772,0.3536290676,-0.4624102654,-0.4725590088,0.7456502245,-0.3839366798,-0.6341684007,-0.263671356,0.9246221912,0.4989115308,0.4003969065,0.7878889831,0.2654285318,0.7538430641,0.872824169,0.5720551312,-0.3378997863,-0.1189809492,-0.5969031447,-0.0566263266,0.16803941,0.3953701734,-0.6542813345,-0.7761189186,0.0441630967,0.5808531236,-0.0896570489,-0.6435437194,-0.5607562206,-0.4299289911,-0.5313995946,0.3583299081,0.4530644135,0.8210186529,0.7288791901,-0.3844208489,-0.4410444306,0.3865196531,-0.0380603718,-0.6446949832,0.0488743626,0.5334635269,0.9719421197,-0.6436266949,-0.9623429445,-0.191155403,-0.3319344542,0.678387488,0.0776938721,-0.0097705782,0.7683687434,-0.7606608946,-0.1562821987,0.0985052502,0.5090700978,0.3168629293,0.8181119749,0.4914567049,-0.018994708,0.9053878148,-0.2375545686,-0.1113011285,0.1009717253,0.815852856,0.3564153557,-0.8175211877,-0.0446123826,-0.0940943933,-0.1488332084,0.1930557633,0.0798482578,0.7797418428,-0.364310707,0.2945023733,0.9127425253,-0.5746610692,0.6883014853,-0.5370563839,0.811584628,-0.0659727002,0.9030567616,0.4316170937,0.2460488244,0.6543622131,0.5936654412,0.2072248784,-0.2724412703,-0.9352280175,-0.7543926353,0.4880518918,-0.8355418109,-0.3052758838,0.3041584075,0.0466264017,0.5277368676,0.7866571821,0.0482721493,-0.0738862431,-0.7574885767,0.266527797,-0.3135220741,0.1084147413,-0.2163144556,-0.4565743379,0.8290596388,0.4639389708,0.4906262624,-0.2828094701,0.2305608089,-0.7040650166,0.6672506579,-0.6002130577,-0.0742449102,-0.3624591173,-0.1219267249,0.2217523572,0.5521586833,0.9454843511,-0.3279559285,-0.6167165807,-0.3938081814,0.9821262981,-0.4694095165,0.1397617883,0.9581443575,0.1989117249,-0.6170643654,0.0396114744,0.1709058884,-0.1262781983,-0.5688497997,-0.3745273994,-0.5948968951,-0.7346649914,0.4580247721,-0.2063200697,0.8387044129,-0.6516722343,0.0037624703,-0.4685873454,-0.7037119224,0.6495557564,0.0628747485,0.8359393339,0.4446480979,0.5876794954,0.4593470992,0.7984875952,0.7803200692,0.5882775631,-0.9295441594,-0.1841115885,0.4294443191,-0.2145541027,-0.3156981182,0.5709925497,-0.0693890502,-0.9374054559,0.8008582624,0.0034645247,-0.9980415626,-0.2986907163,-0.9726245872,0.1105626918,-0.4999128554,-0.1102066458,-0.160140905,-0.1990415671,-0.5870671645,0.6911075859,0.4293305391,-0.9082948433,-0.9232948366,0.1197977248,0.0533833759,-0.6441268616,-0.8279784839,-0.2858613379,0.169572256,0.81456854,0.6845090538,-0.949622387,0.8197568904,-0.0502129059,0.4709099156,-0.9213353732,-0.2356501902,0.2549830233,-0.7561929804,0.8166384649,-0.0015698423,1.0038087907,-0.5169881677,-0.7228755691,0.6824852362,-0.9457693011,0.3392107488,0.511704475,-0.9094106392,-0.1298504781,-0.1583674557,-0.3727345365,0.8170892598,0.1855738023,0.6676486434,-0.9735609035,0.2039361349,0.7230469881,0.7965660778,0.0194178879,0.4713282903,-0.5139545292,0.4132761395,0.2259154904,-0.053664619,-0.3812247187,0.102925944,-0.1546896898,-0.0494191564,-0.500101305,-0.3281525989,-0.7009593018,-0.2486993551,-0.3874487437,-0.3291313764,0.21355858,-0.9685836047,-0.4800427119,-0.492790099,0.6606484191,-0.7979511718,0.3388285576,0.2185810052,0.2157320659,0.8754989569,0.4428657743,-0.9539004279,-0.4969786755,0.0481070665,0.3452112539,-0.0566438553,0.7902060951,0.1081066351,0.771081948,-0.7174484631,-0.1850151183,0.6367439303,0.2085556639,0.6593270437,0.7592079187,-0.2567144719,0.8342693479,-0.1206899971,0.4977738482,-0.306231992,-0.2198641741,-0.8080607671,-0.4964052156,-0.5798751531,-0.7507160058,0.074871812,-0.1410831582,0.9052820726,0.0907855295,-0.2167572228,0.1689720884,0.8291051533,0.4270028705,0.4285073474,0.6597591694,-0.5469748568,0.0142580744,-0.1674413352,-0.0793102145,0.6800399984,-0.9246261985,-0.589495176,-0.216029213,0.166365419,0.8299444657,-0.2630267064,-0.4033815159,0.5355815424,0.3420862012,-0.0124771844,0.5656024298,0.1935135028,-0.6543049715,0.1024785313,-0.4074761025,0.6326663055,0.7072796103,0.8412216573,-0.3782698925,0.5299788686,0.178150808,-0.1018648496,-0.2581184297,-0.5682849828,0.0490455747,-0.9341910927,-0.7640732432,-0.43721149,-0.2888026938,-0.7760142136,-0.3831031917,0.3996708762,-0.3469659278,0.3833032905,-0.7845046331,-0.3525204058,0.0997239949,0.9395588473,-0.7835703275,0.1992773251,0.3513634337,0.1045437474,0.064642974,-0.79265341,-0.0611591713,-0.8469258959,0.6573892911,0.737064361,-0.7355409288,0.6241114028,0.6396729529,-0.5019846848,0.1649673318,0.1330459006,0.6647474218,-0.7598350391,-0.829015377,-0.9953610038,0.0951220688,0.6640831652,-0.3676254824,0.2854660579,-0.4393632938,-0.8887807552,0.6484932074,0.5109783523,0.2493806693,0.3283938281,-0.2279765816,-0.1053812181,-0.0156819785,-0.2630734912,-0.8445067725,-0.9137600524,-0.6856265564,0.0928023471,0.0292735545,-0.9791732131,0.0600202657,-0.2833208061,0.8108905903,0.3405004944,0.1757977777,-0.4281882259,0.9521366988,0.101313719,-0.9978439521,-0.7558240313,-0.9441972165,0.5776365758,-0.7791097539,-0.8245468853,-0.7514321238,0.0162153705,0.1898731399,0.4528693482,-0.0473676236,-0.9316234689,-0.3620303626,0.1028715782,0.542684834,-0.4033895995,-0.9296155303,-0.6756368869,-0.9188300051,0.844810789,0.5660553287,-0.9392078281,0.7547744492,-0.4840356237,-0.410733612,0.7370283287,-0.4569141819,-0.0049174308,0.6368635879,-0.0073479384,-0.2926178023,-0.3982508629,0.2507260027,0.9655729674,-0.9572535837,-0.1002570669,0.8477328764,-0.1655200303,-0.002127679,0.1525398539,-0.5166518142,-0.5791395281,-0.5608798016,-0.2503656714,-0.591565136,0.7253109715,-0.8439848525,0.7455853931,-0.8036370473,-0.9151364909,0.5972895466,-0.5643034678,-0.6030709165,0.7391818166,-0.3682361742,-0.9828711714,-0.3541694422,0.1742971578,-0.4628742336,0.2022939157,-0.6381531507,0.5576642729,-0.26605066,-0.9461511869,0.1844714352,0.6172474517,-0.3944328202,0.4516860078,-0.2162273805,0.1878004356,0.930690502,0.6516539199,-0.5396646906,-0.2535697541,-0.5804967411,0.2193068934,-0.9708102946,-0.4622107717,-0.2311220255,0.3637741934,0.1308747766,0.5643132103,0.3198897518,0.1799125029,0.4142681446,0.7115351535,-0.6014136226,0.1539417801,0.745061572,-0.4783293915,0.0892254686,0.6307597994,0.9855523617
   0.1089300795,0.3529990203,-0.3135466542,0.8716008619,0.0546160831,-0.5966988198,-0.1427589462,-0.9643238468,0.7091869745,-0.0382634967,-0.808030902,0.2197437008,-0.6090201037,-0.2965605396,0.413938377,-0.0843759515,0.903495077,0.5790743944,0.4582722182,0.7040018773,0.9169711118,0.7170823489,-0.9211525343,0.0606252256,0.7001416178,-0.9460071402,0.8554838315,0.9528429588,-0.0505371728,-0.5629027228,0.2766619567,-0.2611411723,-0.6705254922,0.8850684895,0.9553724934,-0.4609205713,-0.4066465642,-0.8122832738,-0.2672353539,0.9218350017,-0.266568233,-0.8530466127,-0.7243480764,0.2519908089,0.927352649,0.8195441163,0.754015083,-0.0678762351,-0.8076803095,-0.2754553963,0.7515269211,-0.0005291331,-0.094404248,0.0593231583,0.4408896537,0.665684466,0.8084384444,0.2633699208,0.3995896905,0.2649549665,0.3762811306,-0.4016228221,0.6001267703,-0.5467357866,0.3862736266,0.8686841781,0.301092809,-0.7926685218,0.0640607992,0.5362822607,0.4882706742,-0.9161409506,0.8220218569,0.5395090472,0.042921011,-0.2839888438,-0.4550947505,0.3553404364,0.4149763617,0.7216363088,-0.5348360774,0.6760870122,-0.7745871806,0.2712052913,-0.2230307754,-0.6219026094,0.8508041488,0.308356344,0.4551237961,0.9794018278,-0.9088232508,-0.2749777374,-0.2349294392,-0.2303205618,0.173078321,-0.3081970144,0.0923476619,0.5126038288,0.5158308963,0.3490467747,0.7405380067,-0.7639853745,-0.9666835325,0.9687929042,0.696676485,0.2881197795,-0.8853849096,-0.6298831559,-0.6538496045,-0.1273497772,0.8514052072,0.3434105905,-0.3933423111,0.5656789246,-0.7149091552,0.3607582155,0.2534135572,0.611667654,0.3338240787,-0.6728820868,0.3955170469,0.5233071142,0.7773900598,0.558104649,1.0352357323,-0.7670942053,-0.6963519462,-0.6779101411,0.8856042542,-0.4766620089,-0.1113098069,-0.4813263479,-0.8619600099,0.2127730431,0.56398461,-0.1655773846,0.0451007189,0.8394665083,0.9641421295,-0.7513059866,-0.0928816376,0.3468802489,0.0740605124,-0.1138370785,0.0874285629,0.9163052785,-0.7884256528,-0.3988663983,-0.8782212438,-0.4590788013,-0.8678093987,-0.8815514566,0.8133621147,-0.0527099185,0.667998194,-0.6597356901,0.3796870732,0.0355704897,-0.8813499388,-0.2729375759,-0.3623604337,-0.4759542843,0.9624992521,-0.9561685906,-0.5112590456,0.5044727349,-0.3067978648,-0.0623542709,-0.5587289024,-0.9756326241,0.2878326942,-0.1533189485,-0.7493608149,-0.534511712,0.2090638158,0.7159190491,-0.6257504242,-0.4278351558,-0.6602858701,-0.0955418374,-0.653236013,-0.2848605431,-0.9137901427,0.465713369,0.8943856218,0.169397999,0.5220874591,0.8211956518,0.883811742,-0.5442613065,0.7392451883,0.0410726901,0.2749383663,-0.5135909226,0.4264008746,-0.0170296914,-0.1720980752,-0.9510625509,-0.3462994329,-0.4986702472,-0.8392965784,0.1203186318,-0.399573275,0.9885831323,0.334294163,-0.0538153419,1.0175248251,0.1669958563,-0.7826591786,-0.2308947707,-0.645783864,0.5243477244,-0.0711083197,0.7726911806,-0.7595132081,0.7705327407,0.8869936116,0.2531666657,-0.6731489476,-0.9140848329,0.8505692136,0.2409751888,-0.3306111419,0.1411396017,0.7925029852,0.1305589646,0.787550047,-0.4847092358,-0.5421118982,-0.3436317273,-0.6474081963,-0.7040285248,-0.3798273966,-0.7545137989,0.5006151379,-0.2539348319,0.4871584349,0.430492197,0.0455280171,-0.0647061104,-0.8282304722,-1.0045469082,-0.9619563105,-0.2163806023,-0.8926116332,-0.1707599474,-0.0184913735,0.6687099891,-0.4956719497,0.0598843899,-0.2769082192,0.2298949167,0.6602430066,0.6949149386,0.7019920557,-0.1907588756,0.6358213692,0.6417079517,0.1151936437,-0.4479919282,0.3433127514,-1.0600884956,-0.8859238678,-1.0117910254,0.4981772872,0.2657334435,0.8201910512,0.2847239073,-0.4770690288,0.1802918312,0.4228319926,-0.1257891013,-0.47837791,-0.1928032346,0.6040866021,0.4702987294,-0.1745683932,0.0092000698,-0.9138212386,-0.757271473,-0.4549654873,0.6825694009,-0.9634988313,-0.7580417762,0.9854892631,-0.4594489785,0.8227001514,0.4995409565,-0.4946466256,-0.6499235425,-0.503767644,-0.0282538441,0.2890546145,-0.0025061736,0.0959499254,0.7567034458,0.954622673,-0.5189069513,0.059652619,-0.3541545973,-0.341264607,0.5375106504,-1.014666527,0.6460630454,0.8478807454,-0.9679495318,0.4796132721,-0.3708597244,-0.721820316,0.6021111097,-0.9553986652,-0.9908475275,0.0106826459,0.0268446417,-0.7124420403,0.0242671804,-0.5261686925,-0.568525366,-0.9577878344,0.0713587989,0.1249759089,-0.7437763147,-0.4954015029,0.012837075,0.635398924,0.5598780805,-0.2010228783,-0.8208703857,0.4706524384,0.1556130258,0.3024870718,0.0687172004,0.6081302069,0.7507886838,-0.7822259495,-0.8200916062,-0.6636441507,-0.5226217977,0.6631365385,0.1607586316,0.8841739611,0.5835633956,0.7145920712,0.1088520077,-0.0241470748,0.7353518579,-0.7548249968,-0.3929318744,0.2007099176,0.281061559,0.8376811528,-0.3372999334,0.2140205717,0.7232808561,-0.135626921,0.8584154516,-0.4628320305,-0.5332527897,0.7320849505,0.3146200031,-0.7552467402,0.5548279033,-0.7626020905,-0.2183989874,0.8034498348,-0.4445573429,-0.2839202092,-0.4327851034,-0.114963229,-0.2432296365,-0.0574592518,-0.8283037803,0.4240026631,-0.199343308,0.2540695954,-0.2379482151,-0.23652636,-0.8588069481,-0.4325241219,-0.3446998275,-0.1476874854,-0.0389307753,0.7086216216,0.52178001,-0.9254121221,-0.7848053794,0.4545369254,-0.4034635991,-0.2380099813,-0.3562341074,-0.0738611356,-0.6634872057,0.2285583164,0.7303178015,-0.5457927548,-0.941426124,-0.4560902525,0.3613140772,-0.7901976896,0.0325383935,-0.3301091624,-0.0557859461,-0.617776143,1.0013037628,0.0651395459,0.7902136983,0.4685123952,-0.9042808514,-0.5094973614,0.1420837283,0.1541327168,-0.0475454052,0.3512152791,0.0422518247,-0.6438586337,0.8449040586,-0.5770129789,0.9865338379,-0.5054421127,-0.7541027032,-0.2381852748,0.6230049305,-0.9132840338,-0.044952832,-0.1198959111,-0.9181923073,-0.7593844832,-0.101620353,-0.5440644829,0.853485498,-0.1116380414,0.9973440649,0.3090249763,-0.111606315,0.5334926693,-0.6466698265,-0.8490701847,0.6658111116,-0.1190036211,-0.0399908711,0.8147715132,-0.8707143252,0.5217315942,0.1954465078,0.3779294312,0.9309151874,-0.1269729257,0.2443546744,0.5254558209,0.527104356,-0.2803176902,-0.9393535394,-0.6698409789,-0.2915197984,-0.8013907225,-0.8934343644,0.7024681837,0.3095611898,-0.9691280349,-0.3837220316,0.9982474853,-0.9844426063,-0.8651143785,-0.7054907611,0.7958759739,-0.6258358053,0.7082215351,0.4000036686,-0.4873269193,0.6347010587,-0.5057953968,0.4909059439,0.5219146038,-0.6103116887,0.8827178872,-0.9663919066,-0.0255782326,0.9706685339,-0.3620330173,-0.0616817087,-0.446231854,0.9589484607,-0.663689249,-0.1949410543,-0.1200553442,-0.4286402439,0.9190014995,-0.4305488558,-0.9312873352,-0.905754576,0.6036383387,0.494386531,0.7774749683,0.0341394802,-0.1288505205,-0.3059060826,-0.881740099,-0.9164066826,-0.6019008703,0.3933040891,-0.0833458416,0.5860561027,0.8807006067,-0.7295766136,-0.2374023806,0.0971613526,0.6439389271,-0.322867971,-0.4735746233,-0.0797489525,0.4336154629,-0.9472397082,0.8475679203,0.3887330517,0.1786548929,-0.4090212858,0.0439224703,0.5924454174,-0.462186398,-0.5865863004,0.7498652107,-0.6321383116,-0.2139050042,-0.8314287343,0.0692746265,0.5821495614,-0.1890236762,0.8825896299,-0.1635142636,0.9100123644,-0.3596608736,0.858903222,-0.285651856,-0.8099597521,-0.0615179424,-0.1836752083,-0.4095231864,-0.5406709252,-0.5593213156,0.6084270259,-0.4480381337,0.3629399565,0.2189485035,-0.7499675608,0.6896580821,-0.2888047664,0.8222786547,0.848566683,0.4055730755,0.5385303764,0.8511269158,0.9864552159,-0.0292251645,-0.3604102623,0.8429585529,-0.0157087916,-0.3780958847,-0.9121316937,0.5785019633,-0.8316663279,-0.2601631292,-0.1108965733,0.4846766526,0.3058506935,-0.4172447208,-0.9381944713,-0.6714815942,0.1475135782,-0.8659210026,0.9180692611,0.2488087835,0.6261360919,0.9093622518,0.1037729446,0.1733591446,-0.773662927,-0.0280289241,-0.5464699152,-0.5500070285,0.4807070659,-0.8334508955,0.1983188949,0.1448207284,-0.2678513708,0.8029302923,-0.8502424727,0.7581540714,0.1894950036,-0.9580020184,-0.4742038628,0.1487488759,-0.6085645445,-0.7017066406,-0.6070278155,0.5569231994,0.2712504106,0.8974093161,-0.9831931801,0.0657675655,0.8575546307,0.4071704573,-0.0890213937,-0.1038129209,0.2028477272,-0.292254119,-0.3097701321,0.4269838013,0.0545661172,0.0607782661,-0.8717390835,0.8976125818,0.4948704553,0.2837165012,-0.2854369954,0.1719985605,-0.0091614736,0.943462004,-0.3950955141,0.265598168,-0.9259456757,-0.9566660591,-0.7901373212,-0.7012491196,-0.0043607424,-0.5050510129,-0.815372402,-0.2408456551,-0.7129551982,-0.8718162984,-0.6027291259,0.3265239389,-0.9826404771,0.3219855957,0.2864050693,0.4795169847,0.1522517201,-0.0506665247,-0.8566090487,0.6346330575,0.9576113266,-0.3592124488,0.0030782412,0.2829617808,-0.0724787562,-0.4521736545,-0.0155870427,-0.8861904638,-0.3209235371,-0.3162177618,0.8969452124,0.6438057456,0.031457886,-0.8938043664,-0.5314631035,-0.1223106187,-0.7918141854,0.37919004,-0.6795713375,0.6515028809,0.3364027087,0.2448549553,-0.9395260863,0.7492721939,0.8325227577,0.4058592348,0.1095553933,-0.1114869812,-0.4277553413,-0.3933792564,0.7507004478,-0.8443273379,0.6136515544,-0.6024497041,-0.4545964632,-0.7286202062,-0.0108636181,-0.7252644421,0.6195204778,-1.0113553867,-0.7514224641,-0.2005116155,0.3504758056,-0.0164764393,-0.0739828205,0.5242114816,-0.1188461956,-0.1472605946,0.9298731989,-0.3687875953,-0.3562865185,-0.5394040703,0.5309406021,-0.8196822,0.7458251701,-0.4123881722,-0.6808328493,0.676049299,0.0364929657,0.5929894208,0.1688471133,0.8851961334,-0.7501497947,0.3493202771,0.22570488,0.0485580381,-0.3673401347,0.8973300799,-0.2117039651,1.0031310131,0.5480068666,-0.995685863,0.4610248713,0.0955495644,0.6971696303,-0.8957758014,0.2948257168,0.9519862647,-0.2252686674,0.0511668302,0.318731201,-0.7092847022,0.3249729137,-0.2378994468,-0.3235399906,-0.581430157,0.7447647568,0.3618289038,0.6941891022,-0.2197744248,0.4505439248,-0.0165955704,-0.1998262373,0.8756687891,-0.5106109089,-0.4905781664,0.9876393738,0.559358103,-0.5102491951,-0.745200496,0.8843881753,0.051379979,-0.8896235807,-0.115856885,0.9769946461,0.4519797319,0.441323983,0.6286342704,0.7049566832,-0.4824692669,-0.9145833068,0.8155287408,-0.2322108557,-0.0809020737,0.2078839341,0.5186270571,0.2074673197,0.4661716806,-0.0112217928,-0.4372578908,0.0633095237,-0.7927144297,-0.106086377,-0.496430456,0.2008061306,-0.9823565165,-0.8696011574,0.4904165206,-0.5287979034,-0.3028291963,0.0263712691,0.9040093163,0.3783390756,-0.5149461832,0.9411931531,-0.9948986822,-0.2159018927,-0.9847951186,0.4584575322,0.242272674,0.6711777694,-0.793239873,0.2463252666,-0.9201363343,0.1365617185,-0.9283067993,0.3526286181,-0.0282578369,-0.463847671,-0.6323945741,0.4364840596,0.8008323752,0.5872485552,0.7287448324,0.7908638122,0.9666800753,0.1668144977,-0.4529835623,-0.5722513242,0.2976755512,-0.8809788717,0.6606033333,0.9414346657,0.9700654557,-0.7597984527,0.919656166,0.5901126027,-0.9747196013,0.6994927218,0.6578880768,0.6397321341,0.4658449938,0.0359404845,0.5191111501,-0.6361068636,-0.8272139029,-0.7413255171,-0.4537405717,-1.0069969999,0.5289649704,-0.2200821033,0.0585220828,0.4193793552,-0.0943233687,0.7041606989,-0.1043801374,-0.476276213,-0.4354362834,0.2983668971,0.2931311003,0.5467624585,-0.5478203427,0.8708874205,-0.3537659807,-0.1508408477,-0.6933716849,0.1505959295,0.0986634665,-0.3097679692,0.0132234307,0.7265817115,0.3172520441,0.9170908038,0.7628273258,-0.7288319669,0.6561744213,0.710738801,-0.9147333332,-0.2167303362,0.8207602134,0.2814812312,-0.5475523857,-0.0112644971,-0.0977417337,0.4154847126,0.8274329466,0.8075640837,0.0832112319,-0.8995186641,0.2117520853,-0.6855734656,-0.2535982061,0.6633695347,1.0000344204,-0.1063371825,0.225191801,-0.7577117627,-0.3972418738,-0.5709417356,0.118315202,0.7823077169,0.2928760221,0.9394825418,0.388901789,0.5895121148,0.855053944,0.7050198494,-0.1338375195,-0.637532244,-0.960036946,-0.2983442907,0.4892431544,0.6106010119,-0.7357957232,-0.2131400955,-0.5033069987,-0.7929831263,-0.8492777837,-0.7538989311,0.9568385813,-0.2298375853,0.3429348562,0.4138000143,-0.1427769846,-0.3388657501,-0.2776254275,-0.8756230319,-0.6767783173,-0.7308130233,0.8869655592,-0.6512924327,0.5763140471,-0.6264783327,0.829221437,-0.1965442152,0.8060228101,0.4738121385,0.8334321271,-1.0195762204,-0.7587379066,0.8588379181,-0.113527771,-0.7668014045,-0.1017454355,-0.3966655928,-0.7773329778,-0.3073775016,0.6248278808,0.7020686265,-0.6151100692,0.5089077101,0.089413742,0.2453945468,-0.6870627079,0.7141129551,0.9248956216,-0.485100134,0.6077199631,-0.7787435048,-0.2494093964,-0.193979893,0.4960265998,-0.892041211,-0.214917431,-0.6878328231,-0.8181630511,0.1581959241,-0.8321781148,0.1683532136,0.1657235247,0.5961761595,-0.8275970484,0.1096457037,0.7957803751,0.4630846228,-0.3112094095,0.5200335999,0.1536757863,0.8302837198,0.0680818636,0.3805397216,-0.5006647915,0.534383987,-0.6888354877,-0.6133394498,0.1388625806,-0.0491388247,0.5485289654,0.243612944,0.7984010727,0.6358556176,0.7043319428,-0.0037169057,0.8679465418,0.0200008301,0.0798734205,0.7313441017,0.7588447915,-0.2582741344,-0.1302735784,0.6676116583,0.9082581766,0.0080601256,0.2416296507,0.5260394759,0.5891832273,-0.8566955525,-0.4377887069,-0.2026286419,-0.1398513386,0.8177503717,0.1073111454,0.4168345254,0.8128729201,-0.5602668808,0.1176648065,0.3514612682,0.9240950806,-0.6789984014,-0.7543882195,-0.7747855001,-0.4032259112,0.2466519667,-0.9685703817,0.2935572722,-0.2869550966,0.5066810794,0.9790747145,-0.5269514832,-0.2755431727,0.3123329972,0.6269960493,0.9678344561,-0.5261605804,-0.6919375949,0.6869429245,0.7920935495,0.8798371818,-0.4443619632,-0.243001745,-0.582064378,0.6017752716,-0.0138486922,0.9647389942,0.772000889,0.3294323993,-0.9890741088,0.5820016779,-0.9735065051,-0.307614507,-0.9254589782,0.413213895,0.6185151142,-0.8972353539,0.5374821662,0.2935485554,0.8107830824,0.5516045818,0.6744386141,0.5066576703,0.6379958973,0.0885928168,0.9338760588,-0.1363828867,-0.3912612542,0.0640212883,-0.5499151494,-0.0483026432,-0.260834362,-0.3672136026,-0.7968265956,0.7722387579,0.6361622248,0.1669752903,-0.8881137623,0.7635130166,0.6870430987,-0.972023022,0.8924247832,-0.8761476688,-0.6722720713,-0.628177699,-0.0315788368,0.3695351064,-0.5884902765,0.5964624905,-0.3154107586,-0.4374824184,-0.8051802717,0.0256409058,0.2185681636,0.1593703718,0.7229676709,-0.2380509175,0.9464405859,-0.2308308373,0.0703051514,-0.7113973565,0.4219546132,0.776084878,-0.6267075121,0.1492383032,-0.0454309838,-0.7571388082,-0.3778362502,-0.1536494235,0.7659011272,-0.104200897,0.3518902717,-0.6030984424,-0.5141863627,-0.9523372384,-0.4376565818,-0.7745968239,0.727031427,0.4183751924,-0.0199709503,-0.4138498342,-0.7614462503,0.0398582878,-0.6041632999,-0.5302004849,-0.9162219056,-0.4422877088,-0.7987994782,-0.4105451349,-0.8257240544,-0.4596879747,-0.7638486038,0.5485598475,0.1220927899,0.859022608,0.4072309494,0.7893268525,-0.5953921065,0.2642323967,1.025704786,-0.0097077108,-0.7238210788,-0.5311448708,-0.8768485115,-0.6054169601,-0.2528606147,0.9669429539,-0.7019217868,0.4108913953,-0.9694919331,0.2778873721,0.977950542,-0.9776097495,0.5094257357,-0.6559792768,0.8647159599,0.9204171451,0.4753570301,-0.1570093083,0.3233120331,0.8658587425,-0.755677309,0.6784344988,-0.9264504015,0.275740866,0.652150935,0.0683723667,0.298971173,0.5203477233,0.575066437,0.5323523194,-0.6411585628,-0.612535784,0.5582670206,-0.5401751076,-0.4917075659,-0.9604540221,0.4309725939,0.2057127379,-0.3855840643,0.6488192973,-0.6948818077,0.2677198427,-0.0157124636,0.5947139358,-0.5737336294,-0.545944882,0.8413885589,-0.2519471959,-0.5536877895,-0.5801847885,-0.0926570597,0.7411155792,-0.106348,0.1972765633,-0.4987596619,-0.3299631042,1.0186488594,-0.2125675848,0.9443419717,-0.8866699004,0.0364789541,-0.1842924686,0.5240669661,-0.0505967613,0.4888077512,0.6556454531,-0.0202716993,-0.1288431145,-0.682091701,-0.6329525164,-0.7076250816,-0.3022580033,-0.8228940147,0.4196373729,0.5093428474,-0.0134583172,0.3457843317,-0.5818040849,-0.4853032432,-0.4221146274,0.2568667186,-0.0039275745,-0.1636377136,0.1627309658,0.9535948775,0.7536829489,-0.7405769683,0.2924855655,-0.097959501,0.0167891351,-0.0987732119,0.6159598608,-0.3708123034,-0.541229162,0.6898947364,0.443688201,0.7203407679,0.4572272884,-0.0281648753,-0.4781638962,0.656382625,-0.6264890384,0.6938966387,0.6171518863,-0.612743808,-0.6685664667,0.9677471998,-0.3287904472,-0.6707076502,-0.7341056,-0.1980476895,-0.071305374,0.9137874797,0.3195454581,0.701697098,-0.0085499084,1.017386269,-0.227702793,0.5370128718,0.061439442,0.2591017842,0.2908856265,0.6922762398,-0.5385729742,-0.4130271804,0.8230746621,0.2757864928,-0.8827700411,0.4390292564,-0.6946948784,0.0676086318,0.3585676985,-0.4852655325,0.0907556009,0.0367353668,-0.7312739493,-0.8060137182,-0.0461622665,-0.1082888404,0.6643272321,-0.2516555478,0.6758705732,-0.5996121508,0.3868304001,-0.581085175,-0.1705769095,-0.8760364216,-0.3056832267,0.2892449661,-0.8999427505,0.7743772169,0.529531215,-0.7597420643,-0.36245251,-0.4480712973,-0.9262683628,0.218179171,-0.576008076,0.1817278575,-0.4626686312,-0.7631502317,-0.345640698,-0.7659092082,0.2273851271,0.6760917748,0.7443027356,-0.5693787512,0.4367294328,-0.5726382504,0.4049565845,0.343716303,0.0236160677,-0.7926851338,-1.0224000202,0.5341724198,0.007500953,0.5655644583,0.906452398,-0.3080800281,-0.8763614557,0.2195163964,0.1064214115,0.491658295,0.1065470212,0.5782082979,-0.3411392832,0.8968140437,0.9471606838,-0.2671315269,-0.527301178,-0.6370231728,-0.4965854302,0.9339513412,-0.1669277095,0.9912269254,0.7840054254,0.399961805,-0.2409443006,0.1995512708,0.3846035407,-0.2176260896,-0.3426602374,0.6964795771,-0.8391820116,0.9250930682,-0.2482553374,-0.5429728966,0.5266332761,0.5171636427,0.7974278874,-0.3223135185,-0.3075057822,-0.7186806016,0.0800754727,0.8331611448,0.5120320253,-1.003841443,0.3370419691,-1.031870671,-0.0539314202,-0.3369335278,-0.7370058348,0.0951137019,0.9287582705,-0.4933579922,0.1572866877,0.8001476401,-0.8186298139,-0.3494258609,-0.5680867295,0.5300742148,0.6784439988,0.8300029239,0.8142657714,-0.2391850575,-0.4525305029,-0.0159576321,-0.3754733638,-0.3539454301,-0.8023803622,-0.5615307147,-0.8804393436,-0.3326529549,0.8344820306,0.695942653,0.550553514,0.3606758519,-0.7654983749,-0.8344150805,0.0832644937,0.0684738975,-0.6098673909,0.0739129861,0.2383357588,0.055656682,-0.9528724324,0.6354550422,-0.8808734077,-0.4057758012,0.0509727636,0.1316562352,0.4349795252,0.71571624,0.1585979516,0.6936440709,-0.5966515099,-0.2161546236,-0.0254774849,0.8726811568,0.0117260229,0.1263492401,0.564800977,-0.1319264928,-0.5803024112,-0.6331209504,-0.1678581163,-0.1853729484,-0.3195483626,0.0497742809,-0.5969652021,-0.7695161268,0.4878324561,0.6960181728,-0.8176818687,0.9277178044,-0.4378146673,0.5840462689,0.7826369898,0.2432120813,-0.1281665005,-0.4747294811,-0.6381085514,0.5527299627,0.5744150685,-0.5896965082,-0.9225772257,0.3500963636,-0.3532265206,-0.4636411474,-0.7195485729,-0.7989201121,0.2751340253,0.0975596074,0.9872102271,-0.4207468278,0.2267078144,-0.0976240103,0.0168166766,0.8555085412,-0.2692319113,-0.7184130306,-0.5208242674,0.1630408898,-0.3685446483,0.9175540398,-0.360444092,-0.5439335205,-0.686332551,-0.6729057976,-0.659858238,0.9209160822,0.9673602526,0.3459454166,-0.4963349506,-0.365324506,0.8832416829,-0.966375328,0.2621371433,0.7767947345,-0.9367609824,0.1637981942,-0.2949364207,-0.0005373171,0.6187363173,-0.3335131075,0.1788371674,-0.333399457,0.8967913883,-0.2334916179,0.9623631397,0.3193165219,-0.739936179,-0.6165145204,0.6403593119,-0.3505674131,-0.4899462138,-0.018288653,-0.4319925751,-0.5391185292,-0.9396409658,-0.9262651357,-0.4180067012,0.5247132692,0.5741405409,0.0527129105,-0.3413077439,0.0944606004,0.6888001501,-0.8738302513,0.0281033843,-0.8524510298,-0.3344149542,-0.5310074084,0.329105841,0.6147658729,-0.5686869937,-0.2903696315,-0.3604169748,-0.4537091481,0.2495536155,0.4603732942,-0.4032978437,0.2019279356,-0.8285097599,0.8130073104,-0.2047978588,0.1405936272,0.0673067292,0.1791172116,-0.6213836841,0.0602452412,-0.2972146215,0.189666623,-0.1327688061,0.3078755809,0.1368609349,-0.3436529509,-0.2275644101,-0.729332003,0.1689417738,-0.0619509522,-0.8332539082,0.8336933362,-0.4816177273,0.8144185811,-0.9450496247,-0.4245816391,-0.5953985361,0.6833977184,-0.689688101,-0.5381593149,-0.9114506424,0.1365967091,0.3674663036,-0.1404291813,-0.6007946156,-0.5598887338,-0.6171516487,0.3763663956,-0.8628943572,-0.7294344742,0.6394368875,0.1297070278,0.0886250608,0.973627178,0.489259111,0.903240666,0.6932961972,0.5474683264,0.5127227693,0.7377185868,0.8755556951,0.4670797381,-0.4567685336,0.3799863904,-0.7786783175,0.2546414617,0.89291235,-0.9825217484,0.0024001394,-0.1159019865,0.2276230837,-0.8218555845,0.3231278032,-0.21828683,-0.2189801893,-0.393499885,-0.8022589194,-0.5971806227,-0.2360370141,-0.1147977297,-0.1674947822,-0.8625957319,-0.85408621,-0.0960886526,-0.6539298296,-0.2809080967,0.5513554642,0.1852803143,0.9348891446,0.4537192412,0.1180315925,0.4517545542,0.9072009303,0.4235391225,0.7637962857,0.0102271439,-0.6453193618,0.3716438452,-0.5644450286,-0.9640217184,-0.668779733,0.5271402663,-0.7980630118,-0.9783373069,0.2021495655,0.0790797565,-0.3034068703,0.623173018,-0.4151278221,0.9871854009,0.6302172843,0.7867399906,-0.6609771839,0.433694008,-0.7699380356,-0.4173457846,0.8697675903,0.7963608996,-0.9548453492,0.3475121661,0.3467136533,0.5472928291,0.6965974204,-0.2930366405,-0.9253277363,-0.1620906528,-0.788975535,-0.1824133994,0.2753398421,0.4695539205,0.6352480311,0.1880839186,0.1201916141,-0.4281694866,-0.0508169066,-0.813064684,0.9028552161,-0.6653983031,-0.8792710378,-0.5020095937,0.7270683861,0.1252887436,-0.74384556,-0.364988704,-0.2778543349,-0.0253131835,0.0555115644,-0.8031436591,-0.9843865958,-0.167843035,0.3875325145,-0.2930006649,0.3704582447,0.6294807187,0.6085540281,-0.4764200592,0.2852346295,-0.3752080665,0.1503871082,-0.030364167,0.1230123691,0.8368780146,0.3236403857,0.6804073989,-0.5617621267,-0.7164056148,-0.549031272,-0.6979754454,0.2895326406,0.6811984198,-0.3453188474,-0.0246200924,0.1629118335,-0.6941188989,-0.6574913933,-0.4094402498,-0.4202876064,0.2810747038,0.0006805142,-0.9573874651,0.595440214,0.4476739808,0.7128096782,0.1356473743,-0.4273956128,-0.2261332608,0.3344682797,-0.7497308829,0.4305138838,-0.1766230703,-0.7687276279,-0.5542762182,-0.7481802768,-0.2177865122,0.5982921258,0.1207801232,-0.5541182037,0.8486705223,0.3016285777,-0.5315605269,0.3047823163,-0.1549043115,-0.401195161,-0.0959850624,0.0350718862,0.1390085534,-0.0629545396,0.5582176828,-0.2471241364,-0.9083380263,0.8822373484,-0.6751129927,-0.1428912095,0.94284434,-0.4590715179,-0.6119747954,-0.5741736556,0.3051883159,0.8088336506,0.7934456757,0.3686957068,-0.0044301054,-0.319530779,0.8325610243,-0.5604262356,-0.1585314844,-0.3057274781,0.9283744851,0.4077666646,0.0599217346,-0.0142915128,-0.3655581917,0.7805008963,0.8005521567,-0.9436729269,0.0027402156,-0.2151148376,-0.7936313055,-0.0890096728,-0.6044492645,-0.0810394679,0.0285501785,0.9445979065,0.7460036586,0.0542682289,-0.9630825844,0.7560419338,-0.6549745619,-0.2061554203,0.7329829846,0.872644992,0.4687691365,-0.7512298877,-0.1012201955,0.4960809674,-0.9145776626,0.5499568738,0.3435882592,-0.3829382259,0.2543555382,0.7418968123,0.5891293835,0.8192803391,0.208175439,-0.6450784168,0.1206983405,-1.014100506,-0.583836312,-0.1006075584,0.1237388876,0.3300512516,-0.3573865638,-0.3520280403,0.1680643148,0.9687132848,0.5168870932,-0.7581884844,-0.1990318957,-0.8026912506,-0.7644875726,-0.6823084267,0.272709026,-0.0627302764,0.2322041009,-0.1484266576,0.3513319554,-0.1801781925,0.4922429513,0.2793907084,0.7202139888,-0.2836549173,0.7208698797,0.3732132092,0.2173417299,0.0482639227,-0.4003833449,-0.4191549334,-0.5870177778,0.4114426869,-0.5380649606,-0.7996583665,-0.7071578484,0.8986010858,0.1451074246,0.9898173135,-0.2554556421,-0.4617925247,-0.3390748967,-0.545204916,1.0053431705,-0.0810917392,0.8588328483,-0.9047403016,0.1480187944,-0.0942932179,0.8733224273,0.4571795968,0.8712906706,0.6100831867,0.2901024589,-0.7134856281,0.6069115743,-0.5714982228,0.1786323806,0.3990329284,-0.9122700802,0.0343988764,0.4288415694,1.0070578676,-0.7850932124,0.4136360993,-0.407540455,0.3160680093,-0.0981119974,-0.5198464341,0.5723544023,-0.4380548846,-0.2287793741,0.7130987062,-0.5080841399,-0.5436766176,-0.2691910077,0.4874425377,-0.4055066708,-0.3287133106,-0.4946028002,0.3568708537,-0.0700825479,-0.6534345155,-0.7384975476,-0.7533699457,0.7830209018,-0.6379772245,0.9551497669,0.6246337577,-0.7673784058,0.4771328669,0.4745070311,-0.0150268655,-0.4342413384,0.5520198114,-0.9187391226,-0.8230287854,-0.778093348,-0.1144781144,0.5614287232,-0.1492625168,-0.7059772473,0.8319892467,0.1651709034,-0.8902138584,0.1046084441,0.0607767462,-0.182464272,-0.7946466031,0.6714343369,0.2035450678,0.809920008,0.1364364416,-0.1832500311,-0.7872492696,0.2544232873,0.2796809413,0.6162909182,0.4758507529,-0.5663438867,-0.6233990334,-0.7602096691,0.7620357406,0.4971597181,0.8364283731,-0.187504875,-0.0841421206,-0.2445498151,-0.4734411992,-0.8518112757,-0.7089148657,-0.5215538847,0.3280385311,0.784650197,-0.3694533087,0.8772066055,0.2870556945,0.1633788432,-0.809744909,0.3019212437,-0.3300582459,0.4781908398,0.0486917987,0.8169056853,-0.0083260415,0.6405545931,0.6178868116,0.0028798822,-0.2781133052,-0.7398214291,0.8721365752,0.6048573013,0.9709311858,0.6896651957,-0.5910236847,0.9846486774,0.9102728931,-0.7616377137,0.8181967369,-0.0861386497,0.1187298542,0.6122140361,-0.2919616162,0.5695147656,-0.2904323123,-0.2042788294,0.6494654228,0.6148581141,-0.2522464595,-0.2510264335,0.8089507097,0.5032623892,0.8749229889,0.2192284582,-0.5920255083,0.9955985609,-0.635721717,-0.3628549824,-0.9577823467,-0.4156395211,-0.5908110886,0.9629468248,-0.2140054904,0.8196373466,0.3270067914,-0.3836326064,0.2983256355,0.7257370654,0.3301303349,-0.0925880752,-0.5373937191,0.8668254929,0.6655799241,0.5716973787,0.996499284,-0.0963815421,0.7651670519,0.1351126341,0.5429302089,0.6105401894,-0.4150053932,-0.73947216,-0.7740912233,0.9870037793,0.0186528819,0.7338834609,-0.4185336661,-0.7070040497,-0.6117587511,-0.0190037979,0.1134886717,-0.3269461358,-0.1202147741,-0.9413067205,-0.3052251208,0.1235029023,0.377077497,0.9313665455,-0.032582659,-0.1075817834,-0.2012225714,-0.0208142946,0.0907124233,0.3850859479,0.8852886565,0.3912692565,0.3304771826,-0.8796338939,0.8996851093,0.4127156736,0.9666397049,0.8115027351,0.8409441708,-0.8315184274,0.6015485132,0.2890272888,0.4916919867,-0.198193003,-0.4375082718,0.5921854171,-0.2861989415,0.757200657,-0.6147634151,-0.8805561393,0.4271110004,0.1102487412,-0.3712667869,0.4109816535,-0.8385263054,0.2000122518,0.2332650992,0.8254022747,0.9800182391,-0.045125026,-0.3303892236,-0.1575050211,0.8756843115,0.664071868,-0.2434635468,-0.2990418965,-0.4206934847,-0.0598594047,0.2217620397,-0.842162799,0.4835029673,0.4979712064,-0.2952494769,-0.1478559138,0.1347133418,-0.6307873092,0.760397889,0.1260417504,0.6702408269,-0.4499627098,0.7677169896,-0.5058258553,0.6851525077,0.7186835589,-0.6746349581,0.6081748022,0.3348544988,-0.5788986459,-0.6963377215,0.6280756521,-0.7320082792,-0.5911914914,-0.6895311164,-0.8847408561,0.9727951179,-0.2308779942,0.4728159088,-0.3523290072,-0.5021655481,-0.1024899599,0.6240922682,0.6060877868,-0.3243861265,-0.1773976806,0.9962468802,-0.7805172535,0.5619570932,-0.5532195307,-0.9018332987,-0.5974484875,-0.2784522375,0.606311532,0.5068837205,-0.791316261,0.9017710826,-0.6171078913,0.9448129756,0.9511463585,-0.9203107603,-0.9268708475
