encog,BasicNetwork,java,3.4.0,1,63716515179777
[BASIC]
[BASIC:PARAMS]
[BASIC:NETWORK]
beginTraining=0
connectionLimit=0
contextTargetOffset=0,0,0
contextTargetSize=0,0,0
endTraining=2
hasContext=f
inputCount=57
layerCounts=2,88,58
layerFeedCounts=1,87,57
layerContextCount=0,0,0
layerIndex=0,2,90
output=0.989562537788074,1,0.793247357353678,0.997419755291858,0.998728424944614,0.468482661571716,0.960733956237322,0.999505881680621,0.997176736486795,0.0196521779045403,0.0245572898162568,0.488062892587393,0.986237089717012,0.202329353786052,0.0154934449694252,0.273695277578195,0.719981527422778,0.0612855990285191,0.855675501095358,0.304230036700535,0.853074774176495,0.998785664166546,0.0585189613381136,0.00631783345254959,0.945659693124261,0.709472517125165,0.0466311695261467,0.999997070710178,0.0580271352621358,0.722292300547938,0.000279911486693503,0.816494815152168,0.931905687613786,0.00204262661042534,0.725314321709004,0.954648650626106,0.993874581428435,0.996020522443021,0.150798472121309,0.999841219893842,0.000650331028897725,0.0290014323208446,0.998417785384857,0.993855894767686,0.982146170665094,0.191466649130986,0.147232182827041,0.00201622784954013,0.00928179756101095,0.941756594998983,0.770421985385339,0.573335419477825,0.014048378190867,0.990552552948383,0.119316796101605,0.8538614619436,0.971276192219786,0.234491742587933,0.0117130535560695,0.319889389900348,0.390752073994861,0.00271345379764469,0.997553342377575,0.00805492338372101,0.999730451636111,0.583738986944927,0.711732593200321,0.0000844406005340345,0.993914559810476,0.164737921434858,0.911372569313835,0.98022567418852,0.343409971413944,0.300970167067978,0.995325240428601,0.591354840856419,0.909201827011371,0.879866405001312,0.184544354598612,0.833418050435067,0.0513720445140674,0.00675730517335664,0.999309882042892,0.267888228036287,0.000202265351983467,0.0101728151681038,0.187129531692637,0.0330619520276826,0.0435770492117099,1,1,1,1,1,1,1,1,1,1,1,1,1,1,1,1,1,1,1,1,1,1,1,1,1,1,1,1,1,1,1,1,1,1,1,1,1,1,1,1,1,1,1,1,1,1,1,1,1,1,1,1,1,1,1,1,1,1,1
outputCount=1
weightIndex=0,88,5134
weights=##0
##double#5134
   -0.3700852063,-1.146600565,-1.4311215318,1.7134737707,-0.6851167733,1.2519521817,-1.3418990445,-1.7184866164,0.9291806989,1.8671959099,-1.0149949877,-1.3121593594,-0.5098529574,1.1562188703,2.692037267,-1.3360689553,1.1026182053,1.6627696843,2.2018479282,0.1164290777,2.5840734842,-0.3832062949,-0.6410314565,0.4616218736,1.4833163055,0.9196267822,2.1245045149,-1.0504070711,0.5883305089,1.1371654293,0.7775366534,1.5479701494,0.1114332722,-1.0872523191,-0.5408167089,-0.658974001,-1.0645298721,-0.6769567953,0.8234962803,1.2897652134,0.9123990229,-0.8843885577,-1.5384196326,1.8103852801,2.4861435359,-1.1396169303,-1.9194671964,0.8520505749,0.8566795496,-2.0800577592,0.925920053,-1.0818816443,1.9973156868,0.8163699904,1.1908874617,1.25085754,-1.6411256594,-0.7189188436,2.2613033514,0.6259646671,0.20515517,0.0475030449,1.0893711268,-3.2371156719,-2.2893423569,-0.2947696769,0.5163253098,1.2763718425,1.8408822035,-0.0150390597,1.6521280122,-1.7624284408,1.0145056589,-0.6533838464,1.1588456332,0.710293525,-1.4199246676,-0.9198959467,0.8559322076,-1.7599152017,1.1369091911,0.0860425258,-0.8479441375,0.8458714283,-1.9059476359,0.3576119749,-1.703354548,-0.5106300838,-0.1722504243,-0.4899801138,-0.3152540831,0.684218457,0.6029080301,-0.4958393843,0.9146698711,0.5377018695,-0.1490213282,0.0397748973,0.4667201299,0.86494186,0.3820012726,0.1688633739,-0.8867227595,-0.6942912274,0.6507704714,-0.6780987353,0.159873145,-0.6863500676,0.4355795398,-0.638882503,-0.4129954111,0.6208606933,-1.1620003779,0.7279535601,-0.2446265942,0.4919583743,0.171233044,-0.8988882302,0.6461969453,-0.0149568539,0.1413483821,-0.9435696509,-0.4886924085,-0.1698068168,0.6268756857,-0.7398670068,-0.0889200227,-0.0278515219,0.1408083028,-0.2626724447,-0.0607261676,-0.869782069,0.1012409328,-0.7018994943,0.4387335148,0.0370161556,-0.0229659301,0.0151724604,0.458427075,0.2597056936,0.6294992241,0.2517587988,0.9260067766,-0.0544635064,0.5138236408,0.6092020601,0.7934839838,0.59507463,-0.3585811886,0.6616697921,0.3495750554,-0.3766979712,0.8949430725,0.1794278289,1.13027067,0.6092391102,-0.185494358,-0.1306670171,0.5185915287,0.921394991,0.2308202234,0.6460672273,0.673101394,0.8157064452,-0.419277214,0.5076656601,-0.7227341971,0.3011328523,-0.0834968639,0.6699215768,-0.6324178979,-0.3946091783,0.6357461111,-0.7831014297,-0.9601408069,-0.5336895954,-0.2529556908,0.4361473167,0.211427452,-0.7964563778,0.7933460264,0.6147848915,0.5607852373,-0.8076589177,-0.1159096707,0.3619029674,-1.157470519,-0.5296060828,0.6941506721,-0.3545225081,0.0816351875,-0.9654112067,0.0272234472,0.7748022452,-0.4847363017,0.694592979,-0.6952784245,0.8264766991,-0.2103348157,-0.1798847764,0.1443423326,-0.5390719381,0.4974576742,0.7747891584,-0.409922679,-0.9269371988,0.606189296,-0.2962346782,1.0497089146,-0.4005784657,0.3452423951,0.9033130863,-1.0183700279,0.3516686035,0.2534231219,-0.7297957424,-0.9987765054,0.2350967091,0.4369106306,0.8770107839,-0.3176354483,-0.6124570595,-0.5173892103,0.2564674382,0.99455409,-0.2120664392,0.0876685324,0.9045796943,-1.2822683214,-0.1395466994,0.7621026212,0.0678908323,-0.349289835,0.0425046297,0.9796734021,-0.1055490582,-0.8758200931,-0.2386506181,0.7265360558,1.0998157102,-0.0725110635,0.1402056563,0.5966733156,0.9028623738,0.900521373,-0.4519520492,0.0682032496,0.7075629754,0.2236378796,-0.5518463235,-0.6618723521,-0.054778919,-0.6112812199,0.3501524098,-0.3128514919,0.8425524755,0.3797406574,0.785200823,0.4544234541,0.8716584462,0.7546184415,-0.1420001783,0.4955269493,-1.1573825659,-0.0939568593,0.5974337188,-1.0446648966,0.2256816561,0.4684360633,-0.2746075743,-0.4006819975,0.4622959956,0.2074464798,-0.415463286,0.3679864232,-0.7196490726,0.389664148,-0.743435467,0.0225205264,-0.0305196034,1.1955485462,0.2629542631,0.7216499105,-0.2828954845,0.9678834563,-0.553176792,-0.8368736593,-0.1114676454,-0.3078293878,0.7412402052,0.0837396363,0.5326175067,1.1525635182,0.206326432,0.8899553141,0.0081579334,0.4979499494,-0.9234803206,-0.0558436704,-0.1752120845,-0.1968298877,-0.168292048,0.3566836361,0.2091081178,-0.4155785087,-1.0384250133,-1.1972384482,-0.1284199803,-0.2885486833,0.773750859,-0.440456227,-0.5451612548,-0.1202255604,-0.8105960078,-0.1829854093,0.2331949614,0.8217710189,0.8135342523,0.8746873912,-1.0479048537,1.0446323552,0.719964759,0.0165230597,-0.3361195513,-0.7114981461,-0.1069515735,1.0692360679,-0.0345021826,0.0518617862,0.1402605573,0.556378874,-0.1195186831,0.1554480138,-0.7239890945,-0.4976795119,-0.1151002673,-0.1187182534,0.5081400128,-0.882460497,-0.8197758508,-0.0832614648,0.0997345884,1.0664022909,0.195477849,0.951998047,-0.7947412948,-1.1057445287,-0.4676586389,-0.1781953582,-0.7599478864,-0.3036909258,0.5766045826,-0.0646150074,-0.7084923316,0.8431689423,-0.2695869492,0.7741981803,0.1509225673,-0.3486298282,0.9011503986,0.640769333,-0.477152471,0.1867119526,0.3363377084,1.0278510819,0.0387737359,0.931722396,-0.5330445028,0.495851729,-0.4968033764,0.3605552157,-0.6884439327,0.6427164337,0.2705061196,-0.7947366762,0.1580109967,0.7786713092,0.050277809,-0.9418673054,-0.2883198468,-0.2279184385,-0.125066956,0.602144273,0.0732707056,-1.2386354106,0.4897191786,0.9083950017,-0.709381329,0.5483904396,0.8783353757,0.5514614434,-0.497102998,-0.785023458,0.8933939204,0.9704339072,0.5233096722,0.2222467855,0.7137387003,-0.1003042631,0.2458902608,-0.3446987072,0.6795534946,0.3116670662,0.2500569106,-0.6752729119,-0.2844863001,-0.4032124811,-0.5016970566,0.0865371931,-0.2256715603,-0.8938607944,-0.1879859896,1.2435882021,-0.6813751921,-0.7235877401,-0.2350697078,0.1626218432,0.3968685058,1.0366707591,0.7188592362,0.568235025,0.0073789041,0.0547654068,1.092925826,-0.291321403,0.4889179664,0.9501860334,0.3150820153,-0.2758886164,-0.6861931524,0.9007079909,-0.4791470966,0.3252704821,0.7676521385,0.6857338734,0.7511639621,-0.1936269107,0.3379655024,1.0601253976,-0.9118778441,-0.049939959,-0.6888050356,1.0435954822,0.7889505805,1.1284018681,0.0842290644,-0.7230747175,0.1473171834,0.7552186916,-0.0845094444,-0.9245143507,-0.0132900843,-0.2160585938,-0.9951864325,0.6083114162,-0.2299761847,-1.1385995103,0.8410282689,0.812446851,0.6669481697,0.5533293946,0.4654451378,-0.1760256659,-0.4467263523,-0.2404339534,0.0615364858,0.7885065251,0.7129662831,-0.6082233693,0.5068980436,-0.4763171625,0.8054744644,0.2221874653,-0.8310392639,0.6273577888,0.5218333271,0.7968551745,-0.4184857874,0.4508114237,1.334872205,-0.3305862578,0.101012546,-0.8495512271,-0.6658327701,0.3463126736,0.183035596,0.7979770206,-0.6259380766,0.1979572594,-0.1387264197,0.0210604441,-0.1036600875,0.4140869397,-0.2359033356,-0.8447243264,-0.9946779125,0.3204494245,1.0461729697,-0.3478959115,-0.5705540004,-1.2887380667,0.5083080398,-0.5846080942,1.0611649669,-0.7471247298,-0.0674931614,0.4170812856,0.9759017807,0.2904560498,0.8927953718,-0.6517998192,-0.5045639409,1.1806478084,-0.1445971583,-0.7613715598,-0.792805039,0.9453860043,0.760397001,0.4106635566,-0.4973697069,-0.0606363486,-0.4573555379,-0.8119049995,0.1082769171,-1.4447830701,1.0178148037,1.1892082211,0.8237860191,0.240365303,0.7237204553,0.4495117044,-0.3566304886,-1.2416497713,-0.5380915198,-0.3619035549,0.0608108916,-0.2053375748,-0.7284882079,0.0632078943,-0.8698123377,0.0975103989,-0.0587101277,-0.3931887347,0.1341987522,0.2825257863,0.4795501032,-0.7837304081,-0.1202963978,-0.9534785729,-0.1487732607,-0.17156043,0.1135262862,0.6259208639,0.9781763341,0.7200927387,0.0808701641,0.4677519136,-0.6692756138,-0.2274920707,-0.5493705282,-0.7755733426,0.6139645886,-0.6235911312,-0.5323137984,0.8014229234,0.627389358,0.4584672729,-0.9507182756,-0.4555610268,-0.3487610651,0.7450098233,0.5179845174,-0.5308358674,-0.7471455132,0.1398993508,-0.0631963405,-0.8331705325,0.9906019097,-0.0718850197,0.3530912827,0.9781702904,-0.9203895446,-0.9688329093,0.0612335403,-0.8020655658,-0.9042962926,0.1399946057,0.3616602948,-0.1616516892,-0.2187144047,-0.0040145825,-0.7779950423,-0.2357940382,0.4753826929,-0.6591201405,-0.0326467377,0.2237859353,-0.5114225476,-0.7148510204,-0.243056372,-0.2891775023,0.4580920386,1.1675373851,-0.5039267189,0.8779880506,-0.7728623598,0.8554093628,-0.6210380161,-0.6698420675,-0.00876886,0.366984198,1.0524140462,0.1031275319,-0.5132396136,0.950775315,-0.2894182984,-0.7446828198,0.1685088116,1.1576382477,-0.4941753606,-0.6221106452,0.5211554984,-0.1730422631,0.7722507862,0.3630934239,0.5834059782,-0.1992561088,0.0443119192,1.2120169049,-0.3137202358,0.0454461911,-0.6651567964,0.6117815049,0.1874149269,-0.5434873493,-0.6402511338,0.9239954996,-0.0284418858,1.0453668182,-0.7651038935,0.5157954544,-0.0261858741,-0.5041578604,-0.4936997255,0.6084885458,0.3772476427,0.9020106813,0.4434325967,-1.23968717,-1.085152247,-0.3341733189,0.1328309012,-0.7905021135,0.6660104336,0.9612315012,-0.526371173,-0.8853126811,-0.4914879053,-1.0679753876,-0.2126504561,0.3888121377,-1.0874014667,0.4257349671,0.0122602999,-1.1686635264,0.9779721696,-0.5121052009,-0.1533000938,-0.9928112406,0.3162405542,-0.5824712519,-0.9787868956,-0.1007931879,-0.0808214081,0.4333998969,0.8158380038,0.2956991488,-0.6658350813,0.8472432927,0.5806476329,0.9932702326,-0.9196976302,-0.6880595334,0.5418318247,-0.2711609186,0.2362649811,0.4310112576,0.9751517195,-0.2517735691,0.3051279472,0.9197083878,-0.4022877532,0.5050074953,-0.7057290401,-0.013494222,0.1576379573,1.168823301,-0.3008741267,-0.8056832893,0.6783889641,0.5347579423,-0.5033861139,-0.4203425908,0.8945586184,-0.2867588703,-0.0335413448,1.0514506436,0.4979995537,0.1518482987,0.023641775,0.1386431352,1.0826071341,0.7962882378,0.5007847196,-0.2230097676,0.5893575468,-0.400780365,0.0000556678,0.3841479062,-0.3975142631,-0.2442691158,-0.8943452472,-0.7594679773,-0.8187840963,0.5761984047,-0.4110231144,-0.7235888636,0.5504132591,-1.068815916,1.2845216452,0.7874237269,-0.6715755283,0.7859574284,-1.2813853083,0.6190354139,0.9145636817,-0.1281657398,-0.0098598777,-0.237439563,-0.2439720037,0.1165151888,-0.0503433793,0.7531663637,-0.1875738459,0.7660551116,-0.8065532715,-0.447323906,-0.3949895944,-0.249844105,-0.0140785224,0.9663049733,0.1908333665,-0.591888716,0.4824175295,0.2495897729,-0.8783926641,0.4140516273,-0.0062570553,0.0197865955,0.8824604446,0.0506098483,-0.5303661195,-0.3782648903,-0.0219948945,0.4385192025,-0.9428702582,-0.042195217,-0.2923512891,-0.3754014889,-1.1553593486,0.1297300056,-0.5709408795,-0.4849138598,0.0722051376,0.7533581169,0.0007640695,-1.012908621,-0.4093074359,0.2671275125,-0.2386863303,0.8790458353,0.9244618403,0.2147452457,-0.4350758084,-1.0251131089,0.4925616463,-0.8511626874,0.9601729524,0.6246146971,0.0980553284,-0.0057438284,-0.3006574435,-0.3817315065,0.3704487824,-1.0579256874,-0.5282871325,0.0377572692,-0.7930962358,-1.0277864872,0.2433070917,-1.091130602,0.1070465902,0.2739244475,-0.6073509848,-0.5908205422,-0.1449126852,-0.5883794546,-0.3393502904,0.1140621569,0.2771353955,1.2218726439,-0.6996039557,0.2330063555,-0.3850963733,0.673013085,-0.0366708356,0.8868185851,0.5566144591,-0.5818362999,0.1751254729,-0.2097937001,0.4477834107,0.5484877129,-0.5042869074,0.7724713279,-0.2796871303,-0.4895299043,-0.1158573201,-0.011451717,-0.2721340091,-0.5570883485,-0.2895280113,-0.3324127973,0.5637677218,0.7677002086,-0.5994385612,-0.5250580954,0.1956878841,0.5061046141,0.6583319321,-0.8141908569,0.0793948655,1.0905053877,0.1556084351,-0.2791776296,-0.0405104414,0.7984214977,0.0753466243,0.6608400186,-0.2190847083,1.268753321,0.7065916053,-0.4071944145,-0.2247898881,0.7753630862,-0.2787240431,0.2854622942,-0.282296348,-0.1937964347,-0.3303821185,-0.1387288373,0.0426736751,0.96418161,0.025990657,-0.4306940274,-0.4140427529,-0.0200018707,-0.0478233066,-0.2379083489,-0.4778286656,1.4193708165,0.1896839704,-0.8130462857,-0.8680225297,-0.9654895546,-0.4278136658,0.4729310323,-0.0761223068,-0.020233786,-0.7330770474,-0.4764221241,-0.0993238117,0.8571222974,-0.8168753596,0.8438886835,-0.4570887351,-0.4802276132,0.4918688539,-0.0886373556,-0.716127556,0.4034724147,-0.4085535615,0.1692109716,1.0034496667,1.1910581768,-0.6589465278,-0.6860964223,-0.6584341707,-1.004020037,-0.389371979,1.0604146396,0.0679056722,-0.0298292979,0.2375859814,-0.7921510594,0.3541421136,0.8646564738,-0.5895818395,0.0486845246,-0.038529162,-0.1861774739,0.3579842972,-0.0182603202,-0.285007229,-0.281174459,-0.4858705557,-0.5280001193,-0.548370471,-0.0921514206,0.212326306,0.1278567873,0.511172191,-0.0792560394,-0.1899306885,0.1643958912,0.0988015096,-1.6733888761,-1.4140317603,2.0294165885,1.3678707665,0.9465800254,1.092256657,-0.1298005104,-0.6257140636,-0.0795008354,0.225697034,-0.9391031003,-0.3562007279,0.5530884656,0.7917537394,0.1276377511,-0.3144020436,0.0249931785,-0.3173730386,-0.7840825551,0.8777185302,0.0080787345,-0.3046747322,-0.2758107401,0.2900025881,0.9917667137,-0.1071290477,0.0515653474,-0.0557691253,0.466196891,-0.3964745171,0.1667089127,-1.2548171026,0.7551833859,-0.5656664384,-0.3651202035,0.0330006364,-0.2795598418,-0.5850587661,0.3020415092,-0.2755391936,0.1700076641,0.227302699,0.84347623,-0.4312635826,1.0494119981,0.8239901681,0.7411068428,-0.8105639524,0.0300890118,-0.4108246168,-0.806751131,0.5087276524,0.2392909124,-0.2190033096,0.4832635444,-0.5077807305,-0.0050457206,-0.1505378827,-0.2338503966,-0.7325836073,0.127450406,-0.1299121951,-0.7034650026,0.0331627267,-1.325404771,-0.4503620533,0.1477676957,0.2478327757,0.250576599,-0.9436335786,-0.3222325003,-0.7564937864,0.6926471749,-0.9482754296,0.2461049965,0.9439679429,0.0418495803,-0.6042187183,-0.9375667726,-0.5963387253,-0.5279162534,0.8477857408,-0.2469578721,0.6446780975,-0.2163688534,1.1009053754,0.9575016563,-0.3721546849,-0.4326475749,0.6794131435,0.6753308674,0.2383967582,0.3579810036,-0.4724876971,0.67078497,-0.6370113231,0.9107726455,0.4720100839,-0.3006358758,0.9160326586,-0.2766315747,0.4721857279,0.5766220204,0.4639698689,0.5486419312,-0.3960683168,0.3573631584,-0.3105385692,-0.737564392,-0.4643802523,-0.3352235437,0.2719439707,-0.86528471,0.2910059824,0.3454320708,0.0643789698,0.8149937294,-0.112181448,-0.466849754,0.1477176654,-0.2527213812,-0.0957040362,0.109519445,0.746220211,0.4047786752,0.8367867189,0.6416297986,0.6863619535,0.6125075234,-1.0022374722,-0.6570257124,-0.292414057,0.1052503483,-0.3836384345,0.674749887,-0.8835379067,0.1326260963,0.5036027022,0.1277244631,-0.8353078354,-0.7694549537,-0.8901156988,-0.9471353583,0.7321358905,0.3809785758,-0.6103587215,0.0265424248,-0.541145246,0.1258311487,-0.1117315625,0.3161772555,1.0638333098,0.5003483312,-0.0197422132,-0.7251032849,1.0209332434,-0.9239095893,-1.0664593049,-0.0360882893,0.3328016472,-0.6535053288,-0.3611605905,-0.1104321886,-0.3137518298,-0.5753510872,0.0070697023,-0.3477110519,0.7227552482,-0.4618909454,0.2278800717,-0.5617259605,0.7299410284,0.0085030141,0.7188742735,-0.8586413848,0.6674108879,0.988828447,-0.7231869811,-1.405139876,-0.3528259197,-0.6040700467,-0.980989093,-0.8465680871,-1.2082320792,0.8031731999,0.287814126,-0.2860330757,0.509814206,1.0787812236,0.9133309488,0.1655357263,-0.1393501611,-1.1876963442,-0.5847425363,0.7288501634,0.7108412653,0.6790643538,0.1792427536,-0.5114484124,0.6564758189,0.9197629963,-0.5010093886,0.0284029338,0.5720580145,-0.6623065855,0.6298400943,1.0462922544,0.7806596225,0.5161722039,-0.9299623151,0.1384241422,0.2169190137,0.1330015393,-0.2604061771,-0.7873874386,-0.139911461,0.0005042472,0.7634879673,0.3826661184,0.1950687695,-0.9934500483,-0.1357241105,0.5041857822,0.2991410804,1.3475449908,1.6307622484,1.3645231993,-0.2080927042,0.6825209251,-0.9852887835,0.5169424345,0.1148684488,-0.5592681378,0.8435299493,0.4611397512,0.7228544116,0.1483021329,0.42905698,-0.3918085779,-0.2518458093,-0.7496670211,-0.0519912035,-0.6199388374,-0.2029981129,0.3793733823,-0.4092314458,-0.0476730078,-0.9457501991,0.2796846805,-0.81348633,-1.3548787674,-1.4090081445,0.1117351459,1.0067776623,0.1500378503,0.2199362947,0.4128080456,-0.7640456697,-0.1368299808,-0.1558870775,0.6834951897,-0.8408362457,0.2952757321,-0.8724630169,0.9302967501,-0.2369103533,-0.9262183875,-0.7931240085,-0.8888997768,1.1045457599,-0.2967551151,0.0646560335,-0.1404350967,-0.3884262543,-0.003227613,0.1938980045,0.3577838011,-0.3598694986,-0.7725338415,0.5497957169,0.2116060643,0.3636655867,-0.6368472405,0.9936639003,0.8646917266,0.8315135219,0.5837255909,-1.1264585413,0.7447572743,0.9089033622,0.055847434,0.3113500733,-0.3366425757,0.3016409506,-0.0212917676,0.7190517299,-0.4965397049,-0.1908753445,0.6852832171,-0.0837358908,0.1662454882,0.6785884843,0.0528342075,0.5869230081,-0.2684266026,0.7128844523,0.103035132,-1.0095073028,-0.4833418478,-0.4748162327,-0.2138898457,-0.1099632419,0.4391720053,-0.0159309758,0.6761804362,0.5362585122,0.1653620084,0.7061492781,0.6211134996,0.5205165176,0.2468507788,-0.0017149085,-0.3232759812,0.3344990465,-0.3209062218,-0.1121276122,-0.3619694083,0.2784687145,-0.7220872853,-0.5714976929,-1.137937747,0.6049567234,0.8258503421,1.3495032341,1.0541534115,0.3388467516,-0.2104774275,-0.2616749236,0.2945806434,0.0061248432,-0.0317328455,1.4507431445,1.1192462931,-0.3682039061,0.2403067641,-0.0476660228,0.251189564,-0.707364947,-0.2464604838,-0.1593644248,0.9686024782,0.0857776014,-0.3744589176,0.2256523904,0.0878759817,0.292576454,-0.3654817905,-0.2471736637,-0.6081733305,-1.4211059489,-0.1349370333,0.4490938375,-0.3990896652,0.0858649215,0.7130491682,1.0289764763,-0.0465281823,-1.3776588716,-0.6746519947,-0.6633844074,1.0945722886,-0.1196634102,-0.5629341808,-0.4650008775,-0.1345096238,0.0940716192,-0.5859709909,-0.2861168877,-0.5146128117,-1.4858415247,-0.0584943904,-0.0155380234,-0.142793487,-0.5357134378,-0.5870456687,-0.2870937452,0.6316458803,0.319935197,0.3617139415,-0.3751554522,-0.1780351614,0.6853244676,-0.4659986154,0.6123382269,0.7916564137,0.1466584032,-0.3828852971,0.7732756266,0.3206052797,-0.5355022634,0.2249695417,0.2793378408,0.4230912801,-0.2024427631,0.829029198,-0.439139691,0.8602631807,-0.4511253736,-0.8152377405,-0.5280645048,0.4716305647,0.1579369234,-0.5533367143,-0.8666877262,-0.7868146056,-0.260249744,-0.1997335042,0.5561962892,0.5909764658,-0.9624849221,0.5610255214,-0.8131658658,-0.9002410283,-0.1736696182,-0.8597176994,0.2510108302,0.0807177551,-0.1892183095,-0.0276045295,-0.1858139027,-0.348037356,-0.3064585621,-0.8462969588,0.4951694781,0.020224511,-0.8109594249,-0.5096849448,0.0973823059,-0.8531514052,0.359279691,-0.5100006124,-0.6754821886,-0.7630078528,0.1139480654,-0.2271614083,0.8235771241,-0.5008807869,0.0073328973,-0.2530599187,0.8263466498,0.5627851472,0.1224334001,0.4633645757,0.6382058802,-0.1605071455,-0.2623576388,0.9222173843,0.037695433,0.3069253007,-0.9530774835,-0.6029143355,0.2614213386,0.328530216,0.7588757136,0.2232703325,0.2900809229,-0.5944765078,0.7694280678,-0.3777965721,-0.0383428374,-0.1838560078,-0.1680281269,0.6452442626,0.7185814133,0.0789893112,0.3786405938,-0.5324205298,-0.6564941789,-0.4766653116,0.4688574477,-0.3592487105,1.1702840321,-0.0293363504,1.0728417507,0.9079216697,-0.7442396416,-0.4175295274,0.3644059012,0.8805329289,-0.0752292382,-0.2777499682,-0.0867368332,-0.7256293913,-0.0901025832,0.3413569691,-0.3914094573,-0.2107159958,0.7132034402,-0.3832959706,-0.8129173703,0.1509094639,0.7813283032,-0.6178443731,0.0126098147,0.8523180506,-0.6491897904,0.7632373728,-0.3836788787,0.828908529,-0.0542988252,-0.5500976869,0.8247611714,0.3167420472,0.6464684367,-0.8497532345,-0.7079929481,-0.1773181949,-1.0324849095,0.7852814446,0.6986279772,-0.321053823,0.9451593255,0.7718913563,-0.9532833004,-0.8229406477,1.0020873004,0.9244697513,-0.3842579362,0.5059930234,-0.3487431421,-0.2518020243,0.4905222617,0.6350212631,0.5309032517,-1.0906288471,-0.8173601365,0.8401760281,0.2132672598,-0.695298753,-0.984746239,-0.354501276,-0.8574501431,0.4892591861,-0.8619637357,0.2452685991,-0.6702834613,0.5630856971,0.323537953,1.0286595647,0.0713178226,-0.751332302,0.1221315111,0.6749785905,-0.2635031081,-0.6490702461,-0.0967175538,0.5303744035,-0.2596868962,0.7710595961,-0.9369133516,-0.562342893,-0.5210709765,0.2089696669,-0.048740805,0.0666296624,0.9403207659,-0.6094098849,-0.0565102804,0.9269167146,-0.5995343464,0.7558401888,0.6532004983,0.843047903,0.8329899967,0.4573170969,-0.9723474661,0.1498982147,0.722894273,-0.1507106952,-0.8584938195,0.1095667068,0.6721884261,0.208047185,-0.4308398667,0.5431160768,-0.4504745396,0.7057772415,-0.5704922716,0.7881855848,-0.6885282046,-0.9801202061,-0.0010459562,0.2953316792,0.1876869046,0.3763748125,0.4003321002,-0.6443095636,-0.9578149873,-0.5039331306,-0.6681969363,0.8036031545,-1.0195950912,-0.8010773149,0.5711975812,-0.5302654617,0.4056669532,-0.4200610319,0.1036761117,-1.2884165186,-0.1216344575,-0.1944884782,-0.4532418907,0.8997546717,0.3257489982,0.9213807349,-0.1249688546,-0.6734563123,-0.1367899534,0.9867442287,0.6727579058,-0.2196562455,0.5482541045,0.6726072541,-0.1585614311,0.9141053527,-0.240149673,-0.1300490357,0.0821836249,0.2696079363,0.6584646363,0.0137365109,0.919645608,0.4179652902,0.2281996448,0.235699259,0.2881764336,0.1683145649,-0.4393791109,0.6346653401,-0.1119826835,-0.0561235896,0.27063978,0.2896944646,0.2653097282,0.4174009986,1.0843386185,0.2331593747,0.1478246324,0.5974209868,0.1232031731,-0.5778489817,-0.3202150369,-0.923742208,0.4749477263,0.6417019086,0.873317005,-0.5516149996,-0.8575818768,0.6851952295,0.6753130562,-0.4452180054,-0.5784487386,0.7044774344,0.9819717653,-0.5173356902,0.4276179422,1.101126078,0.6264989379,0.0520011565,-0.7280485894,-0.8367870405,-0.1392721651,-0.5272660811,1.0671042375,0.3482493885,-0.3127817385,-0.0686887433,-0.6175679651,0.8250869942,0.7159562981,-0.7479846522,0.2926947608,0.2239648183,0.6613891047,1.1639508905,-0.0761651033,-0.1544238463,-0.7907538145,0.6806371734,0.1340364735,-0.2862722413,-0.2045266323,0.2098508473,1.2809836614,0.5811238684,0.7719972735,-0.1686250494,-0.3007439655,0.7102126671,-0.6910941961,-0.4791594306,1.0120939497,0.2294742392,0.8308177812,0.9514520439,0.2828267395,-0.5668298191,-0.4926033919,-1.4725154962,-0.6857919942,-0.8985517556,0.4774668443,-0.0225409527,-0.7961937228,-0.8594152332,-0.8183998612,0.4217341955,-1.3975988562,0.4375706765,-0.6881589749,-0.1019192858,0.2815648757,0.0161254646,-0.1812724987,-0.5535908141,0.3357451628,-0.5330685347,-1.2551679929,1.0070889714,-0.2187264337,-0.9608555365,-0.6255947591,-0.2946730333,1.0678994691,-0.5782873198,-0.9422590056,-0.3879695399,-0.3671574716,0.7733434304,0.5163669148,-0.5656260492,-0.4281026019,0.2413241263,0.4774100668,0.2930604584,0.3727728377,0.362276573,-0.6243372274,-0.3415520211,-0.6697849296,0.5341533427,-0.1678093513,-0.7395507184,0.9304143638,-0.2897736537,0.3318261224,-0.6158615138,-0.5332271212,-0.8241809258,0.4668469253,-0.2592569693,0.8047182,1.2664832176,-0.4078285177,-0.3390259899,0.3913260779,0.6016221215,0.2031702239,0.0975295674,-0.4776771971,0.0057656263,0.2962950142,1.2867901325,0.9121214051,0.659168469,-0.2924774761,0.0373404819,0.150302081,0.2608094508,-0.5448470611,-0.1297946923,-1.1410372434,-0.1926408512,1.1044566439,-0.5702372386,0.0351471713,-0.430151746,-0.6956129584,-0.8758055982,0.7259390842,1.0109937569,0.221702662,0.7027823323,-0.4902767164,-0.5716195832,-0.6866345734,0.9988224242,-0.1464787285,0.8665341608,-0.8272623718,0.4535147015,-1.2430087368,-0.2079251028,0.4970550285,-1.1404940169,-0.5409936766,-0.871445147,-0.2465636811,-0.5012956805,0.8770707736,0.439220715,-0.0155728559,-0.33698894,-0.9799308813,0.2916628183,-0.7832902773,0.2203470394,0.829382508,0.5856810722,-0.7317307036,-0.5523091238,-0.4630193323,-0.9236553668,-0.3110884091,-0.4479244436,-0.0332398437,-0.6319473317,0.2284833546,0.0778331554,-0.1977227357,0.2626169771,1.1738821498,0.2527750052,-0.7372890206,-0.0383318348,-0.8116207562,-0.3250325542,0.2903615253,-0.6731529546,-0.3465859494,-0.8163941763,-0.1374877019,-0.0817862706,0.6646988841,-0.7462510095,-0.4361900772,-0.6021904348,-0.8683585058,0.4427513899,-0.4288464919,1.1039905883,-0.2005599804,-0.4923618382,0.7111890298,-0.2559695313,-0.4189633679,0.44093601,0.4920267101,1.3177263771,0.8849643038,-0.1987777302,-0.3709131692,0.6531813635,-0.2759729354,0.132314721,-0.1763324028,0.7227389906,-1.0042705922,0.1354758782,0.9336830575,0.6486262807,0.6843870987,0.5704259271,0.8349016543,0.6425473574,-0.5340686622,-0.8742410659,0.7015839661,0.5752105227,0.2914812224,-0.6127121504,-0.8831733596,-0.9823882237,-0.4518208817,-0.0680666409,-0.3349588204,-0.2244771162,1.0721545973,-0.1545127886,0.7434612353,0.3902906591,-1.2245271623,-0.8400752451,-0.641730726,0.3323863886,-0.4948267642,-0.0872661432,-0.1863889017,0.1073874913,-0.0543186719,0.1378838166,0.9108914334,-0.8195853673,-0.5880075391,-0.066143752,0.5403226276,0.8475412702,0.3584674413,0.8031829713,-0.0083522629,0.6988586327,-0.0818596527,-0.267818061,0.6406052236,0.0922691243,-0.3666390496,-0.5871684658,0.4385335053,0.2391362186,-0.0567083258,0.3676292586,-0.1090673223,0.128478787,0.7726607391,0.7005794437,0.5749154573,0.5463917286,-0.1189060212,-0.5933953758,0.3082377337,-0.071598642,0.7372743775,-0.9300339936,-0.7586392638,1.0099735547,-0.4100118903,0.9213425328,-0.4728553374,-0.1149649429,-0.3409257135,0.9885915947,-0.4082193745,1.0760119298,0.7447549247,-0.8662440682,-0.1465339897,-0.0749986515,0.2557659485,-0.6148214398,0.1995440704,0.2058961274,0.3194385245,-0.3979613554,-0.962991765,0.4094111027,-0.7617616154,0.5801765382,-0.9465785402,-0.416975133,-0.5282334691,-0.0533171865,-0.1027718567,0.7972048471,-0.7771252992,0.1904541175,0.8072026704,-0.9240514882,0.3784736269,-0.8075562355,0.8413017196,0.8796151125,-1.1073760743,1.2040553169,-0.5723493938,0.6540471867,0.0748229177,-0.281920783,-0.2112377391,-0.1376899803,-0.4394305377,-0.1202672406,0.1578834301,0.5072568704,0.2578216485,-0.4655310239,-0.448453012,-0.1051873303,0.257414148,0.7755160085,-0.1349611316,-1.7159976219,-0.8245179767,0.379938359,0.6453089987,-0.6514284955,0.2757178857,-0.7948994543,0.4911081329,-0.0188346182,-0.7824207427,-0.5394861542,-0.9391831469,0.0844616723,0.809947864,0.3204503311,0.5455606902,-0.0279107009,-0.7482563472,-0.6345616285,-0.6594330493,-0.4358738753,-0.3490644913,-0.7839125438,0.7057775952,-0.321686762,-1.2189533827,-0.0564943522,-0.0374470845,-0.2046501306,-0.8174286124,0.3551453213,-0.6042967045,-0.4760761752,-0.37514804,0.9462475342,-0.8774451963,-0.001996136,0.3657839424,-0.1084068635,0.6695239636,-0.003934363,-0.2759442075,-0.3194057267,0.7238648231,0.3525591672,0.3741060745,0.2645336562,-0.8790674565,0.8627181706,0.2209322904,-0.4627579351,0.3833051375,0.1053142129,-0.6744607675,0.3706038492,0.9983570401,1.1028844224,0.3202028184,-0.6494569842,-0.387964837,0.2672498812,0.2511239439,0.6351200395,-0.0298449608,0.2255129798,1.0774881281,0.9718599987,-0.0201561066,-0.2493821608,-0.3712225461,-0.7496306242,0.3961919969,0.095559037,0.6522179941,-0.5451970351,-0.9096538199,0.5229515635,-0.4191431722,-0.730780852,0.3133685489,-0.1268205845,0.8006871263,-1.1915867696,-0.7695250892,-0.8437336557,0.4204284729,0.4786310486,0.5209973707,0.0810152482,-0.3459763472,-0.3071702322,0.4387122153,-0.7799145863,-0.9290038087,0.1488434111,-0.544392466,0.996217925,0.0484058271,0.4887223562,0.1273519817,0.5276008456,-0.6853473833,0.6658782861,0.0180690921,-0.4112516584,-0.3132605556,-0.7654363467,0.1333576211,-0.4521539112,0.0870514125,0.1679113312,0.3860004971,-0.7198840531,-0.1401338559,-1.1298565622,-0.4804906233,1.3757427978,1.6656354743,0.6799585777,0.8335134145,0.1048461433,-0.0937033992,0.1531344453,0.0001223076,0.3736384999,-0.4035243643,1.1118307764,1.1123735598,-0.4216569268,0.288659143,1.3669834596,-0.3426687464
   -0.8885574954,0.2507852957,0.0911189445,-0.3145589897,-0.7179912886,-0.7528389925,0.1146282976,0.0601603089,-0.8355804906,0.3005940257,-0.1210028228,0.7433131769,1.0235520249,-0.3695001907,-0.1869902354,0.2268166161,0.7334335913,-0.407485927,-0.9365936329,-0.5059391415,0.3014987765,0.7430748135,0.0031396124,-0.7930420099,0.9626644441,0.2905507847,-0.5867478758,-0.6486643174,0.5631949193,0.7684876152,0.6272072288,0.7635692945,-0.4397971796,-0.3300418034,0.0740297871,0.0998546267,0.407849736,-0.2294925773,1.0157063282,0.4118325015,0.8145780024,0.3788938207,0.4085559906,-0.6341115956,0.476974928,0.5911762829,0.9883969134,-0.3365020049,0.9846692546,-0.3228246464,-0.4679655367,-0.3766134966,-0.6759078373,0.6080378379,-0.3823155667,-0.7772421331,0.4443853914,0.6523558157,0.4424914486,-0.208005826,0.8044823787,-0.3291710989,-0.2162406715,-0.5058827121,0.3007878039,0.1913491128,-0.4956945935,-0.150067375,-0.8999714618,0.1981997713,0.3084784749,0.0578641253,0.2130098734,0.5195996202,-0.813264002,-0.5366027693,0.2422464112,0.3912709584,-0.3359495348,1.0288714789,-0.5332264061,0.5968379025,0.6580073676,-0.5163440945,0.7855273345,-0.0625689676,0.4902072288,-0.1090138985,1.1271401591,0.3630089779,0.2252777544,0.0862907408,-0.055425713,-0.9417908297,0.3919323959,0.6430177811,-1.0043308309,0.5876313793,0.3613596001,-0.2853019348,0.8543465484,-1.0492818245,0.1579862367,-0.2881163074,-0.7151781738,0.918377498,0.2971768402,0.6022242136,0.5876554189,-0.7644140874,-0.7816281385,0.459065468,0.331112954,0.0795795338,-0.2615613267,-0.1210699269,0.1425730513,-0.796844079,-0.3273283804,0.7463694464,0.0559323974,1.0818991991,0.2987034779,0.8086773877,-0.1125238098,0.1297960952,-0.4545140972,-0.2405402157,0.5638515308,0.3144702276,0.5211101429,0.2897246928,0.9565250638,0.0547642226,0.3874709366,-1.1249978515,0.6399567122,-0.0351367529,-0.7084761916,-0.0773608605,-0.6171508335,-0.4134429901,-0.8364121296,0.2766007279,0.1806892011,-0.2980109054,0.7819095807,-0.2907576068,-0.6645117076,-0.8425150086,0.0543406078,-0.7289292162,-0.8750120538,0.2317769865,-0.7934694693,1.1944132843,-0.2910122746,0.2389606143,0.7219213268,0.7107678361,0.3749842007,-1.0085754362,0.2211337577,-1.2537486205,-0.7552375829,-1.1068222027,0.5708390657,-0.0684648555,-0.4179794539,0.1262571106,0.9012719659,0.628265708,0.3475942672,-0.7039854301,0.1545526348,-0.5021928827,0.8818628608,-0.3472841254,0.0224930447,-0.5602543905,0.3010797197,-0.3239127875,-0.7673948397,1.0181297851,0.2656121558,0.7539928043,1.0103269962,0.8925554866,-0.6363352469,-0.0720140178,0.8838246652,0.0483174777,-0.497868081,1.0051518903,0.765588892,-0.4191304166,-0.5881498481,0.8044186057,-0.2539930836,0.2682226802,0.1240829908,0.6081726619,-0.1771329722,0.2007509725,0.7266333835,0.9707578431,-0.0652648704,0.0146440481,-0.3327919899,0.567181934,0.9743164708,0.2172947258,-0.0494663107,-0.7671015539,0.7736022272,-0.2379452358,0.2214692236,-0.0102127399,0.3556424013,-0.5181832677,-0.4705186613,-0.3820984348,0.7234805058,-0.608081633,-0.4161776046,0.7943277669,0.5239120155,-0.3552848742,0.0567588072,-0.1882243271,0.5387122168,-0.3116353302,-0.6111930841,0.1099613611,0.7322206077,0.5986253803,-0.3602313805,-0.4489517429,0.4748979372,0.6872939855,0.3252928969,0.080581659,0.2576175618,0.1905109767,0.439805137,-0.6915390851,0.5477856013,-0.3130629278,-0.888723125,0.9755504652,0.505420503,0.0579015744,0.3709388578,-0.6389277369,-0.2393610027,-0.7737512827,-1.0103565915,0.5427762152,-0.3049058682,-0.5683635562,-0.7423506803,0.9993977389,0.6664374982,-0.6320723859,0.6365913752,0.5337587318,-0.6612451301,0.5109399247,-0.0728858919,-0.068852845,0.1878244209,0.3694904304,0.5460502237,-1.0036771055,-0.1322023027,-0.3284349197,-0.1721683165,-0.301771224,-0.4012439592,-0.1368911777,-0.2270782487,0.6694922222,0.3611054772,-0.4778743196,0.5560381963,-0.5639825837,0.8087372395,0.878661318,-0.8919995911,-0.5227595305,-0.7417325178,-1.0803448842,-0.9492526183,-0.8446059958,-0.7080294515,0.480649638,-1.1380300163,-0.4622828924,0.2709733932,-0.2459332252,0.0122520173,-0.3303079426,0.0355432386,0.0312035911,-0.8778195571,0.968252117,-0.2209264376,0.1395457756,0.1704305876,0.3919993287,0.6245780377,0.296341987,0.7896167439,-0.8936006239,-0.8822193992,0.3616989347,-1.0691556944,-0.1370528524,0.356436412,0.2420403632,-0.2740784936,-0.1140431689,-0.7457198962,-0.3565693051,0.0424273617,0.0412074746,0.3765938492,-0.5115730476,0.7927923771,-0.4084390718,-0.0433570873,-1.3098814922,-0.629498462,-0.2743678987,-0.0947488821,-0.4459987048,0.3758985278,-0.6549443844,0.2436819887,0.8519655654,-1.014011613,0.1821273482,-0.96550844,-0.3121425262,0.0950312656,0.1938347986,0.1375718647,-0.4813889347,-0.2559100305,0.3528565201,0.0085973918,-0.7389701823,0.6147670878,0.6734105657,1.1882044313,0.5871242443,-0.2856916178,-0.4199807959,0.9894764989,-1.2461265917,-0.5838013471,0.7706289508,-0.3592069525,0.5412444818,-0.3084868886,-0.0594026522,0.4646232832,0.1195656319,0.2055879784,0.4632279842,0.2665862688,0.2288815383,-0.0653838322,0.8308706919,0.3845360306,0.7528915027,0.6929691905,-0.6831090493,0.448868977,-0.8209473914,0.3687648378,-0.2243581159,0.6684489447,-0.5250965205,-0.4767225359,-1.2339333544,0.6651604157,-0.0507043278,-0.125524564,-0.3767410947,-0.1497460553,0.0851444841,0.5640479156,-0.9795111423,0.556787372,-0.5703809679,0.7939447475,-0.9569984036,0.8750822753,0.5182324342,0.31403227,-0.6324090652,0.7998691929,1.0150526414,-0.2242077421,0.3692211731,-0.5583679764,0.2044196891,1.2813460535,-0.6317898564,0.0616007688,0.7541244534,0.0464027565,-0.0566470723,-0.2485907847,0.2168958617,0.7797245065,0.2402283969,0.7016971543,-0.1171522517,0.2000929676,0.3581798119,0.5544813563,0.8056906994,0.7243715225,0.2791384058,1.1844337723,0.3421408576,-0.5592303157,-0.5338986536,0.7924890588,0.6232730971,0.0704358482,-0.1194401875,-0.2989503798,-0.3885881898,-0.8808834069,-0.2171574697,-0.4139311363,0.6226253275,-0.3323064507,-0.0986235383,-0.5594413802,0.3946877639,0.4265356307,-1.221848375,-0.3296715477,-0.3192010566,1.1695112911,-0.3232741062,0.2704853687,0.3902870239,0.2112560995,0.2691963005,-0.4488181809,-0.2342617884,0.8131086017,-0.3112716486,0.3068628862,0.805831852,0.6262173969,0.4728953448,-0.4441844779,-0.1945493886,-0.2714243114,0.8372739826,0.7594096918,-0.6133790103,0.1276339806,0.8084710304,-0.1241492714,-0.6900646367,-0.4338875271,-0.7572932219,0.1263462679,0.2495747552,-0.2267753224,0.5454762223,0.2526183042,-0.3210431458,0.3506054182,-0.1080226966,-0.0845942241,0.3274284548,0.8133707892,1.1220205816,-0.1467696517,0.6785162702,0.0209373068,-0.035068136,-0.0832496856,0.2376840062,0.183269717,0.4410028304,0.4174360919,0.1220072623,-0.0450650224,-0.7218862688,-0.8978899034,-0.0762528847,0.1548978333,0.2061285785,0.1335045735,0.7171548722,-1.0087971696,-0.475624941,-0.433908058,0.21322414,-0.3813559539,-0.0166855049,0.4184495007,-0.5228088569,0.6006045146,-1.2182224097,-0.2203142128,-0.0177084124,0.2567402933,1.0545706293,-0.0468108027,-1.0320152217,0.5913658246,0.0210193048,0.187612525,0.7131959731,0.2042245234,-0.528718236,0.0232553537,0.5899260109,0.2160262577,-1.0306013657,0.4754746113,0.1439301131,1.2372511471,0.017448236,-0.9826856409,0.2189122142,0.4571719353,-0.4999555627,1.0641660051,0.1356662645,-0.6197303971,0.878205677,0.9533838131,-0.9717907064,0.463394483,0.3528582166,0.5603718033,-1.1680819497,-1.018971069,0.4895697892,0.2358440314,-0.0539868498,0.0513077099,-0.5143289156,-0.9980036132,0.2559174865,0.6394531136,0.4299781939,-0.2585087941,-0.9584799526,-0.0076840396,0.3627590535,0.1831880362,-0.9903019196,0.1189622348,0.6004583269,-0.0832445453,0.2932759592,-0.2160642266,0.7932052751,0.5269393151,0.325956659,0.1191588953,0.3013376664,0.072834092,-1.0997485816,-0.9298919998,1.1790594195,-0.0700607165,0.3781978642,-0.1838685515,0.4761917952,-0.7731056684,0.5715209617,-0.795275759,0.0680481723,0.5659142083,-0.9114553475,-0.6921488214,-0.2886635635,-1.3670639281,0.8902621648,-0.8030496066,0.2906890323,-0.5601357663,1.2314027041,-0.0639607356,-0.7665737942,0.966856381,0.0703334168,-0.1248933436,0.0994965555,-0.6641460655,-0.8670246968,-0.3194617474,0.394995764,-0.2426844513,-0.7876616945,-0.2673477334,-1.2014496858,0.2555975725,1.0264184525,0.3664495255,-0.1062484728,0.4225230472,-0.5786490222,0.0643916912,-1.1376254153,-0.4802695963,1.5019275422,0.5575833436,0.7513261342,0.3671656681,0.4911449641,-1.0255517866,0.2985514003,-0.4122823884,-0.7247386235,0.8249776145,-0.5087918815,-0.0733560748,0.6425926473,-0.3274849177,-0.3180570863,-0.0176579149,-0.4973933405,-0.2314537537,0.1123188142,-0.534451271,-0.1173498289,-0.5736215858,-0.0483189439,0.1133652103,0.2948933455,0.6132218287,-0.6362791342,-0.1850016013,0.3935975242,0.2390333547,1.0547661677,-0.9266811889,-0.4807365531,1.211332903,-0.3909919613,0.3109178647,0.65885364,-0.1744080988,-0.2574360815,-0.845988882,-0.6940955981,-0.9090006745,-0.1052256468,-0.0363291071,1.1169268381,0.3537619285,-0.828661131,-0.3878456659,-0.3022566237,-1.2879689729,-0.2018394193,1.1204561814,-0.6579931541,0.6495866824,0.8009728366,0.3646742208,0.5074295287,0.8041133268,0.0916891119,-0.5850347659,-0.0963110851,0.0577430313,-0.2707249719,-0.6437834594,-0.8575305762,-0.3664402379,0.0137391797,0.2624593589,0.3749895623,-0.886037281,0.0768826958,-0.6001681023,0.2421653541,-0.1012514305,-0.2574578282,0.3211484244,0.306574031,-0.7854825577,-0.7211147789,0.4812502342,0.1332712958,0.4916574993,-0.257031379,-0.2072633293,-0.7575324095,-1.0899104433,-0.896615926,0.8907018482,0.0202175961,0.0918881602,0.6449209142,-0.5022033583,0.7633257458,-0.0125002533,0.6875500912,-0.6084105259,0.1319433376,0.082189143,0.6305346441,0.420679214,-0.2544536348,0.2062548953,0.5280708303,0.0159851166,-0.5976532949,-0.5419817372,-0.4055133759,-0.58828663,-0.465224907,0.9150800458,-0.5410106395,-0.2325685792,-0.5407811555,-0.0089226269,-1.0587390017,0.8010208492,0.2853746477,-0.1453014539,-0.6795134953,0.6686356217,-0.0670824896,0.0672215377,0.4210795486,-0.7120796929,0.6111888921,-0.5978871773,-0.5645276601,0.9816687936,-1.0001647435,-0.2443466351,0.4609597933,0.3813649115,-0.5660668333,-1.1209595346,0.1371346381,-1.206616883,-0.5708184481,0.5798102528,0.1869445888,-1.0694816568,-0.6633393836,-0.0001318771,0.3306678519,0.5987301744,-0.7799126245,-0.1019247475,0.1487076424,-0.7832884508,0.2622415231,0.2685905276,-0.3833590584,-0.914168656,0.1859474638,-0.3216475412,0.7793662022,-0.7178952036,0.8144566456,0.7649805325,-0.5480977493,0.8892784177,0.6818393307,0.5699810846,0.5298516573,1.009815998,0.4040395943,-0.7599401135,0.4261383971,0.4730447899,-0.7654444946,-0.3873363676,0.445187241,1.0862980127,-0.163122631,0.6852667252,-0.177147897,0.056806952,0.3981230568,-0.7800665493,-1.2329416223,0.4102305658,-0.4495730675,-0.2879917656,0.6593458334,-1.2356181759,-0.7291918543,-0.5481336594,0.8581918667,0.43738516,-1.1822410148,-0.1956763761,0.267351047,0.3439173979,0.8411782865,0.5703438856,-0.726253224,0.6183132398,-0.7506815475,0.4713870335,0.5736340518,-0.404302789,0.2485066308,-0.662225516,0.6752823117,0.8732663164,-0.690902446,0.3317655814,-0.4958546733,-0.3107662082,0.5038423105,-0.2199497487,0.555712722,0.6423646021,-0.7312194324,0.3874172899,-0.8465825666,0.5470404877,-0.0423574263,-0.2320682305,0.9314999573,-0.8931063704,0.191317358,-0.0589316194,-1.0927912938,0.9521632198,0.0904393475,-0.520671562,-0.6161677037,0.3722754062,0.7220770065,-0.0641776802,0.5396179775,0.4847425998,0.3801654401,0.5907131131,0.7859305424,0.5772367549,-0.2807849737,0.0603984402,0.3109014065,-0.065654928,0.3088273511,0.2475981516,-0.3727238091,-0.1321121609,1.1187905089,-0.1048562682,-0.3772315059,0.5109711684,0.0608994836,0.4370915862,-0.8725185887,-0.6737711239,0.2593239991,-0.2831402377,-0.9224338914,0.0578082353,-0.195233256,-0.2171297213,-0.8237997769,0.4013808631,-0.7760769181,0.269870705,-0.1989786612,-0.6850181678,0.069803787,-0.0757397129,0.2850428128,-0.4842454521,0.7870685377,0.861412744,-0.4871365676,0.4974674194,0.4391887852,-0.2285011182,0.5347789923,-0.2355389911,-0.5261094059,0.8195393473,0.0983312053,-0.420364383,-0.5314606129,0.2818508148,1.5379538167,1.6331557612,0.1640029943,-0.3066840136,0.3975901712,-0.3343679763,0.0789658421,-1.183974393,-0.8152548085,-0.5975977802,0.7027634609,-0.1168293659,0.4757851539,0.669034227,0.1158503382,1.0505301675,-0.6147903081,-1.1146155101,-1.0693380956,-1.1614146996,0.0539475067,-0.2054778873,-0.2431459581,-0.5250006618,-0.4565846867,-0.4824537604,-1.0925802829,-0.7412683053,0.1489220413,0.1075397655,1.1673081792,0.3845296956,0.7241994878,-0.4236780618,-0.64797966,0.9084674615,0.3375544712,-0.2278102343,0.9969362709,0.4882676117,0.2975645208,0.3124778178,-0.3797235918,-0.4469585746,0.1237215859,-0.1581407145,1.0776648774,0.3632568004,0.3567003052,0.44272528,-0.1517308142,0.4004393406,-0.3334222675,0.2473341352,-0.2726939208,0.3905229727,0.7211826581,-0.4340635742,-0.2407719218,-0.5299987556,0.4799057995,0.6595503258,-0.2475667008,-0.8417052414,-0.4596063464,-0.3076665915,0.3665587573,-0.0218772224,0.1538972931,0.627953131,-1.0942137806,0.3854898552,1.0044718297,0.1638735411,0.1689961524,-0.0467748556,0.019968347,0.6618069337,0.2224170196,0.1599679211,-0.1074559721,-0.3757809155,-0.8170511075,-1.0505438225,-0.5265873652,-0.7670791658,0.3770621192,-0.6577058322,-0.6510084317,-0.527858004,-1.05235833,0.0084078544,-1.0551286662,-0.5597359954,0.1223837318,-0.6502920057,-0.2903136606,0.8008799631,-0.4332132866,1.0719251931,0.1267480401,-0.0899018485,-0.8558771258,0.5224364976,0.747509074,0.4569527749,-0.2287434339,0.0227162786,-0.9261625305,0.3519258598,1.0073564599,-0.8852788022,0.2431743985,1.1525336836,0.285408112,-0.1788866606,0.7370755408,-0.5168983916,0.3743747723,0.5109630446,-0.9801804859,0.7661092454,0.6053985012,-0.3785499564,-0.1475948977,0.6021596506,0.1853348739,0.0513302821,-0.7141874334,0.7778198778,0.3898574609,0.0960056279,-0.7453842345,-0.5580686331,-0.3339182004,-0.4505247664,0.6152243138,-0.9941548579,-0.5251767379,0.4163252793,0.4158967617,-0.776100436,0.5472883273,-0.4833993807,0.2287981852,-0.0357534886,-0.2201581128,0.7442180115,0.3397503641,1.0650373131,0.4885914782,0.7650017741,-0.4526731033,0.0164324822,-0.9663755906,0.4134900226,-0.4814366897,0.6670357145,-0.4627908276,0.1685520142,-1.3340680435,0.0767435887,1.2066051988,0.3244149242,0.0689214186,-0.8939418088,-1.4674121524,-0.4568230542,-0.1738290678,-0.8634699695,0.9996613636,0.8538975291,-0.2889877739,-0.2962781217,0.5901319924,-0.5858049713,0.8155698113,0.5855173053,0.4433129814,-0.5153002647,-0.5591812537,-0.286620042,-0.548180482,0.3206029378,-0.3279708146,-0.0215525664,-0.7961632532,1.0613196859,0.3019857429,0.6341262945,0.1349891148,-0.9972886711,0.267582398,-0.1789827955,-0.8819611251,-0.4404951,0.2724897619,0.3504626081,1.0222298778,0.3239965203,-0.9435284708,-1.4146902484,0.0882564466,0.6512966442,0.5199443887,-0.1417710012,-0.6286732433,0.3133825561,0.1806927069,-0.2341310731,-0.1176494806,-0.5723011746,1.2548007539,-0.4654324255,0.7492293594,0.9857828647,-0.219766346,-0.9930088119,0.0743703084,-0.1474413909,0.5231382323,-0.4653456375,-0.9969763916,0.3496149612,-0.5635203848,-0.8980170952,-0.2151577182,-0.5348256493,-0.7426732221,0.4727942065,-0.8905156591,-0.1576275871,-0.4191080732,0.8423506862,-0.158400482,-0.2129570682,0.4328814993,0.2781705542,0.5556260307,0.6649543995,-0.695743796,0.4079518187,0.9760436773,0.6560666278,0.3422866475,0.4103044757,0.0158037925,0.1617637873,0.4852842971,-0.2916077488,0.013740972,0.1398102814,0.9060210688,-0.9758740216,0.7424174937,-0.6662163657,-0.4589366921,-0.1123384043,-0.537504648,0.7543380837,0.2251554168,-0.7089696893,0.2696752653,0.0742710759,0.5197290165,0.8583535429,0.9446541745,0.0324426239,-0.3897738609,-0.3081998162,0.1266968032,-0.2587858069,1.1007222882,0.4620636977,0.4304415833,-0.665144687,1.4909040928,-0.223340432,-0.9951430747,0.1327397778,0.7419119066,0.2233286226,0.6209012591,-0.0349169739,0.3139734374,-1.1089237465,-0.4454746118,0.6572040132,-0.7072899064,0.6714104552,-0.5590360048,-0.5335855693,0.5789519449,-0.8492053119,-0.5534096776,-0.3515153192,0.6016547196,0.4890145651,-0.0980543406,0.2401864636,-0.0492444142,-1.031048568,-0.1430901962,0.5387815598,0.811612123,0.5626110884,-0.4106923528,-0.55076501,0.5924695255,0.1832770343,-0.8253533435,-0.1488868474,0.5767531669,-0.0354880069,0.7966726758,0.8873566819,0.2617998373,-0.6988203218,-0.5121841613,0.1563353972,0.5792159339,-0.3517626851,0.9512789588,-0.4029734931,-0.9078082692,0.2657244238,0.620971256,0.7688005367,-0.337372133,0.8091065146,0.4077237531,0.7010468034,0.5083383047,-0.5063683324,0.8797211401,-0.9619520695,-1.1177000424,0.2160837819,-0.6094436634,-1.030222741,-0.8950168847,-0.3333730256,-0.0366101581,-0.4103414634,0.2857601273,0.2987461592,-0.3606071351,0.906969447,0.6474605927,-0.9410790339,-0.0056541415,-0.0693456692,-0.2849780311,-0.4878849462,0.2427581802,0.1121206007,0.1329319109,0.4031010181,0.4663465932,0.5701944772,0.7293879992,0.1447052034,0.8589101907,-0.8622069857,1.1575772833,-0.4626027778,0.178030359,0.0309848859,-0.3849338056,0.3292900137,-0.5536251488,-0.4563275809,0.095601129,-0.0300425982,0.3356118074,-1.2172715279,-0.7041427741,-1.1098331295,-0.9447079573,0.0831718206,-0.1732081229,0.7441647527,0.6741195625,0.0284952087,0.1415898514,0.7099836922,-0.0650829062,0.141429445,0.2433316778,0.4838082316,0.6477626005,-0.0934821339,0.1801322901,-0.3959812817,-0.2410357525,0.927593337,-0.4868979994,-0.7525997844,-0.460385977,0.6185569103,0.0532461079,0.1787149242,0.9238125539,0.2490184847,-0.5598106273,-0.5759309275,-1.3728551725,-0.0374524875,0.7879198737,-0.1053670717,-0.491954821,-0.183898976,-1.0666144985,-0.8213271113,0.5007665469,0.7027888643,0.2678727458,0.559709874,0.0333975011,-0.6312212132,0.1268333776,0.7880249336,-1.1252083151,-0.2496986144,0.3243461989,0.1049081852,0.3793186418,0.3927373305,0.2084482831,0.6219564627,0.1723662221,-0.4454615678,-0.9143026125,-0.0611783065,0.1591579667,-0.3986036277,-0.0408419073,-0.9179081108,-0.6663505411,0.2920833475,-0.6233258035,-0.5691860217,-0.2453687068,-0.9806374145,0.0098260237,0.7984947031,-0.3115050922,-0.3751740192,-0.0561294519,-0.0700557121,-0.0049106214,-0.7490175115,-0.2137826833,-0.4075294316,0.4162753148,0.448747109,0.951303393,-0.8631760899,-0.9020685896,0.3611240407,-0.7414937536,0.922569279,-0.4609886004,-0.035902335,0.7873546992,0.2743613395,-0.680587989,0.8888031361,-0.6976823471,0.9882810784,0.3455040609,0.9101004414,-0.0971540906,-0.4287263204,-0.3926994528,0.9152845801,-0.2763739956,0.1655356735,-0.5297310506,0.0795686749,-0.7005139052,-0.0339831482,0.6955514875,0.8342964437,-0.049652786,0.8792625415,0.616100493,-0.1559746761,0.4739004193,-0.5696715062,-0.5481109543,-0.4791623281,-0.1548261065,0.1886952948,0.0306830736,-0.0205675986,-0.7123946478,0.6951920513,-0.3608369576,-0.1202259664,-0.720057597,-0.7346369153,-0.7662644077,-0.5849502655,-0.1245799847,-0.0471696421,-0.4316023678,-0.8299607993,-0.4000416585,-0.0856397104,-0.5743035015,0.5951926775,0.0795225238,-0.7384484864,-1.4784243643,-0.8921634407,-0.1078073429,0.5233711291,1.082359959,0.1727580983,0.7612873479,-1.1264301304,0.0882514936,0.6624875368,-0.9823913672,-0.1278190491,-0.1901790502,0.4345748657,0.2393697549,-1.2615281137,0.8289602386,0.8397065744,-0.3602905126,-0.7864111321,-0.5529890554,-0.2179970375,-0.5756476078,0.9721059517,-1.2664194156,0.588548341,1.1447992348,0.8116231367,0.685850072,1.2830917876,0.6957860548,-0.1464462517,0.5017823803,0.4648841225,-0.0973730965,0.3302780554,0.1352085827,0.0651301391,-0.4786651569,-0.6814505393,0.5782205672,-0.1787341243,-0.1477097706,0.2884071502,0.359298353,-0.2616726486,0.0794852983,-1.032124866,-0.6362256502,0.1587635869,0.6810654242,0.8091116784,-1.247476737,-1.3287375187,0.0113651243,-0.7967377069,0.8724679483,0.9606883414,-0.6334883069,-0.0821644293,-0.0713287157,0.3244057275,0.6391262943,0.7485482246,-0.6323345314,0.2408440515,-0.3541815567,0.5425600479,0.7234338069,0.0553656303,0.4985562214,-0.015825017,-1.0731896085,-0.4636292896,-0.7574351603,-0.3120589668,-0.1691938938,0.0858485379,-0.8190941027,0.4304363818,-0.8902140982,-0.3880234453,0.4969914337,-0.6332033377,-0.5414163279,0.8653893286,0.0195019895,0.3060606182,-0.3704860935,0.5952699578,0.3628919271,0.5963212559,-0.5441617293,-1.1190877266,-0.5978671972,-0.3481785225,-0.672352211,0.615599752,-0.4926760307,0.1409423832,0.5049980507,-0.7854921773,0.728263012,-0.2902273607,-0.8236231763,-0.7500442224,0.8851536578,-0.4579403255,-0.0159498584,0.3825239539,-0.3077268945,0.9295578381,0.4927789084,0.8287809436,-0.8080119645,0.3796123135,-0.2987895425,-0.6942848917,0.2307841929,-0.6191778283,-0.536146158,-0.2781762792,0.1676076796,0.8596172299,0.0658143002,-0.8941510938,-0.0747909083,1.0353834536,1.1476785948,-0.6647026613,0.580049583,0.4011689153,0.8617786929,0.1682561739,-0.5614557164,0.417779807,0.2263979062,0.7919844019,0.5150157043,1.1324715363,0.5655058449,0.4981992379,0.6400119073,-0.0329774751,0.1589860675,0.7741090619,-0.7054212353,-0.1560567521,-0.6184802671,-0.2697611828,0.4878580651,-0.4625026553,0.0602367022,0.7701295738,-0.2058254362,-0.9868637738,0.2090349285,-0.1239901623,0.5989507489,-0.3194813649,-0.9306274149,-0.4245735083,0.9460361437,-0.3054451525,-0.3606277454,0.6386650026,0.9532201257,-0.6592694926,-0.5700482698,0.5469280128,-0.0137322974,0.1472941224,-0.0777008917,-0.0653350525,0.7981826329,0.4383136925,-0.6317991136,0.0842472698,0.2756177822,0.1390901968,-0.1179589595,-0.7147424223,-0.7481757932,0.0382264677,0.5691067825,-0.6550022714,-0.5585196852,0.1819452512,0.7388346872,-0.4658607341,0.3001148038,-0.1412091615,-0.3923173174,0.1061329337,-0.218204572,0.3928512544,0.3383113372,-0.8260439825,0.1456966443,0.000865542,0.2044919501,0.8274939122,-0.5396977136,-0.012920629,-1.037814354,-0.177269315,-0.4435628684,-0.6042594207,-0.0511891968,0.1799648288,0.9841589513,-0.4177513745,-0.6666037796,-0.6736708023,-0.9088498802,-0.3175378913,-0.0954794141,-0.6104101642,-0.2030847154,-0.1013819414,0.5405205722,0.4567074461,0.8538469503,-0.4581347842,-0.7519934048,-0.4152301695,0.7846070924,-0.2905975809,0.2362718819,0.8423270162,0.410460088,-0.5767410299,0.4198079322,0.9439562728,0.3591252916,0.1321896764,1.0400747804,0.0108439358,-0.9885408691,0.6771273755,-1.3157893877,1.0582836892,-0.1136415822,0.2622270606,0.1647118648,0.8896009692,0.4093830643,-1.1021370519,-0.8131198673,-0.3210167891,-0.2164488591,-0.5561164449,0.6708771838,-0.2338492749,-0.035247353,-0.024722153,0.4492962911,0.3601749312,-0.008754535,0.0056131146,0.5703098133,0.4313738871,-0.3736535113,1.002811092,0.9329613162,1.2770109523,-0.7664646856,0.3747103764,0.6837037944,0.203411179,0.3760601372,0.3832549737,-0.0139165522,-1.0654785159,-0.7343020003,-0.7601199741,0.8755205733,0.9971560014,0.6073574731,0.5091569244,-0.1747615459,0.0580102699,-0.0549934209,-0.9513754021,0.6466855902,-0.10985287,0.4741604772,-0.4612403508,0.1121145405,0.7442482307,0.4416351193,-0.4218574188,-0.2046720036,-0.0745058309,-0.1069523089,0.354704611,0.2145948076,1.6793269658,0.3223723333,0.7379076554,-0.5381283968,0.0368622037,-0.1797047467,0.4089808244,-0.423730656,0.8717257029,1.2086230042,-2.0319269439,-1.4322899613,-0.8141721228,0.4332983991,-0.4525724326,-0.5398517057,0.3263395823,0.3019018836,-0.0110781586,-0.6548310068,-1.4274119035,0.142047138,-0.4018262204,0.3891335522,0.299581035,0.230414593,-0.2037755278,-0.0151120208,-0.010277176,-0.5390096529,0.0867259392,-0.3947557362,-0.1083916811,0.3193285524,-0.2579623005,0.2588047633,-0.0740658163,-0.0758160308,0.5558606749,1.3193170529,-0.083479568,0.1283899272,0.1810194996,-0.5311004511,0.5858847064,0.649144659,-0.4506778425,-1.0500120231,-0.2405428711,-0.228023048,0.1207129836,-0.2596828548,1.0221506031,0.556330103,0.3542182014,0.8170242598,0.1041644261,-0.7577631617,-0.9027301929,0.550302108,0.3802609603,0.4949034075,0.4502525782,-0.519657346,0.4881119841,-1.1006114605,-0.5324219025,-1.6972711473,-1.0629319564,0.4199873098,1.144493464,0.9021333504,-0.0601763953,0.1025385157,0.6767636645,-0.0804620675,-0.7608854207,-1.223579484,-0.3725328658,0.6145036348,-0.1471950842,1.1212527026,-0.2695675484,-0.0752244426,-0.627410863,0.267477506,0.2545066941,0.5683032093,-0.7289557657,0.0089983769,-0.462436104,0.1913345554,0.6574946311,-0.5508524565,0.1635596227,1.0035604154,0.1182563508,0.582317093,-0.4023358826,-0.269749221,-0.2824561636,-0.9036307427,0.9881469332,0.5192218293,0.0080026561,-0.5158949439,0.5278277288,-0.2853131581,-0.6793439811,0.195331116,-0.9364041524,0.5343949981,0.0308231516,-0.1447831155,-0.857388672,-0.1311287061,-0.4099933751,0.2446854078,0.5539478249,-1.0121421966,-0.4556356824,0.1237334494,0.5789556766,-0.8345693873,-0.5428354629,-0.6350020509,-0.6456092625,-0.0811727773,-0.8576000002,0.3651878454,-0.2794242487,0.2373405653,0.7886638956,-0.7561295148,-0.6589857494,0.017927974,-0.6850619898,0.5781156364,0.053906658,-0.2110192476,-0.656566739,-0.9355713867,-0.677088185,0.4113269887,-0.9902277327,0.6464062765,-0.4097145169,-0.0812140241,-0.379546951,-0.0263805805,-0.2671083435,-0.331472991,0.3795903335,0.8003808382,-0.4593252956,0.7239282793,0.4580039923,0.5778347511,-0.0806619298,0.4851342561,0.3432348971,0.9326158899,1.0055520104,-0.9021457802,-0.2526018648,-0.5522614063,0.9324745407,0.4741360197,-0.7798759282,-0.6718277141,-0.3710915346,0.1983116913,-0.8615558191,0.0690532131,0.9579766178,0.9682601888,-0.261172139,0.3236903129,-0.7190365888,0.4450129463,-0.2000754696,-0.2300116382,-0.1580523901,0.2995601789,0.5436861711,-0.3664498744,0.1197479059,-0.6209713169,0.5588764905,-0.5973788178,0.1817825941,0.3497445558,0.0213965108,0.4967772677,0.3722280428,0.3833256085,-0.7140711908,0.5614878301,-0.82311526,-0.55288054,0.8391769621,-0.2451255494,0.4579656468,-0.256417755,0.9534385142,-0.4892771042,0.9350482604,-0.0297868951,-0.6020445894,-0.377214336,0.8657797515,0.6965497524,-0.055868194,0.0580185508,-0.941555188,0.3277658526,0.0802846285,0.076794817,-0.3841221163,-0.128092037,-0.3139722201,-0.6160017496,0.3782170805,0.1592681921,-0.4244037486,0.044255521,-0.9514342412,-0.0521231255,-1.0016015635,0.189193193,-0.3570456986,-0.1522155264,0.5425069802,0.7500519766,-0.4018167388,-0.905979083,-0.9438979705,0.7447783943,-0.5655962414,1.1625659749,1.344961193,0.9721502274,0.8372376356,-0.2584107435,0.654741176,-0.1302301782,-0.4692400039,-0.7090270935,1.0499046581,-0.0470147729,1.0126402695,-0.3259043014,-0.5417160067,-0.3955157474,-1.2636835863,-0.3328194317,-0.2217177272,-1.0753671682,-0.4422966137,0.9350382612,0.388860207,0.5146118209,0.6389840937,0.4958028999,0.6121952408,-0.6166460923,-0.4629514157,0.5389709252,0.2551730287,-0.5449769462,-0.5516443616,0.1974951819,0.9034740486,-0.6139733042,-1.1491084484,0.9561898321,0.8343999573,-1.0853504357,0.59732209,-0.5824092459,0.4051961602,0.8072378739,0.6416425918,-0.6278328715,0.5342742552,-0.6647982695,0.5759185475,-0.3179579926,1.1067307309,-0.383505045,-0.1145023252,-0.627770994,-0.2223200056,-0.1499523376,0.8877755514,-1.0375865184,-0.0560038501,-1.3160042704,-0.185305077,0.3314539288,1.2128753742,0.5829726081,0.6059675092,1.3314545768,0.1475641667,-0.1265377069,0.7065535393,-0.1514672403,0.7545626647,1.0033372726,-0.6991427186,0.148619392,0.278785662,0.2544093181,0.5825661419,-0.3638495597,-0.8896582536,0.2539332438,0.4111515691,-1.3077116633,-1.3316019401,0.6568429854,0.3157517286,-0.2125628692,-0.75740755,-0.40718661,0.0626224048,0.0634740355,-0.6871934064,0.4416148712,-0.7541759174,0.5484831774,-0.9380562921,0.8109208347,-0.6584853039,0.783817161
   -0.486571706,0.7319962052,0.6980110166,0.6567161079,-0.8819299524,0.7285870156,0.2460470273,-0.4677550762,0.7302715853,0.8998667026,0.8987460538,0.5754049779,-0.0617921612,-0.7830506455,0.3207945294,-0.842525665,0.9407967075,-0.8987602116,-0.777894814,0.9499531515,-0.8473633662,-0.4307111169,-0.5524058053,-0.0524474409,-0.8165743702,0.1801284028,0.2206429971,0.9975035766,0.0468559518,0.4538202668,0.3547026789,0.1150981166,-0.537785624,-0.0797917813,0.5219364601,0.3402580795,0.0651445833,0.7988592971,0.3559841728,0.0274334725,-0.4655028263,-0.7701249268,-0.6767642009,0.7514839922,0.0580049823,-0.2270833094,0.1007010387,-0.2020915002,-0.1338964514,0.0127871722,0.3614578752,0.9637635349,-0.9905290379,-0.1603258672,-0.3596582771,-0.2559951127,-0.6396534982,0.3828538754,0.4112515,-0.3234530966,0.5618304778,-1.0837596692,0.2512057665,0.4751461884,0.8497956687,-0.3130690859,0.3925966147,-0.3969589262,0.149565151,0.3161440002,-0.0465375315,-0.4124521689,-0.0833729074,-0.5205005163,-0.4292974649,-0.7317982142,0.5199907625,0.5993076715,-1.0872918262,-0.4031416017,-0.4162128026,0.6155967037,-0.9143362785,1.0457956937,0.0932030263,-0.7607723908,0.6564067282,-0.0376780536,-0.1053987475,-0.9610751986,-0.1259455765,0.6477865665,-0.0585998249,0.1717815873,-0.0534867359,-0.4914421589,0.5523850154,-0.9843150327,-0.5750596887,1.1767959093,-0.2077544393,0.4297525719,0.9592877652,0.2813717319,0.3368985464,0.0719895993,0.952066517,-0.7334044186,0.1600450665,0.9539376814,0.321684375,0.5208806012,0.2261801184,-0.7460809174,-0.1741376062,0.4174820973,0.3414382019,0.1565328409,0.0936192363,0.4998732976,-0.5456470231,-0.1975790895,-0.6457153558,-1.1656496493,-0.8247665161,-0.1455798343,-0.3558972421,0.2001916072,-0.540173903,-0.4915956629,0.2952286906,-1.4733559937,0.9267438707,1.2724736292,0.0754926941,0.3292083146,-0.2068366044,0.0375689445,-0.9119456334,-1.2545991886,0.5444165108,0.7562624245,0.4174124597,0.1939145027,0.3750257451,0.5609507837,1.7902087727,0.420379131,-0.1738964428,-0.7634620268,-0.484877509,-1.0391343064,-0.8045259402,1.3216594,-0.295796335,0.294630372,0.0914923839,-0.2747619706,-0.3064066546,-0.5335351445,0.7000862304,1.3410689587,-0.0779929184,-0.5932097952,-0.6645964908,0.2558266858,-0.9798344951,1.0528407405,0.1961021806,-0.5019584692,0.9958561508,0.2714668493,0.0955734188,0.5851331461,-0.2832547137,0.2268326965,-0.3061665089,0.8170406568,-0.5092217196,-0.0572835227,-0.1832643573,0.870749844,-0.1489370695,-0.8012568453,-0.5404270946,0.3086588863,0.0042648767,0.2306216916,-0.2534180774,0.6847398281,1.0310369585,-0.9080509539,1.2524218712,-0.0485098007,0.3658390903,-0.496839804,-0.9290082059,0.7045974499,-0.0924436165,0.6967892373,0.1361822046,1.0340937857,0.7617867233,0.119227682,-0.4865692593,0.3701712457,-0.2429595032,-0.758489407,-0.9603442857,0.0598783928,0.631410249,-0.0764813018,0.7976057854,-0.647686316,-0.3660427876,0.1861196167,0.4989919369,-0.0714493223,-0.6388968653,-1.0498589557,0.4796073438,0.4533916161,1.0289449062,0.2591207865,0.5534312045,0.0115041296,0.1235995738,-0.3829600823,0.2613320693,-0.5602114532,-0.8390404392,0.8544531672,-0.5553172938,1.0527202904,-0.0525812168,0.3228058109,-0.7073569429,-0.0622839172,0.3458349513,0.2896508903,-0.7052644304,-0.4947686831,-0.3523749316,0.8167031387,0.4171030751,-0.178146312,0.5518905062,-0.8832489336,0.8256964245,-0.6672787753,-0.8140853796,-0.727815717,-0.3826949793,0.6253223646,-0.4409872823,0.7328983773,0.8112812088,-0.1426935661,-0.2529336345,-0.6314780684,-0.3078363453,0.3588383053,-0.4009464937,0.769177397,0.6072259988,0.0836114335,-0.9632402471,-0.520021955,0.4517806866,0.3557699405,0.308360845,0.8597333158,-1.0253648822,0.7069948988,0.3264282741,-0.250464038,0.688425639,0.3299278358,0.0391001392,-0.8106012789,-0.413196656,0.6800454386,0.8036205157,-0.5044829986,0.4887632578,-0.4459232233,0.4725616933,-0.3290090583,0.3337362613,0.1370714529,0.3095876551,0.7411751167,0.7442009232,0.271974379,0.3692661928,0.7918329022,-0.7177081276,-0.3677133724,-0.2841898055,0.7275065492,0.6364013457,-0.170225407,-0.5577805503,0.1689514026,-0.5393713144,0.1760586488,1.0484386657,0.2856801707,-0.2851122781,0.4095338334,-0.0812246694,-0.8926651513,-0.0185116667,-0.6740578605,-0.5532077737,0.044710778,0.2854176114,-0.2693346082,-0.868997189,-0.5711532868,0.1896625646,0.7233037247,0.0376069763,-0.8226865036,1.0197391519,0.6455431623,0.45870466,-0.8990978757,0.8529939038,0.4212294975,-0.0571911259,-1.0256588751,0.3540613561,-0.4735630001,-0.2257216005,0.4959123655,-0.7620064766,-0.4431073048,0.1230212578,-0.564826004,0.3938862017,1.0450078342,0.2171353675,-0.1116158933,0.035156644,0.061994705,0.4001069928,0.0861711795,0.0022509556,0.6698335194,-0.8803060387,-0.4282411293,0.3554983593,1.0079941754,1.0413465328,-1.0608562516,-0.2375746728,0.8564191044,-0.0915155217,-0.3651516391,-0.299940546,-0.0005842627,-0.7268356134,0.4540868756,0.1287438095,0.1076450727,-0.1792949519,-0.2134734895,-0.1723277575,-0.390073741,0.547771666,-0.5666589809,0.1432000765,0.5532805765,-0.854697143,-0.9065554698,0.6999340836,0.6255900313,-0.1274776329,-0.0181703979,-0.1799641631,0.4852556577,0.735680736,-0.4305616699,0.3397742382,-0.5524592637,0.8607866258,0.5025236844,-0.978248576,-0.8271098152,0.9406744679,0.8787808843,0.233065548,-0.121723437,0.7936908283,-0.6539790729,-0.3767207807,-0.651232985,0.1823455641,0.4467576485,-1.1320337257,0.086199766,0.7949897248,-0.503551255,0.4788375305,0.6203350079,0.2645615706,-0.2332239541,0.5509049517,-0.0372365619,0.8531819588,-0.8610717447,1.1844979322,0.0324224219,-0.7420418923,-0.6503931316,0.4496949322,-0.2355751645,0.7703161179,-0.0632229127,-0.9189508548,0.0911510883,0.0294128471,-0.7076339782,-0.7097245899,0.5108328317,-0.0959608566,0.296999868,0.1774290307,0.7673947573,0.1473157429,-1.333061911,0.6919264132,0.0565568013,-0.4135704089,-1.1435265856,0.4610600082,-0.3802102728,0.249766677,-0.1070343326,-0.4898193121,-0.619613395,-0.3880291249,-0.317193182,-0.0706449616,0.5461899959,-0.5981311176,0.4943637642,0.8335290978,-0.5075195121,0.7308867537,-0.4507537054,-0.3396492662,-0.0163067379,1.2092183041,0.1070535187,-0.7795563403,-0.1280862901,-0.8699056418,-0.8943834687,-0.0052037266,0.4964645449,-0.8234688355,-0.6079198819,-0.5086273133,1.1901352403,-0.1945776539,0.6689428197,-0.9653953599,-0.4084343798,-0.1537200291,-0.2045676507,0.2944358124,-0.6423121033,0.5128502925,0.5612862097,-0.0084386555,-0.0831533246,0.3742512989,-0.3435561744,-0.051372803,0.1898683004,0.0776785366,0.8627218983,-0.4008963365,0.9885441738,0.4897067505,0.4141032551,0.8028479527,0.0910631087,-0.8054839899,0.7660629574,0.3748310049,0.7849972861,0.33055289,0.7942846255,0.9158999577,0.7430325734,0.584615911,0.2908040579,-0.2985862965,-0.4730164037,-0.9712829194,-0.2205883198,0.1378518715,0.3317888626,-0.5501447192,0.8017472028,0.1887812556,-0.9334728966,-0.0653493274,-0.593837003,-0.9141104159,-0.6314101617,0.4110319069,-0.2353089104,-0.2076915867,0.0083223479,1.1723749525,-0.5446838741,-0.8726747329,0.3613250605,-0.2487979278,0.9486670771,0.0495008952,0.369613835,0.0787772074,-0.7502788794,0.8105712591,0.2235237911,-0.7383528199,-0.1353486243,-1.1664442251,0.349234215,0.1138511278,-0.874405408,-0.8983867355,0.4553420251,-0.0918082842,-0.119138507,0.7301334848,0.5934450794,0.0595889422,-0.8216310401,0.2964768377,0.210799688,-0.4463312891,0.1770589293,-0.1083668527,0.1922421225,-0.6593043588,-0.2303768598,0.4509846316,0.1096330309,-0.2318703188,-0.3669931015,-0.7791966333,0.6810627625,0.4061333808,0.1505181377,0.4807858742,-0.9916808332,-0.623556297,0.394034437,-0.4690731882,0.9196511519,-0.1129094436,-0.6700485246,-1.2523151327,-0.5124881157,0.6573971142,0.5012020738,0.3464137123,-0.2920773481,-0.5579495275,-0.3652423011,1.3172005372,0.8914007967,-0.880845831,-0.5597039716,-0.9303607048,-0.5006325278,0.2342951634,-0.8490915221,0.2518382633,0.5854448414,0.2964199891,0.0985595368,-0.1502178143,-0.6918709736,0.1839686714,-0.1841284394,0.935257686,-0.5431997289,0.5311612207,0.2583236126,-0.2018970691,0.8024943366,-0.221400802,-0.9266748877,0.238540441,-0.1956091241,-0.2252155734,0.1840620745,-1.2353486566,0.5913905013,0.175814654,-0.6326315758,-0.565227778,0.8331113628,-0.3217010059,0.0312492593,0.2200633586,0.4788002874,-0.7668857924,-0.6479824359,0.6585974317,0.635896427,0.8672624764,-0.6203121196,-0.1894544927,0.2798138629,-0.8564679903,-1.0107071473,0.5539181565,-1.1580291721,-0.1235779144,-0.245750481,-0.9346210677,-0.716326438,0.0813759442,0.8027788193,0.1601071589,-0.9176637251,-0.2101031379,0.3504970672,0.6714390055,0.4804235705,0.2295453148,-0.7035422345,1.0917885116,1.065664912,-0.6001101439,0.8308299106,-0.2320016636,0.5879066526,1.1204061385,-0.3400814422,-0.3207155907,-0.5337619043,-0.5021497224,0.3082090799,0.2594589178,-0.8870528253,-0.641825022,0.3615287689,-0.066894194,0.5950922999,0.3929974348,0.7457904497,0.7580796113,-0.3762273428,0.6660115163,0.8408338325,1.2871902665,-0.8670966186,-0.7733407436,0.39868721,0.1788417147,-0.5173968456,-0.103421101,-0.7900905929,0.2073734409,-0.715212627,-0.8411931701,0.4497651887,0.6808085038,-0.2403837625,0.5176701282,0.7336385003,0.796341719,-0.0239175146,0.412079337,0.6286450719,0.1893794981,-0.5724636924,-0.7324462934,0.6217164852,0.6381106928,0.5312120284,0.9200302902,0.6958812521,-0.2963281548,0.0126918754,-0.7598591669,0.1826228406,0.545770009,-0.1397782277,0.4951278809,-0.7787959517,-0.4693834991,-0.1591618365,-0.9068445333,0.468374234,-0.8333786875,0.6088194051,0.0958070442,0.2287377377,0.2658565029,0.0614428065,0.540662927,-0.8165392336,-0.8749756677,-1.0507516753,0.3298277471,-0.2503997181,0.1844334801,-0.8427581101,-0.1177131862,-0.07238151,0.3937167499,0.5412341819,0.3500257891,0.0463103501,0.4298670643,0.0797796582,-0.3802139379,-0.2021070827,0.6069696922,-0.4790824046,-0.7206034108,0.0128331843,0.9584996775,0.4625454251,-0.2168067837,-0.5814888885,-1.0155524892,0.7752456587,0.5452008981,-0.7339989701,0.0872798357,0.2137033928,-0.6303285815,0.7288500517,-0.9336397524,0.570888847,0.1097532722,0.7087460736,-0.7933618815,-0.9235172886,0.6098182738,-0.0160667351,0.907383485,-0.4975788587,-0.3265059633,-0.835796036,0.6294181793,-0.6083415379,-0.9252009474,-0.4802025456,0.7485921276,-0.3802498693,0.2850470892,-0.426430335,-0.3107730325,0.1537030043,0.4297121572,0.1657496833,-0.5554364998,0.8320713828,-0.8451378799,0.4470038665,0.0211356805,-0.857676555,-0.6010740213,0.2773041205,-0.7566710674,-0.1288450629,-0.0995754514,-0.4404453764,0.724305443,-1.026718371,-0.3250261909,-0.3806066977,-0.4085963344,-0.1550724546,0.0135853151,0.4154392454,-1.1574874513,0.3496171595,-0.5630622432,0.4291422067,-0.8944473888,0.5625261295,-0.0384820301,-0.0225501311,-0.6582345455,-0.657392768,-1.1201669844,0.3831820267,0.6598062788,0.4550429153,0.2295059656,0.6235512176,-0.1398336675,-0.5011717395,1.0720684807,-0.3836630828,-0.1727135762,-0.6965102606,0.5977646785,0.4932003205,0.6137963308,0.3127008437,-0.2519738542,-1.0429070688,0.0149574437,-0.6272017572,0.2362956705,0.5336462968,0.8348730289,-0.5640717083,-0.3015023511,0.2092734175,0.3744862977,0.2295620525,-0.5610357157,-1.0406330463,-0.9901489186,-0.4280374422,0.4029757995,0.2531635844,0.0817165938,0.6141152685,-0.003051568,-0.3777207088,-0.2965150009,-1.3694834656,-1.0300279013,0.6356261,-0.3939778424,-0.5761310013,0.8835924234,-0.3156804499,-0.3110191943,-0.8219621854,0.5824794107,-0.5385057834,-0.1452212572,-0.5475261414,-0.6935559544,1.0833262972,-0.3719190869,-0.3498901533,0.6068792806,-0.3835038836,0.2475519736,0.5336525353,0.8843694671,-0.5215055033,-0.5777275219,0.2100869358,0.5648154296,-0.9986945863,0.3627654325,0.4500516628,0.1027924047,0.6431459492,0.1021246612,0.1909500182,-0.1314253279,0.0219938586,0.2101460684,-0.0065942213,0.8707341793,1.1701844009,0.3461187123,0.0652449194,-0.8485146628,0.778334171,0.3506833249,0.1250305549,0.6308060752,1.1979013547,-0.7941748237,0.4557040534,0.7281630901,0.1152909865,-0.1671237269,0.4781967841,-0.521104203,-1.5597484094,-0.6618759527,-0.3035746913,-0.9218304896,-0.4208185958,-0.4120685742,1.1022811199,-0.8982732802,-0.8478055518,-0.5889421774,-0.0402638894,-0.6538170158,0.0998536537,1.0097881563,-0.817803704,-1.0294343369,0.4497256999,-0.564748426,0.095742634,0.7034820177,-0.8411787717,-0.526261945,-1.0991258946,-0.1126330436,-0.3801324832,0.3229497201,-0.6332869227,0.0119295131,0.6645215845,-0.0165141391,0.4774560793,-0.7911092614,0.6642425785,0.0389169423,-0.7214758483,-0.4118472763,-0.0429751866,-0.845251234,-0.0006691253,-0.0175166927,-0.6253113964,0.5867706417,0.3623787086,0.1881641602,-0.6685454991,0.4150145918,-0.5451363579,0.7267716335,0.5364537399,-0.2580474853,0.529846177,-0.6184669016,-0.6359516601,0.0847620676,-0.4144783462,0.4720443253,-0.0264135552,0.8811941081,-0.6858765795,0.3151648982,-0.4253035993,0.0257293339,0.8037266206,0.476804076,-0.3077399581,-0.1988720649,-0.7174443962,-0.2767860872,-0.6850254103,0.4332850351,0.1463895005,0.9198074459,0.3310162348,-0.2572281616,0.4800209662,-0.2113132235,-0.591558293,-0.8023770224,-0.8401065147,-0.6462234729,-0.1878517531,0.1093104084,0.0316826694,0.7150045978,-0.3523502667,-0.7710821724,0.7746434747,-0.9228037488,1.0789961515,0.0385885385,0.6721760852,-0.7982036389,0.3760603567,-0.5571100385,-0.0107037163,0.1796637607,0.4268160892,0.491680955,0.8327235049,0.688265561,-0.5659105602,-0.2040485069,0.6123065469,0.5088159278,0.1140563346,0.046725034,-0.9707776693,1.1194012682,0.2397275716,-1.027881189,0.5815132127,1.2441478964,0.9988457259,0.5530569848,0.8192380458,0.1374440192,-0.8277401801,-1.2156088597,0.5946053428,-0.7094168438,-0.2638501295,0.0059466885,-1.148320637,0.1621079505,0.3822927675,0.3996847502,0.7120961205,-1.1131676054,0.0503023123,0.6582947167,-0.5805962953,0.7142022531,-1.1121494541,0.6648731876,0.1915558184,-0.603564322,-0.9859820809,-1.1966998682,-0.5893002978,-1.032998499,0.3484266942,0.0175465647,-1.0984872973,-0.9106625909,-0.7640937517,-0.466469558,0.0814643562
##end
biasActivation=1,1,1
[BASIC:ACTIVATION]
"ActivationSigmoid"
"ActivationSigmoid"
"ActivationLinear"
